SVM-light Version V6.02
0 # kernel type
3 # kernel parameter -d 
1 # kernel parameter -g 
1 # kernel parameter -s 
1 # kernel parameter -r 
empty# kernel parameter -u 
35895 # highest feature index 
1800 # number of training documents 
1357 # number of support vectors plus 1 
0.078444201 # threshold b, each following line is a SV (starting with alpha*y)
-0.0020352441274834875972743475358584 158:1 309:1 867:1 1139:1 1228:1 1284:1 2107:1 2356:1 2592:1 2617:1 2652:1 3105:1 3316:1 3747:1 4078:1 4106:1 4428:1 4818:1 5081:1 6301:1 6337:1 7271:1 7347:1 7857:1 7873:1 7974:1 8828:1 9451:1 9926:1 10012:1 10056:1 10098:1 10632:1 10717:1 11341:1 11347:1 11520:1 11583:1 11833:1 12805:1 12828:1 13064:1 13210:1 13258:1 13277:1 13816:1 13996:1 14347:1 28749:1 28781:1 28782:1 28790:1 28801:1 28807:1 28812:1 28815:1 28818:1 28836:1 28840:1 28842:1 28883:1 28889:1 28904:1 28917:1 28921:1 28935:1 28952:1 28959:1 28963:1 28972:1 28976:1 28990:1 28991:1 28993:1 29019:1 29044:1 29049:1 29051:1 29052:1 29069:1 29076:1 29077:1 29093:1 29114:1 29126:1 29138:1 29151:1 29152:1 29178:1 29202:1 29203:1 29207:1 29225:1 29228:1 29233:1 29260:1 29269:1 29275:1 29276:1 29277:1 29315:1 29319:1 29322:1 29324:1 29327:1 29341:1 29348:1 29362:1 29370:1 29371:1 29384:1 29386:1 29387:1 29398:1 29411:1 29417:1 29437:1 29439:1 29444:1 29449:1 29469:1 29476:1 29483:1 29502:1 29504:1 29512:1 29514:1 29528:1 29555:1 29565:1 29584:1 29587:1 29590:1 29591:1 29592:1 29601:1 29624:1 29640:1 29657:1 29660:1 29664:1 29666:1 29667:1 29672:1 29675:1 29678:1 29684:1 29690:1 29698:1 29702:1 29732:1 29746:1 29759:1 29777:1 29790:1 29807:1 29813:1 29826:1 29840:1 29844:1 29852:1 29853:1 29859:1 29867:1 29868:1 29869:1 29894:1 29897:1 29921:1 29932:1 29934:1 29953:1 29978:1 29991:1 30001:1 30009:1 30013:1 30014:1 30017:1 30030:1 30031:1 30032:1 30038:1 30048:1 30063:1 30079:1 30108:1 30116:1 30122:1 30131:1 30144:1 30208:1 30212:1 30223:1 30232:1 30298:1 30299:1 30306:1 30318:1 30323:1 30335:1 30337:1 30366:1 30406:1 30410:1 30419:1 30429:1 30431:1 30448:1 30450:1 30474:1 30483:1 30486:1 30499:1 30502:1 30505:1 30524:1 30528:1 30543:1 30561:1 30562:1 30571:1 30575:1 30579:1 30589:1 30598:1 30621:1 30626:1 30630:1 30633:1 30662:1 30664:1 30672:1 30677:1 30686:1 30689:1 30702:1 30708:1 30711:1 30732:1 30756:1 30758:1 30760:1 30792:1 30800:1 30824:1 30829:1 30852:1 30855:1 30862:1 30876:1 30889:1 30894:1 30906:1 30938:1 30949:1 30960:1 31015:1 31017:1 31026:1 31028:1 31042:1 31047:1 31059:1 31061:1 31067:1 31068:1 31069:1 31073:1 31086:1 31090:1 31092:1 31095:1 31097:1 31101:1 31111:1 31114:1 31118:1 31121:1 31134:1 31137:1 31138:1 31145:1 31188:1 31190:1 31221:1 31224:1 31228:1 31230:1 31248:1 31250:1 31252:1 31265:1 31275:1 31293:1 31297:1 31314:1 31349:1 31353:1 31363:1 31380:1 31386:1 31405:1 31437:1 31463:1 31491:1 31492:1 31496:1 31504:1 31506:1 31513:1 31517:1 31545:1 31546:1 31563:1 31581:1 31603:1 31619:1 31637:1 31642:1 31647:1 31682:1 31697:1 31701:1 31704:1 31705:1 31706:1 31723:1 31731:1 31756:1 31767:1 31769:1 31780:1 31796:1 31819:1 31846:1 31853:1 31859:1 31874:1 31915:1 31937:1 31949:1 31956:1 31968:1 31970:1 31981:1 31993:1 31994:1 31997:1 32021:1 32043:1 32051:1 32061:1 32068:1 32069:1 32074:1 32076:1 32087:1 32097:1 32106:1 32107:1 32133:1 32143:1 32147:1 32160:1 32162:1 32164:1 32172:1 32181:1 32210:1 32246:1 32268:1 32271:1 32316:1 32323:1 32354:1 32357:1 32374:1 32376:1 32386:1 32389:1 32391:1 32403:1 32405:1 32407:1 32409:1 32421:1 32444:1 32469:1 32482:1 32483:1 32485:1 32521:1 32532:1 32536:1 32540:1 32580:1 32598:1 32599:1 32601:1 32602:1 32606:1 32608:1 32632:1 32641:1 32645:1 32650:1 32654:1 32725:1 32728:1 32761:1 32767:1 32769:1 32770:1 32775:1 32776:1 32782:1 32807:1 32833:1 32834:1 32852:1 32856:1 32879:1 32882:1 32883:1 32889:1 32892:1 32899:1 32903:1 32907:1 32916:1 32917:1 32918:1 32920:1 32924:1 32930:1 32932:1 32935:1 32940:1 32960:1 32977:1 33002:1 33013:1 33016:1 33026:1 33030:1 33035:1 33054:1 33078:1 33082:1 33083:1 33150:1 33165:1 33170:1 33183:1 33210:1 33217:1 33220:1 33224:1 33228:1 33247:1 33259:1 33267:1 33276:1 33281:1 33294:1 33301:1 33332:1 33348:1 33349:1 33358:1 33359:1 33361:1 33378:1 33392:1 33413:1 33414:1 33422:1 33426:1 33442:1 33459:1 33505:1 33509:1 33524:1 33527:1 33534:1 33539:1 33544:1 33556:1 33567:1 33583:1 33600:1 33611:1 33635:1 33653:1 33682:1 33692:1 33700:1 33703:1 33707:1 33732:1 33739:1 33740:1 33751:1 33762:1 33810:1 33814:1 33816:1 33855:1 33863:1 33865:1 33873:1 33876:1 33931:1 33945:1 33960:1 33973:1 33983:1 33988:1 34001:1 34023:1 34057:1 34064:1 34082:1 34095:1 34121:1 34125:1 34128:1 34142:1 34169:1 34172:1 34187:1 34209:1 34211:1 34215:1 34225:1 34238:1 34272:1 34282:1 34301:1 34316:1 34325:1 34356:1 34363:1 34366:1 34372:1 34382:1 34385:1 34399:1 34400:1 34418:1 34425:1 34431:1 34452:1 34454:1 34484:1 34496:1 34530:1 34542:1 34565:1 34568:1 34570:1 34580:1 34591:1 34592:1 34600:1 34631:1 34636:1 34669:1 34679:1 34685:1 34695:1 34729:1 34735:1 34744:1 34748:1 34749:1 34762:1 34770:1 34774:1 34776:1 34783:1 34789:1 34797:1 34820:1 34826:1 34829:1 34838:1 34856:1 34859:1 34868:1 34869:1 34875:1 34895:1 34909:1 34913:1 34918:1 34929:1 34953:1 34962:1 34979:1 34995:1 34999:1 35001:1 35009:1 35014:1 35034:1 35047:1 35054:1 35062:1 35066:1 35073:1 35081:1 35083:1 35085:1 35089:1 35097:1 35103:1 35104:1 35108:1 35130:1 35147:1 35176:1 35225:1 35226:1 35227:1 35238:1 35243:1 35267:1 35284:1 35289:1 35294:1 35307:1 35310:1 35321:1 35346:1 35453:1 35456:1 35459:1 35461:1 35467:1 35480:1 35499:1 35525:1 35534:1 35546:1 35550:1 35570:1 35578:1 35583:1 35592:1 35605:1 35616:1 35619:1 35637:1 35638:1 35640:1 35646:1 35648:1 35650:1 35661:1 35666:1 35690:1 35721:1 35732:1 35747:1 35755:1 35768:1 35793:1 35801:1 35803:1 35812:1 35858:1 35868:1 35880:1 #
-0.0012499088818831215284138602683583 661:1 950:1 2289:1 2524:1 2567:1 3305:1 3365:1 3912:1 4033:1 4558:1 4758:1 6587:1 7126:1 7187:1 7565:1 8284:1 8487:1 9125:1 9899:1 9930:1 10189:1 10280:1 10716:1 10731:1 10779:1 10987:1 11137:1 12258:1 12404:1 12440:1 12717:1 12740:1 13199:1 13805:1 14103:1 14115:1 14127:1 14354:1 28720:1 28792:1 28832:1 28840:1 28880:1 28935:1 28959:1 28990:1 28991:1 29011:1 29018:1 29049:1 29069:1 29076:1 29103:1 29120:1 29151:1 29153:1 29194:1 29203:1 29225:1 29249:1 29269:1 29341:1 29380:1 29398:1 29403:1 29419:1 29426:1 29449:1 29479:1 29504:1 29547:1 29555:1 29565:1 29590:1 29591:1 29624:1 29640:1 29643:1 29667:1 29678:1 29700:1 29715:1 29729:1 29732:1 29809:1 29859:1 29873:1 29894:1 29901:1 29914:1 29932:1 29941:1 29978:1 29991:1 30001:1 30002:1 30004:1 30013:1 30014:1 30048:1 30062:1 30065:1 30131:1 30144:1 30148:1 30152:1 30182:1 30240:1 30299:1 30321:1 30336:1 30394:1 30406:1 30410:1 30440:1 30450:1 30493:1 30519:1 30528:1 30556:1 30558:1 30569:1 30578:1 30598:1 30626:1 30627:1 30633:1 30640:1 30672:1 30677:1 30728:1 30739:1 30756:1 30760:1 30799:1 30824:1 30840:1 30889:1 30891:1 30892:1 30894:1 30925:1 30956:1 30960:1 30974:1 30975:1 30991:1 31017:1 31025:1 31028:1 31042:1 31045:1 31068:1 31069:1 31071:1 31086:1 31094:1 31097:1 31103:1 31108:1 31138:1 31145:1 31190:1 31231:1 31305:1 31350:1 31354:1 31360:1 31362:1 31380:1 31383:1 31390:1 31409:1 31454:1 31496:1 31504:1 31563:1 31582:1 31636:1 31663:1 31699:1 31701:1 31705:1 31732:1 31736:1 31767:1 31805:1 31829:1 31865:1 31893:1 31897:1 31902:1 31919:1 32026:1 32043:1 32051:1 32069:1 32097:1 32115:1 32146:1 32160:1 32210:1 32224:1 32246:1 32316:1 32321:1 32359:1 32366:1 32371:1 32387:1 32391:1 32403:1 32405:1 32406:1 32435:1 32474:1 32489:1 32503:1 32513:1 32514:1 32525:1 32532:1 32544:1 32549:1 32570:1 32588:1 32598:1 32599:1 32602:1 32608:1 32632:1 32643:1 32647:1 32653:1 32665:1 32670:1 32696:1 32706:1 32755:1 32761:1 32821:1 32855:1 32874:1 32877:1 32886:1 32899:1 32916:1 32920:1 32927:1 32932:1 33002:1 33013:1 33014:1 33035:1 33074:1 33078:1 33090:1 33164:1 33170:1 33178:1 33217:1 33232:1 33258:1 33301:1 33332:1 33370:1 33390:1 33414:1 33439:1 33453:1 33459:1 33462:1 33520:1 33522:1 33527:1 33590:1 33611:1 33621:1 33641:1 33686:1 33740:1 33758:1 33763:1 33779:1 33780:1 33791:1 33829:1 33873:1 33945:1 33960:1 33988:1 34001:1 34057:1 34058:1 34066:1 34082:1 34119:1 34125:1 34138:1 34187:1 34206:1 34211:1 34227:1 34234:1 34238:1 34282:1 34287:1 34298:1 34320:1 34339:1 34340:1 34381:1 34405:1 34425:1 34430:1 34501:1 34542:1 34570:1 34576:1 34627:1 34631:1 34686:1 34697:1 34762:1 34786:1 34789:1 34817:1 34820:1 34835:1 34868:1 34880:1 34929:1 34940:1 34973:1 34999:1 35001:1 35034:1 35062:1 35083:1 35089:1 35094:1 35098:1 35103:1 35150:1 35169:1 35175:1 35208:1 35226:1 35227:1 35228:1 35273:1 35284:1 35307:1 35450:1 35461:1 35546:1 35580:1 35614:1 35617:1 35619:1 35627:1 35640:1 35644:1 35653:1 35661:1 35666:1 35685:1 35690:1 35708:1 35755:1 35764:1 35776:1 35803:1 35843:1 35854:1 35878:1 35879:1 #
-0.0032254370001595167663510643762947 279:1 337:1 567:1 793:1 1434:1 2585:1 3741:1 4832:1 5602:1 5634:1 6916:1 7245:1 7523:1 8245:1 9743:1 10211:1 11432:1 11560:1 11970:1 12166:1 13562:1 14149:1 28726:1 28736:1 28778:1 28915:1 28935:1 28990:1 28991:1 29011:1 29014:1 29039:1 29049:1 29070:1 29076:1 29126:1 29151:1 29156:1 29174:1 29225:1 29228:1 29269:1 29275:1 29319:1 29341:1 29371:1 29376:1 29383:1 29386:1 29426:1 29444:1 29449:1 29483:1 29503:1 29510:1 29511:1 29515:1 29565:1 29590:1 29591:1 29592:1 29624:1 29650:1 29678:1 29759:1 29807:1 29859:1 29932:1 29978:1 29991:1 29999:1 30001:1 30002:1 30013:1 30021:1 30025:1 30056:1 30062:1 30089:1 30097:1 30122:1 30131:1 30144:1 30318:1 30328:1 30374:1 30395:1 30422:1 30562:1 30570:1 30598:1 30626:1 30633:1 30647:1 30693:1 30732:1 30756:1 30824:1 30832:1 30894:1 30919:1 30994:1 31000:1 31017:1 31026:1 31042:1 31044:1 31068:1 31069:1 31086:1 31097:1 31123:1 31132:1 31138:1 31190:1 31248:1 31295:1 31363:1 31380:1 31392:1 31492:1 31496:1 31567:1 31666:1 31668:1 31701:1 31718:1 31738:1 31744:1 31976:1 31987:1 32051:1 32076:1 32099:1 32160:1 32162:1 32171:1 32246:1 32323:1 32371:1 32405:1 32417:1 32462:1 32486:1 32496:1 32544:1 32598:1 32599:1 32602:1 32606:1 32613:1 32614:1 32632:1 32681:1 32727:1 32850:1 32852:1 32886:1 32903:1 32907:1 32918:1 32919:1 32920:1 32932:1 32935:1 32960:1 33002:1 33013:1 33078:1 33111:1 33150:1 33211:1 33217:1 33243:1 33281:1 33416:1 33443:1 33459:1 33462:1 33520:1 33603:1 33605:1 33651:1 33731:1 33798:1 33808:1 33925:1 33960:1 33988:1 34054:1 34057:1 34068:1 34125:1 34187:1 34301:1 34400:1 34444:1 34461:1 34484:1 34544:1 34561:1 34568:1 34606:1 34631:1 34635:1 34644:1 34782:1 34789:1 34822:1 34839:1 34995:1 34998:1 34999:1 35062:1 35085:1 35094:1 35103:1 35106:1 35130:1 35132:1 35190:1 35227:1 35284:1 35307:1 35514:1 35546:1 35589:1 35619:1 35640:1 35666:1 35704:1 35785:1 35812:1 35854:1 35880:1 #
-0.0032254370001595167663510643762947 2059:1 2253:1 2596:1 3275:1 4395:1 4452:1 4813:1 7002:1 7248:1 7964:1 8037:1 10060:1 10967:1 11076:1 14077:1 28750:1 28775:1 28807:1 28815:1 28818:1 28856:1 28889:1 28912:1 28935:1 28959:1 28961:1 28964:1 28972:1 28990:1 28991:1 29044:1 29047:1 29049:1 29076:1 29099:1 29117:1 29126:1 29136:1 29138:1 29146:1 29151:1 29214:1 29220:1 29225:1 29228:1 29261:1 29269:1 29275:1 29276:1 29325:1 29331:1 29341:1 29369:1 29384:1 29387:1 29398:1 29410:1 29444:1 29449:1 29476:1 29490:1 29503:1 29510:1 29515:1 29516:1 29545:1 29555:1 29565:1 29590:1 29591:1 29592:1 29595:1 29600:1 29602:1 29624:1 29647:1 29678:1 29712:1 29732:1 29749:1 29790:1 29838:1 29859:1 29896:1 29915:1 29978:1 29999:1 30001:1 30009:1 30013:1 30014:1 30110:1 30141:1 30166:1 30168:1 30173:1 30182:1 30188:1 30212:1 30232:1 30233:1 30240:1 30276:1 30335:1 30410:1 30419:1 30450:1 30519:1 30562:1 30573:1 30579:1 30627:1 30633:1 30649:1 30696:1 30723:1 30732:1 30743:1 30756:1 30783:1 30813:1 30814:1 30824:1 30878:1 30889:1 30892:1 30894:1 30903:1 30906:1 30918:1 30960:1 31015:1 31017:1 31026:1 31035:1 31042:1 31068:1 31078:1 31079:1 31082:1 31086:1 31101:1 31109:1 31128:1 31138:1 31166:1 31167:1 31190:1 31248:1 31260:1 31360:1 31362:1 31371:1 31392:1 31405:1 31426:1 31450:1 31460:1 31471:1 31496:1 31497:1 31513:1 31544:1 31545:1 31611:1 31616:1 31641:1 31668:1 31673:1 31679:1 31732:1 31767:1 31769:1 31786:1 31801:1 31834:1 31841:1 31846:1 31859:1 31869:1 31874:1 31901:1 31964:1 31970:1 32051:1 32064:1 32069:1 32153:1 32155:1 32157:1 32160:1 32162:1 32195:1 32210:1 32246:1 32268:1 32316:1 32333:1 32357:1 32376:1 32403:1 32405:1 32447:1 32450:1 32469:1 32472:1 32532:1 32547:1 32576:1 32598:1 32599:1 32602:1 32606:1 32608:1 32624:1 32631:1 32632:1 32641:1 32650:1 32696:1 32769:1 32775:1 32833:1 32842:1 32853:1 32861:1 32868:1 32869:1 32870:1 32879:1 32883:1 32913:1 32917:1 32918:1 32938:1 32941:1 32947:1 33002:1 33013:1 33078:1 33111:1 33123:1 33130:1 33150:1 33205:1 33217:1 33254:1 33333:1 33342:1 33412:1 33414:1 33425:1 33426:1 33436:1 33442:1 33476:1 33480:1 33498:1 33513:1 33524:1 33531:1 33556:1 33589:1 33600:1 33603:1 33605:1 33608:1 33611:1 33630:1 33632:1 33641:1 33646:1 33703:1 33717:1 33740:1 33749:1 33789:1 33873:1 33884:1 33930:1 33960:1 33983:1 33988:1 34019:1 34023:1 34057:1 34082:1 34135:1 34137:1 34187:1 34193:1 34201:1 34211:1 34218:1 34255:1 34280:1 34301:1 34320:1 34356:1 34372:1 34406:1 34425:1 34452:1 34570:1 34615:1 34631:1 34643:1 34674:1 34710:1 34711:1 34723:1 34736:1 34779:1 34789:1 34808:1 34843:1 34913:1 34918:1 34929:1 34995:1 34999:1 35001:1 35014:1 35057:1 35062:1 35081:1 35085:1 35103:1 35176:1 35219:1 35226:1 35227:1 35237:1 35241:1 35270:1 35284:1 35289:1 35307:1 35315:1 35363:1 35469:1 35513:1 35515:1 35546:1 35550:1 35573:1 35578:1 35612:1 35617:1 35619:1 35637:1 35639:1 35640:1 35661:1 35666:1 35721:1 35747:1 35755:1 35768:1 35780:1 35812:1 35836:1 35854:1 35858:1 35878:1 35881:1 #
-0.0032254370001595167663510643762947 922:1 2424:1 3834:1 5190:1 8652:1 11571:1 11792:1 11808:1 12759:1 28750:1 28807:1 28990:1 28993:1 29019:1 29076:1 29089:1 29153:1 29214:1 29225:1 29232:1 29322:1 29341:1 29504:1 29552:1 29565:1 29591:1 29592:1 29621:1 29624:1 29657:1 29678:1 29700:1 29715:1 29807:1 29813:1 29817:1 29849:1 29859:1 29873:1 30013:1 30031:1 30144:1 30208:1 30226:1 30318:1 30435:1 30450:1 30552:1 30598:1 30613:1 30614:1 30628:1 30633:1 30756:1 30824:1 30889:1 30892:1 30894:1 30924:1 30926:1 31017:1 31058:1 31068:1 31101:1 31138:1 31286:1 31349:1 31380:1 31496:1 31680:1 31699:1 31757:1 31822:1 31888:1 31909:1 31982:1 31987:1 32051:1 32132:1 32148:1 32210:1 32275:1 32288:1 32367:1 32374:1 32405:1 32472:1 32486:1 32490:1 32513:1 32598:1 32599:1 32602:1 32632:1 32643:1 32694:1 32802:1 32810:1 32833:1 32852:1 32920:1 32977:1 33024:1 33123:1 33201:1 33218:1 33219:1 33257:1 33275:1 33347:1 33373:1 33388:1 33459:1 33512:1 33521:1 33552:1 33635:1 33800:1 33814:1 33873:1 33882:1 33910:1 33960:1 33988:1 34054:1 34057:1 34082:1 34205:1 34218:1 34239:1 34307:1 34334:1 34370:1 34447:1 34452:1 34570:1 34583:1 34615:1 34616:1 34646:1 34770:1 34789:1 34827:1 34907:1 34915:1 34923:1 34999:1 35014:1 35057:1 35062:1 35205:1 35229:1 35234:1 35307:1 35469:1 35516:1 35546:1 35591:1 35612:1 35666:1 35755:1 35764:1 35812:1 35836:1 #
0.0029593029891125492703007893169342 3289:1 4215:1 5327:1 7140:1 7685:1 8129:1 9698:1 10143:1 12546:1 12642:1 12931:1 28741:1 28935:1 28945:1 28964:1 28990:1 28991:1 29024:1 29049:1 29076:1 29093:1 29104:1 29131:1 29138:1 29151:1 29214:1 29225:1 29228:1 29230:1 29261:1 29269:1 29324:1 29335:1 29341:1 29376:1 29386:1 29395:1 29437:1 29544:1 29548:1 29555:1 29565:1 29590:1 29591:1 29592:1 29616:1 29622:1 29624:1 29643:1 29678:1 29714:1 29749:1 29770:1 29807:1 29814:1 29859:1 29915:1 29933:1 29978:1 29981:1 29995:1 30053:1 30100:1 30116:1 30122:1 30132:1 30144:1 30145:1 30166:1 30222:1 30232:1 30240:1 30306:1 30410:1 30474:1 30478:1 30524:1 30528:1 30562:1 30573:1 30575:1 30576:1 30626:1 30627:1 30640:1 30689:1 30705:1 30732:1 30756:1 30799:1 30804:1 30824:1 30894:1 30934:1 30944:1 30994:1 31059:1 31068:1 31073:1 31138:1 31146:1 31160:1 31190:1 31217:1 31314:1 31418:1 31496:1 31504:1 31637:1 31668:1 31702:1 31796:1 31834:1 31846:1 31869:1 31970:1 31974:1 31999:1 32006:1 32021:1 32051:1 32061:1 32069:1 32087:1 32096:1 32156:1 32160:1 32205:1 32246:1 32268:1 32316:1 32323:1 32363:1 32383:1 32405:1 32407:1 32463:1 32485:1 32503:1 32532:1 32547:1 32598:1 32599:1 32602:1 32606:1 32608:1 32632:1 32650:1 32727:1 32755:1 32847:1 32852:1 32870:1 32883:1 32911:1 32927:1 32932:1 32935:1 32943:1 32977:1 32993:1 33013:1 33067:1 33098:1 33111:1 33113:1 33130:1 33150:1 33217:1 33220:1 33247:1 33257:1 33380:1 33418:1 33459:1 33540:1 33551:1 33556:1 33576:1 33598:1 33600:1 33603:1 33611:1 33722:1 33743:1 33762:1 33789:1 33846:1 33861:1 33873:1 33890:1 33944:1 33960:1 33978:1 33988:1 34001:1 34023:1 34054:1 34082:1 34137:1 34138:1 34187:1 34218:1 34301:1 34341:1 34356:1 34410:1 34426:1 34490:1 34546:1 34563:1 34584:1 34656:1 34692:1 34710:1 34748:1 34766:1 34788:1 34789:1 34868:1 34895:1 34913:1 34929:1 34962:1 34963:1 34995:1 34999:1 35017:1 35034:1 35062:1 35093:1 35096:1 35103:1 35107:1 35122:1 35135:1 35216:1 35225:1 35284:1 35289:1 35307:1 35419:1 35467:1 35488:1 35619:1 35637:1 35661:1 35666:1 35686:1 35690:1 35709:1 35747:1 35755:1 35768:1 35832:1 #
0.0032254370001595167663510643762947 1921:1 2040:1 2306:1 2457:1 2548:1 2585:1 2903:1 3226:1 3392:1 3492:1 3684:1 3754:1 3818:1 3918:1 3968:1 4281:1 4553:1 4838:1 5221:1 5848:1 5900:1 6049:1 6234:1 6344:1 6409:1 7292:1 7687:1 8323:1 9271:1 10287:1 10365:1 10580:1 10626:1 10736:1 11560:1 11829:1 12342:1 13449:1 13680:1 13888:1 28719:1 28736:1 28750:1 28776:1 28778:1 28829:1 28895:1 28935:1 28956:1 28964:1 28988:1 28990:1 28991:1 29043:1 29044:1 29049:1 29057:1 29076:1 29120:1 29138:1 29156:1 29214:1 29225:1 29269:1 29284:1 29286:1 29304:1 29313:1 29315:1 29341:1 29386:1 29469:1 29478:1 29503:1 29509:1 29510:1 29515:1 29520:1 29546:1 29549:1 29555:1 29565:1 29568:1 29590:1 29591:1 29624:1 29630:1 29645:1 29654:1 29660:1 29678:1 29732:1 29749:1 29753:1 29790:1 29809:1 29841:1 29852:1 29853:1 29859:1 29868:1 29951:1 29955:1 29978:1 29991:1 29998:1 30013:1 30014:1 30048:1 30053:1 30062:1 30097:1 30122:1 30139:1 30144:1 30166:1 30178:1 30187:1 30205:1 30327:1 30329:1 30361:1 30524:1 30539:1 30555:1 30562:1 30579:1 30598:1 30627:1 30633:1 30667:1 30672:1 30698:1 30699:1 30732:1 30739:1 30744:1 30777:1 30816:1 30824:1 30858:1 30862:1 30889:1 30894:1 30897:1 30906:1 30920:1 30934:1 30972:1 30977:1 30988:1 31017:1 31058:1 31068:1 31138:1 31164:1 31176:1 31205:1 31217:1 31220:1 31248:1 31284:1 31295:1 31341:1 31389:1 31392:1 31413:1 31457:1 31467:1 31496:1 31518:1 31560:1 31574:1 31610:1 31619:1 31620:1 31629:1 31638:1 31639:1 31647:1 31663:1 31679:1 31697:1 31700:1 31705:1 31737:1 31767:1 31840:1 31874:1 31900:1 31917:1 31937:1 31995:1 32021:1 32040:1 32042:1 32051:1 32069:1 32160:1 32187:1 32189:1 32210:1 32246:1 32306:1 32323:1 32336:1 32348:1 32371:1 32387:1 32403:1 32405:1 32421:1 32424:1 32435:1 32465:1 32472:1 32507:1 32514:1 32527:1 32536:1 32544:1 32547:1 32598:1 32599:1 32602:1 32606:1 32608:1 32641:1 32650:1 32697:1 32740:1 32753:1 32755:1 32765:1 32823:1 32833:1 32852:1 32879:1 32908:1 32927:1 32932:1 32935:1 32982:1 32990:1 32993:1 33011:1 33035:1 33078:1 33095:1 33108:1 33112:1 33118:1 33164:1 33172:1 33182:1 33204:1 33205:1 33208:1 33217:1 33227:1 33301:1 33311:1 33314:1 33358:1 33373:1 33378:1 33382:1 33388:1 33402:1 33410:1 33433:1 33459:1 33474:1 33567:1 33608:1 33623:1 33626:1 33669:1 33713:1 33720:1 33730:1 33749:1 33789:1 33812:1 33842:1 33873:1 33897:1 33960:1 33980:1 33983:1 33988:1 33991:1 34023:1 34057:1 34060:1 34080:1 34082:1 34126:1 34181:1 34218:1 34245:1 34282:1 34323:1 34366:1 34375:1 34401:1 34406:1 34418:1 34425:1 34447:1 34452:1 34461:1 34485:1 34568:1 34570:1 34576:1 34614:1 34615:1 34629:1 34641:1 34693:1 34736:1 34740:1 34747:1 34776:1 34789:1 34808:1 34809:1 34833:1 34894:1 34912:1 34929:1 34962:1 34982:1 34995:1 34999:1 35001:1 35014:1 35057:1 35062:1 35072:1 35132:1 35149:1 35160:1 35166:1 35171:1 35226:1 35228:1 35267:1 35284:1 35289:1 35307:1 35339:1 35426:1 35438:1 35445:1 35466:1 35469:1 35504:1 35546:1 35550:1 35558:1 35566:1 35619:1 35637:1 35640:1 35661:1 35666:1 35694:1 35738:1 35741:1 35744:1 35747:1 35755:1 35801:1 35878:1 #
0.0032254370001595167663510643762947 360:1 937:1 1176:1 1710:1 1918:1 2657:1 3525:1 6544:1 9172:1 12543:1 12856:1 13533:1 28750:1 28778:1 28807:1 28853:1 28990:1 28991:1 29049:1 29076:1 29098:1 29105:1 29151:1 29166:1 29203:1 29225:1 29269:1 29318:1 29341:1 29369:1 29386:1 29395:1 29411:1 29446:1 29510:1 29545:1 29565:1 29590:1 29591:1 29592:1 29615:1 29622:1 29624:1 29643:1 29649:1 29667:1 29669:1 29678:1 29700:1 29732:1 29807:1 29853:1 29859:1 29896:1 29914:1 29915:1 29978:1 29987:1 29991:1 30001:1 30013:1 30031:1 30097:1 30122:1 30132:1 30144:1 30155:1 30167:1 30202:1 30212:1 30232:1 30240:1 30257:1 30306:1 30307:1 30359:1 30450:1 30528:1 30545:1 30562:1 30579:1 30590:1 30627:1 30633:1 30672:1 30689:1 30695:1 30732:1 30734:1 30738:1 30760:1 30766:1 30795:1 30824:1 30852:1 30862:1 30891:1 30892:1 30894:1 30934:1 30953:1 30988:1 30992:1 31016:1 31031:1 31042:1 31044:1 31052:1 31059:1 31068:1 31138:1 31140:1 31161:1 31168:1 31190:1 31217:1 31248:1 31251:1 31269:1 31295:1 31305:1 31333:1 31334:1 31353:1 31355:1 31363:1 31405:1 31460:1 31492:1 31496:1 31504:1 31512:1 31513:1 31534:1 31563:1 31633:1 31639:1 31668:1 31673:1 31700:1 31706:1 31758:1 31801:1 31814:1 31846:1 31976:1 31992:1 31993:1 32021:1 32051:1 32156:1 32183:1 32223:1 32232:1 32246:1 32304:1 32316:1 32318:1 32323:1 32342:1 32357:1 32365:1 32371:1 32391:1 32405:1 32462:1 32466:1 32486:1 32489:1 32598:1 32599:1 32602:1 32604:1 32606:1 32608:1 32632:1 32644:1 32696:1 32710:1 32742:1 32764:1 32786:1 32817:1 32833:1 32857:1 32861:1 32869:1 32879:1 32886:1 32892:1 32932:1 32949:1 33002:1 33013:1 33060:1 33113:1 33117:1 33153:1 33161:1 33211:1 33217:1 33235:1 33254:1 33270:1 33272:1 33301:1 33358:1 33361:1 33379:1 33436:1 33459:1 33474:1 33502:1 33513:1 33520:1 33527:1 33567:1 33577:1 33583:1 33603:1 33618:1 33703:1 33754:1 33756:1 33789:1 33831:1 33873:1 33901:1 33960:1 33961:1 33983:1 33988:1 34023:1 34028:1 34054:1 34057:1 34082:1 34092:1 34122:1 34131:1 34161:1 34174:1 34218:1 34255:1 34301:1 34307:1 34372:1 34425:1 34435:1 34446:1 34452:1 34461:1 34490:1 34501:1 34561:1 34568:1 34570:1 34597:1 34681:1 34685:1 34686:1 34695:1 34703:1 34707:1 34729:1 34789:1 34797:1 34819:1 34879:1 34895:1 34904:1 34954:1 34980:1 34995:1 34999:1 35001:1 35014:1 35057:1 35062:1 35085:1 35097:1 35103:1 35156:1 35166:1 35176:1 35226:1 35227:1 35228:1 35241:1 35250:1 35284:1 35289:1 35303:1 35307:1 35313:1 35315:1 35443:1 35466:1 35503:1 35546:1 35617:1 35619:1 35637:1 35640:1 35651:1 35656:1 35661:1 35666:1 35667:1 35670:1 35801:1 35812:1 35829:1 35831:1 35843:1 35848:1 35858:1 35875:1 35878:1 #
0.0019808084416779161637811590424008 1005:1 1897:1 2109:1 2495:1 3261:1 3665:1 4710:1 8285:1 9670:1 9899:1 10707:1 11288:1 11967:1 14314:1 28740:1 28750:1 28762:1 28775:1 28784:1 28790:1 28801:1 28826:1 28877:1 28914:1 28935:1 28959:1 28964:1 28990:1 28991:1 28993:1 29011:1 29040:1 29044:1 29049:1 29076:1 29112:1 29117:1 29126:1 29128:1 29130:1 29151:1 29163:1 29167:1 29214:1 29225:1 29228:1 29269:1 29348:1 29376:1 29380:1 29383:1 29437:1 29449:1 29462:1 29480:1 29503:1 29515:1 29524:1 29555:1 29561:1 29565:1 29591:1 29592:1 29613:1 29624:1 29664:1 29678:1 29759:1 29769:1 29816:1 29825:1 29853:1 29859:1 29872:1 29896:1 29915:1 29991:1 30001:1 30013:1 30014:1 30053:1 30060:1 30076:1 30078:1 30079:1 30080:1 30122:1 30127:1 30144:1 30166:1 30212:1 30222:1 30257:1 30282:1 30306:1 30395:1 30419:1 30435:1 30448:1 30450:1 30474:1 30476:1 30528:1 30562:1 30598:1 30612:1 30626:1 30627:1 30631:1 30633:1 30689:1 30694:1 30796:1 30824:1 30869:1 30876:1 30883:1 30892:1 30894:1 30899:1 30966:1 31005:1 31017:1 31054:1 31067:1 31068:1 31087:1 31111:1 31138:1 31161:1 31190:1 31196:1 31216:1 31229:1 31240:1 31268:1 31392:1 31405:1 31460:1 31496:1 31504:1 31506:1 31513:1 31517:1 31598:1 31619:1 31620:1 31637:1 31647:1 31663:1 31668:1 31701:1 31705:1 31767:1 31769:1 31796:1 31869:1 31909:1 32009:1 32019:1 32051:1 32069:1 32113:1 32143:1 32146:1 32160:1 32210:1 32224:1 32231:1 32246:1 32268:1 32275:1 32316:1 32323:1 32330:1 32333:1 32357:1 32376:1 32403:1 32405:1 32430:1 32485:1 32536:1 32570:1 32598:1 32599:1 32602:1 32606:1 32608:1 32611:1 32614:1 32630:1 32631:1 32632:1 32641:1 32650:1 32658:1 32660:1 32696:1 32769:1 32775:1 32833:1 32840:1 32857:1 32896:1 32918:1 32920:1 32932:1 32935:1 32977:1 32993:1 33035:1 33150:1 33151:1 33170:1 33175:1 33202:1 33204:1 33206:1 33217:1 33231:1 33252:1 33272:1 33309:1 33313:1 33357:1 33367:1 33388:1 33392:1 33397:1 33402:1 33410:1 33426:1 33433:1 33462:1 33498:1 33520:1 33521:1 33524:1 33563:1 33567:1 33599:1 33629:1 33795:1 33846:1 33873:1 33937:1 33955:1 33960:1 33969:1 33981:1 33988:1 34023:1 34057:1 34082:1 34089:1 34095:1 34137:1 34182:1 34193:1 34211:1 34218:1 34230:1 34243:1 34255:1 34316:1 34325:1 34338:1 34341:1 34431:1 34452:1 34484:1 34570:1 34631:1 34634:1 34685:1 34686:1 34702:1 34735:1 34748:1 34749:1 34770:1 34789:1 34795:1 34797:1 34807:1 34826:1 34856:1 34913:1 34925:1 34945:1 34962:1 34983:1 34995:1 34998:1 34999:1 35001:1 35014:1 35062:1 35084:1 35085:1 35103:1 35147:1 35166:1 35216:1 35226:1 35229:1 35241:1 35284:1 35289:1 35307:1 35339:1 35433:1 35480:1 35483:1 35546:1 35564:1 35566:1 35637:1 35640:1 35666:1 35677:1 35718:1 35721:1 35751:1 35764:1 35766:1 35800:1 35801:1 35812:1 35843:1 35854:1 35878:1 35888:1 #
0.0032254370001595167663510643762947 450:1 646:1 1011:1 1211:1 2132:1 4171:1 4725:1 5044:1 5248:1 5602:1 6697:1 6836:1 7891:1 8621:1 9345:1 9955:1 12456:1 12495:1 12763:1 14075:1 14268:1 28766:1 28781:1 28836:1 28906:1 28990:1 28991:1 29011:1 29044:1 29049:1 29052:1 29076:1 29080:1 29126:1 29151:1 29207:1 29225:1 29236:1 29261:1 29269:1 29275:1 29341:1 29402:1 29426:1 29469:1 29472:1 29503:1 29555:1 29565:1 29590:1 29591:1 29592:1 29624:1 29667:1 29678:1 29725:1 29759:1 29772:1 29840:1 29859:1 29872:1 29915:1 29973:1 29978:1 29991:1 29997:1 30013:1 30043:1 30048:1 30062:1 30082:1 30102:1 30119:1 30122:1 30134:1 30144:1 30153:1 30166:1 30222:1 30240:1 30257:1 30410:1 30419:1 30539:1 30598:1 30626:1 30630:1 30633:1 30673:1 30681:1 30689:1 30711:1 30814:1 30824:1 30889:1 30891:1 30892:1 30894:1 30895:1 30896:1 30936:1 30952:1 31041:1 31045:1 31053:1 31059:1 31068:1 31123:1 31138:1 31217:1 31236:1 31301:1 31305:1 31349:1 31350:1 31354:1 31363:1 31380:1 31406:1 31413:1 31424:1 31445:1 31458:1 31473:1 31496:1 31513:1 31532:1 31637:1 31642:1 31647:1 31705:1 31711:1 31738:1 31756:1 31757:1 31767:1 31776:1 31805:1 31898:1 31905:1 31917:1 31927:1 31945:1 31956:1 31970:1 31987:1 32048:1 32051:1 32076:1 32096:1 32160:1 32162:1 32222:1 32270:1 32350:1 32405:1 32421:1 32428:1 32443:1 32444:1 32448:1 32514:1 32535:1 32547:1 32570:1 32590:1 32598:1 32599:1 32602:1 32606:1 32608:1 32650:1 32677:1 32696:1 32718:1 32721:1 32782:1 32848:1 32860:1 32925:1 32960:1 32993:1 33078:1 33079:1 33101:1 33126:1 33136:1 33137:1 33150:1 33159:1 33217:1 33221:1 33332:1 33357:1 33414:1 33422:1 33426:1 33459:1 33467:1 33564:1 33730:1 33740:1 33751:1 33770:1 33873:1 33960:1 33983:1 33988:1 34000:1 34065:1 34082:1 34108:1 34187:1 34196:1 34204:1 34211:1 34218:1 34242:1 34282:1 34300:1 34301:1 34310:1 34356:1 34425:1 34452:1 34549:1 34570:1 34596:1 34616:1 34631:1 34723:1 34748:1 34749:1 34783:1 34789:1 34856:1 34900:1 34913:1 34941:1 34995:1 34999:1 35062:1 35149:1 35160:1 35216:1 35227:1 35284:1 35289:1 35292:1 35307:1 35510:1 35546:1 35550:1 35602:1 35619:1 35666:1 35716:1 35755:1 35781:1 35795:1 35878:1 #
-0.0032254370001595167663510643762947 309:1 796:1 1281:1 3316:1 3610:1 5023:1 5353:1 5818:1 6763:1 7358:1 10889:1 11252:1 12402:1 13009:1 13776:1 28757:1 28767:1 28778:1 28808:1 28836:1 28853:1 28911:1 28990:1 29044:1 29069:1 29076:1 29091:1 29126:1 29138:1 29151:1 29156:1 29225:1 29269:1 29276:1 29281:1 29322:1 29348:1 29395:1 29437:1 29446:1 29565:1 29590:1 29591:1 29592:1 29615:1 29624:1 29660:1 29667:1 29678:1 29700:1 29714:1 29715:1 29838:1 29849:1 29859:1 29880:1 29901:1 29914:1 29978:1 29987:1 29989:1 29991:1 30013:1 30014:1 30048:1 30083:1 30097:1 30122:1 30144:1 30145:1 30167:1 30233:1 30240:1 30299:1 30321:1 30393:1 30410:1 30422:1 30485:1 30527:1 30543:1 30562:1 30571:1 30598:1 30626:1 30639:1 30672:1 30681:1 30711:1 30732:1 30760:1 30768:1 30804:1 30824:1 30886:1 30892:1 30894:1 30953:1 30984:1 30996:1 31000:1 31017:1 31068:1 31095:1 31110:1 31111:1 31114:1 31138:1 31160:1 31178:1 31195:1 31230:1 31236:1 31262:1 31305:1 31361:1 31363:1 31405:1 31419:1 31468:1 31496:1 31590:1 31619:1 31624:1 31634:1 31637:1 31642:1 31668:1 31689:1 31705:1 31755:1 31834:1 31846:1 31922:1 31927:1 31956:1 31976:1 31996:1 32051:1 32061:1 32094:1 32136:1 32140:1 32152:1 32160:1 32187:1 32246:1 32316:1 32323:1 32373:1 32391:1 32403:1 32405:1 32407:1 32444:1 32448:1 32450:1 32485:1 32515:1 32544:1 32547:1 32598:1 32599:1 32602:1 32606:1 32608:1 32632:1 32650:1 32710:1 32742:1 32774:1 32786:1 32797:1 32842:1 32875:1 32892:1 32918:1 32920:1 32932:1 32977:1 32985:1 32993:1 33061:1 33068:1 33079:1 33101:1 33111:1 33150:1 33161:1 33188:1 33193:1 33205:1 33217:1 33235:1 33294:1 33301:1 33302:1 33307:1 33309:1 33336:1 33473:1 33525:1 33556:1 33605:1 33621:1 33626:1 33648:1 33743:1 33791:1 33861:1 33939:1 33960:1 33983:1 33988:1 34006:1 34054:1 34057:1 34081:1 34082:1 34187:1 34218:1 34270:1 34354:1 34425:1 34476:1 34485:1 34568:1 34570:1 34694:1 34703:1 34706:1 34710:1 34749:1 34766:1 34789:1 34797:1 34807:1 34810:1 34856:1 34870:1 34894:1 34909:1 34913:1 34929:1 34934:1 34954:1 34956:1 34982:1 34995:1 34997:1 34999:1 35001:1 35014:1 35057:1 35062:1 35065:1 35085:1 35103:1 35128:1 35171:1 35228:1 35267:1 35270:1 35284:1 35289:1 35306:1 35307:1 35339:1 35467:1 35475:1 35491:1 35546:1 35550:1 35583:1 35592:1 35607:1 35619:1 35637:1 35640:1 35651:1 35666:1 35747:1 35768:1 35800:1 35801:1 35812:1 35843:1 35858:1 #
-0.0032254370001595167663510643762947 177:1 802:1 1006:1 2109:1 3196:1 3323:1 3382:1 3522:1 3615:1 3858:1 5351:1 5428:1 9032:1 9541:1 9670:1 9745:1 11394:1 14216:1 28750:1 28775:1 28807:1 28886:1 28914:1 28964:1 28990:1 29070:1 29076:1 29128:1 29146:1 29147:1 29225:1 29285:1 29341:1 29360:1 29386:1 29480:1 29539:1 29546:1 29565:1 29590:1 29591:1 29592:1 29613:1 29615:1 29624:1 29664:1 29753:1 29760:1 29765:1 29806:1 29809:1 29817:1 29849:1 29859:1 29869:1 29872:1 29915:1 29967:1 29978:1 30001:1 30166:1 30202:1 30240:1 30324:1 30395:1 30457:1 30562:1 30589:1 30627:1 30633:1 30662:1 30702:1 30824:1 30829:1 30884:1 30934:1 30982:1 30988:1 31005:1 31026:1 31068:1 31121:1 31138:1 31190:1 31219:1 31222:1 31295:1 31299:1 31349:1 31380:1 31419:1 31422:1 31496:1 31510:1 31531:1 31540:1 31628:1 31670:1 31673:1 31681:1 31765:1 31801:1 31846:1 31874:1 31976:1 32051:1 32056:1 32129:1 32160:1 32330:1 32376:1 32405:1 32474:1 32598:1 32599:1 32602:1 32606:1 32608:1 32688:1 32775:1 32960:1 32993:1 33013:1 33101:1 33188:1 33204:1 33357:1 33361:1 33373:1 33381:1 33442:1 33716:1 33795:1 33988:1 34023:1 34057:1 34082:1 34151:1 34182:1 34301:1 34406:1 34431:1 34473:1 34583:1 34605:1 34634:1 34710:1 34789:1 34826:1 34847:1 34913:1 34962:1 34995:1 34999:1 35062:1 35123:1 35165:1 35166:1 35216:1 35227:1 35267:1 35284:1 35287:1 35289:1 35307:1 35397:1 35443:1 35483:1 35489:1 35564:1 35592:1 35596:1 35612:1 35666:1 35724:1 35843:1 35854:1 35878:1 35883:1 35888:1 #
-0.0032254370001595167663510643762947 2109:1 2611:1 3211:1 3663:1 4459:1 4657:1 5958:1 6080:1 6775:1 7825:1 8300:1 9032:1 9670:1 10366:1 10741:1 11418:1 14128:1 28721:1 28735:1 28750:1 28775:1 28781:1 28914:1 28935:1 28956:1 28959:1 28964:1 28990:1 28991:1 28993:1 29019:1 29049:1 29070:1 29076:1 29112:1 29128:1 29138:1 29151:1 29156:1 29214:1 29225:1 29261:1 29269:1 29273:1 29341:1 29348:1 29350:1 29360:1 29380:1 29404:1 29408:1 29426:1 29480:1 29490:1 29523:1 29524:1 29546:1 29549:1 29565:1 29591:1 29592:1 29613:1 29624:1 29643:1 29657:1 29678:1 29781:1 29784:1 29807:1 29853:1 29872:1 29915:1 29933:1 29967:1 29978:1 29980:1 29991:1 30001:1 30011:1 30013:1 30014:1 30122:1 30141:1 30144:1 30147:1 30166:1 30178:1 30187:1 30282:1 30395:1 30435:1 30478:1 30562:1 30579:1 30626:1 30627:1 30633:1 30662:1 30689:1 30732:1 30814:1 30824:1 30852:1 30894:1 30899:1 30937:1 30944:1 30960:1 30966:1 30982:1 30989:1 31005:1 31006:1 31017:1 31027:1 31059:1 31067:1 31068:1 31070:1 31086:1 31097:1 31138:1 31190:1 31216:1 31349:1 31380:1 31386:1 31430:1 31468:1 31473:1 31496:1 31513:1 31637:1 31647:1 31697:1 31705:1 31751:1 31767:1 31788:1 31840:1 31846:1 31859:1 31910:1 31952:1 32051:1 32056:1 32097:1 32153:1 32162:1 32224:1 32243:1 32246:1 32322:1 32330:1 32380:1 32403:1 32405:1 32514:1 32521:1 32547:1 32588:1 32598:1 32599:1 32602:1 32611:1 32614:1 32721:1 32803:1 32833:1 32857:1 32861:1 32902:1 32920:1 32927:1 32932:1 32941:1 32964:1 33013:1 33111:1 33131:1 33173:1 33204:1 33217:1 33218:1 33311:1 33332:1 33373:1 33381:1 33426:1 33459:1 33460:1 33524:1 33588:1 33609:1 33642:1 33795:1 33846:1 33960:1 33978:1 33983:1 33988:1 34004:1 34028:1 34071:1 34082:1 34142:1 34174:1 34182:1 34211:1 34215:1 34218:1 34262:1 34282:1 34326:1 34406:1 34447:1 34568:1 34570:1 34634:1 34669:1 34710:1 34760:1 34783:1 34789:1 34852:1 34913:1 34926:1 34985:1 34995:1 34999:1 35001:1 35049:1 35062:1 35081:1 35085:1 35103:1 35104:1 35129:1 35147:1 35205:1 35208:1 35222:1 35227:1 35229:1 35232:1 35240:1 35284:1 35287:1 35289:1 35307:1 35389:1 35467:1 35476:1 35483:1 35503:1 35513:1 35543:1 35546:1 35596:1 35619:1 35661:1 35666:1 35694:1 35724:1 35747:1 35755:1 35805:1 35861:1 35863:1 35865:1 35878:1 35880:1 35883:1 35888:1 #
-0.0021877100841675603364044899734608 225:1 2547:1 2563:1 3538:1 4031:1 4627:1 5266:1 5807:1 6502:1 6626:1 6675:1 6703:1 7174:1 7349:1 7649:1 8366:1 8691:1 9623:1 10970:1 11044:1 11146:1 12097:1 12126:1 12241:1 12699:1 12704:1 12891:1 13351:1 13613:1 14130:1 28750:1 28775:1 28778:1 28789:1 28804:1 28814:1 28914:1 28953:1 28973:1 28990:1 28991:1 29011:1 29014:1 29044:1 29048:1 29049:1 29070:1 29076:1 29087:1 29099:1 29138:1 29151:1 29173:1 29203:1 29207:1 29225:1 29269:1 29275:1 29310:1 29331:1 29336:1 29341:1 29385:1 29426:1 29503:1 29504:1 29510:1 29555:1 29561:1 29565:1 29584:1 29590:1 29591:1 29592:1 29615:1 29624:1 29678:1 29714:1 29765:1 29794:1 29809:1 29859:1 29869:1 29882:1 29895:1 29968:1 29978:1 30001:1 30013:1 30048:1 30053:1 30057:1 30085:1 30122:1 30131:1 30144:1 30166:1 30176:1 30178:1 30222:1 30232:1 30240:1 30301:1 30306:1 30328:1 30340:1 30341:1 30344:1 30375:1 30410:1 30449:1 30528:1 30562:1 30598:1 30626:1 30627:1 30631:1 30633:1 30667:1 30681:1 30689:1 30803:1 30824:1 30894:1 30899:1 30924:1 30934:1 30951:1 30993:1 31006:1 31015:1 31020:1 31047:1 31057:1 31059:1 31068:1 31073:1 31086:1 31138:1 31176:1 31190:1 31206:1 31227:1 31286:1 31331:1 31349:1 31355:1 31373:1 31405:1 31496:1 31514:1 31567:1 31568:1 31581:1 31647:1 31673:1 31705:1 31806:1 31827:1 31835:1 31846:1 31869:1 31895:1 31909:1 31923:1 31970:1 31994:1 32049:1 32051:1 32062:1 32078:1 32094:1 32113:1 32151:1 32162:1 32210:1 32246:1 32260:1 32268:1 32316:1 32321:1 32386:1 32405:1 32407:1 32444:1 32513:1 32532:1 32547:1 32570:1 32598:1 32599:1 32601:1 32602:1 32606:1 32608:1 32618:1 32632:1 32644:1 32650:1 32656:1 32671:1 32696:1 32721:1 32741:1 32764:1 32857:1 32865:1 32877:1 32879:1 32920:1 32927:1 32977:1 33035:1 33071:1 33086:1 33135:1 33205:1 33217:1 33218:1 33251:1 33393:1 33426:1 33438:1 33459:1 33524:1 33545:1 33599:1 33600:1 33611:1 33624:1 33651:1 33700:1 33787:1 33809:1 33838:1 33873:1 33943:1 33956:1 33960:1 33978:1 33983:1 33988:1 34001:1 34023:1 34054:1 34055:1 34057:1 34067:1 34078:1 34081:1 34082:1 34093:1 34145:1 34174:1 34206:1 34220:1 34255:1 34298:1 34301:1 34312:1 34345:1 34406:1 34425:1 34431:1 34447:1 34452:1 34463:1 34568:1 34616:1 34692:1 34696:1 34783:1 34789:1 34797:1 34810:1 34894:1 34913:1 34938:1 34962:1 34986:1 34999:1 35000:1 35014:1 35033:1 35049:1 35062:1 35084:1 35098:1 35128:1 35166:1 35240:1 35256:1 35263:1 35284:1 35287:1 35306:1 35307:1 35320:1 35357:1 35422:1 35483:1 35546:1 35605:1 35619:1 35622:1 35637:1 35640:1 35666:1 35689:1 35722:1 35766:1 35797:1 35822:1 35836:1 #
-0.0032254370001595167663510643762947 2377:1 4672:1 5220:1 7464:1 8897:1 9331:1 28790:1 28797:1 28824:1 28988:1 28990:1 28991:1 29002:1 29011:1 29019:1 29044:1 29070:1 29076:1 29138:1 29203:1 29225:1 29324:1 29341:1 29376:1 29383:1 29408:1 29411:1 29497:1 29539:1 29555:1 29565:1 29584:1 29590:1 29591:1 29592:1 29615:1 29624:1 29643:1 29645:1 29678:1 29694:1 29732:1 29753:1 29807:1 29853:1 29859:1 29863:1 29876:1 29896:1 29978:1 29991:1 30013:1 30022:1 30053:1 30060:1 30114:1 30120:1 30122:1 30144:1 30247:1 30257:1 30318:1 30323:1 30395:1 30450:1 30466:1 30626:1 30627:1 30665:1 30732:1 30824:1 30889:1 30894:1 30944:1 30959:1 31017:1 31026:1 31068:1 31082:1 31138:1 31191:1 31230:1 31248:1 31284:1 31315:1 31380:1 31405:1 31473:1 31496:1 31513:1 31560:1 31577:1 31637:1 31663:1 31668:1 31675:1 31701:1 31705:1 31723:1 31767:1 31874:1 31909:1 31948:1 31976:1 31995:1 32021:1 32051:1 32069:1 32146:1 32160:1 32162:1 32178:1 32246:1 32314:1 32316:1 32354:1 32366:1 32371:1 32405:1 32407:1 32421:1 32472:1 32541:1 32572:1 32598:1 32599:1 32602:1 32606:1 32608:1 32632:1 32644:1 32650:1 32769:1 32775:1 32879:1 32918:1 32927:1 32935:1 32960:1 33002:1 33013:1 33035:1 33078:1 33127:1 33205:1 33272:1 33309:1 33358:1 33402:1 33433:1 33445:1 33459:1 33474:1 33524:1 33564:1 33565:1 33611:1 33799:1 33873:1 33875:1 33951:1 33988:1 34000:1 34015:1 34023:1 34054:1 34057:1 34082:1 34094:1 34147:1 34211:1 34218:1 34341:1 34372:1 34382:1 34425:1 34478:1 34779:1 34789:1 34895:1 34906:1 34913:1 34929:1 34962:1 34995:1 34999:1 35001:1 35014:1 35062:1 35085:1 35112:1 35129:1 35166:1 35167:1 35171:1 35226:1 35241:1 35260:1 35284:1 35289:1 35307:1 35314:1 35466:1 35480:1 35499:1 35550:1 35566:1 35572:1 35619:1 35640:1 35703:1 35754:1 35755:1 35784:1 35798:1 35812:1 35843:1 35846:1 #
0.0026208502082484389818228809332368 2026:1 2246:1 4033:1 4469:1 5380:1 5767:1 5867:1 7030:1 7057:1 7109:1 7974:1 8070:1 8998:1 9106:1 9679:1 10135:1 10253:1 10741:1 10867:1 10956:1 11937:1 12389:1 12931:1 13258:1 13451:1 13753:1 13881:1 14164:1 28749:1 28750:1 28767:1 28801:1 28836:1 28840:1 28844:1 28846:1 28886:1 28935:1 28941:1 28951:1 28990:1 28991:1 28993:1 29021:1 29040:1 29049:1 29076:1 29090:1 29126:1 29139:1 29181:1 29183:1 29192:1 29225:1 29228:1 29250:1 29269:1 29271:1 29275:1 29327:1 29341:1 29348:1 29370:1 29387:1 29439:1 29440:1 29444:1 29484:1 29502:1 29503:1 29504:1 29510:1 29515:1 29555:1 29565:1 29590:1 29591:1 29617:1 29624:1 29643:1 29665:1 29678:1 29682:1 29686:1 29690:1 29702:1 29732:1 29790:1 29813:1 29826:1 29830:1 29849:1 29867:1 29877:1 29934:1 29962:1 29978:1 29991:1 30001:1 30013:1 30014:1 30031:1 30038:1 30041:1 30052:1 30062:1 30068:1 30096:1 30128:1 30144:1 30165:1 30188:1 30203:1 30232:1 30291:1 30306:1 30313:1 30318:1 30323:1 30346:1 30404:1 30406:1 30419:1 30452:1 30496:1 30519:1 30558:1 30614:1 30623:1 30626:1 30633:1 30689:1 30732:1 30756:1 30761:1 30762:1 30797:1 30823:1 30824:1 30884:1 30894:1 30983:1 30985:1 31006:1 31031:1 31041:1 31068:1 31082:1 31086:1 31095:1 31138:1 31145:1 31160:1 31190:1 31228:1 31248:1 31306:1 31352:1 31362:1 31438:1 31454:1 31496:1 31546:1 31569:1 31647:1 31667:1 31668:1 31673:1 31705:1 31711:1 31739:1 31756:1 31769:1 31792:1 31798:1 31801:1 31837:1 31853:1 31866:1 31874:1 31879:1 31957:1 31994:1 32021:1 32051:1 32097:1 32133:1 32147:1 32160:1 32243:1 32246:1 32265:1 32342:1 32371:1 32389:1 32391:1 32398:1 32403:1 32405:1 32406:1 32442:1 32447:1 32462:1 32469:1 32472:1 32504:1 32532:1 32540:1 32541:1 32585:1 32598:1 32599:1 32602:1 32606:1 32608:1 32631:1 32632:1 32641:1 32707:1 32741:1 32761:1 32776:1 32782:1 32802:1 32852:1 32883:1 32896:1 32918:1 32920:1 32928:1 32960:1 32982:1 32984:1 33002:1 33035:1 33074:1 33078:1 33082:1 33101:1 33210:1 33214:1 33217:1 33220:1 33224:1 33263:1 33301:1 33305:1 33310:1 33332:1 33338:1 33348:1 33422:1 33426:1 33433:1 33459:1 33513:1 33531:1 33559:1 33565:1 33633:1 33653:1 33769:1 33794:1 33814:1 33822:1 33829:1 33855:1 33863:1 33873:1 33903:1 33988:1 34023:1 34077:1 34082:1 34131:1 34141:1 34142:1 34144:1 34169:1 34172:1 34187:1 34189:1 34233:1 34238:1 34244:1 34310:1 34363:1 34372:1 34375:1 34401:1 34402:1 34427:1 34452:1 34457:1 34463:1 34545:1 34562:1 34568:1 34570:1 34583:1 34596:1 34631:1 34666:1 34723:1 34772:1 34774:1 34781:1 34789:1 34797:1 34829:1 34868:1 34915:1 34929:1 34958:1 34995:1 34999:1 35014:1 35022:1 35062:1 35081:1 35099:1 35136:1 35147:1 35168:1 35209:1 35226:1 35229:1 35234:1 35284:1 35289:1 35307:1 35313:1 35317:1 35344:1 35345:1 35469:1 35533:1 35546:1 35550:1 35580:1 35605:1 35619:1 35640:1 35661:1 35663:1 35666:1 35690:1 35717:1 35747:1 35755:1 35784:1 35812:1 35858:1 35868:1 35878:1 35891:1 #
0.0032254370001595167663510643762947 1717:1 2105:1 2138:1 3000:1 3653:1 4192:1 5370:1 6196:1 6758:1 9519:1 9640:1 9690:1 11583:1 14022:1 28750:1 28782:1 28797:1 28807:1 28812:1 28820:1 28858:1 28935:1 28953:1 28959:1 28961:1 28987:1 28990:1 28991:1 28993:1 29000:1 29019:1 29049:1 29054:1 29069:1 29073:1 29076:1 29077:1 29106:1 29136:1 29138:1 29225:1 29234:1 29260:1 29263:1 29269:1 29275:1 29290:1 29337:1 29341:1 29344:1 29345:1 29352:1 29371:1 29380:1 29426:1 29510:1 29552:1 29554:1 29559:1 29565:1 29568:1 29590:1 29591:1 29592:1 29624:1 29645:1 29678:1 29700:1 29732:1 29743:1 29745:1 29759:1 29777:1 29799:1 29807:1 29829:1 29830:1 29853:1 29859:1 29895:1 29955:1 29978:1 30001:1 30009:1 30014:1 30036:1 30041:1 30080:1 30102:1 30131:1 30144:1 30182:1 30202:1 30208:1 30257:1 30272:1 30310:1 30318:1 30329:1 30365:1 30507:1 30508:1 30528:1 30562:1 30569:1 30579:1 30582:1 30614:1 30672:1 30689:1 30708:1 30723:1 30732:1 30756:1 30760:1 30767:1 30824:1 30852:1 30889:1 30894:1 30960:1 30961:1 30986:1 31007:1 31017:1 31022:1 31026:1 31046:1 31055:1 31068:1 31069:1 31086:1 31087:1 31101:1 31138:1 31148:1 31190:1 31196:1 31207:1 31266:1 31284:1 31322:1 31328:1 31380:1 31392:1 31397:1 31406:1 31419:1 31444:1 31451:1 31496:1 31504:1 31506:1 31532:1 31539:1 31549:1 31615:1 31672:1 31675:1 31677:1 31692:1 31701:1 31741:1 31758:1 31767:1 31846:1 31857:1 31858:1 31869:1 31874:1 31987:1 31993:1 32043:1 32051:1 32156:1 32160:1 32246:1 32257:1 32316:1 32321:1 32323:1 32359:1 32364:1 32371:1 32374:1 32405:1 32462:1 32469:1 32478:1 32485:1 32486:1 32502:1 32513:1 32521:1 32532:1 32562:1 32598:1 32599:1 32602:1 32606:1 32624:1 32674:1 32683:1 32735:1 32769:1 32772:1 32802:1 32803:1 32889:1 32908:1 32920:1 32960:1 32977:1 33001:1 33002:1 33013:1 33031:1 33035:1 33036:1 33058:1 33098:1 33101:1 33217:1 33266:1 33313:1 33332:1 33335:1 33358:1 33388:1 33392:1 33414:1 33454:1 33459:1 33474:1 33527:1 33534:1 33567:1 33611:1 33627:1 33653:1 33707:1 33807:1 33873:1 33960:1 33988:1 33993:1 34024:1 34054:1 34057:1 34082:1 34126:1 34137:1 34142:1 34156:1 34174:1 34187:1 34211:1 34255:1 34261:1 34270:1 34298:1 34341:1 34349:1 34421:1 34425:1 34445:1 34446:1 34463:1 34476:1 34515:1 34535:1 34542:1 34570:1 34585:1 34614:1 34622:1 34631:1 34648:1 34679:1 34710:1 34729:1 34762:1 34766:1 34770:1 34789:1 34856:1 34929:1 34940:1 34962:1 34963:1 34999:1 35001:1 35014:1 35062:1 35087:1 35092:1 35110:1 35138:1 35147:1 35190:1 35214:1 35225:1 35226:1 35227:1 35284:1 35286:1 35287:1 35289:1 35297:1 35307:1 35453:1 35456:1 35469:1 35473:1 35478:1 35480:1 35546:1 35586:1 35619:1 35640:1 35661:1 35666:1 35667:1 35706:1 35768:1 35794:1 35801:1 35803:1 35812:1 35854:1 35878:1 #
0.00040418684564567550990960009826836 553:1 915:1 5723:1 6140:1 6245:1 6544:1 6860:1 7194:1 8722:1 8871:1 9245:1 9285:1 9352:1 10549:1 11869:1 12581:1 12838:1 13557:1 28745:1 28750:1 28781:1 28797:1 28805:1 28807:1 28814:1 28815:1 28927:1 28935:1 28959:1 28964:1 28990:1 28991:1 29044:1 29049:1 29076:1 29085:1 29087:1 29136:1 29138:1 29151:1 29225:1 29260:1 29261:1 29269:1 29341:1 29362:1 29437:1 29444:1 29484:1 29555:1 29565:1 29578:1 29590:1 29591:1 29592:1 29624:1 29645:1 29660:1 29678:1 29700:1 29731:1 29732:1 29759:1 29807:1 29839:1 29853:1 29859:1 29872:1 29897:1 29903:1 29915:1 29957:1 29978:1 29991:1 30006:1 30030:1 30057:1 30122:1 30144:1 30187:1 30192:1 30232:1 30234:1 30240:1 30248:1 30257:1 30259:1 30306:1 30421:1 30450:1 30495:1 30524:1 30547:1 30553:1 30569:1 30626:1 30633:1 30669:1 30672:1 30681:1 30689:1 30732:1 30733:1 30749:1 30768:1 30780:1 30786:1 30800:1 30824:1 30826:1 30861:1 30889:1 30894:1 30926:1 30984:1 31003:1 31017:1 31052:1 31068:1 31070:1 31101:1 31138:1 31188:1 31190:1 31191:1 31220:1 31248:1 31262:1 31349:1 31355:1 31363:1 31370:1 31380:1 31392:1 31405:1 31426:1 31450:1 31468:1 31496:1 31563:1 31619:1 31624:1 31651:1 31668:1 31673:1 31732:1 31758:1 31769:1 31780:1 31813:1 31830:1 31917:1 31939:1 31982:1 31992:1 31994:1 32021:1 32030:1 32047:1 32051:1 32069:1 32096:1 32160:1 32162:1 32167:1 32172:1 32237:1 32246:1 32251:1 32255:1 32291:1 32307:1 32310:1 32316:1 32379:1 32405:1 32420:1 32469:1 32472:1 32485:1 32488:1 32504:1 32513:1 32570:1 32598:1 32599:1 32602:1 32608:1 32632:1 32644:1 32650:1 32696:1 32721:1 32734:1 32833:1 32840:1 32856:1 32883:1 32908:1 32927:1 32932:1 32940:1 32977:1 32982:1 33002:1 33013:1 33031:1 33035:1 33050:1 33078:1 33095:1 33101:1 33110:1 33118:1 33150:1 33217:1 33265:1 33301:1 33313:1 33341:1 33361:1 33363:1 33396:1 33402:1 33414:1 33459:1 33466:1 33512:1 33520:1 33521:1 33563:1 33589:1 33590:1 33607:1 33728:1 33729:1 33732:1 33762:1 33821:1 33860:1 33916:1 33987:1 33988:1 34000:1 34023:1 34024:1 34053:1 34057:1 34062:1 34064:1 34082:1 34137:1 34144:1 34190:1 34218:1 34233:1 34238:1 34255:1 34301:1 34302:1 34317:1 34341:1 34382:1 34385:1 34406:1 34447:1 34452:1 34478:1 34485:1 34539:1 34568:1 34570:1 34614:1 34618:1 34692:1 34716:1 34789:1 34797:1 34838:1 34868:1 34884:1 34929:1 34940:1 34995:1 34999:1 35001:1 35014:1 35033:1 35057:1 35062:1 35084:1 35085:1 35103:1 35108:1 35111:1 35119:1 35130:1 35205:1 35216:1 35220:1 35226:1 35227:1 35228:1 35241:1 35247:1 35257:1 35284:1 35307:1 35317:1 35330:1 35480:1 35534:1 35546:1 35550:1 35554:1 35574:1 35600:1 35619:1 35637:1 35640:1 35666:1 35766:1 35812:1 35816:1 35858:1 35860:1 35878:1 #
0.0032254370001595167663510643762947 682:1 1632:1 2226:1 3128:1 3211:1 3572:1 4445:1 5086:1 5975:1 6249:1 6371:1 6505:1 6684:1 6887:1 7157:1 7316:1 8068:1 8580:1 8996:1 9133:1 9331:1 9343:1 9526:1 11040:1 11369:1 12702:1 12891:1 13612:1 28719:1 28729:1 28750:1 28786:1 28812:1 28836:1 28856:1 28869:1 28953:1 28990:1 28993:1 29011:1 29052:1 29064:1 29069:1 29076:1 29090:1 29124:1 29136:1 29151:1 29214:1 29225:1 29269:1 29341:1 29345:1 29348:1 29362:1 29382:1 29386:1 29387:1 29393:1 29426:1 29469:1 29513:1 29515:1 29552:1 29555:1 29556:1 29564:1 29565:1 29576:1 29590:1 29591:1 29592:1 29624:1 29673:1 29680:1 29688:1 29693:1 29732:1 29853:1 29894:1 29938:1 29964:1 29978:1 29979:1 30029:1 30031:1 30144:1 30153:1 30156:1 30176:1 30232:1 30257:1 30302:1 30311:1 30318:1 30385:1 30398:1 30410:1 30435:1 30478:1 30543:1 30560:1 30562:1 30611:1 30612:1 30627:1 30633:1 30681:1 30708:1 30732:1 30756:1 30768:1 30788:1 30813:1 30814:1 30824:1 30843:1 30849:1 30852:1 30889:1 30892:1 30897:1 30960:1 30972:1 30984:1 31006:1 31007:1 31017:1 31020:1 31042:1 31068:1 31069:1 31073:1 31086:1 31130:1 31132:1 31138:1 31158:1 31184:1 31185:1 31190:1 31217:1 31230:1 31259:1 31289:1 31295:1 31297:1 31322:1 31380:1 31428:1 31460:1 31496:1 31523:1 31619:1 31664:1 31720:1 31753:1 31767:1 31823:1 31869:1 31871:1 31900:1 31919:1 31939:1 31950:1 31956:1 32043:1 32051:1 32069:1 32084:1 32094:1 32153:1 32210:1 32246:1 32268:1 32321:1 32361:1 32403:1 32405:1 32450:1 32469:1 32513:1 32561:1 32571:1 32573:1 32598:1 32599:1 32602:1 32653:1 32657:1 32708:1 32709:1 32725:1 32736:1 32769:1 32770:1 32776:1 32834:1 32841:1 32855:1 32857:1 32877:1 32888:1 32918:1 32920:1 32924:1 32960:1 33027:1 33035:1 33111:1 33185:1 33217:1 33220:1 33232:1 33332:1 33359:1 33361:1 33367:1 33392:1 33399:1 33474:1 33484:1 33518:1 33520:1 33551:1 33557:1 33590:1 33611:1 33625:1 33633:1 33639:1 33642:1 33657:1 33661:1 33717:1 33740:1 33749:1 33778:1 33781:1 33814:1 33830:1 33873:1 33932:1 33960:1 33988:1 34011:1 34023:1 34054:1 34057:1 34082:1 34138:1 34203:1 34204:1 34244:1 34255:1 34299:1 34301:1 34307:1 34363:1 34406:1 34412:1 34425:1 34446:1 34501:1 34518:1 34545:1 34568:1 34570:1 34571:1 34576:1 34747:1 34749:1 34750:1 34763:1 34778:1 34789:1 34797:1 34799:1 34810:1 34842:1 34857:1 34868:1 34907:1 34909:1 34913:1 34918:1 34995:1 34999:1 35001:1 35010:1 35040:1 35050:1 35059:1 35062:1 35066:1 35081:1 35089:1 35103:1 35130:1 35199:1 35227:1 35234:1 35260:1 35278:1 35282:1 35284:1 35307:1 35373:1 35539:1 35546:1 35564:1 35573:1 35617:1 35619:1 35627:1 35634:1 35661:1 35666:1 35682:1 35749:1 35768:1 35878:1 #
0.00049261309634038991100979387738334 12:1 14:1 104:1 115:1 218:1 763:1 898:1 1090:1 1571:1 1596:1 1664:1 1983:1 2587:1 2622:1 2942:1 3016:1 3212:1 3237:1 3436:1 3518:1 3629:1 3664:1 3971:1 3997:1 4758:1 4896:1 4962:1 5040:1 5046:1 5168:1 5289:1 5662:1 5743:1 5926:1 6520:1 6940:1 7074:1 7254:1 7616:1 8798:1 8932:1 9206:1 9219:1 10283:1 10433:1 10611:1 10780:1 10834:1 11151:1 11402:1 11417:1 11506:1 11571:1 11686:1 11804:1 12266:1 12711:1 12821:1 12856:1 12915:1 13016:1 13033:1 13113:1 13423:1 13507:1 13742:1 13752:1 13910:1 13923:1 14250:1 14336:1 14345:1 28719:1 28730:1 28736:1 28748:1 28750:1 28755:1 28767:1 28775:1 28776:1 28778:1 28781:1 28782:1 28784:1 28792:1 28801:1 28805:1 28807:1 28832:1 28836:1 28843:1 28844:1 28917:1 28923:1 28935:1 28951:1 28952:1 28964:1 28990:1 28991:1 28993:1 29019:1 29040:1 29044:1 29049:1 29069:1 29070:1 29076:1 29078:1 29093:1 29095:1 29102:1 29112:1 29114:1 29126:1 29127:1 29151:1 29156:1 29181:1 29183:1 29194:1 29203:1 29225:1 29228:1 29236:1 29237:1 29248:1 29250:1 29261:1 29269:1 29275:1 29276:1 29322:1 29324:1 29326:1 29341:1 29380:1 29382:1 29386:1 29387:1 29390:1 29396:1 29416:1 29426:1 29429:1 29437:1 29441:1 29444:1 29449:1 29498:1 29500:1 29503:1 29504:1 29512:1 29515:1 29534:1 29538:1 29555:1 29558:1 29561:1 29565:1 29577:1 29579:1 29587:1 29590:1 29591:1 29592:1 29609:1 29616:1 29624:1 29645:1 29678:1 29682:1 29698:1 29710:1 29726:1 29732:1 29747:1 29753:1 29756:1 29759:1 29770:1 29776:1 29807:1 29853:1 29859:1 29896:1 29897:1 29908:1 29924:1 29948:1 29958:1 29959:1 29978:1 29991:1 29993:1 30001:1 30002:1 30013:1 30014:1 30028:1 30036:1 30038:1 30048:1 30057:1 30062:1 30073:1 30083:1 30104:1 30131:1 30144:1 30160:1 30161:1 30177:1 30180:1 30215:1 30220:1 30230:1 30240:1 30257:1 30306:1 30308:1 30318:1 30327:1 30328:1 30351:1 30410:1 30424:1 30435:1 30490:1 30495:1 30505:1 30508:1 30543:1 30575:1 30586:1 30595:1 30598:1 30614:1 30620:1 30626:1 30627:1 30630:1 30633:1 30638:1 30667:1 30672:1 30673:1 30677:1 30681:1 30685:1 30689:1 30694:1 30695:1 30696:1 30711:1 30715:1 30732:1 30756:1 30760:1 30813:1 30824:1 30858:1 30866:1 30867:1 30889:1 30892:1 30894:1 30897:1 30899:1 30900:1 30915:1 30935:1 30937:1 30942:1 30953:1 30960:1 30966:1 30967:1 30969:1 30986:1 30995:1 31017:1 31024:1 31026:1 31028:1 31042:1 31047:1 31048:1 31054:1 31059:1 31068:1 31069:1 31079:1 31097:1 31120:1 31138:1 31188:1 31190:1 31217:1 31230:1 31231:1 31239:1 31248:1 31259:1 31260:1 31295:1 31297:1 31335:1 31363:1 31380:1 31391:1 31392:1 31406:1 31452:1 31468:1 31485:1 31492:1 31496:1 31503:1 31504:1 31510:1 31530:1 31531:1 31532:1 31560:1 31563:1 31602:1 31607:1 31616:1 31648:1 31668:1 31681:1 31705:1 31708:1 31719:1 31741:1 31767:1 31796:1 31801:1 31805:1 31812:1 31819:1 31822:1 31846:1 31865:1 31874:1 31882:1 31893:1 31900:1 31915:1 31923:1 31945:1 31962:1 31970:1 31971:1 31976:1 31992:1 32048:1 32051:1 32061:1 32085:1 32113:1 32117:1 32125:1 32127:1 32140:1 32160:1 32162:1 32182:1 32187:1 32192:1 32204:1 32210:1 32217:1 32237:1 32242:1 32246:1 32249:1 32255:1 32261:1 32288:1 32297:1 32316:1 32321:1 32323:1 32329:1 32333:1 32340:1 32350:1 32351:1 32357:1 32363:1 32374:1 32391:1 32403:1 32405:1 32407:1 32436:1 32450:1 32469:1 32475:1 32485:1 32486:1 32489:1 32514:1 32532:1 32539:1 32544:1 32547:1 32549:1 32561:1 32570:1 32598:1 32599:1 32602:1 32604:1 32606:1 32613:1 32614:1 32623:1 32632:1 32644:1 32650:1 32658:1 32660:1 32673:1 32674:1 32711:1 32718:1 32721:1 32734:1 32741:1 32755:1 32764:1 32767:1 32769:1 32775:1 32802:1 32829:1 32833:1 32837:1 32859:1 32862:1 32877:1 32883:1 32901:1 32917:1 32918:1 32920:1 32927:1 32929:1 32932:1 32951:1 32960:1 32971:1 33000:1 33001:1 33002:1 33011:1 33013:1 33054:1 33061:1 33078:1 33086:1 33101:1 33104:1 33170:1 33181:1 33205:1 33210:1 33217:1 33235:1 33301:1 33332:1 33349:1 33361:1 33376:1 33388:1 33392:1 33393:1 33410:1 33413:1 33426:1 33433:1 33445:1 33459:1 33462:1 33474:1 33494:1 33497:1 33507:1 33534:1 33559:1 33590:1 33600:1 33611:1 33642:1 33663:1 33722:1 33724:1 33736:1 33740:1 33749:1 33753:1 33779:1 33781:1 33814:1 33858:1 33869:1 33873:1 33924:1 33947:1 33960:1 33988:1 34006:1 34015:1 34023:1 34024:1 34054:1 34057:1 34071:1 34082:1 34095:1 34101:1 34107:1 34131:1 34158:1 34166:1 34170:1 34177:1 34187:1 34194:1 34204:1 34211:1 34244:1 34270:1 34276:1 34280:1 34290:1 34298:1 34301:1 34341:1 34354:1 34356:1 34363:1 34372:1 34406:1 34425:1 34452:1 34466:1 34501:1 34508:1 34517:1 34527:1 34533:1 34545:1 34568:1 34570:1 34584:1 34597:1 34606:1 34631:1 34636:1 34675:1 34685:1 34710:1 34715:1 34748:1 34749:1 34762:1 34766:1 34770:1 34789:1 34802:1 34814:1 34819:1 34844:1 34867:1 34868:1 34869:1 34902:1 34906:1 34909:1 34913:1 34956:1 34962:1 34963:1 34967:1 34986:1 34995:1 34999:1 35001:1 35014:1 35034:1 35049:1 35054:1 35056:1 35062:1 35073:1 35083:1 35085:1 35103:1 35110:1 35123:1 35126:1 35133:1 35147:1 35166:1 35174:1 35176:1 35185:1 35190:1 35205:1 35226:1 35227:1 35240:1 35254:1 35274:1 35284:1 35289:1 35302:1 35307:1 35313:1 35335:1 35340:1 35348:1 35379:1 35400:1 35423:1 35432:1 35456:1 35467:1 35480:1 35524:1 35537:1 35546:1 35550:1 35564:1 35570:1 35578:1 35614:1 35619:1 35631:1 35637:1 35640:1 35661:1 35664:1 35666:1 35667:1 35690:1 35700:1 35718:1 35733:1 35755:1 35780:1 35795:1 35808:1 35812:1 35813:1 35814:1 35816:1 35822:1 35843:1 35852:1 35858:1 35872:1 35878:1 35887:1 #
-0.0032254370001595167663510643762947 339:1 497:1 686:1 1113:1 1515:1 1557:1 2392:1 2427:1 2604:1 2639:1 2819:1 3365:1 3463:1 3629:1 3655:1 3686:1 3693:1 3869:1 3879:1 3923:1 3940:1 4096:1 4252:1 4319:1 4454:1 4795:1 4957:1 4960:1 5012:1 5014:1 5770:1 6154:1 6481:1 6861:1 7031:1 7160:1 7349:1 7394:1 7704:1 7745:1 7765:1 8368:1 8485:1 8941:1 8959:1 8981:1 9282:1 9300:1 9575:1 9822:1 10071:1 10143:1 10221:1 10393:1 10433:1 10435:1 10646:1 10825:1 11802:1 11808:1 11896:1 12017:1 12325:1 12446:1 12635:1 12932:1 12964:1 13009:1 13092:1 13406:1 13831:1 13900:1 13902:1 14268:1 14312:1 28750:1 28760:1 28762:1 28765:1 28797:1 28804:1 28805:1 28807:1 28812:1 28831:1 28836:1 28862:1 28870:1 28886:1 28915:1 28917:1 28935:1 28937:1 28951:1 28956:1 28959:1 28963:1 28964:1 28988:1 28990:1 28991:1 29002:1 29009:1 29011:1 29013:1 29019:1 29030:1 29044:1 29047:1 29049:1 29069:1 29076:1 29077:1 29103:1 29106:1 29138:1 29151:1 29156:1 29157:1 29159:1 29177:1 29182:1 29202:1 29203:1 29214:1 29225:1 29227:1 29228:1 29269:1 29275:1 29276:1 29311:1 29337:1 29341:1 29345:1 29348:1 29357:1 29360:1 29381:1 29383:1 29384:1 29386:1 29391:1 29394:1 29426:1 29437:1 29441:1 29444:1 29446:1 29449:1 29469:1 29503:1 29504:1 29515:1 29534:1 29541:1 29555:1 29561:1 29565:1 29590:1 29591:1 29592:1 29615:1 29623:1 29624:1 29643:1 29649:1 29657:1 29659:1 29678:1 29688:1 29691:1 29702:1 29729:1 29732:1 29734:1 29759:1 29807:1 29816:1 29820:1 29849:1 29853:1 29856:1 29859:1 29862:1 29872:1 29896:1 29914:1 29921:1 29924:1 29932:1 29947:1 29951:1 29978:1 29991:1 29994:1 30001:1 30009:1 30013:1 30029:1 30048:1 30097:1 30104:1 30121:1 30144:1 30160:1 30168:1 30209:1 30217:1 30232:1 30234:1 30240:1 30248:1 30257:1 30261:1 30282:1 30296:1 30301:1 30311:1 30371:1 30398:1 30408:1 30410:1 30414:1 30419:1 30447:1 30450:1 30456:1 30463:1 30471:1 30504:1 30506:1 30508:1 30528:1 30573:1 30579:1 30598:1 30614:1 30623:1 30626:1 30627:1 30633:1 30681:1 30689:1 30699:1 30702:1 30707:1 30717:1 30732:1 30739:1 30756:1 30760:1 30761:1 30790:1 30791:1 30796:1 30804:1 30813:1 30815:1 30817:1 30824:1 30889:1 30892:1 30894:1 30920:1 30926:1 30959:1 30978:1 31017:1 31040:1 31042:1 31059:1 31068:1 31069:1 31071:1 31095:1 31097:1 31103:1 31111:1 31118:1 31120:1 31121:1 31138:1 31142:1 31147:1 31161:1 31187:1 31190:1 31216:1 31230:1 31248:1 31260:1 31264:1 31286:1 31298:1 31301:1 31329:1 31380:1 31387:1 31392:1 31405:1 31419:1 31446:1 31463:1 31477:1 31496:1 31497:1 31504:1 31510:1 31513:1 31540:1 31560:1 31563:1 31569:1 31620:1 31647:1 31648:1 31679:1 31681:1 31692:1 31697:1 31699:1 31701:1 31706:1 31731:1 31732:1 31767:1 31785:1 31799:1 31836:1 31840:1 31846:1 31859:1 31865:1 31879:1 31888:1 31890:1 31904:1 31908:1 31915:1 31927:1 31937:1 31938:1 31940:1 31956:1 31959:1 31970:1 31976:1 31980:1 31985:1 31987:1 31990:1 31997:1 32021:1 32026:1 32031:1 32034:1 32051:1 32059:1 32066:1 32067:1 32069:1 32074:1 32080:1 32101:1 32113:1 32142:1 32143:1 32151:1 32160:1 32162:1 32187:1 32192:1 32206:1 32210:1 32238:1 32246:1 32269:1 32279:1 32296:1 32307:1 32316:1 32319:1 32321:1 32329:1 32338:1 32357:1 32371:1 32373:1 32374:1 32403:1 32405:1 32407:1 32418:1 32420:1 32423:1 32444:1 32448:1 32450:1 32459:1 32466:1 32469:1 32485:1 32496:1 32504:1 32515:1 32517:1 32524:1 32532:1 32536:1 32547:1 32548:1 32557:1 32570:1 32572:1 32598:1 32599:1 32600:1 32602:1 32606:1 32608:1 32617:1 32632:1 32644:1 32650:1 32653:1 32671:1 32673:1 32674:1 32676:1 32696:1 32721:1 32729:1 32745:1 32764:1 32769:1 32776:1 32777:1 32779:1 32789:1 32802:1 32814:1 32817:1 32833:1 32857:1 32899:1 32901:1 32917:1 32918:1 32920:1 32924:1 32927:1 32929:1 32932:1 32943:1 32949:1 32960:1 32986:1 32990:1 33001:1 33002:1 33013:1 33026:1 33030:1 33035:1 33079:1 33085:1 33095:1 33101:1 33111:1 33116:1 33126:1 33159:1 33173:1 33185:1 33205:1 33217:1 33220:1 33235:1 33257:1 33295:1 33301:1 33310:1 33313:1 33319:1 33330:1 33332:1 33333:1 33334:1 33336:1 33348:1 33349:1 33361:1 33388:1 33392:1 33393:1 33397:1 33405:1 33422:1 33433:1 33455:1 33459:1 33467:1 33474:1 33502:1 33507:1 33520:1 33531:1 33534:1 33556:1 33566:1 33567:1 33590:1 33592:1 33597:1 33605:1 33611:1 33621:1 33643:1 33657:1 33701:1 33720:1 33726:1 33732:1 33734:1 33740:1 33755:1 33762:1 33770:1 33810:1 33811:1 33814:1 33848:1 33858:1 33873:1 33882:1 33892:1 33924:1 33931:1 33960:1 33978:1 33983:1 33984:1 33988:1 34001:1 34014:1 34015:1 34023:1 34028:1 34038:1 34054:1 34055:1 34057:1 34070:1 34078:1 34082:1 34091:1 34095:1 34107:1 34108:1 34121:1 34125:1 34131:1 34142:1 34187:1 34196:1 34203:1 34211:1 34218:1 34238:1 34276:1 34280:1 34282:1 34289:1 34291:1 34299:1 34301:1 34310:1 34324:1 34341:1 34356:1 34360:1 34361:1 34363:1 34372:1 34375:1 34380:1 34406:1 34409:1 34425:1 34428:1 34433:1 34491:1 34492:1 34508:1 34526:1 34554:1 34561:1 34563:1 34567:1 34568:1 34570:1 34576:1 34581:1 34584:1 34610:1 34614:1 34622:1 34638:1 34681:1 34685:1 34686:1 34689:1 34694:1 34706:1 34710:1 34723:1 34735:1 34741:1 34749:1 34760:1 34762:1 34770:1 34775:1 34783:1 34789:1 34797:1 34798:1 34817:1 34826:1 34856:1 34859:1 34868:1 34887:1 34891:1 34893:1 34895:1 34906:1 34909:1 34913:1 34929:1 34945:1 34962:1 34963:1 34995:1 34997:1 34999:1 35001:1 35014:1 35022:1 35034:1 35040:1 35046:1 35047:1 35062:1 35067:1 35090:1 35103:1 35110:1 35130:1 35132:1 35147:1 35166:1 35168:1 35190:1 35227:1 35228:1 35267:1 35270:1 35284:1 35301:1 35307:1 35317:1 35324:1 35325:1 35328:1 35337:1 35367:1 35374:1 35379:1 35438:1 35443:1 35456:1 35465:1 35480:1 35489:1 35510:1 35524:1 35529:1 35546:1 35550:1 35553:1 35558:1 35566:1 35572:1 35578:1 35586:1 35619:1 35623:1 35637:1 35640:1 35661:1 35666:1 35667:1 35700:1 35718:1 35730:1 35734:1 35739:1 35755:1 35759:1 35793:1 35801:1 35804:1 35812:1 35813:1 35836:1 35843:1 35851:1 35852:1 35858:1 35875:1 35884:1 #
0.0015463644182301488055192306703134 246:1 993:1 1048:1 2384:1 2426:1 3737:1 4398:1 4459:1 5437:1 6677:1 6704:1 6964:1 7409:1 7767:1 8234:1 9450:1 9487:1 10821:1 11157:1 12753:1 12998:1 13033:1 13353:1 13578:1 14106:1 28727:1 28740:1 28750:1 28782:1 28807:1 28812:1 28884:1 28885:1 28886:1 28889:1 28909:1 28935:1 28939:1 28956:1 28959:1 28963:1 28964:1 28990:1 28991:1 28993:1 29049:1 29060:1 29070:1 29076:1 29099:1 29105:1 29120:1 29126:1 29136:1 29151:1 29159:1 29169:1 29202:1 29225:1 29228:1 29233:1 29267:1 29269:1 29275:1 29322:1 29334:1 29341:1 29386:1 29426:1 29444:1 29491:1 29496:1 29503:1 29510:1 29515:1 29528:1 29534:1 29543:1 29554:1 29565:1 29588:1 29591:1 29592:1 29624:1 29630:1 29645:1 29678:1 29693:1 29759:1 29760:1 29807:1 29826:1 29859:1 29879:1 29882:1 29896:1 29913:1 29978:1 29991:1 30001:1 30002:1 30013:1 30051:1 30054:1 30078:1 30082:1 30129:1 30144:1 30204:1 30213:1 30232:1 30318:1 30435:1 30450:1 30552:1 30553:1 30562:1 30598:1 30689:1 30707:1 30732:1 30736:1 30751:1 30799:1 30813:1 30824:1 30826:1 30892:1 30894:1 30899:1 30906:1 30935:1 30970:1 30974:1 31006:1 31017:1 31036:1 31046:1 31047:1 31068:1 31086:1 31120:1 31135:1 31138:1 31185:1 31190:1 31191:1 31198:1 31230:1 31297:1 31320:1 31327:1 31363:1 31377:1 31379:1 31380:1 31392:1 31423:1 31437:1 31442:1 31446:1 31450:1 31460:1 31478:1 31496:1 31503:1 31527:1 31547:1 31560:1 31607:1 31618:1 31641:1 31673:1 31705:1 31723:1 31767:1 31785:1 31788:1 31801:1 31841:1 31846:1 31859:1 31874:1 31881:1 31909:1 31923:1 31970:1 31976:1 31982:1 32051:1 32069:1 32087:1 32091:1 32131:1 32160:1 32229:1 32238:1 32246:1 32275:1 32321:1 32329:1 32375:1 32392:1 32405:1 32407:1 32438:1 32440:1 32469:1 32472:1 32495:1 32499:1 32513:1 32565:1 32576:1 32598:1 32599:1 32600:1 32602:1 32606:1 32608:1 32631:1 32650:1 32666:1 32674:1 32694:1 32710:1 32733:1 32755:1 32761:1 32816:1 32833:1 32845:1 32857:1 32872:1 32879:1 32893:1 32920:1 32927:1 32960:1 32977:1 33009:1 33013:1 33034:1 33101:1 33123:1 33178:1 33210:1 33217:1 33220:1 33222:1 33237:1 33250:1 33255:1 33301:1 33388:1 33392:1 33402:1 33412:1 33433:1 33442:1 33456:1 33474:1 33478:1 33527:1 33567:1 33611:1 33655:1 33728:1 33738:1 33755:1 33814:1 33829:1 33873:1 33916:1 33983:1 33988:1 34023:1 34054:1 34057:1 34077:1 34078:1 34082:1 34211:1 34215:1 34228:1 34243:1 34250:1 34259:1 34265:1 34270:1 34276:1 34302:1 34315:1 34320:1 34333:1 34357:1 34363:1 34406:1 34425:1 34447:1 34452:1 34488:1 34508:1 34518:1 34568:1 34570:1 34582:1 34583:1 34596:1 34622:1 34657:1 34691:1 34767:1 34789:1 34807:1 34868:1 34895:1 34913:1 34919:1 34934:1 34976:1 34995:1 34999:1 35014:1 35062:1 35227:1 35263:1 35284:1 35289:1 35301:1 35307:1 35318:1 35323:1 35373:1 35475:1 35523:1 35546:1 35556:1 35581:1 35619:1 35627:1 35640:1 35645:1 35666:1 35729:1 35747:1 35754:1 35786:1 35813:1 35858:1 35875:1 35881:1 #
-0.0032254370001595167663510643762947 265:1 390:1 740:1 1185:1 1664:1 2157:1 2337:1 2438:1 2582:1 2742:1 3366:1 3429:1 3530:1 3590:1 3654:1 3659:1 3963:1 4287:1 4371:1 4373:1 4653:1 5202:1 5350:1 5651:1 5833:1 6048:1 6266:1 6312:1 6372:1 6397:1 6670:1 6827:1 7257:1 7462:1 7756:1 7836:1 8314:1 8333:1 8508:1 8686:1 9428:1 9453:1 9712:1 9866:1 10202:1 10466:1 10780:1 10901:1 11009:1 11253:1 11314:1 11386:1 11542:1 11552:1 11562:1 11652:1 12221:1 12679:1 12891:1 12921:1 13021:1 13264:1 13415:1 13531:1 13741:1 13891:1 13903:1 14021:1 14143:1 14146:1 14276:1 28740:1 28752:1 28765:1 28766:1 28801:1 28810:1 28836:1 28894:1 28904:1 28906:1 28916:1 28917:1 28930:1 28935:1 28944:1 28951:1 28952:1 28956:1 28963:1 28975:1 28978:1 28990:1 28991:1 28993:1 28997:1 29004:1 29020:1 29044:1 29049:1 29065:1 29076:1 29151:1 29156:1 29221:1 29225:1 29228:1 29233:1 29235:1 29237:1 29245:1 29247:1 29260:1 29269:1 29275:1 29285:1 29322:1 29341:1 29378:1 29386:1 29389:1 29411:1 29414:1 29427:1 29437:1 29444:1 29446:1 29449:1 29452:1 29503:1 29508:1 29510:1 29515:1 29516:1 29534:1 29535:1 29561:1 29565:1 29584:1 29590:1 29591:1 29592:1 29599:1 29615:1 29623:1 29624:1 29635:1 29657:1 29660:1 29667:1 29678:1 29682:1 29693:1 29695:1 29712:1 29726:1 29732:1 29790:1 29807:1 29829:1 29830:1 29849:1 29853:1 29859:1 29868:1 29896:1 29902:1 29904:1 29919:1 29924:1 29948:1 29954:1 29959:1 29969:1 29978:1 29984:1 29991:1 30001:1 30003:1 30009:1 30013:1 30014:1 30028:1 30031:1 30042:1 30051:1 30062:1 30083:1 30122:1 30144:1 30145:1 30182:1 30188:1 30232:1 30233:1 30240:1 30257:1 30273:1 30276:1 30318:1 30344:1 30348:1 30384:1 30397:1 30410:1 30419:1 30421:1 30422:1 30440:1 30450:1 30530:1 30578:1 30579:1 30598:1 30612:1 30614:1 30623:1 30626:1 30627:1 30662:1 30667:1 30672:1 30685:1 30689:1 30695:1 30698:1 30705:1 30711:1 30716:1 30732:1 30737:1 30739:1 30756:1 30760:1 30787:1 30789:1 30797:1 30820:1 30824:1 30861:1 30889:1 30892:1 30894:1 30934:1 30942:1 30944:1 30948:1 30955:1 30969:1 30975:1 30983:1 30989:1 30996:1 31017:1 31022:1 31028:1 31042:1 31057:1 31059:1 31067:1 31068:1 31069:1 31095:1 31097:1 31111:1 31119:1 31129:1 31138:1 31145:1 31147:1 31166:1 31185:1 31190:1 31213:1 31217:1 31248:1 31253:1 31269:1 31281:1 31287:1 31297:1 31308:1 31313:1 31331:1 31336:1 31363:1 31377:1 31380:1 31397:1 31405:1 31437:1 31459:1 31463:1 31467:1 31468:1 31478:1 31496:1 31543:1 31550:1 31558:1 31559:1 31563:1 31613:1 31620:1 31626:1 31669:1 31673:1 31694:1 31698:1 31705:1 31730:1 31755:1 31756:1 31763:1 31767:1 31799:1 31801:1 31802:1 31841:1 31861:1 31879:1 31900:1 31917:1 31922:1 31933:1 31938:1 31943:1 31949:1 31950:1 31956:1 31959:1 31976:1 31982:1 31985:1 32031:1 32041:1 32044:1 32051:1 32061:1 32093:1 32095:1 32101:1 32113:1 32120:1 32127:1 32146:1 32162:1 32184:1 32204:1 32210:1 32216:1 32225:1 32246:1 32253:1 32268:1 32269:1 32271:1 32273:1 32292:1 32313:1 32316:1 32321:1 32329:1 32338:1 32361:1 32363:1 32368:1 32374:1 32377:1 32398:1 32405:1 32407:1 32431:1 32434:1 32444:1 32450:1 32465:1 32466:1 32468:1 32469:1 32545:1 32547:1 32564:1 32570:1 32572:1 32596:1 32598:1 32599:1 32602:1 32606:1 32608:1 32612:1 32632:1 32641:1 32650:1 32657:1 32676:1 32696:1 32699:1 32703:1 32727:1 32761:1 32770:1 32773:1 32787:1 32802:1 32810:1 32839:1 32841:1 32852:1 32854:1 32857:1 32874:1 32881:1 32883:1 32916:1 32917:1 32929:1 32933:1 32952:1 32960:1 32977:1 33013:1 33035:1 33037:1 33041:1 33046:1 33054:1 33078:1 33091:1 33095:1 33111:1 33123:1 33171:1 33173:1 33203:1 33205:1 33217:1 33218:1 33229:1 33235:1 33251:1 33272:1 33284:1 33299:1 33301:1 33313:1 33332:1 33348:1 33358:1 33370:1 33378:1 33390:1 33392:1 33393:1 33395:1 33412:1 33420:1 33422:1 33423:1 33425:1 33426:1 33459:1 33463:1 33474:1 33476:1 33477:1 33507:1 33509:1 33532:1 33534:1 33539:1 33590:1 33603:1 33610:1 33612:1 33625:1 33626:1 33657:1 33663:1 33679:1 33685:1 33697:1 33720:1 33733:1 33734:1 33757:1 33785:1 33812:1 33838:1 33869:1 33872:1 33873:1 33882:1 33921:1 33939:1 33944:1 33960:1 33961:1 33978:1 33983:1 33988:1 34011:1 34023:1 34028:1 34070:1 34075:1 34077:1 34082:1 34084:1 34085:1 34095:1 34110:1 34127:1 34131:1 34136:1 34157:1 34170:1 34175:1 34177:1 34187:1 34194:1 34204:1 34218:1 34221:1 34225:1 34238:1 34251:1 34271:1 34287:1 34301:1 34310:1 34320:1 34333:1 34357:1 34375:1 34381:1 34393:1 34406:1 34414:1 34425:1 34446:1 34447:1 34449:1 34452:1 34463:1 34466:1 34496:1 34528:1 34541:1 34551:1 34568:1 34588:1 34606:1 34607:1 34608:1 34614:1 34650:1 34712:1 34723:1 34749:1 34760:1 34776:1 34779:1 34782:1 34783:1 34789:1 34797:1 34800:1 34814:1 34852:1 34856:1 34868:1 34886:1 34893:1 34894:1 34904:1 34909:1 34913:1 34916:1 34929:1 34964:1 34995:1 34999:1 35001:1 35026:1 35030:1 35059:1 35062:1 35066:1 35085:1 35102:1 35103:1 35108:1 35110:1 35119:1 35136:1 35147:1 35166:1 35226:1 35227:1 35228:1 35241:1 35249:1 35260:1 35267:1 35271:1 35284:1 35307:1 35315:1 35339:1 35344:1 35345:1 35428:1 35437:1 35480:1 35507:1 35523:1 35533:1 35546:1 35548:1 35550:1 35574:1 35576:1 35578:1 35586:1 35595:1 35610:1 35619:1 35621:1 35640:1 35661:1 35664:1 35666:1 35667:1 35700:1 35704:1 35715:1 35720:1 35730:1 35734:1 35744:1 35747:1 35760:1 35764:1 35774:1 35795:1 35800:1 35801:1 35822:1 35825:1 35837:1 35840:1 35843:1 35851:1 35852:1 35853:1 35858:1 35870:1 35878:1 35881:1 #
0.00013778168993162654689874080382594 184:1 498:1 1134:1 1339:1 1835:1 1970:1 2374:1 2718:1 2745:1 2756:1 3167:1 3239:1 3336:1 3562:1 3683:1 3927:1 4227:1 4746:1 5233:1 5417:1 5706:1 5807:1 5811:1 6572:1 6586:1 6661:1 7416:1 7907:1 8245:1 8292:1 8874:1 9013:1 9792:1 10920:1 11158:1 11207:1 11297:1 11572:1 11729:1 11937:1 12078:1 12126:1 12291:1 13064:1 13125:1 13458:1 13582:1 13831:1 14008:1 28726:1 28730:1 28741:1 28767:1 28775:1 28776:1 28778:1 28781:1 28807:1 28852:1 28860:1 28870:1 28905:1 28907:1 28917:1 28923:1 28935:1 28951:1 28954:1 28959:1 28964:1 28990:1 28993:1 29021:1 29044:1 29049:1 29065:1 29070:1 29076:1 29085:1 29133:1 29138:1 29151:1 29156:1 29157:1 29165:1 29168:1 29194:1 29197:1 29207:1 29225:1 29228:1 29233:1 29261:1 29269:1 29275:1 29276:1 29323:1 29341:1 29346:1 29376:1 29380:1 29414:1 29420:1 29426:1 29427:1 29437:1 29465:1 29483:1 29498:1 29503:1 29504:1 29509:1 29517:1 29525:1 29553:1 29555:1 29561:1 29565:1 29568:1 29577:1 29590:1 29591:1 29592:1 29624:1 29631:1 29638:1 29664:1 29678:1 29692:1 29698:1 29712:1 29721:1 29732:1 29749:1 29753:1 29759:1 29761:1 29802:1 29807:1 29809:1 29852:1 29853:1 29859:1 29866:1 29876:1 29877:1 29902:1 29925:1 29927:1 29955:1 29978:1 29999:1 30001:1 30013:1 30029:1 30030:1 30048:1 30062:1 30079:1 30097:1 30104:1 30107:1 30122:1 30131:1 30144:1 30177:1 30178:1 30183:1 30212:1 30240:1 30249:1 30277:1 30304:1 30306:1 30308:1 30311:1 30312:1 30313:1 30373:1 30410:1 30426:1 30450:1 30455:1 30459:1 30505:1 30517:1 30545:1 30558:1 30562:1 30579:1 30583:1 30598:1 30626:1 30627:1 30633:1 30640:1 30645:1 30677:1 30681:1 30696:1 30711:1 30749:1 30753:1 30756:1 30817:1 30824:1 30852:1 30868:1 30872:1 30892:1 30894:1 30919:1 30923:1 30924:1 30944:1 30990:1 30996:1 31017:1 31033:1 31042:1 31043:1 31044:1 31047:1 31057:1 31059:1 31068:1 31069:1 31074:1 31078:1 31094:1 31124:1 31132:1 31138:1 31162:1 31166:1 31167:1 31188:1 31190:1 31191:1 31198:1 31213:1 31217:1 31222:1 31236:1 31248:1 31250:1 31275:1 31286:1 31301:1 31331:1 31337:1 31355:1 31368:1 31392:1 31438:1 31446:1 31460:1 31478:1 31481:1 31496:1 31504:1 31543:1 31553:1 31563:1 31566:1 31569:1 31578:1 31580:1 31588:1 31594:1 31634:1 31643:1 31647:1 31654:1 31685:1 31701:1 31705:1 31712:1 31723:1 31731:1 31737:1 31767:1 31801:1 31811:1 31821:1 31846:1 31868:1 31874:1 31902:1 31976:1 31997:1 32019:1 32023:1 32051:1 32069:1 32075:1 32092:1 32094:1 32096:1 32149:1 32162:1 32210:1 32211:1 32235:1 32242:1 32246:1 32258:1 32316:1 32321:1 32323:1 32342:1 32368:1 32371:1 32403:1 32404:1 32405:1 32421:1 32435:1 32440:1 32462:1 32472:1 32482:1 32485:1 32486:1 32489:1 32532:1 32541:1 32561:1 32581:1 32588:1 32596:1 32598:1 32599:1 32602:1 32606:1 32608:1 32650:1 32688:1 32696:1 32703:1 32731:1 32775:1 32776:1 32786:1 32819:1 32833:1 32862:1 32872:1 32877:1 32879:1 32912:1 32920:1 32927:1 32932:1 32960:1 32995:1 33001:1 33011:1 33046:1 33078:1 33101:1 33103:1 33107:1 33111:1 33123:1 33126:1 33150:1 33159:1 33178:1 33217:1 33231:1 33258:1 33259:1 33270:1 33282:1 33286:1 33301:1 33311:1 33332:1 33348:1 33361:1 33402:1 33414:1 33425:1 33433:1 33450:1 33459:1 33463:1 33520:1 33521:1 33524:1 33527:1 33529:1 33552:1 33567:1 33590:1 33600:1 33605:1 33611:1 33655:1 33685:1 33703:1 33728:1 33740:1 33763:1 33789:1 33802:1 33814:1 33834:1 33873:1 33911:1 33945:1 33960:1 33983:1 33988:1 33991:1 33995:1 34011:1 34023:1 34033:1 34054:1 34057:1 34068:1 34082:1 34121:1 34137:1 34138:1 34167:1 34170:1 34187:1 34192:1 34204:1 34218:1 34243:1 34254:1 34280:1 34307:1 34316:1 34323:1 34327:1 34333:1 34356:1 34372:1 34406:1 34410:1 34425:1 34476:1 34487:1 34501:1 34531:1 34540:1 34568:1 34570:1 34576:1 34631:1 34684:1 34685:1 34712:1 34732:1 34749:1 34769:1 34778:1 34789:1 34797:1 34807:1 34814:1 34815:1 34824:1 34832:1 34846:1 34868:1 34881:1 34884:1 34891:1 34904:1 34905:1 34913:1 34940:1 34952:1 34953:1 34993:1 34995:1 34998:1 34999:1 35001:1 35008:1 35014:1 35029:1 35062:1 35074:1 35081:1 35084:1 35103:1 35119:1 35124:1 35125:1 35147:1 35166:1 35171:1 35176:1 35198:1 35221:1 35226:1 35227:1 35228:1 35240:1 35248:1 35267:1 35273:1 35278:1 35283:1 35284:1 35286:1 35289:1 35299:1 35301:1 35307:1 35340:1 35344:1 35401:1 35409:1 35469:1 35480:1 35487:1 35506:1 35519:1 35546:1 35550:1 35566:1 35570:1 35592:1 35604:1 35614:1 35619:1 35632:1 35637:1 35640:1 35661:1 35666:1 35691:1 35699:1 35718:1 35734:1 35768:1 35781:1 35810:1 35812:1 35825:1 35843:1 35849:1 35858:1 35860:1 35878:1 #
-0.0015933902306224964444403280339202 255:1 580:1 714:1 2186:1 2430:1 2466:1 2977:1 3195:1 4481:1 4782:1 5541:1 6064:1 6153:1 6315:1 6887:1 7188:1 7274:1 7293:1 8131:1 8134:1 8254:1 8368:1 8925:1 10433:1 10493:1 10968:1 11006:1 11131:1 11449:1 12278:1 12482:1 12584:1 12626:1 12665:1 13411:1 13918:1 28797:1 28807:1 28809:1 28814:1 28876:1 28899:1 28900:1 28921:1 28929:1 28935:1 28944:1 28956:1 28964:1 28990:1 28991:1 28993:1 29044:1 29049:1 29062:1 29076:1 29108:1 29126:1 29131:1 29136:1 29151:1 29156:1 29177:1 29179:1 29193:1 29214:1 29219:1 29225:1 29242:1 29269:1 29286:1 29329:1 29341:1 29345:1 29376:1 29381:1 29386:1 29408:1 29411:1 29415:1 29437:1 29475:1 29503:1 29504:1 29510:1 29539:1 29555:1 29565:1 29568:1 29581:1 29590:1 29591:1 29592:1 29593:1 29601:1 29624:1 29647:1 29649:1 29657:1 29660:1 29667:1 29670:1 29673:1 29678:1 29698:1 29707:1 29732:1 29753:1 29759:1 29790:1 29807:1 29849:1 29853:1 29859:1 29872:1 29895:1 29896:1 29933:1 29955:1 29961:1 29978:1 29991:1 30001:1 30013:1 30014:1 30031:1 30101:1 30122:1 30144:1 30148:1 30155:1 30232:1 30257:1 30266:1 30318:1 30329:1 30348:1 30404:1 30410:1 30429:1 30464:1 30485:1 30487:1 30510:1 30519:1 30544:1 30579:1 30582:1 30626:1 30627:1 30630:1 30633:1 30672:1 30689:1 30696:1 30705:1 30738:1 30754:1 30760:1 30804:1 30824:1 30853:1 30876:1 30889:1 30892:1 30894:1 30899:1 30913:1 30926:1 30966:1 30984:1 30994:1 31000:1 31017:1 31020:1 31042:1 31048:1 31067:1 31068:1 31069:1 31071:1 31083:1 31095:1 31097:1 31138:1 31170:1 31178:1 31190:1 31196:1 31217:1 31236:1 31239:1 31248:1 31252:1 31295:1 31303:1 31334:1 31335:1 31344:1 31347:1 31363:1 31380:1 31389:1 31392:1 31460:1 31487:1 31492:1 31496:1 31504:1 31513:1 31530:1 31560:1 31563:1 31575:1 31578:1 31586:1 31624:1 31633:1 31647:1 31652:1 31704:1 31705:1 31730:1 31757:1 31767:1 31774:1 31801:1 31822:1 31850:1 31869:1 31885:1 31891:1 31893:1 31908:1 31909:1 31917:1 31960:1 31964:1 31970:1 32017:1 32021:1 32033:1 32051:1 32069:1 32083:1 32127:1 32142:1 32160:1 32162:1 32186:1 32210:1 32246:1 32316:1 32321:1 32323:1 32328:1 32329:1 32331:1 32367:1 32371:1 32385:1 32389:1 32403:1 32405:1 32423:1 32444:1 32449:1 32467:1 32485:1 32486:1 32515:1 32532:1 32572:1 32581:1 32598:1 32599:1 32602:1 32608:1 32631:1 32632:1 32650:1 32652:1 32653:1 32671:1 32673:1 32696:1 32769:1 32775:1 32800:1 32817:1 32842:1 32852:1 32857:1 32883:1 32918:1 32920:1 32924:1 32927:1 32932:1 32947:1 32960:1 32968:1 33010:1 33011:1 33013:1 33016:1 33027:1 33035:1 33079:1 33111:1 33113:1 33200:1 33204:1 33212:1 33217:1 33231:1 33281:1 33291:1 33301:1 33313:1 33332:1 33358:1 33361:1 33373:1 33394:1 33425:1 33426:1 33433:1 33436:1 33439:1 33444:1 33461:1 33474:1 33498:1 33520:1 33529:1 33534:1 33539:1 33543:1 33559:1 33600:1 33655:1 33686:1 33701:1 33722:1 33740:1 33784:1 33798:1 33811:1 33819:1 33873:1 33904:1 33925:1 33928:1 33960:1 33973:1 33981:1 33983:1 33988:1 33997:1 34000:1 34004:1 34016:1 34023:1 34027:1 34038:1 34054:1 34057:1 34078:1 34082:1 34093:1 34095:1 34130:1 34137:1 34182:1 34187:1 34204:1 34211:1 34213:1 34218:1 34229:1 34238:1 34255:1 34310:1 34333:1 34372:1 34415:1 34417:1 34421:1 34425:1 34452:1 34459:1 34488:1 34492:1 34508:1 34530:1 34568:1 34570:1 34631:1 34636:1 34685:1 34710:1 34743:1 34762:1 34783:1 34789:1 34799:1 34837:1 34843:1 34855:1 34858:1 34868:1 34919:1 34927:1 34953:1 34960:1 34962:1 34972:1 34986:1 34995:1 34998:1 34999:1 35001:1 35014:1 35062:1 35068:1 35072:1 35085:1 35103:1 35133:1 35145:1 35147:1 35152:1 35166:1 35176:1 35179:1 35227:1 35228:1 35243:1 35267:1 35268:1 35284:1 35289:1 35307:1 35335:1 35345:1 35369:1 35434:1 35443:1 35469:1 35477:1 35480:1 35493:1 35519:1 35533:1 35546:1 35550:1 35570:1 35574:1 35576:1 35578:1 35617:1 35619:1 35627:1 35635:1 35637:1 35640:1 35661:1 35666:1 35667:1 35693:1 35755:1 35801:1 35812:1 35831:1 35836:1 35843:1 35860:1 35878:1 35884:1 35885:1 #
0.0032254370001595167663510643762947 1070:1 7824:1 10000:1 14102:1 28722:1 28762:1 28840:1 28990:1 29070:1 29076:1 29087:1 29214:1 29341:1 29386:1 29397:1 29408:1 29503:1 29510:1 29543:1 29565:1 29587:1 29590:1 29591:1 29592:1 29596:1 29624:1 29666:1 29859:1 30013:1 30030:1 30048:1 30144:1 30410:1 30598:1 30626:1 30682:1 30814:1 30824:1 31037:1 31068:1 31069:1 31082:1 31086:1 31099:1 31287:1 31380:1 31492:1 31496:1 31505:1 31525:1 31563:1 31640:1 31679:1 31757:1 31859:1 32026:1 32051:1 32099:1 32160:1 32162:1 32229:1 32246:1 32316:1 32405:1 32407:1 32444:1 32485:1 32527:1 32536:1 32572:1 32598:1 32599:1 32602:1 32733:1 32775:1 32899:1 32918:1 32954:1 33004:1 33101:1 33332:1 33402:1 33740:1 33762:1 33960:1 33988:1 34082:1 34203:1 34210:1 34211:1 34243:1 34341:1 34476:1 34507:1 34547:1 34570:1 34616:1 34622:1 34634:1 34669:1 34756:1 34789:1 34790:1 34913:1 34929:1 34999:1 35062:1 35097:1 35226:1 35227:1 35263:1 35284:1 35289:1 35483:1 35546:1 35619:1 35651:1 35721:1 35801:1 35807:1 #
0.0032254370001595167663510643762947 1829:1 5950:1 7677:1 9111:1 9803:1 11345:1 14031:1 28807:1 28935:1 28938:1 28959:1 28990:1 28993:1 29023:1 29049:1 29076:1 29225:1 29299:1 29341:1 29430:1 29444:1 29458:1 29555:1 29565:1 29591:1 29624:1 29678:1 29691:1 29753:1 29829:1 30062:1 30144:1 30440:1 30463:1 30569:1 30593:1 30598:1 30692:1 30760:1 30824:1 30833:1 31059:1 31138:1 31248:1 31286:1 31299:1 31446:1 31450:1 31478:1 31496:1 31567:1 31626:1 31647:1 31663:1 31673:1 31699:1 31729:1 31805:1 31915:1 31976:1 31994:1 32052:1 32069:1 32224:1 32275:1 32288:1 32403:1 32405:1 32598:1 32602:1 32632:1 32761:1 32839:1 32960:1 33023:1 33275:1 33412:1 33628:1 33838:1 34057:1 34282:1 34372:1 34496:1 34582:1 34715:1 34753:1 34789:1 34884:1 34956:1 34995:1 34999:1 35081:1 35103:1 35208:1 35226:1 35284:1 35420:1 35644:1 35666:1 35724:1 35747:1 35766:1 35852:1 35878:1 #
0.0032254370001595167663510643762947 1623:1 2121:1 12225:1 28914:1 28990:1 29011:1 29013:1 29225:1 29345:1 29504:1 29565:1 29592:1 29604:1 29646:1 29768:1 29859:1 29886:1 30002:1 30013:1 30144:1 30358:1 30440:1 30631:1 30708:1 30799:1 30824:1 31028:1 31101:1 31137:1 31138:1 31206:1 31405:1 31496:1 31513:1 31543:1 31701:1 31920:1 32316:1 32321:1 32323:1 32383:1 32405:1 32416:1 32570:1 32598:1 32599:1 32602:1 32977:1 33211:1 33313:1 33412:1 33838:1 34023:1 34066:1 34315:1 34356:1 34428:1 34789:1 34797:1 34802:1 34999:1 35001:1 35062:1 35227:1 35284:1 35546:1 35592:1 35627:1 35634:1 35637:1 35699:1 35849:1 35854:1 35878:1 #
0.0032254370001595167663510643762947 1127:1 1595:1 2079:1 3126:1 3693:1 3970:1 4035:1 4622:1 5221:1 5824:1 6427:1 6714:1 9025:1 9762:1 10158:1 10669:1 11105:1 11448:1 13231:1 28723:1 28807:1 28935:1 28990:1 28991:1 29024:1 29040:1 29076:1 29099:1 29203:1 29225:1 29277:1 29341:1 29378:1 29386:1 29555:1 29565:1 29590:1 29591:1 29624:1 29678:1 29803:1 29814:1 29859:1 29934:1 29947:1 29978:1 30001:1 30013:1 30030:1 30123:1 30131:1 30141:1 30144:1 30209:1 30222:1 30410:1 30415:1 30426:1 30505:1 30562:1 30598:1 30633:1 30672:1 30689:1 30695:1 30756:1 30759:1 30824:1 30892:1 30910:1 30938:1 30953:1 30960:1 31017:1 31068:1 31097:1 31156:1 31189:1 31205:1 31295:1 31380:1 31450:1 31496:1 31535:1 31543:1 31623:1 31705:1 31721:1 31765:1 31865:1 31879:1 31927:1 31981:1 31994:1 32000:1 32051:1 32150:1 32162:1 32179:1 32321:1 32364:1 32367:1 32376:1 32405:1 32407:1 32596:1 32598:1 32599:1 32602:1 32632:1 32674:1 32842:1 32861:1 32862:1 32965:1 33071:1 33086:1 33110:1 33111:1 33217:1 33393:1 33414:1 33422:1 33540:1 33718:1 33746:1 33932:1 33960:1 33983:1 33985:1 33988:1 34023:1 34168:1 34218:1 34242:1 34255:1 34298:1 34301:1 34433:1 34452:1 34569:1 34620:1 34760:1 34776:1 34789:1 34854:1 34909:1 34913:1 34940:1 34995:1 34999:1 35057:1 35062:1 35081:1 35085:1 35099:1 35171:1 35188:1 35193:1 35228:1 35284:1 35454:1 35478:1 35512:1 35546:1 35578:1 35592:1 35598:1 35619:1 35640:1 35666:1 35747:1 35769:1 35822:1 35878:1 #
0.0032254370001595167663510643762947 590:1 963:1 1779:1 3273:1 3527:1 3659:1 4997:1 5991:1 7683:1 8506:1 11059:1 28915:1 28959:1 28974:1 28990:1 29049:1 29225:1 29228:1 29250:1 29261:1 29341:1 29376:1 29384:1 29565:1 29576:1 29585:1 29590:1 29591:1 29615:1 29624:1 29714:1 29859:1 29991:1 30014:1 30030:1 30125:1 30144:1 30259:1 30673:1 30824:1 30961:1 31017:1 31068:1 31113:1 31123:1 31138:1 31188:1 31346:1 31356:1 31405:1 31447:1 31460:1 31496:1 31623:1 31694:1 31767:1 31773:1 31804:1 31846:1 31894:1 31899:1 31909:1 31935:1 32002:1 32048:1 32051:1 32127:1 32160:1 32322:1 32323:1 32371:1 32405:1 32444:1 32485:1 32492:1 32553:1 32598:1 32599:1 32602:1 32632:1 32692:1 32803:1 32877:1 32903:1 33019:1 33028:1 33090:1 33101:1 33162:1 33178:1 33217:1 33220:1 33330:1 33392:1 33605:1 33611:1 33633:1 33873:1 33983:1 33988:1 34054:1 34082:1 34210:1 34238:1 34298:1 34425:1 34660:1 34721:1 34723:1 34789:1 34808:1 34885:1 34995:1 34999:1 35014:1 35068:1 35085:1 35101:1 35168:1 35306:1 35588:1 35619:1 35630:1 35666:1 35768:1 35812:1 35815:1 35821:1 35879:1 #
-0.0032254370001595167663510643762947 4065:1 28762:1 28990:1 29411:1 29624:1 29678:1 30144:1 30264:1 30374:1 31068:1 32598:1 32599:1 33217:1 34789:1 34797:1 34995:1 35691:1 #
-0.0032254370001595167663510643762947 28755:1 28775:1 28935:1 28990:1 29080:1 29348:1 29395:1 29592:1 29679:1 29732:1 29915:1 30001:1 30006:1 30141:1 30166:1 30672:1 30824:1 31068:1 31138:1 31216:1 31383:1 31496:1 31551:1 31649:1 31840:1 31898:1 32253:1 32391:1 32598:1 32602:1 32632:1 32679:1 32721:1 33035:1 33131:1 33332:1 33402:1 33483:1 34142:1 34686:1 34879:1 34995:1 34999:1 35040:1 35062:1 35083:1 35104:1 35227:1 35307:1 35371:1 #
-0.0032254370001595167663510643762947 815:1 1232:1 3573:1 8157:1 11946:1 12111:1 12376:1 12493:1 13364:1 13699:1 14286:1 28745:1 28755:1 28844:1 28918:1 28990:1 29049:1 29058:1 29070:1 29076:1 29202:1 29225:1 29228:1 29250:1 29352:1 29386:1 29411:1 29503:1 29549:1 29590:1 29591:1 29615:1 29624:1 29631:1 29768:1 29829:1 29853:1 29892:1 29893:1 29907:1 29991:1 30001:1 30144:1 30309:1 30609:1 30681:1 30824:1 31138:1 31190:1 31217:1 31349:1 31450:1 31496:1 31553:1 31723:1 31821:1 31878:1 31929:1 31933:1 31959:1 32051:1 32153:1 32204:1 32314:1 32380:1 32405:1 32486:1 32598:1 32602:1 32607:1 32666:1 32755:1 32769:1 32833:1 32857:1 32917:1 32979:1 33052:1 33095:1 33217:1 33226:1 33367:1 33403:1 33459:1 33462:1 33564:1 33571:1 33577:1 33944:1 33988:1 34023:1 34082:1 34166:1 34170:1 34211:1 34263:1 34275:1 34277:1 34609:1 34680:1 34710:1 34760:1 34789:1 34856:1 34999:1 35062:1 35103:1 35216:1 35257:1 35284:1 35320:1 35489:1 35578:1 35604:1 35619:1 35661:1 35666:1 35769:1 35822:1 35858:1 #
-0.0032254370001595167663510643762947 757:1 2787:1 5469:1 7255:1 8150:1 28725:1 28990:1 29049:1 29122:1 29225:1 29437:1 29565:1 29568:1 29591:1 29623:1 29667:1 29729:1 30030:1 30176:1 30232:1 30568:1 30633:1 30824:1 31048:1 31072:1 31129:1 31190:1 31270:1 31380:1 31496:1 31713:1 31934:1 31968:1 31978:1 32039:1 32051:1 32162:1 32310:1 32405:1 32570:1 32598:1 32599:1 32606:1 32608:1 32632:1 32655:1 32866:1 32976:1 33002:1 33142:1 33732:1 33981:1 33988:1 34057:1 34082:1 34187:1 34362:1 34452:1 34556:1 34576:1 34789:1 34829:1 34868:1 34909:1 34995:1 34999:1 35062:1 35110:1 35222:1 35226:1 35307:1 35416:1 35546:1 35582:1 35734:1 #
-0.0032254370001595167663510643762947 2678:1 8061:1 8932:1 9690:1 10198:1 13734:1 28748:1 28782:1 28844:1 28922:1 28935:1 28990:1 28993:1 29076:1 29093:1 29116:1 29151:1 29198:1 29225:1 29324:1 29341:1 29448:1 29449:1 29545:1 29565:1 29590:1 29591:1 29592:1 29624:1 29678:1 29895:1 30144:1 30166:1 30233:1 30267:1 30504:1 30672:1 30824:1 30936:1 30966:1 31017:1 31047:1 31058:1 31145:1 31176:1 31211:1 31230:1 31355:1 31405:1 31496:1 31574:1 31656:1 31676:1 31754:1 31767:1 31846:1 31862:1 31874:1 31926:1 31947:1 32051:1 32210:1 32246:1 32271:1 32275:1 32323:1 32405:1 32503:1 32514:1 32598:1 32599:1 32752:1 32833:1 32870:1 32927:1 33078:1 33204:1 33217:1 33313:1 33331:1 33332:1 33378:1 33459:1 33488:1 33626:1 33666:1 33862:1 33873:1 33988:1 34011:1 34023:1 34096:1 34183:1 34238:1 34341:1 34431:1 34452:1 34463:1 34497:1 34542:1 34570:1 34789:1 34934:1 34940:1 34999:1 35001:1 35044:1 35155:1 35211:1 35227:1 35265:1 35284:1 35546:1 35572:1 35617:1 35664:1 35666:1 35748:1 35755:1 35768:1 35852:1 #
0.0032254370001595167663510643762947 1223:1 1969:1 2115:1 2705:1 3647:1 3940:1 4321:1 4554:1 4656:1 4719:1 6421:1 8704:1 10219:1 10950:1 11331:1 11552:1 12221:1 12940:1 12969:1 13270:1 13433:1 13641:1 28738:1 28836:1 28844:1 28860:1 28883:1 28935:1 28937:1 28959:1 28964:1 28966:1 28990:1 29019:1 29020:1 29024:1 29040:1 29044:1 29076:1 29104:1 29151:1 29163:1 29214:1 29225:1 29228:1 29269:1 29271:1 29272:1 29277:1 29341:1 29386:1 29395:1 29411:1 29437:1 29444:1 29503:1 29515:1 29565:1 29568:1 29590:1 29592:1 29595:1 29623:1 29624:1 29657:1 29667:1 29678:1 29732:1 29849:1 29853:1 29859:1 29864:1 29902:1 29915:1 29925:1 29933:1 29978:1 29991:1 30001:1 30036:1 30083:1 30119:1 30144:1 30166:1 30175:1 30188:1 30328:1 30362:1 30404:1 30449:1 30450:1 30579:1 30626:1 30627:1 30696:1 30702:1 30734:1 30738:1 30815:1 30824:1 30863:1 30876:1 30894:1 30975:1 30989:1 31002:1 31017:1 31042:1 31045:1 31068:1 31086:1 31095:1 31112:1 31129:1 31136:1 31138:1 31168:1 31173:1 31190:1 31275:1 31314:1 31337:1 31349:1 31380:1 31413:1 31464:1 31496:1 31504:1 31514:1 31587:1 31634:1 31671:1 31692:1 31704:1 31705:1 31757:1 31767:1 31837:1 31879:1 31956:1 31987:1 32031:1 32051:1 32059:1 32083:1 32160:1 32162:1 32210:1 32231:1 32243:1 32246:1 32267:1 32268:1 32286:1 32288:1 32290:1 32323:1 32333:1 32354:1 32367:1 32371:1 32376:1 32391:1 32403:1 32405:1 32452:1 32485:1 32486:1 32532:1 32561:1 32563:1 32598:1 32599:1 32602:1 32608:1 32630:1 32645:1 32689:1 32721:1 32725:1 32729:1 32833:1 32920:1 32924:1 32935:1 32977:1 33001:1 33002:1 33010:1 33026:1 33048:1 33078:1 33079:1 33086:1 33095:1 33150:1 33151:1 33177:1 33217:1 33281:1 33301:1 33402:1 33426:1 33459:1 33467:1 33509:1 33513:1 33552:1 33577:1 33600:1 33611:1 33622:1 33633:1 33712:1 33789:1 33838:1 33873:1 33944:1 33988:1 33995:1 34057:1 34082:1 34095:1 34112:1 34137:1 34215:1 34238:1 34302:1 34332:1 34341:1 34363:1 34372:1 34448:1 34480:1 34502:1 34506:1 34508:1 34523:1 34537:1 34568:1 34570:1 34614:1 34617:1 34749:1 34762:1 34783:1 34789:1 34797:1 34801:1 34843:1 34859:1 34866:1 34868:1 34962:1 34988:1 34995:1 34999:1 35001:1 35004:1 35014:1 35033:1 35076:1 35089:1 35147:1 35160:1 35199:1 35227:1 35267:1 35284:1 35286:1 35289:1 35307:1 35345:1 35389:1 35497:1 35531:1 35546:1 35550:1 35572:1 35617:1 35619:1 35640:1 35661:1 35667:1 35691:1 35734:1 35755:1 35858:1 35878:1 #
0.0032254370001595167663510643762947 328:1 542:1 835:1 915:1 2179:1 2538:1 3941:1 4071:1 4192:1 4310:1 5059:1 5111:1 5229:1 5249:1 5344:1 6876:1 7026:1 7725:1 8236:1 8561:1 8702:1 9081:1 9190:1 9988:1 11291:1 11394:1 12367:1 13151:1 13368:1 13904:1 28750:1 28807:1 28822:1 28844:1 28876:1 28915:1 28920:1 28935:1 28964:1 28990:1 28991:1 29049:1 29057:1 29060:1 29072:1 29076:1 29123:1 29138:1 29161:1 29177:1 29186:1 29225:1 29228:1 29261:1 29267:1 29269:1 29275:1 29276:1 29303:1 29324:1 29341:1 29348:1 29376:1 29384:1 29392:1 29401:1 29443:1 29444:1 29503:1 29526:1 29563:1 29565:1 29590:1 29591:1 29592:1 29615:1 29623:1 29624:1 29640:1 29673:1 29677:1 29678:1 29733:1 29759:1 29777:1 29791:1 29809:1 29829:1 29853:1 29859:1 29870:1 29895:1 29933:1 29950:1 29955:1 29978:1 29991:1 30002:1 30013:1 30014:1 30024:1 30030:1 30040:1 30042:1 30046:1 30062:1 30113:1 30122:1 30131:1 30141:1 30144:1 30171:1 30233:1 30240:1 30275:1 30306:1 30323:1 30327:1 30328:1 30410:1 30425:1 30484:1 30503:1 30543:1 30562:1 30579:1 30603:1 30615:1 30627:1 30628:1 30633:1 30731:1 30732:1 30760:1 30770:1 30817:1 30824:1 30856:1 30862:1 30884:1 30892:1 30894:1 30899:1 30928:1 30975:1 30994:1 31006:1 31017:1 31034:1 31042:1 31059:1 31068:1 31069:1 31086:1 31109:1 31112:1 31138:1 31157:1 31167:1 31170:1 31189:1 31190:1 31191:1 31216:1 31248:1 31268:1 31275:1 31286:1 31300:1 31380:1 31392:1 31399:1 31406:1 31409:1 31441:1 31464:1 31468:1 31487:1 31496:1 31543:1 31560:1 31583:1 31597:1 31609:1 31619:1 31620:1 31636:1 31639:1 31647:1 31699:1 31705:1 31735:1 31737:1 31752:1 31832:1 31833:1 31837:1 31846:1 31874:1 31886:1 31937:1 31959:1 31970:1 31987:1 32051:1 32061:1 32088:1 32160:1 32162:1 32192:1 32195:1 32210:1 32240:1 32246:1 32271:1 32273:1 32276:1 32314:1 32316:1 32321:1 32323:1 32337:1 32342:1 32359:1 32371:1 32372:1 32374:1 32403:1 32405:1 32407:1 32423:1 32436:1 32482:1 32486:1 32487:1 32544:1 32590:1 32598:1 32599:1 32602:1 32606:1 32608:1 32617:1 32629:1 32631:1 32632:1 32643:1 32644:1 32696:1 32744:1 32751:1 32766:1 32769:1 32775:1 32833:1 32883:1 32886:1 32917:1 32920:1 32927:1 32932:1 32944:1 32973:1 33002:1 33031:1 33036:1 33078:1 33217:1 33227:1 33228:1 33295:1 33301:1 33332:1 33377:1 33380:1 33414:1 33422:1 33425:1 33433:1 33436:1 33507:1 33565:1 33574:1 33703:1 33749:1 33770:1 33778:1 33872:1 33916:1 33942:1 33960:1 33983:1 33988:1 34001:1 34023:1 34026:1 34057:1 34081:1 34082:1 34134:1 34137:1 34187:1 34211:1 34215:1 34225:1 34238:1 34293:1 34298:1 34307:1 34325:1 34372:1 34400:1 34406:1 34418:1 34425:1 34452:1 34470:1 34474:1 34520:1 34560:1 34561:1 34570:1 34576:1 34626:1 34629:1 34631:1 34684:1 34695:1 34717:1 34747:1 34748:1 34749:1 34762:1 34770:1 34789:1 34797:1 34826:1 34849:1 34857:1 34895:1 34909:1 34923:1 34929:1 34934:1 34940:1 34971:1 34995:1 34999:1 35001:1 35014:1 35034:1 35054:1 35062:1 35085:1 35103:1 35133:1 35166:1 35176:1 35216:1 35227:1 35228:1 35238:1 35253:1 35267:1 35307:1 35332:1 35345:1 35377:1 35443:1 35453:1 35467:1 35507:1 35546:1 35550:1 35573:1 35602:1 35619:1 35637:1 35638:1 35640:1 35653:1 35661:1 35666:1 35667:1 35747:1 35755:1 35771:1 35795:1 35800:1 35812:1 35829:1 35834:1 35843:1 35852:1 35858:1 #
0.0032254370001595167663510643762947 115:1 340:1 1225:1 3782:1 6033:1 6105:1 6190:1 8254:1 9392:1 10406:1 13818:1 28719:1 28732:1 28738:1 28760:1 28765:1 28776:1 28780:1 28803:1 28807:1 28816:1 28818:1 28836:1 28844:1 28846:1 28916:1 28935:1 28941:1 28957:1 28959:1 28963:1 28964:1 28990:1 28991:1 29044:1 29049:1 29069:1 29070:1 29076:1 29078:1 29126:1 29134:1 29151:1 29156:1 29159:1 29216:1 29219:1 29225:1 29227:1 29266:1 29269:1 29276:1 29277:1 29324:1 29341:1 29344:1 29376:1 29380:1 29386:1 29411:1 29426:1 29437:1 29444:1 29478:1 29502:1 29545:1 29548:1 29565:1 29584:1 29587:1 29590:1 29591:1 29592:1 29595:1 29624:1 29657:1 29664:1 29665:1 29667:1 29678:1 29680:1 29700:1 29702:1 29707:1 29710:1 29745:1 29749:1 29755:1 29759:1 29760:1 29777:1 29782:1 29804:1 29807:1 29817:1 29853:1 29859:1 29896:1 29929:1 29933:1 29955:1 29978:1 30001:1 30043:1 30048:1 30065:1 30104:1 30122:1 30144:1 30208:1 30230:1 30232:1 30233:1 30240:1 30272:1 30299:1 30306:1 30308:1 30318:1 30419:1 30432:1 30435:1 30450:1 30485:1 30505:1 30560:1 30589:1 30598:1 30611:1 30626:1 30627:1 30633:1 30653:1 30672:1 30689:1 30729:1 30732:1 30760:1 30796:1 30815:1 30824:1 30878:1 30886:1 30889:1 30892:1 30894:1 30906:1 30922:1 30928:1 30934:1 30966:1 31028:1 31042:1 31045:1 31054:1 31067:1 31068:1 31069:1 31083:1 31086:1 31097:1 31138:1 31190:1 31198:1 31217:1 31240:1 31248:1 31261:1 31268:1 31299:1 31329:1 31334:1 31349:1 31353:1 31355:1 31363:1 31370:1 31380:1 31392:1 31426:1 31429:1 31433:1 31434:1 31452:1 31496:1 31510:1 31529:1 31544:1 31545:1 31563:1 31607:1 31619:1 31620:1 31637:1 31647:1 31692:1 31697:1 31705:1 31748:1 31767:1 31838:1 31846:1 31865:1 31882:1 31900:1 31902:1 31908:1 31956:1 31994:1 32017:1 32021:1 32026:1 32043:1 32051:1 32069:1 32076:1 32093:1 32160:1 32162:1 32164:1 32190:1 32192:1 32199:1 32204:1 32210:1 32244:1 32246:1 32253:1 32258:1 32268:1 32275:1 32316:1 32321:1 32352:1 32354:1 32356:1 32357:1 32371:1 32374:1 32385:1 32392:1 32403:1 32405:1 32409:1 32421:1 32434:1 32485:1 32513:1 32521:1 32570:1 32598:1 32599:1 32602:1 32606:1 32608:1 32621:1 32624:1 32632:1 32641:1 32643:1 32644:1 32657:1 32662:1 32726:1 32740:1 32769:1 32775:1 32815:1 32833:1 32841:1 32852:1 32857:1 32861:1 32869:1 32879:1 32903:1 32909:1 32913:1 32917:1 32918:1 32920:1 32927:1 33000:1 33002:1 33010:1 33013:1 33016:1 33022:1 33026:1 33030:1 33035:1 33060:1 33078:1 33079:1 33082:1 33099:1 33101:1 33113:1 33129:1 33147:1 33150:1 33212:1 33218:1 33220:1 33231:1 33313:1 33324:1 33332:1 33333:1 33348:1 33361:1 33369:1 33438:1 33459:1 33474:1 33505:1 33507:1 33520:1 33544:1 33568:1 33597:1 33600:1 33603:1 33639:1 33644:1 33724:1 33728:1 33736:1 33762:1 33811:1 33814:1 33819:1 33873:1 33874:1 33960:1 33978:1 33983:1 33988:1 34023:1 34028:1 34038:1 34057:1 34082:1 34095:1 34126:1 34131:1 34137:1 34147:1 34157:1 34174:1 34187:1 34204:1 34211:1 34215:1 34218:1 34238:1 34264:1 34269:1 34270:1 34272:1 34284:1 34301:1 34310:1 34334:1 34372:1 34376:1 34380:1 34399:1 34406:1 34423:1 34425:1 34447:1 34452:1 34507:1 34508:1 34522:1 34539:1 34568:1 34570:1 34612:1 34626:1 34648:1 34681:1 34687:1 34726:1 34789:1 34795:1 34797:1 34807:1 34860:1 34868:1 34904:1 34913:1 34923:1 34929:1 34995:1 34999:1 35001:1 35014:1 35047:1 35062:1 35068:1 35085:1 35094:1 35097:1 35103:1 35134:1 35166:1 35176:1 35196:1 35216:1 35219:1 35227:1 35228:1 35241:1 35263:1 35267:1 35284:1 35289:1 35307:1 35324:1 35345:1 35368:1 35373:1 35385:1 35392:1 35396:1 35461:1 35473:1 35515:1 35531:1 35546:1 35566:1 35574:1 35578:1 35592:1 35617:1 35619:1 35633:1 35666:1 35718:1 35723:1 35732:1 35747:1 35752:1 35755:1 35768:1 35772:1 35793:1 35801:1 35812:1 35814:1 35858:1 35878:1 35891:1 #
0.0022496604903613163367603888787016 115:1 340:1 1225:1 3782:1 6033:1 6105:1 6190:1 8254:1 9392:1 10406:1 13818:1 28719:1 28732:1 28738:1 28760:1 28765:1 28776:1 28780:1 28803:1 28807:1 28816:1 28818:1 28836:1 28844:1 28846:1 28916:1 28935:1 28941:1 28957:1 28959:1 28963:1 28964:1 28990:1 28991:1 29044:1 29049:1 29069:1 29070:1 29076:1 29078:1 29126:1 29134:1 29151:1 29156:1 29159:1 29216:1 29219:1 29225:1 29227:1 29266:1 29269:1 29276:1 29277:1 29324:1 29341:1 29344:1 29376:1 29380:1 29386:1 29411:1 29426:1 29437:1 29444:1 29478:1 29502:1 29545:1 29548:1 29565:1 29584:1 29587:1 29590:1 29591:1 29592:1 29595:1 29624:1 29657:1 29664:1 29665:1 29667:1 29678:1 29680:1 29700:1 29702:1 29707:1 29710:1 29745:1 29749:1 29755:1 29759:1 29760:1 29777:1 29782:1 29804:1 29807:1 29817:1 29853:1 29859:1 29896:1 29929:1 29933:1 29955:1 29978:1 30001:1 30043:1 30048:1 30065:1 30104:1 30122:1 30144:1 30208:1 30230:1 30232:1 30233:1 30240:1 30272:1 30299:1 30306:1 30308:1 30318:1 30419:1 30432:1 30435:1 30450:1 30485:1 30505:1 30560:1 30589:1 30598:1 30611:1 30626:1 30627:1 30633:1 30653:1 30672:1 30689:1 30729:1 30732:1 30760:1 30796:1 30815:1 30824:1 30878:1 30886:1 30889:1 30892:1 30894:1 30906:1 30922:1 30928:1 30934:1 30966:1 31028:1 31042:1 31045:1 31054:1 31067:1 31068:1 31069:1 31083:1 31086:1 31097:1 31138:1 31190:1 31198:1 31217:1 31240:1 31248:1 31261:1 31268:1 31299:1 31329:1 31334:1 31349:1 31353:1 31355:1 31363:1 31370:1 31380:1 31392:1 31426:1 31429:1 31433:1 31434:1 31452:1 31496:1 31510:1 31529:1 31544:1 31545:1 31563:1 31607:1 31619:1 31620:1 31637:1 31647:1 31692:1 31697:1 31705:1 31748:1 31767:1 31838:1 31846:1 31865:1 31882:1 31900:1 31902:1 31908:1 31956:1 31994:1 32017:1 32021:1 32026:1 32043:1 32051:1 32069:1 32076:1 32093:1 32160:1 32162:1 32164:1 32190:1 32192:1 32199:1 32204:1 32210:1 32244:1 32246:1 32253:1 32258:1 32268:1 32275:1 32316:1 32321:1 32352:1 32354:1 32356:1 32357:1 32371:1 32374:1 32385:1 32392:1 32403:1 32405:1 32409:1 32421:1 32434:1 32485:1 32513:1 32521:1 32570:1 32598:1 32599:1 32602:1 32606:1 32608:1 32621:1 32624:1 32632:1 32641:1 32643:1 32644:1 32657:1 32662:1 32726:1 32740:1 32769:1 32775:1 32815:1 32833:1 32841:1 32852:1 32857:1 32861:1 32869:1 32879:1 32903:1 32909:1 32913:1 32917:1 32918:1 32920:1 32927:1 33000:1 33002:1 33010:1 33013:1 33016:1 33022:1 33026:1 33030:1 33035:1 33060:1 33078:1 33079:1 33082:1 33099:1 33101:1 33113:1 33129:1 33147:1 33150:1 33212:1 33218:1 33220:1 33231:1 33313:1 33324:1 33332:1 33333:1 33348:1 33361:1 33369:1 33438:1 33459:1 33474:1 33505:1 33507:1 33520:1 33544:1 33568:1 33597:1 33600:1 33603:1 33639:1 33644:1 33724:1 33728:1 33736:1 33762:1 33811:1 33814:1 33819:1 33873:1 33874:1 33960:1 33978:1 33983:1 33988:1 34023:1 34028:1 34038:1 34057:1 34082:1 34095:1 34126:1 34131:1 34137:1 34147:1 34157:1 34174:1 34187:1 34204:1 34211:1 34215:1 34218:1 34238:1 34264:1 34269:1 34272:1 34284:1 34301:1 34310:1 34334:1 34372:1 34376:1 34380:1 34399:1 34406:1 34423:1 34425:1 34447:1 34452:1 34507:1 34508:1 34522:1 34539:1 34568:1 34570:1 34612:1 34626:1 34648:1 34681:1 34687:1 34726:1 34789:1 34795:1 34797:1 34807:1 34860:1 34868:1 34904:1 34913:1 34923:1 34929:1 34995:1 34999:1 35001:1 35014:1 35047:1 35062:1 35068:1 35085:1 35094:1 35097:1 35103:1 35134:1 35166:1 35176:1 35196:1 35216:1 35219:1 35227:1 35228:1 35241:1 35263:1 35267:1 35284:1 35289:1 35307:1 35324:1 35345:1 35368:1 35373:1 35385:1 35392:1 35396:1 35461:1 35473:1 35515:1 35531:1 35546:1 35566:1 35574:1 35578:1 35592:1 35617:1 35619:1 35633:1 35666:1 35718:1 35723:1 35732:1 35747:1 35752:1 35755:1 35768:1 35772:1 35793:1 35801:1 35812:1 35814:1 35858:1 35878:1 35891:1 #
