SVM-light Version V6.02
0 # kernel type
3 # kernel parameter -d 
1 # kernel parameter -g 
1 # kernel parameter -s 
1 # kernel parameter -r 
empty# kernel parameter -u 
77272 # highest feature index 
1800 # number of training documents 
1354 # number of support vectors plus 1 
0.08835779 # threshold b, each following line is a SV (starting with alpha*y)
-0.0032210202238483471963437221319282 28854:1 28879:1 28914:1 28999:1 29099:1 29244:1 29351:1 29395:1 29562:1 29697:1 29799:1 29814:1 30101:1 30204:1 30381:1 30603:1 30741:1 30884:1 31069:1 31172:1 31181:1 31481:1 31509:1 31637:1 31794:1 31909:1 32141:1 32183:1 32330:1 32458:1 32583:1 32638:1 32663:1 32665:1 32750:1 33078:1 33185:1 33187:1 33408:1 33433:1 33449:1 33559:1 33698:1 33705:1 33735:1 33947:1 34138:1 34269:1 34359:1 34407:1 34414:1 34688:1 34748:1 35215:1 35267:1 35695:1 35984:1 36034:1 36200:1 36264:1 36484:1 36748:1 36797:1 36905:1 36923:1 37057:1 37136:1 37229:1 37273:1 37338:1 37556:1 37577:1 37608:1 37788:1 38213:1 38340:1 38341:1 38618:1 38819:1 38946:1 39073:1 39186:1 39312:1 39346:1 39350:1 39548:1 40028:1 40082:1 40149:1 40275:1 40522:1 40647:1 40954:1 41047:1 41159:1 41170:1 41589:1 42008:1 42010:1 42120:1 42201:1 42278:1 42305:1 42385:1 42489:1 42560:1 42694:1 42746:1 42780:1 43055:1 43244:1 43539:1 43727:1 43736:1 43744:1 43837:1 43901:1 43912:1 44087:1 44146:1 44163:1 44245:1 44382:1 44551:1 44710:1 44988:1 45082:1 45322:1 45323:1 45467:1 45533:1 45714:1 45854:1 46321:1 46516:1 46561:1 46755:1 47038:1 47114:1 47124:1 47125:1 47333:1 47355:1 47531:1 47624:1 47920:1 47963:1 47986:1 48098:1 48267:1 48325:1 48640:1 48648:1 48803:1 48931:1 48941:1 48984:1 49547:1 49562:1 49639:1 49661:1 49688:1 49739:1 49753:1 49778:1 49798:1 49858:1 49907:1 49931:1 49938:1 50045:1 50093:1 50276:1 50317:1 50453:1 50901:1 50924:1 51034:1 51039:1 51041:1 51051:1 51080:1 51967:1 51970:1 52069:1 52380:1 52490:1 52951:1 53143:1 53410:1 53536:1 53558:1 53564:1 53667:1 54005:1 54024:1 54130:1 54412:1 54605:1 54681:1 54830:1 54831:1 55195:1 55296:1 55989:1 56103:1 56352:1 56678:1 56838:1 57669:1 57924:1 58009:1 58160:1 58271:1 58419:1 58443:1 58516:1 58814:1 58992:1 59053:1 59087:1 59105:1 59159:1 59187:1 59264:1 59500:1 59691:1 59715:1 59935:1 60109:1 60264:1 60309:1 60339:1 60360:1 60489:1 60523:1 60534:1 60566:1 60646:1 61280:1 61307:1 61564:1 61574:1 61578:1 61617:1 62089:1 62269:1 62362:1 62486:1 62745:1 62996:1 63056:1 63293:1 63480:1 63985:1 64368:1 64852:1 64895:1 64957:1 65062:1 65182:1 65236:1 65254:1 65266:1 65326:1 65358:1 65602:1 65655:1 65709:1 65858:1 65882:1 65926:1 66241:1 66447:1 66475:1 66490:1 66528:1 66586:1 66850:1 66892:1 67052:1 67118:1 67327:1 67463:1 67583:1 67747:1 67783:1 68008:1 68145:1 68616:1 68628:1 68812:1 68850:1 69002:1 69122:1 69234:1 69346:1 69353:1 69393:1 69637:1 69699:1 69905:1 69955:1 70284:1 70530:1 70540:1 70627:1 70737:1 70999:1 71046:1 71201:1 71276:1 71323:1 71377:1 71380:1 71678:1 71711:1 71738:1 71815:1 71817:1 72003:1 72040:1 72132:1 72348:1 72590:1 72769:1 72952:1 73157:1 73419:1 74280:1 74282:1 74665:1 74933:1 75381:1 75855:1 75923:1 76308:1 76420:1 76431:1 76726:1 77104:1 #
-0.0032210202238483471963437221319282 28968:1 29137:1 29244:1 29246:1 29351:1 29412:1 30204:1 30381:1 30615:1 30884:1 31157:1 31993:1 32022:1 32303:1 32441:1 32635:1 32638:1 32750:1 33078:1 33361:1 33559:1 33645:1 34127:1 34515:1 34522:1 34601:1 34636:1 34753:1 35695:1 35720:1 35920:1 37035:1 37229:1 37273:1 37338:1 37577:1 38213:1 38540:1 38946:1 39311:1 39312:1 39522:1 40028:1 40155:1 40636:1 41159:1 41170:1 41224:1 42145:1 42403:1 42789:1 42891:1 43539:1 43744:1 43901:1 43912:1 44087:1 44300:1 44764:1 44878:1 45082:1 45383:1 45467:1 45556:1 45727:1 45778:1 45986:1 47063:1 47124:1 47125:1 47139:1 47317:1 47505:1 47909:1 48640:1 48803:1 49551:1 49858:1 49907:1 50276:1 50317:1 50641:1 50780:1 51034:1 51041:1 51222:1 51975:1 52069:1 52986:1 53536:1 53727:1 53942:1 54024:1 54130:1 55195:1 56103:1 56347:1 57825:1 58271:1 58303:1 58443:1 58564:1 59500:1 59671:1 59691:1 59788:1 60335:1 63293:1 63447:1 63481:1 63509:1 64502:1 64721:1 64852:1 65085:1 65266:1 65563:1 65858:1 66219:1 66586:1 66774:1 66892:1 67009:1 67098:1 69002:1 69234:1 69346:1 69393:1 70069:1 70530:1 71201:1 71678:1 71825:1 72111:1 72132:1 72206:1 72502:1 72769:1 72808:1 73157:1 73405:1 73803:1 74133:1 74282:1 74742:1 74933:1 75113:1 75923:1 76141:1 77104:1 #
-0.00091643807603578085821394161314402 28808:1 28879:1 28932:1 29244:1 29246:1 29270:1 29799:1 29961:1 30071:1 30204:1 30381:1 30623:1 30741:1 30884:1 31056:1 31369:1 31643:1 31708:1 31794:1 31909:1 32247:1 32520:1 32663:1 32670:1 32750:1 32870:1 33433:1 33533:1 33604:1 33902:1 34111:1 34502:1 34601:1 34688:1 34881:1 35146:1 35402:1 35575:1 35627:1 35741:1 35744:1 35778:1 36134:1 36144:1 36383:1 36432:1 36437:1 37058:1 37273:1 37338:1 37361:1 37577:1 37608:1 37769:1 37933:1 37945:1 38213:1 38661:1 38779:1 38781:1 38859:1 39081:1 39350:1 39732:1 40028:1 40082:1 40149:1 40865:1 40867:1 40956:1 40986:1 41170:1 41246:1 41407:1 41546:1 41555:1 41851:1 42008:1 42010:1 42013:1 42206:1 42339:1 42385:1 42388:1 42431:1 42694:1 42727:1 43169:1 43405:1 43539:1 43737:1 43744:1 43912:1 43967:1 44087:1 44242:1 44274:1 44361:1 44503:1 44551:1 44764:1 45302:1 45424:1 45561:1 45755:1 45854:1 45906:1 46030:1 46385:1 46655:1 46700:1 46926:1 46927:1 47124:1 47125:1 47139:1 47494:1 47554:1 47563:1 47624:1 47920:1 47986:1 48373:1 48707:1 48771:1 48803:1 48831:1 48957:1 49055:1 49547:1 49562:1 49639:1 49753:1 49778:1 49879:1 50093:1 50178:1 50205:1 51034:1 51041:1 51051:1 51153:1 52377:1 53210:1 53536:1 53567:1 53832:1 54130:1 54830:1 54831:1 54902:1 55077:1 55548:1 55986:1 56273:1 56436:1 56563:1 56571:1 56690:1 56710:1 56738:1 56765:1 56838:1 56880:1 57031:1 57710:1 58271:1 58274:1 58303:1 58481:1 58516:1 58745:1 58755:1 58814:1 58991:1 58992:1 59187:1 59573:1 59671:1 59687:1 59785:1 59790:1 60109:1 60160:1 60264:1 60340:1 60406:1 60534:1 60537:1 60646:1 60896:1 61029:1 61515:1 61689:1 61946:1 61974:1 62089:1 62172:1 62332:1 62391:1 62486:1 62527:1 62670:1 63509:1 63608:1 64168:1 64313:1 64368:1 64422:1 64567:1 64757:1 65266:1 65326:1 65331:1 65511:1 65563:1 65602:1 65655:1 66193:1 66267:1 66475:1 66494:1 66586:1 67463:1 67479:1 67779:1 67783:1 67974:1 68242:1 68867:1 69002:1 69009:1 69234:1 69393:1 69811:1 69905:1 70339:1 70398:1 70530:1 70685:1 71063:1 71201:1 71263:1 71323:1 71500:1 71678:1 71740:1 72132:1 72271:1 72404:1 72808:1 72821:1 73521:1 74448:1 74665:1 74933:1 75113:1 75519:1 75686:1 75923:1 76138:1 76370:1 76420:1 77104:1 #
-0.0017483864821928193043765187297822 29095:1 29176:1 29244:1 29246:1 29343:1 29351:1 29387:1 29799:1 30095:1 30171:1 30175:1 30204:1 30401:1 30704:1 30926:1 31141:1 31154:1 31216:1 31248:1 31708:1 31909:1 32267:1 32457:1 32465:1 32691:1 32724:1 32741:1 32750:1 33017:1 33132:1 33604:1 33794:1 34367:1 34410:1 35354:1 35505:1 35540:1 35575:1 35638:1 35714:1 35741:1 35773:1 35795:1 35800:1 35814:1 36079:1 36146:1 36205:1 36217:1 36530:1 36839:1 36841:1 37229:1 37273:1 37338:1 37560:1 37577:1 37746:1 37844:1 38047:1 38213:1 38331:1 38611:1 38776:1 38781:1 39311:1 39312:1 39345:1 39350:1 39679:1 39821:1 40149:1 40252:1 40626:1 40644:1 40965:1 40986:1 40993:1 40999:1 41014:1 41170:1 41172:1 41805:1 41955:1 42008:1 42010:1 42013:1 42180:1 42278:1 42392:1 42489:1 42613:1 42694:1 42780:1 43170:1 43354:1 43392:1 43539:1 43737:1 43744:1 43756:1 43901:1 44025:1 44064:1 44087:1 44245:1 44274:1 44551:1 44824:1 45082:1 45211:1 45226:1 45302:1 45410:1 45467:1 45718:1 45798:1 45945:1 46051:1 46178:1 46289:1 46494:1 46556:1 47046:1 47124:1 47125:1 47139:1 47255:1 47396:1 47516:1 47888:1 47920:1 48279:1 48294:1 48337:1 48803:1 48831:1 48921:1 49233:1 49547:1 49679:1 49753:1 49778:1 50185:1 50289:1 50317:1 50972:1 51034:1 51041:1 51170:1 51374:1 51975:1 52010:1 52276:1 52439:1 52559:1 52715:1 52926:1 52951:1 53536:1 53923:1 53942:1 54024:1 54130:1 54830:1 54921:1 54931:1 55071:1 55196:1 55764:1 55989:1 56066:1 56103:1 56347:1 56537:1 56571:1 56765:1 56838:1 57350:1 57354:1 57436:1 58038:1 58050:1 58271:1 58358:1 58516:1 58607:1 58814:1 59023:1 59181:1 59423:1 59569:1 59671:1 59823:1 60109:1 60234:1 60340:1 60473:1 60534:1 60608:1 60755:1 61104:1 61560:1 62036:1 62176:1 62745:1 63025:1 63142:1 63161:1 63608:1 64313:1 64368:1 64422:1 64567:1 64768:1 64824:1 64852:1 65015:1 65110:1 65266:1 65331:1 65485:1 65563:1 65602:1 65896:1 65986:1 66267:1 66318:1 66475:1 66528:1 66962:1 67120:1 67268:1 67463:1 67903:1 67945:1 68079:1 68145:1 68361:1 68464:1 68628:1 69002:1 69234:1 69393:1 69732:1 69893:1 70339:1 70530:1 71046:1 71201:1 71404:1 71678:1 72130:1 72229:1 72245:1 72563:1 72769:1 72952:1 73157:1 73419:1 73487:1 73579:1 74037:1 74377:1 74654:1 74665:1 74853:1 75782:1 75923:1 76292:1 77138:1 77181:1 #
-0.0032210202238483471963437221319282 28985:1 29244:1 29246:1 29343:1 29351:1 29359:1 29717:1 29799:1 30071:1 30204:1 30235:1 30287:1 30321:1 30381:1 30383:1 30603:1 30902:1 31184:1 31294:1 31339:1 31541:1 31627:1 31794:1 31859:1 31993:1 32611:1 32638:1 32663:1 32749:1 32750:1 33080:1 33487:1 33534:1 33590:1 33596:1 33707:1 34078:1 34092:1 34111:1 34127:1 34241:1 34430:1 34485:1 34515:1 34617:1 34688:1 34748:1 34864:1 34881:1 35131:1 35385:1 35611:1 35676:1 35741:1 35744:1 35814:1 36176:1 36758:1 37168:1 37182:1 37229:1 37273:1 37338:1 37350:1 37577:1 37945:1 37987:1 38145:1 38198:1 38213:1 38598:1 38753:1 38781:1 38891:1 39092:1 39176:1 39186:1 39311:1 39312:1 39386:1 39586:1 39618:1 39745:1 39791:1 40026:1 40028:1 40149:1 40226:1 40237:1 40515:1 40527:1 40612:1 40914:1 41091:1 41159:1 41170:1 41265:1 41377:1 41926:1 41942:1 41988:1 42008:1 42010:1 42013:1 42199:1 42278:1 42339:1 42385:1 42489:1 42525:1 42571:1 42645:1 42694:1 42700:1 43055:1 43169:1 43341:1 43404:1 43539:1 43558:1 43733:1 43736:1 43737:1 43870:1 43901:1 43912:1 44087:1 44156:1 44271:1 44274:1 44300:1 44361:1 44538:1 44569:1 44607:1 44848:1 44932:1 45133:1 45138:1 45518:1 45533:1 45583:1 45826:1 45833:1 45917:1 46203:1 46235:1 46289:1 46533:1 46561:1 46595:1 46681:1 46727:1 47056:1 47124:1 47125:1 47139:1 47379:1 47384:1 47624:1 47986:1 48155:1 48267:1 48640:1 48770:1 48780:1 48803:1 49547:1 49906:1 50008:1 50093:1 50134:1 50317:1 50697:1 50700:1 50737:1 50918:1 51034:1 51041:1 51051:1 51393:1 51509:1 51639:1 52136:1 52183:1 52328:1 52559:1 52669:1 52721:1 52892:1 53143:1 53267:1 53327:1 53368:1 53536:1 53816:1 53942:1 54024:1 54036:1 54130:1 54349:1 54412:1 54892:1 55296:1 55305:1 55777:1 55847:1 55989:1 56064:1 56103:1 56112:1 56143:1 56347:1 56378:1 56413:1 56563:1 56567:1 56765:1 56838:1 56851:1 56880:1 56955:1 57273:1 57436:1 57526:1 57875:1 57917:1 57957:1 58271:1 58297:1 58303:1 58323:1 58516:1 58544:1 58869:1 59083:1 59287:1 59407:1 59516:1 59557:1 59569:1 59573:1 59663:1 59998:1 60058:1 60109:1 60264:1 60489:1 61079:1 61578:1 61648:1 61978:1 62036:1 62047:1 62172:1 62247:1 62670:1 62727:1 62755:1 62920:1 63056:1 63065:1 63114:1 63293:1 63342:1 64080:1 64313:1 64368:1 64423:1 64757:1 64852:1 64901:1 65062:1 65254:1 65266:1 65316:1 65459:1 65563:1 65602:1 65655:1 65984:1 66475:1 66491:1 66586:1 66609:1 67052:1 67327:1 67463:1 67520:1 67783:1 68220:1 68233:1 68414:1 68483:1 68488:1 68525:1 68626:1 68628:1 68728:1 68850:1 68859:1 69002:1 69009:1 69079:1 69234:1 69505:1 69606:1 69637:1 69905:1 69955:1 70069:1 70302:1 70398:1 70424:1 70530:1 70958:1 71007:1 71201:1 71276:1 71318:1 71323:1 71377:1 71584:1 71678:1 72038:1 72132:1 72254:1 72669:1 72769:1 72791:1 72880:1 73123:1 73157:1 73167:1 73487:1 74282:1 74654:1 74776:1 74933:1 75113:1 75502:1 75941:1 76080:1 76172:1 76357:1 76420:1 76733:1 76797:1 77104:1 77145:1 77171:1 #
0.0032210202238483471963437221319282 28798:1 28822:1 28854:1 28879:1 28921:1 29119:1 29128:1 29143:1 29244:1 29246:1 29343:1 29351:1 29382:1 29625:1 29799:1 29976:1 30101:1 30192:1 30204:1 30318:1 30381:1 30884:1 31211:1 31240:1 31268:1 31479:1 31909:1 31993:1 32381:1 32663:1 32665:1 32750:1 33211:1 33271:1 33384:1 33487:1 33592:1 33744:1 33845:1 33911:1 34111:1 34515:1 34748:1 35049:1 35186:1 35238:1 35482:1 35505:1 35575:1 35631:1 35695:1 35720:1 35741:1 35776:1 36176:1 36217:1 36247:1 36306:1 36484:1 36596:1 36671:1 36701:1 36905:1 37229:1 37273:1 37338:1 37412:1 37544:1 37572:1 37577:1 37608:1 37768:1 37838:1 37933:1 37945:1 38021:1 38213:1 38302:1 38603:1 38776:1 39017:1 39312:1 39350:1 39378:1 39507:1 39576:1 39678:1 39679:1 39798:1 40149:1 40244:1 40246:1 40430:1 40765:1 40954:1 41020:1 41146:1 41170:1 41377:1 41461:1 41512:1 41589:1 41762:1 41926:1 41961:1 41988:1 42008:1 42010:1 42013:1 42048:1 42060:1 42180:1 42201:1 42481:1 42489:1 42525:1 42538:1 42594:1 42694:1 42700:1 42900:1 43055:1 43249:1 43492:1 43539:1 43637:1 43638:1 43744:1 43763:1 43912:1 43987:1 44087:1 44156:1 44351:1 44503:1 44539:1 44908:1 45082:1 45138:1 45235:1 45302:1 45580:1 45854:1 46289:1 46315:1 46376:1 46561:1 46567:1 46681:1 46857:1 47046:1 47091:1 47124:1 47125:1 47128:1 47139:1 47494:1 47585:1 47624:1 47638:1 47767:1 47821:1 48085:1 48494:1 48648:1 48677:1 48803:1 48819:1 48915:1 49007:1 49547:1 49602:1 49661:1 49739:1 49938:1 50093:1 50158:1 50277:1 50317:1 50470:1 50562:1 50619:1 50700:1 50766:1 50881:1 51034:1 51041:1 51051:1 51135:1 51193:1 51222:1 51301:1 51374:1 51393:1 51624:1 51877:1 51903:1 51954:1 52017:1 52059:1 52136:1 52268:1 52559:1 53137:1 53166:1 53327:1 53536:1 53558:1 53697:1 53802:1 53868:1 54024:1 54130:1 54136:1 54444:1 54688:1 54830:1 55195:1 55210:1 55620:1 55661:1 55943:1 55979:1 55989:1 56347:1 56375:1 56397:1 56436:1 56563:1 56571:1 56717:1 56887:1 57277:1 57294:1 57363:1 57496:1 57669:1 57873:1 57875:1 58160:1 58271:1 58303:1 58443:1 58502:1 58516:1 58711:1 58814:1 58830:1 58925:1 59067:1 59090:1 59093:1 59187:1 59194:1 59257:1 59264:1 59322:1 59569:1 59644:1 59671:1 59674:1 59691:1 59695:1 59823:1 60109:1 60340:1 60427:1 60636:1 61025:1 61288:1 61578:1 61648:1 61704:1 61779:1 61867:1 61946:1 62036:1 62089:1 62544:1 62727:1 62769:1 62963:1 63056:1 63197:1 63480:1 63608:1 63665:1 63946:1 63969:1 64313:1 64597:1 64713:1 64778:1 64852:1 64895:1 64906:1 65266:1 65388:1 65409:1 65537:1 65563:1 65602:1 65655:1 65709:1 65884:1 65890:1 65984:1 66161:1 66528:1 66586:1 66785:1 66862:1 67052:1 67187:1 67211:1 67351:1 67388:1 67695:1 68087:1 68217:1 69002:1 69009:1 69213:1 69234:1 69322:1 69393:1 69505:1 69637:1 69905:1 70247:1 70398:1 70477:1 70530:1 70553:1 70613:1 70685:1 70835:1 71201:1 71202:1 71263:1 71323:1 71380:1 71381:1 71531:1 71640:1 71678:1 71807:1 71815:1 72040:1 72157:1 72254:1 72290:1 72769:1 72785:1 72808:1 72821:1 72902:1 72912:1 72952:1 73020:1 73072:1 73132:1 73157:1 73850:1 73873:1 74133:1 74282:1 74713:1 74848:1 75094:1 75503:1 75507:1 75515:1 75704:1 75782:1 75923:1 75999:1 76135:1 76420:1 76583:1 76791:1 76900:1 77183:1 77245:1 #
0.0024844030397762925481408569083897 29244:1 29343:1 29351:1 29412:1 29491:1 29799:1 29976:1 30000:1 30204:1 30381:1 30559:1 30789:1 30876:1 31069:1 31141:1 31369:1 31481:1 31657:1 31794:1 32247:1 32282:1 32523:1 32525:1 32634:1 32663:1 32665:1 32691:1 32745:1 32750:1 33002:1 33268:1 33578:1 33638:1 33739:1 33744:1 34127:1 34396:1 34430:1 34531:1 34601:1 34641:1 34748:1 34752:1 34890:1 35111:1 35131:1 35267:1 35371:1 35499:1 35741:1 36200:1 36289:1 37229:1 37273:1 37338:1 37521:1 37577:1 37815:1 37830:1 38134:1 38213:1 38516:1 38811:1 38946:1 39073:1 39120:1 39311:1 39312:1 39350:1 39576:1 39678:1 40082:1 40124:1 40155:1 40323:1 40493:1 40999:1 41047:1 41170:1 41348:1 41851:1 42001:1 42008:1 42010:1 42013:1 42125:1 42339:1 42362:1 42411:1 42525:1 43055:1 43424:1 43539:1 43736:1 43744:1 43837:1 43868:1 44087:1 44274:1 44392:1 44454:1 44539:1 44764:1 45322:1 45363:1 45519:1 45533:1 45729:1 45945:1 46170:1 46235:1 46376:1 46561:1 46805:1 46857:1 46866:1 46965:1 47046:1 47056:1 47124:1 47125:1 47698:1 47835:1 47840:1 48325:1 48452:1 48529:1 48551:1 48597:1 48673:1 48677:1 48679:1 48771:1 48803:1 49233:1 49547:1 49639:1 49688:1 49739:1 49751:1 49753:1 49812:1 50093:1 50134:1 50158:1 50202:1 50265:1 50317:1 50768:1 51034:1 51041:1 51624:1 51703:1 51777:1 51975:1 52037:1 52081:1 52109:1 52559:1 52721:1 52765:1 52856:1 53536:1 53558:1 53816:1 54024:1 54130:1 54263:1 54830:1 54881:1 54931:1 55296:1 55455:1 55786:1 55801:1 55842:1 55902:1 56317:1 56347:1 56730:1 56880:1 57082:1 57110:1 57111:1 57273:1 57275:1 57354:1 57436:1 57587:1 58271:1 58443:1 58516:1 58548:1 58763:1 58991:1 59029:1 59083:1 59500:1 59558:1 59671:1 59691:1 59758:1 59823:1 59936:1 59963:1 60109:1 60264:1 60339:1 60340:1 60534:1 60638:1 60642:1 60755:1 60896:1 61202:1 61906:1 62374:1 62408:1 62529:1 62653:1 62771:1 62978:1 63056:1 63293:1 63484:1 63774:1 63864:1 64006:1 64186:1 64368:1 64567:1 64577:1 64713:1 64835:1 64852:1 65266:1 65331:1 65537:1 65574:1 65602:1 65655:1 65709:1 65832:1 66193:1 66475:1 66528:1 67052:1 67213:1 67268:1 67364:1 67695:1 67716:1 67724:1 67783:1 68401:1 68469:1 68635:1 69002:1 69009:1 69234:1 69393:1 69508:1 69810:1 69893:1 69905:1 70002:1 70268:1 70339:1 70487:1 70530:1 70649:1 71201:1 71276:1 71323:1 71377:1 71524:1 71546:1 71678:1 71815:1 72154:1 72237:1 72284:1 72429:1 72580:1 72667:1 72769:1 73066:1 73467:1 74282:1 74518:1 74933:1 75113:1 75213:1 75264:1 75336:1 75782:1 76420:1 77104:1 77212:1 77247:1 #
0.0032210202238483471963437221319282 28943:1 29244:1 29246:1 29343:1 29542:1 29768:1 30204:1 30309:1 30381:1 30465:1 30728:1 30876:1 31003:1 31069:1 31211:1 31479:1 31541:1 32118:1 32663:1 32691:1 32750:1 33080:1 33091:1 33170:1 33358:1 33744:1 33752:1 34111:1 34359:1 34614:1 34697:1 35131:1 35376:1 35482:1 35505:1 35575:1 35744:1 35984:1 36383:1 36499:1 36635:1 36797:1 37229:1 37273:1 37338:1 37577:1 37959:1 38213:1 38331:1 38467:1 38618:1 38781:1 38946:1 39058:1 39311:1 39328:1 39350:1 39618:1 39678:1 39732:1 40028:1 40155:1 40174:1 40237:1 40239:1 40246:1 40612:1 40867:1 40954:1 40982:1 41170:1 41172:1 41377:1 42008:1 42010:1 42013:1 42060:1 42130:1 42362:1 42694:1 42940:1 43091:1 43244:1 43539:1 43681:1 43736:1 43737:1 43742:1 43744:1 43912:1 44087:1 44096:1 44850:1 44878:1 45082:1 45183:1 45302:1 45546:1 46051:1 46324:1 46370:1 47056:1 47124:1 47125:1 47139:1 47554:1 47698:1 47759:1 47920:1 48628:1 48742:1 48803:1 48894:1 49360:1 49469:1 49547:1 49858:1 49879:1 49906:1 50093:1 50317:1 50764:1 51039:1 51041:1 51051:1 51724:1 51975:1 52559:1 53145:1 53408:1 53536:1 53558:1 53923:1 53942:1 54024:1 54130:1 54190:1 54732:1 54801:1 54830:1 56347:1 56674:1 56838:1 57275:1 57358:1 57387:1 58203:1 58271:1 58303:1 58443:1 58516:1 58564:1 58651:1 58860:1 58868:1 59117:1 59187:1 59423:1 59691:1 59784:1 60109:1 60264:1 60273:1 60409:1 60489:1 60537:1 60544:1 61183:1 61578:1 61906:1 61972:1 62347:1 63271:1 63293:1 63356:1 63361:1 64443:1 64608:1 64710:1 64976:1 65098:1 65266:1 65331:1 65563:1 65602:1 65655:1 65709:1 66267:1 66531:1 66586:1 66847:1 67213:1 67783:1 67831:1 67945:1 68077:1 68117:1 69002:1 69009:1 69043:1 69165:1 69234:1 69307:1 69322:1 69393:1 69419:1 69637:1 69699:1 69905:1 70041:1 70069:1 70271:1 70530:1 70543:1 71201:1 71202:1 71323:1 71380:1 71584:1 71678:1 71807:1 71825:1 71834:1 72003:1 72041:1 72206:1 72254:1 72695:1 72769:1 72808:1 73405:1 73487:1 73560:1 73998:1 74124:1 74282:1 74713:1 74933:1 75383:1 76420:1 77082:1 77104:1 77245:1 #
0.0012574260296992110456232305537583 29244:1 29246:1 29273:1 29351:1 29674:1 29697:1 29733:1 29768:1 29799:1 29958:1 30003:1 30204:1 30381:1 30392:1 30401:1 30603:1 30664:1 31141:1 31216:1 31376:1 31481:1 31574:1 31794:1 31909:1 32247:1 32663:1 32750:1 32817:1 33987:1 34078:1 34085:1 34092:1 34515:1 34688:1 34748:1 34864:1 34881:1 34952:1 35371:1 35398:1 35575:1 35631:1 35695:1 36217:1 36247:1 36797:1 37157:1 37206:1 37229:1 37273:1 38611:1 38763:1 38781:1 38819:1 39012:1 39164:1 39311:1 39312:1 39350:1 40028:1 40149:1 40226:1 40436:1 40612:1 40727:1 41073:1 41141:1 41170:1 41366:1 41734:1 41851:1 41914:1 41945:1 42008:1 42010:1 42060:1 42180:1 42411:1 42525:1 42694:1 42780:1 42821:1 43091:1 43176:1 43539:1 43736:1 43737:1 43744:1 43901:1 43912:1 44087:1 44271:1 44274:1 44392:1 44875:1 44878:1 44908:1 44988:1 45082:1 45321:1 45519:1 45546:1 45706:1 45729:1 45755:1 46353:1 46561:1 46682:1 46727:1 47056:1 47124:1 47125:1 47624:1 47735:1 47839:1 47963:1 48679:1 48803:1 48969:1 49003:1 49547:1 49685:1 49688:1 50138:1 50276:1 50376:1 50700:1 50859:1 51034:1 51041:1 51374:1 51600:1 52171:1 52427:1 52639:1 52705:1 53423:1 53536:1 53558:1 53923:1 53942:1 54024:1 54128:1 54130:1 54349:1 54412:1 54881:1 54902:1 54928:1 55022:1 55195:1 55296:1 55463:1 55548:1 55764:1 55800:1 55989:1 56032:1 56054:1 56347:1 56467:1 56571:1 56838:1 57111:1 57261:1 57273:1 57354:1 57358:1 58271:1 58273:1 58941:1 58991:1 59087:1 59187:1 59233:1 59423:1 59557:1 59691:1 59715:1 59963:1 60109:1 60339:1 60406:1 60841:1 61202:1 61574:1 61974:1 62556:1 62670:1 62745:1 62769:1 63025:1 63480:1 64368:1 64422:1 64634:1 65137:1 65266:1 65313:1 65331:1 65602:1 65845:1 65896:1 65898:1 65970:1 65981:1 65984:1 66390:1 66475:1 66850:1 67211:1 67549:1 67695:1 67730:1 67824:1 68139:1 68628:1 68730:1 69002:1 69234:1 69508:1 69708:1 69811:1 69955:1 70002:1 70006:1 70069:1 70530:1 71201:1 71239:1 71318:1 71323:1 71377:1 71825:1 72254:1 72769:1 73167:1 73490:1 73707:1 74282:1 74299:1 74665:1 74902:1 74933:1 75291:1 75509:1 76104:1 76222:1 76531:1 76612:1 #
0.0032210202238483471963437221319282 28814:1 29071:1 29142:1 29244:1 29246:1 29351:1 29748:1 29799:1 30071:1 30204:1 30356:1 30381:1 30417:1 30511:1 30603:1 30769:1 30835:1 30933:1 31176:1 31240:1 31627:1 31794:1 31837:1 31909:1 32010:1 32055:1 32062:1 32583:1 32663:1 32750:1 33187:1 33271:1 33307:1 33879:1 34078:1 34112:1 34414:1 34478:1 34515:1 34688:1 34752:1 35144:1 35146:1 35482:1 35575:1 35576:1 35616:1 35741:1 35744:1 35829:1 35998:1 36217:1 36383:1 36839:1 37157:1 37273:1 37325:1 37338:1 37577:1 37588:1 37726:1 37772:1 37850:1 37945:1 37999:1 38331:1 38345:1 38730:1 38946:1 39017:1 39058:1 39093:1 39312:1 39350:1 39679:1 39795:1 40082:1 40149:1 40155:1 40288:1 40404:1 40437:1 40604:1 40852:1 40954:1 40993:1 41170:1 41275:1 41322:1 41428:1 41634:1 41724:1 41781:1 42008:1 42010:1 42013:1 42184:1 42278:1 42448:1 42481:1 42489:1 42694:1 42746:1 42780:1 42821:1 42844:1 42891:1 43139:1 43353:1 43605:1 43742:1 43837:1 43838:1 43901:1 43912:1 43987:1 44064:1 44087:1 44208:1 44293:1 44351:1 44472:1 44511:1 44520:1 44853:1 44992:1 45340:1 45575:1 45775:1 45854:1 46109:1 46349:1 46561:1 47124:1 47139:1 47531:1 47698:1 47770:1 47863:1 47920:1 48026:1 48124:1 48436:1 48648:1 48687:1 48714:1 48723:1 48803:1 49435:1 49547:1 49639:1 49707:1 49858:1 49951:1 49992:1 50205:1 50317:1 50855:1 51034:1 51041:1 51051:1 51374:1 51509:1 51703:1 52016:1 52059:1 52100:1 52240:1 52318:1 52490:1 53034:1 53122:1 53207:1 53504:1 53536:1 53558:1 53564:1 53697:1 53923:1 54051:1 54130:1 54156:1 54830:1 54831:1 54872:1 55154:1 55195:1 55271:1 55296:1 55410:1 55525:1 55976:1 55989:1 56103:1 56347:1 56441:1 56564:1 56571:1 56605:1 56674:1 56699:1 56838:1 57111:1 57387:1 57561:1 57779:1 58271:1 58516:1 58652:1 58941:1 59406:1 59569:1 59691:1 59788:1 59963:1 60160:1 60179:1 60241:1 60264:1 60282:1 60309:1 60329:1 60340:1 60638:1 61578:1 61924:1 61941:1 62934:1 63097:1 63293:1 63480:1 63734:1 63784:1 64006:1 64250:1 64422:1 64502:1 65216:1 65266:1 65316:1 65326:1 65331:1 65418:1 65602:1 65655:1 65845:1 65984:1 66019:1 66455:1 66829:1 66892:1 67052:1 67071:1 67146:1 67187:1 67269:1 67386:1 67568:1 67716:1 67747:1 67783:1 68853:1 69002:1 69009:1 69079:1 69213:1 69234:1 69346:1 69393:1 69905:1 70494:1 70530:1 71201:1 71202:1 71323:1 71377:1 71500:1 71531:1 71678:1 71815:1 71869:1 71979:1 72033:1 72206:1 72330:1 72348:1 72363:1 72483:1 72514:1 72525:1 72955:1 73314:1 73398:1 73487:1 73560:1 73561:1 73644:1 74654:1 74665:1 74848:1 74933:1 75113:1 75213:1 75387:1 75396:1 75478:1 75923:1 76182:1 76264:1 76355:1 76616:1 76751:1 76878:1 77104:1 #
-0.0032210202238483471963437221319282 28914:1 29125:1 29159:1 29176:1 29197:1 29207:1 29244:1 29246:1 29273:1 29343:1 29351:1 29491:1 29700:1 29715:1 29788:1 29799:1 29850:1 30045:1 30101:1 30192:1 30204:1 30260:1 30309:1 30323:1 30381:1 30436:1 30603:1 30704:1 30725:1 30819:1 30884:1 31069:1 31097:1 31142:1 31179:1 31240:1 31541:1 31637:1 31749:1 31794:1 31993:1 32010:1 32045:1 32247:1 32309:1 32465:1 32583:1 32590:1 32663:1 32665:1 32750:1 32817:1 32913:1 32966:1 33078:1 33185:1 33187:1 33226:1 33271:1 33590:1 33621:1 33732:1 33744:1 33964:1 34296:1 34346:1 34414:1 34459:1 34620:1 34694:1 34723:1 34748:1 35128:1 35131:1 35215:1 35300:1 35329:1 35502:1 35505:1 35575:1 35631:1 35741:1 35744:1 35984:1 36176:1 36205:1 36217:1 36247:1 36249:1 36484:1 36530:1 36596:1 36701:1 36762:1 36797:1 36822:1 37273:1 37338:1 37577:1 37608:1 37768:1 37895:1 37921:1 37945:1 38213:1 38259:1 38295:1 38371:1 38540:1 38598:1 38690:1 38776:1 38801:1 38819:1 38831:1 38946:1 39093:1 39145:1 39192:1 39283:1 39311:1 39312:1 39322:1 39350:1 39439:1 39448:1 39551:1 39576:1 39678:1 39679:1 39732:1 39798:1 39816:1 39891:1 39897:1 40033:1 40149:1 40155:1 40288:1 40323:1 40336:1 40515:1 40604:1 40623:1 40647:1 40652:1 40765:1 40828:1 40833:1 40954:1 40986:1 40993:1 41020:1 41159:1 41170:1 41175:1 41265:1 41322:1 41411:1 41634:1 41681:1 42008:1 42010:1 42013:1 42028:1 42060:1 42145:1 42195:1 42199:1 42278:1 42295:1 42339:1 42489:1 42525:1 42611:1 42694:1 42780:1 42890:1 42898:1 42965:1 43466:1 43539:1 43638:1 43736:1 43737:1 43744:1 43837:1 43895:1 43901:1 43916:1 44047:1 44078:1 44087:1 44274:1 44293:1 44295:1 44540:1 44551:1 44591:1 44710:1 44764:1 44870:1 44878:1 44950:1 45018:1 45045:1 45082:1 45196:1 45318:1 45322:1 45339:1 45625:1 45653:1 45775:1 45833:1 45854:1 45917:1 45980:1 45985:1 46289:1 46376:1 46516:1 46561:1 46567:1 46681:1 46857:1 47124:1 47125:1 47139:1 47271:1 47305:1 47310:1 47454:1 47624:1 47638:1 47698:1 47888:1 47963:1 48026:1 48038:1 48156:1 48185:1 48645:1 48657:1 48803:1 48830:1 48917:1 49007:1 49170:1 49380:1 49408:1 49469:1 49547:1 49639:1 49739:1 49812:1 49930:1 49931:1 50004:1 50093:1 50134:1 50253:1 50259:1 50286:1 50317:1 50562:1 50764:1 50774:1 50859:1 51034:1 51041:1 51051:1 51106:1 51221:1 51229:1 51353:1 51395:1 51504:1 51769:1 51960:1 51975:1 51998:1 52024:1 52059:1 52104:1 52136:1 52399:1 52490:1 52559:1 52715:1 52891:1 53145:1 53536:1 53558:1 53571:1 53583:1 53816:1 54024:1 54036:1 54082:1 54130:1 54199:1 54329:1 54625:1 54752:1 54792:1 54830:1 54831:1 54835:1 54881:1 54931:1 55296:1 55307:1 55414:1 55936:1 55949:1 55986:1 55989:1 56103:1 56188:1 56347:1 56373:1 56571:1 56686:1 56690:1 56831:1 56838:1 56851:1 56970:1 56996:1 57031:1 57111:1 57217:1 57231:1 57273:1 57307:1 57436:1 57463:1 57473:1 57547:1 57669:1 57749:1 58028:1 58042:1 58111:1 58271:1 58303:1 58377:1 58435:1 58443:1 58502:1 58550:1 58591:1 58652:1 58776:1 59006:1 59187:1 59212:1 59233:1 59462:1 59500:1 59557:1 59569:1 59584:1 59671:1 59691:1 59695:1 59709:1 59715:1 59773:1 59788:1 59790:1 59812:1 59998:1 60109:1 60464:1 60473:1 60534:1 60537:1 60608:1 60629:1 60755:1 61253:1 61280:1 61437:1 61578:1 61779:1 61906:1 62018:1 62036:1 62132:1 62172:1 62425:1 62653:1 62727:1 62768:1 62771:1 62799:1 62899:1 62908:1 62968:1 63056:1 63293:1 63361:1 63480:1 63529:1 63734:1 63739:1 63803:1 63985:1 64168:1 64230:1 64313:1 64332:1 64368:1 64402:1 64443:1 64534:1 64553:1 64608:1 64713:1 65182:1 65266:1 65316:1 65325:1 65326:1 65331:1 65418:1 65492:1 65563:1 65602:1 65655:1 65839:1 66219:1 66335:1 66396:1 66415:1 66528:1 66586:1 66608:1 66755:1 66804:1 66829:1 66892:1 67052:1 67133:1 67182:1 67266:1 67268:1 67270:1 67318:1 67377:1 67386:1 67388:1 67463:1 67479:1 67549:1 67716:1 67724:1 67783:1 67903:1 67908:1 67912:1 67932:1 68139:1 68430:1 68616:1 68750:1 68931:1 68972:1 69002:1 69079:1 69179:1 69234:1 69257:1 69260:1 69351:1 69617:1 69853:1 69893:1 69905:1 69952:1 69955:1 69978:1 70035:1 70069:1 70070:1 70258:1 70284:1 70339:1 70369:1 70498:1 70530:1 70621:1 70715:1 71046:1 71167:1 71195:1 71201:1 71202:1 71209:1 71318:1 71323:1 71326:1 71348:1 71377:1 71380:1 71678:1 71738:1 71815:1 71825:1 71889:1 72003:1 72107:1 72132:1 72254:1 72257:1 72284:1 72348:1 72769:1 72856:1 72992:1 72996:1 73407:1 73521:1 73907:1 73998:1 74059:1 74149:1 74171:1 74282:1 74438:1 74665:1 74832:1 74848:1 74881:1 75142:1 75208:1 75350:1 75379:1 75513:1 75654:1 75782:1 76015:1 76172:1 76180:1 76214:1 76222:1 76420:1 76891:1 77104:1 77245:1 #
-0.0021336388849819104378269241095722 28854:1 28944:1 28985:1 29054:1 29097:1 29143:1 29244:1 29343:1 29351:1 29609:1 29623:1 29697:1 29799:1 29839:1 29893:1 30071:1 30101:1 30192:1 30204:1 30290:1 30341:1 30381:1 30704:1 31069:1 31118:1 31154:1 31349:1 31382:1 31479:1 31993:1 32010:1 32055:1 32141:1 32170:1 32177:1 32497:1 32513:1 32524:1 32528:1 32614:1 32663:1 32665:1 32691:1 32745:1 32750:1 33115:1 33135:1 33187:1 33307:1 33433:1 33438:1 33596:1 33621:1 33637:1 33657:1 33911:1 34078:1 34086:1 34271:1 34367:1 34410:1 34414:1 34502:1 34618:1 34688:1 34767:1 34864:1 35073:1 35131:1 35135:1 35238:1 35385:1 35405:1 35502:1 35631:1 35734:1 35802:1 35978:1 35984:1 36034:1 36068:1 36146:1 36217:1 36289:1 36383:1 36484:1 36581:1 37006:1 37229:1 37267:1 37273:1 37338:1 37516:1 37521:1 37577:1 37622:1 37669:1 37928:1 38213:1 38512:1 38603:1 38661:1 38763:1 38819:1 38831:1 38832:1 39012:1 39058:1 39164:1 39311:1 39312:1 39320:1 39350:1 39615:1 39658:1 39679:1 39791:1 40026:1 40028:1 40066:1 40149:1 40155:1 40226:1 40239:1 40244:1 40323:1 40496:1 40522:1 40527:1 40529:1 40636:1 40642:1 40679:1 40954:1 41047:1 41141:1 41170:1 41377:1 41634:1 41945:1 42007:1 42008:1 42010:1 42013:1 42145:1 42362:1 42364:1 42417:1 42481:1 42489:1 42694:1 42700:1 42715:1 42772:1 42803:1 42844:1 42927:1 42954:1 42968:1 43055:1 43169:1 43230:1 43320:1 43349:1 43422:1 43539:1 43566:1 43592:1 43692:1 43736:1 43742:1 43744:1 43837:1 43852:1 43901:1 43960:1 44064:1 44071:1 44087:1 44362:1 44516:1 44552:1 44863:1 44878:1 45082:1 45583:1 45677:1 45775:1 45854:1 45964:1 46538:1 46561:1 46610:1 46681:1 47046:1 47114:1 47124:1 47125:1 47139:1 47333:1 47454:1 47495:1 47531:1 47532:1 47624:1 47698:1 47730:1 47859:1 48279:1 48416:1 48498:1 48597:1 48647:1 48683:1 48803:1 48887:1 49341:1 49365:1 49416:1 49547:1 49549:1 49639:1 49661:1 49671:1 49674:1 49770:1 49938:1 50044:1 50093:1 50218:1 50265:1 50317:1 50596:1 50774:1 50808:1 50859:1 50982:1 51018:1 51034:1 51041:1 51051:1 51176:1 51194:1 51312:1 51353:1 51393:1 51538:1 51985:1 52084:1 52109:1 52128:1 52149:1 52332:1 52388:1 52399:1 52559:1 52579:1 52721:1 52888:1 53166:1 53174:1 53242:1 53320:1 53519:1 53536:1 53558:1 53651:1 53679:1 54130:1 54157:1 54636:1 54739:1 54743:1 54797:1 54830:1 54831:1 55071:1 55189:1 55267:1 55439:1 55494:1 55764:1 55989:1 56030:1 56103:1 56315:1 56335:1 56347:1 56590:1 56838:1 56880:1 57261:1 57273:1 57350:1 57363:1 57387:1 57445:1 57496:1 57621:1 57669:1 57712:1 57723:1 58146:1 58271:1 58411:1 58487:1 58544:1 58652:1 58814:1 58876:1 58991:1 58992:1 59067:1 59087:1 59187:1 59233:1 59255:1 59269:1 59322:1 59412:1 59423:1 59470:1 59573:1 59674:1 59691:1 59790:1 60109:1 60242:1 60264:1 60340:1 60446:1 60489:1 60534:1 60646:1 61345:1 61578:1 61580:1 61767:1 61844:1 61856:1 62176:1 62246:1 62332:1 62395:1 62524:1 62727:1 62799:1 62896:1 63056:1 63293:1 63321:1 63361:1 63480:1 63637:1 63791:1 63829:1 63985:1 64006:1 64313:1 64331:1 64368:1 64422:1 64496:1 64502:1 64510:1 64531:1 64533:1 64567:1 64577:1 64691:1 64713:1 64845:1 64869:1 64880:1 65110:1 65140:1 65266:1 65326:1 65431:1 65439:1 65563:1 65602:1 65655:1 65709:1 65984:1 66025:1 66140:1 66174:1 66193:1 66475:1 66489:1 66528:1 66621:1 66724:1 66760:1 66850:1 67034:1 67052:1 67124:1 67247:1 67323:1 67608:1 67783:1 67848:1 67932:1 68217:1 68421:1 68728:1 69002:1 69009:1 69234:1 69393:1 69486:1 69603:1 69687:1 69718:1 69786:1 69955:1 69959:1 70069:1 70182:1 70339:1 70487:1 70530:1 70662:1 70690:1 70835:1 70913:1 70978:1 71201:1 71202:1 71236:1 71263:1 71323:1 71377:1 71531:1 71584:1 71678:1 71727:1 71769:1 71815:1 71943:1 72015:1 72038:1 72284:1 72340:1 72395:1 72498:1 72563:1 72586:1 72952:1 73000:1 73307:1 73330:1 73640:1 73744:1 73907:1 74151:1 74198:1 74280:1 74282:1 74675:1 74796:1 74848:1 74933:1 75024:1 75113:1 75489:1 75654:1 75704:1 75782:1 75942:1 76022:1 76168:1 76275:1 76304:1 76417:1 76420:1 76900:1 76986:1 77245:1 #
-0.0032210202238483471963437221319282 28897:1 28932:1 28985:1 29244:1 29246:1 29343:1 29351:1 29512:1 29623:1 29697:1 29780:1 29788:1 29799:1 29970:1 29976:1 30071:1 30082:1 30204:1 30335:1 30381:1 30482:1 30704:1 31069:1 31240:1 31327:1 31481:1 31794:1 31859:1 32010:1 32141:1 32357:1 32619:1 32663:1 32750:1 33006:1 33078:1 33080:1 33135:1 33187:1 33271:1 33452:1 33592:1 33735:1 33921:1 33948:1 34013:1 34040:1 34041:1 34078:1 34111:1 34127:1 34155:1 34430:1 34477:1 34515:1 34666:1 34831:1 34864:1 35215:1 35267:1 35328:1 35373:1 35482:1 35684:1 35695:1 35727:1 35863:1 35892:1 35984:1 35995:1 36068:1 36200:1 36217:1 36247:1 36255:1 36484:1 36591:1 36748:1 37130:1 37214:1 37263:1 37273:1 37338:1 37390:1 37521:1 37608:1 37770:1 37929:1 37945:1 38143:1 38213:1 38302:1 38388:1 38618:1 38763:1 38781:1 38819:1 38938:1 38946:1 39110:1 39312:1 39350:1 39576:1 39678:1 40131:1 40149:1 40155:1 40244:1 40590:1 40651:1 40705:1 40986:1 41047:1 41059:1 41170:1 41589:1 41957:1 42008:1 42010:1 42013:1 42042:1 42189:1 42198:1 42201:1 42278:1 42452:1 42489:1 42594:1 42694:1 42697:1 42727:1 43055:1 43196:1 43286:1 43325:1 43539:1 43736:1 43742:1 43744:1 44087:1 44362:1 44377:1 44606:1 44719:1 45055:1 45210:1 45235:1 45625:1 45854:1 45986:1 46086:1 46125:1 46133:1 46289:1 46481:1 46561:1 46618:1 47046:1 47124:1 47125:1 47139:1 47333:1 47542:1 47624:1 47820:1 47856:1 47920:1 48279:1 48325:1 48408:1 48416:1 48479:1 48803:1 49293:1 49547:1 49639:1 49753:1 50093:1 50125:1 50317:1 50901:1 51034:1 51039:1 51041:1 51051:1 51975:1 51985:1 52414:1 52439:1 52490:1 52559:1 52883:1 52964:1 53536:1 53651:1 53662:1 53816:1 53923:1 54024:1 54130:1 54161:1 54203:1 54288:1 54575:1 54830:1 54831:1 54884:1 54902:1 55085:1 55195:1 55296:1 55307:1 55337:1 55377:1 55764:1 55842:1 55936:1 55989:1 56347:1 56488:1 56571:1 56591:1 56765:1 56838:1 56951:1 57005:1 57194:1 57261:1 57273:1 57387:1 58111:1 58200:1 58271:1 58427:1 58516:1 58941:1 58991:1 59030:1 59187:1 59212:1 59557:1 59569:1 59674:1 59691:1 59790:1 59812:1 59823:1 60109:1 60163:1 60264:1 60309:1 60464:1 60489:1 60503:1 61104:1 61401:1 61551:1 61578:1 61906:1 61974:1 62247:1 62474:1 62556:1 62613:1 62756:1 62771:1 62773:1 62883:1 62908:1 63043:1 63161:1 63271:1 63293:1 63363:1 63470:1 63809:1 64006:1 64153:1 64154:1 64230:1 64366:1 64368:1 64422:1 64502:1 64556:1 64713:1 64852:1 65004:1 65039:1 65266:1 65316:1 65326:1 65331:1 65602:1 65655:1 65709:1 65943:1 65984:1 66140:1 66531:1 66757:1 66850:1 66880:1 67052:1 67211:1 67213:1 67716:1 67783:1 68488:1 68667:1 68700:1 68860:1 69002:1 69009:1 69132:1 69213:1 69234:1 69346:1 69393:1 69613:1 69698:1 69867:1 70069:1 70313:1 70530:1 70540:1 70690:1 71201:1 71202:1 71323:1 71377:1 71400:1 71447:1 71678:1 72001:1 72132:1 72218:1 72337:1 72348:1 72363:1 72386:1 72590:1 72769:1 72790:1 72808:1 72815:1 72904:1 72952:1 73000:1 73007:1 73072:1 73167:1 73268:1 73392:1 73417:1 73487:1 74282:1 74299:1 74494:1 74641:1 74933:1 75379:1 75387:1 75478:1 75495:1 75688:1 75782:1 76015:1 76039:1 76099:1 76129:1 76222:1 76527:1 76791:1 77104:1 77114:1 77145:1 #
0.00032591669416923466865571024086989 28914:1 29244:1 29246:1 29491:1 29693:1 29697:1 29799:1 30204:1 30381:1 30522:1 30603:1 30717:1 30808:1 30884:1 31240:1 32111:1 32497:1 32750:1 32857:1 33188:1 34111:1 34226:1 34576:1 34617:1 34688:1 34748:1 34767:1 35131:1 35291:1 35357:1 35631:1 35995:1 37229:1 37338:1 37577:1 37608:1 38213:1 38618:1 39312:1 39350:1 39618:1 39732:1 40028:1 40149:1 40252:1 40323:1 40612:1 40614:1 40737:1 40986:1 40999:1 41141:1 41159:1 41170:1 41265:1 41634:1 41886:1 41957:1 41995:1 42008:1 42010:1 42013:1 42145:1 42264:1 42571:1 42694:1 42700:1 42780:1 43744:1 43901:1 43912:1 44087:1 44606:1 44828:1 45138:1 45625:1 46289:1 46561:1 46681:1 46727:1 46885:1 46903:1 46927:1 47124:1 47125:1 48082:1 48325:1 48648:1 48803:1 49083:1 49547:1 49639:1 49739:1 49907:1 49908:1 50148:1 50317:1 51034:1 51041:1 52427:1 52559:1 52856:1 52891:1 52892:1 53242:1 53923:1 53942:1 54024:1 54130:1 54304:1 56068:1 56347:1 56521:1 56537:1 56880:1 57354:1 57917:1 58160:1 58323:1 58374:1 58443:1 58516:1 58925:1 58930:1 58991:1 59187:1 59569:1 59573:1 59674:1 60109:1 60264:1 60340:1 60534:1 60558:1 60834:1 61578:1 61660:1 61779:1 61906:1 62036:1 62486:1 62764:1 63043:1 63293:1 63363:1 63480:1 63484:1 64368:1 64405:1 64422:1 64534:1 64567:1 64852:1 64895:1 65266:1 65316:1 65602:1 65776:1 66586:1 67052:1 67463:1 68077:1 68139:1 68750:1 69002:1 69009:1 69234:1 69253:1 69893:1 70690:1 71046:1 71201:1 71351:1 71377:1 71678:1 71738:1 72098:1 72132:1 72489:1 72547:1 72896:1 73788:1 73907:1 74282:1 74526:1 76222:1 77212:1 #
-0.0032210202238483471963437221319282 29244:1 29246:1 29351:1 29359:1 29625:1 29799:1 29976:1 30071:1 30192:1 30204:1 30461:1 30623:1 30704:1 30819:1 30827:1 31398:1 31481:1 32535:1 32663:1 32665:1 32750:1 33000:1 33078:1 33271:1 33401:1 33590:1 33618:1 33911:1 34688:1 35037:1 35131:1 35238:1 35575:1 35874:1 36200:1 37213:1 37273:1 37338:1 37577:1 37608:1 38946:1 39350:1 39576:1 39647:1 39798:1 40028:1 40149:1 40642:1 40644:1 41170:1 41176:1 41308:1 41377:1 42008:1 42010:1 42013:1 42243:1 42700:1 42715:1 42932:1 42972:1 43055:1 43539:1 43737:1 43901:1 43912:1 44083:1 44087:1 44551:1 44728:1 44764:1 45082:1 45210:1 45537:1 45546:1 46241:1 46561:1 46681:1 46885:1 46914:1 47124:1 47125:1 47139:1 47767:1 47821:1 47888:1 48156:1 48279:1 48416:1 48679:1 48707:1 48742:1 48803:1 49007:1 49547:1 49739:1 50093:1 50317:1 50889:1 50901:1 51034:1 51041:1 51051:1 51374:1 51509:1 51926:1 51970:1 52559:1 52778:1 53143:1 53744:1 54126:1 54130:1 54193:1 54352:1 55305:1 55568:1 56068:1 56161:1 56347:1 56521:1 56710:1 57350:1 57436:1 58271:1 58443:1 58564:1 58991:1 59016:1 59187:1 59569:1 59671:1 59674:1 59691:1 59788:1 60109:1 60186:1 60264:1 60473:1 60534:1 61164:1 61578:1 62036:1 62745:1 62799:1 63608:1 63650:1 64713:1 65266:1 65326:1 65331:1 65418:1 65563:1 65639:1 65655:1 65884:1 65984:1 66241:1 66586:1 66829:1 66902:1 67282:1 67716:1 68116:1 69002:1 69009:1 69165:1 69179:1 69234:1 69393:1 69955:1 70069:1 70235:1 70530:1 71153:1 71201:1 71202:1 71323:1 71377:1 71443:1 71678:1 71825:1 71963:1 72132:1 72411:1 72769:1 73176:1 73693:1 73835:1 73836:1 74007:1 74848:1 74933:1 75113:1 75213:1 75941:1 76129:1 76156:1 76294:1 76891:1 77164:1 #
0.0032210202238483471963437221319282 29099:1 29244:1 29351:1 29475:1 29799:1 30071:1 30204:1 30235:1 30461:1 30603:1 30741:1 31511:1 32638:1 32750:1 34127:1 34748:1 35124:1 35231:1 35385:1 36034:1 37229:1 37273:1 37521:1 37608:1 38776:1 38946:1 39350:1 39490:1 40028:1 40149:1 40436:1 41047:1 41059:1 41141:1 41159:1 41170:1 41377:1 42008:1 42010:1 42694:1 43031:1 43539:1 43737:1 43744:1 44087:1 44274:1 44601:1 46681:1 46682:1 46755:1 47056:1 47124:1 47125:1 47139:1 47888:1 48228:1 49547:1 50093:1 50381:1 50764:1 51041:1 51051:1 51426:1 51885:1 51929:1 53519:1 53536:1 53558:1 53665:1 54024:1 54130:1 54412:1 54686:1 55227:1 56571:1 58054:1 58271:1 58443:1 58516:1 58761:1 59557:1 59573:1 59998:1 60406:1 61578:1 62745:1 64153:1 64313:1 64366:1 64368:1 64557:1 64848:1 65266:1 65602:1 65838:1 66227:1 66475:1 66829:1 67268:1 67974:1 68664:1 69002:1 69066:1 69234:1 70301:1 70339:1 70530:1 71046:1 71201:1 71323:1 71380:1 71678:1 72033:1 72041:1 72132:1 72254:1 74282:1 74494:1 74933:1 75941:1 76095:1 76129:1 76222:1 76555:1 77129:1 #
0.001586939595277175527043844738273 28788:1 28855:1 28879:1 29133:1 29143:1 29244:1 29246:1 29343:1 29351:1 29715:1 29799:1 29814:1 29987:1 30071:1 30083:1 30204:1 30207:1 30318:1 30603:1 30718:1 30884:1 31369:1 31456:1 31481:1 31541:1 31579:1 31749:1 31794:1 31993:1 32247:1 32259:1 32497:1 32583:1 32638:1 32663:1 32665:1 32684:1 32724:1 32750:1 33000:1 33066:1 33187:1 33258:1 33271:1 33735:1 34041:1 34294:1 34349:1 34591:1 34688:1 34723:1 34781:1 35385:1 35502:1 35575:1 35631:1 35695:1 35741:1 35764:1 35886:1 35984:1 36200:1 36205:1 36217:1 36437:1 36921:1 37136:1 37229:1 37273:1 37320:1 37338:1 37345:1 37577:1 37601:1 37608:1 37726:1 38023:1 38213:1 38537:1 38776:1 38910:1 39312:1 39350:1 39446:1 39490:1 39510:1 39548:1 39674:1 40026:1 40028:1 40149:1 40612:1 40644:1 40954:1 40999:1 41170:1 41265:1 41377:1 41634:1 41947:1 42010:1 42060:1 42278:1 42365:1 42411:1 42426:1 42466:1 42489:1 42525:1 42578:1 42694:1 42700:1 42874:1 43115:1 43313:1 43325:1 43424:1 43539:1 43736:1 43737:1 43742:1 43744:1 43837:1 43901:1 43912:1 43951:1 44087:1 44146:1 44317:1 44392:1 44415:1 44878:1 44939:1 45082:1 45302:1 45322:1 45467:1 45478:1 45515:1 45533:1 45614:1 45625:1 46289:1 46457:1 46561:1 46857:1 47124:1 47125:1 47139:1 47746:1 47823:1 47888:1 47933:1 48098:1 48679:1 48803:1 49469:1 49547:1 49639:1 49739:1 49753:1 49848:1 49879:1 49896:1 49938:1 49998:1 50093:1 50372:1 50764:1 51034:1 51039:1 51041:1 51051:1 51502:1 52490:1 52535:1 52559:1 52951:1 52953:1 53651:1 53773:1 53923:1 53942:1 54130:1 54902:1 55890:1 55905:1 55989:1 56189:1 56347:1 56352:1 56436:1 56571:1 56880:1 57039:1 57635:1 58271:1 58516:1 58573:1 59016:1 59264:1 59573:1 59631:1 59671:1 59715:1 60109:1 60258:1 60309:1 60340:1 60405:1 60406:1 60444:1 60489:1 60534:1 60537:1 60566:1 60666:1 61145:1 61307:1 61574:1 61579:1 61617:1 61974:1 62036:1 62089:1 62527:1 62727:1 62745:1 62815:1 62899:1 63005:1 63006:1 63440:1 63480:1 63584:1 64313:1 64360:1 64368:1 64422:1 64567:1 64713:1 64757:1 64852:1 65266:1 65316:1 65563:1 65884:1 65898:1 66193:1 66294:1 66447:1 66475:1 66494:1 66528:1 66586:1 66621:1 67052:1 67109:1 67283:1 67312:1 68117:1 68431:1 68707:1 68716:1 69002:1 69079:1 69234:1 69346:1 69393:1 69442:1 69810:1 70069:1 70182:1 70339:1 70398:1 70540:1 70593:1 71201:1 71202:1 71239:1 71305:1 71323:1 71367:1 71377:1 71615:1 71678:1 71738:1 71817:1 71825:1 72132:1 72284:1 72613:1 72769:1 73072:1 73123:1 73157:1 73673:1 73840:1 74933:1 75113:1 75379:1 75383:1 75396:1 75515:1 75782:1 75857:1 75923:1 76222:1 76240:1 76274:1 76420:1 77145:1 #
0.0032210202238483471963437221319282 28914:1 29244:1 29246:1 29351:1 29765:1 29799:1 29976:1 30071:1 30101:1 30204:1 30335:1 30381:1 30417:1 30603:1 30884:1 31069:1 31214:1 31216:1 31259:1 31316:1 31552:1 31635:1 31831:1 31909:1 32141:1 32175:1 32638:1 32663:1 32750:1 33185:1 33187:1 33271:1 33471:1 33621:1 33721:1 33752:1 33927:1 34014:1 34437:1 34502:1 34601:1 34688:1 34887:1 35124:1 35131:1 35373:1 35695:1 35741:1 35995:1 36151:1 36437:1 36484:1 36530:1 37080:1 37273:1 37403:1 37439:1 37544:1 37577:1 37585:1 37588:1 37608:1 37885:1 38213:1 38331:1 38776:1 38831:1 39073:1 39176:1 39311:1 39350:1 39647:1 39732:1 39821:1 39867:1 40028:1 40066:1 40082:1 40149:1 40493:1 40679:1 40722:1 40778:1 40812:1 40937:1 40986:1 41141:1 41159:1 41170:1 41428:1 41634:1 41886:1 42008:1 42010:1 42013:1 42339:1 42385:1 42489:1 42560:1 42694:1 42715:1 42717:1 42901:1 42913:1 43055:1 43169:1 43256:1 43477:1 43505:1 43539:1 43736:1 43737:1 43884:1 43901:1 43912:1 44083:1 44087:1 44503:1 44538:1 44644:1 45424:1 45854:1 45986:1 46045:1 46179:1 46264:1 46289:1 46306:1 46505:1 46579:1 46655:1 46755:1 47046:1 47056:1 47124:1 47125:1 47531:1 47767:1 48131:1 48327:1 48348:1 48679:1 48723:1 48803:1 48906:1 49065:1 49157:1 49341:1 49469:1 49547:1 49739:1 49753:1 49778:1 50093:1 50128:1 50276:1 50374:1 50430:1 51034:1 51041:1 51051:1 51229:1 51374:1 51929:1 51960:1 51975:1 52149:1 52699:1 52715:1 53143:1 53155:1 53166:1 53504:1 53536:1 54024:1 54050:1 54130:1 54808:1 54830:1 55525:1 56103:1 56334:1 56571:1 56710:1 56717:1 57354:1 57387:1 57825:1 57875:1 57939:1 58039:1 58271:1 58389:1 58516:1 58629:1 58991:1 59500:1 59557:1 59671:1 59674:1 59676:1 59790:1 59963:1 60109:1 60264:1 60489:1 60534:1 61076:1 61578:1 61978:1 62089:1 62536:1 62556:1 62670:1 64313:1 64368:1 64422:1 64567:1 64711:1 64713:1 65216:1 65266:1 65316:1 65331:1 65512:1 65563:1 65602:1 65884:1 65896:1 66193:1 66349:1 66475:1 66490:1 66586:1 66829:1 66833:1 67000:1 67052:1 67118:1 67268:1 67463:1 67479:1 67779:1 68626:1 68946:1 68972:1 69002:1 69045:1 69234:1 69346:1 69393:1 69479:1 69508:1 69606:1 69637:1 69955:1 70069:1 70530:1 70627:1 70662:1 70671:1 70685:1 70737:1 70926:1 71046:1 71201:1 71276:1 71323:1 71380:1 71678:1 71825:1 72003:1 72033:1 72041:1 72132:1 72348:1 72502:1 72687:1 72769:1 72808:1 72952:1 73091:1 73300:1 73405:1 73701:1 74094:1 74216:1 74933:1 75509:1 75573:1 75723:1 75743:1 75822:1 75917:1 76129:1 76606:1 76911:1 77104:1 #
0.001394457596142063436281399724237 29207:1 29244:1 29246:1 29491:1 29697:1 29799:1 29972:1 30033:1 30204:1 30335:1 30381:1 30603:1 30725:1 30741:1 30884:1 31504:1 31993:1 32010:1 32665:1 32750:1 33187:1 33380:1 33407:1 33707:1 34041:1 34367:1 34430:1 35131:1 35576:1 35833:1 36073:1 36389:1 36437:1 36692:1 37273:1 37577:1 37901:1 37960:1 38068:1 38611:1 39127:1 39194:1 39312:1 40028:1 40178:1 40594:1 40644:1 40986:1 41170:1 41634:1 42008:1 42010:1 42013:1 42096:1 42189:1 42221:1 42278:1 42392:1 42694:1 43042:1 43281:1 43341:1 43354:1 43539:1 43736:1 43837:1 43856:1 43912:1 44064:1 44087:1 44184:1 44323:1 44908:1 44988:1 45328:1 45854:1 45917:1 46203:1 46561:1 47050:1 47124:1 47125:1 47624:1 47909:1 47920:1 48141:1 48348:1 48803:1 48830:1 49211:1 49547:1 49655:1 49679:1 49924:1 49930:1 50148:1 50297:1 50377:1 51034:1 51041:1 51393:1 51717:1 51937:1 51960:1 51975:1 52276:1 53210:1 53428:1 53615:1 53712:1 53816:1 53943:1 54130:1 54156:1 54335:1 55154:1 55195:1 55264:1 56347:1 56571:1 57273:1 57526:1 57640:1 58174:1 58271:1 58652:1 58886:1 59302:1 59573:1 59812:1 60103:1 60309:1 61104:1 62036:1 62089:1 62507:1 64153:1 64368:1 64567:1 64852:1 64869:1 64895:1 65266:1 65269:1 65326:1 65500:1 65602:1 65709:1 65845:1 65858:1 66329:1 66528:1 66962:1 67052:1 67211:1 67463:1 67783:1 67912:1 68079:1 68217:1 68568:1 68859:1 68972:1 69002:1 69234:1 69955:1 69967:1 70069:1 70205:1 70467:1 70662:1 71201:1 71318:1 71377:1 71793:1 72003:1 72038:1 72283:1 72608:1 73484:1 73521:1 74654:1 74665:1 74885:1 76015:1 76240:1 76558:1 76861:1 77154:1 77183:1 #
0.0027691895816410122890816047913631 28879:1 28894:1 29244:1 29799:1 30027:1 30204:1 30309:1 30335:1 30603:1 30986:1 31216:1 31708:1 31794:1 32111:1 32750:1 32994:1 33911:1 34517:1 34540:1 34641:1 34761:1 35215:1 35376:1 35505:1 35774:1 35863:1 37273:1 37338:1 37577:1 37608:1 38213:1 38341:1 38466:1 38831:1 38946:1 38974:1 39092:1 39186:1 39274:1 39311:1 39312:1 39495:1 39833:1 39892:1 40028:1 40031:1 40149:1 40237:1 40986:1 41170:1 41848:1 41889:1 42008:1 42010:1 42145:1 42489:1 42917:1 43042:1 43077:1 43169:1 43196:1 43263:1 43354:1 43539:1 43744:1 44087:1 44253:1 44274:1 44540:1 44696:1 45424:1 45657:1 46410:1 46671:1 47046:1 47056:1 47124:1 47125:1 47920:1 47986:1 48441:1 49547:1 49562:1 49938:1 49992:1 50093:1 50134:1 50317:1 50376:1 50931:1 50989:1 51034:1 51041:1 51170:1 51292:1 51353:1 51509:1 51926:1 52917:1 52951:1 53034:1 53143:1 53558:1 53773:1 54130:1 54416:1 54521:1 54569:1 54677:1 54686:1 54688:1 54830:1 54831:1 55271:1 56804:1 57275:1 57350:1 57959:1 58092:1 58271:1 58443:1 58629:1 58941:1 59423:1 59500:1 59569:1 59573:1 60109:1 60162:1 60241:1 60264:1 60309:1 60340:1 60426:1 60489:1 60534:1 60608:1 61280:1 61867:1 62332:1 62727:1 62746:1 62764:1 62934:1 63123:1 63233:1 63293:1 64368:1 64567:1 64826:1 64911:1 65182:1 65216:1 65266:1 65326:1 65563:1 65602:1 65858:1 66161:1 66586:1 66829:1 66945:1 67052:1 67098:1 67199:1 68123:1 68362:1 69002:1 69234:1 69393:1 69486:1 70530:1 70613:1 71138:1 71187:1 71201:1 71239:1 71276:1 71318:1 71323:1 71584:1 71678:1 71889:1 72695:1 72701:1 72769:1 72903:1 73167:1 73766:1 74054:1 74665:1 74933:1 75519:1 75812:1 76420:1 77104:1 #
-0.0032210202238483471963437221319282 29244:1 30381:1 32131:1 32663:1 40644:1 47124:1 47125:1 51034:1 54130:1 57875:1 59500:1 60109:1 65266:1 65331:1 67472:1 67633:1 71678:1 #
-0.0032210202238483471963437221319282 28779:1 29244:1 29246:1 29343:1 29563:1 29608:1 30101:1 30204:1 30718:1 30884:1 31240:1 31772:1 31859:1 32010:1 32750:1 33384:1 33871:1 35218:1 35631:1 36019:1 36374:1 37273:1 37338:1 37521:1 37544:1 37577:1 37624:1 37934:1 38213:1 39093:1 39311:1 39350:1 39679:1 39727:1 39819:1 40323:1 40956:1 40986:1 41170:1 41848:1 42008:1 42010:1 42309:1 42694:1 43055:1 43539:1 43742:1 43837:1 43981:1 44087:1 44105:1 44117:1 45082:1 45677:1 46003:1 46376:1 46561:1 46755:1 47124:1 47125:1 47128:1 47310:1 47528:1 47888:1 48378:1 48744:1 49077:1 50226:1 51034:1 51041:1 51251:1 52735:1 53417:1 53519:1 53696:1 54130:1 56347:1 56348:1 57111:1 57825:1 57899:1 57907:1 58271:1 58374:1 58443:1 58809:1 58925:1 59271:1 59557:1 60109:1 61974:1 62422:1 62667:1 64168:1 64713:1 64911:1 65266:1 65602:1 66070:1 66406:1 66900:1 67211:1 67268:1 68117:1 68271:1 68616:1 68909:1 69442:1 69568:1 69810:1 70062:1 70514:1 70575:1 70690:1 71201:1 71323:1 71377:1 71678:1 71825:1 72121:1 73360:1 74032:1 74385:1 75782:1 76420:1 #
-0.0032210202238483471963437221319282 28854:1 28879:1 29244:1 31141:1 31993:1 32663:1 32750:1 33135:1 33408:1 33569:1 35186:1 35741:1 35995:1 37521:1 39312:1 39548:1 40252:1 41589:1 42013:1 42594:1 43539:1 43901:1 44087:1 47124:1 47310:1 47963:1 48436:1 51034:1 51041:1 53727:1 58013:1 58814:1 59111:1 60309:1 60566:1 62613:1 66447:1 66528:1 67052:1 67268:1 68084:1 69002:1 69009:1 69122:1 69234:1 70530:1 72808:1 75396:1 75679:1 76033:1 #
-0.0032210202238483471963437221319282 29244:1 29556:1 29765:1 29799:1 29987:1 30008:1 30204:1 30528:1 31369:1 31851:1 32141:1 32153:1 32541:1 32583:1 32655:1 32750:1 33164:1 33487:1 33515:1 33659:1 33892:1 34226:1 35454:1 35575:1 36144:1 36217:1 36437:1 37273:1 37669:1 38213:1 38331:1 38819:1 38852:1 39186:1 39350:1 39732:1 40082:1 40186:1 40644:1 40999:1 41154:1 41170:1 41634:1 41988:1 42008:1 42013:1 42525:1 42638:1 42891:1 43742:1 43901:1 43924:1 44087:1 45493:1 46241:1 46927:1 47046:1 47124:1 47125:1 47581:1 47585:1 47624:1 47881:1 48494:1 48679:1 48707:1 48803:1 48809:1 50700:1 51034:1 51039:1 51041:1 51170:1 51393:1 51675:1 52891:1 52934:1 53060:1 54130:1 54412:1 54512:1 54926:1 56029:1 56436:1 58271:1 58443:1 58516:1 58589:1 59562:1 59569:1 59671:1 59709:1 60339:1 60406:1 60534:1 60553:1 60672:1 60847:1 61067:1 61401:1 61578:1 61978:1 63365:1 64368:1 64499:1 64567:1 65266:1 65986:1 66586:1 68024:1 69002:1 69165:1 69234:1 69393:1 69915:1 70069:1 70398:1 70553:1 71201:1 71276:1 71377:1 71678:1 71793:1 71816:1 71825:1 71943:1 72400:1 73072:1 73626:1 73806:1 74665:1 76049:1 76396:1 #
-0.0032210202238483471963437221319282 29125:1 29244:1 29246:1 29697:1 29799:1 30204:1 30689:1 30718:1 30811:1 31081:1 31344:1 31643:1 31870:1 31966:1 31993:1 32663:1 32750:1 33387:1 33433:1 33596:1 33946:1 34419:1 34500:1 34668:1 34889:1 34891:1 34991:1 35139:1 35144:1 35376:1 35644:1 36530:1 37273:1 37338:1 37390:1 37588:1 37717:1 38128:1 38300:1 39191:1 39200:1 39311:1 39312:1 39345:1 39394:1 39448:1 39495:1 39536:1 39576:1 39727:1 40149:1 40928:1 40945:1 41014:1 41170:1 41479:1 41549:1 42010:1 42060:1 42145:1 42694:1 42713:1 43402:1 43539:1 44002:1 44087:1 44201:1 44253:1 45138:1 46376:1 46561:1 47106:1 47124:1 47310:1 47563:1 47595:1 47759:1 47858:1 47933:1 48198:1 48228:1 48295:1 48803:1 48926:1 49125:1 49547:1 49653:1 49938:1 49987:1 50091:1 50943:1 51034:1 51041:1 51393:1 51450:1 51509:1 51877:1 52173:1 52240:1 52669:1 53283:1 53536:1 53834:1 54128:1 54130:1 55296:1 55842:1 57031:1 57091:1 57215:1 57354:1 57389:1 57526:1 57552:1 57701:1 57749:1 58271:1 58502:1 58516:1 58941:1 59430:1 59573:1 59715:1 59719:1 60072:1 60340:1 62139:1 62613:1 62615:1 63056:1 63392:1 63449:1 63480:1 63791:1 64371:1 64654:1 64957:1 65200:1 65266:1 65492:1 65563:1 65602:1 65795:1 65858:1 65984:1 66892:1 67088:1 67199:1 67463:1 67465:1 67804:1 68159:1 68539:1 68860:1 69122:1 69234:1 69915:1 70417:1 70530:1 70791:1 71092:1 71201:1 71377:1 71678:1 71715:1 71898:1 72808:1 73220:1 73560:1 73867:1 74008:1 74032:1 74068:1 74102:1 74494:1 74848:1 74933:1 75923:1 76525:1 #
0.0032210202238483471963437221319282 28914:1 29099:1 29244:1 29246:1 29351:1 29412:1 29430:1 29569:1 29799:1 29996:1 30019:1 30204:1 30902:1 31069:1 31141:1 31240:1 31637:1 31993:1 32497:1 32663:1 32750:1 33213:1 33271:1 33721:1 33766:1 34041:1 34620:1 34674:1 34694:1 34864:1 35741:1 35744:1 35995:1 36306:1 36383:1 36797:1 37229:1 37273:1 37608:1 37945:1 38661:1 38819:1 38946:1 38968:1 39012:1 39312:1 39350:1 39679:1 39732:1 40149:1 40204:1 40612:1 40986:1 40999:1 41170:1 41460:1 42008:1 42010:1 42013:1 42278:1 42489:1 42594:1 42694:1 42940:1 43171:1 43532:1 43539:1 43742:1 43837:1 43901:1 43912:1 44087:1 44551:1 44878:1 44908:1 44988:1 45082:1 45307:1 45755:1 46289:1 46381:1 46561:1 46727:1 47124:1 47125:1 47139:1 47624:1 48098:1 48416:1 48803:1 49639:1 50093:1 50541:1 50596:1 51034:1 51041:1 51439:1 51689:1 52439:1 52559:1 53165:1 53536:1 54130:1 54686:1 54895:1 54956:1 55154:1 55764:1 55786:1 55836:1 55979:1 56347:1 56456:1 56565:1 56589:1 56838:1 57257:1 57273:1 57436:1 57688:1 57755:1 58271:1 58481:1 58991:1 59213:1 59233:1 59451:1 59557:1 59569:1 60109:1 60534:1 60537:1 62325:1 63050:1 63056:1 63293:1 63356:1 63480:1 63556:1 63608:1 63924:1 64006:1 64021:1 64182:1 64626:1 64852:1 65081:1 65149:1 65266:1 65316:1 65331:1 65563:1 65602:1 65882:1 66475:1 66586:1 66850:1 66902:1 67474:1 67679:1 67848:1 67932:1 69002:1 69234:1 69346:1 69393:1 69443:1 69470:1 69904:1 69905:1 70202:1 71046:1 71201:1 71323:1 71377:1 71635:1 71678:1 72348:1 72413:1 72769:1 72876:1 73110:1 73487:1 73673:1 74665:1 74933:1 75113:1 75213:1 75782:1 76222:1 77212:1 #
0.0019921060499674889121557441740151 28814:1 29099:1 29111:1 29125:1 29207:1 29244:1 29246:1 29343:1 29351:1 29491:1 29561:1 29697:1 29718:1 29778:1 29799:1 30071:1 30189:1 30204:1 30262:1 30321:1 30338:1 30356:1 30381:1 30432:1 30811:1 31069:1 31141:1 31194:1 31481:1 31509:1 31859:1 31909:1 32111:1 32141:1 32583:1 32614:1 32663:1 32665:1 32750:1 33187:1 33358:1 33433:1 33559:1 33651:1 33700:1 33902:1 34121:1 34209:1 34540:1 34634:1 34640:1 34959:1 35040:1 35131:1 35328:1 35575:1 35611:1 35617:1 35631:1 35741:1 35774:1 35790:1 36176:1 36289:1 36295:1 36383:1 37034:1 37129:1 37229:1 37273:1 37338:1 37488:1 37577:1 37608:1 38169:1 38213:1 38371:1 38618:1 38655:1 38776:1 38795:1 38831:1 39012:1 39176:1 39312:1 39322:1 39346:1 39350:1 39354:1 39576:1 39679:1 39851:1 39942:1 40026:1 40149:1 40155:1 40186:1 40244:1 40522:1 40644:1 40954:1 40986:1 40999:1 41047:1 41170:1 41523:1 41622:1 41689:1 41914:1 41957:1 41986:1 42008:1 42010:1 42013:1 42130:1 42362:1 42477:1 42487:1 42489:1 42525:1 42594:1 42694:1 42847:1 42890:1 43455:1 43461:1 43539:1 43558:1 43733:1 43736:1 43744:1 43837:1 43882:1 43901:1 43912:1 44087:1 44392:1 44606:1 45082:1 45302:1 45343:1 45467:1 45775:1 45854:1 45917:1 46090:1 46178:1 46561:1 46681:1 46801:1 47007:1 47008:1 47124:1 47125:1 47139:1 47291:1 47624:1 47767:1 47810:1 47986:1 48040:1 48099:1 48156:1 48325:1 48363:1 48427:1 48464:1 48529:1 48640:1 48773:1 48803:1 48831:1 49013:1 49408:1 49469:1 49547:1 49562:1 49573:1 49631:1 49639:1 49753:1 49798:1 49848:1 49867:1 49931:1 50036:1 50044:1 50093:1 50131:1 50214:1 50276:1 50317:1 51020:1 51024:1 51034:1 51041:1 51051:1 51215:1 51228:1 51435:1 51694:1 51858:1 51975:1 52149:1 52686:1 53536:1 53679:1 53832:1 54024:1 54130:1 54686:1 54700:1 54902:1 54928:1 55195:1 55227:1 55228:1 55296:1 55764:1 56103:1 56347:1 56436:1 56563:1 56787:1 56838:1 56851:1 57261:1 57350:1 57358:1 57387:1 57436:1 57471:1 57525:1 57530:1 57577:1 57971:1 58094:1 58271:1 58427:1 58516:1 58525:1 58544:1 58790:1 58846:1 58941:1 58991:1 59012:1 59084:1 59187:1 59217:1 59264:1 59423:1 59691:1 59823:1 59966:1 60109:1 60264:1 60282:1 60320:1 60534:1 60586:1 60717:1 60778:1 60884:1 61076:1 61109:1 61339:1 61648:1 61936:1 62036:1 62051:1 62181:1 62247:1 62275:1 62693:1 62745:1 62771:1 62883:1 63235:1 63259:1 63293:1 63301:1 63461:1 63480:1 63529:1 63608:1 63956:1 64368:1 64409:1 64852:1 64924:1 64957:1 65110:1 65266:1 65563:1 65602:1 65858:1 66447:1 66457:1 66475:1 66528:1 66610:1 66723:1 66833:1 67118:1 67467:1 67474:1 67803:1 67903:1 67998:1 68254:1 68271:1 69002:1 69009:1 69079:1 69234:1 69346:1 69393:1 69469:1 69470:1 69562:1 69637:1 69640:1 69810:1 70116:1 70268:1 70284:1 70339:1 70395:1 70530:1 71046:1 71201:1 71202:1 71234:1 71323:1 71377:1 71380:1 71581:1 71678:1 71866:1 71942:1 72033:1 72038:1 72535:1 72791:1 73000:1 73184:1 73220:1 73487:1 73566:1 73964:1 74282:1 74654:1 74665:1 74933:1 75383:1 75782:1 76311:1 76420:1 76726:1 77011:1 77247:1 #
0.0032210202238483471963437221319282 29143:1 29176:1 29244:1 29246:1 29343:1 29351:1 29697:1 29733:1 29799:1 30019:1 30062:1 30204:1 30318:1 30381:1 30401:1 30623:1 30687:1 30741:1 30871:1 30876:1 30884:1 30902:1 31069:1 31154:1 31176:1 31201:1 31216:1 31240:1 31243:1 31481:1 31657:1 31932:1 31993:1 32010:1 32248:1 32330:1 32348:1 32663:1 32697:1 32750:1 32830:1 32917:1 32985:1 33062:1 33187:1 33384:1 33422:1 33548:1 33559:1 33735:1 33744:1 33794:1 34041:1 34078:1 34111:1 34232:1 34325:1 34413:1 34414:1 34421:1 34502:1 34515:1 34683:1 34697:1 34744:1 34868:1 35354:1 35385:1 35405:1 35502:1 35505:1 35631:1 35638:1 35695:1 35984:1 35999:1 36200:1 36217:1 36383:1 36707:1 36797:1 36822:1 37057:1 37214:1 37229:1 37273:1 37338:1 37372:1 37377:1 37577:1 37608:1 37768:1 37945:1 38047:1 38213:1 38224:1 38302:1 38540:1 38776:1 38781:1 38819:1 38938:1 38946:1 39012:1 39120:1 39127:1 39176:1 39197:1 39256:1 39312:1 39350:1 39439:1 39647:1 39732:1 40028:1 40082:1 40149:1 40155:1 40174:1 40213:1 40244:1 40275:1 40323:1 40527:1 40647:1 40833:1 40867:1 40915:1 40986:1 41047:1 41098:1 41141:1 41159:1 41170:1 41199:1 41224:1 41265:1 41442:1 41485:1 41523:1 41634:1 41726:1 41848:1 41955:1 42008:1 42010:1 42013:1 42145:1 42278:1 42411:1 42489:1 42694:1 42844:1 42864:1 43055:1 43196:1 43234:1 43392:1 43503:1 43539:1 43742:1 43744:1 43763:1 43837:1 43845:1 43870:1 43901:1 43934:1 43936:1 43967:1 44064:1 44087:1 44208:1 44242:1 44271:1 44274:1 44300:1 44343:1 44351:1 44368:1 44503:1 44516:1 44551:1 44597:1 44764:1 44801:1 44824:1 44847:1 44878:1 45011:1 45018:1 45065:1 45082:1 45343:1 45424:1 45467:1 45583:1 45775:1 45839:1 45906:1 45917:1 46109:1 46112:1 46429:1 46561:1 46681:1 46755:1 46927:1 46986:1 47057:1 47124:1 47125:1 47139:1 47478:1 47624:1 47654:1 47730:1 47770:1 47822:1 47986:1 48099:1 48416:1 48705:1 48723:1 48784:1 48803:1 48830:1 49065:1 49083:1 49266:1 49469:1 49502:1 49531:1 49547:1 49553:1 49624:1 49639:1 49739:1 49858:1 49931:1 50093:1 50194:1 50218:1 50317:1 50355:1 51034:1 51041:1 51051:1 51069:1 51186:1 51374:1 51440:1 51540:1 51761:1 51882:1 51885:1 52183:1 52399:1 52496:1 52559:1 52675:1 52721:1 52763:1 52891:1 53064:1 53085:1 53209:1 53267:1 53536:1 53558:1 53663:1 53816:1 53847:1 54002:1 54130:1 54686:1 54739:1 54830:1 54831:1 54881:1 54883:1 54902:1 54928:1 54976:1 55130:1 55231:1 55398:1 55777:1 55801:1 55989:1 56061:1 56066:1 56103:1 56112:1 56271:1 56347:1 56457:1 56521:1 56571:1 56586:1 56690:1 56838:1 56851:1 56951:1 57042:1 57239:1 57273:1 57354:1 57395:1 57436:1 57485:1 57669:1 57755:1 58054:1 58111:1 58271:1 58303:1 58429:1 58443:1 58516:1 58548:1 58629:1 58726:1 58776:1 59090:1 59117:1 59187:1 59339:1 59423:1 59573:1 59671:1 59674:1 59687:1 59705:1 59788:1 59823:1 59936:1 59998:1 60109:1 60406:1 60473:1 60534:1 60583:1 60621:1 60638:1 60646:1 60896:1 61159:1 61326:1 61447:1 61578:1 61875:1 61897:1 61906:1 61949:1 61974:1 62025:1 62036:1 62047:1 62165:1 62172:1 62332:1 62486:1 62563:1 62564:1 62569:1 62653:1 62670:1 62675:1 62727:1 62731:1 62764:1 62904:1 63056:1 63123:1 63141:1 63293:1 63392:1 63393:1 63480:1 63529:1 63608:1 63734:1 63915:1 64003:1 64168:1 64306:1 64313:1 64368:1 64422:1 64567:1 64713:1 64852:1 64895:1 64911:1 65188:1 65266:1 65288:1 65316:1 65325:1 65331:1 65345:1 65371:1 65385:1 65459:1 65489:1 65563:1 65602:1 65709:1 65882:1 65884:1 66060:1 66475:1 66586:1 66844:1 66850:1 66902:1 66907:1 67052:1 67386:1 67463:1 67479:1 67509:1 67716:1 67743:1 67783:1 67804:1 67848:1 67903:1 67908:1 68009:1 68117:1 68139:1 68145:1 68160:1 68515:1 68669:1 68728:1 69002:1 69009:1 69023:1 69234:1 69459:1 69627:1 69699:1 69811:1 69823:1 69893:1 69955:1 70002:1 70003:1 70069:1 70258:1 70275:1 70284:1 70339:1 70530:1 70613:1 70685:1 70690:1 71201:1 71276:1 71323:1 71377:1 71500:1 71584:1 71678:1 71685:1 71793:1 71825:1 71869:1 71937:1 72038:1 72132:1 72147:1 72254:1 72269:1 72769:1 72808:1 73007:1 73157:1 73176:1 73209:1 73383:1 73487:1 73490:1 73524:1 73558:1 73581:1 73640:1 73675:1 74054:1 74059:1 74171:1 74323:1 74362:1 74368:1 74665:1 74771:1 74832:1 74837:1 74933:1 75098:1 75113:1 75245:1 75267:1 75379:1 75381:1 75743:1 75782:1 75923:1 75941:1 76015:1 76031:1 76104:1 76216:1 76360:1 76420:1 76458:1 76742:1 77065:1 77245:1 #
0.0018189679359114359173676955805377 28804:1 28960:1 29016:1 29128:1 29191:1 29207:1 29244:1 29246:1 29343:1 29347:1 29351:1 29491:1 29623:1 29697:1 29788:1 29799:1 29842:1 29976:1 29996:1 30071:1 30204:1 30306:1 30318:1 30321:1 30381:1 30463:1 30704:1 30707:1 30741:1 30819:1 30884:1 30902:1 30926:1 30935:1 31069:1 31179:1 31481:1 31541:1 31993:1 32111:1 32141:1 32172:1 32178:1 32273:1 32330:1 32339:1 32384:1 32635:1 32638:1 32663:1 32691:1 32734:1 32750:1 32851:1 32871:1 33002:1 33078:1 33164:1 33185:1 33271:1 33384:1 33559:1 33647:1 33651:1 34018:1 34111:1 34121:1 34169:1 34410:1 34414:1 34478:1 34517:1 34683:1 34688:1 34709:1 34748:1 34864:1 34881:1 34887:1 35135:1 35215:1 35251:1 35376:1 35505:1 35631:1 35638:1 35683:1 35695:1 35778:1 35795:1 35892:1 35947:1 35995:1 36034:1 36067:1 36144:1 36176:1 36217:1 36247:1 36484:1 36651:1 36701:1 36762:1 36768:1 36815:1 37057:1 37229:1 37246:1 37273:1 37301:1 37338:1 37577:1 37588:1 37608:1 37677:1 37713:1 37945:1 38213:1 38313:1 38357:1 38371:1 38403:1 38540:1 38618:1 38632:1 38661:1 38763:1 38819:1 38831:1 38855:1 38891:1 38946:1 39011:1 39012:1 39146:1 39176:1 39311:1 39312:1 39350:1 39439:1 39580:1 39679:1 39867:1 40026:1 40028:1 40082:1 40149:1 40244:1 40314:1 40323:1 40525:1 40614:1 40642:1 40644:1 40647:1 40652:1 40684:1 40688:1 40812:1 40956:1 40986:1 41047:1 41062:1 41159:1 41170:1 41197:1 41247:1 41414:1 41449:1 41549:1 41589:1 41634:1 41889:1 41914:1 41945:1 41988:1 42008:1 42010:1 42013:1 42489:1 42645:1 42694:1 42700:1 42821:1 42864:1 42901:1 43107:1 43120:1 43539:1 43592:1 43729:1 43736:1 43737:1 43744:1 43837:1 43856:1 43901:1 43912:1 43987:1 44064:1 44087:1 44271:1 44274:1 44300:1 44307:1 44392:1 44454:1 44551:1 44764:1 44794:1 44863:1 44878:1 45018:1 45138:1 45219:1 45282:1 45302:1 45311:1 45322:1 45424:1 45493:1 45614:1 45729:1 45755:1 45917:1 46003:1 46157:1 46169:1 46180:1 46289:1 46376:1 46561:1 46681:1 47046:1 47056:1 47124:1 47125:1 47139:1 47310:1 47454:1 47514:1 47559:1 47595:1 47624:1 47654:1 47698:1 47730:1 47888:1 47985:1 47986:1 48000:1 48416:1 48467:1 48660:1 48705:1 48803:1 49322:1 49494:1 49547:1 49739:1 49753:1 49848:1 49907:1 49953:1 50093:1 50131:1 50170:1 50171:1 50352:1 50355:1 50524:1 50602:1 50764:1 51034:1 51041:1 51051:1 51063:1 51074:1 51125:1 51135:1 51194:1 51393:1 51395:1 51600:1 51689:1 51693:1 52328:1 52380:1 52427:1 52559:1 52932:1 52951:1 53064:1 53200:1 53229:1 53242:1 53368:1 53491:1 53519:1 53536:1 53558:1 53564:1 53649:1 53923:1 53942:1 53943:1 54024:1 54130:1 54157:1 54203:1 54317:1 54389:1 54512:1 54538:1 54686:1 54728:1 54739:1 54830:1 54831:1 54902:1 55085:1 55189:1 55195:1 55296:1 55661:1 55725:1 55731:1 55764:1 55989:1 56054:1 56103:1 56112:1 56347:1 56349:1 56571:1 56807:1 56838:1 57082:1 57110:1 57111:1 57129:1 57261:1 57273:1 57458:1 57493:1 57688:1 58016:1 58028:1 58042:1 58111:1 58160:1 58271:1 58303:1 58319:1 58374:1 58443:1 58531:1 58842:1 58991:1 59030:1 59048:1 59423:1 59500:1 59557:1 59569:1 59573:1 59584:1 59586:1 59671:1 59674:1 59691:1 59709:1 59790:1 59892:1 60109:1 60110:1 60264:1 60309:1 60340:1 60464:1 60473:1 60489:1 60503:1 60534:1 60537:1 60755:1 60781:1 60904:1 61162:1 61574:1 61578:1 61946:1 61978:1 62036:1 62089:1 62332:1 62422:1 62527:1 62613:1 62653:1 62670:1 63043:1 63050:1 63056:1 63293:1 63321:1 63946:1 64153:1 64168:1 64313:1 64368:1 64422:1 64531:1 64852:1 64895:1 64901:1 65110:1 65266:1 65316:1 65326:1 65331:1 65411:1 65418:1 65537:1 65563:1 65602:1 65651:1 65655:1 65709:1 65725:1 65882:1 65884:1 65910:1 65913:1 65984:1 66161:1 66475:1 66528:1 66586:1 66621:1 67052:1 67098:1 67118:1 67129:1 67211:1 67463:1 67695:1 67724:1 67779:1 67831:1 67998:1 68077:1 68139:1 68145:1 68421:1 68483:1 68616:1 68664:1 68667:1 68750:1 69002:1 69063:1 69234:1 69346:1 69469:1 69637:1 69687:1 69955:1 69971:1 70002:1 70069:1 70284:1 70339:1 70354:1 70530:1 71023:1 71046:1 71063:1 71201:1 71202:1 71239:1 71318:1 71323:1 71377:1 71380:1 71524:1 71584:1 71678:1 71738:1 71779:1 71782:1 71815:1 71994:1 72132:1 72348:1 72369:1 72432:1 72563:1 72783:1 72791:1 72808:1 72904:1 72973:1 73220:1 73378:1 73391:1 73566:1 73745:1 73823:1 73931:1 74008:1 74124:1 74189:1 74205:1 74282:1 74362:1 74663:1 74665:1 74673:1 74876:1 74933:1 75094:1 75383:1 75406:1 75750:1 75782:1 75869:1 75923:1 75941:1 76039:1 76184:1 76275:1 76396:1 76420:1 76536:1 76588:1 76891:1 77164:1 77171:1 77212:1 #
0.0014611676741637228717218821572033 28879:1 28914:1 28968:1 29097:1 29099:1 29244:1 29246:1 29306:1 29343:1 29351:1 29491:1 29623:1 29647:1 29710:1 29734:1 29786:1 29788:1 29799:1 29919:1 29951:1 29968:1 29970:1 29976:1 29996:1 30009:1 30071:1 30101:1 30192:1 30204:1 30309:1 30381:1 30386:1 30401:1 30462:1 30603:1 30627:1 30741:1 30819:1 30884:1 30934:1 31105:1 31141:1 31142:1 31176:1 31240:1 31288:1 31400:1 31541:1 31708:1 31850:1 32116:1 32125:1 32282:1 32432:1 32458:1 32657:1 32663:1 32670:1 32672:1 32750:1 33051:1 33071:1 33091:1 33135:1 33182:1 33358:1 33420:1 33588:1 33663:1 33666:1 33705:1 33715:1 33830:1 33964:1 34005:1 34041:1 34078:1 34502:1 34617:1 34683:1 34688:1 34864:1 34881:1 34888:1 35128:1 35131:1 35196:1 35215:1 35255:1 35328:1 35385:1 35502:1 35505:1 35575:1 35631:1 35874:1 36146:1 36161:1 36217:1 36306:1 36383:1 36437:1 36484:1 36591:1 37080:1 37172:1 37229:1 37246:1 37273:1 37338:1 37361:1 37466:1 37521:1 37556:1 37608:1 37684:1 37734:1 37788:1 37885:1 38068:1 38139:1 38165:1 38211:1 38213:1 38232:1 38255:1 38312:1 38331:1 38496:1 38681:1 38779:1 38781:1 38795:1 38811:1 38819:1 38946:1 39092:1 39176:1 39186:1 39283:1 39311:1 39312:1 39322:1 39346:1 39350:1 39468:1 39679:1 39703:1 39851:1 39984:1 40026:1 40028:1 40082:1 40149:1 40155:1 40244:1 40252:1 40527:1 40612:1 40644:1 40727:1 40879:1 40956:1 41056:1 41141:1 41159:1 41170:1 41247:1 41254:1 41265:1 41366:1 41377:1 41392:1 41401:1 41460:1 41986:1 41988:1 41992:1 41999:1 42006:1 42008:1 42010:1 42013:1 42145:1 42284:1 42339:1 42362:1 42481:1 42555:1 42579:1 42613:1 42644:1 42694:1 42700:1 42746:1 43055:1 43077:1 43128:1 43251:1 43354:1 43466:1 43539:1 43558:1 43605:1 43710:1 43736:1 43737:1 43742:1 43744:1 43837:1 43852:1 43886:1 43895:1 43901:1 43912:1 44002:1 44064:1 44087:1 44163:1 44232:1 44326:1 44362:1 44470:1 44501:1 44606:1 44660:1 44764:1 44870:1 44888:1 44933:1 45012:1 45082:1 45190:1 45219:1 45302:1 45424:1 45729:1 45854:1 45917:1 46067:1 46152:1 46164:1 46225:1 46232:1 46324:1 46561:1 46648:1 46655:1 46681:1 46693:1 46897:1 46906:1 46927:1 46952:1 46986:1 47124:1 47125:1 47139:1 47250:1 47284:1 47310:1 47531:1 47542:1 47590:1 47613:1 47624:1 47652:1 47698:1 47746:1 47759:1 47770:1 47810:1 47888:1 47920:1 48006:1 48023:1 48115:1 48325:1 48452:1 48474:1 48498:1 48746:1 48803:1 48918:1 48941:1 49013:1 49035:1 49036:1 49065:1 49233:1 49235:1 49267:1 49310:1 49404:1 49469:1 49527:1 49547:1 49639:1 49661:1 49691:1 49753:1 49931:1 49951:1 50010:1 50093:1 50128:1 50271:1 50288:1 50299:1 50355:1 50483:1 50751:1 50889:1 51024:1 51034:1 51041:1 51080:1 51255:1 51308:1 51374:1 51393:1 51450:1 51724:1 51769:1 51858:1 52037:1 52059:1 52240:1 52490:1 52559:1 52735:1 53165:1 53210:1 53403:1 53519:1 53536:1 53541:1 53558:1 53816:1 53847:1 54024:1 54126:1 54128:1 54130:1 54349:1 54362:1 54512:1 54529:1 54597:1 54618:1 54713:1 54761:1 54830:1 54831:1 54902:1 54945:1 55077:1 55100:1 55226:1 55271:1 55439:1 55801:1 55833:1 55989:1 55996:1 56070:1 56083:1 56103:1 56122:1 56161:1 56249:1 56269:1 56347:1 56349:1 56352:1 56413:1 56460:1 56467:1 56571:1 56732:1 56807:1 56838:1 56846:1 56880:1 57016:1 57110:1 57204:1 57471:1 57749:1 57755:1 57874:1 57912:1 58013:1 58040:1 58093:1 58160:1 58240:1 58271:1 58377:1 58428:1 58438:1 58443:1 58544:1 58814:1 58886:1 58991:1 59007:1 59090:1 59142:1 59187:1 59500:1 59569:1 59573:1 59595:1 59674:1 59773:1 59790:1 59823:1 59936:1 59963:1 60109:1 60249:1 60264:1 60309:1 60405:1 60437:1 60473:1 60489:1 60503:1 60521:1 60534:1 60537:1 60641:1 60646:1 61005:1 61079:1 61154:1 61551:1 61578:1 61609:1 61763:1 61974:1 62036:1 62089:1 62132:1 62332:1 62421:1 62650:1 62764:1 62765:1 62771:1 62799:1 62896:1 63043:1 63056:1 63164:1 63207:1 63248:1 63293:1 63447:1 63480:1 63646:1 63876:1 63940:1 63948:1 64294:1 64313:1 64368:1 64422:1 64496:1 64502:1 64553:1 64567:1 64773:1 64852:1 64880:1 64895:1 65110:1 65216:1 65227:1 65266:1 65316:1 65326:1 65337:1 65530:1 65563:1 65602:1 65624:1 65709:1 65884:1 65890:1 65970:1 65984:1 66219:1 66229:1 66407:1 66411:1 66427:1 66475:1 66480:1 66494:1 66528:1 66586:1 66774:1 66819:1 66850:1 66950:1 66991:1 67052:1 67152:1 67171:1 67268:1 67282:1 67309:1 67377:1 67386:1 67388:1 67400:1 67463:1 67848:1 67979:1 67998:1 68181:1 68483:1 68484:1 68493:1 68525:1 68798:1 68859:1 68869:1 68874:1 69002:1 69009:1 69173:1 69234:1 69307:1 69322:1 69393:1 69698:1 69810:1 69905:1 69955:1 70002:1 70069:1 70195:1 70339:1 70424:1 70530:1 70802:1 71063:1 71154:1 71201:1 71312:1 71323:1 71377:1 71443:1 71462:1 71529:1 71678:1 71740:1 71815:1 71825:1 71834:1 71854:1 71963:1 72132:1 72180:1 72429:1 72769:1 72909:1 72910:1 72973:1 73000:1 73157:1 73419:1 73429:1 73487:1 73510:1 73521:1 73566:1 73738:1 73905:1 74007:1 74216:1 74282:1 74298:1 74445:1 74474:1 74578:1 74581:1 74675:1 74779:1 74811:1 74837:1 74870:1 74874:1 74933:1 75113:1 75135:1 75586:1 75782:1 76015:1 76168:1 76172:1 76216:1 76308:1 76370:1 76525:1 76616:1 76637:1 76704:1 77104:1 77164:1 #
-0.001907238196174612264097159020082 29244:1 29246:1 29343:1 29347:1 29351:1 29382:1 29491:1 29562:1 29623:1 29799:1 29996:1 30029:1 30071:1 30204:1 30222:1 30356:1 30381:1 30386:1 30417:1 30603:1 30643:1 30718:1 30725:1 30884:1 30972:1 31069:1 31184:1 31240:1 31502:1 31541:1 31565:1 31574:1 31651:1 31682:1 31735:1 31794:1 31972:1 31993:1 31996:1 32439:1 32465:1 32489:1 32523:1 32663:1 32691:1 32724:1 32750:1 32931:1 32972:1 33002:1 33036:1 33181:1 33271:1 33484:1 33590:1 33618:1 33698:1 33705:1 33744:1 33755:1 33766:1 33794:1 33844:1 34057:1 34121:1 34326:1 34346:1 34359:1 34410:1 34447:1 34502:1 34617:1 34683:1 34688:1 34695:1 34748:1 34809:1 34821:1 35086:1 35131:1 35175:1 35196:1 35215:1 35267:1 35499:1 35505:1 35575:1 35631:1 35695:1 35774:1 35863:1 35995:1 36217:1 36289:1 36306:1 36317:1 36383:1 36438:1 36441:1 36484:1 36582:1 36748:1 37093:1 37205:1 37229:1 37273:1 37338:1 37403:1 37412:1 37420:1 37443:1 37577:1 37593:1 37608:1 38047:1 38213:1 38224:1 38613:1 38661:1 38672:1 38760:1 38819:1 38831:1 39058:1 39073:1 39146:1 39176:1 39312:1 39346:1 39350:1 39364:1 39703:1 39795:1 39845:1 39860:1 39868:1 40028:1 40082:1 40149:1 40168:1 40244:1 40252:1 40275:1 40594:1 40604:1 40644:1 40727:1 40939:1 40954:1 40986:1 40993:1 41139:1 41141:1 41146:1 41159:1 41170:1 41265:1 41348:1 41377:1 41580:1 41634:1 41914:1 41955:1 41988:1 42008:1 42010:1 42013:1 42123:1 42278:1 42334:1 42411:1 42489:1 42620:1 42694:1 42700:1 42821:1 43055:1 43077:1 43139:1 43151:1 43313:1 43354:1 43466:1 43539:1 43605:1 43733:1 43736:1 43742:1 43744:1 43837:1 43852:1 43912:1 43924:1 44087:1 44089:1 44478:1 44503:1 44719:1 44725:1 44882:1 44933:1 44948:1 45082:1 45114:1 45188:1 45302:1 45307:1 45314:1 45322:1 45328:1 45424:1 45513:1 45775:1 45864:1 45898:1 45917:1 46048:1 46067:1 46099:1 46232:1 46268:1 46289:1 46302:1 46556:1 46561:1 46727:1 46927:1 47070:1 47124:1 47125:1 47139:1 47272:1 47292:1 47309:1 47319:1 47478:1 47504:1 47542:1 47821:1 47823:1 47877:1 47888:1 47986:1 48085:1 48098:1 48180:1 48226:1 48286:1 48325:1 48339:1 48383:1 48498:1 48657:1 48705:1 48721:1 48803:1 48830:1 48918:1 48984:1 49071:1 49202:1 49360:1 49378:1 49547:1 49639:1 49739:1 49753:1 49778:1 49931:1 50093:1 50099:1 50128:1 50134:1 50288:1 50295:1 50317:1 50355:1 50561:1 50590:1 50737:1 50775:1 51007:1 51034:1 51041:1 51047:1 51051:1 51170:1 51312:1 51374:1 51418:1 51600:1 51608:1 51737:1 51960:1 52059:1 52096:1 52136:1 52176:1 52490:1 52559:1 52931:1 53064:1 53143:1 53145:1 53242:1 53342:1 53403:1 53536:1 53558:1 53712:1 53727:1 53744:1 53816:1 53923:1 54024:1 54043:1 54126:1 54129:1 54130:1 54146:1 54237:1 54335:1 54642:1 54706:1 54780:1 54831:1 54872:1 54903:1 55129:1 55148:1 55271:1 55285:1 55307:1 55800:1 55801:1 55989:1 56029:1 56036:1 56103:1 56334:1 56347:1 56352:1 56488:1 56499:1 56521:1 56563:1 56710:1 56765:1 56838:1 56880:1 56998:1 57111:1 57267:1 57273:1 57436:1 57526:1 57547:1 57652:1 58265:1 58271:1 58323:1 58435:1 58457:1 58516:1 58550:1 58564:1 58629:1 58667:1 58804:1 58814:1 58941:1 58992:1 59187:1 59339:1 59547:1 59549:1 59569:1 59573:1 59631:1 59671:1 59674:1 59691:1 59745:1 59752:1 59790:1 59823:1 59936:1 59952:1 60109:1 60264:1 60309:1 60311:1 60339:1 60340:1 60464:1 60473:1 60489:1 60534:1 60638:1 60646:1 60666:1 60872:1 61578:1 61582:1 61753:1 61906:1 61955:1 61974:1 62036:1 62096:1 62181:1 62653:1 62727:1 62764:1 62773:1 62975:1 63056:1 63101:1 63235:1 63293:1 63356:1 63447:1 63480:1 63481:1 63529:1 63608:1 63702:1 64006:1 64153:1 64168:1 64186:1 64230:1 64313:1 64342:1 64368:1 64385:1 64470:1 64553:1 64567:1 64624:1 64713:1 64852:1 65008:1 65140:1 65266:1 65316:1 65326:1 65331:1 65418:1 65537:1 65563:1 65602:1 65655:1 65882:1 65974:1 65984:1 66140:1 66193:1 66234:1 66310:1 66354:1 66390:1 66475:1 66528:1 66829:1 66948:1 67039:1 67052:1 67171:1 67211:1 67386:1 67463:1 67492:1 67503:1 67724:1 67783:1 67871:1 68035:1 68074:1 68116:1 68117:1 68139:1 68212:1 68217:1 68463:1 68620:1 68626:1 68667:1 68730:1 68859:1 68869:1 69002:1 69009:1 69234:1 69310:1 69329:1 69345:1 69346:1 69393:1 69407:1 69432:1 69436:1 69479:1 69499:1 69572:1 69591:1 69637:1 69701:1 69773:1 69905:1 69955:1 70002:1 70069:1 70311:1 70339:1 70477:1 70487:1 70530:1 70671:1 70720:1 71046:1 71201:1 71226:1 71239:1 71323:1 71359:1 71377:1 71542:1 71584:1 71615:1 71678:1 71789:1 71794:1 71825:1 71963:1 72033:1 72121:1 72130:1 72363:1 72457:1 72460:1 72500:1 72615:1 72769:1 72808:1 73157:1 73176:1 73405:1 73487:1 73543:1 73674:1 73784:1 74007:1 74026:1 74053:1 74059:1 74134:1 74282:1 74563:1 74567:1 74596:1 74933:1 75094:1 75113:1 75224:1 75480:1 75743:1 75782:1 76015:1 76043:1 76138:1 76141:1 76168:1 76172:1 76420:1 76579:1 76616:1 76704:1 76742:1 76930:1 77071:1 77104:1 77129:1 77191:1 #
-0.00039983129870109837544767117378797 28840:1 28914:1 28985:1 29063:1 29099:1 29109:1 29244:1 29246:1 29343:1 29351:1 29444:1 29642:1 29799:1 29970:1 30009:1 30068:1 30071:1 30204:1 30309:1 30318:1 30381:1 30401:1 30432:1 30511:1 30603:1 30623:1 30789:1 31056:1 31156:1 31157:1 31240:1 31369:1 31462:1 31481:1 31525:1 31637:1 31794:1 32183:1 32523:1 32583:1 32638:1 32663:1 32665:1 32697:1 32750:1 33078:1 33187:1 33188:1 33559:1 33579:1 33613:1 33720:1 33744:1 33921:1 34041:1 34078:1 34121:1 34127:1 34285:1 34407:1 34515:1 34566:1 34688:1 34697:1 34711:1 34748:1 34753:1 35146:1 35300:1 35405:1 35575:1 35695:1 35825:1 36017:1 36094:1 36264:1 36306:1 36324:1 36484:1 36591:1 36995:1 37057:1 37229:1 37273:1 37338:1 37403:1 37457:1 37532:1 37577:1 37608:1 37838:1 37885:1 37939:1 37945:1 38213:1 38331:1 38378:1 38540:1 38632:1 38651:1 38731:1 38776:1 38781:1 38794:1 38819:1 38820:1 38946:1 39041:1 39205:1 39274:1 39311:1 39312:1 39350:1 39472:1 39488:1 39727:1 39732:1 40028:1 40082:1 40149:1 40155:1 40174:1 40237:1 40275:1 40354:1 40612:1 40613:1 40616:1 40644:1 40737:1 40867:1 40894:1 40954:1 41012:1 41098:1 41159:1 41170:1 41280:1 41377:1 41914:1 41988:1 42008:1 42010:1 42013:1 42060:1 42082:1 42201:1 42360:1 42362:1 42380:1 42446:1 42452:1 42487:1 42489:1 42525:1 42638:1 42694:1 42700:1 42746:1 42780:1 42821:1 42844:1 42859:1 43055:1 43092:1 43169:1 43249:1 43331:1 43401:1 43539:1 43736:1 43737:1 43742:1 43744:1 43837:1 43901:1 43912:1 44025:1 44087:1 44274:1 44540:1 44551:1 44767:1 44878:1 44932:1 45082:1 45117:1 45188:1 45302:1 45321:1 45322:1 45343:1 45467:1 45543:1 45694:1 45755:1 45775:1 45843:1 46241:1 46457:1 46516:1 46561:1 46728:1 46927:1 46961:1 47056:1 47124:1 47125:1 47139:1 47317:1 47334:1 47421:1 47542:1 47554:1 47563:1 47595:1 47624:1 47698:1 47888:1 47909:1 47920:1 48008:1 48031:1 48085:1 48115:1 48121:1 48180:1 48185:1 48498:1 48660:1 48707:1 48803:1 49050:1 49065:1 49162:1 49193:1 49547:1 49562:1 49624:1 49639:1 49688:1 49739:1 49753:1 49770:1 49848:1 49858:1 49907:1 50007:1 50093:1 50170:1 50276:1 50310:1 50317:1 50509:1 50764:1 50879:1 50901:1 51034:1 51041:1 51051:1 51135:1 51374:1 51385:1 51449:1 51579:1 51624:1 51840:1 51882:1 52016:1 52037:1 52059:1 52103:1 52171:1 52490:1 52559:1 52721:1 52891:1 53166:1 53228:1 53444:1 53536:1 53558:1 53816:1 53923:1 53942:1 54118:1 54130:1 54194:1 54263:1 54416:1 54686:1 54830:1 54881:1 55130:1 55800:1 56029:1 56074:1 56103:1 56256:1 56347:1 56349:1 56521:1 56571:1 56655:1 56690:1 56710:1 56838:1 56880:1 57050:1 57111:1 57112:1 57273:1 57275:1 57307:1 57387:1 57436:1 57458:1 57640:1 57669:1 57688:1 57825:1 58027:1 58033:1 58271:1 58273:1 58303:1 58351:1 58374:1 58407:1 58502:1 58516:1 58564:1 58776:1 58991:1 59048:1 59117:1 59187:1 59217:1 59271:1 59339:1 59473:1 59500:1 59549:1 59557:1 59569:1 59573:1 59667:1 59671:1 59674:1 59691:1 59695:1 59715:1 59998:1 60103:1 60109:1 60309:1 60340:1 60444:1 60503:1 60534:1 60537:1 60638:1 60642:1 60666:1 60896:1 60994:1 61079:1 61211:1 61280:1 61401:1 61578:1 61617:1 61906:1 62036:1 62176:1 62670:1 62727:1 62745:1 62809:1 62818:1 62858:1 62951:1 63056:1 63088:1 63293:1 63416:1 63426:1 63440:1 63480:1 63484:1 63608:1 63691:1 63856:1 64006:1 64190:1 64313:1 64368:1 64470:1 64499:1 64539:1 64556:1 64567:1 64634:1 64713:1 64869:1 65015:1 65038:1 65266:1 65326:1 65331:1 65602:1 65655:1 65709:1 65858:1 65884:1 65890:1 65984:1 66178:1 66193:1 66294:1 66345:1 66357:1 66528:1 66586:1 66850:1 67052:1 67120:1 67211:1 67250:1 67386:1 67695:1 67712:1 67716:1 67747:1 67783:1 67804:1 67932:1 67998:1 68402:1 68601:1 68804:1 68909:1 69002:1 69009:1 69079:1 69102:1 69132:1 69234:1 69393:1 69505:1 69666:1 69893:1 69905:1 69936:1 69955:1 70069:1 70284:1 70398:1 70402:1 70530:1 70662:1 71046:1 71201:1 71239:1 71276:1 71323:1 71377:1 71390:1 71500:1 71678:1 71815:1 71816:1 71825:1 71963:1 72100:1 72132:1 72254:1 72291:1 72361:1 72371:1 72753:1 72769:1 72952:1 73007:1 73180:1 73378:1 73485:1 73487:1 73561:1 73907:1 74039:1 74095:1 74157:1 74282:1 74581:1 74665:1 74933:1 75113:1 75494:1 75704:1 75743:1 75782:1 75822:1 75855:1 75923:1 76015:1 76129:1 76308:1 76420:1 76527:1 77071:1 77104:1 77150:1 77247:1 #
0.0032210202238483471963437221319282 28804:1 28879:1 28985:1 29069:1 29143:1 29207:1 29244:1 29351:1 29697:1 29799:1 29851:1 30204:1 30356:1 30603:1 30808:1 30884:1 31794:1 32055:1 32141:1 32330:1 32750:1 33078:1 34078:1 35037:1 35215:1 35505:1 37273:1 37338:1 38891:1 38946:1 39053:1 39312:1 39350:1 40244:1 40522:1 40833:1 40954:1 40974:1 41159:1 41170:1 41611:1 42008:1 42048:1 42145:1 42278:1 42611:1 42694:1 43169:1 43173:1 43499:1 43901:1 44064:1 44087:1 44382:1 44764:1 45082:1 45219:1 45302:1 45424:1 45980:1 46268:1 46561:1 46681:1 46755:1 47124:1 47125:1 47624:1 47767:1 47810:1 47888:1 48325:1 48803:1 49114:1 49639:1 49739:1 50640:1 51041:1 51051:1 51080:1 51777:1 51882:1 51975:1 51985:1 52272:1 53143:1 53536:1 53651:1 53942:1 54128:1 54130:1 55062:1 55071:1 55548:1 56029:1 56590:1 56690:1 56831:1 57363:1 58271:1 58419:1 58443:1 58516:1 59117:1 59187:1 59348:1 59500:1 59549:1 59569:1 59671:1 60109:1 60273:1 60309:1 60489:1 60534:1 61578:1 62036:1 62361:1 62486:1 63293:1 63447:1 63892:1 64006:1 64531:1 65266:1 65326:1 65602:1 65655:1 65911:1 65984:1 66193:1 66586:1 66600:1 66813:1 67245:1 67479:1 67783:1 69002:1 69234:1 69260:1 69301:1 69499:1 69955:1 70069:1 70192:1 70210:1 70530:1 71201:1 71367:1 71377:1 71615:1 71678:1 72769:1 73566:1 73998:1 74037:1 74496:1 74665:1 74933:1 76431:1 76751:1 #
0.0010847529236241110293242906337241 28779:1 28914:1 29176:1 29244:1 29799:1 30003:1 30071:1 30096:1 30192:1 30204:1 30356:1 30381:1 30417:1 30603:1 30741:1 30789:1 30884:1 30966:1 31176:1 31934:1 32141:1 32160:1 32520:1 32638:1 32655:1 32750:1 32899:1 33099:1 33187:1 33433:1 33477:1 33513:1 33559:1 33964:1 33987:1 34183:1 34384:1 34430:1 34601:1 34620:1 34686:1 34688:1 34758:1 34790:1 35043:1 35161:1 35204:1 35215:1 35358:1 35373:1 35480:1 35575:1 35631:1 35676:1 35722:1 35744:1 36066:1 36279:1 36383:1 36724:1 36748:1 36768:1 37229:1 37273:1 37338:1 37341:1 37577:1 37608:1 38213:1 38421:1 38526:1 38632:1 38776:1 38819:1 38946:1 39012:1 39110:1 39156:1 39311:1 39312:1 39315:1 39472:1 39576:1 39679:1 39718:1 39833:1 39864:1 39867:1 40003:1 40028:1 40074:1 40149:1 40231:1 40288:1 40652:1 40913:1 41047:1 41059:1 41159:1 41170:1 41174:1 41198:1 41265:1 41298:1 41322:1 41377:1 41634:1 41886:1 42008:1 42010:1 42013:1 42481:1 42487:1 42694:1 42859:1 43059:1 43104:1 43422:1 43539:1 43736:1 43742:1 43744:1 43882:1 44047:1 44087:1 44114:1 44274:1 44300:1 44361:1 44459:1 44551:1 44656:1 44878:1 44941:1 44988:1 45018:1 45138:1 45339:1 45732:1 45864:1 45925:1 46112:1 46371:1 46429:1 46467:1 46561:1 46778:1 46891:1 47056:1 47124:1 47139:1 47334:1 47343:1 47531:1 47609:1 47624:1 47695:1 47698:1 47730:1 47767:1 47823:1 47933:1 47986:1 48034:1 48208:1 48306:1 48803:1 48941:1 49017:1 49050:1 49201:1 49547:1 49739:1 49848:1 50056:1 50068:1 50202:1 51013:1 51034:1 51041:1 51047:1 51056:1 51066:1 51395:1 51438:1 51473:1 51758:1 51807:1 51903:1 51970:1 52265:1 52559:1 52721:1 52761:1 53166:1 53228:1 54019:1 54126:1 54130:1 54715:1 54735:1 54830:1 54881:1 55189:1 55306:1 55439:1 55582:1 55957:1 55989:1 55999:1 56029:1 56103:1 56112:1 56347:1 56456:1 56673:1 56880:1 57561:1 57669:1 57705:1 57721:1 57781:1 57848:1 57929:1 57982:1 58033:1 58054:1 58184:1 58271:1 58297:1 58303:1 58377:1 58652:1 58941:1 59187:1 59212:1 59557:1 59573:1 59584:1 59691:1 59788:1 59790:1 59936:1 59961:1 59963:1 60058:1 60076:1 60109:1 60311:1 60537:1 60834:1 60928:1 61159:1 61578:1 61767:1 61974:1 61996:1 62089:1 62181:1 62193:1 62247:1 62379:1 62527:1 62552:1 62670:1 62769:1 62855:1 62883:1 63025:1 63293:1 63392:1 63480:1 63481:1 64368:1 64608:1 64713:1 64726:1 64845:1 64895:1 64966:1 65098:1 65188:1 65266:1 65316:1 65537:1 65602:1 65732:1 65772:1 65970:1 65984:1 66406:1 66528:1 66586:1 66844:1 67206:1 67266:1 67848:1 67938:1 68051:1 68108:1 68139:1 68483:1 68574:1 68909:1 69002:1 69009:1 69234:1 69332:1 69393:1 69529:1 69606:1 69905:1 69915:1 69955:1 70002:1 70003:1 70069:1 70284:1 70424:1 70627:1 70657:1 70792:1 70944:1 71053:1 71201:1 71323:1 71377:1 71404:1 71627:1 72129:1 72193:1 72206:1 72417:1 72630:1 72808:1 72955:1 72996:1 73157:1 73167:1 73480:1 73490:1 73519:1 73738:1 73948:1 74047:1 74083:1 74282:1 74362:1 74405:1 74438:1 74535:1 74641:1 74665:1 74713:1 74933:1 75113:1 75342:1 75406:1 75782:1 76161:1 76206:1 76216:1 76295:1 76529:1 76861:1 #
-0.0032210202238483471963437221319282 28914:1 29244:1 29437:1 29749:1 29799:1 29976:1 30101:1 30204:1 30381:1 30506:1 30603:1 30819:1 31122:1 32141:1 32441:1 32457:1 32663:1 32665:1 32750:1 33006:1 33684:1 33795:1 33868:1 34502:1 35126:1 35131:1 35683:1 35960:1 35984:1 36383:1 36590:1 36797:1 37273:1 37338:1 37577:1 37608:1 37769:1 38213:1 38618:1 38781:1 38946:1 39312:1 39316:1 39320:1 39350:1 39678:1 39679:1 39821:1 40028:1 40149:1 40155:1 40237:1 40954:1 41159:1 41170:1 41377:1 41908:1 42008:1 42010:1 42013:1 42180:1 42694:1 43169:1 43196:1 43539:1 43716:1 43736:1 43737:1 43742:1 43744:1 43901:1 43912:1 44071:1 44087:1 44232:1 44351:1 44715:1 44878:1 44932:1 44988:1 45082:1 45467:1 45515:1 45833:1 46112:1 46755:1 46907:1 47046:1 47124:1 47125:1 47139:1 47542:1 47624:1 47767:1 47909:1 47986:1 48679:1 48803:1 48941:1 49343:1 49545:1 49547:1 49557:1 49639:1 49739:1 49858:1 49930:1 49989:1 50170:1 50372:1 51034:1 51041:1 51080:1 51519:1 51644:1 51699:1 53024:1 53942:1 53951:1 54130:1 54199:1 54881:1 55096:1 55296:1 55890:1 56184:1 56347:1 56375:1 56436:1 56447:1 56717:1 56730:1 56838:1 57273:1 58271:1 58443:1 58516:1 58763:1 58869:1 58941:1 59187:1 59217:1 59406:1 59584:1 59595:1 59674:1 59954:1 59963:1 60109:1 60264:1 60309:1 60337:1 60646:1 61578:1 62036:1 62089:1 62304:1 62527:1 62556:1 62808:1 64006:1 64313:1 64368:1 64384:1 65266:1 65325:1 65326:1 65602:1 65884:1 65890:1 65892:1 65981:1 66219:1 66241:1 66390:1 66475:1 66479:1 66586:1 66991:1 67052:1 67127:1 68540:1 68574:1 68909:1 69002:1 69175:1 69234:1 69393:1 69637:1 69955:1 70069:1 70348:1 70530:1 70627:1 71201:1 71323:1 71678:1 71700:1 72033:1 72207:1 72284:1 72590:1 72769:1 73157:1 73487:1 73524:1 73907:1 74282:1 74933:1 75113:1 75213:1 75518:1 75782:1 75923:1 76796:1 76911:1 77104:1 77164:1 77247:1 #
0.0032210202238483471963437221319282 29244:1 29382:1 30204:1 30704:1 31339:1 31369:1 31637:1 31830:1 31993:1 32081:1 32663:1 32750:1 33592:1 33705:1 34891:1 35426:1 35655:1 37273:1 37768:1 38213:1 38300:1 38331:1 38819:1 40463:1 40954:1 41170:1 41335:1 42008:1 42010:1 42525:1 43085:1 43429:1 43901:1 44087:1 44606:1 44728:1 45917:1 45995:1 46561:1 47124:1 47125:1 47698:1 47982:1 49547:1 49752:1 49770:1 51041:1 51607:1 52395:1 53789:1 54024:1 54130:1 54830:1 55296:1 55989:1 56970:1 57109:1 57194:1 57593:1 58271:1 58573:1 58925:1 60109:1 60264:1 60379:1 60513:1 61383:1 61578:1 61802:1 63262:1 63356:1 63480:1 63963:1 65266:1 65296:1 65344:1 65536:1 65602:1 65911:1 66310:1 66345:1 66415:1 66454:1 66528:1 66586:1 67463:1 67783:1 68804:1 68859:1 68909:1 69002:1 69175:1 69234:1 69307:1 69810:1 71201:1 71377:1 71678:1 71788:1 72401:1 72769:1 73220:1 73652:1 74933:1 75001:1 #
0.0032210202238483471963437221319282 29133:1 29244:1 30204:1 30320:1 30902:1 32055:1 32750:1 34709:1 35631:1 36144:1 36748:1 37338:1 37577:1 37652:1 38611:1 39312:1 40082:1 40954:1 41746:1 41901:1 42013:1 42694:1 43392:1 43539:1 44025:1 44087:1 44371:1 44551:1 44607:1 44722:1 45082:1 45986:1 47124:1 47125:1 48803:1 49132:1 50095:1 51041:1 51051:1 52059:1 52559:1 53651:1 53923:1 54830:1 55890:1 56253:1 56586:1 57367:1 57669:1 58859:1 59067:1 60444:1 61291:1 64289:1 64688:1 65266:1 65316:1 65331:1 66838:1 67608:1 68010:1 69002:1 69234:1 69637:1 70566:1 71046:1 71201:1 71377:1 71500:1 71678:1 72413:1 72519:1 73836:1 74006:1 74933:1 76751:1 77212:1 #
0.0032210202238483471963437221319282 28775:1 29244:1 29828:1 29881:1 29976:1 30101:1 30204:1 30381:1 30603:1 31909:1 32010:1 32269:1 32441:1 32597:1 32638:1 32663:1 32750:1 33407:1 34254:1 34305:1 34517:1 34617:1 35354:1 35398:1 35695:1 36053:1 36169:1 37229:1 37273:1 38080:1 38103:1 38255:1 38603:1 38765:1 39191:1 39200:1 39231:1 39295:1 39312:1 39679:1 39791:1 40186:1 40612:1 40626:1 40954:1 40965:1 41889:1 41945:1 42010:1 42013:1 42145:1 42694:1 43313:1 43716:1 44025:1 44087:1 44368:1 44932:1 45082:1 45093:1 45727:1 47124:1 47770:1 48279:1 48831:1 49071:1 49211:1 49408:1 49547:1 49863:1 49951:1 50134:1 51041:1 51450:1 51608:1 52016:1 52183:1 52427:1 53143:1 53210:1 53536:1 54128:1 54130:1 54185:1 54881:1 55733:1 55872:1 56103:1 57688:1 58005:1 58042:1 58271:1 58443:1 58516:1 59709:1 59952:1 60057:1 60309:1 60840:1 61188:1 62769:1 63440:1 63484:1 63594:1 64153:1 64845:1 65266:1 65725:1 66140:1 66494:1 67211:1 67463:1 67724:1 67945:1 68079:1 68584:1 68909:1 69234:1 69257:1 69393:1 69952:1 69955:1 69959:1 70069:1 70398:1 70530:1 70540:1 71118:1 71201:1 71377:1 71660:1 72279:1 72769:1 73150:1 73268:1 73419:1 73893:1 73957:1 74282:1 75043:1 76168:1 77187:1 #
0.0032210202238483471963437221319282 29244:1 29799:1 30204:1 30381:1 30603:1 30819:1 31344:1 31909:1 32141:1 32663:1 32750:1 33433:1 33515:1 34384:1 34601:1 35385:1 36383:1 36476:1 37273:1 37768:1 39176:1 39350:1 39439:1 39551:1 40149:1 40644:1 40986:1 41047:1 41170:1 41428:1 42008:1 42010:1 42694:1 42804:1 44043:1 44087:1 44728:1 45519:1 45778:1 47124:1 47125:1 47139:1 47624:1 47638:1 48723:1 48956:1 51041:1 52427:1 52885:1 53228:1 53536:1 54130:1 56101:1 56447:1 56624:1 56710:1 58271:1 58337:1 58606:1 58991:1 60109:1 61401:1 62036:1 65266:1 65418:1 65537:1 65563:1 65655:1 65890:1 66322:1 66608:1 67268:1 69002:1 69009:1 69234:1 69955:1 70069:1 70530:1 71201:1 71377:1 71678:1 72132:1 72808:1 74298:1 74368:1 75113:1 75494:1 76015:1 76222:1 77212:1 #
0.0032210202238483471963437221319282 29244:1 29351:1 29799:1 30204:1 30381:1 30401:1 30704:1 31587:1 32031:1 32638:1 32750:1 32972:1 33590:1 33651:1 33698:1 33987:1 34041:1 34111:1 34748:1 34982:1 35328:1 35723:1 37376:1 37768:1 37850:1 38174:1 39311:1 40149:1 40250:1 40986:1 41047:1 41170:1 41511:1 41767:1 41886:1 42010:1 42694:1 43392:1 43901:1 44087:1 44870:1 44882:1 46289:1 47124:1 47624:1 47698:1 48828:1 49132:1 51034:1 51041:1 51435:1 52149:1 52171:1 52240:1 52380:1 52559:1 53109:1 53558:1 53789:1 53816:1 54024:1 54130:1 54146:1 54349:1 54512:1 54902:1 55800:1 55834:1 56103:1 57261:1 57307:1 57652:1 58546:1 58629:1 58652:1 59528:1 60444:1 61578:1 62089:1 62653:1 63293:1 64230:1 64507:1 65191:1 65266:1 68077:1 68525:1 69002:1 69009:1 69234:1 69508:1 69698:1 69905:1 70613:1 71201:1 71377:1 71678:1 72132:1 72562:1 72667:1 72714:1 73964:1 75205:1 75513:1 76382:1 #
-0.0032210202238483471963437221319282 28779:1 29244:1 29799:1 29976:1 29996:1 30101:1 30189:1 30204:1 30381:1 30884:1 32141:1 32422:1 32523:1 32583:1 32638:1 32750:1 32780:1 33135:1 33946:1 34382:1 35037:1 35131:1 35291:1 35376:1 35734:1 36217:1 36484:1 37035:1 37273:1 37577:1 37608:1 37758:1 38068:1 38213:1 38224:1 39311:1 39312:1 39350:1 39903:1 40028:1 40207:1 41047:1 41170:1 41245:1 41757:1 41945:1 42008:1 42694:1 43095:1 43539:1 43901:1 43987:1 44087:1 44932:1 45529:1 45625:1 45718:1 45729:1 46561:1 47124:1 47139:1 47829:1 48040:1 49562:1 49778:1 49863:1 51041:1 51433:1 52611:1 52955:1 53060:1 53143:1 53697:1 54024:1 54130:1 54830:1 56347:1 56508:1 56571:1 58040:1 58271:1 58421:1 58991:1 59557:1 59569:1 59674:1 59691:1 59718:1 60077:1 60109:1 60406:1 60537:1 61558:1 61578:1 61963:1 62319:1 62727:1 62939:1 63025:1 63050:1 63293:1 65266:1 65563:1 65602:1 65984:1 66229:1 66528:1 67052:1 67386:1 67463:1 67533:1 67685:1 69002:1 69009:1 69234:1 69955:1 70002:1 70467:1 70561:1 70753:1 70870:1 71201:1 71323:1 71377:1 71678:1 72003:1 72126:1 72207:1 72769:1 72952:1 74298:1 74362:1 74438:1 74933:1 76222:1 76454:1 #
-0.0032210202238483471963437221319282 29160:1 29244:1 29976:1 30009:1 30204:1 30381:1 30819:1 30884:1 31794:1 31955:1 32638:1 32750:1 33964:1 34367:1 34748:1 34904:1 35631:1 35695:1 36144:1 37273:1 37945:1 38047:1 38781:1 38819:1 38946:1 39350:1 39903:1 40028:1 40644:1 40986:1 41848:1 42010:1 42013:1 43466:1 43737:1 43744:1 44087:1 45583:1 45854:1 46727:1 46965:1 47125:1 47334:1 49547:1 49562:1 50093:1 50134:1 50901:1 51041:1 52490:1 52559:1 52994:1 54130:1 54512:1 54830:1 55085:1 55296:1 56347:1 58271:1 58745:1 59373:1 59610:1 60109:1 60162:1 60273:1 60444:1 61028:1 61578:1 62036:1 62764:1 62773:1 64313:1 64688:1 65266:1 66774:1 67268:1 69234:1 69718:1 70530:1 71201:1 71323:1 71377:1 71678:1 71825:1 72284:1 72714:1 72791:1 73264:1 74032:1 76015:1 76129:1 #
-0.0032210202238483471963437221319282 28788:1 29244:1 29351:1 29542:1 30204:1 30462:1 30519:1 31240:1 32750:1 33256:1 35482:1 35627:1 35744:1 36804:1 36839:1 37273:1 37608:1 38224:1 38781:1 39093:1 39311:1 40833:1 41988:1 42010:1 42145:1 42694:1 42780:1 42903:1 43539:1 43744:1 43901:1 44087:1 44597:1 46030:1 46229:1 46700:1 47124:1 47125:1 47139:1 48198:1 48803:1 49377:1 49547:1 51034:1 51041:1 51449:1 53198:1 54126:1 55071:1 56838:1 58158:1 58271:1 58443:1 58755:1 59187:1 59253:1 59790:1 61578:1 61841:1 64502:1 65266:1 65511:1 68869:1 69393:1 70530:1 71201:1 71500:1 71740:1 71861:1 72404:1 74665:1 75308:1 75383:1 76370:1 77102:1 #
-0.0032210202238483471963437221319282 29244:1 30101:1 30204:1 30273:1 30381:1 31909:1 32010:1 32750:1 33185:1 33462:1 33659:1 34430:1 34688:1 35695:1 36701:1 37273:1 37338:1 37608:1 38819:1 38832:1 39073:1 39312:1 39350:1 40592:1 40594:1 40954:1 41159:1 41170:1 41611:1 41634:1 41782:1 41999:1 42013:1 42481:1 43070:1 43539:1 43773:1 44087:1 44392:1 44516:1 45467:1 45986:1 46333:1 47124:1 47125:1 47139:1 48085:1 48803:1 49055:1 49416:1 49908:1 50093:1 50170:1 50205:1 51034:1 51041:1 51969:1 52059:1 52272:1 52300:1 53339:1 54130:1 54830:1 55725:1 57669:1 58271:1 58443:1 58516:1 59187:1 59632:1 59687:1 60994:1 61555:1 61916:1 62670:1 64313:1 65266:1 65984:1 66528:1 67388:1 68178:1 68202:1 69079:1 69234:1 69346:1 69401:1 71201:1 71323:1 71678:1 71825:1 72288:1 73000:1 73264:1 74026:1 74282:1 75923:1 76025:1 76751:1 76915:1 #
0.0010001087592187826637996073131376 28880:1 28914:1 29071:1 29099:1 29244:1 29246:1 29351:1 29444:1 29556:1 29642:1 29710:1 29711:1 29799:1 29976:1 30008:1 30071:1 30101:1 30204:1 30272:1 30306:1 30318:1 30381:1 30401:1 30463:1 30603:1 30677:1 30707:1 30808:1 30819:1 30884:1 31069:1 31141:1 31142:1 31179:1 31240:1 31481:1 31579:1 31794:1 31863:1 32010:1 32030:1 32141:1 32344:1 32497:1 32551:1 32594:1 32638:1 32651:1 32663:1 32665:1 32750:1 32803:1 33487:1 33559:1 33590:1 33744:1 34023:1 34041:1 34111:1 34414:1 34430:1 34517:1 34521:1 34688:1 34791:1 34821:1 34881:1 35025:1 35128:1 35178:1 35342:1 35358:1 35385:1 35482:1 35575:1 35584:1 35695:1 35744:1 35984:1 36200:1 36295:1 36317:1 36383:1 36484:1 36635:1 36797:1 36839:1 36863:1 37110:1 37205:1 37229:1 37273:1 37338:1 37577:1 37624:1 37804:1 37885:1 37955:1 38047:1 38143:1 38147:1 38213:1 38258:1 38288:1 38331:1 38371:1 38661:1 39058:1 39074:1 39081:1 39121:1 39312:1 39346:1 39350:1 39439:1 39663:1 40028:1 40082:1 40124:1 40149:1 40155:1 40244:1 40323:1 40527:1 40529:1 40644:1 40647:1 40666:1 40737:1 40812:1 41047:1 41159:1 41170:1 41224:1 41377:1 41424:1 41914:1 41955:1 41988:1 42008:1 42010:1 42013:1 42042:1 42181:1 42278:1 42362:1 42411:1 42452:1 42489:1 42594:1 42694:1 42715:1 42717:1 42746:1 43005:1 43422:1 43429:1 43492:1 43499:1 43539:1 43736:1 43737:1 43742:1 43744:1 43837:1 43852:1 43901:1 43912:1 43987:1 44087:1 44307:1 44382:1 44392:1 44710:1 44719:1 44764:1 45082:1 45114:1 45282:1 45322:1 45343:1 45625:1 45839:1 45854:1 45914:1 46289:1 46407:1 46561:1 46712:1 46727:1 46755:1 46965:1 47046:1 47056:1 47124:1 47125:1 47139:1 47563:1 47624:1 47920:1 47946:1 47986:1 48156:1 48803:1 48984:1 49203:1 49341:1 49416:1 49547:1 49562:1 49639:1 49706:1 49739:1 49753:1 50093:1 50178:1 50214:1 50286:1 50317:1 50365:1 50375:1 50381:1 50581:1 50901:1 50916:1 51034:1 51041:1 51051:1 51439:1 51624:1 51693:1 51718:1 51769:1 51985:1 52136:1 52490:1 52721:1 52891:1 52907:1 53143:1 53339:1 53368:1 53536:1 53558:1 53649:1 54024:1 54130:1 54402:1 54512:1 54686:1 54772:1 54784:1 54802:1 54831:1 54872:1 54881:1 54968:1 55085:1 55154:1 55195:1 55231:1 55296:1 55766:1 55979:1 56066:1 56087:1 56103:1 56181:1 56334:1 56347:1 56571:1 56765:1 56838:1 56880:1 56951:1 57109:1 57261:1 57273:1 57387:1 57635:1 57669:1 57800:1 57963:1 58271:1 58319:1 58377:1 58443:1 58516:1 58573:1 58597:1 58761:1 58814:1 58994:1 59048:1 59084:1 59107:1 59187:1 59423:1 59557:1 59569:1 59584:1 59659:1 59671:1 59674:1 59676:1 59691:1 59790:1 59998:1 60109:1 60264:1 60309:1 60339:1 60340:1 60406:1 60489:1 60503:1 60534:1 60586:1 60608:1 60646:1 60717:1 60955:1 61073:1 61211:1 61280:1 61365:1 61574:1 61578:1 61872:1 61906:1 61974:1 62036:1 62247:1 62332:1 62421:1 62561:1 62563:1 62764:1 62883:1 62908:1 63043:1 63056:1 63293:1 63480:1 63481:1 63484:1 63525:1 63556:1 63590:1 63608:1 63901:1 63985:1 64060:1 64154:1 64168:1 64313:1 64368:1 64422:1 64499:1 64713:1 64895:1 65266:1 65326:1 65331:1 65340:1 65378:1 65409:1 65563:1 65602:1 65655:1 65659:1 65709:1 65884:1 65911:1 65984:1 66234:1 66357:1 66475:1 66584:1 66586:1 66955:1 67052:1 67206:1 67211:1 67296:1 67371:1 67549:1 67679:1 67747:1 67783:1 67843:1 67932:1 68091:1 68217:1 68488:1 68568:1 68574:1 68624:1 68626:1 68810:1 69002:1 69009:1 69046:1 69048:1 69165:1 69213:1 69234:1 69322:1 69346:1 69360:1 69393:1 69893:1 69955:1 70002:1 70069:1 70398:1 70477:1 70530:1 70540:1 70690:1 71091:1 71201:1 71202:1 71323:1 71377:1 71569:1 71678:1 71825:1 71943:1 71959:1 72038:1 72041:1 72695:1 72769:1 72791:1 72808:1 72952:1 73007:1 73072:1 73157:1 73176:1 73268:1 73487:1 73806:1 74026:1 74077:1 74111:1 74282:1 74368:1 74459:1 74469:1 74665:1 74673:1 74713:1 74870:1 74872:1 74933:1 75113:1 75383:1 75447:1 75480:1 75704:1 75782:1 75923:1 76295:1 76420:1 76616:1 76891:1 77104:1 77164:1 #
0.0010148685400127479931675633650912 28985:1 29143:1 29160:1 29197:1 29244:1 29351:1 29542:1 29623:1 29697:1 29799:1 30071:1 30176:1 30204:1 30335:1 30381:1 30432:1 30441:1 30482:1 30603:1 30884:1 30984:1 31168:1 31176:1 31179:1 31240:1 31541:1 31637:1 31823:1 31825:1 31826:1 31827:1 31916:1 32274:1 32504:1 32663:1 32684:1 32750:1 32767:1 32793:1 32803:1 33135:1 33433:1 33590:1 33689:1 33844:1 34078:1 34102:1 34502:1 34688:1 34881:1 34968:1 35037:1 35053:1 35082:1 35131:1 35385:1 35617:1 35631:1 35734:1 35744:1 35795:1 35865:1 35892:1 35984:1 36217:1 36370:1 36383:1 36530:1 36651:1 37229:1 37273:1 37338:1 37453:1 37577:1 37624:1 37800:1 38224:1 38763:1 38781:1 38831:1 38890:1 38946:1 39311:1 39339:1 39439:1 39472:1 39679:1 39732:1 39867:1 39903:1 39977:1 39984:1 40149:1 40496:1 40515:1 40604:1 40728:1 40816:1 40973:1 40986:1 41170:1 41172:1 41377:1 41430:1 41589:1 41682:1 42008:1 42010:1 42013:1 42130:1 42260:1 42300:1 42384:1 42428:1 42436:1 42489:1 42594:1 42665:1 42694:1 42727:1 42746:1 43478:1 43539:1 43602:1 43736:1 43737:1 43742:1 43744:1 43837:1 43901:1 44064:1 44087:1 44503:1 44509:1 44764:1 45082:1 45196:1 45285:1 45302:1 45329:1 45343:1 45467:1 45610:1 45625:1 45727:1 45775:1 45854:1 45903:1 46289:1 46561:1 46631:1 46728:1 46884:1 47046:1 47124:1 47125:1 47139:1 47158:1 47317:1 47327:1 47563:1 47624:1 47920:1 47986:1 48180:1 48528:1 48640:1 48654:1 48803:1 49494:1 49535:1 49547:1 49562:1 49624:1 49639:1 49849:1 50010:1 50093:1 50627:1 50764:1 51034:1 51039:1 51041:1 51960:1 51975:1 52059:1 52070:1 52136:1 52183:1 52490:1 52609:1 53241:1 53267:1 53486:1 53536:1 53558:1 54024:1 54130:1 54902:1 54976:1 55085:1 55989:1 56103:1 56256:1 56347:1 56571:1 56573:1 56671:1 56674:1 56838:1 56851:1 56880:1 57111:1 57194:1 57242:1 57261:1 57755:1 58054:1 58271:1 58275:1 58303:1 58374:1 58443:1 58763:1 58814:1 58925:1 58958:1 58991:1 58992:1 59187:1 59233:1 59557:1 59569:1 59573:1 59718:1 59823:1 60024:1 60109:1 60258:1 60264:1 60339:1 60464:1 60534:1 61574:1 61578:1 61704:1 61824:1 61936:1 61974:1 62089:1 62139:1 62247:1 62408:1 62727:1 62768:1 63480:1 63646:1 63695:1 63985:1 64153:1 64313:1 64368:1 64422:1 64531:1 64553:1 64567:1 64589:1 64721:1 64826:1 65197:1 65266:1 65418:1 65528:1 65602:1 65655:1 65882:1 65898:1 65984:1 66025:1 66049:1 66241:1 66586:1 67173:1 67187:1 67211:1 67420:1 67463:1 67733:1 67783:1 67938:1 67957:1 68077:1 68139:1 68271:1 68628:1 68730:1 68972:1 69002:1 69122:1 69234:1 69393:1 69505:1 69905:1 69959:1 70069:1 70398:1 70530:1 70627:1 70662:1 71007:1 71201:1 71276:1 71323:1 71377:1 71500:1 71678:1 71782:1 71793:1 71815:1 71825:1 72003:1 72033:1 72041:1 72284:1 72615:1 72769:1 72808:1 72817:1 72952:1 73157:1 73232:1 73268:1 73417:1 73487:1 73511:1 73521:1 73543:1 73566:1 73640:1 74032:1 74125:1 74261:1 74282:1 74298:1 74301:1 74377:1 74665:1 74933:1 75113:1 75303:1 75383:1 75494:1 75509:1 75568:1 75654:1 75743:1 76015:1 76624:1 76658:1 76938:1 77104:1 77129:1 #
