SVM-light Version V6.02
0 # kernel type
3 # kernel parameter -d 
1 # kernel parameter -g 
1 # kernel parameter -s 
1 # kernel parameter -r 
empty# kernel parameter -u 
35947 # highest feature index 
1800 # number of training documents 
1361 # number of support vectors plus 1 
-0.049868765 # threshold b, each following line is a SV (starting with alpha*y)
-0.0032295127765102301688193708884 525:1 1240:1 2434:1 3222:1 3298:1 6224:1 7681:1 10612:1 11462:1 11564:1 12294:1 12357:1 13762:1 14269:1 28794:1 28799:1 28810:1 28818:1 28821:1 28842:1 28848:1 28849:1 28851:1 28855:1 28882:1 28899:1 28931:1 28963:1 28975:1 29016:1 29035:1 29038:1 29066:1 29078:1 29096:1 29124:1 29125:1 29204:1 29220:1 29247:1 29271:1 29274:1 29306:1 29314:1 29320:1 29385:1 29390:1 29395:1 29412:1 29416:1 29439:1 29440:1 29453:1 29558:1 29585:1 29601:1 29610:1 29635:1 29636:1 29667:1 29720:1 29721:1 29742:1 29779:1 29794:1 29805:1 29812:1 29827:1 29851:1 29897:1 29904:1 29927:1 29939:1 29958:1 30023:1 30037:1 30048:1 30056:1 30061:1 30062:1 30080:1 30086:1 30107:1 30118:1 30135:1 30173:1 30195:1 30226:1 30240:1 30373:1 30380:1 30408:1 30464:1 30478:1 30485:1 30503:1 30563:1 30599:1 30608:1 30618:1 30657:1 30679:1 30682:1 30685:1 30689:1 30692:1 30724:1 30747:1 30769:1 30791:1 30816:1 30821:1 30841:1 30887:1 30922:1 30924:1 30950:1 30954:1 30975:1 30999:1 31063:1 31074:1 31088:1 31118:1 31127:1 31128:1 31146:1 31160:1 31196:1 31216:1 31247:1 31272:1 31304:1 31404:1 31410:1 31420:1 31435:1 31445:1 31457:1 31458:1 31516:1 31547:1 31561:1 31601:1 31605:1 31617:1 31618:1 31625:1 31689:1 31694:1 31725:1 31732:1 31751:1 31754:1 31779:1 31788:1 31808:1 31900:1 31904:1 32024:1 32049:1 32051:1 32077:1 32110:1 32120:1 32140:1 32146:1 32148:1 32156:1 32166:1 32189:1 32210:1 32223:1 32225:1 32256:1 32274:1 32310:1 32349:1 32373:1 32378:1 32380:1 32431:1 32434:1 32451:1 32463:1 32465:1 32483:1 32497:1 32502:1 32538:1 32542:1 32570:1 32574:1 32590:1 32597:1 32608:1 32638:1 32657:1 32658:1 32661:1 32667:1 32691:1 32707:1 32718:1 32729:1 32732:1 32754:1 32783:1 32789:1 32806:1 32823:1 32829:1 32831:1 32889:1 32911:1 32940:1 32988:1 33005:1 33041:1 33071:1 33153:1 33159:1 33169:1 33186:1 33206:1 33271:1 33273:1 33276:1 33311:1 33321:1 33328:1 33355:1 33386:1 33394:1 33403:1 33413:1 33424:1 33430:1 33448:1 33449:1 33490:1 33517:1 33531:1 33541:1 33579:1 33583:1 33586:1 33593:1 33632:1 33658:1 33662:1 33669:1 33692:1 33760:1 33769:1 33775:1 33784:1 33806:1 33835:1 33845:1 33914:1 33927:1 33930:1 33937:1 33959:1 34014:1 34030:1 34042:1 34079:1 34109:1 34112:1 34131:1 34136:1 34148:1 34191:1 34208:1 34212:1 34224:1 34240:1 34262:1 34275:1 34285:1 34287:1 34289:1 34322:1 34341:1 34351:1 34359:1 34380:1 34404:1 34422:1 34425:1 34457:1 34475:1 34501:1 34589:1 34614:1 34616:1 34659:1 34684:1 34685:1 34696:1 34812:1 34840:1 34857:1 34908:1 34917:1 34962:1 34963:1 34979:1 35012:1 35045:1 35048:1 35049:1 35051:1 35064:1 35112:1 35148:1 35205:1 35218:1 35226:1 35281:1 35296:1 35339:1 35343:1 35358:1 35422:1 35438:1 35507:1 35518:1 35592:1 35593:1 35667:1 35687:1 35711:1 35717:1 35788:1 35818:1 35853:1 35863:1 35893:1 #
-0.0032295127765102301688193708884 431:1 2199:1 7126:1 10287:1 12032:1 14269:1 28775:1 28794:1 28908:1 28991:1 29035:1 29036:1 29045:1 29076:1 29096:1 29124:1 29133:1 29160:1 29199:1 29314:1 29321:1 29437:1 29453:1 29553:1 29578:1 29601:1 29602:1 29610:1 29667:1 29709:1 29720:1 29805:1 29856:1 29904:1 29958:1 30025:1 30037:1 30078:1 30083:1 30148:1 30195:1 30225:1 30635:1 30692:1 30731:1 30744:1 30769:1 30791:1 30821:1 30887:1 30950:1 30956:1 30989:1 31008:1 31118:1 31196:1 31286:1 31304:1 31351:1 31404:1 31410:1 31435:1 31457:1 31547:1 31568:1 31632:1 31689:1 31694:1 31733:1 31739:1 31741:1 31820:1 31849:1 31859:1 31863:1 31882:1 31974:1 32044:1 32110:1 32207:1 32225:1 32246:1 32329:1 32371:1 32373:1 32465:1 32466:1 32615:1 32657:1 32658:1 32661:1 32665:1 32691:1 32781:1 32836:1 32900:1 32974:1 32988:1 33003:1 33058:1 33071:1 33095:1 33148:1 33257:1 33410:1 33457:1 33586:1 33658:1 33669:1 33778:1 34004:1 34014:1 34042:1 34079:1 34141:1 34199:1 34289:1 34322:1 34359:1 34547:1 34589:1 34614:1 34616:1 34663:1 34666:1 34758:1 34797:1 34840:1 34890:1 34908:1 34963:1 35005:1 35045:1 35049:1 35064:1 35084:1 35112:1 35153:1 35218:1 35280:1 35281:1 35358:1 35593:1 35597:1 35667:1 35718:1 35742:1 35785:1 35853:1 35914:1 #
-0.0011902395362983482322849493328931 1206:1 2183:1 2924:1 4837:1 6694:1 6842:1 7260:1 9724:1 9981:1 10565:1 11241:1 12601:1 12687:1 13533:1 14057:1 28777:1 28818:1 28853:1 28922:1 28923:1 28979:1 29003:1 29035:1 29036:1 29054:1 29066:1 29124:1 29135:1 29170:1 29173:1 29199:1 29238:1 29271:1 29274:1 29278:1 29314:1 29321:1 29333:1 29385:1 29479:1 29496:1 29542:1 29547:1 29549:1 29606:1 29610:1 29635:1 29636:1 29637:1 29667:1 29720:1 29744:1 29756:1 29805:1 29861:1 29904:1 30023:1 30037:1 30043:1 30044:1 30061:1 30062:1 30081:1 30112:1 30135:1 30159:1 30195:1 30327:1 30356:1 30361:1 30390:1 30501:1 30502:1 30503:1 30505:1 30578:1 30582:1 30588:1 30618:1 30657:1 30682:1 30686:1 30692:1 30746:1 30791:1 30829:1 30875:1 30887:1 30912:1 30916:1 30954:1 30972:1 31005:1 31050:1 31076:1 31079:1 31106:1 31126:1 31127:1 31156:1 31160:1 31170:1 31196:1 31202:1 31247:1 31273:1 31276:1 31286:1 31304:1 31353:1 31435:1 31547:1 31618:1 31671:1 31723:1 31725:1 31735:1 31743:1 31763:1 31787:1 31847:1 31900:1 31911:1 31922:1 31923:1 31962:1 31989:1 31992:1 32031:1 32107:1 32110:1 32154:1 32223:1 32251:1 32274:1 32354:1 32366:1 32371:1 32373:1 32390:1 32407:1 32431:1 32451:1 32465:1 32494:1 32527:1 32541:1 32542:1 32545:1 32627:1 32657:1 32658:1 32661:1 32665:1 32667:1 32709:1 32711:1 32864:1 32893:1 32913:1 32918:1 32926:1 32931:1 32974:1 32977:1 32986:1 33050:1 33057:1 33059:1 33093:1 33116:1 33159:1 33198:1 33206:1 33253:1 33273:1 33299:1 33355:1 33366:1 33414:1 33427:1 33447:1 33457:1 33517:1 33521:1 33539:1 33583:1 33621:1 33688:1 33705:1 33722:1 33847:1 33912:1 33915:1 33927:1 33961:1 34042:1 34069:1 34079:1 34090:1 34136:1 34148:1 34182:1 34185:1 34191:1 34240:1 34262:1 34275:1 34333:1 34336:1 34337:1 34351:1 34422:1 34425:1 34455:1 34475:1 34476:1 34501:1 34533:1 34549:1 34554:1 34588:1 34616:1 34659:1 34666:1 34731:1 34758:1 34770:1 34783:1 34834:1 34840:1 34847:1 34876:1 34957:1 34959:1 34997:1 35010:1 35035:1 35045:1 35049:1 35051:1 35112:1 35141:1 35169:1 35218:1 35232:1 35325:1 35338:1 35358:1 35463:1 35515:1 35593:1 35622:1 35627:1 35667:1 35687:1 35690:1 35711:1 35717:1 35817:1 35820:1 35853:1 35863:1 #
-0.0026753829426350143362578481998071 370:1 407:1 1596:1 2612:1 2711:1 3975:1 5055:1 5276:1 5548:1 6377:1 6426:1 6794:1 6873:1 8125:1 8619:1 9050:1 9912:1 10607:1 11607:1 13641:1 28783:1 28794:1 28806:1 28963:1 28992:1 29003:1 29007:1 29035:1 29036:1 29091:1 29096:1 29121:1 29124:1 29126:1 29159:1 29190:1 29199:1 29269:1 29271:1 29314:1 29339:1 29385:1 29425:1 29463:1 29548:1 29553:1 29593:1 29596:1 29601:1 29606:1 29610:1 29635:1 29636:1 29637:1 29646:1 29667:1 29672:1 29727:1 29732:1 29776:1 29779:1 29794:1 29897:1 29913:1 29949:1 29972:1 29983:1 30002:1 30023:1 30061:1 30080:1 30089:1 30124:1 30130:1 30192:1 30195:1 30216:1 30224:1 30227:1 30247:1 30273:1 30357:1 30361:1 30442:1 30473:1 30494:1 30558:1 30578:1 30582:1 30609:1 30645:1 30682:1 30686:1 30689:1 30692:1 30699:1 30730:1 30747:1 30789:1 30804:1 30821:1 30860:1 30874:1 30887:1 30889:1 30954:1 30956:1 30975:1 30998:1 31003:1 31065:1 31079:1 31145:1 31160:1 31176:1 31192:1 31196:1 31202:1 31247:1 31435:1 31457:1 31464:1 31547:1 31552:1 31553:1 31610:1 31689:1 31720:1 31723:1 31861:1 31868:1 31946:1 31962:1 32000:1 32065:1 32081:1 32110:1 32128:1 32218:1 32223:1 32253:1 32274:1 32275:1 32316:1 32323:1 32324:1 32373:1 32380:1 32451:1 32465:1 32481:1 32557:1 32578:1 32605:1 32657:1 32658:1 32661:1 32663:1 32665:1 32691:1 32732:1 32736:1 32832:1 32834:1 32875:1 32904:1 32936:1 32974:1 32977:1 32984:1 33026:1 33074:1 33079:1 33092:1 33093:1 33137:1 33138:1 33141:1 33159:1 33273:1 33305:1 33362:1 33365:1 33367:1 33368:1 33409:1 33414:1 33417:1 33483:1 33517:1 33531:1 33565:1 33615:1 33617:1 33658:1 33705:1 33763:1 33784:1 33788:1 33792:1 33836:1 33880:1 33942:1 33963:1 34014:1 34042:1 34079:1 34136:1 34146:1 34215:1 34220:1 34256:1 34262:1 34268:1 34275:1 34314:1 34335:1 34351:1 34384:1 34388:1 34481:1 34501:1 34540:1 34614:1 34616:1 34620:1 34678:1 34700:1 34731:1 34805:1 34812:1 34820:1 34840:1 34847:1 34852:1 34913:1 34959:1 34963:1 34985:1 34988:1 35017:1 35045:1 35049:1 35060:1 35112:1 35115:1 35118:1 35218:1 35228:1 35280:1 35281:1 35295:1 35325:1 35358:1 35459:1 35560:1 35593:1 35597:1 35614:1 35690:1 35711:1 35717:1 35751:1 35786:1 35807:1 35820:1 35860:1 35870:1 35884:1 35929:1 35942:1 #
-0.0032295127765102301688193708884 804:1 1635:1 3104:1 3203:1 5845:1 6629:1 7112:1 8427:1 8991:1 9825:1 9894:1 11274:1 11628:1 13494:1 13556:1 28794:1 28824:1 28839:1 28877:1 28899:1 28952:1 28958:1 28979:1 29008:1 29016:1 29035:1 29036:1 29055:1 29057:1 29067:1 29088:1 29091:1 29096:1 29116:1 29124:1 29141:1 29168:1 29184:1 29199:1 29224:1 29261:1 29271:1 29274:1 29281:1 29314:1 29321:1 29334:1 29368:1 29385:1 29468:1 29479:1 29486:1 29547:1 29553:1 29586:1 29591:1 29601:1 29605:1 29610:1 29613:1 29635:1 29636:1 29637:1 29640:1 29667:1 29671:1 29678:1 29690:1 29720:1 29722:1 29740:1 29753:1 29794:1 29799:1 29805:1 29818:1 29827:1 29851:1 29897:1 29900:1 29904:1 29917:1 30023:1 30048:1 30049:1 30135:1 30195:1 30226:1 30243:1 30332:1 30356:1 30361:1 30371:1 30373:1 30379:1 30460:1 30489:1 30500:1 30503:1 30563:1 30569:1 30614:1 30618:1 30648:1 30657:1 30685:1 30686:1 30724:1 30731:1 30735:1 30743:1 30747:1 30769:1 30788:1 30791:1 30821:1 30833:1 30843:1 30869:1 30887:1 30896:1 30927:1 30950:1 30954:1 30956:1 30971:1 30978:1 30995:1 31008:1 31014:1 31020:1 31050:1 31076:1 31078:1 31098:1 31103:1 31105:1 31118:1 31127:1 31151:1 31168:1 31195:1 31196:1 31202:1 31237:1 31245:1 31247:1 31254:1 31273:1 31304:1 31307:1 31316:1 31329:1 31384:1 31412:1 31464:1 31484:1 31488:1 31494:1 31512:1 31522:1 31537:1 31544:1 31547:1 31548:1 31561:1 31610:1 31644:1 31677:1 31714:1 31716:1 31718:1 31725:1 31747:1 31754:1 31790:1 31820:1 31852:1 31885:1 31891:1 31901:1 31928:1 31945:1 31992:1 32004:1 32011:1 32019:1 32031:1 32044:1 32083:1 32110:1 32123:1 32126:1 32128:1 32138:1 32166:1 32220:1 32266:1 32274:1 32287:1 32298:1 32310:1 32325:1 32329:1 32373:1 32385:1 32414:1 32431:1 32463:1 32465:1 32502:1 32520:1 32524:1 32540:1 32545:1 32585:1 32590:1 32593:1 32639:1 32657:1 32658:1 32661:1 32665:1 32668:1 32690:1 32691:1 32702:1 32731:1 32732:1 32734:1 32758:1 32810:1 32822:1 32857:1 32882:1 32908:1 32913:1 32958:1 32969:1 32976:1 33093:1 33206:1 33245:1 33273:1 33355:1 33367:1 33387:1 33445:1 33490:1 33498:1 33586:1 33658:1 33662:1 33664:1 33678:1 33684:1 33742:1 33755:1 33819:1 33927:1 33981:1 33984:1 34014:1 34042:1 34057:1 34079:1 34084:1 34112:1 34136:1 34158:1 34268:1 34289:1 34351:1 34357:1 34358:1 34388:1 34432:1 34455:1 34475:1 34476:1 34496:1 34512:1 34577:1 34614:1 34616:1 34625:1 34638:1 34736:1 34758:1 34770:1 34783:1 34798:1 34817:1 34835:1 34837:1 34840:1 34845:1 34860:1 34922:1 34939:1 34959:1 34963:1 34972:1 35012:1 35019:1 35029:1 35033:1 35045:1 35049:1 35051:1 35112:1 35159:1 35178:1 35200:1 35205:1 35232:1 35280:1 35281:1 35339:1 35354:1 35358:1 35396:1 35442:1 35456:1 35458:1 35504:1 35523:1 35538:1 35593:1 35614:1 35665:1 35667:1 35668:1 35690:1 35695:1 35711:1 35717:1 35724:1 35738:1 35740:1 35759:1 35767:1 35853:1 35863:1 35864:1 35873:1 35883:1 35924:1 35927:1 35929:1 35932:1 #
0.0032295127765102301688193708884 51:1 180:1 517:1 1440:1 1510:1 1635:1 1676:1 2170:1 2720:1 2893:1 3695:1 4758:1 5838:1 6115:1 6641:1 7059:1 7080:1 7151:1 7244:1 7377:1 7678:1 7739:1 7883:1 9926:1 10492:1 11796:1 11920:1 12300:1 12652:1 12778:1 13073:1 13197:1 13410:1 13586:1 13650:1 14239:1 28794:1 28799:1 28812:1 28818:1 28821:1 28828:1 28848:1 28873:1 28886:1 28945:1 28950:1 28965:1 28979:1 29008:1 29024:1 29033:1 29035:1 29036:1 29083:1 29091:1 29096:1 29104:1 29110:1 29119:1 29124:1 29199:1 29261:1 29271:1 29274:1 29281:1 29306:1 29314:1 29321:1 29345:1 29385:1 29390:1 29418:1 29420:1 29422:1 29435:1 29468:1 29491:1 29494:1 29555:1 29558:1 29601:1 29610:1 29613:1 29635:1 29636:1 29637:1 29648:1 29658:1 29667:1 29672:1 29674:1 29688:1 29720:1 29727:1 29742:1 29779:1 29805:1 29893:1 29897:1 29917:1 29923:1 29943:1 29959:1 29978:1 30023:1 30037:1 30048:1 30061:1 30097:1 30137:1 30154:1 30161:1 30195:1 30265:1 30285:1 30310:1 30319:1 30458:1 30462:1 30540:1 30542:1 30560:1 30582:1 30629:1 30657:1 30682:1 30692:1 30705:1 30726:1 30731:1 30732:1 30742:1 30747:1 30791:1 30855:1 30887:1 30893:1 30927:1 30945:1 30956:1 30959:1 30970:1 30985:1 31005:1 31020:1 31075:1 31076:1 31079:1 31126:1 31127:1 31128:1 31153:1 31172:1 31196:1 31237:1 31277:1 31314:1 31318:1 31375:1 31389:1 31435:1 31457:1 31472:1 31488:1 31494:1 31525:1 31542:1 31544:1 31547:1 31559:1 31561:1 31583:1 31644:1 31715:1 31725:1 31746:1 31751:1 31863:1 31870:1 31871:1 31900:1 31910:1 31913:1 31914:1 31992:1 32024:1 32031:1 32110:1 32111:1 32128:1 32141:1 32154:1 32188:1 32223:1 32225:1 32268:1 32274:1 32293:1 32310:1 32329:1 32373:1 32378:1 32417:1 32451:1 32463:1 32465:1 32467:1 32494:1 32495:1 32497:1 32508:1 32570:1 32590:1 32599:1 32605:1 32634:1 32652:1 32657:1 32658:1 32659:1 32661:1 32665:1 32667:1 32670:1 32718:1 32737:1 32765:1 32823:1 32829:1 32835:1 32893:1 32910:1 32922:1 32936:1 32943:1 32959:1 32973:1 32974:1 32975:1 32977:1 32981:1 32984:1 32988:1 32991:1 33033:1 33051:1 33067:1 33071:1 33074:1 33093:1 33099:1 33130:1 33212:1 33234:1 33261:1 33273:1 33294:1 33387:1 33391:1 33405:1 33414:1 33417:1 33434:1 33437:1 33457:1 33460:1 33492:1 33515:1 33531:1 33534:1 33572:1 33579:1 33593:1 33609:1 33612:1 33640:1 33658:1 33669:1 33715:1 33789:1 33796:1 33835:1 33927:1 33961:1 34012:1 34014:1 34022:1 34031:1 34036:1 34040:1 34042:1 34079:1 34080:1 34112:1 34130:1 34136:1 34158:1 34192:1 34199:1 34206:1 34208:1 34240:1 34268:1 34289:1 34291:1 34332:1 34336:1 34348:1 34363:1 34379:1 34380:1 34388:1 34392:1 34422:1 34455:1 34475:1 34488:1 34498:1 34519:1 34526:1 34590:1 34614:1 34616:1 34617:1 34662:1 34756:1 34792:1 34798:1 34827:1 34837:1 34840:1 34848:1 34877:1 34931:1 34963:1 34999:1 35002:1 35008:1 35012:1 35045:1 35049:1 35051:1 35061:1 35086:1 35101:1 35107:1 35110:1 35112:1 35135:1 35153:1 35169:1 35218:1 35228:1 35281:1 35317:1 35325:1 35343:1 35346:1 35353:1 35358:1 35390:1 35471:1 35504:1 35510:1 35532:1 35593:1 35639:1 35689:1 35690:1 35717:1 35733:1 35740:1 35741:1 35770:1 35771:1 35807:1 35828:1 35840:1 35847:1 35863:1 35887:1 35908:1 35910:1 35929:1 35946:1 #
0.0032295127765102301688193708884 65:1 1315:1 2151:1 3359:1 3804:1 3926:1 3984:1 4848:1 5711:1 6377:1 6614:1 6928:1 8628:1 9116:1 9589:1 9724:1 10022:1 10423:1 10489:1 10950:1 11165:1 11262:1 11303:1 11865:1 11995:1 12005:1 12175:1 12321:1 13320:1 13405:1 28794:1 28839:1 28848:1 28959:1 28979:1 29035:1 29038:1 29091:1 29096:1 29116:1 29124:1 29133:1 29143:1 29186:1 29203:1 29239:1 29250:1 29263:1 29274:1 29295:1 29306:1 29314:1 29385:1 29439:1 29453:1 29486:1 29491:1 29513:1 29542:1 29555:1 29601:1 29610:1 29625:1 29635:1 29636:1 29637:1 29667:1 29698:1 29720:1 29734:1 29749:1 29779:1 29835:1 29853:1 29904:1 29917:1 30023:1 30048:1 30061:1 30079:1 30081:1 30098:1 30130:1 30165:1 30173:1 30192:1 30195:1 30216:1 30311:1 30361:1 30373:1 30390:1 30451:1 30458:1 30464:1 30475:1 30503:1 30509:1 30618:1 30619:1 30624:1 30685:1 30692:1 30702:1 30769:1 30875:1 30887:1 30899:1 30938:1 30954:1 30956:1 30963:1 31048:1 31067:1 31107:1 31127:1 31128:1 31145:1 31153:1 31180:1 31190:1 31196:1 31273:1 31286:1 31311:1 31357:1 31388:1 31411:1 31435:1 31445:1 31497:1 31512:1 31514:1 31515:1 31547:1 31553:1 31577:1 31610:1 31670:1 31686:1 31700:1 31705:1 31719:1 31720:1 31725:1 31946:1 31962:1 32042:1 32044:1 32110:1 32129:1 32166:1 32188:1 32223:1 32225:1 32247:1 32266:1 32274:1 32291:1 32310:1 32371:1 32373:1 32399:1 32417:1 32423:1 32449:1 32460:1 32463:1 32464:1 32465:1 32481:1 32495:1 32499:1 32502:1 32541:1 32550:1 32560:1 32590:1 32593:1 32605:1 32647:1 32657:1 32658:1 32661:1 32687:1 32702:1 32707:1 32823:1 32829:1 32840:1 32842:1 32884:1 32909:1 32933:1 32965:1 32974:1 32981:1 32988:1 33016:1 33032:1 33048:1 33074:1 33093:1 33097:1 33108:1 33127:1 33153:1 33160:1 33178:1 33222:1 33273:1 33316:1 33355:1 33403:1 33413:1 33414:1 33468:1 33475:1 33517:1 33519:1 33526:1 33546:1 33556:1 33580:1 33610:1 33612:1 33614:1 33722:1 33892:1 33927:1 33942:1 34014:1 34042:1 34071:1 34079:1 34080:1 34136:1 34191:1 34196:1 34224:1 34261:1 34262:1 34289:1 34294:1 34307:1 34367:1 34475:1 34496:1 34519:1 34564:1 34583:1 34600:1 34601:1 34614:1 34616:1 34638:1 34758:1 34762:1 34809:1 34840:1 34847:1 34855:1 34963:1 34974:1 35012:1 35045:1 35049:1 35064:1 35112:1 35148:1 35232:1 35244:1 35280:1 35281:1 35339:1 35358:1 35390:1 35397:1 35413:1 35434:1 35470:1 35529:1 35593:1 35597:1 35631:1 35634:1 35652:1 35662:1 35687:1 35703:1 35711:1 35718:1 35807:1 35816:1 35820:1 35829:1 35853:1 35863:1 35904:1 35908:1 35911:1 35929:1 35930:1 #
0.0032295127765102301688193708884 2358:1 2486:1 2709:1 3307:1 4905:1 6332:1 7374:1 7406:1 9570:1 11547:1 14113:1 14311:1 28838:1 28848:1 28858:1 28917:1 28923:1 28979:1 29001:1 29035:1 29036:1 29087:1 29091:1 29116:1 29124:1 29126:1 29156:1 29199:1 29202:1 29261:1 29271:1 29274:1 29295:1 29306:1 29314:1 29321:1 29363:1 29368:1 29375:1 29441:1 29479:1 29521:1 29548:1 29553:1 29601:1 29606:1 29610:1 29635:1 29636:1 29637:1 29658:1 29667:1 29686:1 29703:1 29720:1 29778:1 29782:1 29805:1 29835:1 29904:1 30023:1 30061:1 30103:1 30165:1 30173:1 30183:1 30195:1 30293:1 30296:1 30408:1 30462:1 30489:1 30503:1 30521:1 30540:1 30582:1 30629:1 30635:1 30671:1 30685:1 30686:1 30692:1 30769:1 30791:1 30801:1 30830:1 30887:1 30897:1 30956:1 30961:1 31127:1 31141:1 31145:1 31196:1 31247:1 31292:1 31308:1 31330:1 31351:1 31380:1 31389:1 31412:1 31419:1 31435:1 31457:1 31515:1 31547:1 31555:1 31561:1 31565:1 31573:1 31617:1 31725:1 31730:1 31739:1 31807:1 31815:1 31820:1 31915:1 31923:1 32031:1 32110:1 32210:1 32223:1 32225:1 32274:1 32373:1 32378:1 32382:1 32435:1 32465:1 32467:1 32482:1 32537:1 32570:1 32617:1 32657:1 32658:1 32661:1 32662:1 32665:1 32667:1 32690:1 32702:1 32844:1 32904:1 32922:1 32926:1 32936:1 32939:1 32940:1 32977:1 32981:1 32988:1 33016:1 33056:1 33060:1 33064:1 33095:1 33159:1 33180:1 33220:1 33273:1 33276:1 33286:1 33355:1 33380:1 33457:1 33490:1 33521:1 33522:1 33650:1 33760:1 33778:1 33869:1 33882:1 33927:1 34014:1 34042:1 34079:1 34080:1 34085:1 34112:1 34136:1 34256:1 34289:1 34307:1 34322:1 34337:1 34352:1 34358:1 34448:1 34466:1 34475:1 34526:1 34614:1 34616:1 34642:1 34678:1 34761:1 34840:1 34847:1 34857:1 34887:1 34919:1 34959:1 34963:1 35048:1 35049:1 35051:1 35064:1 35112:1 35115:1 35124:1 35132:1 35144:1 35183:1 35186:1 35280:1 35289:1 35358:1 35450:1 35456:1 35504:1 35515:1 35593:1 35597:1 35614:1 35630:1 35667:1 35718:1 35728:1 35750:1 35767:1 35768:1 35771:1 35842:1 35847:1 35848:1 35853:1 35863:1 35929:1 #
-0.00058977761415516453784302353113844 327:1 525:1 933:1 1009:1 1162:1 1179:1 1526:1 1668:1 3246:1 3409:1 5112:1 5859:1 6224:1 6560:1 6697:1 7085:1 7304:1 7377:1 8486:1 9260:1 9664:1 10752:1 11872:1 12146:1 12644:1 13762:1 13853:1 28763:1 28785:1 28794:1 28799:1 28806:1 28842:1 28847:1 28851:1 28860:1 28871:1 28881:1 28931:1 28944:1 28947:1 28979:1 29008:1 29021:1 29035:1 29094:1 29096:1 29116:1 29124:1 29125:1 29153:1 29162:1 29169:1 29186:1 29224:1 29237:1 29250:1 29261:1 29271:1 29281:1 29314:1 29321:1 29330:1 29379:1 29385:1 29405:1 29408:1 29422:1 29428:1 29464:1 29468:1 29491:1 29521:1 29533:1 29547:1 29553:1 29601:1 29610:1 29613:1 29616:1 29635:1 29636:1 29637:1 29667:1 29700:1 29715:1 29720:1 29742:1 29779:1 29790:1 29799:1 29827:1 29847:1 29851:1 29897:1 29900:1 29904:1 29916:1 29976:1 29984:1 29995:1 30005:1 30020:1 30023:1 30025:1 30037:1 30048:1 30056:1 30076:1 30098:1 30129:1 30161:1 30171:1 30195:1 30251:1 30283:1 30293:1 30346:1 30362:1 30363:1 30373:1 30464:1 30478:1 30503:1 30557:1 30560:1 30582:1 30618:1 30657:1 30686:1 30692:1 30731:1 30747:1 30764:1 30769:1 30791:1 30821:1 30887:1 30950:1 30956:1 30958:1 30995:1 31001:1 31020:1 31038:1 31063:1 31073:1 31076:1 31118:1 31127:1 31128:1 31160:1 31196:1 31226:1 31250:1 31439:1 31445:1 31486:1 31494:1 31547:1 31552:1 31577:1 31618:1 31625:1 31710:1 31725:1 31727:1 31730:1 31743:1 31751:1 31820:1 31914:1 31922:1 31923:1 31934:1 31940:1 31956:1 31999:1 32042:1 32046:1 32056:1 32065:1 32077:1 32110:1 32128:1 32156:1 32210:1 32223:1 32225:1 32240:1 32274:1 32310:1 32329:1 32334:1 32352:1 32366:1 32373:1 32425:1 32431:1 32463:1 32465:1 32467:1 32508:1 32534:1 32541:1 32545:1 32570:1 32579:1 32605:1 32657:1 32658:1 32661:1 32665:1 32691:1 32707:1 32754:1 32789:1 32790:1 32823:1 32883:1 32931:1 32940:1 32954:1 32956:1 33057:1 33058:1 33067:1 33071:1 33086:1 33169:1 33206:1 33222:1 33273:1 33286:1 33331:1 33382:1 33386:1 33414:1 33417:1 33479:1 33483:1 33486:1 33499:1 33517:1 33534:1 33542:1 33630:1 33635:1 33663:1 33669:1 33757:1 33778:1 33783:1 33784:1 33914:1 33927:1 33969:1 33978:1 33999:1 34004:1 34014:1 34042:1 34066:1 34079:1 34112:1 34136:1 34144:1 34148:1 34170:1 34236:1 34240:1 34262:1 34289:1 34315:1 34322:1 34337:1 34363:1 34364:1 34379:1 34455:1 34501:1 34515:1 34586:1 34614:1 34616:1 34626:1 34630:1 34654:1 34666:1 34673:1 34691:1 34712:1 34725:1 34742:1 34758:1 34797:1 34798:1 34837:1 34840:1 34847:1 34908:1 34959:1 34962:1 34979:1 34986:1 35045:1 35048:1 35049:1 35051:1 35112:1 35118:1 35134:1 35141:1 35226:1 35270:1 35280:1 35281:1 35282:1 35325:1 35339:1 35343:1 35358:1 35372:1 35391:1 35444:1 35506:1 35532:1 35581:1 35593:1 35608:1 35649:1 35653:1 35667:1 35690:1 35711:1 35717:1 35718:1 35807:1 35812:1 35820:1 35829:1 35850:1 35853:1 35863:1 35887:1 35904:1 35908:1 35921:1 35929:1 #
0.0032295127765102301688193708884 1718:1 1935:1 2506:1 2823:1 3362:1 3648:1 3945:1 4575:1 4656:1 4693:1 4752:1 4947:1 5267:1 5542:1 5968:1 6559:1 7891:1 8708:1 8898:1 8959:1 8964:1 8978:1 9197:1 9614:1 11387:1 11786:1 13237:1 13750:1 28778:1 28848:1 28849:1 28914:1 28916:1 28934:1 28962:1 28979:1 28995:1 29007:1 29018:1 29035:1 29036:1 29039:1 29057:1 29066:1 29077:1 29096:1 29117:1 29124:1 29204:1 29228:1 29271:1 29274:1 29280:1 29286:1 29314:1 29355:1 29385:1 29394:1 29420:1 29428:1 29468:1 29479:1 29505:1 29511:1 29547:1 29548:1 29574:1 29610:1 29635:1 29636:1 29637:1 29667:1 29682:1 29715:1 29720:1 29730:1 29794:1 29804:1 29851:1 29866:1 29873:1 29893:1 29897:1 29904:1 29946:1 29958:1 29960:1 30023:1 30048:1 30056:1 30061:1 30062:1 30064:1 30080:1 30092:1 30106:1 30114:1 30137:1 30148:1 30190:1 30193:1 30195:1 30235:1 30264:1 30275:1 30285:1 30293:1 30311:1 30331:1 30354:1 30373:1 30391:1 30432:1 30485:1 30496:1 30503:1 30605:1 30618:1 30639:1 30682:1 30739:1 30747:1 30767:1 30769:1 30772:1 30791:1 30821:1 30874:1 30887:1 30952:1 30956:1 31077:1 31079:1 31088:1 31101:1 31127:1 31141:1 31162:1 31196:1 31245:1 31247:1 31318:1 31404:1 31421:1 31435:1 31464:1 31466:1 31471:1 31524:1 31547:1 31573:1 31611:1 31682:1 31686:1 31725:1 31752:1 31823:1 31854:1 31900:1 31923:1 32011:1 32028:1 32045:1 32052:1 32110:1 32126:1 32153:1 32223:1 32244:1 32256:1 32274:1 32305:1 32310:1 32329:1 32345:1 32370:1 32373:1 32378:1 32431:1 32464:1 32465:1 32467:1 32517:1 32627:1 32652:1 32657:1 32661:1 32665:1 32691:1 32707:1 32711:1 32829:1 32911:1 32922:1 32923:1 32956:1 32977:1 32980:1 32984:1 32988:1 33016:1 33027:1 33058:1 33068:1 33093:1 33095:1 33115:1 33125:1 33157:1 33159:1 33169:1 33178:1 33230:1 33264:1 33278:1 33279:1 33299:1 33309:1 33345:1 33355:1 33386:1 33414:1 33417:1 33450:1 33533:1 33593:1 33636:1 33669:1 33741:1 33774:1 33788:1 33796:1 33869:1 33870:1 33873:1 33910:1 33927:1 33975:1 34026:1 34036:1 34042:1 34079:1 34112:1 34136:1 34191:1 34228:1 34241:1 34268:1 34304:1 34322:1 34334:1 34367:1 34389:1 34419:1 34455:1 34501:1 34549:1 34614:1 34617:1 34642:1 34678:1 34731:1 34742:1 34758:1 34809:1 34840:1 34847:1 34921:1 34924:1 34929:1 34978:1 35013:1 35045:1 35049:1 35051:1 35064:1 35110:1 35155:1 35158:1 35161:1 35166:1 35204:1 35218:1 35228:1 35281:1 35339:1 35343:1 35353:1 35358:1 35361:1 35379:1 35395:1 35434:1 35455:1 35529:1 35543:1 35593:1 35605:1 35612:1 35614:1 35639:1 35661:1 35675:1 35687:1 35717:1 35718:1 35779:1 35785:1 35849:1 35853:1 35862:1 35864:1 35886:1 35893:1 #
-0.0032295127765102301688193708884 74:1 125:1 383:1 749:1 1266:1 1774:1 1860:1 2043:1 2090:1 2294:1 2475:1 2615:1 2673:1 2848:1 3292:1 3487:1 4659:1 5351:1 5521:1 5582:1 5717:1 6014:1 6061:1 6083:1 6084:1 6122:1 6242:1 6582:1 6707:1 7033:1 7080:1 9957:1 10450:1 11870:1 12038:1 12347:1 13157:1 13528:1 13754:1 13768:1 13781:1 13838:1 28785:1 28801:1 28810:1 28831:1 28842:1 28848:1 28873:1 28886:1 28903:1 28905:1 28948:1 28959:1 28975:1 28992:1 29003:1 29005:1 29007:1 29008:1 29010:1 29024:1 29033:1 29035:1 29036:1 29057:1 29066:1 29087:1 29091:1 29096:1 29117:1 29124:1 29162:1 29184:1 29186:1 29199:1 29204:1 29228:1 29271:1 29274:1 29279:1 29314:1 29321:1 29322:1 29338:1 29347:1 29353:1 29379:1 29385:1 29413:1 29428:1 29453:1 29479:1 29486:1 29534:1 29555:1 29558:1 29572:1 29578:1 29601:1 29605:1 29610:1 29635:1 29636:1 29637:1 29658:1 29659:1 29667:1 29672:1 29686:1 29699:1 29709:1 29720:1 29740:1 29779:1 29794:1 29805:1 29851:1 29891:1 29897:1 29905:1 29913:1 29917:1 29931:1 29941:1 29946:1 29958:1 29969:1 29999:1 30011:1 30023:1 30037:1 30048:1 30061:1 30062:1 30080:1 30098:1 30107:1 30130:1 30133:1 30147:1 30153:1 30173:1 30185:1 30192:1 30194:1 30195:1 30202:1 30206:1 30217:1 30222:1 30238:1 30261:1 30264:1 30265:1 30285:1 30311:1 30327:1 30361:1 30373:1 30381:1 30383:1 30475:1 30489:1 30503:1 30531:1 30558:1 30559:1 30561:1 30574:1 30596:1 30618:1 30622:1 30635:1 30657:1 30685:1 30686:1 30692:1 30721:1 30729:1 30731:1 30739:1 30747:1 30748:1 30759:1 30769:1 30782:1 30793:1 30821:1 30844:1 30854:1 30857:1 30865:1 30875:1 30882:1 30887:1 30914:1 30950:1 30956:1 30961:1 30967:1 30968:1 31003:1 31007:1 31033:1 31079:1 31084:1 31088:1 31094:1 31127:1 31128:1 31154:1 31155:1 31156:1 31160:1 31177:1 31182:1 31196:1 31239:1 31241:1 31245:1 31247:1 31254:1 31256:1 31286:1 31296:1 31304:1 31317:1 31345:1 31346:1 31351:1 31353:1 31394:1 31400:1 31408:1 31410:1 31430:1 31445:1 31457:1 31458:1 31467:1 31480:1 31489:1 31492:1 31512:1 31531:1 31544:1 31547:1 31572:1 31610:1 31627:1 31675:1 31686:1 31703:1 31714:1 31720:1 31722:1 31725:1 31751:1 31754:1 31764:1 31773:1 31806:1 31820:1 31831:1 31854:1 31891:1 31900:1 31910:1 31917:1 31928:1 31946:1 31956:1 31958:1 31962:1 31968:1 31970:1 31973:1 31988:1 32003:1 32051:1 32110:1 32128:1 32134:1 32156:1 32158:1 32176:1 32177:1 32188:1 32196:1 32214:1 32215:1 32217:1 32223:1 32225:1 32256:1 32268:1 32310:1 32345:1 32367:1 32373:1 32378:1 32380:1 32388:1 32395:1 32433:1 32448:1 32452:1 32461:1 32463:1 32465:1 32467:1 32470:1 32495:1 32503:1 32520:1 32529:1 32551:1 32570:1 32657:1 32658:1 32661:1 32665:1 32667:1 32681:1 32691:1 32699:1 32701:1 32702:1 32707:1 32729:1 32753:1 32754:1 32778:1 32783:1 32798:1 32817:1 32823:1 32829:1 32833:1 32868:1 32889:1 32908:1 32914:1 32925:1 32934:1 32936:1 32940:1 32973:1 32974:1 32977:1 32981:1 32984:1 32988:1 32991:1 33000:1 33005:1 33016:1 33033:1 33058:1 33059:1 33093:1 33107:1 33109:1 33127:1 33137:1 33144:1 33169:1 33186:1 33230:1 33233:1 33234:1 33273:1 33276:1 33286:1 33302:1 33315:1 33328:1 33331:1 33387:1 33409:1 33417:1 33434:1 33435:1 33479:1 33483:1 33487:1 33517:1 33521:1 33565:1 33574:1 33579:1 33590:1 33601:1 33615:1 33617:1 33677:1 33684:1 33687:1 33704:1 33715:1 33745:1 33760:1 33847:1 33908:1 33912:1 33916:1 33927:1 33930:1 33995:1 34006:1 34026:1 34032:1 34036:1 34038:1 34042:1 34049:1 34056:1 34079:1 34080:1 34085:1 34112:1 34136:1 34157:1 34191:1 34209:1 34229:1 34240:1 34268:1 34280:1 34289:1 34294:1 34307:1 34332:1 34351:1 34363:1 34368:1 34371:1 34372:1 34377:1 34388:1 34418:1 34428:1 34438:1 34450:1 34455:1 34475:1 34476:1 34496:1 34501:1 34576:1 34607:1 34613:1 34614:1 34616:1 34617:1 34634:1 34640:1 34658:1 34708:1 34756:1 34762:1 34776:1 34797:1 34798:1 34840:1 34845:1 34847:1 34867:1 34886:1 34894:1 34905:1 34911:1 34941:1 34949:1 34963:1 34966:1 34979:1 34990:1 35006:1 35012:1 35013:1 35045:1 35049:1 35051:1 35061:1 35064:1 35078:1 35079:1 35112:1 35152:1 35161:1 35164:1 35166:1 35180:1 35186:1 35190:1 35209:1 35220:1 35223:1 35232:1 35270:1 35280:1 35281:1 35282:1 35287:1 35316:1 35339:1 35343:1 35350:1 35354:1 35358:1 35360:1 35386:1 35395:1 35400:1 35423:1 35466:1 35504:1 35515:1 35518:1 35591:1 35593:1 35597:1 35599:1 35606:1 35618:1 35627:1 35639:1 35690:1 35711:1 35717:1 35718:1 35739:1 35750:1 35799:1 35804:1 35807:1 35816:1 35821:1 35822:1 35832:1 35833:1 35847:1 35848:1 35853:1 35863:1 35893:1 35903:1 35908:1 35926:1 35927:1 35929:1 #
-0.0015254681159723776275732864959878 115:1 209:1 324:1 1287:1 1356:1 1808:1 1888:1 1968:1 2821:1 2847:1 2869:1 2915:1 3181:1 3619:1 3993:1 4338:1 4363:1 4666:1 4673:1 4758:1 4848:1 5542:1 5565:1 5698:1 5790:1 5974:1 5983:1 6282:1 6350:1 6411:1 7139:1 7412:1 7611:1 8030:1 8078:1 8135:1 9028:1 9401:1 9542:1 9611:1 10471:1 10492:1 10690:1 10797:1 10840:1 10914:1 11600:1 11952:1 11990:1 12186:1 12373:1 12440:1 12723:1 13230:1 13507:1 13734:1 13874:1 14181:1 14290:1 28792:1 28799:1 28804:1 28812:1 28837:1 28839:1 28848:1 28872:1 28877:1 28886:1 28927:1 28930:1 28965:1 28979:1 29008:1 29035:1 29038:1 29045:1 29066:1 29091:1 29096:1 29099:1 29107:1 29124:1 29127:1 29129:1 29131:1 29153:1 29199:1 29204:1 29256:1 29261:1 29267:1 29271:1 29274:1 29281:1 29306:1 29314:1 29320:1 29370:1 29385:1 29388:1 29402:1 29428:1 29468:1 29485:1 29546:1 29547:1 29558:1 29559:1 29590:1 29610:1 29633:1 29635:1 29636:1 29637:1 29648:1 29667:1 29683:1 29709:1 29720:1 29730:1 29752:1 29779:1 29822:1 29826:1 29835:1 29836:1 29857:1 29877:1 29893:1 29894:1 29897:1 29904:1 29913:1 29945:1 29951:1 30005:1 30023:1 30034:1 30048:1 30061:1 30062:1 30075:1 30081:1 30091:1 30173:1 30182:1 30195:1 30204:1 30224:1 30227:1 30293:1 30304:1 30352:1 30356:1 30398:1 30400:1 30412:1 30445:1 30457:1 30462:1 30467:1 30482:1 30503:1 30574:1 30594:1 30599:1 30609:1 30657:1 30685:1 30692:1 30731:1 30732:1 30739:1 30747:1 30753:1 30767:1 30769:1 30816:1 30818:1 30821:1 30824:1 30874:1 30878:1 30887:1 30954:1 30956:1 31014:1 31020:1 31026:1 31038:1 31049:1 31051:1 31119:1 31127:1 31128:1 31137:1 31145:1 31161:1 31196:1 31247:1 31253:1 31273:1 31340:1 31351:1 31435:1 31438:1 31457:1 31477:1 31501:1 31512:1 31530:1 31547:1 31552:1 31559:1 31573:1 31592:1 31618:1 31621:1 31630:1 31716:1 31724:1 31736:1 31743:1 31747:1 31751:1 31754:1 31757:1 31820:1 31831:1 31854:1 31877:1 31879:1 31900:1 31914:1 31923:1 31962:1 32011:1 32015:1 32018:1 32042:1 32110:1 32136:1 32142:1 32159:1 32197:1 32214:1 32218:1 32223:1 32253:1 32256:1 32287:1 32302:1 32304:1 32310:1 32336:1 32345:1 32373:1 32378:1 32386:1 32408:1 32431:1 32451:1 32465:1 32467:1 32474:1 32484:1 32494:1 32524:1 32538:1 32541:1 32542:1 32590:1 32597:1 32605:1 32629:1 32644:1 32646:1 32652:1 32653:1 32657:1 32658:1 32661:1 32665:1 32667:1 32690:1 32691:1 32699:1 32702:1 32707:1 32714:1 32723:1 32761:1 32765:1 32789:1 32808:1 32829:1 32837:1 32857:1 32866:1 32898:1 32911:1 32912:1 32913:1 32934:1 32951:1 32958:1 32975:1 32984:1 32988:1 33016:1 33033:1 33038:1 33041:1 33059:1 33088:1 33122:1 33127:1 33142:1 33193:1 33219:1 33252:1 33269:1 33273:1 33276:1 33305:1 33311:1 33326:1 33355:1 33365:1 33368:1 33414:1 33417:1 33439:1 33443:1 33468:1 33470:1 33490:1 33495:1 33517:1 33531:1 33556:1 33563:1 33579:1 33583:1 33592:1 33643:1 33743:1 33748:1 33907:1 33923:1 33927:1 33958:1 33966:1 34009:1 34014:1 34039:1 34042:1 34056:1 34060:1 34067:1 34079:1 34112:1 34136:1 34191:1 34196:1 34208:1 34214:1 34232:1 34256:1 34270:1 34278:1 34279:1 34284:1 34287:1 34289:1 34380:1 34446:1 34456:1 34475:1 34481:1 34507:1 34511:1 34554:1 34555:1 34583:1 34591:1 34614:1 34616:1 34617:1 34642:1 34671:1 34702:1 34731:1 34758:1 34778:1 34798:1 34820:1 34825:1 34840:1 34848:1 34876:1 34886:1 34901:1 34910:1 34941:1 34946:1 34968:1 34979:1 34990:1 34991:1 35012:1 35038:1 35042:1 35045:1 35049:1 35051:1 35079:1 35107:1 35108:1 35112:1 35126:1 35140:1 35186:1 35199:1 35220:1 35223:1 35279:1 35280:1 35281:1 35336:1 35339:1 35341:1 35343:1 35352:1 35358:1 35380:1 35447:1 35454:1 35461:1 35471:1 35478:1 35480:1 35518:1 35529:1 35538:1 35568:1 35593:1 35600:1 35662:1 35665:1 35667:1 35683:1 35690:1 35711:1 35717:1 35718:1 35741:1 35759:1 35768:1 35770:1 35782:1 35785:1 35787:1 35801:1 35803:1 35807:1 35816:1 35820:1 35829:1 35832:1 35847:1 35861:1 35863:1 35902:1 35908:1 35916:1 35929:1 35932:1 35935:1 35941:1 #
-0.003018839287112346208424851212726 42:1 279:1 1218:1 1526:1 1586:1 2035:1 2284:1 3157:1 4330:1 4678:1 4700:1 4871:1 5577:1 5901:1 6523:1 6595:1 8324:1 8556:1 8588:1 9356:1 10487:1 11085:1 11395:1 12377:1 12874:1 28794:1 28815:1 28832:1 28834:1 28847:1 28853:1 28877:1 28924:1 28959:1 28973:1 28979:1 29003:1 29035:1 29036:1 29038:1 29046:1 29057:1 29066:1 29091:1 29096:1 29124:1 29196:1 29204:1 29267:1 29271:1 29274:1 29306:1 29314:1 29320:1 29379:1 29385:1 29388:1 29390:1 29391:1 29439:1 29450:1 29468:1 29486:1 29488:1 29491:1 29546:1 29547:1 29548:1 29555:1 29595:1 29601:1 29610:1 29635:1 29636:1 29637:1 29667:1 29685:1 29700:1 29717:1 29720:1 29735:1 29739:1 29742:1 29764:1 29773:1 29776:1 29782:1 29794:1 29876:1 29897:1 29904:1 29911:1 29913:1 29952:1 29959:1 30023:1 30048:1 30061:1 30062:1 30096:1 30100:1 30112:1 30161:1 30165:1 30173:1 30195:1 30233:1 30285:1 30293:1 30373:1 30378:1 30381:1 30415:1 30429:1 30450:1 30464:1 30503:1 30609:1 30618:1 30648:1 30657:1 30685:1 30692:1 30721:1 30739:1 30747:1 30769:1 30816:1 30857:1 30869:1 30887:1 30956:1 30967:1 30979:1 31001:1 31036:1 31051:1 31060:1 31079:1 31093:1 31104:1 31127:1 31179:1 31194:1 31196:1 31202:1 31204:1 31247:1 31261:1 31275:1 31304:1 31306:1 31318:1 31332:1 31370:1 31404:1 31410:1 31412:1 31435:1 31438:1 31444:1 31448:1 31501:1 31507:1 31512:1 31533:1 31542:1 31547:1 31573:1 31616:1 31626:1 31686:1 31699:1 31706:1 31715:1 31773:1 31808:1 31820:1 31894:1 31900:1 31919:1 31950:1 31974:1 31982:1 31993:1 32003:1 32011:1 32031:1 32037:1 32044:1 32077:1 32110:1 32128:1 32159:1 32212:1 32223:1 32266:1 32267:1 32274:1 32310:1 32329:1 32413:1 32465:1 32467:1 32512:1 32517:1 32524:1 32538:1 32541:1 32561:1 32575:1 32590:1 32605:1 32657:1 32658:1 32661:1 32665:1 32667:1 32681:1 32754:1 32789:1 32815:1 32843:1 32908:1 32917:1 32922:1 32965:1 32975:1 32981:1 32988:1 33050:1 33059:1 33071:1 33074:1 33077:1 33087:1 33098:1 33118:1 33153:1 33159:1 33169:1 33183:1 33188:1 33215:1 33273:1 33276:1 33301:1 33321:1 33326:1 33331:1 33355:1 33365:1 33386:1 33403:1 33417:1 33430:1 33434:1 33441:1 33443:1 33444:1 33457:1 33463:1 33479:1 33490:1 33493:1 33499:1 33508:1 33531:1 33563:1 33579:1 33581:1 33609:1 33648:1 33664:1 33669:1 33713:1 33771:1 33783:1 33836:1 33927:1 33956:1 33980:1 33999:1 34036:1 34042:1 34079:1 34089:1 34112:1 34114:1 34136:1 34185:1 34191:1 34196:1 34240:1 34241:1 34262:1 34268:1 34289:1 34296:1 34307:1 34404:1 34406:1 34447:1 34455:1 34458:1 34475:1 34512:1 34567:1 34570:1 34614:1 34616:1 34649:1 34662:1 34672:1 34731:1 34732:1 34818:1 34830:1 34840:1 34847:1 34857:1 34911:1 34921:1 34946:1 34959:1 34963:1 34978:1 34979:1 35045:1 35048:1 35049:1 35051:1 35058:1 35064:1 35097:1 35112:1 35144:1 35168:1 35187:1 35281:1 35282:1 35294:1 35324:1 35328:1 35339:1 35358:1 35386:1 35437:1 35529:1 35551:1 35593:1 35597:1 35600:1 35610:1 35614:1 35620:1 35689:1 35692:1 35707:1 35711:1 35717:1 35718:1 35770:1 35785:1 35807:1 35838:1 35853:1 35860:1 35873:1 35893:1 35908:1 35929:1 #
8.1874708387004717802942765914054e-05 432:1 2072:1 2798:1 2850:1 3791:1 5048:1 5166:1 5370:1 6651:1 6663:1 7196:1 7873:1 8343:1 8497:1 8506:1 8826:1 9250:1 9679:1 10046:1 10332:1 11330:1 11339:1 12495:1 13073:1 28794:1 28821:1 28848:1 28931:1 28979:1 29003:1 29035:1 29036:1 29066:1 29090:1 29091:1 29096:1 29099:1 29117:1 29124:1 29128:1 29147:1 29158:1 29160:1 29165:1 29199:1 29274:1 29279:1 29288:1 29306:1 29314:1 29320:1 29382:1 29385:1 29405:1 29426:1 29428:1 29437:1 29453:1 29486:1 29491:1 29547:1 29548:1 29601:1 29610:1 29635:1 29636:1 29637:1 29658:1 29659:1 29667:1 29672:1 29700:1 29720:1 29779:1 29799:1 29805:1 29851:1 29875:1 29897:1 29913:1 29959:1 30009:1 30023:1 30048:1 30056:1 30062:1 30066:1 30078:1 30091:1 30112:1 30161:1 30165:1 30173:1 30178:1 30195:1 30216:1 30275:1 30293:1 30297:1 30311:1 30327:1 30354:1 30361:1 30378:1 30382:1 30433:1 30456:1 30464:1 30485:1 30502:1 30503:1 30515:1 30558:1 30585:1 30615:1 30618:1 30640:1 30648:1 30657:1 30675:1 30686:1 30688:1 30692:1 30726:1 30732:1 30747:1 30769:1 30770:1 30791:1 30816:1 30821:1 30887:1 30916:1 30924:1 30925:1 30945:1 30950:1 30954:1 30956:1 30980:1 31005:1 31020:1 31021:1 31026:1 31043:1 31066:1 31079:1 31084:1 31088:1 31108:1 31127:1 31128:1 31189:1 31195:1 31196:1 31219:1 31245:1 31247:1 31248:1 31253:1 31270:1 31286:1 31289:1 31303:1 31305:1 31330:1 31380:1 31409:1 31435:1 31445:1 31457:1 31464:1 31470:1 31511:1 31512:1 31547:1 31561:1 31565:1 31573:1 31689:1 31699:1 31743:1 31744:1 31751:1 31754:1 31755:1 31788:1 31808:1 31820:1 31847:1 31855:1 31871:1 31893:1 31915:1 31928:1 31956:1 31992:1 32024:1 32031:1 32037:1 32051:1 32059:1 32061:1 32110:1 32128:1 32153:1 32166:1 32208:1 32212:1 32215:1 32217:1 32223:1 32256:1 32310:1 32373:1 32378:1 32380:1 32431:1 32443:1 32465:1 32481:1 32513:1 32516:1 32541:1 32542:1 32571:1 32605:1 32629:1 32646:1 32657:1 32658:1 32661:1 32679:1 32691:1 32707:1 32757:1 32822:1 32823:1 32856:1 32878:1 32883:1 32889:1 32913:1 32936:1 32940:1 32975:1 32976:1 32977:1 32984:1 32989:1 32996:1 32997:1 33024:1 33033:1 33041:1 33058:1 33059:1 33093:1 33138:1 33187:1 33190:1 33207:1 33271:1 33273:1 33302:1 33311:1 33324:1 33352:1 33363:1 33387:1 33414:1 33417:1 33425:1 33435:1 33443:1 33483:1 33493:1 33517:1 33531:1 33556:1 33579:1 33603:1 33609:1 33610:1 33621:1 33622:1 33625:1 33636:1 33659:1 33662:1 33666:1 33703:1 33731:1 33738:1 33775:1 33788:1 33796:1 33798:1 33841:1 33847:1 33905:1 33927:1 33930:1 34014:1 34036:1 34042:1 34079:1 34086:1 34090:1 34091:1 34109:1 34112:1 34132:1 34136:1 34190:1 34191:1 34201:1 34226:1 34236:1 34256:1 34257:1 34262:1 34266:1 34268:1 34295:1 34296:1 34337:1 34345:1 34355:1 34382:1 34388:1 34425:1 34431:1 34455:1 34501:1 34544:1 34554:1 34577:1 34614:1 34616:1 34622:1 34642:1 34669:1 34737:1 34755:1 34758:1 34759:1 34778:1 34790:1 34796:1 34821:1 34839:1 34840:1 34869:1 34894:1 34911:1 34946:1 34956:1 34959:1 34990:1 35012:1 35045:1 35049:1 35051:1 35058:1 35062:1 35064:1 35112:1 35158:1 35183:1 35204:1 35218:1 35228:1 35242:1 35276:1 35280:1 35281:1 35296:1 35325:1 35339:1 35343:1 35358:1 35364:1 35367:1 35396:1 35410:1 35458:1 35487:1 35525:1 35529:1 35532:1 35593:1 35614:1 35621:1 35622:1 35667:1 35711:1 35717:1 35718:1 35749:1 35767:1 35770:1 35796:1 35816:1 35820:1 35821:1 35863:1 35885:1 35926:1 #
0.002155351149713327467416501548314 32:1 407:1 569:1 984:1 1590:1 2714:1 2897:1 4875:1 5284:1 7377:1 7593:1 7689:1 7775:1 7964:1 8226:1 8473:1 9095:1 10842:1 12305:1 13073:1 28768:1 28775:1 28821:1 28848:1 28877:1 28953:1 28979:1 28989:1 29000:1 29005:1 29007:1 29011:1 29019:1 29035:1 29036:1 29045:1 29067:1 29094:1 29096:1 29102:1 29124:1 29136:1 29144:1 29152:1 29154:1 29156:1 29233:1 29249:1 29271:1 29274:1 29284:1 29292:1 29314:1 29362:1 29368:1 29370:1 29385:1 29437:1 29507:1 29509:1 29534:1 29558:1 29571:1 29598:1 29601:1 29606:1 29610:1 29635:1 29636:1 29667:1 29720:1 29731:1 29733:1 29742:1 29744:1 29779:1 29805:1 29851:1 29879:1 29897:1 29948:1 29972:1 29976:1 29997:1 30023:1 30040:1 30048:1 30061:1 30062:1 30098:1 30112:1 30155:1 30173:1 30195:1 30206:1 30222:1 30229:1 30265:1 30274:1 30286:1 30293:1 30301:1 30335:1 30345:1 30373:1 30378:1 30503:1 30582:1 30618:1 30657:1 30685:1 30686:1 30692:1 30739:1 30747:1 30769:1 30791:1 30822:1 30834:1 30850:1 30851:1 30861:1 30887:1 30896:1 30950:1 30954:1 30956:1 30995:1 31035:1 31075:1 31088:1 31108:1 31112:1 31118:1 31127:1 31160:1 31183:1 31196:1 31261:1 31304:1 31351:1 31384:1 31387:1 31388:1 31420:1 31457:1 31515:1 31519:1 31547:1 31670:1 31671:1 31725:1 31754:1 31820:1 31846:1 31847:1 31872:1 31882:1 31901:1 31928:1 31934:1 31954:1 32002:1 32011:1 32024:1 32038:1 32052:1 32081:1 32110:1 32128:1 32154:1 32166:1 32172:1 32198:1 32223:1 32237:1 32266:1 32274:1 32310:1 32314:1 32373:1 32378:1 32410:1 32412:1 32415:1 32451:1 32465:1 32508:1 32517:1 32534:1 32538:1 32541:1 32605:1 32615:1 32627:1 32634:1 32650:1 32653:1 32657:1 32658:1 32661:1 32665:1 32667:1 32691:1 32694:1 32702:1 32707:1 32754:1 32755:1 32863:1 32866:1 32889:1 32913:1 32942:1 32943:1 32950:1 32974:1 32984:1 32985:1 32997:1 33016:1 33028:1 33067:1 33074:1 33132:1 33137:1 33161:1 33208:1 33273:1 33276:1 33286:1 33434:1 33474:1 33490:1 33493:1 33521:1 33579:1 33580:1 33583:1 33586:1 33588:1 33603:1 33637:1 33647:1 33693:1 33725:1 33807:1 33821:1 33927:1 34005:1 34039:1 34042:1 34079:1 34091:1 34099:1 34112:1 34131:1 34136:1 34240:1 34249:1 34297:1 34307:1 34329:1 34356:1 34357:1 34393:1 34442:1 34455:1 34485:1 34487:1 34501:1 34545:1 34614:1 34639:1 34647:1 34661:1 34662:1 34673:1 34758:1 34812:1 34821:1 34840:1 34845:1 34857:1 34869:1 34873:1 34908:1 34978:1 34979:1 35003:1 35012:1 35019:1 35035:1 35045:1 35049:1 35064:1 35108:1 35112:1 35200:1 35208:1 35223:1 35228:1 35270:1 35280:1 35281:1 35339:1 35343:1 35358:1 35373:1 35376:1 35403:1 35430:1 35476:1 35509:1 35579:1 35593:1 35609:1 35614:1 35651:1 35663:1 35687:1 35717:1 35718:1 35733:1 35748:1 35766:1 35807:1 35816:1 35853:1 35863:1 35902:1 35932:1 #
0.00013266857201510919993421577789405 873:1 2044:1 2157:1 2391:1 4082:1 4169:1 4225:1 4471:1 4487:1 5390:1 7199:1 7418:1 10093:1 10557:1 10581:1 12015:1 12128:1 12286:1 12476:1 13023:1 13832:1 28769:1 28790:1 28794:1 28800:1 28806:1 28818:1 28855:1 28901:1 28952:1 28956:1 28963:1 28965:1 29035:1 29036:1 29057:1 29091:1 29096:1 29124:1 29184:1 29189:1 29199:1 29204:1 29261:1 29271:1 29281:1 29368:1 29385:1 29388:1 29418:1 29426:1 29428:1 29464:1 29502:1 29547:1 29548:1 29553:1 29610:1 29629:1 29636:1 29658:1 29667:1 29672:1 29688:1 29712:1 29721:1 29756:1 29779:1 29794:1 29805:1 29822:1 29851:1 29853:1 29862:1 29883:1 29897:1 29904:1 29917:1 29926:1 30037:1 30048:1 30081:1 30082:1 30112:1 30136:1 30195:1 30201:1 30220:1 30293:1 30317:1 30390:1 30425:1 30450:1 30464:1 30489:1 30509:1 30510:1 30582:1 30596:1 30618:1 30635:1 30671:1 30685:1 30686:1 30690:1 30692:1 30698:1 30731:1 30747:1 30791:1 30875:1 30886:1 30887:1 30922:1 30954:1 30956:1 30961:1 30967:1 31004:1 31005:1 31018:1 31026:1 31067:1 31079:1 31088:1 31118:1 31127:1 31128:1 31142:1 31176:1 31196:1 31245:1 31256:1 31273:1 31304:1 31351:1 31359:1 31390:1 31400:1 31404:1 31435:1 31445:1 31457:1 31503:1 31516:1 31520:1 31547:1 31670:1 31689:1 31693:1 31699:1 31717:1 31768:1 31773:1 31808:1 31820:1 31877:1 31962:1 31992:1 32077:1 32079:1 32100:1 32107:1 32110:1 32128:1 32157:1 32166:1 32200:1 32219:1 32223:1 32241:1 32252:1 32274:1 32310:1 32373:1 32378:1 32410:1 32431:1 32452:1 32465:1 32467:1 32480:1 32481:1 32495:1 32516:1 32554:1 32562:1 32657:1 32658:1 32661:1 32665:1 32691:1 32707:1 32715:1 32718:1 32783:1 32823:1 32831:1 32857:1 32913:1 32918:1 32934:1 32953:1 32974:1 32977:1 33005:1 33033:1 33050:1 33052:1 33071:1 33093:1 33100:1 33112:1 33127:1 33137:1 33170:1 33210:1 33271:1 33273:1 33276:1 33336:1 33352:1 33386:1 33403:1 33409:1 33414:1 33417:1 33447:1 33469:1 33490:1 33517:1 33521:1 33541:1 33599:1 33609:1 33614:1 33658:1 33729:1 33785:1 33866:1 33919:1 33927:1 33937:1 33959:1 34014:1 34036:1 34042:1 34079:1 34085:1 34109:1 34113:1 34131:1 34136:1 34191:1 34237:1 34240:1 34262:1 34304:1 34316:1 34337:1 34380:1 34388:1 34400:1 34422:1 34423:1 34475:1 34616:1 34688:1 34731:1 34758:1 34783:1 34798:1 34812:1 34840:1 34919:1 34929:1 34963:1 34969:1 35008:1 35045:1 35048:1 35049:1 35051:1 35069:1 35112:1 35218:1 35281:1 35312:1 35339:1 35343:1 35386:1 35391:1 35398:1 35417:1 35422:1 35487:1 35593:1 35649:1 35665:1 35667:1 35690:1 35709:1 35711:1 35717:1 35807:1 35820:1 35863:1 35873:1 35893:1 35908:1 35913:1 35929:1 #
0.0017268641509490102823459745096102 1196:1 3376:1 4345:1 4615:1 9428:1 9481:1 10276:1 11265:1 11466:1 11614:1 12735:1 12985:1 13284:1 28770:1 28779:1 28794:1 28806:1 28821:1 28880:1 29003:1 29010:1 29035:1 29036:1 29066:1 29124:1 29135:1 29165:1 29186:1 29204:1 29259:1 29271:1 29306:1 29320:1 29385:1 29394:1 29428:1 29430:1 29486:1 29489:1 29525:1 29610:1 29635:1 29636:1 29637:1 29653:1 29667:1 29675:1 29682:1 29700:1 29720:1 29735:1 29751:1 29779:1 29790:1 29794:1 29821:1 29851:1 29931:1 29951:1 30002:1 30023:1 30037:1 30048:1 30161:1 30256:1 30275:1 30348:1 30424:1 30460:1 30473:1 30503:1 30561:1 30645:1 30657:1 30685:1 30731:1 30732:1 30739:1 30757:1 30791:1 30857:1 30874:1 30887:1 30956:1 31020:1 31079:1 31084:1 31103:1 31128:1 31177:1 31196:1 31219:1 31375:1 31420:1 31464:1 31512:1 31547:1 31580:1 31603:1 31699:1 31734:1 31754:1 31790:1 31820:1 31890:1 31900:1 31928:1 32026:1 32083:1 32110:1 32136:1 32218:1 32266:1 32306:1 32310:1 32345:1 32373:1 32465:1 32492:1 32520:1 32606:1 32657:1 32658:1 32661:1 32702:1 32707:1 32818:1 32913:1 32918:1 32940:1 32958:1 32980:1 33148:1 33159:1 33168:1 33181:1 33267:1 33295:1 33329:1 33334:1 33386:1 33412:1 33669:1 33704:1 33709:1 33822:1 33836:1 33847:1 34042:1 34057:1 34136:1 34201:1 34220:1 34281:1 34351:1 34369:1 34372:1 34388:1 34422:1 34425:1 34468:1 34501:1 34510:1 34524:1 34637:1 34651:1 34840:1 34851:1 34852:1 34908:1 34988:1 35045:1 35049:1 35112:1 35243:1 35281:1 35282:1 35310:1 35339:1 35398:1 35573:1 35593:1 35597:1 35620:1 35667:1 35711:1 35751:1 35820:1 35875:1 35887:1 #
0.0032295127765102301688193708884 213:1 2329:1 4995:1 6264:1 6708:1 28763:1 28818:1 28877:1 28913:1 28965:1 28997:1 29008:1 29010:1 29035:1 29066:1 29096:1 29124:1 29271:1 29274:1 29314:1 29320:1 29385:1 29388:1 29405:1 29414:1 29429:1 29453:1 29468:1 29521:1 29553:1 29610:1 29635:1 29667:1 29709:1 29715:1 29794:1 29805:1 29851:1 29904:1 29969:1 29987:1 30021:1 30023:1 30037:1 30081:1 30097:1 30181:1 30195:1 30221:1 30227:1 30327:1 30356:1 30503:1 30505:1 30549:1 30582:1 30618:1 30657:1 30767:1 30769:1 30770:1 30816:1 30874:1 30887:1 30916:1 30924:1 30950:1 31063:1 31156:1 31196:1 31241:1 31286:1 31346:1 31376:1 31410:1 31457:1 31487:1 31547:1 31559:1 31754:1 31820:1 31883:1 31970:1 32011:1 32110:1 32207:1 32223:1 32225:1 32274:1 32310:1 32367:1 32378:1 32434:1 32465:1 32562:1 32617:1 32630:1 32657:1 32658:1 32661:1 32667:1 32691:1 32715:1 32754:1 32823:1 32824:1 32936:1 32974:1 33041:1 33067:1 33094:1 33137:1 33153:1 33273:1 33286:1 33386:1 33448:1 33490:1 33517:1 33525:1 33662:1 33872:1 33887:1 33976:1 34030:1 34042:1 34079:1 34095:1 34112:1 34146:1 34191:1 34268:1 34388:1 34411:1 34501:1 34572:1 34659:1 34799:1 34840:1 34904:1 34963:1 34968:1 34977:1 35033:1 35049:1 35051:1 35064:1 35226:1 35281:1 35339:1 35358:1 35470:1 35529:1 35593:1 35597:1 35600:1 35675:1 35770:1 35801:1 #
0.0032295127765102301688193708884 291:1 3616:1 4565:1 6805:1 9305:1 10877:1 11339:1 13558:1 28763:1 28806:1 28821:1 28867:1 29008:1 29035:1 29096:1 29124:1 29168:1 29199:1 29314:1 29385:1 29418:1 29433:1 29453:1 29547:1 29553:1 29559:1 29610:1 29636:1 29637:1 29667:1 29822:1 29897:1 29904:1 29913:1 29927:1 29967:1 30023:1 30037:1 30078:1 30112:1 30195:1 30442:1 30485:1 30502:1 30509:1 30600:1 30618:1 30657:1 30686:1 30692:1 30731:1 30769:1 30816:1 30830:1 30887:1 30952:1 30954:1 30956:1 30985:1 30995:1 31079:1 31126:1 31127:1 31146:1 31196:1 31286:1 31435:1 31457:1 31501:1 31515:1 31547:1 31714:1 31754:1 31759:1 31820:1 31856:1 31900:1 32052:1 32072:1 32076:1 32223:1 32247:1 32343:1 32434:1 32463:1 32465:1 32541:1 32590:1 32657:1 32658:1 32661:1 32665:1 32777:1 32815:1 32823:1 32974:1 32977:1 32991:1 33071:1 33094:1 33133:1 33169:1 33273:1 33305:1 33331:1 33366:1 33414:1 33417:1 33530:1 33535:1 33603:1 33622:1 33664:1 33711:1 33927:1 34014:1 34112:1 34136:1 34148:1 34191:1 34215:1 34240:1 34422:1 34425:1 34475:1 34512:1 34614:1 34616:1 34622:1 34715:1 34731:1 34805:1 34840:1 34876:1 34890:1 34908:1 34963:1 35049:1 35064:1 35112:1 35140:1 35149:1 35218:1 35239:1 35281:1 35358:1 35367:1 35535:1 35593:1 35631:1 35667:1 35690:1 35717:1 35718:1 35807:1 35832:1 35863:1 35929:1 #
0.0032295127765102301688193708884 304:1 1176:1 1278:1 1753:1 1854:1 2107:1 2426:1 2637:1 2948:1 3056:1 3083:1 3856:1 5933:1 6294:1 6842:1 7615:1 9190:1 9677:1 11945:1 13998:1 28763:1 28871:1 28959:1 28967:1 29021:1 29035:1 29036:1 29038:1 29066:1 29096:1 29117:1 29124:1 29143:1 29199:1 29205:1 29271:1 29274:1 29282:1 29310:1 29314:1 29317:1 29385:1 29413:1 29428:1 29450:1 29468:1 29479:1 29528:1 29553:1 29583:1 29610:1 29635:1 29636:1 29637:1 29659:1 29667:1 29695:1 29709:1 29727:1 29729:1 29757:1 29779:1 29800:1 29805:1 29892:1 29893:1 29897:1 29904:1 29914:1 29963:1 30014:1 30023:1 30037:1 30048:1 30061:1 30080:1 30135:1 30173:1 30178:1 30190:1 30195:1 30293:1 30311:1 30361:1 30378:1 30401:1 30464:1 30501:1 30618:1 30659:1 30671:1 30685:1 30686:1 30689:1 30692:1 30735:1 30769:1 30791:1 30821:1 30887:1 30897:1 30950:1 30954:1 30956:1 30971:1 31043:1 31118:1 31128:1 31129:1 31154:1 31156:1 31160:1 31180:1 31195:1 31196:1 31247:1 31304:1 31339:1 31351:1 31387:1 31407:1 31435:1 31457:1 31458:1 31470:1 31485:1 31547:1 31670:1 31716:1 31720:1 31807:1 31820:1 31836:1 31858:1 31889:1 31904:1 31982:1 32050:1 32103:1 32110:1 32136:1 32137:1 32209:1 32223:1 32309:1 32315:1 32357:1 32378:1 32380:1 32410:1 32463:1 32465:1 32467:1 32480:1 32502:1 32520:1 32542:1 32590:1 32628:1 32655:1 32657:1 32658:1 32661:1 32665:1 32672:1 32691:1 32732:1 32794:1 32796:1 32809:1 32823:1 32857:1 32861:1 32863:1 32880:1 32977:1 33041:1 33057:1 33059:1 33071:1 33091:1 33095:1 33136:1 33137:1 33248:1 33273:1 33306:1 33355:1 33364:1 33367:1 33402:1 33417:1 33443:1 33445:1 33457:1 33487:1 33517:1 33530:1 33531:1 33551:1 33669:1 33715:1 33722:1 33723:1 33745:1 33760:1 33930:1 33948:1 34036:1 34042:1 34062:1 34079:1 34095:1 34136:1 34191:1 34240:1 34289:1 34332:1 34341:1 34349:1 34479:1 34480:1 34497:1 34499:1 34501:1 34510:1 34560:1 34616:1 34619:1 34690:1 34727:1 34797:1 34799:1 34820:1 34833:1 34840:1 35045:1 35049:1 35051:1 35069:1 35088:1 35112:1 35118:1 35176:1 35218:1 35244:1 35281:1 35356:1 35358:1 35399:1 35593:1 35597:1 35614:1 35631:1 35667:1 35679:1 35690:1 35711:1 35749:1 35807:1 35853:1 35889:1 35899:1 35908:1 35929:1 #
-0.0032295127765102301688193708884 4064:1 28806:1 29035:1 29453:1 29667:1 29720:1 30195:1 30320:1 30428:1 31127:1 32657:1 32658:1 33273:1 34840:1 34847:1 35045:1 35740:1 #
-0.0032295127765102301688193708884 2415:1 4274:1 5390:1 8995:1 9414:1 9920:1 10193:1 12359:1 12730:1 14178:1 28767:1 28830:1 28846:1 29003:1 29035:1 29036:1 29091:1 29124:1 29221:1 29251:1 29255:1 29271:1 29541:1 29558:1 29610:1 29635:1 29636:1 29667:1 29705:1 29926:1 30023:1 30037:1 30161:1 30192:1 30195:1 30285:1 30293:1 30311:1 30635:1 30648:1 30671:1 30739:1 30755:1 30836:1 30887:1 30905:1 30956:1 30957:1 31132:1 31253:1 31457:1 31547:1 31583:1 31670:1 31816:1 31849:1 31887:1 31889:1 31897:1 31979:1 32036:1 32053:1 32110:1 32159:1 32188:1 32223:1 32225:1 32310:1 32373:1 32434:1 32465:1 32508:1 32590:1 32644:1 32651:1 32657:1 32658:1 32659:1 32660:1 32707:1 32724:1 32729:1 32757:1 32778:1 32908:1 32924:1 32984:1 33033:1 33050:1 33086:1 33137:1 33273:1 33428:1 33478:1 33651:1 33861:1 33927:1 34042:1 34079:1 34139:1 34190:1 34196:1 34206:1 34255:1 34342:1 34449:1 34560:1 34609:1 34616:1 34834:1 34840:1 34920:1 35045:1 35049:1 35112:1 35161:1 35280:1 35305:1 35339:1 35514:1 35627:1 35807:1 35816:1 35863:1 35908:1 #
-0.0032295127765102301688193708884 28799:1 28818:1 28979:1 29035:1 29128:1 29390:1 29437:1 29637:1 29721:1 29779:1 29959:1 30048:1 30053:1 30192:1 30216:1 30731:1 30887:1 31127:1 31196:1 31272:1 31438:1 31547:1 31601:1 31701:1 31894:1 31952:1 32316:1 32451:1 32657:1 32661:1 32691:1 32737:1 32778:1 33093:1 33186:1 33386:1 33457:1 33541:1 34196:1 34732:1 34929:1 35045:1 35049:1 35091:1 35112:1 35134:1 35155:1 35281:1 35358:1 35422:1 #
-0.0032295127765102301688193708884 1410:1 2113:1 2143:1 3648:1 3748:1 6176:1 6641:1 8790:1 8971:1 9454:1 11303:1 28785:1 28806:1 28953:1 29035:1 29042:1 29112:1 29124:1 29216:1 29385:1 29428:1 29502:1 29515:1 29610:1 29613:1 29635:1 29637:1 29667:1 29805:1 29827:1 29875:1 29917:1 29992:1 30033:1 30128:1 30148:1 30195:1 30293:1 30390:1 30613:1 30635:1 30657:1 30669:1 30770:1 30798:1 30816:1 30823:1 30826:1 30887:1 31005:1 31020:1 31062:1 31088:1 31122:1 31196:1 31292:1 31435:1 31446:1 31547:1 31644:1 31704:1 31731:1 31750:1 31820:1 31905:1 31992:1 32102:1 32108:1 32110:1 32223:1 32225:1 32274:1 32315:1 32348:1 32465:1 32481:1 32502:1 32527:1 32605:1 32657:1 32658:1 32661:1 32691:1 32818:1 32830:1 32898:1 32899:1 32918:1 32941:1 32943:1 32974:1 32977:1 33366:1 33413:1 33417:1 33447:1 33492:1 33517:1 33602:1 33609:1 33614:1 33698:1 33811:1 33999:1 34042:1 34112:1 34268:1 34279:1 34280:1 34357:1 34501:1 34616:1 34678:1 34715:1 34837:1 34840:1 34913:1 34979:1 35014:1 35045:1 35048:1 35049:1 35118:1 35141:1 35188:1 35205:1 35297:1 35339:1 35414:1 35476:1 35515:1 35593:1 35687:1 35711:1 35783:1 35820:1 #
-0.0032295127765102301688193708884 1063:1 1961:1 9840:1 11594:1 13248:1 13251:1 28845:1 28959:1 28967:1 28976:1 28994:1 29035:1 29091:1 29164:1 29192:1 29199:1 29252:1 29254:1 29281:1 29385:1 29418:1 29428:1 29433:1 29547:1 29610:1 29636:1 29637:1 29664:1 29667:1 29757:1 29830:1 29897:1 29929:1 30023:1 30048:1 30088:1 30098:1 30128:1 30195:1 30464:1 30657:1 30692:1 30769:1 30791:1 30793:1 30862:1 30887:1 30935:1 30950:1 30956:1 31014:1 31087:1 31177:1 31247:1 31295:1 31512:1 31520:1 31547:1 31561:1 31573:1 31593:1 31670:1 31933:1 31973:1 32024:1 32056:1 32102:1 32110:1 32154:1 32205:1 32238:1 32274:1 32378:1 32415:1 32431:1 32463:1 32465:1 32541:1 32657:1 32658:1 32661:1 32665:1 32702:1 32754:1 32760:1 32786:1 32823:1 32830:1 32880:1 32943:1 32968:1 32977:1 32991:1 32992:1 33258:1 33273:1 33347:1 33355:1 33386:1 33447:1 33476:1 33517:1 33579:1 33698:1 33872:1 33927:1 33989:1 34042:1 34112:1 34224:1 34240:1 34332:1 34375:1 34501:1 34559:1 34609:1 34614:1 34616:1 34701:1 34798:1 34840:1 35019:1 35045:1 35049:1 35112:1 35191:1 35232:1 35280:1 35281:1 35282:1 35350:1 35358:1 35401:1 35593:1 35597:1 35615:1 35622:1 35667:1 35675:1 35841:1 35929:1 #
-0.0023702254779400977642567216463476 767:1 1349:1 2092:1 2145:1 2733:1 2859:1 3875:1 4622:1 5636:1 6222:1 7584:1 8144:1 8759:1 8995:1 9120:1 9167:1 9318:1 9575:1 9896:1 10668:1 10975:1 11132:1 11251:1 13069:1 13351:1 13760:1 14351:1 28766:1 28794:1 28872:1 28948:1 28978:1 28979:1 29001:1 29007:1 29035:1 29036:1 29066:1 29117:1 29124:1 29153:1 29168:1 29204:1 29221:1 29237:1 29240:1 29271:1 29274:1 29314:1 29368:1 29379:1 29385:1 29387:1 29388:1 29391:1 29455:1 29464:1 29468:1 29469:1 29510:1 29558:1 29593:1 29601:1 29610:1 29613:1 29627:1 29635:1 29636:1 29637:1 29667:1 29683:1 29708:1 29720:1 29742:1 29756:1 29779:1 29790:1 29794:1 29914:1 30023:1 30037:1 30048:1 30049:1 30079:1 30080:1 30182:1 30195:1 30290:1 30293:1 30310:1 30361:1 30362:1 30464:1 30550:1 30559:1 30618:1 30631:1 30686:1 30692:1 30723:1 30753:1 30795:1 30821:1 30887:1 30912:1 30956:1 30972:1 31074:1 31075:1 31078:1 31090:1 31127:1 31139:1 31170:1 31188:1 31196:1 31197:1 31247:1 31250:1 31273:1 31280:1 31286:1 31307:1 31342:1 31426:1 31435:1 31458:1 31547:1 31559:1 31593:1 31670:1 31683:1 31699:1 31743:1 31782:1 31789:1 31820:1 31854:1 31858:1 31900:1 31923:1 31962:1 31973:1 31992:1 32031:1 32102:1 32110:1 32128:1 32159:1 32189:1 32223:1 32274:1 32293:1 32310:1 32338:1 32373:1 32378:1 32390:1 32414:1 32451:1 32463:1 32465:1 32467:1 32502:1 32529:1 32534:1 32561:1 32572:1 32582:1 32590:1 32603:1 32619:1 32651:1 32657:1 32658:1 32661:1 32691:1 32707:1 32711:1 32732:1 32751:1 32754:1 32764:1 32768:1 32789:1 32798:1 32805:1 32810:1 32814:1 32823:1 32863:1 32908:1 32913:1 32958:1 32991:1 32994:1 32997:1 33033:1 33068:1 33170:1 33203:1 33234:1 33257:1 33273:1 33276:1 33328:1 33355:1 33364:1 33390:1 33414:1 33427:1 33430:1 33445:1 33447:1 33492:1 33517:1 33546:1 33617:1 33722:1 33760:1 33787:1 33819:1 33872:1 33895:1 33927:1 33930:1 34042:1 34079:1 34083:1 34087:1 34091:1 34109:1 34112:1 34136:1 34179:1 34189:1 34240:1 34256:1 34266:1 34268:1 34295:1 34337:1 34380:1 34388:1 34411:1 34422:1 34425:1 34450:1 34590:1 34609:1 34612:1 34616:1 34634:1 34661:1 34760:1 34770:1 34809:1 34840:1 34849:1 34879:1 34908:1 34934:1 34939:1 34946:1 34963:1 34979:1 34987:1 35015:1 35045:1 35049:1 35051:1 35085:1 35112:1 35191:1 35200:1 35202:1 35218:1 35280:1 35281:1 35282:1 35339:1 35357:1 35358:1 35367:1 35390:1 35501:1 35502:1 35529:1 35582:1 35593:1 35667:1 35675:1 35687:1 35711:1 35717:1 35718:1 35740:1 35760:1 35783:1 35793:1 35807:1 35812:1 35820:1 35853:1 35880:1 35929:1 35931:1 #
0.0032295127765102301688193708884 468:1 5614:1 6584:1 11879:1 12600:1 13522:1 13786:1 28792:1 28794:1 28821:1 28848:1 28923:1 29003:1 29035:1 29038:1 29046:1 29066:1 29091:1 29095:1 29096:1 29116:1 29124:1 29137:1 29147:1 29199:1 29250:1 29264:1 29271:1 29274:1 29276:1 29281:1 29306:1 29320:1 29321:1 29385:1 29418:1 29453:1 29521:1 29547:1 29578:1 29601:1 29610:1 29636:1 29637:1 29667:1 29730:1 29735:1 29742:1 29794:1 29799:1 29805:1 29897:1 29904:1 29929:1 29975:1 30023:1 30037:1 30048:1 30061:1 30122:1 30148:1 30161:1 30173:1 30195:1 30228:1 30285:1 30311:1 30332:1 30382:1 30578:1 30582:1 30614:1 30657:1 30686:1 30692:1 30731:1 30769:1 30791:1 30821:1 30887:1 30914:1 30925:1 30954:1 30956:1 31005:1 31014:1 31020:1 31065:1 31079:1 31084:1 31086:1 31088:1 31127:1 31145:1 31146:1 31147:1 31194:1 31196:1 31247:1 31254:1 31261:1 31280:1 31286:1 31380:1 31406:1 31410:1 31427:1 31435:1 31507:1 31544:1 31547:1 31606:1 31612:1 31648:1 31670:1 31713:1 31723:1 31725:1 31732:1 31753:1 31754:1 31820:1 31840:1 31895:1 31923:1 31977:1 31996:1 32017:1 32128:1 32221:1 32223:1 32225:1 32232:1 32251:1 32310:1 32373:1 32410:1 32431:1 32434:1 32459:1 32465:1 32495:1 32534:1 32545:1 32579:1 32580:1 32590:1 32657:1 32658:1 32661:1 32665:1 32667:1 32684:1 32732:1 32754:1 32797:1 32823:1 32840:1 32889:1 32913:1 32949:1 32975:1 32984:1 33038:1 33041:1 33042:1 33051:1 33059:1 33071:1 33088:1 33108:1 33137:1 33148:1 33178:1 33196:1 33225:1 33273:1 33276:1 33355:1 33380:1 33402:1 33414:1 33445:1 33453:1 33457:1 33517:1 33521:1 33531:1 33551:1 33658:1 33765:1 33865:1 33872:1 33917:1 33924:1 34014:1 34079:1 34095:1 34112:1 34121:1 34132:1 34136:1 34174:1 34196:1 34253:1 34255:1 34256:1 34257:1 34268:1 34289:1 34295:1 34331:1 34359:1 34388:1 34432:1 34455:1 34475:1 34501:1 34528:1 34541:1 34607:1 34616:1 34642:1 34678:1 34691:1 34708:1 34717:1 34828:1 34840:1 34845:1 34877:1 34929:1 34963:1 34979:1 35007:1 35013:1 35045:1 35049:1 35051:1 35064:1 35112:1 35132:1 35182:1 35190:1 35200:1 35218:1 35270:1 35283:1 35339:1 35343:1 35358:1 35403:1 35514:1 35593:1 35600:1 35622:1 35667:1 35701:1 35711:1 35717:1 35820:1 35853:1 35898:1 35908:1 #
0.0012394727258721247031836298901908 375:1 376:1 422:1 627:1 940:1 986:1 1119:1 1167:1 1331:1 1896:1 1911:1 1967:1 2081:1 2180:1 2225:1 2403:1 2719:1 2896:1 2916:1 2924:1 3097:1 3345:1 3605:1 4009:1 4039:1 4103:1 4280:1 4499:1 5231:1 5247:1 5391:1 5399:1 6060:1 6087:1 6223:1 6273:1 6563:1 6933:1 7174:1 7495:1 7506:1 7573:1 7618:1 7937:1 8011:1 8244:1 8363:1 8554:1 8827:1 8843:1 8853:1 9190:1 9410:1 10130:1 10252:1 10322:1 10512:1 10663:1 10861:1 10904:1 11091:1 11279:1 11574:1 11617:1 11744:1 12053:1 12193:1 12621:1 13141:1 13533:1 13654:1 13816:1 13981:1 14224:1 28775:1 28794:1 28806:1 28818:1 28821:1 28842:1 28846:1 28848:1 28856:1 28886:1 28930:1 28931:1 28959:1 28979:1 28995:1 29000:1 29008:1 29035:1 29036:1 29039:1 29057:1 29066:1 29074:1 29091:1 29096:1 29099:1 29106:1 29107:1 29124:1 29135:1 29178:1 29184:1 29185:1 29186:1 29195:1 29199:1 29250:1 29261:1 29267:1 29270:1 29271:1 29277:1 29281:1 29305:1 29306:1 29314:1 29328:1 29368:1 29379:1 29385:1 29418:1 29422:1 29453:1 29457:1 29460:1 29468:1 29476:1 29486:1 29487:1 29488:1 29491:1 29509:1 29510:1 29547:1 29558:1 29578:1 29583:1 29601:1 29610:1 29611:1 29613:1 29617:1 29624:1 29632:1 29635:1 29636:1 29637:1 29666:1 29667:1 29686:1 29709:1 29720:1 29724:1 29732:1 29756:1 29775:1 29779:1 29799:1 29801:1 29805:1 29835:1 29851:1 29875:1 29893:1 29895:1 29904:1 29916:1 29918:1 29919:1 29935:1 29972:1 29990:1 29993:1 29997:1 29999:1 30016:1 30023:1 30031:1 30037:1 30048:1 30056:1 30061:1 30062:1 30071:1 30110:1 30112:1 30191:1 30192:1 30195:1 30198:1 30216:1 30217:1 30235:1 30242:1 30261:1 30264:1 30265:1 30285:1 30286:1 30293:1 30326:1 30332:1 30354:1 30368:1 30396:1 30407:1 30413:1 30445:1 30473:1 30489:1 30531:1 30578:1 30582:1 30591:1 30598:1 30600:1 30605:1 30624:1 30635:1 30643:1 30651:1 30657:1 30672:1 30685:1 30686:1 30692:1 30701:1 30747:1 30752:1 30753:1 30769:1 30782:1 30791:1 30806:1 30821:1 30846:1 30850:1 30866:1 30874:1 30887:1 30896:1 30899:1 30916:1 30950:1 30954:1 30956:1 30958:1 30982:1 30986:1 30999:1 31019:1 31020:1 31051:1 31064:1 31079:1 31103:1 31109:1 31112:1 31114:1 31123:1 31127:1 31133:1 31183:1 31194:1 31196:1 31228:1 31247:1 31253:1 31273:1 31280:1 31286:1 31294:1 31304:1 31338:1 31362:1 31380:1 31389:1 31405:1 31411:1 31419:1 31428:1 31435:1 31438:1 31457:1 31507:1 31516:1 31522:1 31523:1 31547:1 31565:1 31605:1 31609:1 31616:1 31670:1 31699:1 31712:1 31725:1 31743:1 31753:1 31754:1 31755:1 31788:1 31806:1 31810:1 31820:1 31865:1 31884:1 31900:1 31923:1 31928:1 31934:1 31952:1 31956:1 31962:1 31966:1 31999:1 32004:1 32007:1 32011:1 32017:1 32024:1 32059:1 32087:1 32093:1 32099:1 32110:1 32133:1 32176:1 32207:1 32213:1 32215:1 32223:1 32225:1 32287:1 32310:1 32316:1 32341:1 32362:1 32366:1 32385:1 32390:1 32393:1 32426:1 32431:1 32451:1 32465:1 32492:1 32514:1 32524:1 32527:1 32538:1 32541:1 32545:1 32552:1 32590:1 32599:1 32602:1 32629:1 32639:1 32649:1 32657:1 32658:1 32661:1 32665:1 32667:1 32674:1 32691:1 32701:1 32702:1 32707:1 32743:1 32752:1 32754:1 32764:1 32778:1 32815:1 32824:1 32829:1 32840:1 32851:1 32857:1 32911:1 32913:1 32917:1 32918:1 32934:1 32936:1 32946:1 32975:1 32977:1 32984:1 33016:1 33033:1 33050:1 33052:1 33059:1 33060:1 33064:1 33068:1 33074:1 33094:1 33137:1 33153:1 33159:1 33160:1 33178:1 33191:1 33222:1 33235:1 33273:1 33282:1 33287:1 33328:1 33355:1 33363:1 33368:1 33386:1 33417:1 33448:1 33464:1 33475:1 33482:1 33483:1 33490:1 33495:1 33499:1 33511:1 33512:1 33517:1 33521:1 33563:1 33578:1 33579:1 33583:1 33648:1 33652:1 33658:1 33687:1 33775:1 33779:1 33784:1 33787:1 33799:1 33819:1 33827:1 33837:1 33847:1 33856:1 33868:1 33872:1 33918:1 33927:1 33928:1 33942:1 33962:1 33971:1 33976:1 33982:1 33992:1 34014:1 34023:1 34042:1 34053:1 34079:1 34085:1 34089:1 34090:1 34112:1 34136:1 34167:1 34191:1 34196:1 34208:1 34212:1 34230:1 34240:1 34253:1 34262:1 34268:1 34289:1 34295:1 34309:1 34341:1 34348:1 34351:1 34374:1 34388:1 34389:1 34393:1 34414:1 34422:1 34425:1 34431:1 34450:1 34464:1 34467:1 34475:1 34477:1 34490:1 34493:1 34507:1 34524:1 34554:1 34568:1 34595:1 34599:1 34608:1 34611:1 34616:1 34624:1 34629:1 34669:1 34678:1 34711:1 34731:1 34758:1 34760:1 34777:1 34786:1 34820:1 34821:1 34834:1 34840:1 34865:1 34887:1 34901:1 34957:1 34958:1 34959:1 34963:1 34964:1 34974:1 34979:1 34987:1 35005:1 35012:1 35016:1 35024:1 35045:1 35049:1 35064:1 35069:1 35072:1 35094:1 35112:1 35123:1 35159:1 35174:1 35179:1 35190:1 35195:1 35200:1 35205:1 35223:1 35228:1 35232:1 35275:1 35277:1 35280:1 35281:1 35282:1 35286:1 35287:1 35296:1 35339:1 35343:1 35352:1 35354:1 35358:1 35383:1 35436:1 35438:1 35450:1 35463:1 35464:1 35466:1 35489:1 35498:1 35501:1 35550:1 35576:1 35593:1 35605:1 35611:1 35614:1 35631:1 35639:1 35640:1 35653:1 35665:1 35667:1 35687:1 35690:1 35711:1 35717:1 35718:1 35723:1 35770:1 35782:1 35785:1 35807:1 35820:1 35853:1 35893:1 35929:1 35932:1 35934:1 #
0.001558226940869519676347021430729 125:1 223:1 281:1 754:1 1039:1 1080:1 1845:1 2024:1 2612:1 4124:1 4312:1 4493:1 4875:1 5081:1 5756:1 5816:1 5939:1 6181:1 6674:1 7173:1 7390:1 7480:1 8305:1 8657:1 8805:1 9471:1 9735:1 9860:1 11016:1 11803:1 12468:1 12723:1 12895:1 12957:1 13068:1 13126:1 13230:1 13410:1 13593:1 13708:1 28763:1 28794:1 28804:1 28806:1 28810:1 28821:1 28824:1 28840:1 28848:1 28849:1 28880:1 28895:1 28950:1 28963:1 29003:1 29008:1 29010:1 29035:1 29036:1 29038:1 29047:1 29049:1 29057:1 29066:1 29067:1 29088:1 29091:1 29096:1 29116:1 29117:1 29124:1 29137:1 29148:1 29153:1 29155:1 29174:1 29186:1 29199:1 29224:1 29249:1 29250:1 29267:1 29271:1 29274:1 29281:1 29292:1 29306:1 29314:1 29319:1 29320:1 29321:1 29356:1 29366:1 29379:1 29385:1 29387:1 29390:1 29407:1 29416:1 29418:1 29428:1 29433:1 29434:1 29453:1 29468:1 29491:1 29509:1 29547:1 29548:1 29553:1 29570:1 29572:1 29590:1 29601:1 29610:1 29613:1 29635:1 29636:1 29637:1 29667:1 29683:1 29688:1 29690:1 29717:1 29720:1 29779:1 29805:1 29807:1 29817:1 29822:1 29875:1 29889:1 29897:1 29904:1 29913:1 29915:1 29947:1 29976:1 29989:1 29999:1 30001:1 30005:1 30023:1 30037:1 30048:1 30049:1 30061:1 30062:1 30072:1 30078:1 30086:1 30112:1 30155:1 30161:1 30173:1 30188:1 30190:1 30195:1 30218:1 30233:1 30238:1 30304:1 30308:1 30311:1 30321:1 30332:1 30361:1 30368:1 30373:1 30458:1 30464:1 30475:1 30489:1 30501:1 30521:1 30560:1 30582:1 30600:1 30609:1 30657:1 30681:1 30685:1 30686:1 30689:1 30692:1 30727:1 30731:1 30747:1 30757:1 30769:1 30783:1 30791:1 30799:1 30816:1 30818:1 30821:1 30835:1 30874:1 30887:1 30892:1 30916:1 30924:1 30929:1 30947:1 30950:1 30954:1 30956:1 30958:1 30961:1 30977:1 30979:1 30995:1 31008:1 31020:1 31033:1 31067:1 31079:1 31107:1 31118:1 31127:1 31145:1 31160:1 31196:1 31228:1 31234:1 31247:1 31253:1 31263:1 31286:1 31300:1 31304:1 31316:1 31340:1 31351:1 31388:1 31404:1 31410:1 31411:1 31422:1 31430:1 31445:1 31446:1 31458:1 31470:1 31488:1 31501:1 31507:1 31512:1 31547:1 31561:1 31569:1 31577:1 31583:1 31589:1 31623:1 31694:1 31704:1 31744:1 31749:1 31754:1 31766:1 31768:1 31820:1 31831:1 31847:1 31886:1 31894:1 31928:1 31946:1 31954:1 31958:1 31962:1 31968:1 31971:1 31979:1 31983:1 32003:1 32024:1 32031:1 32038:1 32056:1 32061:1 32068:1 32074:1 32104:1 32107:1 32110:1 32128:1 32188:1 32205:1 32223:1 32225:1 32253:1 32256:1 32280:1 32305:1 32310:1 32332:1 32360:1 32373:1 32380:1 32390:1 32402:1 32417:1 32426:1 32431:1 32443:1 32463:1 32465:1 32467:1 32480:1 32520:1 32524:1 32541:1 32545:1 32561:1 32570:1 32572:1 32605:1 32646:1 32647:1 32657:1 32658:1 32660:1 32661:1 32665:1 32690:1 32691:1 32697:1 32707:1 32729:1 32736:1 32754:1 32773:1 32778:1 32783:1 32812:1 32813:1 32823:1 32824:1 32829:1 32840:1 32844:1 32889:1 32901:1 32908:1 32913:1 32925:1 32935:1 32936:1 32949:1 32970:1 32974:1 32975:1 32984:1 32985:1 32988:1 33016:1 33033:1 33038:1 33059:1 33071:1 33137:1 33138:1 33144:1 33169:1 33206:1 33214:1 33215:1 33224:1 33253:1 33273:1 33274:1 33305:1 33311:1 33324:1 33355:1 33361:1 33363:1 33366:1 33386:1 33387:1 33391:1 33414:1 33417:1 33434:1 33436:1 33443:1 33445:1 33457:1 33479:1 33483:1 33490:1 33499:1 33508:1 33517:1 33521:1 33579:1 33603:1 33625:1 33634:1 33669:1 33683:1 33693:1 33715:1 33747:1 33765:1 33770:1 33772:1 33796:1 33872:1 33874:1 33890:1 33914:1 33927:1 34014:1 34023:1 34036:1 34042:1 34067:1 34079:1 34109:1 34110:1 34112:1 34121:1 34136:1 34228:1 34240:1 34256:1 34262:1 34268:1 34280:1 34289:1 34316:1 34327:1 34336:1 34351:1 34357:1 34359:1 34388:1 34394:1 34422:1 34425:1 34448:1 34455:1 34475:1 34495:1 34501:1 34506:1 34523:1 34525:1 34554:1 34609:1 34616:1 34669:1 34708:1 34725:1 34731:1 34732:1 34737:1 34762:1 34770:1 34797:1 34820:1 34834:1 34840:1 34847:1 34857:1 34865:1 34876:1 34899:1 34919:1 34931:1 34935:1 34946:1 34979:1 34990:1 35000:1 35007:1 35012:1 35015:1 35029:1 35033:1 35045:1 35049:1 35051:1 35063:1 35064:1 35070:1 35092:1 35101:1 35108:1 35112:1 35132:1 35139:1 35140:1 35181:1 35192:1 35200:1 35218:1 35278:1 35279:1 35280:1 35281:1 35294:1 35339:1 35350:1 35358:1 35372:1 35424:1 35428:1 35476:1 35556:1 35581:1 35593:1 35620:1 35627:1 35665:1 35667:1 35687:1 35690:1 35708:1 35711:1 35717:1 35739:1 35742:1 35770:1 35801:1 35807:1 35811:1 35816:1 35818:1 35821:1 35852:1 35863:1 35883:1 35904:1 35915:1 35929:1 35931:1 #
0.0032295127765102301688193708884 567:1 650:1 732:1 1134:1 2421:1 2676:1 2977:1 3103:1 3223:1 3297:1 4027:1 4081:1 4208:1 4241:1 4326:1 4958:1 4993:1 5258:1 5686:1 7528:1 7618:1 8383:1 8428:1 8965:1 9152:1 9218:1 9825:1 9858:1 9896:1 9957:1 10667:1 11176:1 11825:1 11969:1 12082:1 12417:1 12468:1 12644:1 12735:1 13325:1 13331:1 13758:1 13824:1 13966:1 13973:1 28785:1 28794:1 28807:1 28810:1 28821:1 28830:1 28832:1 28839:1 28848:1 28923:1 28929:1 28965:1 28978:1 28979:1 28992:1 29003:1 29008:1 29035:1 29036:1 29038:1 29047:1 29057:1 29065:1 29071:1 29088:1 29091:1 29095:1 29096:1 29099:1 29124:1 29134:1 29140:1 29141:1 29160:1 29168:1 29184:1 29199:1 29204:1 29250:1 29269:1 29271:1 29294:1 29295:1 29306:1 29314:1 29320:1 29321:1 29385:1 29416:1 29418:1 29419:1 29428:1 29474:1 29486:1 29510:1 29518:1 29541:1 29593:1 29610:1 29635:1 29636:1 29637:1 29667:1 29672:1 29681:1 29688:1 29709:1 29720:1 29730:1 29732:1 29794:1 29805:1 29853:1 29861:1 29897:1 29904:1 29964:1 29976:1 30005:1 30023:1 30029:1 30037:1 30048:1 30049:1 30061:1 30062:1 30069:1 30098:1 30112:1 30129:1 30158:1 30173:1 30195:1 30224:1 30230:1 30235:1 30247:1 30257:1 30259:1 30264:1 30271:1 30273:1 30285:1 30287:1 30293:1 30327:1 30353:1 30361:1 30378:1 30427:1 30464:1 30484:1 30494:1 30503:1 30558:1 30559:1 30614:1 30624:1 30635:1 30657:1 30671:1 30689:1 30692:1 30696:1 30702:1 30705:1 30731:1 30739:1 30747:1 30769:1 30789:1 30807:1 30810:1 30819:1 30821:1 30829:1 30874:1 30887:1 30910:1 30916:1 30924:1 30950:1 30952:1 30954:1 30956:1 30967:1 30972:1 30995:1 31008:1 31013:1 31014:1 31039:1 31040:1 31054:1 31056:1 31079:1 31090:1 31126:1 31127:1 31137:1 31156:1 31160:1 31188:1 31196:1 31208:1 31247:1 31254:1 31286:1 31302:1 31304:1 31306:1 31316:1 31328:1 31351:1 31356:1 31364:1 31427:1 31430:1 31453:1 31457:1 31512:1 31547:1 31553:1 31557:1 31576:1 31583:1 31610:1 31612:1 31617:1 31633:1 31652:1 31671:1 31679:1 31685:1 31686:1 31689:1 31694:1 31699:1 31720:1 31743:1 31747:1 31751:1 31752:1 31754:1 31764:1 31774:1 31786:1 31808:1 31810:1 31820:1 31854:1 31893:1 31917:1 31922:1 31923:1 31926:1 31928:1 31962:1 31977:1 32003:1 32011:1 32028:1 32031:1 32081:1 32110:1 32111:1 32114:1 32154:1 32159:1 32179:1 32223:1 32225:1 32230:1 32247:1 32254:1 32256:1 32259:1 32274:1 32291:1 32310:1 32329:1 32334:1 32367:1 32373:1 32395:1 32426:1 32434:1 32435:1 32442:1 32462:1 32465:1 32502:1 32527:1 32538:1 32585:1 32590:1 32599:1 32610:1 32617:1 32625:1 32627:1 32629:1 32657:1 32658:1 32661:1 32665:1 32667:1 32673:1 32690:1 32691:1 32707:1 32736:1 32756:1 32768:1 32791:1 32818:1 32823:1 32834:1 32839:1 32857:1 32866:1 32878:1 32889:1 32892:1 32913:1 32921:1 32934:1 32936:1 32958:1 32974:1 32975:1 32985:1 32986:1 32997:1 33033:1 33038:1 33039:1 33042:1 33050:1 33058:1 33068:1 33071:1 33074:1 33144:1 33160:1 33206:1 33272:1 33273:1 33276:1 33284:1 33328:1 33363:1 33403:1 33417:1 33443:1 33447:1 33457:1 33483:1 33517:1 33525:1 33549:1 33570:1 33576:1 33583:1 33625:1 33636:1 33658:1 33666:1 33680:1 33684:1 33697:1 33704:1 33719:1 33722:1 33760:1 33767:1 33849:1 33856:1 33863:1 33867:1 33871:1 33907:1 33914:1 33927:1 33948:1 33950:1 34014:1 34025:1 34042:1 34079:1 34080:1 34085:1 34100:1 34101:1 34112:1 34136:1 34143:1 34154:1 34157:1 34180:1 34191:1 34229:1 34240:1 34256:1 34266:1 34300:1 34307:1 34322:1 34327:1 34331:1 34332:1 34351:1 34367:1 34388:1 34425:1 34432:1 34455:1 34458:1 34471:1 34475:1 34476:1 34501:1 34530:1 34543:1 34554:1 34555:1 34574:1 34607:1 34611:1 34614:1 34616:1 34622:1 34659:1 34662:1 34703:1 34704:1 34731:1 34754:1 34758:1 34762:1 34770:1 34790:1 34797:1 34798:1 34800:1 34821:1 34829:1 34840:1 34847:1 34858:1 34906:1 34917:1 34959:1 34963:1 34979:1 35012:1 35044:1 35045:1 35049:1 35051:1 35058:1 35064:1 35067:1 35108:1 35112:1 35136:1 35197:1 35198:1 35200:1 35213:1 35218:1 35228:1 35240:1 35266:1 35270:1 35281:1 35282:1 35291:1 35325:1 35327:1 35339:1 35343:1 35350:1 35353:1 35358:1 35383:1 35395:1 35474:1 35504:1 35506:1 35515:1 35536:1 35593:1 35614:1 35627:1 35667:1 35687:1 35690:1 35711:1 35717:1 35718:1 35728:1 35770:1 35788:1 35807:1 35816:1 35820:1 35832:1 35847:1 35863:1 35897:1 35898:1 35908:1 35929:1 35932:1 35947:1 #
-0.0027325221939771817888931160211996 383:1 500:1 683:1 968:1 1105:1 1496:1 1507:1 1548:1 1939:1 2166:1 2387:1 2421:1 2596:1 2631:1 2809:1 3359:1 3458:1 3626:1 3654:1 3683:1 3691:1 3877:1 3919:1 3934:1 4254:1 4323:1 4454:1 4801:1 4968:1 4971:1 5025:1 5027:1 5777:1 6402:1 6494:1 6869:1 7037:1 7164:1 7350:1 7708:1 7773:1 8377:1 8491:1 8943:1 8983:1 9031:1 9287:1 9583:1 9832:1 10156:1 10236:1 10401:1 10423:1 10439:1 10442:1 10655:1 10832:1 11449:1 11815:1 11915:1 12034:1 12459:1 12644:1 12969:1 13096:1 13146:1 13238:1 13391:1 13410:1 13838:1 13909:1 13912:1 14084:1 14290:1 14335:1 28794:1 28804:1 28806:1 28810:1 28839:1 28845:1 28846:1 28848:1 28853:1 28872:1 28877:1 28904:1 28913:1 28929:1 28957:1 28959:1 28979:1 28981:1 28995:1 29000:1 29003:1 29007:1 29008:1 29033:1 29035:1 29036:1 29048:1 29055:1 29057:1 29060:1 29066:1 29077:1 29091:1 29094:1 29096:1 29116:1 29124:1 29125:1 29151:1 29154:1 29186:1 29199:1 29204:1 29205:1 29207:1 29224:1 29230:1 29249:1 29250:1 29261:1 29271:1 29273:1 29274:1 29314:1 29320:1 29321:1 29356:1 29381:1 29385:1 29388:1 29390:1 29400:1 29403:1 29423:1 29425:1 29426:1 29428:1 29433:1 29436:1 29468:1 29479:1 29483:1 29486:1 29488:1 29491:1 29509:1 29547:1 29548:1 29558:1 29578:1 29585:1 29601:1 29606:1 29610:1 29635:1 29636:1 29637:1 29658:1 29666:1 29667:1 29686:1 29692:1 29700:1 29702:1 29720:1 29729:1 29732:1 29744:1 29753:1 29769:1 29775:1 29779:1 29781:1 29805:1 29851:1 29861:1 29865:1 29893:1 29897:1 29900:1 29904:1 29907:1 29917:1 29958:1 29964:1 29966:1 29975:1 29991:1 29995:1 30023:1 30037:1 30040:1 30048:1 30056:1 30061:1 30079:1 30098:1 30148:1 30155:1 30161:1 30172:1 30195:1 30211:1 30218:1 30247:1 30260:1 30270:1 30285:1 30287:1 30293:1 30301:1 30311:1 30317:1 30337:1 30351:1 30356:1 30366:1 30395:1 30425:1 30453:1 30462:1 30464:1 30468:1 30473:1 30500:1 30503:1 30509:1 30516:1 30524:1 30557:1 30559:1 30561:1 30582:1 30629:1 30635:1 30657:1 30673:1 30682:1 30685:1 30686:1 30692:1 30706:1 30739:1 30747:1 30758:1 30760:1 30766:1 30769:1 30777:1 30791:1 30799:1 30816:1 30821:1 30822:1 30850:1 30851:1 30857:1 30865:1 30874:1 30876:1 30878:1 30887:1 30950:1 30954:1 30956:1 30980:1 30987:1 31019:1 31039:1 31079:1 31103:1 31118:1 31127:1 31128:1 31130:1 31154:1 31156:1 31162:1 31170:1 31177:1 31179:1 31180:1 31196:1 31199:1 31219:1 31244:1 31247:1 31272:1 31286:1 31304:1 31342:1 31354:1 31357:1 31382:1 31435:1 31441:1 31445:1 31457:1 31470:1 31497:1 31515:1 31529:1 31547:1 31548:1 31553:1 31559:1 31561:1 31589:1 31610:1 31612:1 31618:1 31671:1 31699:1 31700:1 31730:1 31732:1 31743:1 31747:1 31749:1 31751:1 31755:1 31781:1 31782:1 31820:1 31836:1 31850:1 31889:1 31894:1 31900:1 31914:1 31919:1 31934:1 31942:1 31944:1 31957:1 31961:1 31969:1 31982:1 31992:1 31993:1 31995:1 32011:1 32014:1 32024:1 32031:1 32036:1 32042:1 32044:1 32048:1 32056:1 32081:1 32085:1 32090:1 32092:1 32110:1 32119:1 32125:1 32126:1 32128:1 32134:1 32140:1 32161:1 32172:1 32203:1 32204:1 32213:1 32223:1 32225:1 32251:1 32256:1 32268:1 32274:1 32302:1 32310:1 32330:1 32337:1 32352:1 32364:1 32373:1 32376:1 32378:1 32385:1 32395:1 32415:1 32431:1 32433:1 32434:1 32463:1 32465:1 32467:1 32478:1 32480:1 32483:1 32502:1 32506:1 32508:1 32515:1 32521:1 32524:1 32541:1 32554:1 32562:1 32572:1 32574:1 32582:1 32590:1 32593:1 32605:1 32606:1 32614:1 32627:1 32629:1 32634:1 32657:1 32658:1 32659:1 32661:1 32665:1 32667:1 32677:1 32691:1 32702:1 32707:1 32711:1 32729:1 32731:1 32732:1 32734:1 32754:1 32778:1 32785:1 32800:1 32818:1 32823:1 32830:1 32831:1 32833:1 32843:1 32856:1 32866:1 32870:1 32889:1 32913:1 32956:1 32958:1 32974:1 32975:1 32977:1 32981:1 32984:1 32986:1 32988:1 32999:1 33005:1 33016:1 33042:1 33047:1 33058:1 33059:1 33071:1 33084:1 33088:1 33093:1 33138:1 33143:1 33153:1 33159:1 33169:1 33172:1 33181:1 33215:1 33229:1 33241:1 33261:1 33273:1 33276:1 33290:1 33313:1 33342:1 33349:1 33355:1 33364:1 33366:1 33373:1 33384:1 33386:1 33387:1 33388:1 33390:1 33403:1 33404:1 33417:1 33443:1 33447:1 33448:1 33452:1 33460:1 33463:1 33479:1 33490:1 33513:1 33517:1 33525:1 33531:1 33560:1 33565:1 33579:1 33590:1 33593:1 33614:1 33624:1 33625:1 33648:1 33650:1 33655:1 33664:1 33669:1 33679:1 33700:1 33715:1 33758:1 33776:1 33782:1 33788:1 33790:1 33796:1 33812:1 33819:1 33827:1 33842:1 33868:1 33869:1 33872:1 33902:1 33912:1 33927:1 33936:1 33946:1 33976:1 33983:1 34014:1 34031:1 34036:1 34038:1 34042:1 34057:1 34070:1 34071:1 34079:1 34085:1 34095:1 34109:1 34110:1 34112:1 34124:1 34132:1 34136:1 34145:1 34148:1 34160:1 34161:1 34175:1 34179:1 34185:1 34196:1 34240:1 34249:1 34255:1 34262:1 34268:1 34289:1 34327:1 34331:1 34332:1 34339:1 34341:1 34349:1 34351:1 34359:1 34371:1 34388:1 34404:1 34408:1 34409:1 34411:1 34422:1 34425:1 34430:1 34455:1 34458:1 34475:1 34478:1 34539:1 34540:1 34554:1 34572:1 34601:1 34607:1 34609:1 34613:1 34614:1 34616:1 34622:1 34627:1 34630:1 34656:1 34661:1 34669:1 34685:1 34727:1 34731:1 34732:1 34736:1 34741:1 34754:1 34758:1 34770:1 34789:1 34798:1 34809:1 34812:1 34821:1 34826:1 34834:1 34840:1 34847:1 34848:1 34867:1 34876:1 34908:1 34911:1 34919:1 34937:1 34941:1 34944:1 34946:1 34956:1 34959:1 34963:1 34979:1 34995:1 35012:1 35013:1 35045:1 35047:1 35049:1 35051:1 35064:1 35072:1 35084:1 35091:1 35097:1 35098:1 35112:1 35117:1 35141:1 35161:1 35183:1 35186:1 35200:1 35218:1 35220:1 35244:1 35281:1 35282:1 35325:1 35328:1 35339:1 35352:1 35358:1 35369:1 35376:1 35379:1 35388:1 35418:1 35424:1 35428:1 35487:1 35491:1 35504:1 35513:1 35529:1 35538:1 35560:1 35573:1 35577:1 35593:1 35597:1 35600:1 35605:1 35614:1 35620:1 35627:1 35634:1 35663:1 35667:1 35671:1 35687:1 35690:1 35711:1 35717:1 35718:1 35749:1 35767:1 35781:1 35785:1 35790:1 35807:1 35845:1 35853:1 35856:1 35863:1 35864:1 35887:1 35893:1 35901:1 35902:1 35908:1 35927:1 35935:1 #
-0.002115041383109205613832770609406 162:1 860:1 1131:1 1191:1 2104:1 2582:1 2609:1 2644:1 3098:1 3314:1 4078:1 4106:1 4428:1 5092:1 6031:1 6312:1 6350:1 6720:1 6927:1 7372:1 7865:1 7881:1 7987:1 8327:1 8832:1 9004:1 9083:1 9154:1 9456:1 9940:1 10112:1 10640:1 10727:1 11250:1 11343:1 11349:1 11521:1 11585:1 12392:1 12811:1 12837:1 13068:1 13214:1 13264:1 13283:1 13825:1 14009:1 14370:1 28793:1 28823:1 28824:1 28832:1 28842:1 28848:1 28853:1 28856:1 28858:1 28877:1 28881:1 28883:1 28926:1 28931:1 28947:1 28959:1 28963:1 28979:1 28996:1 29003:1 29007:1 29016:1 29021:1 29035:1 29036:1 29038:1 29066:1 29091:1 29096:1 29098:1 29099:1 29116:1 29124:1 29125:1 29141:1 29162:1 29174:1 29186:1 29199:1 29200:1 29225:1 29249:1 29250:1 29254:1 29271:1 29274:1 29279:1 29305:1 29314:1 29320:1 29321:1 29322:1 29359:1 29363:1 29366:1 29368:1 29371:1 29378:1 29385:1 29390:1 29398:1 29405:1 29412:1 29413:1 29426:1 29428:1 29429:1 29440:1 29453:1 29457:1 29479:1 29481:1 29486:1 29491:1 29509:1 29518:1 29525:1 29546:1 29548:1 29555:1 29557:1 29572:1 29601:1 29610:1 29629:1 29632:1 29635:1 29636:1 29637:1 29646:1 29667:1 29683:1 29700:1 29703:1 29706:1 29708:1 29709:1 29714:1 29718:1 29720:1 29725:1 29731:1 29740:1 29744:1 29753:1 29779:1 29791:1 29805:1 29822:1 29835:1 29851:1 29857:1 29871:1 29885:1 29889:1 29896:1 29897:1 29904:1 29913:1 29914:1 29938:1 29941:1 29964:1 29975:1 29977:1 29997:1 30023:1 30037:1 30048:1 30056:1 30061:1 30062:1 30067:1 30080:1 30081:1 30082:1 30088:1 30098:1 30113:1 30130:1 30153:1 30159:1 30167:1 30173:1 30182:1 30195:1 30259:1 30264:1 30276:1 30285:1 30353:1 30354:1 30361:1 30373:1 30378:1 30390:1 30392:1 30420:1 30460:1 30464:1 30473:1 30482:1 30484:1 30501:1 30503:1 30527:1 30536:1 30539:1 30550:1 30552:1 30555:1 30558:1 30578:1 30582:1 30598:1 30617:1 30618:1 30627:1 30631:1 30635:1 30643:1 30648:1 30657:1 30680:1 30685:1 30689:1 30692:1 30721:1 30723:1 30731:1 30735:1 30744:1 30747:1 30760:1 30767:1 30769:1 30770:1 30791:1 30816:1 30819:1 30821:1 30852:1 30861:1 30887:1 30891:1 30914:1 30916:1 30918:1 30925:1 30938:1 30950:1 30956:1 30967:1 30999:1 31010:1 31020:1 31076:1 31079:1 31088:1 31090:1 31103:1 31108:1 31118:1 31119:1 31126:1 31127:1 31128:1 31132:1 31145:1 31149:1 31151:1 31154:1 31156:1 31160:1 31170:1 31173:1 31177:1 31180:1 31192:1 31195:1 31196:1 31202:1 31245:1 31247:1 31277:1 31280:1 31284:1 31286:1 31304:1 31306:1 31308:1 31330:1 31349:1 31353:1 31368:1 31404:1 31410:1 31420:1 31435:1 31440:1 31457:1 31488:1 31515:1 31542:1 31544:1 31547:1 31553:1 31555:1 31561:1 31565:1 31595:1 31596:1 31612:1 31630:1 31653:1 31670:1 31689:1 31694:1 31699:1 31733:1 31747:1 31751:1 31753:1 31754:1 31755:1 31773:1 31781:1 31808:1 31820:1 31831:1 31847:1 31872:1 31900:1 31906:1 31914:1 31928:1 31969:1 31986:1 31992:1 32004:1 32011:1 32023:1 32024:1 32037:1 32051:1 32052:1 32056:1 32081:1 32102:1 32110:1 32120:1 32127:1 32128:1 32134:1 32136:1 32147:1 32157:1 32165:1 32166:1 32195:1 32204:1 32209:1 32223:1 32225:1 32235:1 32245:1 32274:1 32310:1 32329:1 32332:1 32373:1 32380:1 32402:1 32412:1 32415:1 32434:1 32436:1 32449:1 32451:1 32463:1 32465:1 32467:1 32469:1 32481:1 32502:1 32524:1 32538:1 32539:1 32541:1 32579:1 32590:1 32593:1 32598:1 32638:1 32657:1 32658:1 32660:1 32661:1 32665:1 32667:1 32691:1 32699:1 32703:1 32707:1 32712:1 32781:1 32784:1 32815:1 32821:1 32823:1 32824:1 32829:1 32830:1 32836:1 32889:1 32890:1 32908:1 32912:1 32936:1 32939:1 32940:1 32946:1 32949:1 32956:1 32960:1 32964:1 32973:1 32974:1 32975:1 32977:1 32981:1 32987:1 32988:1 32991:1 32996:1 33016:1 33033:1 33059:1 33071:1 33074:1 33084:1 33088:1 33093:1 33112:1 33137:1 33140:1 33141:1 33206:1 33221:1 33226:1 33239:1 33267:1 33273:1 33276:1 33280:1 33283:1 33302:1 33314:1 33323:1 33332:1 33337:1 33355:1 33386:1 33403:1 33404:1 33414:1 33415:1 33417:1 33434:1 33447:1 33470:1 33471:1 33479:1 33483:1 33499:1 33517:1 33563:1 33567:1 33583:1 33586:1 33593:1 33598:1 33603:1 33614:1 33625:1 33642:1 33658:1 33669:1 33693:1 33711:1 33738:1 33748:1 33757:1 33760:1 33764:1 33788:1 33795:1 33796:1 33808:1 33819:1 33868:1 33872:1 33874:1 33909:1 33917:1 33919:1 33927:1 33930:1 33983:1 33999:1 34014:1 34026:1 34036:1 34042:1 34057:1 34079:1 34112:1 34136:1 34148:1 34175:1 34179:1 34182:1 34196:1 34223:1 34226:1 34240:1 34260:1 34262:1 34266:1 34275:1 34289:1 34324:1 34332:1 34351:1 34363:1 34372:1 34404:1 34411:1 34414:1 34422:1 34432:1 34448:1 34449:1 34467:1 34475:1 34481:1 34501:1 34503:1 34532:1 34544:1 34577:1 34589:1 34611:1 34614:1 34616:1 34626:1 34637:1 34638:1 34646:1 34678:1 34683:1 34715:1 34725:1 34731:1 34742:1 34776:1 34793:1 34797:1 34798:1 34812:1 34821:1 34825:1 34827:1 34834:1 34840:1 34847:1 34870:1 34876:1 34879:1 34889:1 34908:1 34911:1 34919:1 34920:1 34925:1 34946:1 34959:1 34963:1 34968:1 34979:1 35003:1 35012:1 35028:1 35045:1 35049:1 35051:1 35059:1 35064:1 35084:1 35098:1 35105:1 35112:1 35116:1 35123:1 35132:1 35134:1 35136:1 35140:1 35148:1 35155:1 35159:1 35183:1 35200:1 35228:1 35279:1 35280:1 35281:1 35293:1 35298:1 35325:1 35339:1 35343:1 35346:1 35358:1 35361:1 35373:1 35397:1 35501:1 35504:1 35507:1 35509:1 35515:1 35529:1 35548:1 35574:1 35582:1 35593:1 35597:1 35618:1 35627:1 35631:1 35639:1 35651:1 35664:1 35667:1 35687:1 35688:1 35690:1 35696:1 35698:1 35700:1 35711:1 35717:1 35739:1 35770:1 35783:1 35799:1 35807:1 35820:1 35845:1 35853:1 35855:1 35863:1 35908:1 35920:1 35931:1 #
-0.00086002670125905132485211179727003 1080:1 1374:1 1898:1 2080:1 2261:1 2630:1 2671:1 3048:1 3159:1 3164:1 3343:1 3831:1 3969:1 3997:1 4286:1 4319:1 4360:1 5694:1 6176:1 6452:1 6598:1 6686:1 6908:1 7082:1 7317:1 7488:1 8234:1 9850:1 10401:1 11279:1 12194:1 12325:1 12392:1 12672:1 13115:1 13207:1 13389:1 13419:1 14072:1 28767:1 28785:1 28806:1 28842:1 28848:1 28849:1 28881:1 28886:1 28919:1 28921:1 28935:1 28950:1 28958:1 28965:1 28975:1 28979:1 28992:1 29003:1 29008:1 29035:1 29036:1 29038:1 29057:1 29065:1 29091:1 29096:1 29116:1 29117:1 29124:1 29130:1 29199:1 29222:1 29228:1 29261:1 29266:1 29267:1 29271:1 29274:1 29295:1 29307:1 29314:1 29328:1 29385:1 29390:1 29418:1 29422:1 29426:1 29428:1 29433:1 29453:1 29491:1 29509:1 29547:1 29553:1 29558:1 29590:1 29601:1 29610:1 29613:1 29621:1 29631:1 29634:1 29635:1 29636:1 29637:1 29658:1 29662:1 29667:1 29672:1 29688:1 29703:1 29709:1 29715:1 29720:1 29771:1 29779:1 29794:1 29805:1 29808:1 29840:1 29851:1 29897:1 29904:1 29913:1 29917:1 29945:1 29951:1 29964:1 29976:1 29999:1 30020:1 30023:1 30037:1 30048:1 30056:1 30061:1 30062:1 30079:1 30148:1 30161:1 30173:1 30182:1 30195:1 30217:1 30224:1 30246:1 30247:1 30251:1 30293:1 30297:1 30311:1 30354:1 30363:1 30373:1 30378:1 30381:1 30390:1 30489:1 30494:1 30497:1 30503:1 30514:1 30520:1 30521:1 30582:1 30584:1 30618:1 30629:1 30635:1 30657:1 30668:1 30669:1 30685:1 30686:1 30692:1 30722:1 30731:1 30739:1 30747:1 30767:1 30769:1 30770:1 30789:1 30791:1 30816:1 30821:1 30827:1 30887:1 30894:1 30923:1 30950:1 30952:1 30954:1 30956:1 30977:1 30993:1 30995:1 31026:1 31068:1 31079:1 31088:1 31095:1 31118:1 31127:1 31128:1 31145:1 31160:1 31194:1 31196:1 31197:1 31199:1 31225:1 31228:1 31247:1 31272:1 31273:1 31286:1 31304:1 31319:1 31351:1 31356:1 31357:1 31392:1 31403:1 31435:1 31438:1 31445:1 31457:1 31460:1 31488:1 31501:1 31503:1 31512:1 31513:1 31547:1 31555:1 31561:1 31612:1 31653:1 31689:1 31691:1 31699:1 31704:1 31717:1 31720:1 31725:1 31739:1 31743:1 31751:1 31754:1 31755:1 31773:1 31820:1 31831:1 31842:1 31894:1 31900:1 31909:1 31914:1 31916:1 31962:1 31986:1 31993:1 31996:1 32020:1 32051:1 32052:1 32056:1 32071:1 32077:1 32110:1 32128:1 32135:1 32143:1 32147:1 32193:1 32207:1 32211:1 32212:1 32223:1 32225:1 32256:1 32274:1 32301:1 32310:1 32329:1 32330:1 32340:1 32352:1 32373:1 32378:1 32380:1 32385:1 32415:1 32426:1 32431:1 32444:1 32452:1 32465:1 32467:1 32483:1 32502:1 32520:1 32548:1 32550:1 32590:1 32605:1 32627:1 32632:1 32646:1 32657:1 32658:1 32661:1 32665:1 32667:1 32675:1 32690:1 32691:1 32707:1 32764:1 32765:1 32797:1 32815:1 32823:1 32829:1 32830:1 32878:1 32888:1 32901:1 32913:1 32917:1 32936:1 32937:1 32949:1 32956:1 32960:1 32965:1 32975:1 32977:1 32984:1 32988:1 32993:1 32996:1 33000:1 33017:1 33027:1 33059:1 33067:1 33068:1 33071:1 33106:1 33125:1 33127:1 33137:1 33138:1 33159:1 33183:1 33273:1 33287:1 33324:1 33355:1 33366:1 33374:1 33386:1 33393:1 33414:1 33443:1 33444:1 33448:1 33459:1 33490:1 33510:1 33517:1 33522:1 33525:1 33531:1 33537:1 33579:1 33584:1 33614:1 33643:1 33648:1 33658:1 33662:1 33669:1 33764:1 33778:1 33794:1 33805:1 33847:1 33856:1 33873:1 33917:1 33927:1 33945:1 33963:1 33975:1 34005:1 34014:1 34022:1 34030:1 34036:1 34042:1 34079:1 34084:1 34109:1 34112:1 34135:1 34136:1 34148:1 34159:1 34191:1 34211:1 34216:1 34234:1 34240:1 34256:1 34261:1 34262:1 34268:1 34289:1 34316:1 34322:1 34332:1 34349:1 34351:1 34354:1 34358:1 34380:1 34385:1 34388:1 34422:1 34449:1 34455:1 34475:1 34483:1 34485:1 34500:1 34501:1 34533:1 34602:1 34605:1 34614:1 34616:1 34617:1 34659:1 34669:1 34692:1 34696:1 34725:1 34735:1 34742:1 34758:1 34783:1 34809:1 34817:1 34832:1 34834:1 34840:1 34847:1 34849:1 34857:1 34860:1 34893:1 34917:1 34934:1 34938:1 34945:1 34958:1 34963:1 34974:1 34979:1 34990:1 35003:1 35012:1 35019:1 35045:1 35049:1 35051:1 35061:1 35064:1 35108:1 35112:1 35132:1 35137:1 35140:1 35148:1 35175:1 35186:1 35202:1 35218:1 35222:1 35228:1 35232:1 35235:1 35270:1 35280:1 35281:1 35282:1 35325:1 35339:1 35342:1 35343:1 35356:1 35358:1 35386:1 35394:1 35431:1 35477:1 35496:1 35515:1 35592:1 35593:1 35601:1 35612:1 35614:1 35639:1 35648:1 35663:1 35667:1 35689:1 35690:1 35696:1 35701:1 35711:1 35717:1 35718:1 35770:1 35785:1 35807:1 35808:1 35820:1 35833:1 35852:1 35853:1 35863:1 35864:1 35883:1 35887:1 35893:1 35900:1 35908:1 35917:1 35929:1 35931:1 35938:1 #
-0.0028244280096275799045446586177377 1638:1 1994:1 2834:1 3605:1 4208:1 5736:1 6403:1 10625:1 11342:1 11667:1 13509:1 28792:1 28794:1 28804:1 28818:1 28821:1 28963:1 28979:1 29008:1 29035:1 29066:1 29091:1 29096:1 29124:1 29199:1 29271:1 29278:1 29282:1 29306:1 29321:1 29324:1 29385:1 29418:1 29422:1 29433:1 29468:1 29547:1 29601:1 29610:1 29629:1 29632:1 29635:1 29636:1 29637:1 29658:1 29667:1 29711:1 29720:1 29835:1 29851:1 29855:1 29904:1 30023:1 30037:1 30179:1 30195:1 30227:1 30309:1 30373:1 30377:1 30464:1 30569:1 30582:1 30619:1 30685:1 30750:1 30860:1 30876:1 30887:1 30936:1 30954:1 30956:1 30987:1 30989:1 31060:1 31079:1 31088:1 31127:1 31170:1 31196:1 31222:1 31263:1 31273:1 31342:1 31457:1 31470:1 31512:1 31515:1 31516:1 31535:1 31547:1 31610:1 31747:1 31757:1 31768:1 31820:1 31950:1 31954:1 31961:1 31964:1 32100:1 32110:1 32223:1 32225:1 32373:1 32451:1 32465:1 32481:1 32508:1 32657:1 32658:1 32661:1 32665:1 32691:1 32699:1 32707:1 32721:1 32823:1 32889:1 32917:1 32925:1 32970:1 32974:1 32977:1 32988:1 32991:1 32994:1 33001:1 33026:1 33093:1 33112:1 33225:1 33273:1 33286:1 33305:1 33306:1 33314:1 33343:1 33468:1 33471:1 33483:1 33517:1 33521:1 33576:1 33613:1 33617:1 33619:1 33655:1 33662:1 33786:1 33927:1 33987:1 34014:1 34036:1 34042:1 34079:1 34112:1 34122:1 34131:1 34136:1 34184:1 34262:1 34270:1 34289:1 34295:1 34316:1 34322:1 34349:1 34359:1 34371:1 34380:1 34388:1 34455:1 34501:1 34592:1 34609:1 34614:1 34641:1 34762:1 34812:1 34821:1 34840:1 34847:1 34852:1 34881:1 34908:1 34963:1 34995:1 35012:1 35045:1 35049:1 35064:1 35112:1 35115:1 35135:1 35145:1 35161:1 35165:1 35183:1 35200:1 35270:1 35280:1 35281:1 35296:1 35324:1 35325:1 35358:1 35445:1 35513:1 35586:1 35593:1 35614:1 35696:1 35711:1 35714:1 35717:1 35827:1 35902:1 35929:1 #
-0.0013433887151341255758452142288206 46:1 416:1 697:1 1009:1 1202:1 1824:1 2126:1 2292:1 2388:1 2446:1 2465:1 2582:1 2666:1 2694:1 2699:1 2719:1 3448:1 3536:1 3567:1 3907:1 3913:1 3998:1 4236:1 4778:1 5129:1 5398:1 5435:1 5483:1 5499:1 5530:1 5906:1 5963:1 6113:1 6314:1 6480:1 6497:1 6508:1 6536:1 6549:1 6681:1 6708:1 6806:1 7033:1 7076:1 7350:1 7910:1 8041:1 8087:1 8250:1 8706:1 8843:1 9171:1 9260:1 9288:1 9676:1 10265:1 10683:1 10808:1 10872:1 11375:1 11613:1 12187:1 12459:1 12906:1 12966:1 13153:1 13310:1 13549:1 13747:1 13842:1 13913:1 14139:1 14262:1 28779:1 28794:1 28806:1 28848:1 28856:1 28897:1 28979:1 28981:1 29003:1 29007:1 29035:1 29036:1 29047:1 29057:1 29066:1 29087:1 29091:1 29096:1 29099:1 29104:1 29117:1 29119:1 29124:1 29153:1 29184:1 29186:1 29199:1 29208:1 29220:1 29239:1 29250:1 29261:1 29267:1 29269:1 29271:1 29274:1 29281:1 29314:1 29356:1 29385:1 29400:1 29416:1 29428:1 29430:1 29437:1 29439:1 29446:1 29468:1 29486:1 29509:1 29523:1 29546:1 29547:1 29548:1 29587:1 29593:1 29601:1 29610:1 29613:1 29621:1 29635:1 29636:1 29637:1 29666:1 29667:1 29692:1 29696:1 29715:1 29720:1 29724:1 29731:1 29779:1 29790:1 29794:1 29816:1 29851:1 29853:1 29897:1 29904:1 29926:1 29931:1 29946:1 29986:1 30023:1 30037:1 30040:1 30048:1 30062:1 30081:1 30088:1 30092:1 30161:1 30173:1 30190:1 30195:1 30214:1 30243:1 30258:1 30264:1 30285:1 30286:1 30293:1 30311:1 30331:1 30339:1 30346:1 30354:1 30363:1 30381:1 30421:1 30441:1 30473:1 30475:1 30476:1 30489:1 30503:1 30504:1 30531:1 30582:1 30587:1 30605:1 30618:1 30623:1 30624:1 30635:1 30642:1 30670:1 30671:1 30685:1 30692:1 30731:1 30732:1 30747:1 30753:1 30769:1 30770:1 30791:1 30798:1 30821:1 30830:1 30861:1 30887:1 30916:1 30948:1 30950:1 30953:1 30954:1 30956:1 30979:1 30988:1 31003:1 31017:1 31021:1 31036:1 31043:1 31048:1 31056:1 31076:1 31084:1 31103:1 31109:1 31117:1 31126:1 31127:1 31145:1 31170:1 31176:1 31196:1 31202:1 31242:1 31247:1 31261:1 31273:1 31301:1 31342:1 31355:1 31381:1 31383:1 31392:1 31403:1 31404:1 31435:1 31443:1 31445:1 31451:1 31457:1 31478:1 31487:1 31512:1 31516:1 31520:1 31544:1 31547:1 31561:1 31577:1 31584:1 31590:1 31603:1 31610:1 31619:1 31642:1 31675:1 31714:1 31725:1 31727:1 31739:1 31743:1 31754:1 31779:1 31780:1 31782:1 31788:1 31789:1 31820:1 31854:1 31894:1 31903:1 31923:1 31928:1 31949:1 31962:1 32007:1 32017:1 32038:1 32042:1 32081:1 32099:1 32110:1 32128:1 32138:1 32143:1 32180:1 32181:1 32196:1 32207:1 32210:1 32217:1 32223:1 32232:1 32253:1 32274:1 32296:1 32310:1 32316:1 32334:1 32373:1 32378:1 32380:1 32385:1 32411:1 32414:1 32417:1 32426:1 32431:1 32451:1 32463:1 32465:1 32480:1 32517:1 32527:1 32542:1 32590:1 32618:1 32657:1 32658:1 32661:1 32665:1 32666:1 32667:1 32668:1 32674:1 32690:1 32702:1 32707:1 32715:1 32731:1 32743:1 32754:1 32768:1 32769:1 32774:1 32777:1 32782:1 32805:1 32816:1 32823:1 32878:1 32903:1 32910:1 32913:1 32917:1 32932:1 32933:1 32936:1 32952:1 32953:1 32956:1 32970:1 32974:1 32975:1 32977:1 32988:1 33026:1 33030:1 33033:1 33047:1 33050:1 33059:1 33071:1 33074:1 33086:1 33099:1 33100:1 33120:1 33132:1 33137:1 33144:1 33150:1 33153:1 33156:1 33160:1 33171:1 33183:1 33206:1 33239:1 33261:1 33271:1 33273:1 33287:1 33313:1 33328:1 33331:1 33338:1 33341:1 33355:1 33357:1 33363:1 33375:1 33386:1 33391:1 33413:1 33414:1 33417:1 33429:1 33457:1 33468:1 33479:1 33483:1 33490:1 33495:1 33517:1 33552:1 33559:1 33579:1 33583:1 33599:1 33601:1 33607:1 33625:1 33635:1 33658:1 33662:1 33666:1 33704:1 33711:1 33778:1 33806:1 33843:1 33859:1 33920:1 33927:1 33935:1 33963:1 33990:1 33998:1 34014:1 34036:1 34042:1 34057:1 34079:1 34080:1 34095:1 34112:1 34122:1 34130:1 34134:1 34136:1 34150:1 34153:1 34157:1 34191:1 34225:1 34240:1 34241:1 34262:1 34268:1 34271:1 34275:1 34289:1 34307:1 34348:1 34349:1 34351:1 34367:1 34388:1 34404:1 34426:1 34461:1 34473:1 34475:1 34480:1 34482:1 34493:1 34496:1 34595:1 34614:1 34616:1 34622:1 34642:1 34663:1 34742:1 34758:1 34762:1 34772:1 34798:1 34804:1 34821:1 34822:1 34825:1 34830:1 34840:1 34847:1 34853:1 34860:1 34876:1 34884:1 34944:1 34955:1 34956:1 34963:1 34979:1 34990:1 35012:1 35013:1 35045:1 35049:1 35050:1 35051:1 35084:1 35109:1 35111:1 35112:1 35118:1 35128:1 35136:1 35148:1 35181:1 35183:1 35190:1 35199:1 35200:1 35228:1 35270:1 35281:1 35282:1 35296:1 35325:1 35338:1 35339:1 35343:1 35352:1 35354:1 35358:1 35372:1 35387:1 35501:1 35524:1 35529:1 35543:1 35554:1 35582:1 35584:1 35593:1 35605:1 35614:1 35620:1 35627:1 35634:1 35639:1 35651:1 35653:1 35667:1 35687:1 35690:1 35711:1 35717:1 35719:1 35753:1 35770:1 35788:1 35807:1 35820:1 35853:1 35856:1 35863:1 35867:1 35893:1 35897:1 35908:1 35929:1 35934:1 #
0.0032295127765102301688193708884 1613:1 2118:1 3673:1 4220:1 5019:1 10954:1 11782:1 12242:1 28956:1 29035:1 29057:1 29060:1 29271:1 29388:1 29548:1 29610:1 29637:1 29648:1 29689:1 29813:1 29904:1 29930:1 30049:1 30061:1 30195:1 30412:1 30494:1 30690:1 30767:1 30860:1 30887:1 31090:1 31160:1 31195:1 31196:1 31262:1 31457:1 31547:1 31561:1 31593:1 31751:1 31974:1 32373:1 32378:1 32380:1 32443:1 32465:1 32475:1 32627:1 32657:1 32658:1 32661:1 33033:1 33268:1 33366:1 33469:1 33893:1 34079:1 34120:1 34404:1 34478:1 34840:1 34847:1 34852:1 35049:1 35051:1 35112:1 35281:1 35339:1 35593:1 35639:1 35675:1 35682:1 35687:1 35748:1 35899:1 35904:1 35929:1 #
0.0032295127765102301688193708884 4181:1 6176:1 6767:1 7699:1 10345:1 28806:1 28808:1 28979:1 29003:1 29035:1 29038:1 29117:1 29124:1 29147:1 29199:1 29271:1 29274:1 29286:1 29314:1 29385:1 29422:1 29610:1 29635:1 29636:1 29667:1 29720:1 29791:1 29851:1 29999:1 30093:1 30192:1 30195:1 30374:1 30403:1 30657:1 30682:1 30710:1 30816:1 30887:1 31127:1 31170:1 31196:1 31304:1 31547:1 31618:1 31719:1 31754:1 31820:1 31859:1 31923:1 32009:1 32110:1 32223:1 32229:1 32371:1 32417:1 32465:1 32541:1 32657:1 32658:1 32661:1 32665:1 32857:1 32973:1 33273:1 33457:1 33577:1 33636:1 33781:1 33999:1 34042:1 34295:1 34331:1 34332:1 34388:1 34676:1 34758:1 34840:1 34892:1 35049:1 35200:1 35282:1 35339:1 35350:1 35358:1 35386:1 35423:1 35717:1 35833:1 35852:1 35904:1 #
0.0032295127765102301688193708884 1423:1 1824:1 5963:1 7680:1 9116:1 9811:1 11347:1 13620:1 14044:1 28848:1 28979:1 28982:1 29003:1 29035:1 29038:1 29039:1 29070:1 29096:1 29124:1 29271:1 29344:1 29385:1 29486:1 29499:1 29601:1 29610:1 29636:1 29667:1 29720:1 29732:1 29799:1 29875:1 29913:1 30112:1 30195:1 30494:1 30516:1 30623:1 30652:1 30657:1 30750:1 30769:1 30821:1 30887:1 30896:1 31118:1 31196:1 31304:1 31342:1 31355:1 31497:1 31501:1 31531:1 31547:1 31616:1 31699:1 31714:1 31725:1 31749:1 31779:1 31858:1 31969:1 32031:1 32052:1 32111:1 32128:1 32288:1 32334:1 32345:1 32463:1 32465:1 32657:1 32661:1 32691:1 32815:1 32895:1 33016:1 33081:1 33331:1 33469:1 33687:1 33893:1 34112:1 34332:1 34422:1 34544:1 34628:1 34762:1 34802:1 34840:1 34934:1 35006:1 35045:1 35049:1 35132:1 35262:1 35280:1 35339:1 35467:1 35694:1 35717:1 35773:1 35818:1 35902:1 35929:1 #
0.0032295127765102301688193708884 839:1 4107:1 5671:1 6118:1 9027:1 9700:1 10276:1 11072:1 11507:1 12905:1 12925:1 13153:1 28764:1 28770:1 28792:1 29035:1 29135:1 29271:1 29314:1 29319:1 29368:1 29397:1 29438:1 29491:1 29546:1 29558:1 29590:1 29610:1 29636:1 29637:1 29667:1 29704:1 29709:1 29720:1 29756:1 29783:1 29851:1 29949:1 29983:1 30098:1 30161:1 30475:1 30557:1 30590:1 30645:1 30674:1 30680:1 30682:1 30739:1 30821:1 30854:1 30860:1 30887:1 30935:1 30989:1 31054:1 31099:1 31118:1 31127:1 31132:1 31231:1 31345:1 31384:1 31435:1 31457:1 31500:1 31520:1 31547:1 31754:1 31757:1 31766:1 31820:1 31948:1 31968:1 31992:1 32077:1 32110:1 32130:1 32163:1 32225:1 32274:1 32332:1 32378:1 32385:1 32410:1 32465:1 32657:1 32661:1 32834:1 32836:1 32862:1 32984:1 33068:1 33071:1 33123:1 33171:1 33244:1 33365:1 33383:1 33386:1 33662:1 33705:1 33713:1 33784:1 33859:1 33976:1 34014:1 34042:1 34049:1 34086:1 34136:1 34280:1 34289:1 34351:1 34389:1 34432:1 34496:1 34534:1 34715:1 34827:1 34840:1 34848:1 34935:1 34963:1 35049:1 35115:1 35123:1 35208:1 35214:1 35229:1 35244:1 35277:1 35281:1 35339:1 35352:1 35358:1 35412:1 35538:1 35594:1 35612:1 35620:1 35852:1 #
0.0032295127765102301688193708884 75:1 2753:1 3807:1 4127:1 4608:1 4864:1 6569:1 6883:1 8539:1 9522:1 11838:1 12806:1 12834:1 12847:1 13039:1 28842:1 28891:1 29018:1 29035:1 29038:1 29096:1 29124:1 29157:1 29184:1 29186:1 29264:1 29271:1 29295:1 29361:1 29369:1 29418:1 29486:1 29610:1 29635:1 29636:1 29637:1 29660:1 29667:1 29779:1 29835:1 30023:1 30114:1 30123:1 30173:1 30247:1 30273:1 30504:1 30598:1 30600:1 30657:1 30682:1 30692:1 30721:1 30724:1 30747:1 30791:1 30875:1 30887:1 30950:1 30956:1 31098:1 31196:1 31202:1 31245:1 31435:1 31443:1 31547:1 31618:1 31654:1 31686:1 31719:1 31782:1 31794:1 31911:1 31924:1 31982:1 32110:1 32217:1 32225:1 32248:1 32340:1 32367:1 32373:1 32408:1 32449:1 32465:1 32480:1 32561:1 32599:1 32638:1 32657:1 32658:1 32661:1 32790:1 32889:1 32918:1 33033:1 33107:1 33111:1 33209:1 33273:1 33413:1 33427:1 33525:1 33613:1 33798:1 34026:1 34042:1 34079:1 34109:1 34136:1 34324:1 34351:1 34357:1 34388:1 34464:1 34526:1 34616:1 34758:1 34812:1 34821:1 34834:1 34840:1 34890:1 34946:1 35044:1 35045:1 35049:1 35109:1 35168:1 35280:1 35281:1 35282:1 35339:1 35354:1 35358:1 35473:1 35616:1 35690:1 35711:1 35717:1 35766:1 35770:1 35836:1 35873:1 35893:1 #
