SVM-light Version V6.02
0 # kernel type
3 # kernel parameter -d 
1 # kernel parameter -g 
1 # kernel parameter -s 
1 # kernel parameter -r 
empty# kernel parameter -u 
35715 # highest feature index 
1800 # number of training documents 
1364 # number of support vectors plus 1 
-0.066046209 # threshold b, each following line is a SV (starting with alpha*y)
-0.0032389406439973299038637133406837 305:1 519:1 1238:1 2422:1 3217:1 3284:1 5636:1 6198:1 7645:1 10566:1 11409:1 11514:1 12237:1 12299:1 13682:1 14182:1 28608:1 28613:1 28624:1 28633:1 28636:1 28657:1 28663:1 28664:1 28666:1 28671:1 28699:1 28747:1 28778:1 28790:1 28831:1 28849:1 28852:1 28876:1 28888:1 28907:1 28934:1 28935:1 29011:1 29029:1 29054:1 29076:1 29079:1 29109:1 29117:1 29123:1 29184:1 29191:1 29196:1 29213:1 29217:1 29239:1 29240:1 29253:1 29358:1 29380:1 29395:1 29405:1 29430:1 29431:1 29464:1 29518:1 29519:1 29540:1 29572:1 29586:1 29597:1 29604:1 29618:1 29643:1 29689:1 29696:1 29719:1 29732:1 29753:1 29815:1 29829:1 29838:1 29846:1 29851:1 29852:1 29868:1 29874:1 29892:1 29903:1 29919:1 29957:1 29977:1 30009:1 30023:1 30150:1 30157:1 30186:1 30232:1 30238:1 30251:1 30258:1 30277:1 30338:1 30372:1 30391:1 30429:1 30451:1 30454:1 30457:1 30461:1 30464:1 30498:1 30521:1 30538:1 30543:1 30563:1 30587:1 30592:1 30611:1 30658:1 30691:1 30693:1 30719:1 30722:1 30747:1 30750:1 30771:1 30833:1 30844:1 30856:1 30890:1 30900:1 30901:1 30920:1 30934:1 30970:1 30989:1 31023:1 31049:1 31079:1 31181:1 31187:1 31197:1 31214:1 31225:1 31238:1 31239:1 31298:1 31329:1 31344:1 31381:1 31397:1 31398:1 31405:1 31465:1 31470:1 31501:1 31502:1 31509:1 31528:1 31531:1 31557:1 31565:1 31583:1 31675:1 31679:1 31799:1 31825:1 31827:1 31850:1 31884:1 31894:1 31914:1 31920:1 31922:1 31931:1 31960:1 31979:1 31992:1 31994:1 32025:1 32042:1 32077:1 32118:1 32144:1 32149:1 32151:1 32200:1 32203:1 32220:1 32230:1 32232:1 32250:1 32264:1 32271:1 32310:1 32314:1 32340:1 32344:1 32358:1 32366:1 32378:1 32408:1 32426:1 32427:1 32430:1 32436:1 32460:1 32477:1 32488:1 32499:1 32502:1 32524:1 32553:1 32559:1 32577:1 32594:1 32600:1 32602:1 32660:1 32682:1 32711:1 32758:1 32775:1 32812:1 32841:1 32924:1 32930:1 32940:1 32959:1 32979:1 33043:1 33046:1 33049:1 33086:1 33097:1 33104:1 33130:1 33161:1 33168:1 33177:1 33186:1 33197:1 33202:1 33223:1 33224:1 33264:1 33290:1 33305:1 33315:1 33354:1 33358:1 33361:1 33369:1 33409:1 33436:1 33440:1 33448:1 33470:1 33539:1 33547:1 33552:1 33565:1 33587:1 33617:1 33627:1 33713:1 33716:1 33723:1 33747:1 33799:1 33815:1 33827:1 33861:1 33890:1 33893:1 33913:1 33918:1 33930:1 33971:1 33988:1 33992:1 34004:1 34019:1 34041:1 34054:1 34064:1 34066:1 34068:1 34099:1 34120:1 34130:1 34139:1 34161:1 34184:1 34202:1 34205:1 34237:1 34255:1 34284:1 34369:1 34394:1 34396:1 34437:1 34461:1 34462:1 34472:1 34583:1 34612:1 34630:1 34680:1 34690:1 34738:1 34739:1 34754:1 34788:1 34821:1 34824:1 34825:1 34828:1 34841:1 34890:1 34924:1 34981:1 34994:1 35002:1 35056:1 35072:1 35114:1 35119:1 35136:1 35200:1 35216:1 35285:1 35295:1 35369:1 35370:1 35444:1 35462:1 35485:1 35490:1 35561:1 35589:1 35624:1 35634:1 35665:1 #
-0.0032389406439973299038637133406837 426:1 480:1 2193:1 7097:1 10241:1 11974:1 14182:1 28586:1 28608:1 28724:1 28849:1 28850:1 28859:1 28886:1 28907:1 28934:1 28943:1 28969:1 29007:1 29117:1 29124:1 29237:1 29253:1 29352:1 29374:1 29395:1 29396:1 29405:1 29464:1 29507:1 29518:1 29597:1 29648:1 29696:1 29753:1 29817:1 29829:1 29866:1 29871:1 29933:1 29977:1 30008:1 30410:1 30464:1 30505:1 30518:1 30543:1 30563:1 30592:1 30658:1 30719:1 30724:1 30762:1 30779:1 30890:1 30970:1 31061:1 31079:1 31091:1 31126:1 31181:1 31187:1 31214:1 31238:1 31329:1 31350:1 31412:1 31465:1 31470:1 31510:1 31516:1 31518:1 31595:1 31624:1 31633:1 31637:1 31656:1 31749:1 31819:1 31884:1 31976:1 31994:1 32015:1 32098:1 32142:1 32144:1 32232:1 32233:1 32385:1 32426:1 32427:1 32430:1 32434:1 32460:1 32607:1 32671:1 32743:1 32758:1 32773:1 32828:1 32841:1 32866:1 32919:1 33030:1 33184:1 33231:1 33361:1 33436:1 33448:1 33558:1 33791:1 33799:1 33827:1 33861:1 33923:1 33979:1 34068:1 34099:1 34139:1 34329:1 34369:1 34394:1 34396:1 34441:1 34444:1 34530:1 34569:1 34612:1 34662:1 34680:1 34739:1 34781:1 34821:1 34825:1 34841:1 34890:1 34929:1 34994:1 35055:1 35056:1 35115:1 35136:1 35370:1 35374:1 35444:1 35491:1 35517:1 35558:1 35624:1 35684:1 #
-0.0005856090896189831973561723543753 128:1 779:1 1204:1 2177:1 2917:1 4800:1 6667:1 6817:1 7232:1 9688:1 9938:1 10519:1 12548:1 12629:1 13974:1 28588:1 28633:1 28669:1 28737:1 28738:1 28793:1 28817:1 28849:1 28850:1 28867:1 28876:1 28934:1 28945:1 28978:1 28981:1 29007:1 29046:1 29076:1 29079:1 29082:1 29117:1 29124:1 29134:1 29184:1 29280:1 29298:1 29342:1 29346:1 29348:1 29401:1 29405:1 29430:1 29431:1 29432:1 29464:1 29518:1 29542:1 29553:1 29597:1 29653:1 29696:1 29815:1 29829:1 29833:1 29834:1 29851:1 29852:1 29869:1 29897:1 29919:1 29944:1 29977:1 30106:1 30133:1 30138:1 30167:1 30275:1 30276:1 30277:1 30279:1 30351:1 30355:1 30362:1 30391:1 30398:1 30429:1 30454:1 30458:1 30464:1 30520:1 30563:1 30599:1 30646:1 30658:1 30682:1 30722:1 30743:1 30776:1 30821:1 30846:1 30848:1 30876:1 30899:1 30900:1 30930:1 30934:1 30944:1 30970:1 30976:1 31023:1 31050:1 31052:1 31061:1 31079:1 31129:1 31214:1 31329:1 31398:1 31448:1 31500:1 31502:1 31512:1 31520:1 31540:1 31564:1 31597:1 31622:1 31675:1 31686:1 31697:1 31698:1 31737:1 31765:1 31768:1 31805:1 31881:1 31884:1 31929:1 31992:1 32020:1 32042:1 32124:1 32137:1 32142:1 32144:1 32162:1 32177:1 32200:1 32220:1 32232:1 32261:1 32299:1 32313:1 32314:1 32317:1 32397:1 32426:1 32427:1 32430:1 32434:1 32436:1 32481:1 32636:1 32664:1 32684:1 32689:1 32697:1 32702:1 32743:1 32746:1 32755:1 32803:1 32821:1 32827:1 32829:1 32864:1 32886:1 32930:1 32971:1 32979:1 33025:1 33046:1 33074:1 33130:1 33141:1 33187:1 33199:1 33222:1 33231:1 33290:1 33294:1 33313:1 33358:1 33399:1 33466:1 33484:1 33501:1 33628:1 33697:1 33701:1 33713:1 33749:1 33827:1 33852:1 33861:1 33874:1 33918:1 33930:1 33962:1 33965:1 33971:1 34019:1 34041:1 34054:1 34112:1 34115:1 34116:1 34130:1 34194:1 34202:1 34205:1 34235:1 34255:1 34256:1 34284:1 34315:1 34331:1 34336:1 34368:1 34396:1 34437:1 34444:1 34504:1 34530:1 34542:1 34555:1 34606:1 34612:1 34620:1 34649:1 34732:1 34734:1 34773:1 34786:1 34809:1 34821:1 34825:1 34828:1 34890:1 34917:1 34946:1 34994:1 35008:1 35099:1 35113:1 35136:1 35241:1 35292:1 35370:1 35399:1 35404:1 35444:1 35462:1 35465:1 35485:1 35490:1 35588:1 35591:1 35624:1 35634:1 #
-0.0027100926350581231588643404961658 402:1 2600:1 2702:1 3948:1 4138:1 5013:1 5237:1 5496:1 5512:1 6355:1 6847:1 8086:1 8584:1 9014:1 9872:1 10560:1 11557:1 13571:1 28594:1 28608:1 28620:1 28745:1 28778:1 28806:1 28817:1 28822:1 28833:1 28849:1 28850:1 28902:1 28907:1 28931:1 28934:1 28936:1 28968:1 28998:1 29007:1 29074:1 29076:1 29117:1 29139:1 29184:1 29226:1 29264:1 29347:1 29352:1 29353:1 29388:1 29391:1 29395:1 29401:1 29404:1 29405:1 29430:1 29431:1 29432:1 29441:1 29464:1 29526:1 29531:1 29572:1 29586:1 29689:1 29744:1 29766:1 29777:1 29796:1 29815:1 29851:1 29868:1 29909:1 29915:1 29974:1 29977:1 29999:1 30007:1 30010:1 30030:1 30055:1 30134:1 30138:1 30247:1 30268:1 30332:1 30351:1 30355:1 30382:1 30417:1 30454:1 30458:1 30461:1 30464:1 30473:1 30504:1 30521:1 30561:1 30575:1 30592:1 30631:1 30645:1 30658:1 30660:1 30722:1 30724:1 30747:1 30770:1 30774:1 30835:1 30848:1 30919:1 30934:1 30950:1 30966:1 30970:1 30976:1 31005:1 31023:1 31214:1 31238:1 31246:1 31329:1 31336:1 31389:1 31465:1 31497:1 31500:1 31635:1 31641:1 31721:1 31737:1 31748:1 31776:1 31839:1 31854:1 31884:1 31902:1 31939:1 31987:1 31992:1 32022:1 32042:1 32043:1 32083:1 32090:1 32092:1 32144:1 32151:1 32220:1 32232:1 32248:1 32328:1 32347:1 32375:1 32426:1 32427:1 32430:1 32432:1 32434:1 32460:1 32502:1 32506:1 32603:1 32605:1 32646:1 32675:1 32707:1 32743:1 32746:1 32753:1 32797:1 32844:1 32849:1 32863:1 32864:1 32907:1 32908:1 32912:1 32930:1 33046:1 33079:1 33095:1 33137:1 33140:1 33142:1 33143:1 33183:1 33187:1 33190:1 33257:1 33290:1 33305:1 33339:1 33392:1 33395:1 33436:1 33484:1 33542:1 33565:1 33569:1 33572:1 33618:1 33661:1 33729:1 33751:1 33799:1 33827:1 33861:1 33918:1 33928:1 33995:1 34000:1 34034:1 34041:1 34047:1 34054:1 34091:1 34130:1 34165:1 34169:1 34261:1 34284:1 34322:1 34394:1 34396:1 34400:1 34455:1 34474:1 34504:1 34576:1 34583:1 34592:1 34612:1 34620:1 34625:1 34671:1 34686:1 34729:1 34734:1 34739:1 34760:1 34763:1 34792:1 34821:1 34825:1 34837:1 34890:1 34893:1 34896:1 34994:1 35004:1 35055:1 35056:1 35071:1 35099:1 35136:1 35236:1 35336:1 35370:1 35374:1 35391:1 35465:1 35485:1 35490:1 35527:1 35559:1 35572:1 35580:1 35591:1 35630:1 35641:1 35655:1 35698:1 35711:1 #
-0.0032389406439973299038637133406837 305:1 795:1 1636:1 3096:1 3197:1 5816:1 6601:1 7085:1 8392:1 8954:1 9786:1 9854:1 11223:1 11579:1 13431:1 13491:1 28608:1 28640:1 28653:1 28694:1 28767:1 28773:1 28793:1 28823:1 28831:1 28849:1 28850:1 28868:1 28869:1 28877:1 28899:1 28902:1 28907:1 28926:1 28934:1 28951:1 28976:1 28992:1 29007:1 29033:1 29065:1 29076:1 29079:1 29087:1 29117:1 29124:1 29135:1 29169:1 29184:1 29269:1 29280:1 29287:1 29346:1 29352:1 29381:1 29386:1 29395:1 29400:1 29405:1 29408:1 29430:1 29431:1 29432:1 29435:1 29464:1 29468:1 29475:1 29487:1 29518:1 29520:1 29538:1 29551:1 29586:1 29591:1 29597:1 29609:1 29618:1 29643:1 29689:1 29692:1 29696:1 29709:1 29815:1 29838:1 29839:1 29919:1 29977:1 30009:1 30026:1 30110:1 30133:1 30138:1 30148:1 30150:1 30156:1 30235:1 30263:1 30274:1 30277:1 30338:1 30342:1 30387:1 30391:1 30420:1 30429:1 30457:1 30458:1 30498:1 30505:1 30509:1 30517:1 30521:1 30543:1 30560:1 30563:1 30592:1 30603:1 30613:1 30640:1 30658:1 30667:1 30696:1 30719:1 30722:1 30724:1 30741:1 30751:1 30767:1 30779:1 30784:1 30791:1 30821:1 30846:1 30847:1 30866:1 30873:1 30875:1 30890:1 30900:1 30925:1 30942:1 30969:1 30970:1 30976:1 31012:1 31021:1 31023:1 31031:1 31050:1 31079:1 31082:1 31090:1 31104:1 31161:1 31189:1 31246:1 31266:1 31270:1 31277:1 31294:1 31304:1 31317:1 31326:1 31329:1 31330:1 31344:1 31389:1 31421:1 31454:1 31491:1 31493:1 31495:1 31501:1 31502:1 31524:1 31531:1 31566:1 31595:1 31627:1 31660:1 31666:1 31676:1 31703:1 31720:1 31768:1 31780:1 31787:1 31795:1 31805:1 31819:1 31856:1 31884:1 31897:1 31900:1 31902:1 31912:1 31989:1 32035:1 32042:1 32055:1 32066:1 32077:1 32093:1 32098:1 32144:1 32157:1 32184:1 32200:1 32230:1 32232:1 32271:1 32292:1 32296:1 32312:1 32317:1 32353:1 32358:1 32362:1 32409:1 32426:1 32427:1 32430:1 32434:1 32437:1 32459:1 32460:1 32471:1 32501:1 32502:1 32504:1 32528:1 32581:1 32593:1 32627:1 32653:1 32679:1 32684:1 32728:1 32739:1 32745:1 32864:1 32979:1 32980:1 33017:1 33046:1 33130:1 33142:1 33162:1 33220:1 33264:1 33272:1 33361:1 33436:1 33440:1 33442:1 33457:1 33520:1 33534:1 33601:1 33713:1 33768:1 33771:1 33799:1 33827:1 33841:1 33861:1 33866:1 33893:1 33918:1 33938:1 34047:1 34068:1 34130:1 34136:1 34138:1 34169:1 34212:1 34235:1 34255:1 34256:1 34279:1 34295:1 34358:1 34394:1 34396:1 34405:1 34418:1 34508:1 34530:1 34542:1 34555:1 34570:1 34589:1 34607:1 34609:1 34612:1 34617:1 34633:1 34695:1 34714:1 34734:1 34739:1 34748:1 34788:1 34794:1 34804:1 34807:1 34821:1 34825:1 34828:1 34890:1 34935:1 34955:1 34976:1 34981:1 35008:1 35055:1 35056:1 35114:1 35132:1 35136:1 35175:1 35219:1 35233:1 35235:1 35281:1 35300:1 35315:1 35370:1 35391:1 35443:1 35444:1 35445:1 35465:1 35470:1 35485:1 35490:1 35497:1 35512:1 35515:1 35535:1 35543:1 35624:1 35634:1 35635:1 35644:1 35653:1 35693:1 35695:1 35698:1 35701:1 #
0.0032389406439973299038637133406837 53:1 146:1 181:1 399:1 512:1 1511:1 1636:1 1677:1 2165:1 2711:1 2886:1 4211:1 5808:1 6613:1 7034:1 7053:1 7120:1 7216:1 7349:1 7642:1 7702:1 7843:1 9886:1 10448:1 11742:1 12243:1 12597:1 13016:1 13134:1 13345:1 13521:1 13579:1 14153:1 28608:1 28613:1 28626:1 28633:1 28636:1 28663:1 28689:1 28703:1 28764:1 28780:1 28793:1 28823:1 28838:1 28847:1 28849:1 28850:1 28893:1 28902:1 28907:1 28914:1 28920:1 28929:1 28934:1 29007:1 29065:1 29076:1 29079:1 29087:1 29109:1 29117:1 29124:1 29145:1 29184:1 29191:1 29219:1 29221:1 29223:1 29235:1 29269:1 29292:1 29295:1 29355:1 29358:1 29395:1 29405:1 29408:1 29422:1 29430:1 29431:1 29432:1 29444:1 29455:1 29464:1 29471:1 29485:1 29518:1 29526:1 29540:1 29572:1 29597:1 29685:1 29689:1 29709:1 29733:1 29737:1 29754:1 29772:1 29815:1 29829:1 29838:1 29851:1 29883:1 29921:1 29939:1 29977:1 30048:1 30067:1 30091:1 30098:1 30233:1 30237:1 30315:1 30317:1 30335:1 30355:1 30392:1 30404:1 30429:1 30454:1 30464:1 30479:1 30500:1 30505:1 30506:1 30516:1 30521:1 30563:1 30626:1 30658:1 30696:1 30714:1 30724:1 30727:1 30740:1 30758:1 30776:1 30791:1 30845:1 30846:1 30848:1 30899:1 30900:1 30901:1 30927:1 30946:1 30970:1 31012:1 31053:1 31088:1 31092:1 31151:1 31166:1 31214:1 31238:1 31254:1 31270:1 31277:1 31307:1 31325:1 31326:1 31329:1 31342:1 31344:1 31363:1 31421:1 31492:1 31502:1 31523:1 31528:1 31637:1 31643:1 31645:1 31675:1 31685:1 31687:1 31688:1 31768:1 31799:1 31805:1 31884:1 31885:1 31902:1 31915:1 31929:1 31959:1 31992:1 31994:1 32037:1 32042:1 32061:1 32077:1 32098:1 32144:1 32149:1 32187:1 32220:1 32230:1 32232:1 32234:1 32261:1 32262:1 32264:1 32277:1 32340:1 32358:1 32368:1 32375:1 32404:1 32421:1 32426:1 32427:1 32428:1 32430:1 32434:1 32436:1 32438:1 32488:1 32507:1 32536:1 32594:1 32600:1 32606:1 32664:1 32681:1 32693:1 32707:1 32714:1 32729:1 32742:1 32743:1 32744:1 32746:1 32750:1 32753:1 32758:1 32761:1 32804:1 32822:1 32837:1 32841:1 32844:1 32864:1 32870:1 32900:1 32985:1 33006:1 33034:1 33046:1 33068:1 33162:1 33166:1 33179:1 33187:1 33190:1 33207:1 33210:1 33231:1 33234:1 33266:1 33288:1 33305:1 33308:1 33347:1 33354:1 33369:1 33386:1 33389:1 33415:1 33436:1 33448:1 33494:1 33570:1 33576:1 33617:1 33713:1 33749:1 33799:1 33807:1 33816:1 33821:1 33825:1 33827:1 33861:1 33862:1 33893:1 33912:1 33918:1 33938:1 33972:1 33979:1 33986:1 33988:1 34019:1 34047:1 34068:1 34070:1 34111:1 34115:1 34127:1 34144:1 34160:1 34161:1 34169:1 34173:1 34202:1 34235:1 34255:1 34268:1 34281:1 34302:1 34308:1 34370:1 34394:1 34396:1 34397:1 34440:1 34528:1 34563:1 34570:1 34599:1 34609:1 34612:1 34621:1 34650:1 34706:1 34729:1 34739:1 34775:1 34778:1 34784:1 34788:1 34821:1 34825:1 34828:1 34838:1 34862:1 34878:1 34884:1 34887:1 34890:1 34911:1 34929:1 34946:1 34994:1 35004:1 35056:1 35091:1 35099:1 35119:1 35123:1 35131:1 35136:1 35168:1 35248:1 35281:1 35288:1 35309:1 35370:1 35418:1 35464:1 35465:1 35490:1 35507:1 35515:1 35516:1 35546:1 35547:1 35580:1 35599:1 35612:1 35619:1 35627:1 35634:1 35658:1 35678:1 35680:1 35698:1 35715:1 #
0.0032389406439973299038637133406837 1314:1 2147:1 3344:1 3902:1 3957:1 4810:1 5682:1 6355:1 6586:1 6905:1 7761:1 8593:1 9078:1 9555:1 9688:1 9979:1 10380:1 10445:1 10894:1 11111:1 11209:1 11251:1 11939:1 11950:1 12118:1 12263:1 13257:1 13338:1 28602:1 28608:1 28653:1 28663:1 28774:1 28793:1 28849:1 28852:1 28902:1 28907:1 28926:1 28934:1 28943:1 28953:1 28994:1 29010:1 29047:1 29056:1 29068:1 29079:1 29099:1 29109:1 29117:1 29184:1 29239:1 29253:1 29287:1 29292:1 29316:1 29342:1 29355:1 29395:1 29405:1 29420:1 29430:1 29431:1 29432:1 29464:1 29495:1 29518:1 29532:1 29547:1 29572:1 29627:1 29645:1 29696:1 29709:1 29815:1 29838:1 29851:1 29867:1 29869:1 29884:1 29915:1 29949:1 29957:1 29974:1 29977:1 29999:1 30092:1 30138:1 30150:1 30167:1 30225:1 30233:1 30238:1 30249:1 30277:1 30283:1 30391:1 30393:1 30400:1 30457:1 30464:1 30476:1 30543:1 30646:1 30658:1 30670:1 30707:1 30722:1 30724:1 30731:1 30819:1 30838:1 30877:1 30900:1 30901:1 30919:1 30927:1 30954:1 30964:1 30970:1 31050:1 31061:1 31133:1 31165:1 31188:1 31214:1 31225:1 31280:1 31294:1 31296:1 31297:1 31329:1 31336:1 31358:1 31389:1 31447:1 31462:1 31476:1 31481:1 31496:1 31497:1 31501:1 31502:1 31721:1 31737:1 31817:1 31819:1 31884:1 31903:1 31959:1 31992:1 31994:1 32016:1 32035:1 32042:1 32059:1 32077:1 32107:1 32142:1 32144:1 32171:1 32187:1 32193:1 32218:1 32227:1 32230:1 32231:1 32232:1 32248:1 32262:1 32266:1 32271:1 32313:1 32321:1 32331:1 32358:1 32362:1 32375:1 32416:1 32426:1 32427:1 32430:1 32456:1 32471:1 32477:1 32479:1 32594:1 32600:1 32610:1 32612:1 32655:1 32680:1 32704:1 32735:1 32743:1 32750:1 32758:1 32786:1 32819:1 32844:1 32864:1 32868:1 32878:1 32897:1 32924:1 32931:1 32951:1 32995:1 33046:1 33092:1 33130:1 33177:1 33186:1 33187:1 33242:1 33249:1 33290:1 33292:1 33299:1 33321:1 33331:1 33355:1 33387:1 33389:1 33391:1 33501:1 33675:1 33713:1 33729:1 33799:1 33827:1 33854:1 33861:1 33862:1 33918:1 33971:1 33976:1 34004:1 34040:1 34041:1 34068:1 34073:1 34086:1 34148:1 34255:1 34279:1 34302:1 34345:1 34363:1 34380:1 34381:1 34394:1 34396:1 34418:1 34530:1 34535:1 34580:1 34612:1 34620:1 34628:1 34739:1 34750:1 34788:1 34821:1 34825:1 34841:1 34890:1 34924:1 35008:1 35020:1 35055:1 35056:1 35114:1 35136:1 35168:1 35176:1 35192:1 35212:1 35247:1 35307:1 35370:1 35374:1 35409:1 35412:1 35431:1 35439:1 35462:1 35478:1 35485:1 35491:1 35580:1 35587:1 35591:1 35600:1 35624:1 35634:1 35674:1 35678:1 35681:1 35698:1 35699:1 #
0.0032389406439973299038637133406837 2017:1 2024:1 2346:1 2477:1 2700:1 3295:1 4866:1 6310:1 7345:1 7378:1 9536:1 11497:1 14031:1 14217:1 28652:1 28663:1 28675:1 28732:1 28738:1 28793:1 28815:1 28849:1 28850:1 28898:1 28902:1 28926:1 28934:1 28936:1 28965:1 29007:1 29009:1 29065:1 29076:1 29079:1 29099:1 29109:1 29117:1 29124:1 29163:1 29169:1 29175:1 29241:1 29280:1 29324:1 29347:1 29352:1 29395:1 29401:1 29405:1 29430:1 29431:1 29432:1 29455:1 29464:1 29483:1 29500:1 29518:1 29597:1 29627:1 29696:1 29815:1 29851:1 29888:1 29949:1 29957:1 29967:1 29977:1 30022:1 30074:1 30077:1 30186:1 30237:1 30263:1 30277:1 30296:1 30315:1 30355:1 30404:1 30410:1 30443:1 30457:1 30458:1 30464:1 30543:1 30563:1 30572:1 30600:1 30658:1 30668:1 30724:1 30729:1 30900:1 30915:1 30919:1 30970:1 31023:1 31067:1 31083:1 31106:1 31126:1 31157:1 31166:1 31189:1 31196:1 31214:1 31238:1 31297:1 31329:1 31338:1 31344:1 31347:1 31354:1 31397:1 31502:1 31507:1 31516:1 31582:1 31590:1 31595:1 31689:1 31698:1 31805:1 31884:1 31979:1 31992:1 31994:1 32042:1 32144:1 32149:1 32154:1 32204:1 32232:1 32234:1 32249:1 32309:1 32340:1 32387:1 32426:1 32427:1 32430:1 32431:1 32434:1 32436:1 32459:1 32471:1 32614:1 32675:1 32693:1 32697:1 32707:1 32710:1 32711:1 32746:1 32750:1 32758:1 32786:1 32826:1 32830:1 32834:1 32866:1 32930:1 32953:1 32993:1 33046:1 33049:1 33060:1 33130:1 33155:1 33231:1 33264:1 33294:1 33295:1 33427:1 33539:1 33558:1 33649:1 33663:1 33713:1 33799:1 33827:1 33861:1 33862:1 33867:1 33893:1 33918:1 34034:1 34068:1 34086:1 34099:1 34116:1 34131:1 34138:1 34228:1 34246:1 34255:1 34308:1 34394:1 34396:1 34422:1 34455:1 34534:1 34612:1 34620:1 34630:1 34659:1 34692:1 34734:1 34739:1 34824:1 34825:1 34828:1 34841:1 34890:1 34893:1 34902:1 34908:1 34920:1 34960:1 34963:1 35055:1 35064:1 35136:1 35225:1 35233:1 35281:1 35292:1 35370:1 35374:1 35391:1 35408:1 35444:1 35491:1 35501:1 35526:1 35543:1 35544:1 35547:1 35614:1 35619:1 35620:1 35624:1 35634:1 35698:1 #
0.0021718124053020180369566460854003 15:1 519:1 2674:1 2729:1 3064:1 3638:1 3731:1 3751:1 3900:1 4076:1 4722:1 4750:1 8013:1 9014:1 10871:1 10902:1 11464:1 11605:1 11965:1 12072:1 12147:1 13105:1 13680:1 13835:1 14250:1 28586:1 28616:1 28620:1 28636:1 28663:1 28694:1 28738:1 28793:1 28823:1 28849:1 28859:1 28898:1 28907:1 28934:1 28962:1 28986:1 29007:1 29034:1 29037:1 29047:1 29049:1 29054:1 29056:1 29076:1 29079:1 29083:1 29087:1 29110:1 29111:1 29117:1 29123:1 29124:1 29184:1 29223:1 29229:1 29237:1 29269:1 29280:1 29287:1 29316:1 29318:1 29345:1 29347:1 29352:1 29358:1 29405:1 29430:1 29431:1 29432:1 29438:1 29457:1 29463:1 29464:1 29504:1 29507:1 29518:1 29572:1 29597:1 29687:1 29689:1 29696:1 29740:1 29815:1 29838:1 29851:1 29852:1 29868:1 29909:1 29915:1 29919:1 29932:1 29977:1 29978:1 30085:1 30092:1 30123:1 30133:1 30140:1 30151:1 30167:1 30190:1 30255:1 30268:1 30275:1 30277:1 30303:1 30314:1 30391:1 30439:1 30443:1 30454:1 30458:1 30464:1 30505:1 30565:1 30580:1 30592:1 30600:1 30658:1 30666:1 30673:1 30719:1 30722:1 30754:1 30780:1 30822:1 30848:1 30870:1 30890:1 30900:1 30901:1 30936:1 30951:1 30968:1 30970:1 30976:1 30993:1 31004:1 31023:1 31050:1 31061:1 31079:1 31116:1 31181:1 31183:1 31197:1 31209:1 31238:1 31242:1 31251:1 31329:1 31336:1 31358:1 31381:1 31383:1 31388:1 31412:1 31447:1 31465:1 31477:1 31491:1 31526:1 31531:1 31538:1 31572:1 31595:1 31597:1 31601:1 31639:1 31663:1 31703:1 31720:1 31772:1 31842:1 31884:1 31931:1 31967:1 31992:1 31994:1 32035:1 32077:1 32149:1 32203:1 32212:1 32230:1 32232:1 32234:1 32246:1 32289:1 32293:1 32296:1 32313:1 32317:1 32333:1 32387:1 32408:1 32415:1 32426:1 32427:1 32430:1 32434:1 32459:1 32468:1 32505:1 32531:1 32555:1 32575:1 32589:1 32625:1 32632:1 32642:1 32677:1 32679:1 32689:1 32705:1 32711:1 32728:1 32758:1 32827:1 32838:1 32841:1 32854:1 32872:1 32908:1 32920:1 32929:1 33008:1 33046:1 33049:1 33161:1 33189:1 33223:1 33247:1 33257:1 33263:1 33264:1 33337:1 33387:1 33395:1 33410:1 33442:1 33448:1 33470:1 33484:1 33497:1 33520:1 33627:1 33713:1 33716:1 33753:1 33756:1 33827:1 33854:1 33861:1 33881:1 33893:1 33918:1 33926:1 33968:1 34006:1 34034:1 34111:1 34130:1 34161:1 34202:1 34210:1 34239:1 34280:1 34320:1 34350:1 34372:1 34383:1 34394:1 34439:1 34470:1 34504:1 34552:1 34589:1 34593:1 34612:1 34620:1 34630:1 34643:1 34739:1 34754:1 34803:1 34821:1 34825:1 34828:1 34841:1 34856:1 34890:1 34908:1 34952:1 34963:1 34967:1 35039:1 35045:1 35056:1 35062:1 35063:1 35095:1 35114:1 35115:1 35136:1 35281:1 35307:1 35327:1 35341:1 35370:1 35412:1 35465:1 35485:1 35489:1 35558:1 35577:1 35580:1 35584:1 35644:1 35647:1 35658:1 35672:1 #
0.0032389406439973299038637133406837 1080:1 1717:1 1931:1 2234:1 2496:1 2601:1 2820:1 3276:1 3347:1 3626:1 3922:1 4540:1 4575:1 4617:1 4652:1 4711:1 4908:1 5937:1 6254:1 6532:1 7852:1 8674:1 8883:1 8924:1 8928:1 9159:1 9581:1 9939:1 11029:1 11336:1 13176:1 13672:1 13680:1 13940:1 28589:1 28663:1 28664:1 28729:1 28731:1 28777:1 28793:1 28809:1 28822:1 28832:1 28849:1 28850:1 28853:1 28869:1 28876:1 28887:1 28907:1 28927:1 28934:1 29011:1 29037:1 29076:1 29079:1 29084:1 29092:1 29117:1 29155:1 29184:1 29195:1 29221:1 29229:1 29269:1 29280:1 29307:1 29314:1 29346:1 29347:1 29371:1 29405:1 29430:1 29431:1 29432:1 29464:1 29479:1 29513:1 29518:1 29529:1 29586:1 29596:1 29643:1 29658:1 29685:1 29689:1 29696:1 29741:1 29753:1 29755:1 29815:1 29838:1 29846:1 29851:1 29852:1 29868:1 29879:1 29891:1 29899:1 29921:1 29933:1 29973:1 29975:1 29977:1 30018:1 30047:1 30057:1 30067:1 30074:1 30092:1 30109:1 30131:1 30150:1 30168:1 30258:1 30270:1 30277:1 30378:1 30391:1 30414:1 30454:1 30481:1 30513:1 30521:1 30540:1 30543:1 30546:1 30563:1 30592:1 30645:1 30658:1 30721:1 30724:1 30848:1 30856:1 30867:1 30900:1 30915:1 30936:1 30970:1 31021:1 31023:1 31092:1 31127:1 31181:1 31198:1 31214:1 31246:1 31248:1 31253:1 31306:1 31318:1 31329:1 31354:1 31390:1 31458:1 31462:1 31502:1 31598:1 31628:1 31675:1 31698:1 31787:1 31802:1 31820:1 31828:1 31884:1 31900:1 31928:1 31941:1 31992:1 32013:1 32025:1 32042:1 32073:1 32077:1 32098:1 32114:1 32141:1 32144:1 32149:1 32200:1 32231:1 32232:1 32234:1 32288:1 32397:1 32421:1 32426:1 32430:1 32434:1 32460:1 32477:1 32481:1 32600:1 32628:1 32682:1 32693:1 32694:1 32726:1 32746:1 32749:1 32753:1 32758:1 32786:1 32798:1 32828:1 32838:1 32864:1 32866:1 32885:1 32895:1 32928:1 32930:1 32940:1 32951:1 33002:1 33051:1 33069:1 33074:1 33084:1 33120:1 33130:1 33161:1 33187:1 33190:1 33225:1 33239:1 33307:1 33369:1 33410:1 33413:1 33448:1 33519:1 33551:1 33569:1 33576:1 33649:1 33650:1 33653:1 33694:1 33696:1 33713:1 33762:1 33811:1 33821:1 33827:1 33861:1 33893:1 33918:1 33971:1 34008:1 34020:1 34047:1 34083:1 34099:1 34113:1 34148:1 34170:1 34200:1 34235:1 34284:1 34331:1 34394:1 34397:1 34422:1 34455:1 34504:1 34515:1 34530:1 34580:1 34612:1 34620:1 34694:1 34699:1 34704:1 34753:1 34789:1 34821:1 34825:1 34828:1 34841:1 34887:1 34932:1 34937:1 34942:1 34980:1 34994:1 35004:1 35056:1 35114:1 35119:1 35131:1 35136:1 35139:1 35174:1 35212:1 35232:1 35307:1 35320:1 35370:1 35383:1 35389:1 35391:1 35418:1 35441:1 35452:1 35462:1 35490:1 35491:1 35558:1 35621:1 35624:1 35633:1 35635:1 35657:1 35665:1 #
-0.0032389406439973299038637133406837 124:1 378:1 740:1 1153:1 1263:1 1769:1 1856:1 2040:1 2042:1 2086:1 2283:1 2603:1 2664:1 2842:1 3279:1 5482:1 5547:1 5589:1 5689:1 5986:1 6056:1 6057:1 6095:1 6216:1 6395:1 6413:1 6554:1 6680:1 6825:1 7008:1 7053:1 8481:1 9344:1 9916:1 10407:1 11813:1 13463:1 13675:1 13688:1 13700:1 13759:1 28596:1 28615:1 28624:1 28645:1 28657:1 28663:1 28689:1 28703:1 28719:1 28721:1 28763:1 28774:1 28790:1 28796:1 28805:1 28806:1 28817:1 28820:1 28822:1 28823:1 28825:1 28838:1 28847:1 28849:1 28850:1 28869:1 28876:1 28898:1 28902:1 28907:1 28927:1 28934:1 28971:1 28992:1 28994:1 29007:1 29011:1 29037:1 29076:1 29079:1 29083:1 29117:1 29124:1 29125:1 29147:1 29153:1 29178:1 29184:1 29214:1 29229:1 29253:1 29280:1 29287:1 29336:1 29355:1 29358:1 29369:1 29374:1 29395:1 29400:1 29405:1 29430:1 29431:1 29432:1 29455:1 29456:1 29464:1 29483:1 29496:1 29507:1 29518:1 29538:1 29546:1 29572:1 29586:1 29597:1 29643:1 29683:1 29689:1 29697:1 29704:1 29705:1 29709:1 29725:1 29734:1 29741:1 29753:1 29764:1 29793:1 29803:1 29815:1 29829:1 29838:1 29851:1 29852:1 29868:1 29884:1 29892:1 29915:1 29918:1 29932:1 29957:1 29974:1 29976:1 29977:1 29985:1 29989:1 30000:1 30005:1 30020:1 30044:1 30047:1 30048:1 30067:1 30092:1 30106:1 30138:1 30150:1 30158:1 30160:1 30249:1 30263:1 30277:1 30306:1 30332:1 30334:1 30336:1 30347:1 30370:1 30391:1 30396:1 30410:1 30429:1 30457:1 30458:1 30464:1 30495:1 30503:1 30505:1 30513:1 30521:1 30522:1 30533:1 30543:1 30554:1 30565:1 30592:1 30614:1 30625:1 30628:1 30636:1 30646:1 30653:1 30658:1 30684:1 30719:1 30724:1 30729:1 30736:1 30738:1 30774:1 30778:1 30804:1 30848:1 30852:1 30856:1 30862:1 30900:1 30901:1 30928:1 30929:1 30930:1 30934:1 30951:1 30956:1 30970:1 31015:1 31017:1 31021:1 31023:1 31031:1 31033:1 31061:1 31071:1 31079:1 31120:1 31121:1 31126:1 31129:1 31171:1 31177:1 31185:1 31187:1 31209:1 31225:1 31238:1 31239:1 31249:1 31262:1 31271:1 31275:1 31294:1 31311:1 31326:1 31329:1 31389:1 31407:1 31452:1 31462:1 31479:1 31491:1 31497:1 31499:1 31502:1 31528:1 31531:1 31541:1 31551:1 31581:1 31595:1 31607:1 31628:1 31666:1 31675:1 31685:1 31692:1 31703:1 31721:1 31730:1 31733:1 31737:1 31744:1 31747:1 31763:1 31779:1 31827:1 31884:1 31902:1 31908:1 31931:1 31933:1 31948:1 31959:1 31983:1 31984:1 31986:1 31992:1 31994:1 32025:1 32037:1 32077:1 32114:1 32138:1 32144:1 32149:1 32151:1 32159:1 32167:1 32202:1 32217:1 32221:1 32228:1 32230:1 32232:1 32234:1 32237:1 32262:1 32272:1 32292:1 32301:1 32322:1 32340:1 32426:1 32427:1 32430:1 32434:1 32436:1 32449:1 32460:1 32468:1 32470:1 32471:1 32477:1 32499:1 32523:1 32524:1 32548:1 32553:1 32569:1 32588:1 32594:1 32600:1 32604:1 32640:1 32660:1 32679:1 32685:1 32696:1 32705:1 32707:1 32711:1 32742:1 32743:1 32746:1 32750:1 32753:1 32758:1 32761:1 32770:1 32775:1 32786:1 32804:1 32828:1 32829:1 32864:1 32877:1 32879:1 32897:1 32907:1 32915:1 32940:1 32959:1 32980:1 33002:1 33005:1 33006:1 33046:1 33049:1 33060:1 33076:1 33091:1 33104:1 33107:1 33162:1 33183:1 33190:1 33207:1 33208:1 33253:1 33257:1 33261:1 33290:1 33294:1 33339:1 33349:1 33354:1 33366:1 33377:1 33392:1 33395:1 33456:1 33465:1 33483:1 33494:1 33523:1 33539:1 33628:1 33692:1 33697:1 33702:1 33713:1 33716:1 33782:1 33793:1 33811:1 33817:1 33821:1 33823:1 33827:1 33833:1 33840:1 33861:1 33862:1 33867:1 33893:1 33918:1 33937:1 33971:1 33989:1 34009:1 34019:1 34047:1 34058:1 34068:1 34073:1 34086:1 34111:1 34130:1 34144:1 34149:1 34152:1 34153:1 34158:1 34169:1 34199:1 34208:1 34218:1 34230:1 34235:1 34255:1 34256:1 34279:1 34284:1 34357:1 34387:1 34393:1 34394:1 34396:1 34397:1 34414:1 34420:1 34436:1 34482:1 34528:1 34535:1 34548:1 34569:1 34570:1 34612:1 34617:1 34620:1 34640:1 34658:1 34666:1 34677:1 34683:1 34716:1 34724:1 34729:1 34739:1 34742:1 34754:1 34765:1 34782:1 34788:1 34789:1 34821:1 34825:1 34828:1 34838:1 34841:1 34847:1 34855:1 34856:1 34890:1 34928:1 34937:1 34940:1 34942:1 34957:1 34963:1 34967:1 34984:1 34996:1 34999:1 35008:1 35045:1 35055:1 35056:1 35057:1 35062:1 35090:1 35114:1 35119:1 35128:1 35132:1 35136:1 35138:1 35164:1 35174:1 35179:1 35202:1 35244:1 35281:1 35292:1 35295:1 35368:1 35370:1 35374:1 35376:1 35384:1 35395:1 35404:1 35418:1 35465:1 35485:1 35490:1 35491:1 35514:1 35526:1 35572:1 35577:1 35580:1 35587:1 35592:1 35593:1 35604:1 35605:1 35619:1 35620:1 35624:1 35634:1 35665:1 35673:1 35678:1 35694:1 35695:1 35698:1 #
-0.002516492179641503443288108599063 114:1 212:1 318:1 1286:1 1355:1 1804:1 1884:1 1965:1 2561:1 2818:1 2841:1 2908:1 3173:1 3599:1 3967:1 4305:1 4330:1 4625:1 4632:1 4810:1 5489:1 5530:1 5759:1 5944:1 5953:1 6257:1 6328:1 6389:1 7108:1 7208:1 7384:1 7526:1 7579:1 7984:1 8035:1 8096:1 8199:1 8992:1 9297:1 9365:1 9509:1 9578:1 10429:1 10448:1 10635:1 10743:1 10783:1 10856:1 11548:1 11897:1 11934:1 12128:1 12316:1 12386:1 12666:1 13169:1 13443:1 13657:1 14095:1 14197:1 28605:1 28613:1 28618:1 28626:1 28651:1 28653:1 28663:1 28688:1 28694:1 28703:1 28742:1 28746:1 28780:1 28793:1 28823:1 28849:1 28852:1 28859:1 28876:1 28902:1 28907:1 28910:1 28917:1 28934:1 28937:1 28939:1 28941:1 28963:1 29007:1 29011:1 29062:1 29065:1 29072:1 29076:1 29079:1 29087:1 29109:1 29117:1 29123:1 29171:1 29184:1 29188:1 29203:1 29229:1 29269:1 29286:1 29345:1 29346:1 29358:1 29359:1 29385:1 29405:1 29428:1 29430:1 29431:1 29432:1 29444:1 29464:1 29480:1 29507:1 29518:1 29529:1 29550:1 29572:1 29613:1 29617:1 29627:1 29628:1 29649:1 29669:1 29685:1 29686:1 29689:1 29696:1 29740:1 29746:1 29799:1 29815:1 29826:1 29838:1 29851:1 29852:1 29863:1 29869:1 29878:1 29957:1 29966:1 29977:1 29987:1 30007:1 30010:1 30074:1 30085:1 30129:1 30133:1 30175:1 30177:1 30190:1 30220:1 30237:1 30241:1 30255:1 30277:1 30347:1 30368:1 30372:1 30382:1 30429:1 30457:1 30464:1 30505:1 30506:1 30513:1 30521:1 30527:1 30540:1 30543:1 30587:1 30589:1 30592:1 30595:1 30645:1 30649:1 30658:1 30722:1 30724:1 30784:1 30791:1 30797:1 30809:1 30820:1 30822:1 30893:1 30900:1 30901:1 30911:1 30919:1 30935:1 30970:1 31005:1 31023:1 31029:1 31050:1 31115:1 31126:1 31214:1 31217:1 31238:1 31259:1 31284:1 31294:1 31318:1 31329:1 31342:1 31354:1 31372:1 31385:1 31398:1 31402:1 31410:1 31493:1 31513:1 31520:1 31524:1 31528:1 31531:1 31534:1 31595:1 31607:1 31628:1 31652:1 31654:1 31675:1 31688:1 31698:1 31737:1 31787:1 31791:1 31794:1 31817:1 31884:1 31910:1 31916:1 31934:1 31967:1 31983:1 31987:1 31992:1 32022:1 32025:1 32055:1 32069:1 32072:1 32077:1 32105:1 32114:1 32144:1 32149:1 32178:1 32200:1 32220:1 32232:1 32234:1 32241:1 32251:1 32261:1 32296:1 32310:1 32313:1 32314:1 32358:1 32366:1 32375:1 32399:1 32413:1 32415:1 32421:1 32422:1 32426:1 32427:1 32430:1 32434:1 32436:1 32459:1 32460:1 32468:1 32471:1 32477:1 32484:1 32493:1 32531:1 32536:1 32559:1 32579:1 32600:1 32608:1 32627:1 32638:1 32669:1 32682:1 32683:1 32684:1 32705:1 32721:1 32728:1 32744:1 32753:1 32758:1 32786:1 32804:1 32809:1 32812:1 32829:1 32859:1 32892:1 32897:1 32913:1 32966:1 32992:1 33024:1 33041:1 33046:1 33049:1 33079:1 33086:1 33102:1 33130:1 33140:1 33143:1 33187:1 33190:1 33212:1 33218:1 33242:1 33244:1 33264:1 33269:1 33290:1 33305:1 33331:1 33337:1 33354:1 33358:1 33368:1 33418:1 33521:1 33528:1 33683:1 33691:1 33709:1 33713:1 33746:1 33754:1 33795:1 33799:1 33824:1 33827:1 33840:1 33843:1 33850:1 33861:1 33893:1 33918:1 33971:1 33976:1 33988:1 33994:1 34012:1 34034:1 34049:1 34056:1 34057:1 34063:1 34066:1 34068:1 34161:1 34226:1 34236:1 34255:1 34261:1 34290:1 34294:1 34336:1 34338:1 34363:1 34371:1 34394:1 34396:1 34397:1 34422:1 34449:1 34476:1 34504:1 34530:1 34550:1 34570:1 34592:1 34597:1 34612:1 34621:1 34649:1 34658:1 34673:1 34682:1 34716:1 34721:1 34744:1 34754:1 34765:1 34766:1 34788:1 34813:1 34818:1 34821:1 34825:1 34828:1 34856:1 34884:1 34885:1 34890:1 34903:1 34916:1 34963:1 34975:1 34996:1 34999:1 35054:1 35055:1 35056:1 35111:1 35114:1 35117:1 35119:1 35130:1 35136:1 35158:1 35222:1 35231:1 35239:1 35248:1 35256:1 35295:1 35307:1 35315:1 35345:1 35370:1 35377:1 35439:1 35443:1 35444:1 35460:1 35465:1 35485:1 35490:1 35491:1 35516:1 35535:1 35544:1 35546:1 35556:1 35558:1 35560:1 35572:1 35574:1 35576:1 35580:1 35587:1 35591:1 35600:1 35604:1 35619:1 35632:1 35634:1 35672:1 35678:1 35685:1 35698:1 35701:1 35704:1 35710:1 #
-0.0032389406439973299038637133406837 43:1 277:1 890:1 1217:1 1527:1 1587:1 2024:1 2032:1 2275:1 2539:1 2668:1 3144:1 4296:1 4637:1 4659:1 4832:1 5178:1 5542:1 5872:1 6346:1 6495:1 6568:1 8521:1 8553:1 9222:1 9319:1 10057:1 11032:1 11344:1 11347:1 12037:1 12320:1 12816:1 28608:1 28630:1 28646:1 28648:1 28662:1 28669:1 28694:1 28739:1 28774:1 28788:1 28793:1 28817:1 28849:1 28850:1 28852:1 28860:1 28869:1 28876:1 28902:1 28907:1 28934:1 29004:1 29011:1 29072:1 29076:1 29079:1 29109:1 29117:1 29123:1 29178:1 29184:1 29188:1 29191:1 29192:1 29239:1 29250:1 29269:1 29287:1 29289:1 29292:1 29345:1 29346:1 29347:1 29355:1 29390:1 29395:1 29405:1 29430:1 29431:1 29432:1 29464:1 29482:1 29488:1 29497:1 29515:1 29518:1 29533:1 29537:1 29540:1 29567:1 29586:1 29668:1 29674:1 29689:1 29696:1 29703:1 29733:1 29748:1 29754:1 29815:1 29838:1 29851:1 29852:1 29882:1 29897:1 29949:1 29957:1 29977:1 30016:1 30067:1 30074:1 30150:1 30155:1 30158:1 30172:1 30192:1 30205:1 30224:1 30238:1 30277:1 30382:1 30391:1 30420:1 30429:1 30457:1 30464:1 30495:1 30513:1 30521:1 30543:1 30587:1 30628:1 30640:1 30658:1 30724:1 30736:1 30752:1 30773:1 30807:1 30822:1 30830:1 30848:1 30861:1 30874:1 30900:1 30953:1 30968:1 30970:1 30976:1 31023:1 31038:1 31051:1 31079:1 31092:1 31108:1 31147:1 31181:1 31187:1 31189:1 31214:1 31217:1 31224:1 31229:1 31284:1 31294:1 31313:1 31325:1 31329:1 31354:1 31396:1 31406:1 31462:1 31475:1 31482:1 31492:1 31551:1 31583:1 31595:1 31669:1 31675:1 31694:1 31725:1 31749:1 31757:1 31769:1 31779:1 31787:1 31805:1 31812:1 31819:1 31850:1 31884:1 31902:1 31934:1 31981:1 31992:1 32035:1 32036:1 32042:1 32077:1 32098:1 32183:1 32232:1 32234:1 32282:1 32288:1 32296:1 32310:1 32313:1 32332:1 32345:1 32358:1 32375:1 32426:1 32427:1 32430:1 32434:1 32436:1 32449:1 32524:1 32559:1 32586:1 32613:1 32679:1 32688:1 32693:1 32735:1 32744:1 32750:1 32758:1 32821:1 32829:1 32841:1 32844:1 32847:1 32857:1 32869:1 32888:1 32924:1 32930:1 32940:1 32956:1 32961:1 32988:1 33046:1 33049:1 33075:1 33097:1 33102:1 33107:1 33130:1 33140:1 33161:1 33177:1 33190:1 33202:1 33207:1 33215:1 33218:1 33219:1 33231:1 33237:1 33253:1 33264:1 33267:1 33273:1 33281:1 33305:1 33337:1 33354:1 33356:1 33386:1 33425:1 33442:1 33448:1 33492:1 33564:1 33618:1 33713:1 33744:1 33767:1 33786:1 33821:1 33827:1 33861:1 33873:1 33893:1 33895:1 33918:1 33965:1 33971:1 33976:1 34019:1 34020:1 34041:1 34047:1 34068:1 34075:1 34086:1 34184:1 34186:1 34227:1 34235:1 34238:1 34255:1 34295:1 34348:1 34351:1 34394:1 34396:1 34428:1 34440:1 34504:1 34505:1 34590:1 34602:1 34612:1 34620:1 34630:1 34671:1 34683:1 34694:1 34721:1 34734:1 34739:1 34753:1 34754:1 34821:1 34824:1 34825:1 34828:1 34835:1 34841:1 34874:1 34890:1 34920:1 34945:1 34964:1 35056:1 35057:1 35069:1 35098:1 35102:1 35114:1 35136:1 35164:1 35215:1 35243:1 35307:1 35327:1 35370:1 35374:1 35377:1 35391:1 35397:1 35464:1 35467:1 35481:1 35485:1 35490:1 35491:1 35546:1 35558:1 35572:1 35580:1 35610:1 35624:1 35630:1 35644:1 35665:1 35678:1 35698:1 #
-0.0011369475905464315485665638405521 70:1 148:1 1137:1 1138:1 1555:1 1766:1 1842:1 1859:1 1998:1 2402:1 2497:1 3454:1 4966:1 5469:1 5886:1 6038:1 6112:1 6451:1 7782:1 8116:1 8150:1 8172:1 8926:1 9251:1 9674:1 10657:1 10816:1 10917:1 11039:1 11133:1 11570:1 11780:1 12088:1 12465:1 12546:1 12616:1 12938:1 13285:1 13668:1 13791:1 13814:1 28596:1 28608:1 28636:1 28653:1 28663:1 28669:1 28679:1 28711:1 28738:1 28744:1 28759:1 28793:1 28804:1 28809:1 28823:1 28825:1 28849:1 28850:1 28876:1 28878:1 28892:1 28902:1 28907:1 28934:1 28965:1 28976:1 29065:1 29076:1 29078:1 29087:1 29101:1 29109:1 29117:1 29124:1 29129:1 29161:1 29170:1 29184:1 29185:1 29197:1 29210:1 29223:1 29227:1 29229:1 29239:1 29240:1 29248:1 29253:1 29346:1 29363:1 29394:1 29405:1 29408:1 29430:1 29431:1 29432:1 29456:1 29464:1 29467:1 29472:1 29488:1 29495:1 29506:1 29518:1 29561:1 29572:1 29597:1 29643:1 29651:1 29673:1 29685:1 29696:1 29731:1 29733:1 29754:1 29762:1 29770:1 29789:1 29815:1 29829:1 29838:1 29851:1 29852:1 29862:1 29868:1 29882:1 29884:1 29892:1 29893:1 29915:1 29957:1 29977:1 29999:1 30000:1 30017:1 30020:1 30047:1 30074:1 30131:1 30138:1 30159:1 30167:1 30238:1 30264:1 30277:1 30323:1 30355:1 30360:1 30371:1 30372:1 30391:1 30410:1 30429:1 30435:1 30457:1 30458:1 30464:1 30491:1 30499:1 30505:1 30506:1 30518:1 30527:1 30529:1 30543:1 30544:1 30554:1 30561:1 30562:1 30563:1 30570:1 30583:1 30589:1 30592:1 30602:1 30633:1 30635:1 30639:1 30640:1 30658:1 30694:1 30719:1 30722:1 30724:1 30754:1 30758:1 30764:1 30771:1 30787:1 30794:1 30797:1 30832:1 30836:1 30846:1 30848:1 30885:1 30890:1 30897:1 30900:1 30911:1 30915:1 30916:1 30920:1 30944:1 30970:1 31023:1 31041:1 31061:1 31067:1 31104:1 31118:1 31126:1 31133:1 31171:1 31187:1 31197:1 31214:1 31223:1 31246:1 31252:1 31267:1 31270:1 31307:1 31318:1 31329:1 31338:1 31347:1 31397:1 31448:1 31469:1 31475:1 31486:1 31500:1 31502:1 31524:1 31525:1 31531:1 31532:1 31551:1 31595:1 31597:1 31627:1 31628:1 31639:1 31669:1 31675:1 31698:1 31703:1 31722:1 31757:1 31805:1 31828:1 31867:1 31884:1 31902:1 31917:1 31931:1 31966:1 31988:1 31992:1 31998:1 32001:1 32013:1 32025:1 32042:1 32077:1 32080:1 32093:1 32144:1 32149:1 32151:1 32157:1 32162:1 32163:1 32203:1 32204:1 32230:1 32232:1 32234:1 32247:1 32256:1 32299:1 32340:1 32344:1 32348:1 32358:1 32362:1 32364:1 32368:1 32371:1 32375:1 32386:1 32387:1 32397:1 32426:1 32427:1 32430:1 32434:1 32435:1 32436:1 32449:1 32459:1 32460:1 32470:1 32471:1 32477:1 32524:1 32576:1 32594:1 32608:1 32638:1 32649:1 32660:1 32669:1 32679:1 32682:1 32684:1 32688:1 32703:1 32735:1 32742:1 32743:1 32744:1 32753:1 32758:1 32761:1 32766:1 32786:1 32795:1 32802:1 32822:1 32826:1 32838:1 32841:1 32844:1 32861:1 32864:1 32878:1 32900:1 32915:1 32924:1 32930:1 32939:1 32958:1 32980:1 32991:1 33005:1 33034:1 33039:1 33046:1 33061:1 33088:1 33132:1 33138:1 33140:1 33186:1 33187:1 33190:1 33207:1 33219:1 33233:1 33264:1 33267:1 33290:1 33304:1 33305:1 33346:1 33354:1 33391:1 33395:1 33398:1 33448:1 33470:1 33524:1 33544:1 33565:1 33576:1 33577:1 33587:1 33601:1 33621:1 33644:1 33653:1 33713:1 33767:1 33785:1 33786:1 33795:1 33799:1 33817:1 33821:1 33827:1 33854:1 33861:1 33878:1 33893:1 33903:1 33909:1 33916:1 33918:1 33926:1 33932:1 33940:1 33971:1 33980:1 33988:1 34016:1 34019:1 34034:1 34047:1 34054:1 34068:1 34074:1 34115:1 34116:1 34120:1 34130:1 34133:1 34151:1 34168:1 34169:1 34195:1 34205:1 34211:1 34221:1 34253:1 34255:1 34261:1 34279:1 34284:1 34290:1 34324:1 34332:1 34365:1 34366:1 34369:1 34371:1 34379:1 34394:1 34396:1 34410:1 34414:1 34421:1 34440:1 34499:1 34530:1 34593:1 34607:1 34612:1 34620:1 34659:1 34661:1 34666:1 34668:1 34683:1 34692:1 34716:1 34721:1 34729:1 34731:1 34739:1 34752:1 34776:1 34783:1 34788:1 34789:1 34821:1 34825:1 34828:1 34841:1 34846:1 34885:1 34889:1 34890:1 34893:1 34904:1 34915:1 34960:1 34967:1 34976:1 34994:1 34999:1 35004:1 35011:1 35020:1 35035:1 35041:1 35055:1 35056:1 35057:1 35072:1 35074:1 35097:1 35099:1 35114:1 35119:1 35131:1 35136:1 35142:1 35202:1 35248:1 35278:1 35281:1 35297:1 35309:1 35328:1 35343:1 35358:1 35370:1 35377:1 35378:1 35386:1 35391:1 35404:1 35418:1 35420:1 35444:1 35452:1 35462:1 35465:1 35485:1 35490:1 35495:1 35516:1 35527:1 35543:1 35546:1 35556:1 35572:1 35580:1 35587:1 35592:1 35623:1 35630:1 35634:1 35644:1 35658:1 35667:1 35678:1 35680:1 35698:1 #
0.0032335717006897989056479758573914 358:1 927:1 1169:1 1699:1 1914:1 2638:1 4012:1 5567:1 9351:1 12499:1 12545:1 12806:1 28608:1 28612:1 28636:1 28663:1 28711:1 28849:1 28850:1 28907:1 28934:1 28956:1 28963:1 29007:1 29022:1 29056:1 29076:1 29117:1 29162:1 29184:1 29212:1 29229:1 29237:1 29253:1 29289:1 29352:1 29385:1 29399:1 29405:1 29430:1 29431:1 29432:1 29455:1 29462:1 29464:1 29483:1 29489:1 29507:1 29509:1 29518:1 29540:1 29572:1 29643:1 29689:1 29696:1 29727:1 29733:1 29753:1 29754:1 29815:1 29825:1 29829:1 29838:1 29851:1 29869:1 29933:1 29957:1 29967:1 29977:1 29989:1 30000:1 30036:1 30047:1 30067:1 30074:1 30092:1 30138:1 30139:1 30191:1 30277:1 30355:1 30373:1 30391:1 30410:1 30421:1 30458:1 30464:1 30505:1 30521:1 30527:1 30543:1 30563:1 30569:1 30592:1 30597:1 30627:1 30658:1 30684:1 30694:1 30721:1 30722:1 30724:1 30767:1 30784:1 30821:1 30824:1 30847:1 30862:1 30873:1 30875:1 30883:1 30890:1 30900:1 30970:1 30972:1 30992:1 31001:1 31023:1 31050:1 31079:1 31082:1 31099:1 31126:1 31136:1 31163:1 31164:1 31187:1 31189:1 31197:1 31238:1 31294:1 31326:1 31329:1 31336:1 31344:1 31363:1 31392:1 31461:1 31467:1 31497:1 31502:1 31527:1 31532:1 31585:1 31628:1 31640:1 31675:1 31805:1 31806:1 31826:1 31827:1 31854:1 31884:1 31987:1 32016:1 32055:1 32064:1 32077:1 32130:1 32144:1 32146:1 32151:1 32171:1 32185:1 32194:1 32200:1 32220:1 32232:1 32288:1 32293:1 32314:1 32317:1 32426:1 32427:1 32430:1 32432:1 32434:1 32436:1 32460:1 32471:1 32524:1 32538:1 32568:1 32589:1 32610:1 32642:1 32660:1 32684:1 32688:1 32696:1 32707:1 32714:1 32719:1 32758:1 32775:1 32829:1 32841:1 32941:1 32945:1 32982:1 32990:1 33040:1 33046:1 33064:1 33085:1 33102:1 33104:1 33130:1 33171:1 33187:1 33190:1 33208:1 33267:1 33290:1 33305:1 33334:1 33346:1 33354:1 33361:1 33403:1 33413:1 33417:1 33440:1 33455:1 33539:1 33592:1 33594:1 33628:1 33669:1 33713:1 33742:1 33799:1 33800:1 33821:1 33827:1 33861:1 33867:1 33890:1 33893:1 33918:1 33928:1 33956:1 33965:1 33995:1 34008:1 34047:1 34086:1 34130:1 34136:1 34202:1 34255:1 34265:1 34278:1 34284:1 34293:1 34320:1 34331:1 34387:1 34394:1 34396:1 34422:1 34499:1 34504:1 34505:1 34515:1 34523:1 34527:1 34548:1 34612:1 34620:1 34642:1 34704:1 34721:1 34729:1 34780:1 34821:1 34825:1 34828:1 34841:1 34885:1 34890:1 34912:1 34924:1 34984:1 34994:1 35004:1 35055:1 35056:1 35057:1 35072:1 35080:1 35114:1 35119:1 35132:1 35136:1 35142:1 35144:1 35267:1 35291:1 35328:1 35370:1 35443:1 35444:1 35462:1 35465:1 35476:1 35480:1 35485:1 35490:1 35491:1 35494:1 35624:1 35634:1 35651:1 35653:1 35665:1 35678:1 35695:1 35698:1 #
0.0032389406439973299038637133406837 3091:1 6349:1 7470:1 12856:1 13479:1 28606:1 28663:1 28747:1 28823:1 28849:1 28852:1 28860:1 28907:1 28910:1 28926:1 28934:1 28984:1 29065:1 29076:1 29117:1 29184:1 29194:1 29346:1 29377:1 29395:1 29405:1 29430:1 29431:1 29435:1 29464:1 29568:1 29618:1 29643:1 29696:1 29770:1 29815:1 29888:1 29974:1 29977:1 30034:1 30138:1 30254:1 30362:1 30458:1 30464:1 30658:1 30719:1 30722:1 30729:1 30749:1 30848:1 30890:1 30965:1 30970:1 31011:1 31029:1 31079:1 31090:1 31329:1 31737:1 31752:1 31819:1 31884:1 31992:1 31994:1 32042:1 32089:1 32151:1 32158:1 32191:1 32203:1 32230:1 32232:1 32340:1 32426:1 32427:1 32430:1 32434:1 32464:1 32534:1 32627:1 32679:1 32684:1 32726:1 32907:1 32980:1 33086:1 33222:1 33267:1 33713:1 33799:1 33827:1 33893:1 33918:1 33976:1 34019:1 34068:1 34186:1 34205:1 34255:1 34263:1 34432:1 34583:1 34612:1 34729:1 34789:1 34825:1 34828:1 34841:1 34890:1 35095:1 35136:1 35164:1 35169:1 35243:1 35281:1 35313:1 35346:1 35397:1 35444:1 35465:1 35485:1 35490:1 35638:1 35656:1 #
0.00060453387661916916165361080004459 866:1 2041:1 2153:1 2380:1 4052:1 4136:1 4192:1 4438:1 4456:1 5348:1 7170:1 7390:1 10050:1 10511:1 10534:1 11960:1 12067:1 12230:1 12969:1 13752:1 28581:1 28601:1 28608:1 28614:1 28620:1 28633:1 28671:1 28767:1 28771:1 28778:1 28780:1 28849:1 28850:1 28869:1 28902:1 28907:1 28934:1 28992:1 28997:1 29007:1 29011:1 29065:1 29076:1 29087:1 29165:1 29169:1 29184:1 29188:1 29219:1 29227:1 29229:1 29265:1 29304:1 29346:1 29347:1 29352:1 29405:1 29424:1 29431:1 29455:1 29464:1 29485:1 29510:1 29519:1 29548:1 29553:1 29572:1 29586:1 29597:1 29613:1 29643:1 29645:1 29654:1 29675:1 29689:1 29696:1 29709:1 29718:1 29829:1 29838:1 29869:1 29870:1 29897:1 29920:1 29977:1 29984:1 30003:1 30074:1 30096:1 30167:1 30201:1 30224:1 30238:1 30263:1 30283:1 30284:1 30355:1 30370:1 30391:1 30410:1 30443:1 30457:1 30458:1 30462:1 30464:1 30472:1 30505:1 30521:1 30563:1 30646:1 30657:1 30658:1 30691:1 30722:1 30724:1 30729:1 30736:1 30775:1 30776:1 30788:1 30797:1 30838:1 30848:1 30856:1 30890:1 30900:1 30901:1 30916:1 30950:1 30970:1 31021:1 31033:1 31050:1 31079:1 31126:1 31135:1 31167:1 31177:1 31181:1 31214:1 31225:1 31238:1 31286:1 31298:1 31302:1 31329:1 31447:1 31465:1 31469:1 31475:1 31494:1 31501:1 31546:1 31551:1 31583:1 31595:1 31652:1 31737:1 31768:1 31850:1 31875:1 31881:1 31884:1 31902:1 31932:1 31969:1 31988:1 31992:1 32010:1 32021:1 32042:1 32077:1 32144:1 32149:1 32180:1 32200:1 32221:1 32232:1 32234:1 32247:1 32248:1 32262:1 32286:1 32325:1 32333:1 32426:1 32427:1 32430:1 32434:1 32460:1 32477:1 32485:1 32488:1 32553:1 32594:1 32602:1 32627:1 32684:1 32689:1 32705:1 32723:1 32743:1 32746:1 32775:1 32804:1 32821:1 32823:1 32841:1 32864:1 32871:1 32882:1 32897:1 32907:1 32941:1 32983:1 33043:1 33046:1 33049:1 33111:1 33127:1 33161:1 33177:1 33183:1 33187:1 33190:1 33222:1 33243:1 33264:1 33290:1 33294:1 33315:1 33375:1 33386:1 33391:1 33436:1 33500:1 33507:1 33566:1 33646:1 33705:1 33713:1 33723:1 33747:1 33799:1 33821:1 33827:1 33861:1 33867:1 33890:1 33894:1 33913:1 33918:1 33971:1 34017:1 34019:1 34041:1 34083:1 34093:1 34116:1 34161:1 34169:1 34202:1 34203:1 34255:1 34396:1 34465:1 34504:1 34530:1 34555:1 34570:1 34583:1 34612:1 34692:1 34704:1 34729:1 34739:1 34745:1 34784:1 34817:1 34821:1 34824:1 34825:1 34828:1 34846:1 34890:1 34994:1 35056:1 35087:1 35114:1 35119:1 35164:1 35169:1 35177:1 35195:1 35200:1 35263:1 35370:1 35428:1 35443:1 35444:1 35465:1 35483:1 35485:1 35490:1 35580:1 35591:1 35634:1 35644:1 35665:1 35678:1 35683:1 35698:1 #
0.0032389406439973299038637133406837 145:1 653:1 1080:1 1773:1 1845:1 2566:1 2726:1 2800:1 2854:1 3244:1 3406:1 4850:1 4870:1 5394:1 6275:1 7726:1 9306:1 13479:1 13549:1 13829:1 28626:1 28651:1 28657:1 28670:1 28674:1 28696:1 28712:1 28809:1 28817:1 28849:1 28850:1 28869:1 28905:1 28907:1 28910:1 28926:1 28934:1 29007:1 29011:1 29076:1 29092:1 29117:1 29184:1 29219:1 29226:1 29229:1 29253:1 29292:1 29346:1 29358:1 29395:1 29405:1 29410:1 29430:1 29431:1 29432:1 29464:1 29467:1 29497:1 29518:1 29597:1 29643:1 29689:1 29696:1 29732:1 29783:1 29811:1 29815:1 29829:1 29837:1 29838:1 29851:1 29869:1 29874:1 29888:1 29903:1 29919:1 29940:1 29957:1 29966:1 29974:1 29977:1 30055:1 30084:1 30106:1 30127:1 30133:1 30270:1 30275:1 30311:1 30327:1 30409:1 30410:1 30454:1 30457:1 30458:1 30563:1 30587:1 30592:1 30608:1 30655:1 30658:1 30717:1 30719:1 30722:1 30772:1 30848:1 30852:1 30890:1 30899:1 30900:1 30925:1 30944:1 30946:1 30951:1 30953:1 30970:1 31079:1 31181:1 31214:1 31239:1 31280:1 31329:1 31330:1 31336:1 31344:1 31354:1 31414:1 31520:1 31531:1 31548:1 31572:1 31590:1 31595:1 31597:1 31624:1 31669:1 31675:1 31700:1 31740:1 31749:1 31773:1 31841:1 31884:1 31889:1 31894:1 31902:1 31910:1 31913:1 31917:1 31929:1 31955:1 31960:1 31983:1 31992:1 32038:1 32042:1 32049:1 32087:1 32104:1 32117:1 32137:1 32142:1 32144:1 32151:1 32200:1 32203:1 32232:1 32271:1 32306:1 32313:1 32340:1 32358:1 32375:1 32426:1 32427:1 32430:1 32460:1 32464:1 32471:1 32501:1 32594:1 32613:1 32679:1 32682:1 32689:1 32711:1 32725:1 32726:1 32743:1 32744:1 32748:1 32756:1 32829:1 32837:1 32841:1 32864:1 32920:1 32940:1 32951:1 33030:1 33046:1 33130:1 33147:1 33176:1 33185:1 33231:1 33264:1 33267:1 33290:1 33305:1 33354:1 33391:1 33392:1 33395:1 33413:1 33440:1 33526:1 33553:1 33558:1 33596:1 33636:1 33685:1 33713:1 33714:1 33722:1 33795:1 33821:1 33827:1 33867:1 33893:1 33903:1 33918:1 33958:1 33986:1 34008:1 34013:1 34019:1 34031:1 34041:1 34054:1 34130:1 34136:1 34195:1 34202:1 34255:1 34275:1 34369:1 34396:1 34455:1 34463:1 34468:1 34504:1 34515:1 34542:1 34612:1 34620:1 34637:1 34709:1 34729:1 34739:1 34765:1 34779:1 34789:1 34821:1 34825:1 34828:1 34890:1 34912:1 34924:1 34940:1 34952:1 34976:1 34992:1 35004:1 35008:1 35055:1 35136:1 35250:1 35292:1 35306:1 35336:1 35358:1 35370:1 35374:1 35444:1 35460:1 35462:1 35465:1 35485:1 35490:1 35515:1 35522:1 35591:1 35624:1 35672:1 35678:1 35681:1 #
0.0011416849998959765783573816477769 485:1 1195:1 2466:1 3361:1 4312:1 4577:1 8628:1 9396:1 10230:1 11212:1 11414:1 11564:1 12677:1 12931:1 13222:1 28582:1 28590:1 28608:1 28620:1 28636:1 28697:1 28817:1 28825:1 28849:1 28850:1 28876:1 28934:1 28945:1 28974:1 28994:1 29011:1 29064:1 29076:1 29109:1 29123:1 29184:1 29195:1 29229:1 29231:1 29287:1 29290:1 29328:1 29405:1 29430:1 29431:1 29432:1 29464:1 29472:1 29479:1 29497:1 29518:1 29533:1 29549:1 29572:1 29583:1 29586:1 29612:1 29643:1 29725:1 29733:1 29746:1 29796:1 29815:1 29829:1 29838:1 30039:1 30057:1 30125:1 30199:1 30235:1 30247:1 30277:1 30336:1 30417:1 30429:1 30457:1 30505:1 30506:1 30513:1 30531:1 30563:1 30628:1 30645:1 30658:1 30724:1 30791:1 30848:1 30852:1 30873:1 30901:1 30951:1 30970:1 30992:1 31151:1 31197:1 31246:1 31294:1 31329:1 31360:1 31383:1 31475:1 31511:1 31531:1 31566:1 31595:1 31665:1 31675:1 31703:1 31800:1 31809:1 31856:1 31884:1 31910:1 31987:1 32035:1 32077:1 32114:1 32144:1 32232:1 32259:1 32292:1 32376:1 32426:1 32427:1 32430:1 32471:1 32477:1 32589:1 32684:1 32689:1 32711:1 32728:1 32749:1 32919:1 32930:1 32939:1 32954:1 33039:1 33070:1 33105:1 33110:1 33161:1 33185:1 33448:1 33483:1 33488:1 33604:1 33618:1 33628:1 33827:1 33841:1 33918:1 33981:1 34000:1 34130:1 34150:1 34153:1 34169:1 34202:1 34205:1 34248:1 34284:1 34293:1 34306:1 34417:1 34430:1 34454:1 34612:1 34624:1 34625:1 34680:1 34763:1 34821:1 34825:1 34890:1 35019:1 35056:1 35057:1 35085:1 35114:1 35177:1 35350:1 35370:1 35374:1 35397:1 35444:1 35485:1 35527:1 35591:1 35646:1 35658:1 #
0.0021688429807935204370050730204866 2414:1 3250:1 4920:1 6849:1 9735:1 10744:1 12554:1 12716:1 28633:1 28644:1 28647:1 28663:1 28759:1 28778:1 28790:1 28809:1 28817:1 28832:1 28835:1 28849:1 28876:1 28926:1 28934:1 29007:1 29184:1 29253:1 29265:1 29325:1 29341:1 29405:1 29430:1 29431:1 29464:1 29483:1 29497:1 29507:1 29597:1 29622:1 29643:1 29689:1 29696:1 29702:1 29770:1 29772:1 29815:1 29838:1 29851:1 29852:1 29866:1 29894:1 29930:1 29956:1 29977:1 30039:1 30055:1 30068:1 30131:1 30133:1 30138:1 30155:1 30247:1 30351:1 30391:1 30447:1 30464:1 30543:1 30570:1 30576:1 30658:1 30753:1 30928:1 30970:1 31001:1 31005:1 31140:1 31214:1 31259:1 31297:1 31329:1 31571:1 31597:1 31688:1 31693:1 31774:1 31884:1 31885:1 31928:1 31994:1 32101:1 32104:1 32112:1 32144:1 32147:1 32171:1 32205:1 32225:1 32232:1 32238:1 32247:1 32271:1 32288:1 32292:1 32375:1 32426:1 32427:1 32430:1 32459:1 32524:1 32614:1 32640:1 32684:1 32707:1 32890:1 32930:1 32956:1 32979:1 33046:1 33120:1 33130:1 33139:1 33155:1 33159:1 33161:1 33187:1 33232:1 33241:1 33264:1 33280:1 33290:1 33304:1 33339:1 33440:1 33442:1 33713:1 33716:1 33765:1 33827:1 33861:1 33918:1 33930:1 33936:1 33949:1 33955:1 34019:1 34034:1 34047:1 34070:1 34161:1 34200:1 34255:1 34279:1 34284:1 34336:1 34394:1 34396:1 34462:1 34533:1 34570:1 34584:1 34593:1 34612:1 34680:1 34706:1 34710:1 34739:1 34759:1 34765:1 34786:1 34789:1 34820:1 34821:1 34825:1 34841:1 34857:1 34890:1 34896:1 34935:1 34948:1 34981:1 34996:1 35025:1 35055:1 35056:1 35134:1 35136:1 35171:1 35342:1 35444:1 35485:1 35490:1 35543:1 35591:1 35624:1 35634:1 35635:1 #
-0.0032389406439973299038637133406837 3079:1 4035:1 28620:1 28849:1 29253:1 29464:1 29518:1 29977:1 30204:1 30900:1 32426:1 32427:1 33046:1 34612:1 34620:1 34821:1 35515:1 #
-0.0032389406439973299038637133406837 1452:1 2403:1 4240:1 5348:1 8959:1 9382:1 9880:1 11903:1 12301:1 12673:1 28579:1 28644:1 28661:1 28817:1 28841:1 28849:1 28850:1 28902:1 28934:1 29030:1 29057:1 29061:1 29076:1 29341:1 29358:1 29405:1 29430:1 29431:1 29464:1 29503:1 29718:1 29733:1 29815:1 29829:1 29974:1 29977:1 30067:1 30074:1 30092:1 30410:1 30420:1 30443:1 30513:1 30529:1 30658:1 30675:1 30724:1 30725:1 30905:1 31029:1 31238:1 31329:1 31363:1 31447:1 31591:1 31624:1 31662:1 31664:1 31672:1 31753:1 31810:1 31829:1 31884:1 31934:1 31959:1 31992:1 31994:1 32077:1 32144:1 32203:1 32232:1 32277:1 32358:1 32413:1 32420:1 32426:1 32427:1 32428:1 32429:1 32477:1 32494:1 32499:1 32527:1 32548:1 32679:1 32695:1 32753:1 32804:1 32821:1 32856:1 32907:1 33046:1 33200:1 33252:1 33641:1 33677:1 33713:1 33827:1 33861:1 33921:1 33970:1 33976:1 33986:1 34033:1 34121:1 34229:1 34343:1 34389:1 34396:1 34565:1 34606:1 34612:1 34693:1 34821:1 34825:1 34890:1 34937:1 35055:1 35080:1 35114:1 35291:1 35404:1 35580:1 35587:1 35634:1 35678:1 #
-0.0032389406439973299038637133406837 784:1 1411:1 2138:1 3626:1 3723:1 6150:1 6613:1 8751:1 8935:1 9419:1 11251:1 12358:1 28596:1 28620:1 28768:1 28849:1 28856:1 28922:1 28934:1 29025:1 29184:1 29229:1 29304:1 29318:1 29405:1 29408:1 29430:1 29432:1 29464:1 29597:1 29618:1 29667:1 29709:1 29786:1 29825:1 29913:1 29933:1 29977:1 30074:1 30167:1 30386:1 30410:1 30429:1 30441:1 30544:1 30569:1 30587:1 30594:1 30596:1 30658:1 30776:1 30791:1 30832:1 30856:1 30896:1 30970:1 31067:1 31214:1 31227:1 31329:1 31421:1 31480:1 31508:1 31527:1 31595:1 31681:1 31768:1 31877:1 31882:1 31884:1 31992:1 31994:1 32042:1 32082:1 32117:1 32232:1 32248:1 32271:1 32299:1 32375:1 32426:1 32427:1 32430:1 32460:1 32589:1 32601:1 32669:1 32670:1 32689:1 32712:1 32714:1 32743:1 32746:1 33141:1 33186:1 33190:1 33222:1 33266:1 33290:1 33378:1 33386:1 33391:1 33477:1 33592:1 33786:1 33827:1 33893:1 34047:1 34057:1 34058:1 34136:1 34284:1 34396:1 34455:1 34488:1 34609:1 34612:1 34686:1 34754:1 34821:1 34824:1 34825:1 34896:1 34917:1 34965:1 34981:1 35073:1 35114:1 35193:1 35252:1 35292:1 35370:1 35462:1 35485:1 35557:1 35591:1 #
-0.0032389406439973299038637133406837 1829:1 2056:1 2291:1 2495:1 2814:1 3415:1 3866:1 4127:1 4233:1 4326:1 5592:1 8860:1 9109:1 10556:1 10798:1 11300:1 11493:1 11533:1 11580:1 11828:1 11862:1 13166:1 13232:1 13506:1 14147:1 28666:1 28763:1 28786:1 28799:1 28833:1 28849:1 28850:1 28853:1 28868:1 28874:1 28934:1 28971:1 29002:1 29007:1 29076:1 29117:1 29123:1 29167:1 29184:1 29269:1 29355:1 29405:1 29431:1 29455:1 29464:1 29507:1 29696:1 29718:1 29753:1 29785:1 29815:1 29831:1 29930:1 29977:1 29993:1 30095:1 30150:1 30151:1 30293:1 30505:1 30609:1 30616:1 30658:1 30753:1 30791:1 30874:1 30900:1 31049:1 31129:1 31247:1 31270:1 31329:1 31336:1 31365:1 31398:1 31493:1 31508:1 31550:1 31567:1 31581:1 31716:1 31884:1 31896:1 31959:1 32006:1 32027:1 32037:1 32042:1 32077:1 32085:1 32186:1 32216:1 32232:1 32251:1 32288:1 32320:1 32395:1 32426:1 32430:1 32541:1 32548:1 32614:1 32644:1 32684:1 32702:1 32719:1 32735:1 32775:1 32779:1 32816:1 32830:1 32891:1 32941:1 33187:1 33231:1 33392:1 33450:1 33466:1 33472:1 33545:1 33649:1 33653:1 33672:1 33763:1 33822:1 33827:1 33841:1 33861:1 33895:1 33902:1 33918:1 33921:1 33963:1 34008:1 34036:1 34072:1 34130:1 34161:1 34186:1 34196:1 34234:1 34263:1 34382:1 34397:1 34439:1 34505:1 34612:1 34680:1 34768:1 34788:1 34821:1 34825:1 34890:1 34973:1 34983:1 34989:1 34994:1 35003:1 35052:1 35055:1 35056:1 35071:1 35103:1 35114:1 35119:1 35136:1 35138:1 35171:1 35291:1 35309:1 35326:1 35370:1 35471:1 35490:1 35635:1 #
-0.0032389406439973299038637133406837 6750:1 7230:1 10734:1 28590:1 28849:1 28934:1 29012:1 29206:1 29229:1 29269:1 29315:1 29358:1 29405:1 29419:1 29432:1 29464:1 29518:1 29572:1 29685:1 29851:1 29977:1 30048:1 30063:1 30410:1 30454:1 30485:1 30487:1 30513:1 30658:1 30719:1 30838:1 30911:1 31021:1 31181:1 31218:1 31239:1 31329:1 31415:1 31465:1 31527:1 31528:1 31749:1 31884:1 31992:1 31994:1 32035:1 32042:1 32149:1 32200:1 32232:1 32426:1 32427:1 32430:1 32434:1 32436:1 32724:1 32755:1 32841:1 32898:1 33034:1 33165:1 33337:1 33491:1 33494:1 33556:1 33673:1 33713:1 33827:1 33843:1 33861:1 33877:1 33916:1 34019:1 34068:1 34090:1 34141:1 34255:1 34305:1 34331:1 34542:1 34571:1 34612:1 34754:1 34766:1 34821:1 34825:1 34890:1 34924:1 34994:1 35056:1 35065:1 35370:1 35372:1 35399:1 35418:1 35452:1 35465:1 35523:1 35545:1 #
0.0018036277689345001952470060047062 148:1 1113:1 1405:1 1906:1 2091:1 2736:1 2938:1 3252:1 3380:1 3825:1 3987:1 4245:1 4696:1 5396:1 5968:1 6056:1 6069:1 6305:1 6477:1 7110:1 7607:1 8382:1 8544:1 9135:1 9173:1 9208:1 9297:1 9411:1 9425:1 9570:1 9588:1 10375:1 10419:1 10620:1 10691:1 10715:1 11072:1 11338:1 11542:1 11809:1 12103:1 12109:1 12882:1 12952:1 13224:1 13795:1 13843:1 14079:1 14171:1 28575:1 28596:1 28606:1 28619:1 28633:1 28636:1 28648:1 28657:1 28691:1 28712:1 28793:1 28810:1 28814:1 28817:1 28832:1 28837:1 28849:1 28850:1 28860:1 28885:1 28896:1 28898:1 28902:1 28907:1 28933:1 28934:1 28948:1 28962:1 28976:1 29004:1 29011:1 29076:1 29087:1 29109:1 29117:1 29119:1 29124:1 29184:1 29187:1 29215:1 29229:1 29278:1 29280:1 29312:1 29318:1 29322:1 29336:1 29346:1 29405:1 29430:1 29432:1 29464:1 29465:1 29469:1 29481:1 29488:1 29497:1 29507:1 29518:1 29522:1 29572:1 29592:1 29593:1 29596:1 29606:1 29613:1 29624:1 29643:1 29658:1 29685:1 29689:1 29730:1 29731:1 29733:1 29783:1 29829:1 29830:1 29838:1 29851:1 29852:1 29867:1 29884:1 29897:1 29919:1 29940:1 29961:1 29967:1 29973:1 29977:1 30000:1 30036:1 30061:1 30067:1 30074:1 30123:1 30138:1 30155:1 30180:1 30183:1 30238:1 30241:1 30247:1 30255:1 30263:1 30277:1 30288:1 30289:1 30325:1 30338:1 30372:1 30427:1 30429:1 30457:1 30458:1 30464:1 30505:1 30521:1 30524:1 30537:1 30543:1 30592:1 30621:1 30646:1 30658:1 30664:1 30673:1 30708:1 30719:1 30724:1 30725:1 30804:1 30808:1 30890:1 30900:1 30901:1 30911:1 30968:1 30970:1 31023:1 31033:1 31079:1 31181:1 31187:1 31211:1 31225:1 31238:1 31256:1 31265:1 31270:1 31284:1 31294:1 31298:1 31329:1 31336:1 31394:1 31398:1 31402:1 31430:1 31475:1 31507:1 31531:1 31543:1 31550:1 31584:1 31595:1 31619:1 31622:1 31663:1 31675:1 31697:1 31703:1 31711:1 31730:1 31732:1 31787:1 31790:1 31795:1 31808:1 31835:1 31855:1 31859:1 31864:1 31878:1 31881:1 31884:1 31926:1 31943:1 31944:1 31992:1 32025:1 32035:1 32042:1 32046:1 32077:1 32124:1 32144:1 32149:1 32151:1 32157:1 32196:1 32200:1 32204:1 32214:1 32218:1 32221:1 32223:1 32230:1 32231:1 32232:1 32277:1 32284:1 32288:1 32375:1 32387:1 32397:1 32419:1 32423:1 32424:1 32426:1 32427:1 32430:1 32434:1 32436:1 32459:1 32465:1 32467:1 32477:1 32524:1 32560:1 32586:1 32600:1 32605:1 32614:1 32641:1 32652:1 32661:1 32675:1 32689:1 32738:1 32743:1 32746:1 32752:1 32753:1 32767:1 32802:1 32822:1 32828:1 32836:1 32864:1 32915:1 32950:1 32951:1 32979:1 32988:1 33006:1 33046:1 33049:1 33073:1 33126:1 33147:1 33161:1 33190:1 33214:1 33279:1 33290:1 33292:1 33294:1 33297:1 33396:1 33403:1 33430:1 33448:1 33490:1 33519:1 33533:1 33576:1 33621:1 33625:1 33630:1 33632:1 33652:1 33692:1 33711:1 33713:1 33733:1 33754:1 33799:1 33827:1 33861:1 33893:1 33894:1 33903:1 33918:1 33965:1 33969:1 33987:1 34004:1 34008:1 34019:1 34029:1 34035:1 34036:1 34041:1 34087:1 34092:1 34102:1 34116:1 34130:1 34138:1 34169:1 34173:1 34202:1 34244:1 34255:1 34284:1 34286:1 34295:1 34310:1 34315:1 34320:1 34325:1 34331:1 34355:1 34358:1 34376:1 34394:1 34396:1 34402:1 34411:1 34413:1 34418:1 34476:1 34522:1 34532:1 34548:1 34570:1 34612:1 34639:1 34664:1 34676:1 34710:1 34716:1 34729:1 34739:1 34754:1 34765:1 34806:1 34810:1 34821:1 34825:1 34885:1 34912:1 34958:1 34981:1 34994:1 34996:1 35041:1 35056:1 35062:1 35066:1 35090:1 35097:1 35102:1 35114:1 35119:1 35127:1 35136:1 35153:1 35161:1 35174:1 35318:1 35345:1 35366:1 35370:1 35391:1 35404:1 35443:1 35444:1 35465:1 35485:1 35488:1 35490:1 35491:1 35509:1 35510:1 35513:1 35623:1 35634:1 35658:1 35665:1 35698:1 #
-0.0029571972122094743358478030614833 144:1 1525:1 2954:1 3587:1 4714:1 9027:1 9320:1 10566:1 11131:1 11702:1 13517:1 28608:1 28620:1 28715:1 28717:1 28810:1 28814:1 28817:1 28849:1 28902:1 28907:1 28926:1 28934:1 28965:1 28974:1 28994:1 29007:1 29037:1 29065:1 29076:1 29079:1 29109:1 29115:1 29117:1 29184:1 29191:1 29217:1 29219:1 29253:1 29292:1 29318:1 29330:1 29347:1 29352:1 29381:1 29395:1 29405:1 29411:1 29431:1 29432:1 29434:1 29453:1 29464:1 29518:1 29591:1 29597:1 29618:1 29689:1 29696:1 29733:1 29754:1 29774:1 29793:1 29815:1 29836:1 29867:1 29868:1 29940:1 29949:1 29974:1 29977:1 30010:1 30011:1 30042:1 30067:1 30092:1 30138:1 30277:1 30393:1 30409:1 30439:1 30458:1 30464:1 30515:1 30543:1 30616:1 30631:1 30658:1 30684:1 30694:1 30719:1 30722:1 30724:1 30776:1 30838:1 30848:1 30890:1 30900:1 30901:1 30962:1 30970:1 31023:1 31049:1 31056:1 31104:1 31126:1 31136:1 31169:1 31188:1 31189:1 31214:1 31238:1 31321:1 31329:1 31336:1 31344:1 31371:1 31392:1 31447:1 31497:1 31560:1 31595:1 31613:1 31630:1 31675:1 31698:1 31736:1 31737:1 31790:1 31795:1 31805:1 31854:1 31875:1 31884:1 31895:1 31902:1 31931:1 31934:1 31992:1 32077:1 32098:1 32128:1 32138:1 32144:1 32151:1 32182:1 32200:1 32230:1 32232:1 32234:1 32237:1 32247:1 32292:1 32299:1 32313:1 32314:1 32358:1 32371:1 32375:1 32399:1 32408:1 32426:1 32427:1 32429:1 32430:1 32434:1 32436:1 32460:1 32477:1 32479:1 32499:1 32524:1 32594:1 32600:1 32620:1 32660:1 32688:1 32711:1 32744:1 32758:1 32793:1 32795:1 32841:1 32864:1 32900:1 32907:1 32930:1 33011:1 33046:1 33051:1 33104:1 33107:1 33128:1 33138:1 33158:1 33165:1 33186:1 33190:1 33196:1 33215:1 33222:1 33223:1 33267:1 33284:1 33290:1 33305:1 33359:1 33361:1 33391:1 33440:1 33501:1 33539:1 33569:1 33601:1 33713:1 33749:1 33799:1 33827:1 33840:1 33861:1 33879:1 33890:1 33893:1 33894:1 33909:1 33918:1 34019:1 34041:1 34050:1 34054:1 34062:1 34091:1 34109:1 34127:1 34130:1 34166:1 34169:1 34202:1 34207:1 34245:1 34255:1 34389:1 34394:1 34404:1 34410:1 34416:1 34465:1 34497:1 34612:1 34643:1 34666:1 34673:1 34731:1 34734:1 34739:1 34765:1 34821:1 34825:1 34828:1 34841:1 34847:1 34852:1 34863:1 34890:1 34912:1 34916:1 34958:1 35045:1 35056:1 35099:1 35114:1 35119:1 35131:1 35135:1 35136:1 35161:1 35177:1 35278:1 35307:1 35343:1 35370:1 35377:1 35391:1 35444:1 35465:1 35485:1 35490:1 35491:1 35542:1 35546:1 35561:1 35580:1 35608:1 35619:1 35634:1 35683:1 35687:1 35698:1 35708:1 #
0.003130746451249142442430084543048 610:1 644:1 721:1 1074:1 1134:1 1653:1 2409:1 2667:1 2969:1 3095:1 3218:1 3283:1 4000:1 4051:1 4176:1 4207:1 4291:1 4736:1 4919:1 4953:1 5219:1 7499:1 7586:1 8090:1 8348:1 8929:1 9114:1 9177:1 9786:1 9821:1 9916:1 10588:1 10613:1 11121:1 11772:1 11914:1 12021:1 12362:1 12415:1 12589:1 12677:1 13262:1 13267:1 13679:1 13742:1 13886:1 13893:1 28596:1 28608:1 28621:1 28624:1 28636:1 28644:1 28646:1 28653:1 28663:1 28738:1 28744:1 28780:1 28792:1 28793:1 28806:1 28817:1 28823:1 28849:1 28850:1 28852:1 28861:1 28869:1 28875:1 28881:1 28899:1 28902:1 28906:1 28907:1 28910:1 28934:1 28944:1 28950:1 28951:1 28969:1 28976:1 28992:1 29007:1 29011:1 29056:1 29074:1 29076:1 29099:1 29109:1 29117:1 29123:1 29124:1 29184:1 29217:1 29219:1 29220:1 29229:1 29275:1 29287:1 29313:1 29322:1 29341:1 29388:1 29405:1 29430:1 29431:1 29432:1 29464:1 29478:1 29485:1 29488:1 29507:1 29518:1 29529:1 29531:1 29586:1 29597:1 29645:1 29653:1 29689:1 29696:1 29727:1 29759:1 29770:1 29799:1 29815:1 29822:1 29829:1 29838:1 29839:1 29851:1 29852:1 29857:1 29884:1 29897:1 29914:1 29943:1 29957:1 29977:1 30007:1 30013:1 30018:1 30030:1 30040:1 30042:1 30047:1 30053:1 30055:1 30067:1 30069:1 30074:1 30106:1 30130:1 30138:1 30155:1 30203:1 30238:1 30257:1 30268:1 30277:1 30332:1 30334:1 30387:1 30400:1 30410:1 30429:1 30443:1 30461:1 30464:1 30470:1 30476:1 30479:1 30505:1 30513:1 30521:1 30538:1 30543:1 30561:1 30578:1 30581:1 30590:1 30592:1 30599:1 30645:1 30658:1 30680:1 30693:1 30719:1 30721:1 30722:1 30724:1 30736:1 30743:1 30767:1 30779:1 30783:1 30784:1 30810:1 30811:1 30824:1 30826:1 30848:1 30858:1 30899:1 30900:1 30911:1 30930:1 30934:1 30962:1 30970:1 30982:1 31023:1 31031:1 31061:1 31077:1 31079:1 31090:1 31103:1 31126:1 31132:1 31139:1 31206:1 31209:1 31234:1 31238:1 31294:1 31329:1 31336:1 31340:1 31357:1 31363:1 31389:1 31391:1 31392:1 31397:1 31429:1 31448:1 31456:1 31461:1 31462:1 31465:1 31470:1 31475:1 31497:1 31520:1 31524:1 31528:1 31531:1 31541:1 31552:1 31563:1 31583:1 31585:1 31595:1 31597:1 31628:1 31668:1 31692:1 31697:1 31698:1 31701:1 31703:1 31737:1 31752:1 31779:1 31787:1 31802:1 31805:1 31854:1 31884:1 31885:1 31888:1 31929:1 31934:1 31951:1 31992:1 31994:1 31999:1 32016:1 32023:1 32025:1 32028:1 32042:1 32059:1 32077:1 32098:1 32104:1 32138:1 32144:1 32167:1 32196:1 32203:1 32204:1 32211:1 32229:1 32232:1 32271:1 32299:1 32310:1 32353:1 32358:1 32368:1 32380:1 32387:1 32395:1 32397:1 32399:1 32426:1 32427:1 32430:1 32434:1 32436:1 32441:1 32459:1 32460:1 32477:1 32506:1 32526:1 32539:1 32561:1 32589:1 32594:1 32605:1 32627:1 32628:1 32638:1 32649:1 32660:1 32663:1 32684:1 32692:1 32705:1 32707:1 32728:1 32743:1 32744:1 32754:1 32755:1 32767:1 32804:1 32809:1 32810:1 32813:1 32821:1 32828:1 32838:1 32841:1 32844:1 32915:1 32931:1 32979:1 32980:1 33044:1 33046:1 33049:1 33058:1 33104:1 33138:1 33177:1 33190:1 33218:1 33222:1 33231:1 33257:1 33290:1 33298:1 33324:1 33345:1 33351:1 33358:1 33403:1 33413:1 33436:1 33445:1 33459:1 33476:1 33483:1 33498:1 33501:1 33525:1 33539:1 33546:1 33630:1 33636:1 33643:1 33647:1 33651:1 33691:1 33713:1 33735:1 33737:1 33799:1 33810:1 33827:1 33861:1 33862:1 33867:1 33882:1 33883:1 33893:1 33918:1 33925:1 33936:1 33937:1 33960:1 33971:1 34009:1 34019:1 34034:1 34045:1 34080:1 34086:1 34099:1 34105:1 34109:1 34111:1 34130:1 34148:1 34169:1 34205:1 34212:1 34235:1 34238:1 34251:1 34255:1 34256:1 34284:1 34312:1 34325:1 34336:1 34338:1 34355:1 34387:1 34391:1 34394:1 34396:1 34402:1 34437:1 34440:1 34477:1 34478:1 34504:1 34511:1 34526:1 34530:1 34535:1 34542:1 34562:1 34569:1 34570:1 34572:1 34593:1 34601:1 34612:1 34620:1 34631:1 34678:1 34690:1 34729:1 34734:1 34739:1 34754:1 34788:1 34820:1 34821:1 34825:1 34828:1 34835:1 34841:1 34844:1 34885:1 34890:1 34912:1 34973:1 34974:1 34976:1 34988:1 34994:1 35004:1 35016:1 35041:1 35045:1 35056:1 35057:1 35066:1 35099:1 35101:1 35114:1 35119:1 35128:1 35131:1 35136:1 35161:1 35174:1 35250:1 35281:1 35284:1 35292:1 35313:1 35370:1 35391:1 35404:1 35444:1 35462:1 35465:1 35485:1 35490:1 35491:1 35501:1 35546:1 35561:1 35580:1 35587:1 35591:1 35604:1 35619:1 35634:1 35667:1 35678:1 35698:1 35701:1 #
0.0012859225646669109922870521955929 369:1 370:1 416:1 779:1 939:1 984:1 1119:1 1167:1 1331:1 1890:1 1907:1 1964:1 2077:1 2174:1 2217:1 2260:1 2391:1 2710:1 2827:1 2837:1 2889:1 2909:1 2917:1 3089:1 3462:1 3585:1 3722:1 3931:1 3982:1 4011:1 4073:1 4246:1 4467:1 4785:1 5193:1 5208:1 5349:1 5357:1 6033:1 6060:1 6197:1 6246:1 6536:1 6909:1 7143:1 7465:1 7476:1 7545:1 7586:1 7965:1 8328:1 8481:1 8519:1 8789:1 8804:1 8814:1 9111:1 9151:1 9377:1 10045:1 10086:1 10205:1 10279:1 10468:1 10805:1 10846:1 11038:1 11228:1 11524:1 11567:1 11693:1 11992:1 12135:1 12566:1 12996:1 13080:1 13340:1 13582:1 13735:1 13901:1 14138:1 28586:1 28608:1 28620:1 28633:1 28636:1 28657:1 28661:1 28663:1 28672:1 28703:1 28746:1 28747:1 28774:1 28793:1 28809:1 28814:1 28823:1 28849:1 28850:1 28853:1 28869:1 28876:1 28884:1 28902:1 28907:1 28910:1 28916:1 28917:1 28934:1 28945:1 28986:1 28992:1 28993:1 28994:1 29003:1 29007:1 29056:1 29065:1 29072:1 29075:1 29076:1 29081:1 29087:1 29108:1 29109:1 29117:1 29129:1 29169:1 29177:1 29178:1 29184:1 29219:1 29223:1 29253:1 29259:1 29261:1 29269:1 29277:1 29287:1 29288:1 29289:1 29292:1 29312:1 29313:1 29346:1 29358:1 29374:1 29378:1 29395:1 29405:1 29406:1 29408:1 29412:1 29419:1 29427:1 29430:1 29431:1 29432:1 29463:1 29464:1 29483:1 29507:1 29518:1 29522:1 29531:1 29553:1 29569:1 29572:1 29591:1 29593:1 29597:1 29627:1 29643:1 29667:1 29674:1 29685:1 29687:1 29696:1 29708:1 29710:1 29711:1 29729:1 29766:1 29784:1 29787:1 29791:1 29793:1 29808:1 29815:1 29823:1 29829:1 29838:1 29846:1 29851:1 29852:1 29859:1 29895:1 29897:1 29974:1 29977:1 29981:1 29999:1 30000:1 30018:1 30025:1 30044:1 30047:1 30048:1 30067:1 30068:1 30074:1 30105:1 30110:1 30131:1 30145:1 30173:1 30185:1 30191:1 30220:1 30232:1 30247:1 30263:1 30306:1 30351:1 30355:1 30365:1 30371:1 30373:1 30378:1 30398:1 30400:1 30410:1 30423:1 30429:1 30444:1 30457:1 30458:1 30464:1 30475:1 30521:1 30527:1 30543:1 30554:1 30563:1 30577:1 30592:1 30616:1 30621:1 30637:1 30645:1 30658:1 30667:1 30670:1 30719:1 30722:1 30724:1 30726:1 30755:1 30759:1 30771:1 30790:1 30791:1 30801:1 30822:1 30834:1 30836:1 30848:1 30873:1 30879:1 30883:1 30885:1 30897:1 30900:1 30906:1 30957:1 30968:1 30970:1 31003:1 31023:1 31029:1 31050:1 31056:1 31061:1 31069:1 31079:1 31113:1 31137:1 31157:1 31166:1 31182:1 31188:1 31196:1 31207:1 31214:1 31217:1 31238:1 31298:1 31304:1 31305:1 31329:1 31347:1 31388:1 31396:1 31447:1 31475:1 31489:1 31502:1 31520:1 31530:1 31531:1 31532:1 31565:1 31581:1 31585:1 31595:1 31597:1 31639:1 31659:1 31675:1 31698:1 31703:1 31708:1 31730:1 31737:1 31741:1 31775:1 31780:1 31783:1 31787:1 31793:1 31799:1 31833:1 31861:1 31867:1 31874:1 31884:1 31907:1 31948:1 31976:1 31982:1 31984:1 31992:1 31994:1 32055:1 32077:1 32083:1 32110:1 32132:1 32135:1 32137:1 32157:1 32162:1 32166:1 32196:1 32200:1 32220:1 32232:1 32259:1 32284:1 32296:1 32299:1 32310:1 32313:1 32317:1 32323:1 32358:1 32368:1 32371:1 32399:1 32409:1 32426:1 32427:1 32430:1 32434:1 32436:1 32442:1 32460:1 32470:1 32471:1 32477:1 32512:1 32522:1 32524:1 32535:1 32548:1 32586:1 32595:1 32600:1 32610:1 32621:1 32627:1 32682:1 32684:1 32688:1 32689:1 32705:1 32707:1 32717:1 32744:1 32746:1 32753:1 32786:1 32804:1 32821:1 32823:1 32829:1 32830:1 32834:1 32838:1 32844:1 32865:1 32907:1 32924:1 32930:1 32931:1 32951:1 32964:1 32995:1 33007:1 33010:1 33046:1 33056:1 33061:1 33104:1 33130:1 33138:1 33143:1 33161:1 33190:1 33223:1 33238:1 33249:1 33256:1 33257:1 33264:1 33269:1 33273:1 33284:1 33285:1 33290:1 33294:1 33337:1 33353:1 33354:1 33358:1 33425:1 33429:1 33436:1 33465:1 33467:1 33552:1 33560:1 33565:1 33568:1 33601:1 33609:1 33619:1 33628:1 33636:1 33648:1 33652:1 33704:1 33713:1 33714:1 33729:1 33750:1 33758:1 33763:1 33769:1 33779:1 33799:1 33808:1 33827:1 33837:1 33861:1 33867:1 33873:1 33874:1 33893:1 33905:1 33918:1 33946:1 33971:1 33976:1 33988:1 33992:1 34010:1 34019:1 34031:1 34041:1 34047:1 34068:1 34074:1 34120:1 34127:1 34130:1 34155:1 34169:1 34170:1 34174:1 34195:1 34202:1 34205:1 34211:1 34230:1 34244:1 34247:1 34255:1 34257:1 34272:1 34275:1 34290:1 34306:1 34336:1 34349:1 34375:1 34379:1 34388:1 34391:1 34396:1 34404:1 34409:1 34447:1 34455:1 34485:1 34504:1 34530:1 34532:1 34549:1 34558:1 34592:1 34593:1 34606:1 34612:1 34619:1 34638:1 34659:1 34673:1 34732:1 34733:1 34734:1 34739:1 34740:1 34750:1 34754:1 34762:1 34781:1 34788:1 34791:1 34800:1 34821:1 34825:1 34841:1 34846:1 34849:1 34871:1 34890:1 34901:1 34935:1 34951:1 34956:1 34967:1 34971:1 34976:1 34981:1 34999:1 35004:1 35008:1 35052:1 35055:1 35056:1 35057:1 35061:1 35062:1 35072:1 35114:1 35119:1 35130:1 35132:1 35136:1 35161:1 35214:1 35216:1 35225:1 35241:1 35242:1 35244:1 35265:1 35278:1 35326:1 35353:1 35370:1 35383:1 35388:1 35391:1 35409:1 35418:1 35419:1 35432:1 35443:1 35444:1 35462:1 35465:1 35485:1 35490:1 35491:1 35496:1 35546:1 35556:1 35558:1 35580:1 35591:1 35624:1 35665:1 35698:1 35701:1 35703:1 #
-0.0013773051010583048456986654528578 655:1 1032:1 1234:1 1336:1 1394:1 1451:1 1466:1 1777:1 2550:1 2626:1 2728:1 2943:1 3612:1 3971:1 4012:1 5285:1 6584:1 6897:1 7419:1 7461:1 7548:1 7920:1 8594:1 8714:1 8989:1 9464:1 10113:1 10469:1 11149:1 11605:1 11667:1 11734:1 12211:1 12241:1 12836:1 13322:1 13619:1 13917:1 14172:1 28588:1 28590:1 28608:1 28672:1 28674:1 28684:1 28698:1 28703:1 28777:1 28791:1 28793:1 28817:1 28849:1 28850:1 28859:1 28907:1 28934:1 28940:1 28971:1 28976:1 29007:1 29011:1 29055:1 29065:1 29076:1 29117:1 29123:1 29124:1 29150:1 29184:1 29231:1 29233:1 29244:1 29246:1 29269:1 29280:1 29287:1 29289:1 29304:1 29306:1 29318:1 29336:1 29345:1 29352:1 29355:1 29385:1 29395:1 29405:1 29419:1 29430:1 29431:1 29432:1 29442:1 29463:1 29464:1 29466:1 29467:1 29507:1 29518:1 29526:1 29537:1 29540:1 29549:1 29586:1 29597:1 29613:1 29617:1 29669:1 29685:1 29689:1 29696:1 29698:1 29706:1 29731:1 29746:1 29768:1 29770:1 29798:1 29815:1 29829:1 29837:1 29851:1 29873:1 29884:1 29940:1 29966:1 29977:1 30020:1 30034:1 30074:1 30180:1 30277:1 30288:1 30309:1 30314:1 30336:1 30410:1 30421:1 30457:1 30458:1 30464:1 30498:1 30505:1 30521:1 30534:1 30540:1 30543:1 30550:1 30563:1 30576:1 30580:1 30625:1 30647:1 30655:1 30658:1 30677:1 30684:1 30693:1 30719:1 30721:1 30722:1 30724:1 30787:1 30798:1 30848:1 30861:1 30876:1 30900:1 30911:1 30934:1 30952:1 30970:1 31002:1 31050:1 31053:1 31061:1 31068:1 31125:1 31126:1 31133:1 31146:1 31173:1 31189:1 31197:1 31238:1 31257:1 31262:1 31277:1 31329:1 31342:1 31344:1 31374:1 31392:1 31397:1 31531:1 31571:1 31583:1 31595:1 31668:1 31679:1 31688:1 31703:1 31737:1 31793:1 31799:1 31832:1 31836:1 31844:1 31884:1 31902:1 31909:1 31931:1 31944:1 31976:1 31992:1 32026:1 32028:1 32042:1 32069:1 32077:1 32083:1 32144:1 32157:1 32180:1 32185:1 32203:1 32220:1 32222:1 32230:1 32232:1 32234:1 32266:1 32274:1 32292:1 32354:1 32358:1 32369:1 32375:1 32382:1 32426:1 32427:1 32430:1 32434:1 32436:1 32443:1 32450:1 32467:1 32471:1 32477:1 32494:1 32525:1 32536:1 32548:1 32586:1 32610:1 32612:1 32614:1 32638:1 32682:1 32689:1 32696:1 32744:1 32747:1 32756:1 32763:1 32767:1 32786:1 32796:1 32804:1 32823:1 32829:1 32907:1 32930:1 32964:1 33005:1 33034:1 33043:1 33046:1 33061:1 33127:1 33130:1 33154:1 33167:1 33187:1 33190:1 33209:1 33222:1 33290:1 33303:1 33326:1 33332:1 33379:1 33390:1 33391:1 33436:1 33445:1 33458:1 33462:1 33466:1 33478:1 33542:1 33543:1 33560:1 33586:1 33616:1 33634:1 33713:1 33716:1 33729:1 33731:1 33799:1 33827:1 33841:1 33852:1 33854:1 33861:1 33893:1 33894:1 33913:1 33918:1 33930:1 33962:1 33965:1 33972:1 33979:1 33988:1 33989:1 33996:1 34016:1 34034:1 34040:1 34041:1 34068:1 34086:1 34111:1 34129:1 34130:1 34144:1 34151:1 34169:1 34265:1 34274:1 34279:1 34283:1 34284:1 34335:1 34394:1 34396:1 34397:1 34515:1 34530:1 34553:1 34580:1 34591:1 34593:1 34606:1 34612:1 34658:1 34665:1 34666:1 34676:1 34698:1 34733:1 34754:1 34777:1 34779:1 34785:1 34807:1 34821:1 34825:1 34867:1 34912:1 34916:1 34918:1 34924:1 34967:1 34994:1 34999:1 35045:1 35055:1 35056:1 35057:1 35093:1 35114:1 35118:1 35119:1 35136:1 35150:1 35155:1 35206:1 35278:1 35292:1 35301:1 35307:1 35370:1 35374:1 35383:1 35389:1 35404:1 35418:1 35431:1 35444:1 35457:1 35462:1 35465:1 35490:1 35514:1 35557:1 35585:1 35592:1 35623:1 35634:1 35656:1 35667:1 35698:1 #
-0.0032206346795937488940164694639634 338:1 378:1 493:1 674:1 1036:1 1106:1 1496:1 1507:1 1547:1 1936:1 2376:1 2409:1 2584:1 2620:1 2808:1 3344:1 3447:1 3606:1 3632:1 3664:1 3672:1 3851:1 3894:1 4219:1 4288:1 4423:1 4760:1 4928:1 4931:1 4987:1 5744:1 6142:1 6380:1 6468:1 6844:1 7134:1 7321:1 7670:1 8343:1 8908:1 8947:1 8995:1 9051:1 9246:1 9549:1 9793:1 9948:1 10113:1 10191:1 10358:1 10380:1 10385:1 10396:1 10399:1 10602:1 10775:1 11762:1 11860:1 11976:1 12406:1 12589:1 12882:1 12915:1 13036:1 13177:1 13324:1 13345:1 13759:1 13827:1 13829:1 14001:1 14197:1 14240:1 28608:1 28618:1 28620:1 28624:1 28653:1 28660:1 28661:1 28663:1 28669:1 28688:1 28694:1 28720:1 28728:1 28744:1 28772:1 28774:1 28793:1 28795:1 28809:1 28814:1 28817:1 28822:1 28823:1 28847:1 28849:1 28850:1 28862:1 28868:1 28869:1 28870:1 28876:1 28887:1 28902:1 28905:1 28907:1 28926:1 28934:1 28935:1 28961:1 28994:1 29007:1 29011:1 29012:1 29014:1 29033:1 29038:1 29055:1 29056:1 29065:1 29076:1 29078:1 29079:1 29117:1 29123:1 29124:1 29156:1 29180:1 29184:1 29188:1 29191:1 29201:1 29204:1 29224:1 29226:1 29227:1 29229:1 29234:1 29236:1 29269:1 29280:1 29284:1 29287:1 29289:1 29292:1 29312:1 29346:1 29347:1 29358:1 29374:1 29380:1 29395:1 29401:1 29405:1 29430:1 29431:1 29432:1 29455:1 29463:1 29464:1 29483:1 29489:1 29497:1 29499:1 29518:1 29528:1 29531:1 29542:1 29551:1 29564:1 29569:1 29572:1 29574:1 29597:1 29643:1 29653:1 29657:1 29685:1 29689:1 29692:1 29696:1 29699:1 29702:1 29709:1 29715:1 29733:1 29753:1 29759:1 29761:1 29769:1 29785:1 29789:1 29815:1 29829:1 29830:1 29838:1 29846:1 29851:1 29867:1 29884:1 29933:1 29940:1 29956:1 29977:1 29994:1 30030:1 30043:1 30052:1 30067:1 30069:1 30074:1 30082:1 30092:1 30096:1 30115:1 30128:1 30133:1 30143:1 30201:1 30227:1 30237:1 30238:1 30242:1 30247:1 30274:1 30277:1 30283:1 30290:1 30299:1 30334:1 30336:1 30355:1 30404:1 30410:1 30429:1 30445:1 30454:1 30457:1 30458:1 30464:1 30480:1 30513:1 30521:1 30532:1 30534:1 30539:1 30543:1 30550:1 30563:1 30570:1 30587:1 30592:1 30593:1 30621:1 30622:1 30628:1 30636:1 30645:1 30647:1 30649:1 30658:1 30719:1 30722:1 30724:1 30753:1 30760:1 30790:1 30810:1 30848:1 30871:1 30873:1 30890:1 30900:1 30901:1 30903:1 30928:1 30930:1 30936:1 30944:1 30951:1 30953:1 30954:1 30970:1 30974:1 30978:1 30992:1 31020:1 31023:1 31049:1 31057:1 31061:1 31079:1 31117:1 31130:1 31133:1 31159:1 31214:1 31220:1 31225:1 31238:1 31252:1 31280:1 31297:1 31310:1 31329:1 31330:1 31336:1 31342:1 31344:1 31369:1 31389:1 31392:1 31398:1 31448:1 31475:1 31476:1 31507:1 31509:1 31520:1 31524:1 31526:1 31528:1 31532:1 31559:1 31560:1 31595:1 31611:1 31625:1 31664:1 31669:1 31675:1 31688:1 31694:1 31708:1 31717:1 31719:1 31732:1 31736:1 31743:1 31757:1 31768:1 31769:1 31771:1 31787:1 31790:1 31799:1 31805:1 31810:1 31817:1 31819:1 31824:1 31831:1 31854:1 31859:1 31864:1 31866:1 31884:1 31892:1 31899:1 31900:1 31902:1 31908:1 31914:1 31936:1 31941:1 31946:1 31972:1 31973:1 31982:1 31992:1 31994:1 32020:1 32025:1 32037:1 32042:1 32069:1 32077:1 32099:1 32106:1 32122:1 32134:1 32144:1 32147:1 32149:1 32157:1 32167:1 32185:1 32200:1 32202:1 32203:1 32230:1 32232:1 32234:1 32245:1 32247:1 32250:1 32271:1 32275:1 32277:1 32285:1 32293:1 32296:1 32313:1 32325:1 32333:1 32342:1 32344:1 32350:1 32358:1 32362:1 32375:1 32376:1 32384:1 32397:1 32399:1 32404:1 32418:1 32426:1 32427:1 32428:1 32430:1 32434:1 32436:1 32445:1 32460:1 32471:1 32477:1 32481:1 32499:1 32501:1 32502:1 32504:1 32524:1 32548:1 32555:1 32571:1 32589:1 32594:1 32601:1 32602:1 32604:1 32613:1 32626:1 32638:1 32642:1 32660:1 32684:1 32726:1 32728:1 32743:1 32744:1 32746:1 32750:1 32753:1 32755:1 32758:1 32769:1 32775:1 32786:1 32813:1 32818:1 32828:1 32829:1 32841:1 32854:1 32859:1 32864:1 32908:1 32914:1 32924:1 32930:1 32940:1 32944:1 32954:1 32988:1 33001:1 33013:1 33034:1 33046:1 33049:1 33064:1 33088:1 33130:1 33139:1 33141:1 33148:1 33159:1 33161:1 33162:1 33163:1 33165:1 33177:1 33178:1 33190:1 33218:1 33222:1 33223:1 33227:1 33234:1 33237:1 33253:1 33264:1 33286:1 33290:1 33298:1 33305:1 33334:1 33339:1 33354:1 33366:1 33369:1 33391:1 33402:1 33403:1 33425:1 33427:1 33432:1 33442:1 33448:1 33458:1 33479:1 33494:1 33537:1 33556:1 33563:1 33569:1 33576:1 33593:1 33601:1 33609:1 33624:1 33648:1 33649:1 33652:1 33666:1 33686:1 33697:1 33713:1 33722:1 33733:1 33763:1 33770:1 33799:1 33816:1 33821:1 33823:1 33827:1 33841:1 33853:1 33854:1 33861:1 33867:1 33878:1 33890:1 33891:1 33893:1 33906:1 33914:1 33918:1 33927:1 33930:1 33940:1 33941:1 33955:1 33959:1 33965:1 33976:1 34019:1 34027:1 34033:1 34041:1 34047:1 34068:1 34105:1 34109:1 34111:1 34118:1 34120:1 34128:1 34130:1 34139:1 34152:1 34169:1 34184:1 34188:1 34189:1 34191:1 34202:1 34205:1 34210:1 34235:1 34238:1 34255:1 34258:1 34263:1 34321:1 34322:1 34336:1 34353:1 34381:1 34387:1 34389:1 34393:1 34394:1 34396:1 34402:1 34407:1 34410:1 34435:1 34439:1 34447:1 34462:1 34499:1 34504:1 34505:1 34508:1 34514:1 34526:1 34530:1 34542:1 34561:1 34570:1 34580:1 34583:1 34593:1 34598:1 34606:1 34612:1 34620:1 34621:1 34640:1 34649:1 34680:1 34683:1 34692:1 34712:1 34716:1 34719:1 34721:1 34731:1 34734:1 34739:1 34754:1 34771:1 34788:1 34789:1 34821:1 34823:1 34825:1 34826:1 34828:1 34841:1 34849:1 34868:1 34874:1 34875:1 34890:1 34895:1 34917:1 34937:1 34960:1 34963:1 34976:1 34994:1 34996:1 35020:1 35056:1 35057:1 35099:1 35102:1 35110:1 35114:1 35115:1 35130:1 35136:1 35146:1 35153:1 35154:1 35166:1 35196:1 35203:1 35207:1 35263:1 35267:1 35281:1 35290:1 35307:1 35315:1 35336:1 35350:1 35354:1 35370:1 35374:1 35377:1 35383:1 35391:1 35397:1 35404:1 35412:1 35444:1 35448:1 35462:1 35465:1 35485:1 35490:1 35491:1 35525:1 35543:1 35555:1 35558:1 35563:1 35580:1 35617:1 35624:1 35634:1 35635:1 35658:1 35665:1 35671:1 35672:1 35678:1 35695:1 35704:1 #
-0.0018570695325858782142453007324434 163:1 309:1 854:1 1132:1 1190:1 2100:1 2340:1 2571:1 2597:1 2633:1 3090:1 3302:1 3535:1 3722:1 4048:1 4076:1 4396:1 4785:1 5050:1 6290:1 6328:1 6692:1 7248:1 7343:1 7824:1 7841:1 7942:1 8291:1 8794:1 9116:1 9421:1 9899:1 9984:1 10029:1 10068:1 10592:1 10672:1 11297:1 11470:1 11534:1 12755:1 12779:1 13153:1 13203:1 13221:1 13449:1 13743:1 13929:1 14276:1 28606:1 28639:1 28640:1 28646:1 28657:1 28663:1 28669:1 28672:1 28675:1 28694:1 28698:1 28700:1 28741:1 28747:1 28762:1 28774:1 28778:1 28793:1 28810:1 28817:1 28822:1 28831:1 28849:1 28850:1 28852:1 28876:1 28902:1 28907:1 28909:1 28910:1 28926:1 28934:1 28935:1 28951:1 28971:1 28982:1 28994:1 29007:1 29008:1 29034:1 29055:1 29056:1 29060:1 29076:1 29079:1 29083:1 29108:1 29117:1 29123:1 29124:1 29125:1 29159:1 29163:1 29167:1 29169:1 29172:1 29184:1 29191:1 29199:1 29206:1 29213:1 29214:1 29227:1 29229:1 29230:1 29240:1 29253:1 29259:1 29280:1 29282:1 29287:1 29292:1 29312:1 29322:1 29328:1 29345:1 29347:1 29355:1 29357:1 29369:1 29395:1 29405:1 29424:1 29427:1 29430:1 29431:1 29432:1 29441:1 29464:1 29480:1 29488:1 29497:1 29500:1 29504:1 29506:1 29507:1 29512:1 29516:1 29518:1 29524:1 29530:1 29538:1 29542:1 29551:1 29572:1 29584:1 29597:1 29613:1 29627:1 29643:1 29649:1 29663:1 29676:1 29680:1 29688:1 29689:1 29696:1 29704:1 29705:1 29706:1 29731:1 29734:1 29759:1 29769:1 29771:1 29791:1 29815:1 29829:1 29838:1 29846:1 29851:1 29852:1 29855:1 29868:1 29869:1 29870:1 29876:1 29884:1 29898:1 29915:1 29944:1 29951:1 29957:1 29966:1 29977:1 30042:1 30047:1 30058:1 30067:1 30130:1 30131:1 30138:1 30150:1 30155:1 30167:1 30169:1 30195:1 30235:1 30238:1 30247:1 30255:1 30257:1 30275:1 30277:1 30302:1 30311:1 30314:1 30327:1 30332:1 30351:1 30355:1 30371:1 30390:1 30391:1 30402:1 30406:1 30410:1 30420:1 30429:1 30452:1 30457:1 30461:1 30464:1 30495:1 30497:1 30505:1 30509:1 30518:1 30521:1 30534:1 30540:1 30543:1 30544:1 30563:1 30587:1 30590:1 30592:1 30623:1 30632:1 30658:1 30663:1 30684:1 30687:1 30694:1 30707:1 30719:1 30724:1 30736:1 30771:1 30780:1 30791:1 30846:1 30848:1 30856:1 30858:1 30873:1 30878:1 30890:1 30893:1 30899:1 30900:1 30901:1 30905:1 30919:1 30923:1 30925:1 30928:1 30930:1 30934:1 30944:1 30947:1 30951:1 30954:1 30966:1 30969:1 30970:1 30976:1 31021:1 31023:1 31053:1 31056:1 31060:1 31061:1 31079:1 31083:1 31091:1 31095:1 31106:1 31124:1 31129:1 31145:1 31181:1 31187:1 31197:1 31214:1 31219:1 31238:1 31270:1 31297:1 31325:1 31326:1 31329:1 31336:1 31338:1 31344:1 31347:1 31375:1 31376:1 31392:1 31410:1 31430:1 31447:1 31465:1 31470:1 31475:1 31501:1 31510:1 31524:1 31528:1 31530:1 31531:1 31532:1 31551:1 31559:1 31583:1 31595:1 31597:1 31607:1 31622:1 31646:1 31675:1 31682:1 31688:1 31703:1 31743:1 31761:1 31768:1 31780:1 31787:1 31798:1 31799:1 31812:1 31827:1 31828:1 31831:1 31854:1 31877:1 31884:1 31894:1 31901:1 31902:1 31908:1 31910:1 31921:1 31932:1 31940:1 31966:1 31973:1 31978:1 31992:1 31994:1 31996:1 32004:1 32014:1 32042:1 32077:1 32098:1 32101:1 32144:1 32151:1 32182:1 32185:1 32203:1 32205:1 32215:1 32218:1 32220:1 32230:1 32232:1 32234:1 32236:1 32248:1 32271:1 32296:1 32310:1 32311:1 32313:1 32348:1 32358:1 32362:1 32367:1 32408:1 32426:1 32427:1 32429:1 32430:1 32434:1 32436:1 32460:1 32468:1 32472:1 32477:1 32482:1 32554:1 32586:1 32592:1 32594:1 32595:1 32600:1 32601:1 32607:1 32631:1 32660:1 32661:1 32679:1 32683:1 32707:1 32710:1 32711:1 32717:1 32719:1 32726:1 32730:1 32734:1 32742:1 32743:1 32744:1 32746:1 32750:1 32756:1 32758:1 32761:1 32766:1 32786:1 32804:1 32829:1 32841:1 32844:1 32854:1 32859:1 32864:1 32882:1 32889:1 32907:1 32911:1 32912:1 32979:1 32994:1 32998:1 33011:1 33039:1 33046:1 33049:1 33052:1 33057:1 33076:1 33090:1 33099:1 33108:1 33112:1 33124:1 33130:1 33161:1 33177:1 33178:1 33187:1 33188:1 33190:1 33207:1 33222:1 33244:1 33245:1 33253:1 33257:1 33273:1 33290:1 33337:1 33342:1 33358:1 33361:1 33369:1 33374:1 33379:1 33391:1 33403:1 33417:1 33436:1 33448:1 33472:1 33490:1 33516:1 33528:1 33536:1 33539:1 33543:1 33569:1 33575:1 33576:1 33589:1 33601:1 33648:1 33652:1 33654:1 33693:1 33703:1 33705:1 33713:1 33716:1 33770:1 33786:1 33799:1 33811:1 33821:1 33827:1 33841:1 33861:1 33893:1 33918:1 33930:1 33955:1 33959:1 33962:1 33976:1 34003:1 34006:1 34019:1 34039:1 34041:1 34045:1 34054:1 34068:1 34101:1 34111:1 34130:1 34144:1 34153:1 34184:1 34191:1 34195:1 34202:1 34212:1 34215:1 34228:1 34229:1 34247:1 34255:1 34261:1 34284:1 34286:1 34314:1 34326:1 34358:1 34369:1 34391:1 34394:1 34396:1 34406:1 34417:1 34418:1 34425:1 34455:1 34460:1 34488:1 34497:1 34504:1 34515:1 34548:1 34564:1 34569:1 34570:1 34583:1 34593:1 34597:1 34599:1 34606:1 34612:1 34620:1 34643:1 34649:1 34652:1 34661:1 34680:1 34683:1 34692:1 34693:1 34700:1 34721:1 34734:1 34739:1 34744:1 34754:1 34779:1 34788:1 34803:1 34821:1 34825:1 34828:1 34836:1 34841:1 34875:1 34882:1 34890:1 34894:1 34901:1 34908:1 34910:1 34912:1 34916:1 34924:1 34932:1 34935:1 34960:1 34976:1 35004:1 35054:1 35055:1 35056:1 35068:1 35074:1 35099:1 35114:1 35115:1 35119:1 35123:1 35136:1 35139:1 35150:1 35176:1 35278:1 35281:1 35285:1 35287:1 35292:1 35307:1 35351:1 35359:1 35370:1 35374:1 35395:1 35404:1 35409:1 35418:1 35430:1 35442:1 35444:1 35462:1 35463:1 35465:1 35471:1 35473:1 35475:1 35485:1 35490:1 35514:1 35546:1 35557:1 35572:1 35580:1 35591:1 35617:1 35624:1 35626:1 35634:1 35678:1 35689:1 35700:1 #
-0.0020894979131170295268138392685842 48:1 687:1 1009:1 1821:1 2122:1 2281:1 2377:1 2435:1 2456:1 2571:1 2657:1 2685:1 2690:1 2710:1 3437:1 3522:1 3551:1 3719:1 3882:1 3888:1 3972:1 4261:1 4341:1 5356:1 5394:1 5461:1 5491:1 5517:1 5769:1 5877:1 5932:1 6010:1 6087:1 6458:1 6480:1 6509:1 6654:1 6780:1 6825:1 7008:1 7050:1 7321:1 7870:1 8046:1 8212:1 8672:1 8804:1 9132:1 9219:1 9247:1 10219:1 10628:1 10753:1 10815:1 11563:1 11874:1 12129:1 12406:1 12582:1 12848:1 12911:1 13092:1 13247:1 13485:1 13669:1 13763:1 13830:1 14056:1 14175:1 28590:1 28608:1 28620:1 28663:1 28672:1 28714:1 28765:1 28793:1 28795:1 28817:1 28822:1 28849:1 28850:1 28861:1 28869:1 28876:1 28898:1 28902:1 28907:1 28910:1 28914:1 28927:1 28929:1 28934:1 28963:1 28992:1 28994:1 29007:1 29016:1 29029:1 29047:1 29056:1 29065:1 29072:1 29074:1 29076:1 29079:1 29087:1 29117:1 29156:1 29184:1 29201:1 29217:1 29229:1 29231:1 29237:1 29239:1 29246:1 29269:1 29287:1 29312:1 29326:1 29345:1 29346:1 29347:1 29382:1 29388:1 29395:1 29405:1 29408:1 29416:1 29430:1 29431:1 29432:1 29463:1 29464:1 29489:1 29493:1 29513:1 29518:1 29522:1 29530:1 29572:1 29583:1 29586:1 29608:1 29643:1 29645:1 29689:1 29696:1 29715:1 29718:1 29725:1 29733:1 29741:1 29780:1 29815:1 29829:1 29830:1 29838:1 29852:1 29869:1 29876:1 29879:1 29957:1 29973:1 29977:1 29997:1 30001:1 30026:1 30041:1 30047:1 30067:1 30068:1 30074:1 30092:1 30109:1 30117:1 30123:1 30131:1 30140:1 30158:1 30216:1 30247:1 30249:1 30250:1 30263:1 30277:1 30278:1 30306:1 30355:1 30361:1 30378:1 30391:1 30399:1 30400:1 30410:1 30442:1 30443:1 30457:1 30464:1 30505:1 30506:1 30521:1 30527:1 30543:1 30544:1 30563:1 30569:1 30592:1 30600:1 30632:1 30658:1 30717:1 30719:1 30722:1 30724:1 30752:1 30761:1 30774:1 30787:1 30792:1 30807:1 30814:1 30819:1 30826:1 30846:1 30852:1 30873:1 30879:1 30889:1 30899:1 30900:1 30919:1 30944:1 30950:1 30970:1 30976:1 31018:1 31023:1 31038:1 31050:1 31076:1 31105:1 31117:1 31131:1 31158:1 31160:1 31169:1 31180:1 31181:1 31214:1 31223:1 31225:1 31232:1 31238:1 31260:1 31269:1 31294:1 31298:1 31302:1 31326:1 31329:1 31344:1 31358:1 31364:1 31370:1 31383:1 31389:1 31399:1 31419:1 31452:1 31491:1 31502:1 31504:1 31516:1 31520:1 31531:1 31557:1 31558:1 31560:1 31565:1 31595:1 31597:1 31628:1 31669:1 31678:1 31698:1 31703:1 31724:1 31737:1 31783:1 31793:1 31813:1 31817:1 31854:1 31874:1 31884:1 31893:1 31902:1 31912:1 31917:1 31952:1 31953:1 31976:1 31979:1 31986:1 31992:1 31993:1 32001:1 32022:1 32042:1 32064:1 32077:1 32083:1 32104:1 32144:1 32149:1 32151:1 32157:1 32181:1 32184:1 32187:1 32196:1 32200:1 32220:1 32230:1 32232:1 32247:1 32288:1 32299:1 32314:1 32358:1 32388:1 32426:1 32427:1 32430:1 32434:1 32435:1 32436:1 32437:1 32442:1 32459:1 32471:1 32477:1 32485:1 32501:1 32512:1 32524:1 32539:1 32540:1 32544:1 32547:1 32552:1 32576:1 32587:1 32594:1 32649:1 32674:1 32681:1 32684:1 32688:1 32703:1 32704:1 32707:1 32722:1 32723:1 32726:1 32743:1 32744:1 32746:1 32758:1 32797:1 32801:1 32804:1 32818:1 32821:1 32829:1 32841:1 32844:1 32856:1 32870:1 32871:1 32890:1 32902:1 32907:1 32915:1 32921:1 32924:1 32927:1 32931:1 32942:1 32956:1 32979:1 33011:1 33034:1 33043:1 33046:1 33061:1 33088:1 33089:1 33104:1 33107:1 33113:1 33116:1 33130:1 33132:1 33138:1 33150:1 33161:1 33166:1 33186:1 33187:1 33190:1 33201:1 33231:1 33242:1 33253:1 33257:1 33264:1 33269:1 33290:1 33327:1 33333:1 33354:1 33358:1 33375:1 33377:1 33384:1 33403:1 33412:1 33436:1 33440:1 33445:1 33483:1 33490:1 33506:1 33558:1 33587:1 33625:1 33639:1 33706:1 33713:1 33721:1 33751:1 33777:1 33785:1 33799:1 33821:1 33827:1 33841:1 33861:1 33862:1 33878:1 33893:1 33903:1 33912:1 33916:1 33918:1 33932:1 33935:1 33937:1 33971:1 34005:1 34019:1 34020:1 34041:1 34047:1 34050:1 34054:1 34068:1 34086:1 34127:1 34128:1 34130:1 34148:1 34169:1 34184:1 34206:1 34241:1 34253:1 34255:1 34260:1 34262:1 34275:1 34279:1 34375:1 34394:1 34396:1 34402:1 34422:1 34441:1 34515:1 34530:1 34535:1 34544:1 34570:1 34575:1 34593:1 34594:1 34597:1 34602:1 34612:1 34620:1 34626:1 34633:1 34649:1 34656:1 34719:1 34730:1 34731:1 34739:1 34754:1 34765:1 34788:1 34789:1 34821:1 34825:1 34828:1 34886:1 34889:1 34890:1 34896:1 34912:1 34924:1 34958:1 34960:1 34967:1 34975:1 34976:1 35004:1 35045:1 35056:1 35057:1 35072:1 35099:1 35113:1 35114:1 35115:1 35119:1 35130:1 35132:1 35136:1 35149:1 35165:1 35278:1 35301:1 35307:1 35320:1 35330:1 35359:1 35361:1 35370:1 35383:1 35391:1 35397:1 35404:1 35412:1 35418:1 35430:1 35432:1 35444:1 35462:1 35465:1 35485:1 35490:1 35492:1 35529:1 35546:1 35561:1 35580:1 35591:1 35624:1 35634:1 35638:1 35665:1 35667:1 35678:1 35698:1 35703:1 #
-0.00068485483501374308599324303159506 274:1 543:1 1012:1 1800:1 2821:1 3309:1 3345:1 3380:1 3432:1 4686:1 4736:1 4940:1 5030:1 5684:1 5899:1 6023:1 6040:1 6192:1 6545:1 6746:1 6819:1 7042:1 7585:1 8689:1 9032:1 9309:1 10204:1 10719:1 11779:1 12103:1 12278:1 12308:1 12392:1 12580:1 12852:1 13249:1 14050:1 14056:1 28596:1 28620:1 28626:1 28646:1 28653:1 28657:1 28663:1 28677:1 28694:1 28726:1 28738:1 28747:1 28752:1 28758:1 28793:1 28849:1 28850:1 28876:1 28881:1 28902:1 28907:1 28926:1 28934:1 28957:1 28982:1 29005:1 29011:1 29065:1 29076:1 29079:1 29087:1 29088:1 29109:1 29117:1 29124:1 29169:1 29184:1 29219:1 29223:1 29253:1 29269:1 29287:1 29289:1 29344:1 29346:1 29347:1 29352:1 29362:1 29404:1 29405:1 29408:1 29424:1 29430:1 29431:1 29432:1 29455:1 29464:1 29469:1 29483:1 29485:1 29509:1 29518:1 29529:1 29531:1 29540:1 29547:1 29572:1 29596:1 29597:1 29622:1 29626:1 29627:1 29643:1 29653:1 29663:1 29668:1 29688:1 29689:1 29696:1 29709:1 29733:1 29746:1 29770:1 29786:1 29815:1 29838:1 29846:1 29851:1 29868:1 29869:1 29884:1 29886:1 29944:1 29973:1 29977:1 30008:1 30042:1 30047:1 30067:1 30074:1 30078:1 30092:1 30126:1 30133:1 30138:1 30159:1 30167:1 30216:1 30227:1 30233:1 30238:1 30258:1 30273:1 30277:1 30325:1 30347:1 30355:1 30373:1 30391:1 30399:1 30410:1 30429:1 30457:1 30458:1 30464:1 30538:1 30543:1 30544:1 30563:1 30568:1 30592:1 30597:1 30611:1 30631:1 30658:1 30676:1 30709:1 30719:1 30724:1 30726:1 30729:1 30819:1 30826:1 30837:1 30848:1 30856:1 30890:1 30900:1 30901:1 30905:1 30928:1 30930:1 30934:1 30944:1 30949:1 30970:1 31021:1 31023:1 31024:1 31050:1 31051:1 31056:1 31064:1 31079:1 31084:1 31088:1 31091:1 31126:1 31133:1 31145:1 31161:1 31187:1 31190:1 31214:1 31225:1 31238:1 31242:1 31277:1 31294:1 31297:1 31311:1 31329:1 31354:1 31374:1 31376:1 31389:1 31392:1 31462:1 31465:1 31470:1 31475:1 31483:1 31497:1 31502:1 31506:1 31509:1 31511:1 31516:1 31519:1 31528:1 31531:1 31541:1 31543:1 31588:1 31595:1 31622:1 31624:1 31628:1 31671:1 31694:1 31736:1 31768:1 31771:1 31787:1 31793:1 31796:1 31813:1 31819:1 31827:1 31877:1 31884:1 31886:1 31910:1 31931:1 31936:1 31992:1 32021:1 32037:1 32042:1 32077:1 32098:1 32113:1 32122:1 32144:1 32149:1 32151:1 32180:1 32185:1 32200:1 32204:1 32230:1 32232:1 32233:1 32247:1 32271:1 32299:1 32310:1 32313:1 32330:1 32341:1 32342:1 32358:1 32387:1 32395:1 32397:1 32426:1 32427:1 32429:1 32430:1 32434:1 32436:1 32460:1 32477:1 32481:1 32494:1 32539:1 32560:1 32569:1 32594:1 32600:1 32601:1 32615:1 32629:1 32638:1 32660:1 32679:1 32684:1 32688:1 32697:1 32702:1 32719:1 32740:1 32743:1 32744:1 32746:1 32758:1 32761:1 32775:1 32786:1 32841:1 32875:1 32907:1 32919:1 32930:1 32947:1 32980:1 32991:1 33004:1 33034:1 33039:1 33046:1 33056:1 33059:1 33077:1 33088:1 33091:1 33133:1 33161:1 33187:1 33194:1 33202:1 33224:1 33243:1 33267:1 33269:1 33273:1 33290:1 33294:1 33298:1 33305:1 33354:1 33355:1 33375:1 33379:1 33390:1 33425:1 33449:1 33501:1 33506:1 33544:1 33556:1 33601:1 33605:1 33616:1 33636:1 33650:1 33680:1 33688:1 33713:1 33716:1 33786:1 33799:1 33827:1 33840:1 33861:1 33862:1 33878:1 33881:1 33893:1 33903:1 33913:1 33918:1 33929:1 33930:1 33941:1 33960:1 33971:1 33998:1 34004:1 34011:1 34019:1 34041:1 34047:1 34049:1 34068:1 34086:1 34093:1 34099:1 34127:1 34139:1 34148:1 34160:1 34169:1 34195:1 34210:1 34231:1 34235:1 34247:1 34255:1 34261:1 34284:1 34305:1 34323:1 34369:1 34376:1 34394:1 34396:1 34453:1 34455:1 34499:1 34530:1 34542:1 34554:1 34569:1 34570:1 34576:1 34583:1 34612:1 34620:1 34623:1 34629:1 34680:1 34688:1 34712:1 34728:1 34729:1 34734:1 34739:1 34754:1 34788:1 34821:1 34825:1 34828:1 34841:1 34878:1 34884:1 34890:1 34912:1 34917:1 34952:1 34991:1 34993:1 34994:1 35004:1 35011:1 35020:1 35025:1 35051:1 35055:1 35056:1 35057:1 35086:1 35099:1 35102:1 35114:1 35119:1 35136:1 35146:1 35153:1 35167:1 35168:1 35216:1 35281:1 35285:1 35287:1 35291:1 35292:1 35307:1 35327:1 35365:1 35370:1 35389:1 35391:1 35409:1 35414:1 35418:1 35444:1 35462:1 35465:1 35469:1 35485:1 35490:1 35491:1 35501:1 35543:1 35557:1 35561:1 35580:1 35591:1 35624:1 35634:1 35636:1 35645:1 35665:1 35678:1 35698:1 35699:1 #
-0.0023136028330470810761287925316765 316:1 370:1 1379:1 1380:1 1673:1 1679:1 1760:1 1911:1 2036:1 2246:1 2571:1 2684:1 2771:1 2822:1 3722:1 3972:1 3988:1 3999:1 4256:1 4261:1 4762:1 4851:1 5477:1 6110:1 6435:1 6701:1 6991:1 7008:1 7229:1 7242:1 7767:1 8304:1 8349:1 8481:1 8519:1 8734:1 9310:1 9400:1 9565:1 9639:1 10030:1 10243:1 10314:1 10537:1 10646:1 10761:1 10837:1 11074:1 11291:1 11341:1 11368:1 11461:1 11470:1 11473:1 11595:1 11842:1 12129:1 12346:1 12390:1 12475:1 12715:1 12852:1 12945:1 13047:1 13069:1 13207:1 13220:1 13382:1 13524:1 13559:1 13749:1 13776:1 28590:1 28606:1 28608:1 28620:1 28663:1 28666:1 28727:1 28764:1 28780:1 28782:1 28785:1 28793:1 28807:1 28822:1 28823:1 28849:1 28852:1 28860:1 28875:1 28876:1 28890:1 28898:1 28907:1 28910:1 28926:1 28927:1 28929:1 28934:1 28951:1 28990:1 28992:1 29007:1 29033:1 29065:1 29074:1 29076:1 29079:1 29093:1 29097:1 29108:1 29117:1 29124:1 29125:1 29169:1 29172:1 29184:1 29229:1 29246:1 29259:1 29269:1 29283:1 29289:1 29292:1 29326:1 29346:1 29352:1 29358:1 29385:1 29395:1 29401:1 29405:1 29408:1 29416:1 29424:1 29427:1 29430:1 29431:1 29432:1 29463:1 29464:1 29497:1 29506:1 29518:1 29527:1 29540:1 29567:1 29572:1 29597:1 29642:1 29643:1 29645:1 29653:1 29658:1 29663:1 29689:1 29696:1 29770:1 29815:1 29829:1 29830:1 29838:1 29851:1 29852:1 29867:1 29868:1 29869:1 29903:1 29904:1 29921:1 29942:1 29963:1 29967:1 29969:1 29977:1 29999:1 30047:1 30067:1 30074:1 30109:1 30131:1 30133:1 30140:1 30148:1 30150:1 30155:1 30159:1 30190:1 30213:1 30230:1 30238:1 30263:1 30267:1 30288:1 30302:1 30333:1 30346:1 30355:1 30399:1 30409:1 30429:1 30451:1 30457:1 30458:1 30464:1 30478:1 30505:1 30515:1 30521:1 30538:1 30550:1 30563:1 30571:1 30592:1 30593:1 30598:1 30608:1 30646:1 30658:1 30667:1 30701:1 30719:1 30722:1 30724:1 30725:1 30736:1 30767:1 30784:1 30791:1 30807:1 30822:1 30826:1 30831:1 30848:1 30852:1 30856:1 30871:1 30890:1 30900:1 30919:1 30923:1 30944:1 30953:1 30956:1 30957:1 30970:1 30981:1 31023:1 31050:1 31053:1 31056:1 31061:1 31067:1 31070:1 31079:1 31085:1 31100:1 31117:1 31131:1 31140:1 31150:1 31158:1 31179:1 31188:1 31214:1 31238:1 31267:1 31281:1 31294:1 31311:1 31329:1 31344:1 31345:1 31361:1 31368:1 31398:1 31410:1 31411:1 31462:1 31467:1 31470:1 31497:1 31501:1 31528:1 31531:1 31536:1 31543:1 31548:1 31551:1 31565:1 31624:1 31641:1 31647:1 31663:1 31686:1 31697:1 31703:1 31732:1 31766:1 31790:1 31793:1 31799:1 31824:1 31827:1 31864:1 31871:1 31884:1 31902:1 31915:1 31916:1 31928:1 31943:1 31992:1 32020:1 32042:1 32055:1 32077:1 32083:1 32101:1 32108:1 32128:1 32144:1 32149:1 32163:1 32180:1 32187:1 32230:1 32232:1 32234:1 32247:1 32278:1 32288:1 32292:1 32293:1 32296:1 32310:1 32340:1 32352:1 32357:1 32358:1 32371:1 32388:1 32397:1 32404:1 32405:1 32409:1 32412:1 32416:1 32426:1 32427:1 32430:1 32434:1 32436:1 32451:1 32452:1 32460:1 32472:1 32477:1 32494:1 32501:1 32504:1 32509:1 32522:1 32555:1 32594:1 32596:1 32611:1 32627:1 32630:1 32660:1 32668:1 32670:1 32679:1 32683:1 32684:1 32688:1 32711:1 32717:1 32728:1 32743:1 32744:1 32746:1 32753:1 32758:1 32777:1 32786:1 32799:1 32804:1 32818:1 32821:1 32837:1 32838:1 32841:1 32844:1 32864:1 32868:1 32907:1 32927:1 32928:1 32930:1 32949:1 32973:1 32979:1 33034:1 33039:1 33045:1 33046:1 33072:1 33075:1 33077:1 33079:1 33104:1 33113:1 33117:1 33130:1 33161:1 33177:1 33190:1 33193:1 33197:1 33231:1 33257:1 33263:1 33290:1 33305:1 33326:1 33328:1 33346:1 33395:1 33402:1 33403:1 33436:1 33445:1 33469:1 33472:1 33483:1 33486:1 33492:1 33494:1 33543:1 33554:1 33565:1 33567:1 33569:1 33598:1 33676:1 33683:1 33693:1 33711:1 33713:1 33716:1 33761:1 33780:1 33799:1 33811:1 33821:1 33827:1 33834:1 33861:1 33874:1 33893:1 33914:1 33916:1 33918:1 33948:1 34019:1 34041:1 34050:1 34054:1 34057:1 34068:1 34111:1 34115:1 34128:1 34151:1 34169:1 34177:1 34186:1 34235:1 34244:1 34255:1 34263:1 34295:1 34315:1 34320:1 34343:1 34364:1 34394:1 34396:1 34402:1 34425:1 34447:1 34450:1 34455:1 34468:1 34530:1 34532:1 34541:1 34552:1 34554:1 34561:1 34570:1 34576:1 34580:1 34583:1 34589:1 34592:1 34593:1 34612:1 34620:1 34622:1 34630:1 34646:1 34680:1 34716:1 34739:1 34754:1 34788:1 34821:1 34824:1 34825:1 34828:1 34870:1 34884:1 34890:1 34908:1 34916:1 34917:1 34924:1 34932:1 34964:1 34967:1 34976:1 34978:1 35004:1 35022:1 35030:1 35043:1 35045:1 35055:1 35056:1 35059:1 35061:1 35063:1 35072:1 35099:1 35108:1 35114:1 35136:1 35149:1 35169:1 35176:1 35267:1 35315:1 35370:1 35385:1 35404:1 35418:1 35443:1 35444:1 35465:1 35469:1 35471:1 35477:1 35485:1 35490:1 35491:1 35535:1 35546:1 35563:1 35574:1 35580:1 35591:1 35634:1 35636:1 35665:1 35678:1 #
0.0032389406439973299038637133406837 1614:1 3652:1 4536:1 4980:1 10898:1 12184:1 28771:1 28849:1 28869:1 28870:1 29076:1 29188:1 29347:1 29405:1 29432:1 29444:1 29486:1 29605:1 29696:1 29723:1 29839:1 29851:1 29977:1 30190:1 30268:1 30462:1 30540:1 30631:1 30658:1 30858:1 30934:1 30969:1 30970:1 31039:1 31238:1 31329:1 31344:1 31373:1 31528:1 31749:1 32144:1 32149:1 32151:1 32212:1 32232:1 32242:1 32397:1 32426:1 32427:1 32430:1 32804:1 33040:1 33141:1 33243:1 33676:1 33861:1 33901:1 34143:1 34184:1 34258:1 34612:1 34620:1 34625:1 34825:1 34828:1 34890:1 35056:1 35114:1 35370:1 35418:1 35452:1 35459:1 35462:1 35524:1 35669:1 35674:1 35698:1 #
