SVM-light Version V6.02
0 # kernel type
3 # kernel parameter -d 
1 # kernel parameter -g 
1 # kernel parameter -s 
1 # kernel parameter -r 
empty# kernel parameter -u 
76637 # highest feature index 
1800 # number of training documents 
1366 # number of support vectors plus 1 
-0.01073092 # threshold b, each following line is a SV (starting with alpha*y)
-0.0032552080066614512247891166651925 28582:1 28617:1 28641:1 28675:1 28851:1 28996:1 29104:1 29150:1 29316:1 29452:1 29550:1 29564:1 29846:1 29882:1 29943:1 30118:1 30341:1 30479:1 30804:1 30907:1 30917:1 31224:1 31253:1 31375:1 31531:1 31646:1 31873:1 31914:1 32054:1 32184:1 32316:1 32371:1 32392:1 32394:1 32479:1 32803:1 32910:1 32912:1 33141:1 33165:1 33181:1 33287:1 33427:1 33435:1 33467:1 33682:1 33866:1 33993:1 34089:1 34141:1 34148:1 34422:1 34451:1 34478:1 34947:1 34997:1 35428:1 35720:1 35771:1 35939:1 36000:1 36221:1 36475:1 36520:1 36631:1 36649:1 36781:1 36802:1 36857:1 36955:1 36997:1 37060:1 37268:1 37286:1 37312:1 37492:1 37918:1 38045:1 38046:1 38320:1 38408:1 38511:1 38636:1 38757:1 38869:1 38991:1 39022:1 39025:1 39223:1 39701:1 39757:1 39820:1 39950:1 40128:1 40193:1 40315:1 40628:1 40719:1 40835:1 40845:1 41183:1 41277:1 41625:1 41677:1 41678:1 41779:1 41868:1 41943:1 41972:1 42054:1 42158:1 42229:1 42362:1 42414:1 42448:1 42721:1 42908:1 43385:1 43394:1 43402:1 43493:1 43560:1 43572:1 43741:1 43802:1 43821:1 43899:1 44033:1 44355:1 44629:1 44721:1 44953:1 44954:1 45096:1 45161:1 45479:1 45947:1 46145:1 46189:1 46375:1 46731:1 46741:1 46742:1 46948:1 46968:1 47145:1 47238:1 47524:1 47566:1 47589:1 47598:1 47702:1 47871:1 47929:1 48018:1 48239:1 48247:1 48370:1 48399:1 48524:1 48533:1 48579:1 49104:1 49146:1 49161:1 49239:1 49261:1 49288:1 49329:1 49340:1 49353:1 49379:1 49398:1 49456:1 49498:1 49523:1 49530:1 49641:1 49690:1 49871:1 49915:1 50050:1 50304:1 50494:1 50515:1 50623:1 50628:1 50630:1 50639:1 51495:1 51534:1 51944:1 52056:1 52505:1 52699:1 52969:1 53097:1 53118:1 53223:1 53562:1 53581:1 53680:1 53952:1 54141:1 54217:1 54362:1 54363:1 54814:1 55505:1 55619:1 55865:1 55872:1 56186:1 56353:1 57187:1 57445:1 57533:1 57686:1 57792:1 57938:1 57963:1 58035:1 58338:1 58514:1 58573:1 58606:1 58624:1 58681:1 58710:1 58786:1 59212:1 59238:1 59454:1 59784:1 59824:1 59854:1 59874:1 60007:1 60041:1 60082:1 60158:1 60792:1 60820:1 61068:1 61079:1 61083:1 61119:1 61467:1 61584:1 61765:1 61979:1 62241:1 62492:1 62554:1 62731:1 62786:1 63469:1 63857:1 64344:1 64388:1 64555:1 64675:1 64727:1 64746:1 64814:1 64846:1 65088:1 65140:1 65198:1 65344:1 65368:1 65411:1 65438:1 65720:1 65927:1 65973:1 66012:1 66070:1 66255:1 66331:1 66373:1 66532:1 66596:1 66806:1 67053:1 67121:1 67217:1 67251:1 67463:1 67595:1 68055:1 68067:1 68247:1 68436:1 68559:1 68672:1 68783:1 68792:1 68834:1 69072:1 69139:1 69341:1 69390:1 69949:1 69960:1 70039:1 70149:1 70415:1 70456:1 70610:1 70683:1 70779:1 70783:1 71085:1 71112:1 71140:1 71223:1 71225:1 71408:1 71445:1 71535:1 71745:1 71988:1 72172:1 72266:1 72560:1 72624:1 72821:1 73673:1 73675:1 74050:1 74522:1 74767:1 75237:1 75306:1 75695:1 75784:1 75802:1 75813:1 76063:1 76103:1 76473:1 #
-0.0032552080066614512247891166651925 28730:1 28890:1 28996:1 28998:1 29104:1 29166:1 29943:1 30118:1 30357:1 30895:1 31726:1 31755:1 32030:1 32166:1 32368:1 32371:1 32479:1 32803:1 33092:1 33287:1 33374:1 33855:1 34256:1 34263:1 34374:1 34483:1 35428:1 35658:1 36758:1 36955:1 36997:1 37060:1 37286:1 37918:1 38636:1 38990:1 38991:1 39198:1 39701:1 39826:1 40128:1 40303:1 40373:1 40835:1 40845:1 40896:1 41183:1 41806:1 42073:1 42456:1 42556:1 42851:1 43402:1 43560:1 43572:1 43741:1 43952:1 44409:1 44522:1 44721:1 45012:1 45096:1 45184:1 45351:1 45403:1 45617:1 46679:1 46741:1 46742:1 46756:1 46932:1 47119:1 47513:1 48239:1 48370:1 48399:1 49150:1 49456:1 49498:1 49871:1 49915:1 50237:1 50304:1 50376:1 50547:1 50623:1 50630:1 50806:1 51541:1 52539:1 53097:1 53284:1 53503:1 53581:1 53680:1 54084:1 55619:1 55868:1 57345:1 57792:1 57821:1 57963:1 58084:1 59192:1 59212:1 59309:1 59849:1 62731:1 62786:1 62938:1 62974:1 63000:1 63994:1 64212:1 64344:1 64576:1 64609:1 65045:1 65344:1 65438:1 65699:1 66070:1 66255:1 66373:1 66490:1 66577:1 68436:1 68672:1 68783:1 68834:1 69500:1 69949:1 70610:1 71085:1 71232:1 71514:1 71535:1 71608:1 71897:1 72172:1 72212:1 72560:1 73201:1 73530:1 73675:1 74125:1 74497:1 75306:1 75525:1 76473:1 #
-0.00061750659543507177909327232612213 28575:1 28582:1 28641:1 28694:1 28996:1 28998:1 29021:1 29550:1 29816:1 29943:1 30118:1 30366:1 30479:1 30791:1 31109:1 31381:1 31446:1 31531:1 31646:1 31975:1 32250:1 32392:1 32399:1 32479:1 33165:1 33261:1 33332:1 33636:1 33839:1 34241:1 34422:1 34615:1 34880:1 35134:1 35306:1 35359:1 35475:1 35478:1 35512:1 35873:1 36119:1 36167:1 36173:1 36782:1 36802:1 36997:1 37060:1 37082:1 37286:1 37312:1 37472:1 37640:1 37651:1 37918:1 38364:1 38473:1 38475:1 38765:1 39025:1 39701:1 39757:1 39820:1 40534:1 40536:1 40630:1 40660:1 40845:1 40917:1 41083:1 41183:1 41231:1 41242:1 41527:1 41625:1 41677:1 41678:1 41681:1 41872:1 42008:1 42054:1 42057:1 42101:1 42362:1 42396:1 42834:1 43068:1 43395:1 43402:1 43572:1 43628:1 43741:1 43896:1 43925:1 44011:1 44152:1 44409:1 44933:1 45052:1 45188:1 45379:1 45479:1 45530:1 45661:1 46012:1 46318:1 46538:1 46741:1 46742:1 46756:1 47107:1 47168:1 47177:1 47238:1 47524:1 47589:1 47594:1 47974:1 48308:1 48367:1 48399:1 48425:1 48549:1 48648:1 49146:1 49161:1 49239:1 49353:1 49379:1 49475:1 49690:1 49772:1 49799:1 50304:1 50623:1 50630:1 50639:1 50738:1 51550:1 51941:1 52765:1 53097:1 53127:1 53393:1 53680:1 54362:1 54363:1 54430:1 54598:1 55070:1 55502:1 55790:1 55865:1 55955:1 56070:1 56078:1 56198:1 56220:1 56250:1 56278:1 56353:1 56396:1 56547:1 57232:1 57792:1 57795:1 57821:1 58004:1 58035:1 58278:1 58338:1 58513:1 58514:1 58710:1 59098:1 59192:1 59208:1 59311:1 59676:1 59784:1 59855:1 59924:1 60055:1 60158:1 60403:1 60535:1 60901:1 61022:1 61192:1 61442:1 61467:1 61472:1 61584:1 61668:1 61828:1 61883:1 61979:1 62019:1 62162:1 62731:1 62971:1 63000:1 63099:1 63655:1 63800:1 63857:1 63910:1 64058:1 64248:1 64383:1 64609:1 64814:1 64819:1 64994:1 65045:1 65088:1 65140:1 65300:1 65435:1 65747:1 65977:1 66070:1 66255:1 66586:1 66953:1 67247:1 67251:1 67432:1 67689:1 68304:1 68436:1 68443:1 68672:1 68834:1 69253:1 69341:1 69344:1 69757:1 69812:1 69949:1 70100:1 70471:1 70610:1 70671:1 70904:1 71085:1 71142:1 71535:1 71670:1 71806:1 72212:1 72225:1 72922:1 73842:1 74050:1 74310:1 74497:1 74904:1 75067:1 75306:1 75522:1 75756:1 75784:1 75802:1 76473:1 #
-0.0028606304828961183484015151634594 28582:1 28848:1 28931:1 28996:1 28998:1 29095:1 29104:1 29143:1 29550:1 29840:1 29914:1 29917:1 29943:1 30139:1 30442:1 30535:1 30654:1 30878:1 30892:1 30952:1 31446:1 31646:1 31995:1 32183:1 32191:1 32417:1 32452:1 32471:1 32479:1 32748:1 32855:1 33332:1 33526:1 33630:1 34097:1 34144:1 35084:1 35238:1 35271:1 35306:1 35371:1 35448:1 35475:1 35507:1 35527:1 35532:1 35547:1 35817:1 35885:1 35943:1 35955:1 36265:1 36563:1 36955:1 36997:1 37060:1 37271:1 37286:1 37450:1 37552:1 37753:1 37918:1 38036:1 38059:1 38314:1 38397:1 38470:1 38475:1 38990:1 38991:1 39025:1 39355:1 39498:1 39820:1 39927:1 40294:1 40312:1 40338:1 40660:1 40666:1 40672:1 40687:1 40845:1 40846:1 41482:1 41625:1 41626:1 41677:1 41678:1 41681:1 41847:1 41943:1 42062:1 42158:1 42284:1 42362:1 42448:1 42641:1 42835:1 43018:1 43055:1 43395:1 43402:1 43414:1 43560:1 43683:1 43719:1 43741:1 43899:1 43925:1 44471:1 44611:1 44721:1 44847:1 44860:1 44933:1 45039:1 45096:1 45342:1 45574:1 45683:1 45808:1 45916:1 46122:1 46184:1 46663:1 46741:1 46742:1 46756:1 46874:1 47009:1 47130:1 47494:1 47524:1 47883:1 47898:1 47941:1 48399:1 48425:1 48514:1 48829:1 49146:1 49224:1 49279:1 49353:1 49379:1 49780:1 49885:1 49915:1 50304:1 50562:1 50623:1 50630:1 50751:1 50949:1 51495:1 51541:1 51576:1 51841:1 52006:1 52121:1 52481:1 52505:1 53097:1 53484:1 53503:1 53581:1 53680:1 54362:1 54449:1 54459:1 54593:1 54713:1 55285:1 55505:1 55581:1 55619:1 55865:1 55868:1 56045:1 56078:1 56278:1 56353:1 56870:1 56874:1 56955:1 57524:1 57561:1 57574:1 57792:1 57878:1 58035:1 58124:1 58338:1 58541:1 58704:1 59192:1 59340:1 59754:1 59855:1 59991:1 60122:1 60613:1 61064:1 61467:1 61532:1 61672:1 62241:1 62524:1 62639:1 62731:1 63099:1 63800:1 63857:1 63910:1 64058:1 64259:1 64316:1 64344:1 64508:1 64603:1 64819:1 64969:1 65045:1 65088:1 65382:1 65471:1 65747:1 65754:1 65799:1 66012:1 66439:1 66747:1 67364:1 67534:1 67595:1 67801:1 67903:1 68067:1 68436:1 68672:1 68834:1 68936:1 69173:1 69330:1 69757:1 69949:1 70456:1 70610:1 71085:1 71309:1 71532:1 71628:1 71643:1 71962:1 72172:1 72488:1 72560:1 72821:1 72887:1 72981:1 73432:1 73617:1 74039:1 74050:1 74233:1 75165:1 75306:1 75679:1 75784:1 76505:1 76545:1 #
-0.0032552080066614512247891166651925 28745:1 28865:1 28996:1 28998:1 29095:1 29104:1 29113:1 29471:1 29550:1 29816:1 29943:1 29972:1 30025:1 30059:1 30118:1 30120:1 30341:1 30632:1 30920:1 31031:1 31080:1 31285:1 31365:1 31531:1 31595:1 31726:1 32216:1 32344:1 32371:1 32392:1 32478:1 32479:1 32805:1 33217:1 33262:1 33319:1 33324:1 33437:1 33630:1 33806:1 33839:1 33855:1 33968:1 34165:1 34222:1 34256:1 34356:1 34422:1 34478:1 34596:1 34615:1 34864:1 35116:1 35343:1 35408:1 35475:1 35478:1 35547:1 35915:1 36484:1 36802:1 36889:1 36903:1 36955:1 36997:1 37060:1 37072:1 37286:1 37429:1 37651:1 37693:1 37851:1 37918:1 38300:1 38448:1 38475:1 38869:1 38990:1 38991:1 39064:1 39259:1 39424:1 39468:1 39701:1 39820:1 39899:1 39911:1 40187:1 40198:1 40281:1 40584:1 40768:1 40835:1 40845:1 40936:1 41052:1 41596:1 41613:1 41625:1 41657:1 41677:1 41678:1 41681:1 41866:1 41943:1 42008:1 42054:1 42094:1 42158:1 42193:1 42240:1 42317:1 42362:1 42368:1 42461:1 42721:1 42834:1 43004:1 43067:1 43220:1 43391:1 43394:1 43395:1 43529:1 43560:1 43572:1 43741:1 43814:1 43922:1 43925:1 43952:1 44011:1 44112:1 44186:1 44212:1 44493:1 44568:1 44771:1 44774:1 45147:1 45161:1 45209:1 45451:1 45458:1 45540:1 45833:1 45866:1 45916:1 46161:1 46189:1 46223:1 46300:1 46347:1 46741:1 46742:1 46756:1 46846:1 46992:1 46998:1 47238:1 47589:1 47757:1 47871:1 48239:1 48366:1 48376:1 48399:1 49146:1 49497:1 49690:1 49731:1 49915:1 50294:1 50297:1 50304:1 50333:1 50509:1 50623:1 50630:1 50639:1 51084:1 51215:1 51460:1 51746:1 51889:1 52121:1 52225:1 52275:1 52447:1 52699:1 52820:1 52882:1 52927:1 53097:1 53377:1 53503:1 53581:1 53590:1 53680:1 53890:1 53952:1 54420:1 54814:1 54823:1 55296:1 55363:1 55505:1 55579:1 55619:1 55627:1 55656:1 55852:1 55865:1 55868:1 55897:1 55932:1 56070:1 56074:1 56278:1 56353:1 56365:1 56396:1 56473:1 56795:1 56955:1 57043:1 57439:1 57479:1 57792:1 57815:1 57821:1 57840:1 58035:1 58063:1 58395:1 58601:1 58808:1 58928:1 59040:1 59082:1 59098:1 59185:1 59517:1 59576:1 59784:1 60007:1 60587:1 61083:1 61150:1 61467:1 61476:1 61532:1 61542:1 61668:1 61744:1 61928:1 62162:1 62221:1 62250:1 62416:1 62554:1 62564:1 62731:1 62786:1 62833:1 63565:1 63682:1 63800:1 63857:1 63911:1 64248:1 64344:1 64395:1 64555:1 64746:1 64805:1 64944:1 65045:1 65088:1 65140:1 65469:1 65974:1 66070:1 66094:1 66255:1 66532:1 66806:1 66957:1 66992:1 67251:1 67668:1 67681:1 67851:1 67927:1 67965:1 68065:1 68067:1 68164:1 68296:1 68436:1 68443:1 68512:1 68672:1 68945:1 69031:1 69040:1 69072:1 69341:1 69390:1 69500:1 69721:1 69812:1 69835:1 69949:1 70375:1 70423:1 70610:1 70683:1 70725:1 70779:1 70992:1 71085:1 71444:1 71535:1 71652:1 72172:1 72194:1 72289:1 72525:1 72560:1 72574:1 72887:1 73675:1 74039:1 74160:1 74241:1 74482:1 74497:1 74887:1 75327:1 75554:1 75744:1 75802:1 76063:1 76109:1 76176:1 76473:1 76512:1 76536:1 #
0.0032552080066614512247891166651925 28565:1 28589:1 28617:1 28641:1 28681:1 28871:1 28880:1 28896:1 28996:1 28998:1 29095:1 29104:1 29138:1 29379:1 29550:1 29719:1 29846:1 29933:1 29943:1 30056:1 30118:1 30946:1 30978:1 31007:1 31222:1 31646:1 31726:1 32104:1 32216:1 32392:1 32394:1 32479:1 32935:1 33117:1 33217:1 33320:1 33476:1 33580:1 33630:1 33645:1 33839:1 34256:1 34478:1 34781:1 34920:1 34969:1 35215:1 35238:1 35306:1 35363:1 35428:1 35475:1 35510:1 35915:1 35955:1 35985:1 36042:1 36221:1 36326:1 36393:1 36424:1 36631:1 36802:1 36955:1 36997:1 37060:1 37130:1 37256:1 37286:1 37312:1 37471:1 37546:1 37640:1 37651:1 37726:1 37918:1 38007:1 38305:1 38470:1 38700:1 38991:1 39025:1 39056:1 39182:1 39250:1 39354:1 39355:1 39798:1 39820:1 39918:1 39920:1 40432:1 40628:1 40693:1 40822:1 40845:1 41052:1 41142:1 41183:1 41194:1 41277:1 41441:1 41596:1 41625:1 41632:1 41657:1 41677:1 41678:1 41681:1 41712:1 41723:1 41794:1 41847:1 41868:1 42151:1 42158:1 42193:1 42206:1 42264:1 42362:1 42368:1 42565:1 42711:1 42721:1 42851:1 42913:1 43157:1 43298:1 43299:1 43402:1 43421:1 43572:1 43648:1 43741:1 43814:1 44001:1 44152:1 44187:1 44549:1 44721:1 44774:1 44868:1 44933:1 45206:1 45479:1 45916:1 45941:1 46003:1 46189:1 46195:1 46300:1 46474:1 46663:1 46708:1 46741:1 46742:1 46745:1 46756:1 47107:1 47200:1 47238:1 47252:1 47378:1 47430:1 47689:1 47742:1 48095:1 48247:1 48276:1 48370:1 48399:1 48413:1 48508:1 48601:1 49146:1 49261:1 49340:1 49530:1 49690:1 49753:1 49872:1 49915:1 50158:1 50215:1 50297:1 50304:1 50362:1 50474:1 50623:1 50630:1 50639:1 50721:1 50776:1 50806:1 50878:1 50949:1 51199:1 51443:1 51495:1 51520:1 51583:1 51625:1 51833:1 52121:1 52693:1 52721:1 52882:1 53097:1 53118:1 53253:1 53361:1 53581:1 53680:1 53685:1 53982:1 54224:1 54362:1 54727:1 54977:1 55142:1 55181:1 55458:1 55495:1 55505:1 55868:1 55895:1 55916:1 55955:1 56067:1 56070:1 56078:1 56227:1 56402:1 56799:1 56816:1 56882:1 57187:1 57396:1 57686:1 57792:1 57821:1 57963:1 58022:1 58035:1 58235:1 58338:1 58352:1 58449:1 58587:1 58610:1 58613:1 58710:1 58715:1 58780:1 58786:1 59166:1 59192:1 59195:1 59212:1 59216:1 59340:1 59855:1 59943:1 60149:1 60531:1 60800:1 60974:1 61083:1 61150:1 61206:1 61279:1 61369:1 61442:1 61532:1 61584:1 61693:1 62034:1 62221:1 62263:1 62460:1 62554:1 62693:1 62731:1 63099:1 63153:1 63431:1 63455:1 63800:1 63904:1 64088:1 64204:1 64268:1 64344:1 64388:1 64400:1 64875:1 64894:1 65020:1 65045:1 65088:1 65140:1 65198:1 65370:1 65377:1 65469:1 65644:1 66012:1 66070:1 66343:1 66532:1 66690:1 66828:1 66865:1 67163:1 67542:1 67665:1 68361:1 68436:1 68443:1 68648:1 68672:1 68759:1 68834:1 68945:1 69031:1 69072:1 69341:1 69669:1 69812:1 69892:1 69949:1 69973:1 70027:1 70100:1 70247:1 70610:1 70611:1 70671:1 70783:1 70784:1 70937:1 71047:1 71085:1 71215:1 71223:1 71445:1 71562:1 71652:1 71689:1 72172:1 72188:1 72212:1 72225:1 72266:1 72310:1 72319:1 72425:1 72475:1 72534:1 72560:1 73247:1 73269:1 73530:1 73675:1 74097:1 74228:1 74481:1 74482:1 74888:1 74893:1 74899:1 75085:1 75165:1 75306:1 75385:1 75519:1 75802:1 75961:1 76169:1 76273:1 76548:1 76609:1 #
0.0028741995026676714006241830645649 28996:1 29095:1 29104:1 29166:1 29245:1 29550:1 29719:1 29743:1 29943:1 30118:1 30298:1 30523:1 30606:1 30804:1 30878:1 31109:1 31224:1 31531:1 31975:1 32010:1 32253:1 32255:1 32366:1 32392:1 32394:1 32417:1 32475:1 32479:1 32732:1 32993:1 33306:1 33367:1 33471:1 33476:1 33855:1 33958:1 34129:1 34165:1 34272:1 34378:1 34478:1 34482:1 34624:1 34844:1 34864:1 34997:1 35102:1 35233:1 35475:1 35939:1 36026:1 36802:1 36955:1 36997:1 37060:1 37235:1 37286:1 37522:1 37537:1 37841:1 37918:1 38214:1 38504:1 38636:1 38757:1 38806:1 38990:1 38991:1 39025:1 39250:1 39354:1 39757:1 39797:1 39826:1 39999:1 40166:1 40672:1 40719:1 40845:1 41023:1 41527:1 41625:1 41670:1 41677:1 41678:1 41681:1 41784:1 42008:1 42032:1 42081:1 42193:1 42721:1 43088:1 43394:1 43402:1 43482:1 43493:1 43526:1 43741:1 43925:1 44043:1 44105:1 44187:1 44409:1 44953:1 44992:1 45161:1 45353:1 45574:1 45801:1 45866:1 46003:1 46073:1 46189:1 46419:1 46474:1 46481:1 46579:1 46663:1 46741:1 46742:1 47311:1 47443:1 47448:1 47929:1 48053:1 48132:1 48151:1 48197:1 48272:1 48276:1 48277:1 48367:1 48399:1 48829:1 49146:1 49239:1 49288:1 49340:1 49351:1 49353:1 49411:1 49690:1 49731:1 49753:1 49796:1 49860:1 49915:1 50304:1 50364:1 50623:1 50630:1 51199:1 51279:1 51348:1 51541:1 51602:1 51648:1 51676:1 52121:1 52275:1 52316:1 52408:1 53097:1 53118:1 53377:1 53581:1 53680:1 53805:1 54362:1 54409:1 54459:1 54814:1 54971:1 55304:1 55319:1 55359:1 55413:1 55837:1 55852:1 55865:1 55868:1 56241:1 56396:1 56599:1 56630:1 56631:1 56795:1 56797:1 56874:1 56955:1 57103:1 57524:1 57792:1 57963:1 58035:1 58067:1 58286:1 58513:1 58547:1 58601:1 59083:1 59192:1 59212:1 59279:1 59340:1 59455:1 59482:1 59784:1 59854:1 59855:1 60154:1 60403:1 60714:1 61407:1 61865:1 61902:1 62020:1 62087:1 62144:1 62265:1 62475:1 62554:1 62731:1 62786:1 62976:1 63262:1 63348:1 63490:1 63674:1 63857:1 64058:1 64068:1 64204:1 64327:1 64344:1 64609:1 64819:1 65020:1 65056:1 65088:1 65140:1 65198:1 65319:1 65438:1 66012:1 66255:1 66532:1 66586:1 66692:1 66747:1 67163:1 67179:1 67184:1 67192:1 67251:1 67839:1 67908:1 68074:1 68436:1 68443:1 68672:1 68834:1 68948:1 69252:1 69330:1 69341:1 69435:1 69689:1 69757:1 69903:1 69949:1 70060:1 70610:1 70683:1 70779:1 70929:1 70953:1 71085:1 71223:1 71559:1 71635:1 71683:1 71829:1 71979:1 72066:1 72172:1 72470:1 72868:1 73675:1 73828:1 73907:1 74497:1 74600:1 74649:1 74721:1 75165:1 75784:1 75802:1 76473:1 76576:1 76611:1 #
0.0032552080066614512247891166651925 28705:1 28996:1 28998:1 29095:1 29297:1 29519:1 29943:1 30047:1 30118:1 30201:1 30465:1 30606:1 30737:1 30804:1 30946:1 31222:1 31285:1 31848:1 32392:1 32417:1 32479:1 32805:1 32814:1 32897:1 33089:1 33476:1 33485:1 33647:1 33839:1 34089:1 34353:1 34429:1 34864:1 35107:1 35215:1 35238:1 35306:1 35478:1 35720:1 36119:1 36360:1 36520:1 36802:1 36955:1 36997:1 37060:1 37286:1 37664:1 37918:1 38036:1 38169:1 38320:1 38475:1 38636:1 38741:1 38990:1 39006:1 39025:1 39354:1 39701:1 39826:1 39844:1 39911:1 39913:1 39920:1 40281:1 40536:1 40628:1 40656:1 40845:1 40846:1 41052:1 41625:1 41677:1 41678:1 41681:1 41723:1 41789:1 42032:1 42362:1 42602:1 42757:1 42908:1 43341:1 43394:1 43395:1 43400:1 43402:1 43572:1 43741:1 43751:1 44495:1 44522:1 44721:1 44819:1 44933:1 45174:1 45683:1 45950:1 46741:1 46742:1 46756:1 46846:1 47168:1 47311:1 47369:1 47524:1 47594:1 48340:1 48399:1 48487:1 48957:1 49062:1 49146:1 49456:1 49475:1 49497:1 49690:1 49915:1 50304:1 50628:1 50630:1 50639:1 51298:1 51541:1 51951:1 52121:1 52701:1 52967:1 53097:1 53118:1 53484:1 53503:1 53581:1 53680:1 53736:1 54084:1 54267:1 54334:1 54362:1 55852:1 55868:1 55875:1 56182:1 56353:1 56797:1 56877:1 56907:1 57728:1 57792:1 57821:1 57963:1 58035:1 58084:1 58386:1 58394:1 58637:1 58710:1 59212:1 59305:1 59784:1 59793:1 60007:1 60055:1 60062:1 60697:1 61083:1 61407:1 61469:1 61842:1 62731:1 62751:1 62766:1 62786:1 62846:1 62850:1 63931:1 64099:1 64201:1 64470:1 64590:1 64819:1 65045:1 65088:1 65140:1 65198:1 65747:1 66016:1 66070:1 66255:1 66328:1 66692:1 67251:1 67294:1 67532:1 67571:1 68436:1 68443:1 68475:1 68600:1 68672:1 68744:1 68759:1 68834:1 68860:1 68936:1 69072:1 69139:1 69341:1 69473:1 69500:1 69691:1 69949:1 69963:1 70610:1 70611:1 70783:1 70992:1 71085:1 71215:1 71232:1 71240:1 71407:1 71408:1 71446:1 71608:1 71652:1 72092:1 72172:1 72212:1 72887:1 72962:1 73391:1 73521:1 73617:1 73675:1 74097:1 74770:1 75802:1 76451:1 76473:1 76568:1 76609:1 #
0.00016233107439314305511790514913173 28582:1 28617:1 28641:1 28675:1 28693:1 28745:1 28877:1 28960:1 28996:1 28998:1 29095:1 29104:1 29143:1 29316:1 29452:1 29550:1 29702:1 29713:1 29719:1 29776:1 29846:1 29943:1 30118:1 30410:1 30522:1 30632:1 30804:1 30914:1 30978:1 31391:1 31561:1 31646:1 31743:1 31750:1 31791:1 31873:1 31927:1 32216:1 32217:1 32231:1 32284:1 32394:1 32479:1 32530:1 32711:1 32910:1 33122:1 33165:1 33349:1 33417:1 33418:1 33429:1 33582:1 33636:1 34020:1 34122:1 34202:1 34239:1 34256:1 34356:1 34422:1 34429:1 34441:1 34458:1 34478:1 34483:1 34492:1 34947:1 35059:1 35115:1 35137:1 35271:1 35306:1 35363:1 35428:1 35467:1 35475:1 35478:1 35643:1 35740:1 36119:1 36173:1 36189:1 36520:1 36574:1 36802:1 36836:1 36850:1 36955:1 36997:1 37017:1 37031:1 37060:1 37286:1 37312:1 37651:1 37703:1 37741:1 37809:1 37845:1 37918:1 37966:1 38077:1 38126:1 38504:1 38511:1 38546:1 38636:1 38921:1 38990:1 38991:1 39000:1 39073:1 39147:1 39229:1 39318:1 39322:1 39355:1 39379:1 39545:1 39652:1 39701:1 39757:1 39759:1 39797:1 39820:1 39918:1 39999:1 40113:1 40187:1 40335:1 40377:1 40522:1 40547:1 40592:1 40628:1 40660:1 40666:1 40845:1 40897:1 40926:1 41183:1 41200:1 41231:1 41322:1 41357:1 41525:1 41617:1 41625:1 41628:1 41677:1 41678:1 41681:1 41794:1 41856:1 41868:1 41901:1 42022:1 42052:1 42158:1 42229:1 42362:1 42368:1 42426:1 42448:1 42566:1 42736:1 42978:1 43055:1 43131:1 43382:1 43394:1 43395:1 43400:1 43402:1 43560:1 43572:1 43628:1 43648:1 43730:1 43732:1 43733:1 43734:1 43741:1 44170:1 44197:1 44364:1 44409:1 44412:1 44522:1 44591:1 44810:1 44905:1 44952:1 44973:1 45228:1 45235:1 45295:1 45540:1 45743:1 46189:1 46300:1 46419:1 46622:1 46741:1 46742:1 46745:1 46811:1 46932:1 46943:1 47070:1 47200:1 47311:1 47381:1 47465:1 47477:1 47513:1 47589:1 47642:1 47832:1 47883:1 47929:1 47974:1 48399:1 48425:1 48658:1 48669:1 48751:1 48861:1 49008:1 49062:1 49146:1 49203:1 49239:1 49498:1 49603:1 49652:1 49690:1 49728:1 49731:1 49860:1 49915:1 49971:1 50304:1 50450:1 50494:1 50623:1 50630:1 50639:1 50799:1 50826:1 51551:1 51602:1 51660:1 51676:1 51734:1 52061:1 52121:1 52242:1 52408:1 52446:1 52489:1 52699:1 52927:1 53079:1 53097:1 53118:1 53377:1 53678:1 53680:1 53704:1 53705:1 53878:1 54362:1 54363:1 54409:1 54430:1 54508:1 54632:1 54793:1 55619:1 55673:1 55852:1 55868:1 55869:1 55872:1 56078:1 56113:1 56353:1 56795:1 56874:1 56991:1 57047:1 57187:1 57208:1 57370:1 57439:1 57441:1 57686:1 57792:1 57815:1 57821:1 57899:1 58097:1 58172:1 58280:1 58402:1 58465:1 58513:1 58637:1 58710:1 58808:1 58838:1 58896:1 58917:1 58950:1 59082:1 59208:1 59227:1 59309:1 59311:1 59480:1 59482:1 59498:1 59678:1 59724:1 59785:1 59871:1 60158:1 60353:1 60403:1 60700:1 60911:1 61079:1 61083:1 61084:1 61387:1 61407:1 61476:1 61997:1 62106:1 62221:1 62251:1 62313:1 62462:1 62554:1 62594:1 62640:1 62731:1 62786:1 62850:1 62852:1 62937:1 63222:1 63490:1 63545:1 63655:1 63825:1 63911:1 63994:1 64026:1 64144:1 64204:1 64212:1 64344:1 64388:1 64603:1 64734:1 64805:1 64903:1 64915:1 64944:1 65019:1 65045:1 65088:1 65198:1 65283:1 65438:1 65469:1 65471:1 65531:1 65622:1 65867:1 66012:1 66255:1 66328:1 66532:1 66586:1 66602:1 66690:1 66817:1 66863:1 66881:1 67164:1 67192:1 67217:1 67247:1 67574:1 67714:1 67761:1 67795:1 68014:1 68055:1 68394:1 68436:1 68443:1 68510:1 68672:1 68783:1 68834:1 68850:1 68945:1 69072:1 69363:1 69390:1 69516:1 69606:1 69804:1 69898:1 69949:1 70093:1 70100:1 70189:1 70247:1 70300:1 70334:1 70443:1 70456:1 70610:1 70611:1 70779:1 70904:1 71085:1 71120:1 71135:1 71200:1 71276:1 71439:1 71722:1 71745:1 71788:1 72087:1 72098:1 72212:1 72266:1 72312:1 72488:1 72926:1 73161:1 73187:1 73236:1 73428:1 73675:1 73761:1 73957:1 74039:1 74160:1 74345:1 74497:1 74517:1 74639:1 74770:1 74805:1 75336:1 75384:1 75585:1 75784:1 75802:1 75904:1 76473:1 76512:1 #
0.0032552080066614512247891166651925 28581:1 28824:1 28895:1 28996:1 28998:1 29104:1 29501:1 29550:1 29816:1 29943:1 30094:1 30118:1 30152:1 30249:1 30341:1 30505:1 30566:1 30661:1 30729:1 30911:1 30978:1 31365:1 31488:1 31531:1 31572:1 31646:1 31743:1 31791:1 31799:1 32316:1 32392:1 32479:1 32912:1 32929:1 33033:1 33612:1 33620:1 33630:1 33806:1 33840:1 34148:1 34215:1 34256:1 34422:1 34482:1 34878:1 34880:1 35215:1 35306:1 35307:1 35349:1 35475:1 35478:1 35563:1 35733:1 35955:1 36119:1 36563:1 36626:1 36802:1 36878:1 36997:1 37047:1 37060:1 37286:1 37296:1 37432:1 37475:1 37651:1 37704:1 38036:1 38050:1 38428:1 38636:1 38700:1 38741:1 38778:1 38991:1 39025:1 39355:1 39459:1 39472:1 39757:1 39820:1 39826:1 39963:1 40077:1 40114:1 40273:1 40522:1 40628:1 40666:1 40845:1 40950:1 40999:1 41105:1 41322:1 41407:1 41458:1 41677:1 41678:1 41681:1 41794:1 41943:1 42118:1 42151:1 42158:1 42362:1 42414:1 42448:1 42486:1 42508:1 42556:1 42804:1 43017:1 43267:1 43400:1 43493:1 43496:1 43560:1 43572:1 43648:1 43719:1 43741:1 43864:1 43945:1 44001:1 44123:1 44160:1 44169:1 44497:1 44633:1 44970:1 45201:1 45399:1 45479:1 45738:1 45975:1 46189:1 46741:1 46756:1 47145:1 47311:1 47381:1 47468:1 47514:1 47524:1 47632:1 47728:1 48034:1 48247:1 48285:1 48315:1 48324:1 48370:1 48399:1 49029:1 49104:1 49146:1 49239:1 49308:1 49456:1 49799:1 49915:1 50304:1 50446:1 50623:1 50630:1 50639:1 50949:1 51084:1 51279:1 51582:1 51625:1 51666:1 51879:1 52056:1 52588:1 52677:1 53064:1 53097:1 53118:1 53253:1 53484:1 53584:1 53604:1 53680:1 53704:1 54362:1 54363:1 54401:1 54670:1 54789:1 54814:1 54929:1 54977:1 55048:1 55505:1 55619:1 55868:1 55961:1 56071:1 56078:1 56113:1 56182:1 56209:1 56353:1 56631:1 56907:1 57076:1 57299:1 57792:1 58035:1 58172:1 58465:1 58927:1 59212:1 59309:1 59482:1 59676:1 59695:1 59760:1 59784:1 59824:1 59843:1 59855:1 60599:1 61083:1 61421:1 61437:1 62429:1 62594:1 62786:1 63222:1 63273:1 63490:1 63737:1 63910:1 63994:1 64709:1 64805:1 64814:1 64819:1 64903:1 65088:1 65140:1 65332:1 65469:1 65504:1 65935:1 66255:1 66310:1 66373:1 66532:1 66549:1 66626:1 66726:1 66748:1 66863:1 67038:1 67184:1 67217:1 67251:1 68291:1 68436:1 68443:1 68512:1 68648:1 68672:1 68783:1 68834:1 69341:1 69910:1 69928:1 69949:1 70610:1 70611:1 70779:1 70904:1 70937:1 71085:1 71223:1 71275:1 71387:1 71439:1 71608:1 71727:1 71745:1 71762:1 71881:1 71910:1 71921:1 72266:1 72361:1 72801:1 72887:1 72962:1 72963:1 73041:1 73828:1 74039:1 74050:1 74228:1 74348:1 74497:1 74600:1 74774:1 74783:1 74864:1 75306:1 75563:1 75585:1 75649:1 75742:1 75993:1 76473:1 #
-0.0032552080066614512247891166651925 28582:1 28675:1 28877:1 28912:1 28931:1 28951:1 28960:1 28996:1 28998:1 29025:1 29095:1 29104:1 29245:1 29455:1 29539:1 29550:1 29597:1 29789:1 29846:1 29933:1 29943:1 29997:1 30047:1 30061:1 30118:1 30170:1 30341:1 30442:1 30462:1 30549:1 30804:1 30833:1 30879:1 30914:1 30978:1 31206:1 31285:1 31375:1 31485:1 31531:1 31726:1 31743:1 31781:1 31793:1 31975:1 32036:1 32191:1 32316:1 32323:1 32392:1 32394:1 32479:1 32545:1 32803:1 32910:1 32912:1 32952:1 33319:1 33349:1 33463:1 33476:1 33630:1 33697:1 34023:1 34076:1 34148:1 34193:1 34359:1 34427:1 34454:1 34478:1 34861:1 34864:1 34947:1 35031:1 35060:1 35236:1 35238:1 35306:1 35363:1 35475:1 35478:1 35506:1 35720:1 35915:1 35943:1 35955:1 35985:1 35986:1 36221:1 36265:1 36326:1 36424:1 36487:1 36520:1 36544:1 36547:1 36802:1 36927:1 36997:1 37060:1 37286:1 37312:1 37471:1 37604:1 37628:1 37651:1 37918:1 37963:1 38000:1 38077:1 38300:1 38389:1 38470:1 38495:1 38511:1 38522:1 38636:1 38778:1 38829:1 38874:1 38964:1 38990:1 38991:1 39000:1 39025:1 39116:1 39124:1 39226:1 39250:1 39354:1 39355:1 39493:1 39569:1 39573:1 39706:1 39820:1 39826:1 39963:1 39999:1 40011:1 40187:1 40273:1 40291:1 40315:1 40320:1 40373:1 40432:1 40498:1 40503:1 40628:1 40660:1 40666:1 40693:1 40835:1 40845:1 40849:1 40936:1 40999:1 41087:1 41183:1 41322:1 41367:1 41381:1 41625:1 41677:1 41678:1 41681:1 41723:1 41794:1 41806:1 41862:1 41866:1 41943:1 41962:1 42008:1 42158:1 42193:1 42281:1 42362:1 42448:1 42555:1 42563:1 42627:1 42711:1 43131:1 43299:1 43394:1 43395:1 43402:1 43493:1 43553:1 43560:1 43576:1 43703:1 43734:1 43741:1 43925:1 43945:1 43947:1 44188:1 44235:1 44355:1 44409:1 44513:1 44522:1 44586:1 44685:1 44721:1 44832:1 44905:1 44949:1 44953:1 45248:1 45276:1 45399:1 45458:1 45479:1 45540:1 45611:1 45616:1 45916:1 46003:1 46145:1 46189:1 46195:1 46300:1 46474:1 46741:1 46742:1 46756:1 46773:1 46889:1 46920:1 46925:1 47070:1 47238:1 47252:1 47311:1 47494:1 47566:1 47594:1 47598:1 47632:1 47642:1 47758:1 47787:1 47829:1 48244:1 48255:1 48399:1 48424:1 48510:1 48601:1 48764:1 48978:1 49004:1 49062:1 49146:1 49239:1 49340:1 49401:1 49411:1 49522:1 49523:1 49598:1 49690:1 49731:1 49847:1 49854:1 49882:1 49915:1 50108:1 50158:1 50304:1 50370:1 50450:1 50623:1 50630:1 50639:1 50692:1 50805:1 50928:1 50970:1 51079:1 51342:1 51526:1 51541:1 51589:1 51625:1 51671:1 51963:1 52056:1 52071:1 52121:1 52446:1 52701:1 53097:1 53118:1 53130:1 53141:1 53377:1 53581:1 53590:1 53634:1 53680:1 53744:1 53871:1 54162:1 54286:1 54362:1 54363:1 54367:1 54409:1 54459:1 54814:1 54825:1 54933:1 55463:1 55502:1 55505:1 55619:1 55702:1 55868:1 55875:1 55893:1 56078:1 56092:1 56111:1 56194:1 56198:1 56345:1 56353:1 56365:1 56489:1 56516:1 56547:1 56631:1 56737:1 56752:1 56795:1 56829:1 56955:1 56981:1 56991:1 57063:1 57187:1 57268:1 57524:1 57551:1 57566:1 57634:1 57792:1 57821:1 57834:1 57899:1 57954:1 57963:1 58022:1 58069:1 58109:1 58172:1 58297:1 58526:1 58710:1 58734:1 58983:1 59082:1 59099:1 59109:1 59192:1 59212:1 59216:1 59238:1 59309:1 59311:1 59331:1 59517:1 59983:1 59991:1 60055:1 60122:1 60144:1 60792:1 60920:1 60943:1 61083:1 61279:1 61407:1 61467:1 61514:1 61532:1 61625:1 61668:1 61919:1 62144:1 62221:1 62265:1 62395:1 62404:1 62465:1 62554:1 62731:1 62786:1 62850:1 62928:1 63222:1 63227:1 63469:1 63655:1 63718:1 63800:1 63819:1 63857:1 63931:1 64026:1 64043:1 64099:1 64204:1 64629:1 64675:1 64805:1 64813:1 64814:1 64819:1 64903:1 64976:1 65045:1 65088:1 65140:1 65326:1 65438:1 65699:1 65873:1 65893:1 66012:1 66070:1 66093:1 66235:1 66287:1 66310:1 66373:1 66532:1 66662:1 66747:1 66749:1 66766:1 66796:1 66854:1 66863:1 66865:1 66953:1 67020:1 67184:1 67192:1 67251:1 67364:1 67370:1 67374:1 67394:1 67590:1 67807:1 67866:1 68055:1 68184:1 68368:1 68408:1 68436:1 68512:1 68613:1 68672:1 68695:1 68697:1 68789:1 69031:1 69050:1 69290:1 69330:1 69341:1 69387:1 69390:1 69413:1 69467:1 69500:1 69501:1 69680:1 69757:1 69786:1 69949:1 70034:1 70128:1 70456:1 70575:1 70610:1 70611:1 70616:1 70725:1 70731:1 70752:1 70779:1 70783:1 71085:1 71140:1 71223:1 71232:1 71295:1 71408:1 71510:1 71535:1 71652:1 71656:1 71683:1 71745:1 72172:1 72261:1 72266:1 72397:1 72401:1 72488:1 72810:1 72922:1 73304:1 73391:1 73453:1 73544:1 73568:1 73662:1 73675:1 73832:1 74050:1 74212:1 74228:1 74261:1 74526:1 74595:1 74734:1 74765:1 74897:1 75036:1 75165:1 75401:1 75554:1 75605:1 75784:1 75802:1 76033:1 76265:1 76473:1 76609:1 #
-0.0017609555865803403190000819833472 28617:1 28706:1 28745:1 28850:1 28896:1 28996:1 29095:1 29104:1 29361:1 29377:1 29452:1 29550:1 29587:1 29639:1 29816:1 29846:1 29933:1 29943:1 30028:1 30118:1 30442:1 30804:1 30855:1 30892:1 31090:1 31125:1 31222:1 31726:1 31743:1 31791:1 31873:1 31901:1 31908:1 32216:1 32224:1 32243:1 32254:1 32286:1 32347:1 32392:1 32394:1 32417:1 32475:1 32479:1 32839:1 32858:1 32912:1 33033:1 33165:1 33170:1 33324:1 33349:1 33365:1 33386:1 33645:1 33806:1 33814:1 33996:1 34097:1 34144:1 34148:1 34241:1 34357:1 34422:1 34498:1 34596:1 34805:1 34864:1 34868:1 34969:1 35095:1 35116:1 35137:1 35236:1 35363:1 35467:1 35534:1 35714:1 35720:1 35771:1 35806:1 35885:1 35955:1 36026:1 36119:1 36221:1 36311:1 36729:1 36802:1 36955:1 36992:1 36997:1 37060:1 37231:1 37235:1 37286:1 37326:1 37374:1 37635:1 37671:1 37918:1 38210:1 38305:1 38364:1 38458:1 38511:1 38522:1 38523:1 38695:1 38741:1 38848:1 38990:1 38991:1 38998:1 39025:1 39289:1 39334:1 39355:1 39468:1 39701:1 39741:1 39820:1 39826:1 39899:1 39913:1 39918:1 39999:1 40169:1 40193:1 40198:1 40200:1 40303:1 40309:1 40351:1 40628:1 40719:1 40817:1 40845:1 41052:1 41322:1 41617:1 41625:1 41676:1 41677:1 41678:1 41681:1 41806:1 42032:1 42034:1 42088:1 42151:1 42158:1 42362:1 42368:1 42383:1 42439:1 42467:1 42508:1 42588:1 42617:1 42630:1 42721:1 42834:1 42893:1 42985:1 43000:1 43012:1 43086:1 43228:1 43253:1 43352:1 43394:1 43400:1 43402:1 43493:1 43510:1 43560:1 43622:1 43719:1 43727:1 43741:1 44012:1 44165:1 44197:1 44507:1 44522:1 44721:1 44838:1 45209:1 45300:1 45399:1 45479:1 45595:1 46166:1 46189:1 46237:1 46300:1 46663:1 46731:1 46741:1 46742:1 46756:1 46948:1 47070:1 47108:1 47145:1 47146:1 47238:1 47311:1 47339:1 47465:1 47883:1 48015:1 48100:1 48197:1 48228:1 48246:1 48281:1 48399:1 48480:1 48937:1 48963:1 49011:1 49146:1 49147:1 49239:1 49261:1 49271:1 49274:1 49371:1 49464:1 49530:1 49640:1 49690:1 49811:1 49860:1 49915:1 50190:1 50304:1 50370:1 50401:1 50450:1 50607:1 50623:1 50630:1 50639:1 50757:1 50777:1 50887:1 50928:1 51112:1 51495:1 51551:1 51651:1 51676:1 51695:1 51893:1 51963:1 52121:1 52139:1 52275:1 52444:1 52721:1 52793:1 52875:1 53079:1 53097:1 53118:1 53206:1 53235:1 53680:1 53705:1 54174:1 54274:1 54278:1 54330:1 54362:1 54363:1 54593:1 54708:1 54785:1 54957:1 55015:1 55285:1 55452:1 55505:1 55546:1 55619:1 55835:1 55855:1 55865:1 55868:1 56097:1 56353:1 56396:1 56783:1 56795:1 56870:1 56882:1 56907:1 56964:1 57138:1 57187:1 57244:1 57674:1 57792:1 57932:1 58010:1 58063:1 58172:1 58338:1 58401:1 58513:1 58514:1 58587:1 58606:1 58710:1 58778:1 58790:1 58886:1 58991:1 59098:1 59195:1 59212:1 59311:1 59761:1 59784:1 59855:1 59962:1 60007:1 60158:1 60974:1 61083:1 61085:1 61268:1 61346:1 61359:1 61672:1 61743:1 61828:1 61887:1 62016:1 62221:1 62392:1 62554:1 62731:1 62786:1 62811:1 62850:1 62928:1 63127:1 63280:1 63317:1 63469:1 63490:1 63682:1 63800:1 63818:1 63857:1 63910:1 63987:1 63994:1 64002:1 64022:1 64025:1 64058:1 64068:1 64181:1 64183:1 64204:1 64286:1 64337:1 64361:1 64373:1 64603:1 64635:1 64814:1 64915:1 64924:1 65045:1 65088:1 65140:1 65198:1 65469:1 65510:1 65622:1 65658:1 65972:1 66012:1 66106:1 66206:1 66240:1 66255:1 66331:1 66517:1 66532:1 66586:1 66602:1 66725:1 66802:1 67078:1 67251:1 67311:1 67394:1 67665:1 67807:1 67858:1 68164:1 68361:1 68436:1 68443:1 68672:1 68834:1 68923:1 68926:1 69037:1 69127:1 69158:1 69228:1 69390:1 69394:1 69500:1 69606:1 69757:1 69903:1 69949:1 70074:1 70105:1 70247:1 70327:1 70394:1 70610:1 70611:1 70643:1 70671:1 70779:1 70937:1 70992:1 71085:1 71128:1 71175:1 71223:1 71346:1 71422:1 71444:1 71683:1 71738:1 71797:1 71893:1 71962:1 72244:1 72266:1 72406:1 72714:1 72736:1 73138:1 73304:1 73546:1 73593:1 73617:1 73673:1 73675:1 74060:1 74179:1 74228:1 74409:1 74497:1 74874:1 75036:1 75085:1 75165:1 75328:1 75409:1 75550:1 75662:1 75691:1 75784:1 75798:1 75802:1 76273:1 76359:1 76609:1 #
-0.00043878751604850964145032587993001 28625:1 28694:1 28960:1 28996:1 28998:1 29045:1 29095:1 29104:1 29464:1 29529:1 29550:1 29594:1 29647:1 29816:1 29943:1 29946:1 30044:1 30118:1 30183:1 30341:1 30428:1 30442:1 30479:1 30523:1 30804:1 30878:1 30879:1 30914:1 31109:1 31224:1 31375:1 31388:1 31531:1 31553:1 31706:1 31726:1 31755:1 31841:1 31864:1 32184:1 32224:1 32273:1 32371:1 32386:1 32392:1 32410:1 32479:1 32662:1 32803:1 32959:1 33033:1 33089:1 33332:1 33367:1 33395:1 33564:1 33630:1 33741:1 33769:1 33839:1 34072:1 34116:1 34148:1 34356:1 34429:1 34478:1 34520:1 34537:1 34733:1 34861:1 34864:1 34868:1 34878:1 34947:1 34997:1 35137:1 35357:1 35380:1 35428:1 35475:1 35506:1 35567:1 35730:1 35955:1 35985:1 36015:1 36119:1 36203:1 36221:1 36360:1 36485:1 36802:1 36930:1 36955:1 36997:1 37047:1 37060:1 37121:1 37161:1 37286:1 37303:1 37312:1 37492:1 37511:1 37557:1 37594:1 37918:1 38007:1 38261:1 38389:1 38458:1 38470:1 38636:1 38637:1 38695:1 38751:1 38990:1 38991:1 39022:1 39025:1 39064:1 39226:1 39318:1 39355:1 39379:1 39544:1 39579:1 39701:1 39757:1 39807:1 39820:1 39911:1 39918:1 39999:1 40342:1 40414:1 40478:1 40536:1 40547:1 40556:1 40628:1 40835:1 40845:1 41052:1 41073:1 41183:1 41322:1 41625:1 41636:1 41657:1 41677:1 41678:1 41681:1 41705:1 41757:1 41784:1 41785:1 41794:1 41805:1 42133:1 42151:1 42228:1 42264:1 42269:1 42362:1 42368:1 42448:1 42721:1 43101:1 43394:1 43395:1 43400:1 43402:1 43438:1 43493:1 43510:1 43553:1 43560:1 43571:1 43572:1 43648:1 43690:1 43741:1 43925:1 43974:1 44001:1 44112:1 44121:1 44165:1 44355:1 44409:1 44493:1 44522:1 44586:1 44629:1 44774:1 44933:1 45052:1 45107:1 45209:1 45210:1 45248:1 45279:1 45399:1 45479:1 45540:1 45674:1 45856:1 45894:1 45916:1 45950:1 46189:1 46300:1 46375:1 46538:1 46622:1 46663:1 46731:1 46741:1 46742:1 46756:1 46869:1 47041:1 47092:1 47145:1 47156:1 47236:1 47238:1 47252:1 47311:1 47381:1 47448:1 47524:1 47598:1 47615:1 47642:1 47689:1 47782:1 47883:1 47929:1 48277:1 48370:1 48399:1 48579:1 48886:1 48937:1 49146:1 49154:1 49239:1 49261:1 49306:1 49340:1 49379:1 49435:1 49475:1 49517:1 49537:1 49603:1 49690:1 49731:1 49804:1 49871:1 49915:1 49950:1 50107:1 50294:1 50304:1 50450:1 50623:1 50630:1 50639:1 50737:1 50949:1 50961:1 50970:1 51015:1 51392:1 51443:1 51491:1 51495:1 51551:1 51625:1 51791:1 51833:1 51841:1 51993:1 52006:1 52121:1 52156:1 52275:1 52446:1 52473:1 52536:1 52651:1 52820:1 53097:1 53118:1 53470:1 53523:1 53680:1 53840:1 54362:1 54363:1 54409:1 54459:1 54789:1 55359:1 55545:1 55581:1 55619:1 55718:1 55865:1 55868:1 55916:1 56070:1 56078:1 56182:1 56186:1 56220:1 56353:1 56469:1 56752:1 56810:1 56816:1 56877:1 57226:1 57306:1 57550:1 57788:1 57792:1 57821:1 57897:1 57979:1 58035:1 58178:1 58243:1 58529:1 58573:1 58601:1 58604:1 58610:1 58637:1 58710:1 58734:1 59075:1 59082:1 59098:1 59192:1 59195:1 59212:1 59216:1 59225:1 59264:1 59305:1 59340:1 59491:1 59511:1 59517:1 59621:1 59854:1 59855:1 59923:1 59935:1 60007:1 60269:1 60587:1 60660:1 60713:1 60911:1 61083:1 61442:1 61467:1 61532:1 61613:1 61672:1 61887:1 61949:1 62330:1 62373:1 62386:1 62404:1 62472:1 62548:1 62554:1 62730:1 62731:1 62786:1 62846:1 62928:1 62976:1 63060:1 63064:1 63099:1 63408:1 63472:1 63623:1 63655:1 63800:1 63857:1 63987:1 64043:1 64204:1 64344:1 64388:1 64709:1 64814:1 64819:1 65088:1 65182:1 65198:1 65377:1 65385:1 65411:1 65438:1 65828:1 66012:1 66070:1 66085:1 66255:1 66310:1 66394:1 66432:1 66532:1 66569:1 66690:1 66817:1 66863:1 67193:1 67251:1 67562:1 67590:1 67665:1 67714:1 67845:1 67927:1 68014:1 68110:1 68166:1 68436:1 68443:1 68509:1 68600:1 68672:1 68691:1 68834:1 68850:1 68908:1 68936:1 69139:1 69158:1 69253:1 69341:1 69390:1 69500:1 69533:1 69928:1 69949:1 70085:1 70247:1 70350:1 70375:1 70456:1 70471:1 70610:1 70611:1 70646:1 70766:1 70779:1 70783:1 70846:1 70904:1 70948:1 70992:1 71085:1 71232:1 71313:1 71346:1 71562:1 71625:1 71652:1 71689:1 71941:1 72076:1 72172:1 72193:1 72266:1 72488:1 72624:1 72784:1 72821:1 72845:1 72887:1 72915:1 73187:1 73400:1 73405:1 73421:1 73459:1 73584:1 73617:1 73675:1 73692:1 73987:1 74039:1 74050:1 74060:1 74112:1 74175:1 74194:1 74252:1 74261:1 74497:1 74519:1 74770:1 74983:1 75112:1 75131:1 75165:1 75306:1 75401:1 75479:1 75512:1 75567:1 75585:1 75784:1 75802:1 75908:1 76273:1 76512:1 76548:1 #
-0.0032552080066614512247891166651925 1:1 28582:1 28589:1 28642:1 28861:1 28877:1 28960:1 28996:1 28998:1 29095:1 29104:1 29284:1 29377:1 29472:1 29550:1 29616:1 29719:1 29816:1 29884:1 29933:1 29943:1 30118:1 30166:1 30198:1 30331:1 30428:1 30442:1 30470:1 30479:1 30522:1 30581:1 30647:1 30946:1 30978:1 31109:1 31224:1 31390:1 31446:1 31646:1 31659:1 31726:1 31813:1 31856:1 31873:1 31887:1 31906:1 31990:1 32216:1 32316:1 32336:1 32371:1 32392:1 32462:1 32479:1 32528:1 32702:1 32803:1 32805:1 33217:1 33220:1 33349:1 33429:1 33435:1 33467:1 33525:1 33625:1 33868:1 33922:1 34052:1 34129:1 34148:1 34422:1 34426:1 34478:1 34482:1 34778:1 34878:1 34950:1 35273:1 35306:1 35363:1 35428:1 35462:1 35478:1 35746:1 35908:1 35955:1 35986:1 36173:1 36432:1 36507:1 36563:1 36592:1 36717:1 36781:1 36802:1 36915:1 36955:1 36997:1 37060:1 37182:1 37312:1 37456:1 37546:1 37619:1 37651:1 37660:1 37666:1 37952:1 37960:1 38059:1 38196:1 38261:1 38364:1 38375:1 38438:1 38636:1 38695:1 38778:1 38830:1 38879:1 38883:1 38991:1 39025:1 39033:1 39116:1 39124:1 39465:1 39693:1 39701:1 39820:1 39826:1 39902:1 39911:1 39920:1 40273:1 40281:1 40373:1 40400:1 40414:1 40474:1 40556:1 40583:1 40628:1 40660:1 40666:1 40835:1 40845:1 40930:1 40936:1 40985:1 41013:1 41052:1 41182:1 41183:1 41322:1 41349:1 41397:1 41499:1 41625:1 41675:1 41677:1 41678:1 41681:1 41723:1 41794:1 41943:1 42151:1 42156:1 42362:1 42368:1 42448:1 42478:1 42547:1 42662:1 42721:1 43030:1 43131:1 43394:1 43395:1 43400:1 43402:1 43493:1 43542:1 43572:1 43584:1 43666:1 43733:1 43741:1 43901:1 43922:1 43980:1 44166:1 44251:1 44342:1 44409:1 44412:1 44522:1 44527:1 44568:1 44575:1 44686:1 44774:1 45148:1 45188:1 45218:1 45342:1 45353:1 45399:1 45464:1 45540:1 45790:1 45833:1 45927:1 46003:1 46145:1 46189:1 46300:1 46474:1 46538:1 46741:1 46742:1 46756:1 47134:1 47145:1 47156:1 47200:1 47238:1 47239:1 47284:1 47311:1 47325:1 47333:1 47344:1 47381:1 47468:1 47494:1 47524:1 47580:1 47636:1 47691:1 47757:1 47782:1 47883:1 47929:1 47967:1 48015:1 48018:1 48059:1 48272:1 48364:1 48399:1 48407:1 48533:1 48563:1 48601:1 48676:1 48696:1 48837:1 48925:1 48984:1 49127:1 49128:1 49131:1 49146:1 49161:1 49288:1 49371:1 49411:1 49475:1 49498:1 49523:1 49640:1 49731:1 49818:1 49915:1 50297:1 50304:1 50494:1 50509:1 50623:1 50630:1 50639:1 50650:1 50721:1 50863:1 51005:1 51084:1 51185:1 51215:1 51478:1 51491:1 51495:1 51550:1 51625:1 51754:1 51823:1 51830:1 51893:1 51896:1 52056:1 52071:1 52175:1 52232:1 52455:1 52621:1 52721:1 52894:1 52925:1 52964:1 53097:1 53184:1 53230:1 53312:1 53377:1 53484:1 53581:1 53678:1 53680:1 53753:1 54356:1 54362:1 54409:1 54461:1 54496:1 54508:1 54579:1 54755:1 55015:1 55359:1 55403:1 55502:1 55505:1 55545:1 55619:1 55620:1 55852:1 55865:1 55868:1 55875:1 55897:1 55955:1 55998:1 56067:1 56070:1 56078:1 56141:1 56278:1 56353:1 56402:1 56513:1 56568:1 56617:1 56766:1 56795:1 56874:1 56881:1 56899:1 57017:1 57092:1 57337:1 57370:1 57473:1 57560:1 57686:1 57792:1 57821:1 57963:1 58004:1 58172:1 58333:1 58395:1 58449:1 58513:1 58516:1 58541:1 58610:1 58710:1 58714:1 58792:1 58973:1 58996:1 59100:1 59101:1 59212:1 59227:1 59309:1 59331:1 59576:1 59594:1 59639:1 59784:1 59967:1 60269:1 60348:1 60496:1 60573:1 61055:1 61079:1 61083:1 61206:1 61268:1 61275:1 61279:1 61472:1 61476:1 61595:1 61657:1 61668:1 62241:1 62263:1 62508:1 62554:1 62564:1 62638:1 62731:1 62786:1 62850:1 62852:1 62971:1 63069:1 63179:1 63469:1 63490:1 63857:1 63952:1 64008:1 64026:1 64115:1 64204:1 64344:1 64763:1 64805:1 64819:1 64944:1 64995:1 65010:1 65088:1 65198:1 65332:1 65344:1 65438:1 65747:1 65867:1 66012:1 66015:1 66070:1 66106:1 66218:1 66253:1 66255:1 66331:1 66462:1 66490:1 66532:1 66586:1 66690:1 66976:1 66994:1 67022:1 67184:1 67192:1 67251:1 67311:1 67532:1 67561:1 67607:1 67649:1 67714:1 67767:1 67801:1 67844:1 67913:1 68055:1 68065:1 68067:1 68143:1 68286:1 68348:1 68436:1 68443:1 68478:1 68512:1 68624:1 68672:1 68691:1 68867:1 68936:1 69105:1 69330:1 69341:1 69390:1 69500:1 69771:1 69949:1 70100:1 70422:1 70456:1 70499:1 70548:1 70608:1 70610:1 70646:1 70683:1 70779:1 70904:1 70983:1 71023:1 71085:1 71140:1 71384:1 71397:1 71439:1 71510:1 71801:1 71987:1 72266:1 72488:1 72576:1 72581:1 72707:1 72823:1 72926:1 73091:1 73209:1 73359:1 73453:1 73675:1 73692:1 74039:1 74050:1 74284:1 74519:1 74677:1 74864:1 74893:1 74916:1 75165:1 75306:1 75401:1 75784:1 75802:1 75853:1 75993:1 76226:1 76280:1 76300:1 76609:1 #
-0.0032552080066614512247891166651925 28680:1 28694:1 28745:1 28822:1 28996:1 28998:1 29016:1 29092:1 29095:1 29100:1 29104:1 29150:1 29192:1 29245:1 29284:1 29345:1 29403:1 29438:1 29452:1 29550:1 29703:1 29713:1 29719:1 29739:1 29745:1 29790:1 29816:1 29846:1 29943:1 30047:1 30073:1 30076:1 30118:1 30129:1 30139:1 30198:1 30341:1 30366:1 30377:1 30428:1 30479:1 30492:1 30523:1 30541:1 30978:1 30981:1 31056:1 31222:1 31224:1 31232:1 31329:1 31365:1 31529:1 31646:1 31735:1 31743:1 31841:1 31873:1 31927:1 32070:1 32336:1 32371:1 32392:1 32394:1 32396:1 32479:1 32608:1 32702:1 32713:1 32912:1 33165:1 33367:1 33379:1 33393:1 33395:1 33429:1 33605:1 33630:1 33645:1 33655:1 33686:1 33717:1 33741:1 33768:1 33769:1 33806:1 33813:1 33821:1 33839:1 33855:1 33993:1 34141:1 34148:1 34241:1 34280:1 34306:1 34327:1 34356:1 34422:1 34427:1 34428:1 34478:1 34550:1 34596:1 34686:1 34730:1 34781:1 34864:1 34880:1 34947:1 35104:1 35115:1 35137:1 35306:1 35428:1 35460:1 35467:1 35475:1 35478:1 35527:1 35629:1 35720:1 35730:1 35740:1 35746:1 35915:1 35939:1 35955:1 36053:1 36147:1 36189:1 36221:1 36245:1 36322:1 36326:1 36370:1 36420:1 36424:1 36475:1 36563:1 36802:1 36955:1 36997:1 37060:1 37176:1 37235:1 37266:1 37286:1 37312:1 37328:1 37471:1 37492:1 37580:1 37651:1 37751:1 37753:1 37851:1 37873:1 37883:1 37918:1 37928:1 38005:1 38046:1 38148:1 38305:1 38364:1 38455:1 38458:1 38475:1 38511:1 38636:1 38685:1 38778:1 38908:1 38991:1 39025:1 39054:1 39147:1 39350:1 39354:1 39355:1 39360:1 39404:1 39468:1 39498:1 39669:1 39701:1 39709:1 39757:1 39820:1 39826:1 39911:1 39937:1 39953:1 40143:1 40187:1 40200:1 40239:1 40309:1 40312:1 40315:1 40494:1 40547:1 40551:1 40612:1 40628:1 40630:1 40645:1 40660:1 40666:1 40835:1 40845:1 41052:1 41073:1 41183:1 41277:1 41322:1 41484:1 41625:1 41677:1 41678:1 41681:1 41723:1 41794:1 41848:1 41872:1 42042:1 42151:1 42158:1 42193:1 42362:1 42396:1 42414:1 42467:1 42556:1 42566:1 42578:1 42721:1 42780:1 42834:1 42887:1 42995:1 43018:1 43067:1 43088:1 43236:1 43286:1 43394:1 43395:1 43400:1 43402:1 43493:1 43542:1 43560:1 43572:1 43648:1 43703:1 43719:1 43727:1 43741:1 43906:1 44112:1 44188:1 44337:1 44409:1 44471:1 44721:1 44836:1 44933:1 44941:1 44949:1 44953:1 44973:1 45174:1 45209:1 45479:1 45772:1 45788:1 45850:1 45911:1 45916:1 45975:1 45980:1 46166:1 46189:1 46292:1 46300:1 46348:1 46375:1 46451:1 46497:1 46519:1 46579:1 46663:1 46666:1 46737:1 46741:1 46742:1 46745:1 46756:1 46811:1 46890:1 46925:1 46943:1 47143:1 47238:1 47311:1 47516:1 47524:1 47546:1 47585:1 47598:1 47654:1 47689:1 47701:1 47782:1 47832:1 47929:1 48015:1 48018:1 48123:1 48244:1 48247:1 48277:1 48302:1 48305:1 48308:1 48340:1 48349:1 48370:1 48399:1 48505:1 48606:1 48626:1 48834:1 48978:1 49062:1 49119:1 49126:1 49142:1 49146:1 49161:1 49340:1 49353:1 49498:1 49600:1 49690:1 49692:1 49780:1 49882:1 49915:1 49935:1 49959:1 49971:1 50107:1 50304:1 50383:1 50450:1 50519:1 50597:1 50623:1 50625:1 50630:1 50639:1 50768:1 50928:1 51084:1 51114:1 51196:1 51264:1 51268:1 51448:1 51495:1 51503:1 51511:1 51541:1 51551:1 51822:1 51927:1 52056:1 52108:1 52225:1 52275:1 52289:1 52447:1 52677:1 52711:1 52815:1 52894:1 52927:1 53097:1 53118:1 53206:1 53377:1 53422:1 53484:1 53562:1 53581:1 53676:1 53678:1 53680:1 53973:1 54104:1 54106:1 54351:1 54362:1 54409:1 54766:1 55437:1 55502:1 55505:1 55529:1 55619:1 55620:1 55673:1 55852:1 55865:1 55868:1 55982:1 56078:1 56198:1 56209:1 56220:1 56241:1 56353:1 56357:1 56359:1 56409:1 56435:1 56590:1 56631:1 56681:1 56797:1 56874:1 56882:1 56955:1 57043:1 57103:1 57187:1 57347:1 57526:1 57535:1 57556:1 57686:1 57792:1 57820:1 57821:1 57834:1 57869:1 57881:1 57935:1 57947:1 57963:1 58004:1 58022:1 58035:1 58153:1 58328:1 58449:1 58476:1 58513:1 58535:1 58568:1 58573:1 58599:1 58601:1 58603:1 58634:1 58710:1 58728:1 58808:1 58893:1 58996:1 59075:1 59098:1 59165:1 59192:1 59195:1 59208:1 59212:1 59230:1 59238:1 59309:1 59311:1 59331:1 59764:1 59784:1 59805:1 59824:1 59924:1 59929:1 59943:1 59983:1 60007:1 60122:1 60496:1 60534:1 60578:1 60587:1 60656:1 60666:1 60680:1 60700:1 60754:1 60884:1 60935:1 61079:1 61083:1 61385:1 61449:1 61467:1 61532:1 61562:1 61584:1 61800:1 61828:1 61854:1 61902:1 61916:1 61919:1 61920:1 61978:1 62106:1 62162:1 62221:1 62241:1 62265:1 62404:1 62446:1 62472:1 62554:1 62659:1 62731:1 62786:1 62846:1 62850:1 62976:1 63099:1 63179:1 63184:1 63431:1 63490:1 63641:1 63655:1 63674:1 63800:1 63819:1 63857:1 63910:1 63994:1 64047:1 64113:1 64181:1 64183:1 64204:1 64344:1 64552:1 64626:1 64709:1 64719:1 64763:1 64805:1 64813:1 64814:1 64819:1 64887:1 64961:1 65045:1 65084:1 65088:1 65140:1 65152:1 65209:1 65341:1 65344:1 65379:1 65382:1 65385:1 65398:1 65406:1 65469:1 65699:1 65720:1 65747:1 65867:1 65974:1 66012:1 66015:1 66070:1 66255:1 66310:1 66373:1 66382:1 66388:1 66432:1 66521:1 66532:1 66690:1 66715:1 66773:1 66853:1 67004:1 67179:1 67251:1 67302:1 67311:1 67370:1 67374:1 67454:1 67574:1 67649:1 67727:1 67839:1 68047:1 68055:1 68065:1 68067:1 68296:1 68408:1 68415:1 68436:1 68442:1 68443:1 68559:1 68672:1 68834:1 68899:1 68908:1 68948:1 69040:1 69072:1 69253:1 69406:1 69435:1 69500:1 69532:1 69717:1 69754:1 69812:1 69816:1 69903:1 69949:1 70165:1 70172:1 70308:1 70414:1 70610:1 70611:1 70646:1 70683:1 70771:1 70779:1 70824:1 70904:1 71085:1 71164:1 71200:1 71215:1 71224:1 71225:1 71232:1 71439:1 71444:1 71451:1 71502:1 71535:1 71540:1 71652:1 71745:1 71841:1 71986:1 71989:1 72098:1 72125:1 72172:1 72206:1 72219:1 72513:1 72574:1 72887:1 72962:1 72967:1 73099:1 73216:1 73233:1 73247:1 73311:1 73329:1 73459:1 73675:1 73754:1 73760:1 73818:1 73832:1 73888:1 74212:1 74252:1 74310:1 74485:1 74497:1 74590:1 74600:1 74770:1 74847:1 75060:1 75069:1 75165:1 75234:1 75261:1 75306:1 75401:1 75417:1 75525:1 75550:1 75666:1 75673:1 75769:1 75784:1 75802:1 75993:1 76033:1 76236:1 76457:1 76473:1 76529:1 76548:1 #
0.0032552080066614512247891166651925 28851:1 28996:1 29104:1 29228:1 29550:1 29816:1 29943:1 29972:1 30197:1 30341:1 30479:1 31255:1 32371:1 32479:1 33855:1 34244:1 34478:1 34857:1 34962:1 35116:1 35771:1 36802:1 36955:1 36997:1 37235:1 37312:1 38470:1 38636:1 39025:1 39165:1 39701:1 39820:1 40113:1 40325:1 40556:1 40719:1 40731:1 40817:1 40835:1 40845:1 41052:1 41677:1 41678:1 42362:1 42697:1 43395:1 43402:1 43741:1 43925:1 44245:1 46300:1 46301:1 46375:1 46741:1 46742:1 46756:1 47494:1 47832:1 49146:1 49690:1 49976:1 50304:1 50630:1 50639:1 51000:1 51452:1 51494:1 53079:1 53097:1 53118:1 53220:1 53581:1 53680:1 53952:1 54745:1 55852:1 55865:1 55875:1 56078:1 57578:1 57792:1 57963:1 58035:1 58284:1 59082:1 59098:1 59517:1 59924:1 61083:1 62241:1 62731:1 63641:1 63800:1 63857:1 64340:1 65088:1 65325:1 65706:1 66255:1 66310:1 66747:1 67432:1 68103:1 68436:1 68499:1 68672:1 69720:1 69757:1 69949:1 70456:1 70610:1 70783:1 71085:1 71439:1 71446:1 71535:1 71652:1 73675:1 73886:1 75327:1 75477:1 75512:1 75605:1 75932:1 76496:1 #
-0.00081628734469760657124770553139115 28575:1 28582:1 28895:1 28996:1 28998:1 29104:1 29260:1 29452:1 29550:1 29619:1 29713:1 29729:1 29752:1 29789:1 29933:1 29943:1 30118:1 30152:1 30523:1 30557:1 30679:1 30894:1 30914:1 31364:1 31371:1 31375:1 31381:1 31726:1 31791:1 31835:1 32036:1 32054:1 32392:1 32479:1 32627:1 32805:1 32912:1 32952:1 33367:1 33467:1 33645:1 34155:1 34356:1 34478:1 34635:1 34727:1 34864:1 34969:1 35059:1 35102:1 35107:1 35137:1 35363:1 35478:1 35608:1 35955:1 36173:1 36370:1 36377:1 36592:1 36672:1 36802:1 36955:1 36997:1 37060:1 37286:1 37471:1 37678:1 37918:1 37922:1 37990:1 38388:1 38389:1 38427:1 38511:1 38757:1 38946:1 38990:1 38991:1 39025:1 39250:1 39379:1 39629:1 39701:1 39757:1 39820:1 39927:1 40113:1 40264:1 40303:1 40400:1 40547:1 40556:1 40630:1 40660:1 40794:1 40835:1 40845:1 40850:1 41052:1 41085:1 41183:1 41380:1 41427:1 41452:1 41617:1 41625:1 41668:1 41677:1 41678:1 41681:1 41744:1 41762:1 41806:1 41847:1 41865:1 41868:1 41887:1 41943:1 42151:1 42158:1 42228:1 42362:1 42383:1 42396:1 42460:1 42461:1 42566:1 42697:1 42721:1 43086:1 43243:1 43394:1 43395:1 43400:1 43402:1 43478:1 43493:1 43542:1 43572:1 43739:1 43741:1 43864:1 44158:1 44165:1 44231:1 44373:1 44409:1 44522:1 44629:1 44660:1 44721:1 44905:1 44973:1 45280:1 45353:1 45464:1 45540:1 45799:1 45916:1 46096:1 46166:1 46189:1 46348:1 46375:1 46481:1 46526:1 46623:1 46663:1 46741:1 46742:1 46756:1 46925:1 47145:1 47262:1 47272:1 47311:1 47356:1 47494:1 47524:1 47594:1 47642:1 47689:1 47702:1 47871:1 48088:1 48158:1 48193:1 48200:1 48259:1 48277:1 48399:1 48514:1 48829:1 48830:1 49146:1 49161:1 49261:1 49306:1 49351:1 49353:1 49517:1 49548:1 49597:1 49731:1 49807:1 49915:1 50266:1 50304:1 50370:1 50482:1 50519:1 50623:1 50630:1 50777:1 50970:1 51178:1 51541:1 51582:1 51625:1 51648:1 51710:1 51993:1 52051:1 52121:1 52328:1 52820:1 53097:1 53144:1 53269:1 53275:1 53299:1 53377:1 53444:1 53503:1 53581:1 53676:1 53680:1 53739:1 53855:1 53893:1 54101:1 54220:1 54340:1 54362:1 54409:1 54498:1 55089:1 55135:1 55348:1 55455:1 55505:1 55529:1 55551:1 55728:1 55865:1 55868:1 56078:1 56098:1 56322:1 56396:1 56402:1 56882:1 56916:1 57043:1 57445:1 57686:1 57738:1 57792:1 57821:1 57837:1 57885:1 58035:1 58338:1 58459:1 58611:1 58710:1 58753:1 58792:1 58838:1 58925:1 59109:1 59195:1 59227:1 59243:1 59311:1 59711:1 59778:1 59784:1 59855:1 59924:1 60101:1 60355:1 60508:1 60680:1 60792:1 61022:1 61083:1 61084:1 61119:1 61192:1 61206:1 61238:1 61279:1 61407:1 61466:1 61467:1 61532:1 62185:1 62428:1 62755:1 62786:1 62928:1 62931:1 62938:1 63138:1 63167:1 63183:1 63490:1 63655:1 63800:1 63990:1 64043:1 64344:1 64361:1 64511:1 64598:1 64976:1 65045:1 65088:1 65303:1 65399:1 65469:1 65514:1 65622:1 65777:1 65807:1 65828:1 66070:1 66106:1 66206:1 66255:1 66753:1 66832:1 67193:1 67251:1 67374:1 67641:1 67802:1 67980:1 68166:1 68266:1 68304:1 68322:1 68436:1 68443:1 68672:1 68921:1 68930:1 68945:1 69072:1 69106:1 69139:1 69387:1 69390:1 69406:1 69500:1 69656:1 69757:1 69949:1 70590:1 70610:1 70611:1 70725:1 70779:1 71085:1 71232:1 71369:1 71531:1 71758:1 72185:1 72266:1 72494:1 72560:1 72581:1 72707:1 73116:1 73400:1 73530:1 73544:1 73617:1 73675:1 73974:1 74004:1 74050:1 74228:1 74430:1 74497:1 74600:1 74895:1 74903:1 74916:1 75057:1 75123:1 75306:1 75401:1 75617:1 75681:1 75682:1 75784:1 75802:1 75993:1 76265:1 #
0.0032552080066614512247891166651925 28675:1 28996:1 28998:1 29104:1 29516:1 29550:1 29719:1 29816:1 29846:1 29943:1 30073:1 30118:1 30152:1 30341:1 30804:1 30949:1 30952:1 30998:1 31054:1 31206:1 31295:1 31373:1 31566:1 31646:1 31873:1 31906:1 32371:1 32392:1 32479:1 32910:1 32912:1 33200:1 33349:1 33451:1 33485:1 33662:1 33742:1 34172:1 34241:1 34422:1 34621:1 34857:1 34864:1 35104:1 35428:1 35475:1 35730:1 35890:1 36056:1 36173:1 36221:1 36265:1 36802:1 36804:1 36997:1 37121:1 37158:1 37256:1 37286:1 37293:1 37296:1 37312:1 37594:1 37918:1 38036:1 38438:1 38470:1 38522:1 38757:1 38990:1 39025:1 39322:1 39498:1 39544:1 39701:1 39741:1 39757:1 39820:1 40166:1 40351:1 40395:1 40446:1 40482:1 40610:1 40660:1 40817:1 40835:1 40845:1 41105:1 41183:1 41322:1 41625:1 41677:1 41678:1 41681:1 41794:1 42008:1 42054:1 42158:1 42229:1 42362:1 42383:1 42385:1 42566:1 42721:1 42834:1 42921:1 43143:1 43170:1 43394:1 43395:1 43544:1 43560:1 43572:1 43739:1 43741:1 43936:1 44112:1 44152:1 44186:1 44288:1 45052:1 45479:1 45617:1 45676:1 45809:1 45892:1 45916:1 45932:1 46133:1 46207:1 46375:1 46663:1 46741:1 46742:1 47145:1 47378:1 47594:1 47736:1 47931:1 47952:1 48277:1 48324:1 48399:1 48499:1 48658:1 48751:1 48937:1 49062:1 49146:1 49340:1 49353:1 49379:1 49690:1 49726:1 49871:1 50026:1 50304:1 50623:1 50630:1 50639:1 50949:1 51494:1 51495:1 51526:1 51541:1 52253:1 52699:1 52711:1 52721:1 53064:1 53097:1 53581:1 53603:1 53680:1 54084:1 54340:1 54362:1 54556:1 55048:1 55619:1 55852:1 55854:1 55865:1 56078:1 56220:1 56227:1 56874:1 56907:1 57345:1 57460:1 57563:1 57792:1 57881:1 57910:1 58035:1 58143:1 58513:1 59082:1 59192:1 59195:1 59197:1 59311:1 59482:1 59784:1 60007:1 60584:1 61083:1 61467:1 61476:1 61584:1 62027:1 62162:1 62731:1 63800:1 63857:1 63910:1 64058:1 64183:1 64202:1 64204:1 64609:1 64709:1 64805:1 64819:1 64995:1 65045:1 65088:1 65370:1 65382:1 65438:1 65828:1 65973:1 66070:1 66255:1 66310:1 66315:1 66479:1 66532:1 66586:1 66596:1 66747:1 66953:1 67247:1 68065:1 68383:1 68408:1 68415:1 68436:1 68477:1 68672:1 68783:1 68834:1 68917:1 68948:1 69040:1 69072:1 69344:1 69390:1 69500:1 69949:1 70039:1 70074:1 70085:1 70100:1 70149:1 70341:1 70456:1 70610:1 70683:1 70783:1 71085:1 71232:1 71408:1 71439:1 71446:1 71535:1 71745:1 71897:1 72084:1 72172:1 72212:1 72488:1 72494:1 72707:1 73099:1 73491:1 73611:1 74482:1 74895:1 74956:1 75123:1 75204:1 75299:1 75512:1 75784:1 75984:1 76283:1 76473:1 76567:1 #
-0.00013035481232124583790034366703736 28581:1 28895:1 28960:1 28996:1 29104:1 29305:1 29550:1 29761:1 29846:1 29943:1 30140:1 30366:1 31224:1 31370:1 31686:1 31726:1 31781:1 31975:1 32216:1 32392:1 32394:1 32479:1 33120:1 33242:1 33630:1 33645:1 33697:1 34356:1 34478:1 35428:1 35685:1 35915:1 35986:1 36042:1 36265:1 36493:1 36802:1 36889:1 36955:1 36997:1 37060:1 37286:1 37402:1 37704:1 37845:1 37966:1 38036:1 38432:1 38636:1 38662:1 38879:1 38915:1 38990:1 38991:1 39025:1 39379:1 39519:1 39701:1 39820:1 39899:1 39918:1 40038:1 40135:1 40628:1 40719:1 40835:1 40845:1 40896:1 41183:1 41357:1 41367:1 41618:1 41677:1 41678:1 41681:1 41848:1 41868:1 42088:1 42259:1 42264:1 42362:1 42414:1 42460:1 42550:1 43385:1 43394:1 43402:1 43438:1 43560:1 43642:1 43665:1 43741:1 43857:1 44107:1 44355:1 44409:1 44495:1 44522:1 44527:1 44629:1 44643:1 44669:1 44973:1 45209:1 45346:1 45399:1 45540:1 45947:1 46189:1 46375:1 46741:1 46742:1 46756:1 47238:1 47311:1 47430:1 47513:1 47632:1 47931:1 48399:1 48579:1 48837:1 49146:1 49340:1 49353:1 49411:1 49456:1 49640:1 49690:1 49915:1 50304:1 50494:1 50623:1 50630:1 50639:1 50863:1 51398:1 51474:1 51495:1 51625:1 52494:1 53097:1 53118:1 53204:1 53484:1 53523:1 53680:1 53705:1 54290:1 54362:1 54363:1 54409:1 54525:1 54670:1 54814:1 54825:1 55081:1 55142:1 55181:1 55865:1 55868:1 55903:1 55932:1 56078:1 56227:1 56396:1 56941:1 57792:1 57821:1 58035:1 58172:1 58896:1 59311:1 59784:1 59824:1 59834:1 59983:1 59991:1 60110:1 61083:1 62238:1 62271:1 62303:1 62484:1 62731:1 62786:1 62976:1 63099:1 63469:1 63641:1 63718:1 63833:1 64058:1 64204:1 65088:1 65198:1 65411:1 65498:1 65699:1 65799:1 66052:1 66068:1 66235:1 66255:1 66331:1 66532:1 66923:1 67251:1 67595:1 67665:1 67724:1 68436:1 68478:1 68672:1 68783:1 68921:1 69031:1 69081:1 69341:1 69500:1 69949:1 70198:1 70309:1 70563:1 70610:1 70779:1 70789:1 70929:1 71085:1 71223:1 71232:1 71272:1 71387:1 71608:1 71881:1 71915:1 72135:1 72172:1 72212:1 72285:1 72316:1 72488:1 72560:1 72887:1 72922:1 73773:1 73842:1 73915:1 74018:1 74039:1 74050:1 74262:1 75438:1 75755:1 75784:1 76169:1 76609:1 #
0.0016343497482291312154767393138854 28641:1 28657:1 28996:1 29550:1 29769:1 29943:1 30047:1 30073:1 30341:1 30719:1 30952:1 31446:1 31531:1 31841:1 32479:1 32724:1 33630:1 33645:1 34258:1 34280:1 34288:1 34378:1 34492:1 34947:1 35107:1 35238:1 35508:1 35597:1 36802:1 36997:1 37060:1 37286:1 37312:1 37918:1 38046:1 38168:1 38522:1 38636:1 38662:1 38869:1 38954:1 38990:1 38991:1 39170:1 39510:1 39570:1 39701:1 39704:1 39820:1 39911:1 40547:1 40556:1 40660:1 40845:1 41525:1 41625:1 41677:1 41678:1 41806:1 42158:1 42578:1 42708:1 42744:1 42834:1 42861:1 43018:1 43402:1 43741:1 43906:1 43925:1 44188:1 44342:1 45052:1 45249:1 45280:1 46033:1 46292:1 46663:1 46741:1 46742:1 47524:1 47589:1 48040:1 49146:1 49161:1 49530:1 49690:1 49731:1 49915:1 49971:1 50304:1 50522:1 50579:1 50623:1 50630:1 50751:1 50870:1 50928:1 51084:1 51491:1 52473:1 52505:1 52588:1 52699:1 53118:1 53331:1 53680:1 53955:1 54061:1 54106:1 54213:1 54224:1 54362:1 54363:1 54789:1 55852:1 56320:1 56797:1 56870:1 57618:1 57792:1 57963:1 58143:1 58465:1 59098:1 59677:1 59760:1 59784:1 59824:1 59855:1 59942:1 60007:1 60010:1 60122:1 60599:1 60792:1 61369:1 61828:1 61928:1 62221:1 62242:1 62429:1 62436:1 62620:1 62731:1 62786:1 63857:1 64058:1 64404:1 64675:1 64709:1 64814:1 65045:1 65088:1 65344:1 65438:1 65644:1 66070:1 66255:1 66310:1 66422:1 66532:1 66577:1 66678:1 67576:1 67802:1 68436:1 68672:1 68713:1 68834:1 68923:1 69949:1 70027:1 70548:1 70595:1 70610:1 70646:1 70683:1 70725:1 70992:1 71085:1 71295:1 72092:1 72098:1 72172:1 72311:1 72574:1 73161:1 73449:1 73617:1 74050:1 74904:1 75194:1 75784:1 75802:1 76473:1 #
-0.0032552080066614512247891166651925 28996:1 30118:1 31862:1 32392:1 40312:1 41625:1 46741:1 46742:1 50304:1 50623:1 53680:1 64819:1 65438:1 66945:1 67103:1 71085:1 74482:1 #
-0.0032552080066614512247891166651925 28617:1 28641:1 28996:1 30878:1 31726:1 32392:1 32479:1 32858:1 33141:1 33297:1 34920:1 35475:1 35730:1 37235:1 38991:1 39223:1 39927:1 41277:1 41323:1 41681:1 42264:1 43560:1 43741:1 46741:1 46925:1 47566:1 48034:1 50623:1 50630:1 53284:1 57537:1 58338:1 58631:1 59824:1 60082:1 62106:1 62731:1 65927:1 66012:1 66532:1 66747:1 67539:1 68436:1 68443:1 68559:1 68672:1 69949:1 72212:1 74783:1 75060:1 #
-0.0032552080066614512247891166651925 28545:1 28996:1 28998:1 29095:1 29317:1 29360:1 29705:1 29846:1 29943:1 30456:1 30978:1 31507:1 31595:1 31743:1 32479:1 33117:1 33605:1 34950:1 35363:1 35755:1 36802:1 36997:1 37060:1 37235:1 37256:1 37286:1 37328:1 37641:1 37918:1 38778:1 38990:1 39025:1 39355:1 39407:1 39496:1 39999:1 40630:1 40660:1 40845:1 41183:1 41525:1 41625:1 41677:1 41678:1 41976:1 42362:1 42721:1 43400:1 43493:1 43642:1 43741:1 43760:1 43772:1 44721:1 45300:1 45632:1 46003:1 46189:1 46375:1 46741:1 46742:1 46745:1 46925:1 47143:1 47494:1 47979:1 48342:1 48670:1 49818:1 50304:1 50623:1 50630:1 50833:1 52289:1 52976:1 53079:1 53252:1 53680:1 55868:1 55869:1 56631:1 57345:1 57421:1 57429:1 57792:1 57896:1 57963:1 58333:1 58449:1 58792:1 59082:1 61472:1 61916:1 62159:1 62731:1 63655:1 64204:1 64404:1 65088:1 65554:1 65883:1 66380:1 66690:1 66747:1 67571:1 67714:1 68055:1 68348:1 68882:1 69252:1 69363:1 69493:1 69931:1 69990:1 70105:1 70610:1 70779:1 71085:1 71232:1 71524:1 72768:1 73428:1 73779:1 75165:1 75802:1 #
-0.0032552080066614512247891166651925 28865:1 28996:1 29166:1 29312:1 29816:1 29933:1 29943:1 30549:1 31531:1 31743:1 31873:1 32392:1 32479:1 32585:1 32910:1 33323:1 33437:1 33769:1 34247:1 35306:1 35396:1 35428:1 35441:1 35780:1 35955:1 35998:1 36802:1 36997:1 37121:1 37739:1 37917:1 38069:1 38126:1 38468:1 38517:1 39147:1 39407:1 39757:1 39875:1 40628:1 40660:1 40672:1 40719:1 40845:1 41052:1 41625:1 41677:1 41681:1 42156:1 42362:1 43395:1 43683:1 43741:1 44152:1 44721:1 45741:1 45916:1 45970:1 46189:1 46233:1 46741:1 46742:1 46948:1 47702:1 47974:1 47984:1 48370:1 48417:1 49146:1 50304:1 50623:1 50630:1 50949:1 51178:1 51564:1 52121:1 52446:1 53097:1 53118:1 53581:1 53680:1 54409:1 54814:1 55644:1 56078:1 57178:1 57792:1 57834:1 57928:1 58338:1 58710:1 59109:1 59401:1 59942:1 60800:1 61083:1 61292:1 61385:1 61407:1 61815:1 62850:1 63857:1 63990:1 65088:1 65303:1 65469:1 66439:1 66532:1 66577:1 66699:1 66898:1 67251:1 68014:1 68065:1 68436:1 68672:1 69080:1 69463:1 70610:1 70846:1 71085:1 71414:1 72285:1 74604:1 74866:1 75477:1 75802:1 76283:1 76531:1 #
-0.0032552080066614512247891166651925 28996:1 29310:1 29516:1 29550:1 29729:1 29752:1 29943:1 30269:1 31109:1 31488:1 31586:1 31873:1 31887:1 32216:1 32273:1 32316:1 32384:1 32479:1 32891:1 33217:1 33244:1 33388:1 33625:1 33630:1 33950:1 35187:1 35306:1 35955:1 36173:1 36997:1 37374:1 37918:1 38036:1 38511:1 38543:1 38869:1 39025:1 39757:1 39857:1 40312:1 40672:1 40830:1 40845:1 41322:1 41657:1 41677:1 41681:1 42193:1 42310:1 42556:1 43400:1 43560:1 43584:1 43741:1 45123:1 45871:1 46538:1 46663:1 46741:1 46742:1 47196:1 47200:1 47238:1 47487:1 47594:1 48095:1 48277:1 48308:1 48399:1 48405:1 50297:1 50304:1 50623:1 50628:1 50630:1 50751:1 51250:1 52446:1 52489:1 52616:1 53680:1 53952:1 54051:1 54454:1 55545:1 55955:1 57792:1 57963:1 58035:1 58107:1 59087:1 59192:1 59854:1 59924:1 60071:1 60185:1 60353:1 60574:1 60911:1 61083:1 61476:1 62854:1 63857:1 63990:1 64058:1 65471:1 66070:1 67479:1 68436:1 68600:1 68672:1 68834:1 69352:1 69500:1 69812:1 69973:1 70610:1 70683:1 70779:1 71085:1 71200:1 71224:1 71232:1 71346:1 71802:1 72475:1 73024:1 73204:1 73662:1 74050:1 74310:1 75434:1 75779:1 75784:1 #
0.0032466448797885722084288762090409 28582:1 28657:1 28861:1 28996:1 29104:1 29245:1 29251:1 29550:1 29665:1 29776:1 29816:1 29943:1 30076:1 30118:1 30341:1 30366:1 30442:1 30453:1 30479:1 30555:1 30892:1 30935:1 30942:1 30978:1 31092:1 31285:1 31531:1 31621:1 31667:1 31743:1 31793:1 32000:1 32036:1 32255:1 32371:1 32392:1 32394:1 32396:1 32479:1 32702:1 33228:1 33277:1 33519:1 33527:1 33586:1 33630:1 33769:1 33839:1 33993:1 34141:1 34316:1 34356:1 34422:1 34478:1 34541:1 34550:1 34596:1 34615:1 34631:1 34805:1 34842:1 34844:1 34873:1 35130:1 35238:1 35286:1 35363:1 35460:1 35478:1 35497:1 35508:1 35685:1 35766:1 35856:1 35955:1 36032:1 36052:1 36173:1 36203:1 36221:1 36475:1 36565:1 36736:1 36752:1 36802:1 36955:1 36992:1 36997:1 37017:1 37043:1 37060:1 37101:1 37121:1 37132:1 37273:1 37286:1 37312:1 37461:1 37471:1 37651:1 37726:1 37736:1 37841:1 37918:1 37920:1 37928:1 37972:1 38007:1 38036:1 38468:1 38636:1 38747:1 38830:1 38977:1 38991:1 38998:1 39022:1 39025:1 39032:1 39172:1 39208:1 39250:1 39256:1 39370:1 39701:1 39820:1 40114:1 40193:1 40312:1 40400:1 40410:1 40503:1 40547:1 40555:1 40585:1 40648:1 40660:1 40672:1 40835:1 40845:1 41023:1 41141:1 41441:1 41625:1 41657:1 41677:1 41678:1 41681:1 41789:1 41868:1 41943:1 42006:1 42081:1 42301:1 42362:1 42448:1 42721:1 42861:1 43402:1 43493:1 43514:1 43560:1 43572:1 43628:1 43648:1 43727:1 43741:1 43810:1 43925:1 44107:1 44112:1 44113:1 44155:1 44186:1 44212:1 44283:1 44448:1 44522:1 44533:1 44568:1 44585:1 44721:1 44933:1 44972:1 45096:1 45107:1 45188:1 45209:1 45268:1 45283:1 45399:1 45540:1 45950:1 45980:1 46018:1 46145:1 46189:1 46207:1 46300:1 46311:1 46474:1 46663:1 46741:1 46742:1 46756:1 46949:1 47200:1 47494:1 47524:1 47588:1 47689:1 47782:1 48015:1 48150:1 48197:1 48320:1 48324:1 48356:1 48380:1 48399:1 49146:1 49161:1 49237:1 49340:1 49353:1 49401:1 49690:1 49728:1 49731:1 49772:1 49915:1 49967:1 50002:1 50198:1 50304:1 50623:1 50630:1 50639:1 50799:1 50887:1 50949:1 51026:1 51084:1 51532:1 51541:1 51542:1 51550:1 51633:1 51746:1 51844:1 51894:1 52001:1 52121:1 52589:1 52695:1 52721:1 53100:1 53118:1 53206:1 53484:1 53503:1 53655:1 53676:1 53678:1 53680:1 53740:1 53890:1 54084:1 54362:1 54363:1 54487:1 54789:1 55427:1 55452:1 55505:1 55673:1 55702:1 55865:1 55868:1 55872:1 55998:1 56002:1 56009:1 56078:1 56172:1 56315:1 56353:1 56473:1 56632:1 56764:1 56795:1 56916:1 56955:1 57274:1 57396:1 57564:1 57792:1 57851:1 57935:1 58035:1 58067:1 58079:1 58313:1 58410:1 58597:1 58637:1 58928:1 59098:1 59212:1 59279:1 59301:1 59508:1 59517:1 59784:1 59843:1 59924:1 59991:1 60007:1 60068:1 60180:1 60563:1 60587:1 60916:1 61079:1 61083:1 61119:1 61150:1 61397:1 61407:1 61472:1 61625:1 61672:1 61980:1 62221:1 62502:1 62554:1 62731:1 62786:1 62894:1 62931:1 62938:1 63099:1 63179:1 63262:1 63400:1 63800:1 63857:1 63990:1 64344:1 64444:1 64576:1 64598:1 64684:1 64719:1 64806:1 64944:1 65045:1 65088:1 65469:1 66012:1 66070:1 66222:1 66255:1 66328:1 66373:1 66690:1 67156:1 68065:1 68067:1 68153:1 68243:1 68247:1 68296:1 68348:1 68396:1 68415:1 68436:1 68443:1 68672:1 68680:1 68834:1 68882:1 68968:1 69072:1 69105:1 69158:1 69341:1 69493:1 69721:1 69949:1 70085:1 70100:1 70300:1 70471:1 70564:1 70610:1 70752:1 70775:1 70779:1 70783:1 70846:1 70884:1 71085:1 71223:1 71232:1 71535:1 71676:1 71897:1 72092:1 72266:1 72488:1 72563:1 72581:1 72768:1 72887:1 72922:1 73062:1 73379:1 73754:1 74050:1 74125:1 74212:1 74497:1 74578:1 74677:1 74770:1 74979:1 75123:1 75165:1 75306:1 75385:1 75429:1 75512:1 75632:1 75695:1 75784:1 75802:1 76021:1 76082:1 76265:1 76473:1 76531:1 76552:1 #
-0.0022819788442040500262009139476049 28675:1 28694:1 28996:1 28998:1 29095:1 29398:1 29550:1 29933:1 29943:1 29988:1 30073:1 30118:1 30878:1 30892:1 30894:1 30930:1 31224:1 31371:1 31375:1 31726:1 32216:1 32217:1 32222:1 32303:1 32316:1 32392:1 32394:1 32479:1 32782:1 32960:1 33342:1 33346:1 33839:1 34422:1 34478:1 34864:1 35428:1 35720:1 35915:1 36042:1 36106:1 36118:1 36119:1 36265:1 36719:1 36802:1 36955:1 37060:1 37231:1 37312:1 37471:1 37703:1 37777:1 37918:1 38504:1 38522:1 38991:1 39022:1 39025:1 39701:1 39757:1 39963:1 40053:1 40082:1 40264:1 40281:1 40335:1 40845:1 41435:1 41502:1 41525:1 41625:1 41677:1 41678:1 41681:1 41727:1 41868:1 41943:1 42158:1 42264:1 42448:1 42721:1 42908:1 43018:1 43250:1 43385:1 43394:1 43400:1 43493:1 43560:1 43741:1 43899:1 44187:1 44188:1 44495:1 45479:1 45540:1 46189:1 46300:1 46623:1 46663:1 46666:1 46741:1 46742:1 46756:1 47311:1 47589:1 47929:1 48018:1 48239:1 48356:1 48399:1 48424:1 48597:1 48626:1 49146:1 49161:1 49239:1 49340:1 49353:1 49456:1 49640:1 49690:1 49731:1 49744:1 49915:1 49918:1 50304:1 50623:1 50630:1 50639:1 50799:1 51541:1 51791:1 51833:1 52927:1 53097:1 53118:1 53312:1 53680:1 54051:1 54362:1 54498:1 54670:1 54814:1 54977:1 55452:1 55837:1 55868:1 55943:1 56171:1 56353:1 56396:1 56402:1 56631:1 56795:1 57279:1 57556:1 57686:1 57869:1 57963:1 58035:1 59192:1 59195:1 59216:1 59238:1 59480:1 59784:1 60587:1 61062:1 61083:1 61131:1 61467:1 61532:1 61584:1 61625:1 61661:1 62038:1 62144:1 62273:1 62554:1 63410:1 63490:1 63519:1 63623:1 63718:1 63732:1 64183:1 64344:1 64805:1 64813:1 64819:1 65088:1 65263:1 65274:1 65370:1 65377:1 65430:1 65790:1 66070:1 66255:1 66532:1 66596:1 66690:1 66977:1 67574:1 67724:1 67992:1 68076:1 68436:1 68443:1 68569:1 68672:1 68783:1 68832:1 68834:1 68908:1 69330:1 69352:1 69435:1 69500:1 69689:1 69812:1 70456:1 70548:1 70610:1 70779:1 70846:1 71085:1 71200:1 71223:1 71232:1 71254:1 71369:1 71689:1 71801:1 71813:1 72167:1 72172:1 72212:1 72266:1 72396:1 72513:1 72626:1 72821:1 72887:1 72922:1 73062:1 73304:1 73600:1 73617:1 73971:1 74261:1 74770:1 75306:1 75401:1 75802:1 76473:1 76529:1 76576:1 #
0.00098986189077691455300012091100825 28546:1 28571:1 28617:1 28641:1 28642:1 28659:1 28675:1 28721:1 28730:1 28745:1 28896:1 28996:1 28998:1 29095:1 29104:1 29280:1 29345:1 29398:1 29452:1 29550:1 29609:1 29616:1 29619:1 29703:1 29719:1 29816:1 29826:1 29846:1 29933:1 29943:1 30056:1 30118:1 30123:1 30341:1 30606:1 30632:1 30681:1 30702:1 30897:1 30952:1 31142:1 31224:1 31250:1 31285:1 31388:1 31502:1 31726:1 31743:1 31778:1 31873:1 31908:1 32063:1 32183:1 32191:1 32216:1 32224:1 32253:1 32316:1 32366:1 32371:1 32392:1 32394:1 32404:1 32479:1 32782:1 32910:1 32912:1 32982:1 33113:1 33351:1 33367:1 33412:1 33425:1 33476:1 33582:1 33586:1 33655:1 33671:1 33717:1 33730:1 33839:1 34141:1 34148:1 34165:1 34239:1 34247:1 34356:1 34478:1 34596:1 34603:1 34615:1 34625:1 34864:1 34988:1 34991:1 35115:1 35236:1 35306:1 35343:1 35428:1 35478:1 35497:1 35506:1 35508:1 35740:1 35955:1 35987:1 36042:1 36173:1 36174:1 36321:1 36322:1 36432:1 36456:1 36475:1 36565:1 36802:1 36821:1 36955:1 36997:1 37060:1 37221:1 37268:1 37286:1 37312:1 37314:1 37651:1 37729:1 37746:1 37807:1 37918:1 37959:1 37991:1 38036:1 38059:1 38102:1 38184:1 38314:1 38468:1 38475:1 38636:1 38687:1 38741:1 38778:1 38848:1 38876:1 38923:1 38990:1 38991:1 39025:1 39165:1 39198:1 39250:1 39334:1 39355:1 39686:1 39695:1 39701:1 39736:1 39757:1 39815:1 39820:1 39826:1 39856:1 39905:1 39911:1 40205:1 40271:1 40281:1 40335:1 40340:1 40373:1 40432:1 40459:1 40547:1 40628:1 40647:1 40719:1 40835:1 40845:1 40846:1 40858:1 40896:1 40919:1 40999:1 41003:1 41130:1 41183:1 41235:1 41322:1 41414:1 41527:1 41625:1 41664:1 41668:1 41675:1 41677:1 41678:1 41681:1 41691:1 41866:1 41887:1 41892:1 42054:1 42158:1 42310:1 42362:1 42368:1 42383:1 42385:1 42396:1 42522:1 42566:1 42656:1 42714:1 42721:1 42839:1 42842:1 42978:1 43065:1 43153:1 43350:1 43385:1 43394:1 43395:1 43400:1 43402:1 43493:1 43510:1 43560:1 43572:1 43648:1 43719:1 43741:1 43799:1 43925:1 44026:1 44107:1 44112:1 44121:1 44170:1 44177:1 44355:1 44409:1 44432:1 44471:1 44522:1 44569:1 44629:1 44697:1 44953:1 44973:1 45249:1 45379:1 45399:1 45479:1 45540:1 45563:1 45723:1 45980:1 45999:1 46003:1 46133:1 46163:1 46189:1 46253:1 46300:1 46348:1 46375:1 46469:1 46474:1 46663:1 46741:1 46742:1 46756:1 46925:1 46949:1 46956:1 47107:1 47130:1 47238:1 47311:1 47381:1 47494:1 47524:1 47580:1 47588:1 47594:1 47598:1 47626:1 47689:1 47992:1 47998:1 48015:1 48018:1 48040:1 48247:1 48370:1 48399:1 48579:1 48622:1 49127:1 49140:1 49146:1 49161:1 49224:1 49274:1 49279:1 49288:1 49340:1 49353:1 49456:1 49690:1 49799:1 49915:1 50010:1 50304:1 50562:1 50623:1 50630:1 50639:1 50949:1 51005:1 51073:1 51084:1 51085:1 51220:1 51229:1 51268:1 51298:1 51348:1 51495:1 51503:1 51541:1 51582:1 51589:1 51676:1 51731:1 52006:1 52056:1 52076:1 52121:1 52289:1 52701:1 52721:1 53016:1 53097:1 53118:1 53377:1 53476:1 53484:1 53581:1 53587:1 53678:1 53680:1 53880:1 53890:1 53927:1 54084:1 54106:1 54162:1 54362:1 54363:1 54367:1 54409:1 54430:1 54449:1 54804:1 54814:1 54882:1 55133:1 55458:1 55502:1 55505:1 55545:1 55548:1 55582:1 55619:1 55813:1 55815:1 55852:1 55865:1 55868:1 55875:1 55878:1 55903:1 55939:1 56078:1 56087:1 56093:1 56198:1 56353:1 56361:1 56396:1 56436:1 56547:1 56550:1 56586:1 56599:1 56631:1 56799:1 56870:1 56874:1 56882:1 56955:1 57008:1 57103:1 57116:1 57172:1 57535:1 57540:1 57550:1 57578:1 57686:1 57717:1 57792:1 57821:1 57851:1 57934:1 57938:1 57963:1 58004:1 58035:1 58172:1 58251:1 58284:1 58338:1 58449:1 58513:1 58514:1 58606:1 58623:1 58637:1 58704:1 58739:1 58786:1 58860:1 58928:1 58944:1 59100:1 59192:1 59195:1 59208:1 59212:1 59223:1 59309:1 59311:1 59565:1 59621:1 59784:1 59824:1 59870:1 59924:1 59962:1 59991:1 60007:1 60055:1 60110:1 60122:1 60269:1 60355:1 60508:1 60573:1 60613:1 61079:1 61083:1 61292:1 61467:1 61532:1 61584:1 61828:1 61841:1 61861:1 62019:1 62144:1 62221:1 62241:1 62250:1 62265:1 62472:1 62554:1 62640:1 62731:1 62786:1 62844:1 62852:1 62971:1 62976:1 63112:1 63490:1 63655:1 63800:1 63857:1 63897:1 63910:1 63991:1 64124:1 64183:1 64204:1 64337:1 64344:1 64366:1 64368:1 64377:1 64388:1 64395:1 64552:1 64709:1 64814:1 64838:1 64903:1 64944:1 64976:1 64995:1 65045:1 65088:1 65140:1 65198:1 65377:1 65390:1 65469:1 65474:1 65481:1 65554:1 65619:1 65699:1 65707:1 65747:1 65809:1 66006:1 66012:1 66070:1 66255:1 66310:1 66361:1 66439:1 66532:1 66577:1 66596:1 66622:1 66690:1 66773:1 66778:1 66812:1 66898:1 67020:1 67280:1 67287:1 67364:1 67374:1 67534:1 67539:1 67574:1 67590:1 67595:1 67610:1 67665:1 67668:1 67681:1 67701:1 67714:1 67871:1 68065:1 68067:1 68164:1 68296:1 68306:1 68415:1 68436:1 68443:1 68475:1 68512:1 68592:1 68607:1 68672:1 68834:1 69017:1 69031:1 69163:1 69330:1 69390:1 69394:1 69396:1 69435:1 69500:1 69689:1 69949:1 70039:1 70122:1 70128:1 70350:1 70456:1 70471:1 70512:1 70610:1 70611:1 70779:1 70846:1 70904:1 70980:1 71085:1 71200:1 71223:1 71369:1 71408:1 71444:1 71532:1 71535:1 71652:1 71918:1 72125:1 72142:1 72172:1 72190:1 72266:1 72488:1 72560:1 72607:1 72967:1 73216:1 73308:1 73359:1 73375:1 73449:1 73459:1 73546:1 73617:1 73631:1 73693:1 73754:1 73760:1 73888:1 73895:1 74034:1 74050:1 74155:1 74181:1 74252:1 74345:1 74391:1 74497:1 74519:1 74677:1 74769:1 74770:1 74794:1 74897:1 75085:1 75123:1 75165:1 75166:1 75204:1 75295:1 75306:1 75327:1 75525:1 75558:1 75567:1 75605:1 75784:1 75802:1 75957:1 76265:1 76384:1 76496:1 76512:1 76609:1 76623:1 #
0.0024632645450839794204478394590296 28570:1 28641:1 28996:1 28998:1 29095:1 29104:1 29166:1 29245:1 29452:1 29550:1 29597:1 29719:1 29761:1 29816:1 29846:1 29943:1 30047:1 30118:1 30442:1 30701:1 30717:1 30831:1 30878:1 30892:1 30930:1 30978:1 31118:1 31199:1 31224:1 31307:1 31375:1 31440:1 31531:1 31566:1 31743:1 31835:1 31841:1 31862:1 31903:1 31975:1 32036:1 32217:1 32368:1 32392:1 32479:1 32649:1 32748:1 33134:1 33342:1 33379:1 33413:1 33494:1 33645:1 33697:1 33717:1 34165:1 34172:1 34256:1 34280:1 34418:1 34478:1 34596:1 34873:1 34947:1 34997:1 35073:1 35475:1 35478:1 35527:1 35654:1 35805:1 35955:1 36119:1 36475:1 36565:1 36717:1 36802:1 36903:1 36955:1 36997:1 37060:1 37110:1 37235:1 37286:1 37312:1 37594:1 37769:1 37918:1 37952:1 38005:1 38036:1 38107:1 38261:1 38320:1 38364:1 38473:1 38636:1 38695:1 38717:1 38990:1 38991:1 39025:1 39248:1 39498:1 39508:1 39573:1 39701:1 39757:1 39794:1 39820:1 39918:1 39953:1 39999:1 40059:1 40281:1 40377:1 40423:1 40547:1 40666:1 40719:1 40819:1 40835:1 40845:1 41008:1 41058:1 41182:1 41183:1 41194:1 41207:1 41459:1 41507:1 41617:1 41625:1 41657:1 41675:1 41677:1 41678:1 41681:1 41794:1 41908:1 42088:1 42158:1 42257:1 42317:1 42362:1 42383:1 42403:1 42414:1 42572:1 42744:1 42755:1 42877:1 42978:1 42995:1 43051:1 43093:1 43291:1 43350:1 43395:1 43402:1 43493:1 43553:1 43560:1 43641:1 43741:1 43901:1 43922:1 44188:1 44230:1 44364:1 44495:1 44522:1 44577:1 44953:1 45052:1 45089:1 45188:1 45209:1 45320:1 45359:1 45403:1 45479:1 45770:1 45892:1 45962:1 46189:1 46274:1 46348:1 46390:1 46519:1 46538:1 46639:1 46663:1 46741:1 46742:1 46756:1 46846:1 46949:1 46991:1 47156:1 47447:1 47494:1 47689:1 47782:1 47929:1 48272:1 48277:1 48337:1 48369:1 48505:1 49013:1 49062:1 49083:1 49146:1 49239:1 49261:1 49271:1 49523:1 49690:1 49915:1 50014:1 50050:1 50304:1 50333:1 50623:1 50630:1 51229:1 51443:1 51541:1 51911:1 52046:1 52121:1 52150:1 52170:1 52246:1 52467:1 52532:1 52649:1 53097:1 53204:1 53250:1 53503:1 53651:1 53680:1 53748:1 53805:1 53893:1 54320:1 54362:1 54409:1 54648:1 54670:1 54874:1 54906:1 54977:1 54991:1 55203:1 55285:1 55619:1 55673:1 55700:1 55718:1 55726:1 55815:1 55865:1 55868:1 55872:1 55916:1 56078:1 56186:1 56243:1 56278:1 56335:1 56336:1 56353:1 56396:1 56512:1 56533:1 56617:1 56629:1 56766:1 56870:1 57152:1 57187:1 57308:1 57367:1 57563:1 57578:1 57667:1 57717:1 57792:1 57869:1 57899:1 57931:1 57932:1 57954:1 58035:1 58059:1 58333:1 58401:1 58514:1 58925:1 59018:1 59075:1 59098:1 59109:1 59195:1 59216:1 59227:1 59482:1 59855:1 59877:1 59983:1 59991:1 60153:1 60279:1 60334:1 60531:1 60901:1 61079:1 61082:1 61083:1 61467:1 61584:1 61789:1 61828:1 62141:1 62731:1 62786:1 62846:1 62931:1 62976:1 63184:1 63426:1 63487:1 63682:1 63800:1 63994:1 64058:1 64337:1 64388:1 64523:1 64603:1 64626:1 64644:1 64742:1 64814:1 64819:1 65010:1 65045:1 65088:1 65195:1 65263:1 65300:1 65303:1 65344:1 65362:1 65370:1 65430:1 65438:1 65460:1 65662:1 65713:1 66014:1 66331:1 66382:1 66456:1 66462:1 66532:1 66574:1 66577:1 66747:1 66957:1 67032:1 67251:1 67539:1 67640:1 67689:1 67696:1 68014:1 68031:1 68164:1 68436:1 68443:1 68536:1 68672:1 68834:1 69031:1 69158:1 69372:1 69390:1 69720:1 69757:1 69766:1 69812:1 69928:1 69949:1 70247:1 70610:1 70611:1 70779:1 70826:1 71085:1 71437:1 71444:1 71683:1 71689:1 71717:1 71915:1 72172:1 72266:1 72560:1 72595:1 72887:1 72967:1 73006:1 73069:1 73161:1 73207:1 73377:1 73391:1 73424:1 73434:1 73462:1 73611:1 73675:1 73750:1 73832:1 74050:1 74482:1 74497:1 74578:1 74618:1 74793:1 74847:1 75123:1 75390:1 75422:1 75425:1 75429:1 75525:1 75623:1 75695:1 75779:1 75784:1 75802:1 75859:1 75897:1 #
0.0032552080066614512247891166651925 28582:1 28896:1 28931:1 28996:1 28998:1 29095:1 29104:1 29452:1 29488:1 29550:1 29761:1 29807:1 29943:1 30056:1 30118:1 30139:1 30366:1 30428:1 30479:1 30602:1 30606:1 30632:1 30804:1 30892:1 30911:1 30935:1 30952:1 30978:1 30981:1 31224:1 31667:1 31726:1 31743:1 31976:1 32054:1 32073:1 32392:1 32422:1 32479:1 32558:1 32647:1 32715:1 32788:1 32912:1 33117:1 33154:1 33277:1 33287:1 33425:1 33467:1 33476:1 33526:1 33769:1 33806:1 33839:1 34052:1 34147:1 34148:1 34155:1 34241:1 34256:1 34418:1 34429:1 34474:1 35084:1 35116:1 35137:1 35236:1 35238:1 35363:1 35371:1 35428:1 35720:1 35734:1 35939:1 35955:1 36119:1 36432:1 36520:1 36544:1 36781:1 36802:1 36955:1 36997:1 37060:1 37092:1 37096:1 37286:1 37312:1 37471:1 37651:1 37753:1 37918:1 37928:1 38007:1 38470:1 38475:1 38511:1 38627:1 38636:1 38695:1 38806:1 38813:1 38879:1 38938:1 38991:1 39025:1 39116:1 39322:1 39386:1 39701:1 39757:1 39820:1 39826:1 39844:1 39918:1 39950:1 39999:1 40198:1 40315:1 40373:1 40503:1 40536:1 40547:1 40556:1 40585:1 40660:1 40719:1 40774:1 40817:1 40835:1 40845:1 40874:1 40896:1 40936:1 41123:1 41168:1 41183:1 41206:1 41322:1 41409:1 41525:1 41625:1 41626:1 41677:1 41678:1 41681:1 41806:1 41943:1 42081:1 42158:1 42362:1 42508:1 42527:1 42721:1 42861:1 42897:1 42968:1 43055:1 43167:1 43400:1 43402:1 43421:1 43493:1 43502:1 43529:1 43560:1 43595:1 43598:1 43628:1 43685:1 43719:1 43741:1 43864:1 43896:1 43922:1 43925:1 43952:1 43993:1 44001:1 44019:1 44112:1 44152:1 44165:1 44241:1 44409:1 44447:1 44471:1 44492:1 44522:1 44651:1 44705:1 44721:1 44905:1 44973:1 45052:1 45096:1 45148:1 45209:1 45399:1 45464:1 45530:1 45540:1 45738:1 45741:1 46055:1 46073:1 46189:1 46300:1 46375:1 46538:1 46602:1 46672:1 46741:1 46742:1 46756:1 47092:1 47238:1 47269:1 47339:1 47381:1 47589:1 47594:1 47598:1 47703:1 48015:1 48305:1 48324:1 48380:1 48399:1 48424:1 48658:1 48676:1 48861:1 49062:1 49098:1 49129:1 49146:1 49152:1 49225:1 49239:1 49340:1 49401:1 49456:1 49523:1 49690:1 49788:1 49811:1 49915:1 49950:1 50304:1 50623:1 50630:1 50639:1 50656:1 50768:1 50949:1 51015:1 51114:1 51335:1 51448:1 51452:1 51746:1 51822:1 51963:1 52061:1 52121:1 52232:1 52275:1 52315:1 52446:1 52621:1 52641:1 52764:1 52820:1 53097:1 53118:1 53219:1 53377:1 53408:1 53559:1 53680:1 54274:1 54362:1 54363:1 54409:1 54411:1 54430:1 54456:1 54503:1 54648:1 54916:1 54976:1 55296:1 55319:1 55452:1 55505:1 55575:1 55581:1 55619:1 55627:1 55788:1 55865:1 55868:1 55972:1 56031:1 56078:1 56093:1 56198:1 56353:1 56365:1 56469:1 56558:1 56759:1 56795:1 56874:1 56915:1 56955:1 57004:1 57187:1 57274:1 57578:1 57634:1 57792:1 57821:1 57948:1 57963:1 58035:1 58067:1 58143:1 58250:1 58297:1 58317:1 58610:1 58637:1 58710:1 58860:1 59098:1 59192:1 59195:1 59208:1 59227:1 59309:1 59340:1 59455:1 59517:1 59924:1 59991:1 60099:1 60158:1 60403:1 60671:1 60839:1 60953:1 61083:1 61377:1 61397:1 61407:1 61445:1 61467:1 61472:1 61521:1 61532:1 61542:1 61661:1 61668:1 61828:1 61979:1 62053:1 62054:1 62144:1 62162:1 62167:1 62221:1 62226:1 62400:1 62554:1 62620:1 62638:1 62731:1 62786:1 62881:1 62882:1 63099:1 63222:1 63400:1 63487:1 63655:1 63794:1 63800:1 63857:1 63910:1 64058:1 64204:1 64344:1 64388:1 64404:1 64681:1 64805:1 64813:1 64819:1 64833:1 64858:1 64872:1 64944:1 64973:1 65045:1 65088:1 65198:1 65368:1 65370:1 65542:1 66070:1 66255:1 66325:1 66331:1 66382:1 66388:1 66532:1 66863:1 66953:1 66983:1 67184:1 67193:1 67213:1 67251:1 67269:1 67311:1 67364:1 67370:1 67464:1 67571:1 67590:1 67595:1 67610:1 67957:1 68109:1 68164:1 68436:1 68443:1 68456:1 68515:1 68672:1 68899:1 69060:1 69139:1 69253:1 69263:1 69330:1 69390:1 69435:1 69436:1 69500:1 69680:1 69695:1 69757:1 69949:1 70027:1 70100:1 70105:1 70610:1 70683:1 70779:1 70904:1 70992:1 71085:1 71089:1 71200:1 71232:1 71275:1 71340:1 71419:1 71444:1 71535:1 71551:1 71652:1 71668:1 72172:1 72212:1 72266:1 72412:1 72560:1 72581:1 72614:1 72788:1 72887:1 72890:1 72926:1 73072:1 73449:1 73453:1 73568:1 73617:1 73714:1 73754:1 73760:1 73828:1 74050:1 74155:1 74212:1 74217:1 74485:1 74497:1 74634:1 74653:1 74765:1 74767:1 75123:1 75165:1 75306:1 75327:1 75401:1 75418:1 75487:1 75599:1 75746:1 75784:1 75802:1 75840:1 76434:1 76609:1 #
-0.0018209111552928130411954654732654 28582:1 28675:1 28694:1 28705:1 28745:1 28851:1 28865:1 28996:1 28998:1 29095:1 29104:1 29111:1 29150:1 29245:1 29452:1 29455:1 29519:1 29550:1 29597:1 29664:1 29719:1 29739:1 29753:1 29761:1 29776:1 29943:1 30073:1 30085:1 30118:1 30128:1 30152:1 30341:1 30442:1 30652:1 30702:1 30791:1 30804:1 30949:1 30978:1 31109:1 31114:1 31224:1 31371:1 31391:1 31446:1 31530:1 31531:1 31559:1 31585:1 31595:1 31712:1 31726:1 31755:1 31791:1 31873:1 32036:1 32184:1 32216:1 32255:1 32316:1 32371:1 32392:1 32394:1 32417:1 32471:1 32479:1 32803:1 33089:1 33134:1 33167:1 33236:1 33287:1 33392:1 33395:1 33429:1 33467:1 33582:1 33645:1 33717:1 33769:1 33806:1 34020:1 34072:1 34122:1 34256:1 34258:1 34280:1 34385:1 34478:1 34596:1 35059:1 35238:1 35306:1 35362:1 35363:1 35428:1 35460:1 35467:1 35475:1 35478:1 35497:1 35532:1 35720:1 35843:1 35939:1 35953:1 35955:1 35985:1 36032:1 36143:1 36473:1 36475:1 36487:1 36520:1 36563:1 36565:1 36570:1 36633:1 36802:1 36955:1 36997:1 37060:1 37114:1 37235:1 37286:1 37287:1 37312:1 37461:1 37471:1 37594:1 37641:1 37681:1 37753:1 37823:1 37880:1 37918:1 37959:1 37972:1 38036:1 38041:1 38107:1 38154:1 38364:1 38458:1 38475:1 38511:1 38578:1 38601:1 38636:1 38685:1 38757:1 38777:1 38990:1 38991:1 39016:1 39025:1 39250:1 39354:1 39379:1 39545:1 39701:1 39757:1 39759:1 39820:1 39857:1 39918:1 39924:1 39963:1 40063:1 40196:1 40281:1 40335:1 40373:1 40400:1 40547:1 40630:1 40647:1 40660:1 40666:1 40672:1 40719:1 40817:1 40835:1 40845:1 40899:1 40945:1 40985:1 41087:1 41141:1 41183:1 41235:1 41277:1 41299:1 41322:1 41625:1 41675:1 41677:1 41678:1 41681:1 41789:1 41794:1 41805:1 41806:1 41866:1 41872:1 41978:1 42032:1 42088:1 42116:1 42156:1 42158:1 42228:1 42316:1 42362:1 42383:1 42414:1 42427:1 42448:1 42502:1 42563:1 42721:1 42726:1 42797:1 42839:1 42861:1 42934:1 43004:1 43018:1 43121:1 43143:1 43394:1 43402:1 43445:1 43493:1 43560:1 43572:1 43648:1 43741:1 43797:1 43925:1 44107:1 44112:1 44152:1 44184:1 44186:1 44188:1 44406:1 44409:1 44495:1 44519:1 44629:1 44721:1 44774:1 44855:1 44868:1 44933:1 44952:1 44973:1 45052:1 45096:1 45161:1 45184:1 45209:1 45248:1 45351:1 45379:1 45479:1 45527:1 45540:1 45553:1 45741:1 45754:1 45788:1 45866:1 45871:1 45913:1 45916:1 45948:1 46067:1 46071:1 46145:1 46189:1 46348:1 46375:1 46557:1 46622:1 46741:1 46742:1 46756:1 46932:1 47070:1 47146:1 47194:1 47205:1 47238:1 47252:1 47311:1 47494:1 47502:1 47589:1 47594:1 47598:1 47626:1 47719:1 47758:1 47813:1 47829:1 47904:1 48034:1 48211:1 48239:1 48247:1 48259:1 48277:1 48305:1 48370:1 48399:1 48522:1 48861:1 48976:1 49041:1 49146:1 49156:1 49161:1 49290:1 49340:1 49350:1 49353:1 49379:1 49522:1 49568:1 49582:1 49604:1 49608:1 49690:1 49871:1 49915:1 50304:1 50623:1 50630:1 50639:1 50698:1 50777:1 50949:1 51407:1 51541:1 51589:1 51602:1 51625:1 51736:1 51746:1 51893:1 52357:1 52443:1 52505:1 52591:1 52982:1 53097:1 53110:1 53118:1 53231:1 53369:1 53377:1 53484:1 53512:1 53581:1 53680:1 53705:1 53736:1 53893:1 54077:1 54162:1 54362:1 54363:1 54409:1 54459:1 54648:1 54789:1 54814:1 54959:1 55015:1 55104:1 55169:1 55386:1 55505:1 55529:1 55545:1 55619:1 55837:1 55852:1 55868:1 55909:1 56070:1 56078:1 56093:1 56097:1 56198:1 56220:1 56241:1 56278:1 56353:1 56402:1 56469:1 56547:1 56568:1 56602:1 56680:1 56797:1 56874:1 56877:1 57043:1 57187:1 57191:1 57630:1 57684:1 57686:1 57792:1 57814:1 57821:1 57834:1 57896:1 57940:1 57963:1 57995:1 58035:1 58123:1 58338:1 58370:1 58506:1 58513:1 58601:1 58681:1 58710:1 58758:1 58944:1 58999:1 59035:1 59082:1 59192:1 59195:1 59212:1 59216:1 59225:1 59298:1 59311:1 59340:1 59536:1 59542:1 59621:1 59701:1 59725:1 59784:1 59824:1 59855:1 59924:1 59962:1 59983:1 59991:1 60022:1 60158:1 60249:1 60378:1 60567:1 60587:1 60666:1 60675:1 60792:1 60884:1 60911:1 61083:1 61155:1 61192:1 61279:1 61467:1 61577:1 61584:1 61660:1 61672:1 61754:1 61928:1 62221:1 62241:1 62263:1 62265:1 62373:1 62404:1 62541:1 62554:1 62731:1 62741:1 62755:1 62786:1 62846:1 62889:1 62902:1 63060:1 63099:1 63153:1 63183:1 63490:1 63527:1 63655:1 63742:1 63800:1 63825:1 63857:1 63910:1 63990:1 64058:1 64204:1 64222:1 64340:1 64352:1 64395:1 64421:1 64511:1 64626:1 64635:1 64644:1 64746:1 64814:1 64819:1 64857:1 64896:1 64944:1 64976:1 65045:1 65046:1 65088:1 65140:1 65263:1 65304:1 65319:1 65341:1 65344:1 65385:1 65411:1 65438:1 65554:1 65609:1 65622:1 65775:1 65799:1 65916:1 65974:1 66012:1 66070:1 66106:1 66222:1 66255:1 66287:1 66331:1 66382:1 66407:1 66532:1 66579:1 66586:1 66587:1 66863:1 66983:1 67213:1 67247:1 67251:1 67287:1 67364:1 67410:1 67532:1 67539:1 67595:1 67668:1 67807:1 67846:1 67881:1 67902:1 68014:1 68153:1 68296:1 68348:1 68401:1 68408:1 68436:1 68443:1 68512:1 68642:1 68672:1 68783:1 68792:1 68834:1 69031:1 69072:1 69127:1 69252:1 69267:1 69390:1 69406:1 69435:1 69500:1 69812:1 69835:1 69928:1 69949:1 70039:1 70074:1 70116:1 70122:1 70165:1 70456:1 70548:1 70610:1 70611:1 70683:1 70763:1 70779:1 71007:1 71016:1 71085:1 71141:1 71223:1 71224:1 71232:1 71379:1 71407:1 71408:1 71439:1 71456:1 71535:1 71609:1 71652:1 71861:1 72125:1 72172:1 72266:1 72406:1 72412:1 72560:1 72626:1 72707:1 72714:1 72736:1 72935:1 72967:1 73062:1 73070:1 73423:1 73521:1 73675:1 73743:1 73888:1 73971:1 74050:1 74055:1 74109:1 74160:1 74217:1 74266:1 74291:1 74345:1 74519:1 74526:1 74694:1 74765:1 74770:1 74895:1 74987:1 75123:1 75165:1 75237:1 75409:1 75525:1 75563:1 75784:1 75802:1 76265:1 76457:1 76473:1 #
-0.002162916417127948472132192847539 28745:1 28787:1 28996:1 29095:1 29104:1 29297:1 29516:1 29550:1 29846:1 29933:1 29943:1 30056:1 30118:1 30442:1 30978:1 31109:1 31224:1 31375:1 31381:1 31565:1 31726:1 31914:1 32036:1 32191:1 32283:1 32286:1 32371:1 32392:1 32394:1 32479:1 32608:1 32805:1 32814:1 32895:1 32912:1 33287:1 33319:1 33375:1 33588:1 33630:1 33697:1 33806:1 33839:1 33849:1 34046:1 34256:1 34418:1 34454:1 34478:1 34596:1 34864:1 34969:1 35116:1 35350:1 35363:1 35522:1 35608:1 35955:1 35985:1 36042:1 36119:1 36179:1 36221:1 36297:1 36606:1 36802:1 36834:1 36955:1 36992:1 36997:1 37060:1 37268:1 37312:1 37471:1 37587:1 37651:1 37753:1 37880:1 37918:1 38045:1 38426:1 38475:1 38511:1 38522:1 38695:1 38908:1 38991:1 39025:1 39032:1 39250:1 39456:1 39701:1 39757:1 39820:1 39918:1 40138:1 40335:1 40340:1 40400:1 40585:1 40628:1 40661:1 40821:1 40845:1 40926:1 40936:1 40997:1 41277:1 41530:1 41625:1 41677:1 41678:1 41681:1 41789:1 41806:1 41868:1 41988:1 42008:1 42193:1 42264:1 42414:1 42448:1 42486:1 42721:1 42839:1 42914:1 43136:1 43220:1 43400:1 43493:1 43728:1 43741:1 43945:1 44001:1 44158:1 44165:1 44235:1 44251:1 44629:1 44721:1 45232:1 45248:1 45399:1 45540:1 45916:1 46008:1 46067:1 46189:1 46348:1 46375:1 46579:1 46741:1 46742:1 46756:1 46925:1 47008:1 47311:1 47381:1 47462:1 47494:1 47513:1 47589:1 47813:1 47952:1 48015:1 48208:1 48277:1 48370:1 48399:1 48429:1 49146:1 49161:1 49239:1 49653:1 49690:1 49915:1 50304:1 50482:1 50509:1 50623:1 50630:1 50639:1 50954:1 51010:1 51215:1 51536:1 51582:1 51746:1 51882:1 52121:1 52246:1 52765:1 53079:1 53142:1 53581:1 53680:1 53878:1 54141:1 54154:1 54229:1 54362:1 54363:1 54409:1 54456:1 54496:1 54670:1 54789:1 55244:1 55285:1 55505:1 55569:1 55619:1 55829:1 55852:1 55865:1 55868:1 55872:1 55875:1 56078:1 56179:1 56186:1 56353:1 56396:1 56402:1 56533:1 56795:1 56870:1 57033:1 57187:1 57274:1 57347:1 57367:1 57792:1 57963:1 58035:1 58338:1 58710:1 58792:1 59059:1 59098:1 59192:1 59212:1 59511:1 59784:1 59824:1 59854:1 59983:1 60022:1 60154:1 60273:1 60765:1 60901:1 61083:1 61359:1 61632:1 61744:1 61916:1 61979:1 62027:1 62106:1 62162:1 62241:1 62418:1 62427:1 62554:1 62731:1 62786:1 63020:1 63490:1 63641:1 63857:1 64058:1 64183:1 64204:1 64337:1 64361:1 64819:1 65045:1 65088:1 65140:1 65186:1 65341:1 65399:1 65469:1 65699:1 66255:1 66310:1 66320:1 66532:1 66690:1 66747:1 67251:1 67400:1 67484:1 67574:1 67807:1 67858:1 68164:1 68228:1 68285:1 68436:1 68443:1 68672:1 68783:1 68834:1 69138:1 69252:1 69500:1 69771:1 69835:1 69949:1 70060:1 70105:1 70122:1 70456:1 70610:1 70779:1 70817:1 70904:1 70962:1 71085:1 71098:1 71345:1 71408:1 71439:1 71446:1 71562:1 72172:1 72189:1 72212:1 72285:1 72624:1 72730:1 72877:1 72885:1 72922:1 72967:1 73075:1 73530:1 73758:1 73886:1 73915:1 74050:1 74252:1 74310:1 74770:1 74844:1 74895:1 74899:1 75165:1 75401:1 75579:1 75605:1 75648:1 75802:1 76473:1 #
-0.0032552080066614512247891166651925 28675:1 28694:1 28745:1 28748:1 28842:1 28851:1 28865:1 28880:1 28912:1 28996:1 28998:1 29093:1 29095:1 29100:1 29104:1 29245:1 29448:1 29452:1 29455:1 29550:1 29719:1 29789:1 29816:1 29860:1 29930:1 29933:1 29943:1 29998:1 30043:1 30066:1 30069:1 30118:1 30139:1 30203:1 30341:1 30419:1 30442:1 30453:1 30523:1 30554:1 30791:1 30952:1 31061:1 31083:1 31118:1 31224:1 31375:1 31430:1 31531:1 31565:1 31627:1 31669:1 31743:1 31873:1 31908:1 32191:1 32316:1 32371:1 32392:1 32396:1 32417:1 32479:1 32803:1 32893:1 33206:1 33287:1 33306:1 33437:1 33456:1 33463:1 33630:1 33717:1 33769:1 33806:1 33855:1 33894:1 33935:1 34074:1 34100:1 34148:1 34209:1 34211:1 34241:1 34256:1 34258:1 34314:1 34356:1 34422:1 34459:1 34478:1 34601:1 34864:1 34947:1 35056:1 35116:1 35134:1 35238:1 35306:1 35363:1 35428:1 35475:1 35481:1 35733:1 35955:1 36000:1 36179:1 36221:1 36265:1 36282:1 36297:1 36424:1 36520:1 36565:1 36802:1 36955:1 36997:1 37060:1 37286:1 37312:1 37411:1 37471:1 37651:1 37918:1 37928:1 38036:1 38114:1 38364:1 38408:1 38458:1 38470:1 38475:1 38511:1 38636:1 38662:1 38747:1 38773:1 38859:1 38879:1 38990:1 38991:1 39025:1 39229:1 39259:1 39334:1 39350:1 39354:1 39625:1 39701:1 39748:1 39757:1 39820:1 39826:1 39918:1 39999:1 40303:1 40309:1 40338:1 40503:1 40544:1 40556:1 40584:1 40612:1 40628:1 40660:1 40666:1 40687:1 40707:1 40719:1 40731:1 40774:1 40835:1 40845:1 40846:1 40936:1 41052:1 41127:1 41183:1 41314:1 41322:1 41625:1 41657:1 41675:1 41677:1 41678:1 41681:1 41712:1 41723:1 41789:1 41805:1 41806:1 41811:1 41860:1 41865:1 41988:1 42158:1 42284:1 42362:1 42368:1 42414:1 42439:1 42522:1 42721:1 42803:1 42842:1 42861:1 42972:1 43253:1 43394:1 43395:1 43400:1 43402:1 43411:1 43493:1 43560:1 43572:1 43741:1 43901:1 43925:1 44026:1 44033:1 44070:1 44160:1 44165:1 44187:1 44235:1 44248:1 44408:1 44409:1 44495:1 44721:1 44754:1 44774:1 44905:1 44922:1 44933:1 44953:1 45089:1 45096:1 45210:1 45248:1 45351:1 45379:1 45399:1 45464:1 45479:1 45540:1 45549:1 45916:1 45950:1 45963:1 46117:1 46145:1 46150:1 46161:1 46189:1 46375:1 46663:1 46679:1 46741:1 46742:1 46745:1 46756:1 46811:1 46901:1 46906:1 46943:1 47145:1 47204:1 47238:1 47311:1 47598:1 47739:1 47813:1 47883:1 48062:1 48176:1 48246:1 48259:1 48370:1 48399:1 48424:1 48601:1 48725:1 49062:1 49146:1 49161:1 49225:1 49239:1 49285:1 49340:1 49353:1 49411:1 49456:1 49616:1 49690:1 49871:1 49915:1 49950:1 50297:1 50304:1 50497:1 50519:1 50623:1 50630:1 50635:1 50639:1 50783:1 50889:1 51084:1 51174:1 51220:1 51377:1 51392:1 51448:1 51495:1 51541:1 51625:1 51791:1 51862:1 52056:1 52121:1 52316:1 52444:1 52677:1 52894:1 52927:1 53079:1 53097:1 53118:1 53235:1 53377:1 53503:1 53512:1 53581:1 53656:1 53680:1 53830:1 53890:1 53924:1 54019:1 54362:1 54363:1 54430:1 54449:1 54574:1 54782:1 54814:1 54991:1 55276:1 55287:1 55458:1 55505:1 55619:1 55747:1 55837:1 55852:1 55865:1 55868:1 55869:1 55932:1 56078:1 56093:1 56198:1 56353:1 56396:1 56402:1 56550:1 56874:1 56877:1 56955:1 57008:1 57163:1 57187:1 57208:1 57550:1 57578:1 57686:1 57792:1 57834:1 57963:1 58035:1 58107:1 58109:1 58280:1 58370:1 58416:1 58506:1 58513:1 58710:1 58928:1 59059:1 59075:1 59109:1 59166:1 59189:1 59192:1 59195:1 59212:1 59216:1 59309:1 59311:1 59340:1 59518:1 59594:1 59624:1 59761:1 59784:1 59855:1 60122:1 60158:1 60403:1 60578:1 60587:1 60802:1 60803:1 60820:1 61083:1 61407:1 61439:1 61449:1 61467:1 61584:1 61744:1 61887:1 61916:1 61949:1 62048:1 62242:1 62265:1 62404:1 62554:1 62731:1 62786:1 62846:1 62916:1 63115:1 63490:1 63655:1 63669:1 63678:1 63682:1 63800:1 63857:1 64017:1 64180:1 64313:1 64344:1 64352:1 64395:1 64590:1 64709:1 64814:1 64819:1 65045:1 65088:1 65140:1 65144:1 65198:1 65341:1 65344:1 65370:1 65377:1 65398:1 65469:1 65554:1 65622:1 65710:1 65777:1 66006:1 66012:1 66070:1 66255:1 66361:1 66532:1 66586:1 66596:1 66597:1 66626:1 66690:1 66747:1 66773:1 66978:1 67020:1 67184:1 67217:1 67251:1 67374:1 67457:1 67668:1 67866:1 67965:1 68016:1 68025:1 68306:1 68408:1 68436:1 68443:1 68512:1 68527:1 68607:1 68609:1 68672:1 68867:1 68990:1 69167:1 69201:1 69330:1 69340:1 69390:1 69500:1 69773:1 69839:1 69949:1 70074:1 70305:1 70456:1 70471:1 70490:1 70504:1 70591:1 70610:1 70646:1 70779:1 70904:1 70992:1 71023:1 71085:1 71177:1 71223:1 71419:1 71532:1 71535:1 71907:1 71915:1 71957:1 72172:1 72185:1 72266:1 72289:1 72412:1 72457:1 72560:1 72887:1 72922:1 73132:1 73161:1 73675:1 73760:1 73828:1 73886:1 74039:1 74050:1 74160:1 74497:1 74600:1 74657:1 74765:1 75165:1 75306:1 75327:1 75390:1 75477:1 75550:1 75623:1 75673:1 75682:1 75784:1 75802:1 76265:1 76359:1 76457:1 76505:1 76529:1 76548:1 76576:1 76611:1 #
-0.0007477387786659307408743124767625 28642:1 28745:1 28934:1 28996:1 29095:1 29104:1 29239:1 29315:1 29448:1 29516:1 29550:1 29597:1 29647:1 29719:1 29816:1 29943:1 30047:1 30073:1 30118:1 30139:1 30257:1 30341:1 30419:1 30483:1 30859:1 30978:1 31118:1 31224:1 31401:1 31531:1 31726:1 32036:1 32224:1 32253:1 32371:1 32392:1 32410:1 32479:1 32623:1 32702:1 32805:1 32913:1 33089:1 33236:1 33320:1 33467:1 33717:1 33723:1 33950:1 34049:1 34258:1 34478:1 34498:1 34864:1 35130:1 35306:1 35350:1 35363:1 35428:1 35478:1 35508:1 35527:1 35615:1 35730:1 35811:1 35955:1 36042:1 36189:1 36520:1 36544:1 36563:1 36565:1 36631:1 36757:1 36802:1 36955:1 36997:1 37060:1 37218:1 37286:1 37312:1 37753:1 37831:1 37864:1 37918:1 37960:1 38007:1 38107:1 38475:1 38687:1 38879:1 38924:1 38991:1 39025:1 39049:1 39452:1 39554:1 39701:1 39757:1 39820:1 39826:1 39857:1 39918:1 40264:1 40311:1 40312:1 40373:1 40503:1 40547:1 40564:1 40592:1 40672:1 40835:1 40845:1 40869:1 40873:1 40936:1 40999:1 41178:1 41183:1 41235:1 41276:1 41617:1 41625:1 41677:1 41678:1 41681:1 41943:1 42094:1 42158:1 42228:1 42229:1 42362:1 42414:1 42448:1 42486:1 42555:1 42602:1 42721:1 42758:1 43055:1 43143:1 43220:1 43394:1 43395:1 43400:1 43402:1 43428:1 43493:1 43560:1 43572:1 43584:1 43719:1 43741:1 43759:1 43813:1 43832:1 43925:1 44043:1 44121:1 44152:1 44235:1 44346:1 44409:1 44447:1 44495:1 45052:1 45248:1 45772:1 45888:1 45916:1 46189:1 46261:1 46300:1 46348:1 46463:1 46622:1 46639:1 46663:1 46741:1 46742:1 46756:1 47196:1 47238:1 47311:1 47430:1 47477:1 47513:1 47549:1 47589:1 47594:1 47598:1 48277:1 48308:1 48399:1 48551:1 49006:1 49029:1 49146:1 49156:1 49157:1 49239:1 49340:1 49356:1 49413:1 49690:1 49731:1 49829:1 49908:1 49915:1 49950:1 49971:1 50304:1 50613:1 50623:1 50628:1 50630:1 50639:1 50834:1 50837:1 50840:1 50843:1 50949:1 51174:1 51240:1 51303:1 51582:1 51603:1 51889:1 51982:1 52108:1 52121:1 52289:1 53097:1 53296:1 53377:1 53503:1 53581:1 53655:1 53680:1 54362:1 54547:1 54789:1 54871:1 55015:1 55296:1 55402:1 55458:1 55505:1 55529:1 55619:1 55718:1 55852:1 55865:1 55868:1 55872:1 55998:1 56002:1 56031:1 56078:1 56093:1 56353:1 56596:1 56631:1 56632:1 56874:1 56907:1 56955:1 57103:1 57187:1 57792:1 57963:1 58004:1 58035:1 58079:1 58513:1 58573:1 58806:1 59195:1 59203:1 59212:1 59216:1 59309:1 59340:1 59517:1 59665:1 59824:1 59855:1 59962:1 59991:1 60007:1 60022:1 60035:1 60039:1 60403:1 60518:1 60580:1 60587:1 61079:1 61083:1 61084:1 61150:1 61279:1 61532:1 61661:1 61672:1 61854:1 61916:1 62241:1 62304:1 62502:1 62731:1 62786:1 62799:1 62846:1 63017:1 63436:1 63641:1 63682:1 63718:1 63800:1 64058:1 64111:1 64204:1 64336:1 64337:1 64344:1 64388:1 64709:1 64805:1 64814:1 64819:1 65037:1 65045:1 65088:1 65140:1 65144:1 65198:1 65341:1 65370:1 65398:1 65438:1 65469:1 66070:1 66140:1 66255:1 66432:1 66532:1 66749:1 66828:1 67020:1 67022:1 67103:1 67163:1 67539:1 67571:1 67590:1 67612:1 68107:1 68436:1 68443:1 68540:1 68609:1 68643:1 68672:1 68834:1 69040:1 69060:1 69148:1 69166:1 69229:1 69252:1 69330:1 69390:1 69435:1 69500:1 69516:1 69757:1 69928:1 69949:1 70100:1 70192:1 70456:1 70512:1 70610:1 70611:1 70645:1 70683:1 70771:1 70779:1 70817:1 71085:1 71200:1 71272:1 71451:1 71502:1 71535:1 71608:1 71652:1 71745:1 71804:1 71813:1 72060:1 72125:1 72172:1 72216:1 72505:1 72642:1 72784:1 72825:1 73428:1 73444:1 73521:1 73617:1 73675:1 73888:1 74310:1 74497:1 74544:1 74770:1 74895:1 75062:1 75165:1 75204:1 75306:1 75401:1 75512:1 75682:1 75784:1 75802:1 76073:1 76548:1 76552:1 #
