SVM-light Version V6.02
0 # kernel type
3 # kernel parameter -d 
1 # kernel parameter -g 
1 # kernel parameter -s 
1 # kernel parameter -r 
empty# kernel parameter -u 
77194 # highest feature index 
1800 # number of training documents 
1364 # number of support vectors plus 1 
0.0036593669 # threshold b, each following line is a SV (starting with alpha*y)
-0.0032377323777017176682779808771784 28711:1 28749:1 28772:1 28806:1 28892:1 28990:1 29138:1 29252:1 29294:1 29462:1 29593:1 29689:1 29704:1 29988:1 30088:1 30258:1 30485:1 30630:1 30960:1 31065:1 31075:1 31385:1 31412:1 31537:1 31692:1 31807:1 32044:1 32088:1 32231:1 32359:1 32489:1 32543:1 32566:1 32568:1 32655:1 32989:1 33096:1 33098:1 33327:1 33352:1 33367:1 33473:1 33614:1 33622:1 33654:1 33864:1 34051:1 34189:1 34285:1 34338:1 34345:1 34628:1 34658:1 34685:1 35148:1 35628:1 35912:1 35963:1 36130:1 36192:1 36407:1 36679:1 36725:1 36841:1 36861:1 36997:1 37073:1 37169:1 37211:1 37277:1 37487:1 37506:1 37536:1 37715:1 38134:1 38257:1 38258:1 38635:1 38741:1 38872:1 38995:1 39112:1 39271:1 39275:1 39475:1 39950:1 40006:1 40071:1 40201:1 40380:1 40449:1 40574:1 40882:1 40972:1 41086:1 41090:1 41097:1 41425:1 41512:1 41919:1 41921:1 42025:1 42110:1 42187:1 42215:1 42297:1 42398:1 42470:1 42603:1 42653:1 42686:1 42959:1 43156:1 43454:1 43636:1 43645:1 43653:1 43747:1 43815:1 43826:1 43998:1 44056:1 44075:1 44155:1 44287:1 44619:1 44888:1 44980:1 45119:1 45214:1 45215:1 45358:1 45421:1 45736:1 46213:1 46415:1 46457:1 46647:1 47008:1 47017:1 47018:1 47229:1 47248:1 47427:1 47521:1 47814:1 47879:1 47888:1 47993:1 48164:1 48221:1 48311:1 48532:1 48540:1 48544:1 48664:1 48691:1 48819:1 48826:1 48868:1 49404:1 49446:1 49462:1 49539:1 49561:1 49587:1 49626:1 49636:1 49650:1 49674:1 49695:1 49756:1 49803:1 49826:1 49832:1 49942:1 49989:1 50171:1 50213:1 50345:1 50786:1 50807:1 50915:1 50920:1 50922:1 50932:1 51838:1 52246:1 52358:1 52813:1 53013:1 53274:1 53391:1 53411:1 53515:1 53577:1 53855:1 53873:1 53968:1 54248:1 54441:1 54514:1 54654:1 54655:1 55106:1 55799:1 55909:1 56155:1 56163:1 56486:1 56651:1 57492:1 57752:1 57843:1 57994:1 58102:1 58252:1 58277:1 58352:1 58659:1 58840:1 58898:1 58932:1 58950:1 59009:1 59037:1 59110:1 59542:1 59566:1 59786:1 60109:1 60152:1 60182:1 60203:1 60338:1 60372:1 60414:1 60493:1 61139:1 61166:1 61425:1 61437:1 61441:1 61478:1 61840:1 61958:1 62143:1 62363:1 62621:1 62870:1 62932:1 63056:1 63168:1 63874:1 64261:1 64746:1 64790:1 64960:1 65077:1 65130:1 65151:1 65164:1 65222:1 65253:1 65497:1 65552:1 65609:1 65752:1 65777:1 65821:1 65847:1 66134:1 66346:1 66390:1 66425:1 66483:1 66665:1 66744:1 66784:1 66947:1 67007:1 67212:1 67466:1 67537:1 67625:1 67658:1 67875:1 68010:1 68480:1 68492:1 68675:1 68863:1 68939:1 68989:1 69095:1 69209:1 69260:1 69502:1 69566:1 69768:1 69821:1 70390:1 70401:1 70485:1 70596:1 70871:1 70916:1 71073:1 71150:1 71201:1 71256:1 71558:1 71589:1 71615:1 71692:1 71694:1 71882:1 71922:1 72018:1 72236:1 72482:1 72664:1 72754:1 72849:1 73050:1 73115:1 73317:1 73779:1 74179:1 74181:1 74567:1 75049:1 75296:1 75775:1 75884:1 76227:1 76320:1 76346:1 76606:1 76645:1 77027:1 77048:1 #
-0.0032377323777017176682779808771784 28860:1 29030:1 29138:1 29140:1 29252:1 29313:1 30088:1 30258:1 30501:1 31051:1 31894:1 31924:1 32206:1 32342:1 32541:1 32543:1 32655:1 32989:1 33278:1 33473:1 33559:1 34041:1 34452:1 34459:1 34576:1 34690:1 35628:1 35850:1 36973:1 37169:1 37211:1 37277:1 37506:1 38134:1 38463:1 38872:1 39239:1 39448:1 39950:1 40077:1 40380:1 40562:1 41086:1 41097:1 41149:1 41425:1 42051:1 42311:1 42695:1 42797:1 43098:1 43454:1 43653:1 43815:1 43826:1 43998:1 44206:1 44668:1 44779:1 44980:1 45119:1 45273:1 45358:1 45444:1 45609:1 45662:1 45872:1 46955:1 47017:1 47018:1 47031:1 47213:1 47401:1 47804:1 48532:1 48664:1 48691:1 49451:1 49756:1 49803:1 50171:1 50213:1 50530:1 50667:1 50839:1 50915:1 50922:1 51102:1 51846:1 52848:1 53391:1 53576:1 53798:1 53873:1 53968:1 55909:1 56158:1 57653:1 58102:1 58133:1 58277:1 58400:1 59522:1 59542:1 59641:1 60177:1 63168:1 63321:1 63385:1 64397:1 64616:1 64746:1 64980:1 65010:1 65164:1 65453:1 65752:1 65847:1 66113:1 66483:1 66665:1 66784:1 66904:1 66989:1 68863:1 68939:1 69095:1 69209:1 69260:1 69935:1 70390:1 71073:1 71558:1 71702:1 71995:1 72018:1 72096:1 72395:1 72664:1 72703:1 73050:1 73305:1 73705:1 74034:1 74181:1 74643:1 74835:1 75024:1 76055:1 77027:1 #
-7.2909712050331013230217158671564e-05 28711:1 28772:1 28812:1 29138:1 29160:1 29252:1 29282:1 29390:1 29689:1 29862:1 29988:1 30088:1 30201:1 30258:1 30310:1 30707:1 31267:1 31437:1 31489:1 31554:1 31692:1 31912:1 32044:1 32143:1 32172:1 32212:1 32358:1 32432:1 32648:1 32655:1 32656:1 32819:1 32989:1 33099:1 33287:1 33598:1 33785:1 34025:1 34041:1 34152:1 34362:1 34452:1 34454:1 34685:1 34814:1 35162:1 35327:1 35331:1 35334:1 35509:1 35565:1 35648:1 35697:1 35812:1 35889:1 36002:1 36433:1 37016:1 37169:1 37211:1 37277:1 37506:1 37512:1 37672:1 37698:1 37870:1 38134:1 38784:1 38872:1 39056:1 39118:1 39584:1 39720:1 39950:1 40006:1 40201:1 40213:1 40256:1 40312:1 40452:1 40571:1 40833:1 40988:1 41073:1 41097:1 41154:1 41425:1 41919:1 41921:1 41924:1 42039:1 42051:1 42250:1 42297:1 42319:1 42452:1 42603:1 42728:1 43454:1 43653:1 43998:1 44297:1 44412:1 44513:1 44619:1 44659:1 44888:1 45119:1 45368:1 45658:1 46216:1 46220:1 46436:1 46457:1 46647:1 46795:1 46938:1 47017:1 47018:1 47031:1 47205:1 47487:1 47773:1 47822:1 48079:1 48221:1 48664:1 48691:1 48868:1 49237:1 49444:1 49446:1 49453:1 49543:1 49650:1 49674:1 50213:1 50264:1 50922:1 50932:1 51142:1 51843:1 51856:1 51987:1 52054:1 52134:1 52600:1 52781:1 53029:1 53201:1 53391:1 53779:1 53822:1 53873:1 53968:1 54654:1 54749:1 55106:1 55162:1 55694:1 55789:1 55872:1 56054:1 56113:1 56121:1 56155:1 56187:1 56397:1 56481:1 56695:1 56769:1 57254:1 57462:1 58102:1 58277:1 58374:1 58493:1 58536:1 58707:1 58717:1 58783:1 58840:1 59257:1 59272:1 59431:1 59677:1 59681:1 59851:1 59994:1 60152:1 60163:1 60254:1 60322:1 60338:1 60456:1 60493:1 60554:1 60567:1 61139:1 61441:1 61539:1 61904:1 61958:1 62127:1 62545:1 62685:1 62813:1 62902:1 62932:1 64206:1 64261:1 64314:1 64746:1 65164:1 65309:1 65453:1 65497:1 65503:1 65609:1 65874:1 66188:1 66289:1 66483:1 66665:1 66714:1 66947:1 67219:1 67304:1 67313:1 68233:1 68586:1 68774:1 68863:1 68870:1 69095:1 69138:1 69675:1 69743:1 69825:1 69935:1 70390:1 70516:1 70860:1 71054:1 71073:1 71201:1 71360:1 71558:1 71923:1 72474:1 72680:1 72956:1 72978:1 73063:1 73411:1 73779:1 73957:1 74567:1 74836:1 75024:1 75126:1 75660:1 75703:1 75942:1 76055:1 76110:1 77027:1 #
-0.0032377323777017176682779808771784 28711:1 28986:1 29070:1 29138:1 29140:1 29243:1 29252:1 29287:1 29689:1 29982:1 30060:1 30088:1 30280:1 30592:1 30812:1 31032:1 31048:1 31110:1 31144:1 31609:1 31807:1 32172:1 32358:1 32367:1 32595:1 32630:1 32649:1 32655:1 32927:1 33042:1 33518:1 33713:1 33812:1 34294:1 34341:1 35282:1 35435:1 35471:1 35509:1 35572:1 35648:1 35675:1 35706:1 35726:1 35732:1 35744:1 36075:1 36135:1 36147:1 36453:1 36769:1 36773:1 37169:1 37211:1 37277:1 37490:1 37506:1 37672:1 37770:1 37972:1 38134:1 38248:1 38270:1 38542:1 38625:1 38699:1 38704:1 39239:1 39275:1 39607:1 39750:1 40071:1 40177:1 40553:1 40571:1 40598:1 40892:1 40913:1 40921:1 40926:1 40939:1 41097:1 41099:1 41719:1 41867:1 41919:1 41921:1 41924:1 42091:1 42187:1 42301:1 42398:1 42524:1 42603:1 42686:1 42885:1 43079:1 43265:1 43304:1 43454:1 43646:1 43653:1 43665:1 43815:1 43939:1 43974:1 43998:1 44155:1 44181:1 44729:1 44980:1 45103:1 45118:1 45119:1 45195:1 45301:1 45358:1 45600:1 45683:1 45830:1 45941:1 46070:1 46182:1 46392:1 46453:1 46938:1 47017:1 47018:1 47031:1 47153:1 47288:1 47411:1 47784:1 47814:1 48176:1 48191:1 48232:1 48691:1 48721:1 48810:1 49116:1 49446:1 49578:1 49650:1 49674:1 50081:1 50185:1 50213:1 50854:1 50915:1 50922:1 51049:1 51252:1 51846:1 51883:1 52146:1 52309:1 52427:1 52789:1 52813:1 53391:1 53779:1 53798:1 53873:1 53968:1 54654:1 54740:1 54749:1 54884:1 55005:1 55570:1 55799:1 55872:1 55909:1 56155:1 56158:1 56344:1 56379:1 56576:1 56651:1 57172:1 57176:1 57254:1 57870:1 57883:1 58102:1 58191:1 58352:1 58443:1 58659:1 58866:1 59033:1 59272:1 59522:1 59677:1 60079:1 60183:1 60322:1 60456:1 60605:1 60962:1 61421:1 61840:1 61904:1 62049:1 62621:1 62902:1 63020:1 63490:1 64206:1 64261:1 64314:1 64461:1 64666:1 64719:1 64746:1 64912:1 65005:1 65164:1 65227:1 65374:1 65453:1 65497:1 65791:1 65879:1 66160:1 66167:1 66213:1 66425:1 66852:1 67158:1 67772:1 67815:1 67945:1 68010:1 68219:1 68325:1 68492:1 68863:1 68939:1 69040:1 69095:1 69260:1 69598:1 69759:1 70192:1 70390:1 70627:1 70916:1 71073:1 71558:1 72015:1 72118:1 72134:1 72456:1 72664:1 72849:1 72978:1 73050:1 73317:1 73381:1 73479:1 73779:1 73936:1 74397:1 74556:1 74567:1 74755:1 75703:1 76211:1 76320:1 77060:1 77101:1 #
-0.0032377323777017176682779808771784 28877:1 29005:1 29138:1 29140:1 29243:1 29252:1 29259:1 29611:1 29689:1 29959:1 30088:1 30118:1 30169:1 30201:1 30258:1 30260:1 30485:1 30790:1 31078:1 31189:1 31237:1 31443:1 31527:1 31692:1 31755:1 31894:1 32390:1 32516:1 32543:1 32566:1 32654:1 32655:1 32991:1 33406:1 33449:1 33504:1 33510:1 33624:1 33812:1 33992:1 34025:1 34041:1 34162:1 34362:1 34417:1 34452:1 34557:1 34628:1 34685:1 34801:1 34819:1 35066:1 35313:1 35545:1 35609:1 35675:1 35678:1 35744:1 36106:1 36688:1 37104:1 37117:1 37169:1 37211:1 37277:1 37289:1 37506:1 37870:1 37911:1 38064:1 38118:1 38134:1 38528:1 38676:1 38704:1 39102:1 39112:1 39239:1 39311:1 39510:1 39677:1 39720:1 39950:1 40071:1 40151:1 40442:1 40454:1 40539:1 40841:1 41015:1 41086:1 41097:1 41187:1 41299:1 41837:1 41854:1 41899:1 41919:1 41921:1 41924:1 42109:1 42187:1 42250:1 42297:1 42398:1 42435:1 42481:1 42556:1 42591:1 42603:1 42608:1 42701:1 42959:1 42966:1 43078:1 43251:1 43316:1 43454:1 43472:1 43642:1 43645:1 43646:1 43783:1 43815:1 43826:1 43998:1 44068:1 44181:1 44206:1 44265:1 44444:1 44474:1 44751:1 44830:1 45028:1 45031:1 45119:1 45407:1 45421:1 45469:1 45709:1 45715:1 45798:1 46095:1 46129:1 46182:1 46430:1 46457:1 46490:1 46572:1 46618:1 46947:1 47017:1 47018:1 47031:1 47124:1 47271:1 47276:1 47521:1 47879:1 48050:1 48164:1 48532:1 48660:1 48670:1 48691:1 49446:1 49802:1 49903:1 49989:1 50028:1 50213:1 50584:1 50587:1 50622:1 50693:1 50801:1 50915:1 50922:1 50932:1 51132:1 51518:1 51769:1 52054:1 52194:1 52427:1 52537:1 52587:1 52755:1 53013:1 53132:1 53189:1 53234:1 53391:1 53671:1 53798:1 53873:1 53884:1 53968:1 54183:1 54248:1 54711:1 55106:1 55115:1 55583:1 55650:1 55799:1 55870:1 55909:1 55918:1 55951:1 56155:1 56158:1 56190:1 56222:1 56371:1 56375:1 56576:1 56651:1 56663:1 56695:1 56773:1 57096:1 57254:1 57345:1 57745:1 58102:1 58127:1 58133:1 58153:1 58352:1 58379:1 58717:1 58927:1 59129:1 59258:1 59365:1 59405:1 59420:1 59513:1 59851:1 59909:1 60109:1 60338:1 60936:1 61441:1 61512:1 61840:1 61849:1 61904:1 61914:1 62045:1 62121:1 62312:1 62545:1 62601:1 62631:1 62794:1 62932:1 62942:1 63056:1 63168:1 63216:1 63971:1 64089:1 64206:1 64261:1 64315:1 64654:1 64746:1 64797:1 64960:1 65151:1 65164:1 65214:1 65349:1 65453:1 65497:1 65552:1 65877:1 66391:1 66483:1 66506:1 66665:1 66947:1 67212:1 67367:1 67403:1 67658:1 68085:1 68098:1 68275:1 68351:1 68389:1 68492:1 68593:1 68722:1 68863:1 68870:1 68938:1 69095:1 69371:1 69462:1 69470:1 69502:1 69768:1 69821:1 69935:1 70156:1 70250:1 70276:1 70390:1 70830:1 70879:1 71073:1 71150:1 71196:1 71201:1 71464:1 71558:1 71920:1 72018:1 72142:1 72664:1 72685:1 72776:1 73015:1 73050:1 73063:1 73381:1 73779:1 74181:1 74556:1 74679:1 74763:1 75007:1 75024:1 75418:1 75581:1 75864:1 75993:1 76086:1 76278:1 76343:1 76606:1 76650:1 76717:1 77027:1 77048:1 77067:1 77091:1 #
0.0032377323777017176682779808771784 28696:1 28717:1 28749:1 28772:1 28813:1 29011:1 29020:1 29036:1 29138:1 29140:1 29243:1 29252:1 29282:1 29524:1 29689:1 29862:1 29988:1 30076:1 30088:1 30198:1 30258:1 31104:1 31136:1 31164:1 31383:1 31807:1 31894:1 32282:1 32390:1 32566:1 32568:1 32655:1 33122:1 33303:1 33406:1 33506:1 33762:1 33812:1 33828:1 34025:1 34452:1 34685:1 34985:1 35119:1 35169:1 35411:1 35435:1 35509:1 35565:1 35628:1 35675:1 35709:1 36106:1 36147:1 36176:1 36231:1 36407:1 36520:1 36596:1 36630:1 36841:1 37169:1 37211:1 37277:1 37278:1 37350:1 37475:1 37502:1 37506:1 37536:1 37694:1 37765:1 37858:1 37870:1 37944:1 38134:1 38218:1 38533:1 38699:1 38938:1 39275:1 39303:1 39432:1 39502:1 39606:1 39607:1 39728:1 40071:1 40168:1 40170:1 40356:1 40695:1 40882:1 40946:1 41074:1 41097:1 41299:1 41384:1 41425:1 41436:1 41512:1 41676:1 41837:1 41872:1 41899:1 41919:1 41921:1 41924:1 41968:1 42039:1 42091:1 42110:1 42390:1 42398:1 42435:1 42447:1 42503:1 42603:1 42608:1 42806:1 42959:1 43098:1 43161:1 43404:1 43454:1 43546:1 43547:1 43653:1 43673:1 43826:1 43901:1 43998:1 44068:1 44257:1 44409:1 44445:1 44806:1 44980:1 45031:1 45119:1 45128:1 45195:1 45466:1 45736:1 46182:1 46207:1 46272:1 46457:1 46463:1 46572:1 46748:1 46938:1 46984:1 47017:1 47018:1 47020:1 47031:1 47390:1 47481:1 47521:1 47535:1 47666:1 47721:1 47979:1 48033:1 48384:1 48540:1 48567:1 48664:1 48691:1 48708:1 48805:1 48891:1 49446:1 49561:1 49636:1 49832:1 49989:1 50052:1 50172:1 50213:1 50361:1 50454:1 50509:1 50587:1 50653:1 50765:1 50915:1 50922:1 50932:1 51017:1 51074:1 51102:1 51252:1 51502:1 51754:1 51778:1 51825:1 51890:1 51930:1 52137:1 52427:1 53006:1 53034:1 53189:1 53391:1 53411:1 53546:1 53657:1 53723:1 53873:1 53968:1 53973:1 54281:1 54521:1 54654:1 54700:1 55018:1 55421:1 55462:1 55753:1 55789:1 55799:1 56158:1 56187:1 56207:1 56246:1 56371:1 56379:1 56527:1 56701:1 57100:1 57117:1 57185:1 57492:1 57703:1 57994:1 58102:1 58133:1 58277:1 58338:1 58352:1 58554:1 58659:1 58676:1 58775:1 58911:1 58936:1 58939:1 59037:1 59043:1 59104:1 59110:1 59493:1 59522:1 59525:1 59542:1 59546:1 59677:1 60183:1 60274:1 60484:1 60877:1 61147:1 61329:1 61441:1 61512:1 61570:1 61644:1 61737:1 61814:1 61904:1 61958:1 62601:1 62644:1 62837:1 62932:1 63071:1 63490:1 63549:1 63833:1 63858:1 64206:1 64491:1 64608:1 64676:1 64746:1 64790:1 64802:1 65164:1 65280:1 65301:1 65428:1 65453:1 65497:1 65552:1 65609:1 65779:1 65786:1 65877:1 66057:1 66219:1 66425:1 66483:1 66755:1 66947:1 67076:1 67100:1 67235:1 67269:1 67576:1 67920:1 67952:1 68082:1 68788:1 68863:1 68870:1 68939:1 69075:1 69095:1 69184:1 69260:1 69371:1 69462:1 69502:1 69613:1 69768:1 70104:1 70250:1 70334:1 70390:1 70415:1 70473:1 70546:1 70699:1 71073:1 71074:1 71136:1 71201:1 71256:1 71257:1 71411:1 71518:1 71558:1 71692:1 71922:1 72045:1 72142:1 72177:1 72664:1 72679:1 72703:1 72715:1 72754:1 72799:1 72809:1 72849:1 72917:1 72966:1 73024:1 73050:1 73750:1 73771:1 73779:1 74034:1 74181:1 74615:1 74750:1 75006:1 75007:1 75419:1 75424:1 75432:1 75623:1 75703:1 75918:1 76050:1 76501:1 76710:1 76820:1 77048:1 77104:1 77167:1 #
0.0029367920668774802513134591919197 29138:1 29243:1 29252:1 29313:1 29390:1 29689:1 29862:1 29883:1 30088:1 30258:1 30439:1 30677:1 30764:1 30960:1 31032:1 31267:1 31385:1 31692:1 32150:1 32186:1 32426:1 32428:1 32539:1 32566:1 32568:1 32595:1 32652:1 32655:1 32911:1 33180:1 33491:1 33553:1 33656:1 34041:1 34151:1 34324:1 34362:1 34467:1 34581:1 34685:1 34689:1 34827:1 35046:1 35066:1 35299:1 35429:1 35675:1 36130:1 36215:1 37169:1 37211:1 37277:1 37278:1 37454:1 37506:1 37744:1 37757:1 38054:1 38134:1 38439:1 38733:1 38872:1 38995:1 39043:1 39239:1 39275:1 39502:1 39606:1 40006:1 40048:1 40077:1 40249:1 40419:1 40926:1 40972:1 41097:1 41271:1 41761:1 41912:1 41919:1 41921:1 41924:1 42029:1 42250:1 42275:1 42319:1 42435:1 42959:1 43337:1 43454:1 43645:1 43653:1 43735:1 43747:1 43780:1 43998:1 44181:1 44297:1 44361:1 44445:1 44668:1 45119:1 45214:1 45254:1 45421:1 45611:1 45830:1 46062:1 46129:1 46272:1 46345:1 46457:1 46692:1 46748:1 46757:1 46858:1 46938:1 46947:1 47017:1 47018:1 47597:1 47733:1 47737:1 48221:1 48344:1 48423:1 48445:1 48491:1 48563:1 48567:1 48569:1 48661:1 48691:1 49116:1 49446:1 49539:1 49587:1 49636:1 49649:1 49650:1 49708:1 49931:1 49989:1 50028:1 50052:1 50099:1 50161:1 50213:1 50655:1 50915:1 50922:1 51502:1 51582:1 51655:1 51846:1 51908:1 51952:1 51981:1 52427:1 52587:1 52720:1 53391:1 53411:1 53577:1 53671:1 53873:1 53968:1 54096:1 54654:1 54702:1 54749:1 55106:1 55258:1 55592:1 55607:1 55645:1 55707:1 56129:1 56155:1 56158:1 56540:1 56695:1 56899:1 56930:1 56931:1 57096:1 57098:1 57176:1 57254:1 57406:1 58102:1 58277:1 58352:1 58383:1 58606:1 58839:1 58872:1 58927:1 59406:1 59522:1 59542:1 59610:1 59677:1 59787:1 59815:1 60109:1 60182:1 60183:1 60485:1 60489:1 60605:1 60745:1 61060:1 61776:1 62248:1 62286:1 62403:1 62528:1 62646:1 62852:1 62932:1 63056:1 63168:1 63359:1 63659:1 63750:1 63893:1 64080:1 64261:1 64461:1 64471:1 64608:1 64730:1 64746:1 65010:1 65164:1 65227:1 65428:1 65464:1 65497:1 65552:1 65609:1 65727:1 65847:1 66089:1 66425:1 66665:1 66947:1 67102:1 67158:1 67576:1 67591:1 67595:1 67603:1 67658:1 68262:1 68330:1 68499:1 68863:1 68870:1 69095:1 69260:1 69373:1 69675:1 69759:1 69768:1 69870:1 70125:1 70192:1 70345:1 70390:1 70508:1 71073:1 71150:1 71201:1 71402:1 71427:1 71558:1 71692:1 72042:1 72125:1 72173:1 72323:1 72472:1 72563:1 72664:1 72961:1 73362:1 73779:1 74181:1 74422:1 75024:1 75126:1 75179:1 75251:1 75703:1 76320:1 77027:1 77048:1 77133:1 77169:1 #
0.0032377323777017176682779808771784 28837:1 29138:1 29140:1 29243:1 29441:1 29659:1 30088:1 30189:1 30258:1 30345:1 30617:1 30764:1 30896:1 30960:1 31104:1 31145:1 31383:1 31443:1 32020:1 32071:1 32566:1 32595:1 32655:1 32991:1 33001:1 33082:1 33275:1 33671:1 33830:1 34025:1 34285:1 34554:1 34637:1 35066:1 35304:1 35411:1 35435:1 35509:1 35678:1 35912:1 36307:1 36421:1 36559:1 36725:1 37169:1 37211:1 37277:1 37278:1 37506:1 37884:1 38134:1 38248:1 38389:1 38704:1 38872:1 38980:1 39239:1 39255:1 39275:1 39606:1 39950:1 40077:1 40096:1 40163:1 40170:1 40539:1 40796:1 40882:1 40909:1 41090:1 41097:1 41099:1 41299:1 41919:1 41921:1 41924:1 41968:1 42034:1 42275:1 42603:1 42845:1 43000:1 43156:1 43454:1 43525:1 43590:1 43645:1 43646:1 43653:1 43826:1 43998:1 44007:1 44753:1 44779:1 44980:1 45076:1 45195:1 45434:1 45941:1 46216:1 46947:1 47017:1 47018:1 47031:1 47124:1 47450:1 47597:1 47657:1 47814:1 47884:1 48634:1 48691:1 48785:1 49362:1 49446:1 49756:1 49776:1 49802:1 49989:1 50213:1 50693:1 50920:1 50922:1 50932:1 51602:1 51846:1 52254:1 52427:1 53015:1 53272:1 53391:1 53411:1 53779:1 53798:1 53873:1 53968:1 54024:1 54561:1 54630:1 54654:1 56158:1 56166:1 56482:1 56651:1 57098:1 57180:1 57209:1 58036:1 58102:1 58133:1 58277:1 58352:1 58400:1 58708:1 58716:1 58964:1 59037:1 59272:1 59542:1 59637:1 59652:1 60109:1 60118:1 60338:1 60386:1 60393:1 61044:1 61441:1 61776:1 61842:1 62221:1 63147:1 63168:1 63228:1 63233:1 64335:1 64502:1 64605:1 64874:1 64993:1 65164:1 65227:1 65453:1 65497:1 65552:1 65609:1 66160:1 66429:1 66483:1 66665:1 66742:1 67102:1 67658:1 67705:1 67815:1 67920:1 67943:1 67983:1 68863:1 68870:1 68902:1 69028:1 69095:1 69169:1 69184:1 69260:1 69502:1 69566:1 69768:1 69907:1 69935:1 70128:1 70390:1 70404:1 71073:1 71074:1 71201:1 71256:1 71464:1 71558:1 71702:1 71881:1 71882:1 71923:1 72096:1 72142:1 72589:1 72664:1 72703:1 73305:1 73381:1 73459:1 73779:1 73900:1 74025:1 74181:1 74615:1 75299:1 77005:1 77027:1 77048:1 77167:1 #
-0.00098134628806339661497015747215755 28772:1 28877:1 29138:1 29140:1 29243:1 29390:1 29596:1 29689:1 29856:1 29908:1 30088:1 30143:1 30207:1 30258:1 30310:1 30485:1 31032:1 31061:1 31110:1 31240:1 31337:1 31385:1 31443:1 31543:1 31665:1 31692:1 31755:1 31807:1 32044:1 32367:1 32399:1 32566:1 32649:1 32655:1 32880:1 32989:1 33045:1 33530:1 33559:1 33577:1 33812:1 33818:1 33902:1 33992:1 34081:1 34142:1 34452:1 34504:1 34634:1 34806:1 34998:1 35066:1 35313:1 35432:1 35529:1 35565:1 35628:1 35678:1 35697:1 35912:1 36304:1 36576:1 36606:1 36630:1 36769:1 36771:1 36997:1 37169:1 37211:1 37277:1 37498:1 37506:1 37661:1 37870:1 37972:1 38134:1 38217:1 38248:1 38686:1 38697:1 38741:1 38754:1 38872:1 38980:1 39112:1 39239:1 39275:1 39502:1 39607:1 39745:1 39773:1 39950:1 40006:1 40077:1 40479:1 40806:1 40841:1 40884:1 40926:1 40983:1 41069:1 41086:1 41097:1 41349:1 41425:1 41512:1 41533:1 41919:1 41921:1 41924:1 42056:1 42398:1 42435:1 42603:1 42653:1 42686:1 42751:1 42845:1 42959:1 43086:1 43217:1 43300:1 43378:1 43454:1 43503:1 43646:1 43653:1 43815:1 43826:1 43939:1 43974:1 43998:1 44181:1 44199:1 44409:1 44510:1 44668:1 44692:1 44779:1 44980:1 45012:1 45183:1 45469:1 45600:1 45609:1 45736:1 45787:1 46129:1 46182:1 46387:1 46457:1 46647:1 46899:1 46938:1 47017:1 47018:1 47031:1 47427:1 47450:1 47521:1 47879:1 47884:1 48054:1 48082:1 48176:1 48308:1 48532:1 48544:1 48691:1 48721:1 49042:1 49153:1 49231:1 49317:1 49446:1 49455:1 49539:1 49699:1 49756:1 49989:1 50073:1 50213:1 50321:1 50348:1 50693:1 50789:1 50887:1 50915:1 50922:1 50932:1 51908:1 51930:1 51969:1 52054:1 52427:1 52486:1 52587:1 52748:1 52813:1 52991:1 53234:1 53509:1 53671:1 53873:1 53966:1 53968:1 53982:1 54313:1 54655:1 54749:1 54864:1 54884:1 55106:1 55561:1 55860:1 56113:1 56145:1 56158:1 56379:1 56441:1 56486:1 56520:1 56651:1 56858:1 57091:1 57096:1 57130:1 57176:1 57180:1 57576:1 57582:1 57632:1 57812:1 58102:1 58153:1 58277:1 58352:1 58374:1 58562:1 58599:1 58604:1 58775:1 59037:1 59185:1 59192:1 59272:1 59398:1 59431:1 59542:1 59555:1 59666:1 59804:1 59815:1 59832:1 59851:1 59905:1 60025:1 60109:1 60254:1 60335:1 60367:1 60460:1 60489:1 60559:1 60567:1 61044:1 61419:1 61437:1 61441:1 61840:1 61845:1 61958:1 62045:1 62121:1 62300:1 62422:1 62488:1 62621:1 62663:1 62823:1 62932:1 62942:1 63056:1 63134:1 63168:1 63228:1 63490:1 63659:1 64061:1 64261:1 64584:1 64746:1 65111:1 65164:1 65453:1 65497:1 65806:1 65847:1 65880:1 66419:1 66517:1 66665:1 66722:1 66726:1 66947:1 67007:1 67100:1 67158:1 67170:1 67272:1 67432:1 67658:1 67920:1 68226:1 68289:1 68480:1 68863:1 68870:1 68939:1 69095:1 69293:1 69417:1 69462:1 69759:1 69821:1 69935:1 70192:1 70390:1 70401:1 70492:1 70521:1 71073:1 71074:1 71150:1 71201:1 71558:1 71702:1 71814:1 71882:1 72014:1 72045:1 72096:1 72664:1 72754:1 72905:1 72948:1 73043:1 73085:1 73117:1 73417:1 73779:1 73900:1 74090:1 74181:1 74304:1 74400:1 74567:1 74615:1 74679:1 74774:1 75024:1 75332:1 75703:1 75930:1 76212:1 76320:1 76343:1 76903:1 77048:1 #
0.0032377323777017176682779808771784 28710:1 28964:1 29035:1 29138:1 29140:1 29252:1 29640:1 29689:1 29959:1 30088:1 30235:1 30258:1 30296:1 30390:1 30485:1 30659:1 30724:1 30820:1 30887:1 31069:1 31136:1 31145:1 31527:1 31652:1 31692:1 31734:1 31807:1 31912:1 31960:1 31967:1 32489:1 32566:1 32655:1 33098:1 33115:1 33220:1 33796:1 33812:1 33992:1 34026:1 34345:1 34410:1 34452:1 34628:1 34689:1 35081:1 35411:1 35509:1 35510:1 35550:1 35675:1 35678:1 35761:1 35926:1 36147:1 36307:1 36769:1 36836:1 37094:1 37211:1 37263:1 37277:1 37506:1 37517:1 37653:1 37698:1 37776:1 37870:1 37923:1 38248:1 38262:1 38656:1 38872:1 38938:1 38980:1 39017:1 39275:1 39607:1 39724:1 40006:1 40071:1 40077:1 40213:1 40328:1 40364:1 40532:1 40783:1 40882:1 40921:1 41097:1 41201:1 41250:1 41349:1 41554:1 41639:1 41695:1 41919:1 41921:1 41924:1 42039:1 42187:1 42356:1 42390:1 42398:1 42603:1 42653:1 42686:1 42728:1 42751:1 42797:1 43047:1 43264:1 43516:1 43747:1 43750:1 43815:1 43826:1 43901:1 43974:1 43998:1 44119:1 44199:1 44257:1 44379:1 44417:1 44426:1 44590:1 44756:1 44892:1 45119:1 45232:1 45462:1 45658:1 45736:1 45999:1 46242:1 46457:1 47017:1 47031:1 47427:1 47597:1 47668:1 47805:1 47814:1 47919:1 47937:1 48019:1 48327:1 48540:1 48577:1 48608:1 48616:1 48664:1 48691:1 49327:1 49404:1 49446:1 49539:1 49606:1 49756:1 50101:1 50213:1 50739:1 50915:1 50922:1 50932:1 51252:1 51582:1 51889:1 51930:1 51971:1 52185:1 52358:1 52899:1 52991:1 53074:1 53362:1 53391:1 53411:1 53546:1 53779:1 53895:1 53968:1 53992:1 54654:1 54655:1 54693:1 54962:1 55080:1 55106:1 55217:1 55326:1 55799:1 55909:1 56158:1 56252:1 56372:1 56379:1 56414:1 56482:1 56509:1 56651:1 56931:1 57209:1 57379:1 57606:1 58102:1 58352:1 58493:1 58792:1 59257:1 59542:1 59641:1 59815:1 60005:1 60025:1 60085:1 60109:1 60127:1 60152:1 60171:1 60183:1 60485:1 60948:1 61441:1 61793:1 61809:1 62806:1 62973:1 63056:1 63168:1 63619:1 63669:1 63893:1 64145:1 64314:1 64397:1 65109:1 65164:1 65214:1 65222:1 65227:1 65309:1 65497:1 65552:1 65739:1 65877:1 65913:1 66353:1 66665:1 66722:1 66784:1 66947:1 66963:1 67037:1 67076:1 67159:1 67267:1 67451:1 67595:1 67625:1 67658:1 68716:1 68863:1 68870:1 68938:1 68939:1 69075:1 69095:1 69209:1 69260:1 69768:1 70352:1 70390:1 71073:1 71074:1 71201:1 71378:1 71411:1 71558:1 71692:1 71746:1 71859:1 71915:1 72096:1 72217:1 72236:1 72253:1 72377:1 72408:1 72419:1 72754:1 72852:1 73214:1 73298:1 73381:1 73459:1 73460:1 73467:1 73543:1 74556:1 74567:1 74750:1 74873:1 74894:1 75024:1 75126:1 75303:1 75312:1 75395:1 76096:1 76181:1 76276:1 76343:1 76533:1 76671:1 77027:1 #
-0.0032377323777017176682779808771784 28711:1 28806:1 29017:1 29052:1 29070:1 29090:1 29100:1 29138:1 29140:1 29169:1 29243:1 29252:1 29390:1 29596:1 29679:1 29689:1 29738:1 29932:1 29988:1 30076:1 30088:1 30142:1 30189:1 30203:1 30258:1 30314:1 30485:1 30592:1 30614:1 30707:1 30960:1 30990:1 31033:1 31072:1 31136:1 31141:1 31366:1 31443:1 31537:1 31648:1 31692:1 31894:1 31912:1 31950:1 31962:1 32150:1 32212:1 32367:1 32489:1 32495:1 32566:1 32568:1 32655:1 32721:1 32989:1 33096:1 33098:1 33139:1 33377:1 33504:1 33533:1 33650:1 33812:1 33880:1 34218:1 34271:1 34345:1 34388:1 34560:1 34634:1 34661:1 34685:1 35063:1 35066:1 35148:1 35227:1 35257:1 35432:1 35435:1 35509:1 35565:1 35675:1 35678:1 35912:1 36106:1 36135:1 36147:1 36176:1 36178:1 36407:1 36453:1 36520:1 36630:1 36692:1 36725:1 36749:1 36753:1 37140:1 37211:1 37277:1 37278:1 37506:1 37536:1 37694:1 37752:1 37822:1 37846:1 37870:1 38134:1 38179:1 38212:1 38288:1 38463:1 38528:1 38616:1 38699:1 38724:1 38741:1 38753:1 38872:1 39017:1 39068:1 39118:1 39211:1 39239:1 39250:1 39275:1 39365:1 39374:1 39478:1 39502:1 39606:1 39607:1 39728:1 39745:1 39820:1 39825:1 39955:1 40071:1 40077:1 40213:1 40249:1 40261:1 40442:1 40532:1 40550:1 40574:1 40579:1 40695:1 40759:1 40764:1 40882:1 40913:1 40921:1 40946:1 41086:1 41097:1 41102:1 41187:1 41250:1 41332:1 41425:1 41554:1 41613:1 41919:1 41921:1 41924:1 41968:1 42039:1 42051:1 42105:1 42109:1 42187:1 42205:1 42250:1 42398:1 42435:1 42521:1 42603:1 42686:1 42796:1 42804:1 42871:1 43378:1 43454:1 43547:1 43645:1 43646:1 43653:1 43747:1 43808:1 43815:1 43830:1 43960:1 43989:1 43998:1 44181:1 44199:1 44201:1 44446:1 44497:1 44619:1 44668:1 44779:1 44847:1 44943:1 44980:1 45087:1 45119:1 45165:1 45210:1 45214:1 45509:1 45536:1 45658:1 45715:1 45736:1 45798:1 45867:1 45871:1 46182:1 46272:1 46415:1 46457:1 46463:1 46572:1 46748:1 47017:1 47018:1 47031:1 47169:1 47202:1 47206:1 47349:1 47521:1 47535:1 47597:1 47784:1 47884:1 47888:1 47919:1 47930:1 48051:1 48079:1 48122:1 48537:1 48544:1 48548:1 48691:1 48720:1 48806:1 48891:1 49049:1 49272:1 49301:1 49362:1 49446:1 49539:1 49636:1 49699:1 49708:1 49825:1 49826:1 49899:1 49989:1 50028:1 50149:1 50156:1 50182:1 50213:1 50402:1 50454:1 50661:1 50743:1 50915:1 50922:1 50932:1 50986:1 51101:1 51232:1 51272:1 51385:1 51647:1 51831:1 51846:1 51897:1 51930:1 51976:1 52266:1 52358:1 52373:1 52427:1 52754:1 53015:1 53391:1 53411:1 53423:1 53434:1 53671:1 53873:1 53884:1 53968:1 54032:1 54162:1 54461:1 54581:1 54654:1 54655:1 54659:1 54702:1 54749:1 55106:1 55117:1 55220:1 55758:1 55796:1 55799:1 55909:1 55997:1 56158:1 56166:1 56185:1 56379:1 56392:1 56494:1 56498:1 56643:1 56651:1 56663:1 56789:1 56816:1 56848:1 56931:1 57039:1 57053:1 57096:1 57130:1 57254:1 57283:1 57365:1 57492:1 57576:1 57861:1 57876:1 57944:1 58102:1 58133:1 58147:1 58211:1 58267:1 58277:1 58338:1 58385:1 58427:1 58493:1 58619:1 58850:1 59037:1 59062:1 59311:1 59405:1 59431:1 59522:1 59542:1 59546:1 59566:1 59641:1 59643:1 59666:1 59851:1 60313:1 60322:1 60386:1 60456:1 60478:1 60605:1 61139:1 61271:1 61296:1 61441:1 61644:1 61776:1 61840:1 61886:1 61904:1 62001:1 62045:1 62303:1 62528:1 62601:1 62646:1 62676:1 62773:1 62782:1 62842:1 62932:1 63056:1 63168:1 63233:1 63619:1 63623:1 63686:1 63874:1 64061:1 64125:1 64206:1 64224:1 64261:1 64335:1 64431:1 64448:1 64502:1 64608:1 65029:1 65077:1 65164:1 65214:1 65221:1 65222:1 65227:1 65309:1 65381:1 65453:1 65497:1 65552:1 65734:1 65847:1 66113:1 66231:1 66295:1 66314:1 66425:1 66483:1 66647:1 66696:1 66722:1 66784:1 66947:1 67023:1 67071:1 67155:1 67158:1 67160:1 67162:1 67204:1 67259:1 67267:1 67269:1 67362:1 67432:1 67595:1 67603:1 67658:1 67772:1 67778:1 67781:1 67802:1 68005:1 68226:1 68289:1 68480:1 68505:1 68615:1 68795:1 68834:1 68863:1 68938:1 69041:1 69095:1 69119:1 69122:1 69462:1 69481:1 69718:1 69759:1 69768:1 69818:1 69821:1 69844:1 69902:1 69935:1 69936:1 70115:1 70192:1 70221:1 70356:1 70370:1 70390:1 70480:1 70576:1 70617:1 70916:1 71039:1 71073:1 71074:1 71081:1 71196:1 71201:1 71203:1 71256:1 71558:1 71615:1 71692:1 71702:1 71768:1 71882:1 71991:1 72018:1 72142:1 72146:1 72173:1 72236:1 72664:1 72749:1 72754:1 72890:1 72893:1 72978:1 73102:1 73225:1 73307:1 73417:1 73779:1 73805:1 73900:1 73957:1 74049:1 74073:1 74168:1 74181:1 74345:1 74567:1 74734:1 74750:1 74783:1 75052:1 75121:1 75264:1 75430:1 75573:1 75703:1 75930:1 76086:1 76130:1 76137:1 76320:1 76575:1 76812:1 76990:1 77027:1 77048:1 77167:1 #
-0.0021526497682419279411369927856867 28749:1 28838:1 28877:1 28945:1 28988:1 29036:1 29138:1 29243:1 29252:1 29507:1 29522:1 29593:1 29689:1 29727:1 29780:1 29959:1 29988:1 30076:1 30088:1 30172:1 30258:1 30592:1 30960:1 31011:1 31048:1 31145:1 31246:1 31283:1 31383:1 31894:1 31912:1 31960:1 32044:1 32075:1 32082:1 32390:1 32399:1 32416:1 32427:1 32432:1 32458:1 32519:1 32566:1 32568:1 32595:1 32652:1 32655:1 33028:1 33045:1 33098:1 33220:1 33352:1 33357:1 33510:1 33533:1 33551:1 33572:1 33828:1 33992:1 34000:1 34192:1 34294:1 34341:1 34345:1 34436:1 34558:1 34628:1 34705:1 34801:1 35008:1 35066:1 35169:1 35293:1 35313:1 35334:1 35432:1 35565:1 35667:1 35734:1 35906:1 35912:1 35963:1 35998:1 36075:1 36147:1 36215:1 36307:1 36407:1 36504:1 36942:1 37169:1 37205:1 37211:1 37277:1 37450:1 37454:1 37506:1 37550:1 37596:1 37853:1 37892:1 38134:1 38435:1 38533:1 38686:1 38741:1 38753:1 38754:1 38933:1 38980:1 39089:1 39239:1 39248:1 39275:1 39539:1 39584:1 39607:1 39720:1 39950:1 39990:1 40071:1 40077:1 40151:1 40163:1 40168:1 40249:1 40422:1 40449:1 40454:1 40456:1 40562:1 40568:1 40610:1 40882:1 40972:1 41069:1 41097:1 41299:1 41554:1 41858:1 41918:1 41919:1 41921:1 41924:1 42051:1 42275:1 42277:1 42326:1 42390:1 42398:1 42603:1 42608:1 42621:1 42679:1 42709:1 42751:1 42832:1 42860:1 42959:1 43078:1 43141:1 43230:1 43246:1 43259:1 43335:1 43454:1 43480:1 43503:1 43645:1 43653:1 43747:1 43764:1 43815:1 43876:1 43974:1 43982:1 43998:1 44266:1 44422:1 44457:1 44767:1 44779:1 44980:1 45119:1 45469:1 45560:1 45658:1 45736:1 45850:1 46210:1 46435:1 46457:1 46506:1 46572:1 46938:1 47008:1 47017:1 47018:1 47031:1 47229:1 47349:1 47391:1 47427:1 47428:1 47521:1 47597:1 47628:1 47755:1 48176:1 48308:1 48389:1 48491:1 48521:1 48539:1 48573:1 48691:1 48778:1 49138:1 49231:1 49257:1 49309:1 49446:1 49448:1 49539:1 49561:1 49570:1 49573:1 49667:1 49764:1 49832:1 49941:1 49989:1 50113:1 50161:1 50213:1 50484:1 50661:1 50694:1 50743:1 50899:1 50915:1 50922:1 50932:1 51055:1 51075:1 51190:1 51232:1 51417:1 51856:1 51955:1 51981:1 52001:1 52197:1 52266:1 52427:1 52448:1 52587:1 52752:1 53034:1 53107:1 53182:1 53391:1 53411:1 53497:1 53529:1 53968:1 53993:1 54473:1 54568:1 54572:1 54626:1 54654:1 54655:1 54884:1 54999:1 55077:1 55244:1 55293:1 55570:1 55746:1 55799:1 55837:1 55909:1 56145:1 56155:1 56158:1 56397:1 56651:1 56660:1 56695:1 57083:1 57096:1 57172:1 57185:1 57209:1 57441:1 57492:1 57539:1 57550:1 57980:1 58102:1 58244:1 58323:1 58379:1 58493:1 58659:1 58724:1 58839:1 58840:1 58879:1 58911:1 58932:1 59037:1 59103:1 59113:1 59213:1 59272:1 59317:1 59420:1 59525:1 59542:1 59643:1 60086:1 60109:1 60183:1 60293:1 60338:1 60493:1 61329:1 61441:1 61443:1 61633:1 61711:1 61725:1 62049:1 62120:1 62206:1 62270:1 62398:1 62601:1 62676:1 62746:1 62770:1 62932:1 63056:1 63168:1 63197:1 63233:1 63519:1 63675:1 63714:1 63874:1 63893:1 64089:1 64206:1 64223:1 64261:1 64314:1 64390:1 64397:1 64405:1 64427:1 64430:1 64461:1 64471:1 64585:1 64587:1 64608:1 64740:1 64764:1 64776:1 65005:1 65035:1 65164:1 65222:1 65321:1 65330:1 65453:1 65497:1 65552:1 65609:1 65877:1 65918:1 66036:1 66070:1 66089:1 66389:1 66425:1 66517:1 66618:1 66651:1 66665:1 66744:1 66930:1 66947:1 67013:1 67135:1 67208:1 67492:1 67658:1 67721:1 67802:1 68082:1 68226:1 68282:1 68593:1 68788:1 68863:1 68870:1 69095:1 69260:1 69351:1 69354:1 69467:1 69555:1 69584:1 69652:1 69821:1 69825:1 69935:1 70041:1 70192:1 70345:1 70390:1 70521:1 70552:1 70699:1 70780:1 70848:1 71073:1 71074:1 71108:1 71136:1 71201:1 71411:1 71464:1 71558:1 71604:1 71650:1 71692:1 71820:1 71896:1 71920:1 72173:1 72228:1 72289:1 72391:1 72456:1 72754:1 72849:1 72898:1 73207:1 73230:1 73642:1 73779:1 73805:1 74051:1 74098:1 74179:1 74181:1 74577:1 74698:1 74750:1 74935:1 75024:1 75405:1 75573:1 75623:1 75703:1 75865:1 75937:1 76082:1 76194:1 76223:1 76320:1 76820:1 76909:1 77048:1 77167:1 #
-0.0032377323777017176682779808771784 28791:1 28826:1 28877:1 29138:1 29140:1 29243:1 29252:1 29410:1 29522:1 29593:1 29671:1 29679:1 29689:1 29856:1 29862:1 29959:1 29969:1 30088:1 30214:1 30258:1 30362:1 30592:1 30960:1 31136:1 31145:1 31223:1 31385:1 31692:1 31755:1 31912:1 32044:1 32259:1 32523:1 32566:1 32655:1 32989:1 32991:1 33045:1 33098:1 33370:1 33506:1 33654:1 33812:1 33839:1 33865:1 33928:1 33951:1 33952:1 33992:1 34025:1 34041:1 34073:1 34362:1 34408:1 34452:1 34606:1 34767:1 34801:1 35148:1 35256:1 35301:1 35411:1 35628:1 35641:1 35661:1 35794:1 35824:1 35912:1 35923:1 35998:1 36130:1 36147:1 36176:1 36183:1 36407:1 36515:1 36679:1 37067:1 37201:1 37211:1 37277:1 37327:1 37454:1 37536:1 37696:1 37854:1 37870:1 38062:1 38134:1 38218:1 38305:1 38625:1 38686:1 38704:1 38741:1 38863:1 38872:1 39033:1 39275:1 39502:1 39606:1 40054:1 40071:1 40077:1 40168:1 40518:1 40578:1 40636:1 40913:1 40972:1 40983:1 41090:1 41097:1 41512:1 41869:1 41919:1 41921:1 41924:1 41950:1 42039:1 42099:1 42108:1 42110:1 42187:1 42360:1 42398:1 42503:1 42603:1 42606:1 42633:1 42959:1 43107:1 43197:1 43235:1 43454:1 43645:1 43653:1 43998:1 44266:1 44282:1 44513:1 44627:1 44757:1 44953:1 45101:1 45119:1 45128:1 45509:1 45736:1 45872:1 45977:1 46014:1 46022:1 46182:1 46379:1 46457:1 46512:1 46938:1 47017:1 47018:1 47031:1 47229:1 47438:1 47521:1 47720:1 47752:1 47814:1 48122:1 48176:1 48221:1 48300:1 48308:1 48369:1 48664:1 48691:1 49177:1 49446:1 49539:1 49650:1 49989:1 50019:1 50213:1 50786:1 50915:1 50920:1 50922:1 50932:1 51846:1 51856:1 52126:1 52282:1 52309:1 52358:1 52427:1 52747:1 52825:1 53391:1 53497:1 53509:1 53577:1 53671:1 53779:1 53873:1 53968:1 53997:1 54036:1 54120:1 54412:1 54624:1 54654:1 54655:1 54704:1 54721:1 54896:1 55106:1 55117:1 55145:1 55570:1 55645:1 55799:1 56158:1 56297:1 56379:1 56398:1 56576:1 56651:1 56769:1 56825:1 57015:1 57083:1 57096:1 57209:1 57944:1 58033:1 58102:1 58259:1 58352:1 58792:1 58839:1 58873:1 59037:1 59062:1 59405:1 59525:1 59542:1 59643:1 59666:1 59677:1 60008:1 60109:1 60152:1 60262:1 60313:1 60338:1 60353:1 60491:1 60962:1 61260:1 61412:1 61441:1 61776:1 61845:1 62121:1 62351:1 62488:1 62632:1 62646:1 62648:1 62758:1 62782:1 62919:1 63056:1 63147:1 63168:1 63235:1 63345:1 63693:1 63893:1 64047:1 64125:1 64259:1 64261:1 64314:1 64397:1 64608:1 64746:1 64937:1 65164:1 65214:1 65222:1 65227:1 65497:1 65552:1 65609:1 65839:1 65877:1 66036:1 66429:1 66650:1 66665:1 66744:1 66772:1 66947:1 67100:1 67102:1 67595:1 67658:1 68351:1 68505:1 68532:1 68565:1 68723:1 68841:1 68863:1 68870:1 68999:1 69075:1 69095:1 69209:1 69260:1 69477:1 69565:1 69732:1 69935:1 70167:1 70390:1 70401:1 70552:1 71073:1 71074:1 71201:1 71276:1 71326:1 71558:1 72018:1 72108:1 72225:1 72236:1 72253:1 72280:1 72482:1 72664:1 72684:1 72703:1 72710:1 72801:1 72849:1 72898:1 72905:1 72966:1 73063:1 73163:1 73293:1 73315:1 73381:1 73779:1 74181:1 74199:1 74400:1 74544:1 75303:1 75395:1 75411:1 75608:1 75703:1 75930:1 75953:1 76012:1 76043:1 76137:1 76448:1 76710:1 77027:1 77067:1 #
-0.00087686894982841930706873867507056 28756:1 28826:1 29100:1 29138:1 29140:1 29190:1 29243:1 29252:1 29603:1 29604:1 29669:1 29689:1 29734:1 29790:1 29959:1 30088:1 30091:1 30186:1 30258:1 30327:1 30485:1 30574:1 30592:1 30630:1 30677:1 30960:1 31032:1 31033:1 31072:1 31145:1 31267:1 31385:1 31537:1 31551:1 31692:1 31715:1 31874:1 31894:1 31924:1 32013:1 32035:1 32359:1 32399:1 32445:1 32543:1 32560:1 32566:1 32588:1 32655:1 32839:1 32989:1 33147:1 33220:1 33275:1 33518:1 33553:1 33580:1 33747:1 33812:1 33928:1 33952:1 34025:1 34267:1 34313:1 34345:1 34557:1 34637:1 34685:1 34728:1 34743:1 34937:1 35063:1 35066:1 35148:1 35334:1 35559:1 35581:1 35628:1 35675:1 35765:1 35923:1 36147:1 36176:1 36205:1 36307:1 36389:1 36407:1 36559:1 36690:1 37142:1 37169:1 37211:1 37263:1 37277:1 37340:1 37381:1 37506:1 37524:1 37536:1 37715:1 37733:1 37775:1 37776:1 37812:1 38134:1 38218:1 38487:1 38616:1 38686:1 38699:1 38872:1 38873:1 38933:1 38989:1 39102:1 39239:1 39271:1 39275:1 39311:1 39478:1 39568:1 39607:1 39632:1 39796:1 39830:1 39928:1 39950:1 40006:1 40071:1 40168:1 40249:1 40602:1 40672:1 40739:1 40796:1 40806:1 40814:1 40882:1 41086:1 41097:1 41299:1 41318:1 41410:1 41425:1 41554:1 41876:1 41899:1 41919:1 41921:1 41924:1 41950:1 42005:1 42029:1 42030:1 42039:1 42050:1 42329:1 42371:1 42390:1 42469:1 42503:1 42509:1 42603:1 42608:1 42686:1 42959:1 43349:1 43454:1 43645:1 43646:1 43653:1 43691:1 43747:1 43764:1 43808:1 43815:1 43825:1 43826:1 43901:1 43946:1 43998:1 44181:1 44228:1 44257:1 44377:1 44422:1 44619:1 44668:1 44751:1 44779:1 44847:1 44888:1 45031:1 45119:1 45195:1 45315:1 45368:1 45469:1 45470:1 45509:1 45539:1 45658:1 45736:1 45932:1 46119:1 46159:1 46182:1 46216:1 46457:1 46572:1 46647:1 46816:1 46899:1 46938:1 47008:1 47017:1 47018:1 47031:1 47148:1 47320:1 47373:1 47427:1 47438:1 47519:1 47521:1 47535:1 47597:1 47668:1 47737:1 47814:1 47888:1 47904:1 47930:1 47979:1 48074:1 48176:1 48221:1 48569:1 48664:1 48691:1 48868:1 49138:1 49177:1 49231:1 49446:1 49455:1 49539:1 49561:1 49604:1 49636:1 49674:1 49734:1 49776:1 49821:1 49839:1 49905:1 49989:1 50028:1 50046:1 50105:1 50171:1 50213:1 50248:1 50401:1 50584:1 50693:1 50743:1 50915:1 50922:1 50932:1 51033:1 51252:1 51263:1 51272:1 51314:1 51701:1 51754:1 51800:1 51856:1 51930:1 52096:1 52137:1 52146:1 52295:1 52309:1 52427:1 52466:1 52587:1 52754:1 52781:1 52845:1 52965:1 53132:1 53391:1 53411:1 53577:1 53765:1 53816:1 53968:1 54130:1 54654:1 54655:1 54702:1 54749:1 55080:1 55645:1 55836:1 55872:1 55909:1 56011:1 56155:1 56158:1 56207:1 56371:1 56379:1 56482:1 56486:1 56520:1 56651:1 56769:1 57053:1 57111:1 57117:1 57180:1 57435:1 57860:1 58098:1 58102:1 58133:1 58209:1 58294:1 58352:1 58499:1 58562:1 58853:1 58898:1 58927:1 58930:1 58936:1 58964:1 59037:1 59062:1 59272:1 59398:1 59405:1 59420:1 59522:1 59525:1 59542:1 59546:1 59553:1 59593:1 59637:1 59677:1 59823:1 59845:1 59851:1 59950:1 60182:1 60183:1 60253:1 60266:1 60338:1 60609:1 60936:1 61009:1 61059:1 61260:1 61441:1 61814:1 61840:1 61904:1 61988:1 62049:1 62270:1 62332:1 62676:1 62708:1 62751:1 62764:1 62782:1 62849:1 62926:1 62932:1 63056:1 63110:1 63168:1 63228:1 63359:1 63450:1 63454:1 63490:1 63877:1 64027:1 64061:1 64206:1 64261:1 64390:1 64448:1 64608:1 64746:1 64790:1 65109:1 65164:1 65222:1 65227:1 65497:1 65593:1 65609:1 65786:1 65793:1 65821:1 65847:1 66231:1 66246:1 66425:1 66483:1 66498:1 66665:1 66722:1 66807:1 66846:1 66947:1 66981:1 67100:1 67223:1 67267:1 67658:1 67815:1 67974:1 68005:1 68082:1 68130:1 68269:1 68351:1 68437:1 68535:1 68595:1 68863:1 68870:1 68935:1 68939:1 69028:1 69095:1 69115:1 69260:1 69275:1 69336:1 69566:1 69584:1 69676:1 69768:1 69821:1 69935:1 69947:1 69966:1 70390:1 70530:1 70699:1 70803:1 70830:1 70916:1 70933:1 71073:1 71074:1 71111:1 71201:1 71239:1 71256:1 71322:1 71378:1 71422:1 71464:1 71558:1 71702:1 71789:1 71820:1 72045:1 72115:1 72142:1 72177:1 72437:1 72574:1 72664:1 72684:1 72754:1 72849:1 72978:1 73115:1 73279:1 73317:1 73381:1 73409:1 73467:1 73690:1 73779:1 73907:1 73911:1 73926:1 73963:1 74090:1 74181:1 74198:1 74501:1 74556:1 74567:1 74577:1 74631:1 74694:1 74713:1 74774:1 74783:1 75024:1 75046:1 75299:1 75518:1 75648:1 75668:1 75703:1 75930:1 76010:1 76043:1 76100:1 76320:1 76452:1 76661:1 76671:1 76716:1 76820:1 77048:1 77067:1 77104:1 #
-0.003056836951873162164239339233518 1:1 28711:1 28717:1 28773:1 29001:1 29017:1 29100:1 29138:1 29140:1 29243:1 29252:1 29429:1 29522:1 29612:1 29689:1 29862:1 29959:1 30027:1 30076:1 30088:1 30258:1 30310:1 30342:1 30474:1 30574:1 30592:1 30622:1 30630:1 30676:1 30740:1 30805:1 31104:1 31136:1 31145:1 31267:1 31385:1 31553:1 31609:1 31807:1 31822:1 31894:1 31985:1 32027:1 32044:1 32058:1 32080:1 32166:1 32390:1 32489:1 32508:1 32543:1 32566:1 32640:1 32655:1 32704:1 32880:1 32989:1 32991:1 33406:1 33409:1 33533:1 33616:1 33622:1 33654:1 33809:1 34053:1 34114:1 34249:1 34324:1 34345:1 34628:1 34632:1 34685:1 34689:1 34982:1 35151:1 35509:1 35565:1 35628:1 35662:1 35678:1 35939:1 36098:1 36147:1 36178:1 36360:1 36638:1 36712:1 36769:1 36799:1 36931:1 36997:1 37127:1 37169:1 37211:1 37277:1 37402:1 37536:1 37584:1 37679:1 37765:1 37837:1 37870:1 37880:1 37886:1 38171:1 38270:1 38419:1 38463:1 38487:1 38601:1 38665:1 38872:1 38933:1 39017:1 39069:1 39124:1 39128:1 39275:1 39281:1 39365:1 39374:1 39943:1 39950:1 40071:1 40077:1 40154:1 40170:1 40532:1 40539:1 40659:1 40672:1 40736:1 40814:1 40840:1 40882:1 40913:1 40921:1 41086:1 41097:1 41183:1 41187:1 41236:1 41262:1 41299:1 41424:1 41425:1 41554:1 41735:1 41917:1 41919:1 41921:1 41924:1 41968:1 42039:1 42187:1 42390:1 42396:1 42591:1 42603:1 42608:1 42686:1 42720:1 42789:1 42902:1 42959:1 43277:1 43378:1 43454:1 43645:1 43646:1 43653:1 43747:1 43796:1 43826:1 43838:1 43920:1 43988:1 43998:1 44157:1 44234:1 44513:1 44603:1 44668:1 44672:1 44779:1 44784:1 44830:1 44837:1 44944:1 45031:1 45119:1 45408:1 45449:1 45477:1 45600:1 45611:1 45658:1 45721:1 45798:1 46051:1 46095:1 46194:1 46210:1 46272:1 46415:1 46457:1 46572:1 46748:1 46816:1 46947:1 47017:1 47018:1 47031:1 47415:1 47427:1 47438:1 47481:1 47521:1 47522:1 47568:1 47597:1 47609:1 47620:1 47633:1 47668:1 47726:1 47784:1 47814:1 47870:1 47923:1 47937:1 47981:1 48050:1 48074:1 48176:1 48221:1 48257:1 48308:1 48311:1 48349:1 48563:1 48628:1 48657:1 48691:1 48699:1 48826:1 48853:1 48891:1 48963:1 49125:1 49219:1 49256:1 49280:1 49427:1 49428:1 49431:1 49446:1 49462:1 49587:1 49667:1 49708:1 49776:1 49803:1 49826:1 49941:1 50028:1 50120:1 50213:1 50587:1 50693:1 50786:1 50801:1 50915:1 50922:1 50932:1 50944:1 51017:1 51163:1 51304:1 51488:1 51518:1 51778:1 51789:1 51800:1 51855:1 51930:1 52062:1 52127:1 52134:1 52197:1 52200:1 52358:1 52373:1 52488:1 52544:1 52764:1 52935:1 53034:1 53201:1 53232:1 53269:1 53391:1 53606:1 53671:1 53779:1 53873:1 53966:1 53968:1 54649:1 54654:1 54702:1 54751:1 54784:1 54796:1 54869:1 55047:1 55293:1 55645:1 55695:1 55796:1 55799:1 55836:1 55909:1 55910:1 56155:1 56158:1 56166:1 56190:1 56246:1 56297:1 56371:1 56379:1 56442:1 56576:1 56651:1 56701:1 56813:1 56868:1 57067:1 57096:1 57176:1 57184:1 57200:1 57302:1 57319:1 57395:1 57645:1 57678:1 57780:1 57869:1 57994:1 58102:1 58133:1 58277:1 58317:1 58493:1 58654:1 58717:1 58775:1 58839:1 58842:1 58866:1 58936:1 59037:1 59042:1 59115:1 59300:1 59322:1 59422:1 59423:1 59542:1 59555:1 59641:1 59666:1 59909:1 59927:1 59968:1 60109:1 60116:1 60298:1 60609:1 60688:1 60842:1 60922:1 61412:1 61437:1 61441:1 61570:1 61633:1 61641:1 61644:1 61845:1 61849:1 61969:1 62034:1 62045:1 62621:1 62644:1 62886:1 62932:1 62942:1 63019:1 63056:1 63168:1 63233:1 63235:1 63354:1 63460:1 63575:1 63874:1 63893:1 64261:1 64355:1 64412:1 64431:1 64519:1 64608:1 64746:1 65164:1 65167:1 65214:1 65227:1 65275:1 65349:1 65402:1 65419:1 65497:1 65609:1 65739:1 65752:1 65847:1 66089:1 66160:1 66289:1 66425:1 66428:1 66483:1 66517:1 66663:1 66665:1 66744:1 66876:1 66904:1 66947:1 66980:1 67100:1 67386:1 67406:1 67434:1 67595:1 67603:1 67658:1 67721:1 67815:1 67943:1 67973:1 68022:1 68067:1 68130:1 68183:1 68219:1 68267:1 68335:1 68480:1 68492:1 68570:1 68711:1 68774:1 68863:1 68870:1 68905:1 68938:1 68939:1 69052:1 69095:1 69115:1 69293:1 69759:1 69768:1 69821:1 69935:1 70206:1 70390:1 70428:1 70455:1 70546:1 70878:1 70916:1 70960:1 71012:1 71071:1 71073:1 71111:1 71150:1 71201:1 71378:1 71455:1 71495:1 71558:1 71615:1 71856:1 71869:1 71915:1 71991:1 72481:1 72754:1 72849:1 72978:1 73066:1 73071:1 73199:1 73319:1 73421:1 73467:1 73592:1 73712:1 73779:1 73865:1 73957:1 74181:1 74198:1 74556:1 74567:1 74807:1 75046:1 75205:1 75395:1 75424:1 75449:1 75581:1 75703:1 75930:1 76320:1 76343:1 76387:1 76533:1 76770:1 76827:1 76851:1 77048:1 77145:1 77167:1 #
0.0032377323777017176682779808771784 28990:1 29138:1 29252:1 29372:1 29689:1 29959:1 30088:1 30118:1 30341:1 30485:1 30630:1 31414:1 32543:1 32655:1 34041:1 34440:1 34685:1 35059:1 35162:1 35313:1 35963:1 37169:1 37211:1 37454:1 37536:1 38699:1 38872:1 39275:1 39415:1 39950:1 40071:1 40363:1 40814:1 40972:1 40983:1 41069:1 41086:1 41097:1 41299:1 41919:1 41921:1 42603:1 42937:1 43454:1 43646:1 43653:1 43998:1 44181:1 44507:1 46572:1 46573:1 46647:1 46947:1 47017:1 47018:1 47031:1 47784:1 48125:1 49446:1 49989:1 50273:1 50922:1 50932:1 51299:1 51762:1 51802:1 53391:1 53411:1 53512:1 53873:1 53968:1 54248:1 55037:1 56155:1 56166:1 56379:1 56660:1 57887:1 58102:1 58277:1 58352:1 58604:1 59405:1 59420:1 59851:1 60254:1 61441:1 62621:1 64047:1 64206:1 64259:1 64261:1 64743:1 65164:1 65497:1 65733:1 66121:1 66665:1 66722:1 67158:1 67841:1 68528:1 68863:1 68925:1 69095:1 70155:1 70192:1 70390:1 70916:1 71073:1 71201:1 71256:1 71558:1 71915:1 71923:1 72018:1 72142:1 74181:1 74400:1 75864:1 76008:1 76043:1 76137:1 76474:1 77052:1 #
0.0011489217894690092764548028370086 28806:1 28837:1 28990:1 29138:1 29140:1 29181:1 29243:1 29390:1 29522:1 29593:1 29738:1 29777:1 30088:1 30258:1 30574:1 30592:1 30677:1 30727:1 30792:1 31385:1 31443:1 31609:1 31692:1 31783:1 31894:1 31912:1 32044:1 32211:1 32655:1 32898:1 32989:1 33076:1 33565:1 33812:1 33928:1 33952:1 34025:1 34345:1 34578:1 34628:1 34647:1 34800:1 34801:1 34819:1 34898:1 35098:1 35345:1 35432:1 35558:1 35565:1 35626:1 35707:1 36147:1 36330:1 36360:1 36725:1 36731:1 36949:1 37162:1 37169:1 37184:1 37211:1 37506:1 37870:1 37941:1 37972:1 38217:1 38528:1 38704:1 38741:1 38872:1 38891:1 39064:1 39225:1 39502:1 39774:1 39950:1 40071:1 40077:1 40160:1 40539:1 40595:1 40759:1 41086:1 41097:1 41425:1 41554:1 41919:1 41921:1 41924:1 42039:1 42051:1 42250:1 42398:1 42520:1 42603:1 43259:1 43265:1 43454:1 43747:1 43830:1 43838:1 43901:1 43998:1 44422:1 44497:1 44633:1 44743:1 44837:1 45213:1 45214:1 45721:1 46002:1 46072:1 46210:1 46311:1 46457:1 46508:1 47017:1 47018:1 47190:1 47276:1 47784:1 47814:1 47930:1 48074:1 48691:1 49096:1 49309:1 49362:1 49446:1 49832:1 50028:1 50484:1 50694:1 50813:1 50915:1 50922:1 51049:1 51232:1 51252:1 51298:1 51846:1 52084:1 52295:1 52427:1 52797:1 53013:1 53189:1 53495:1 53822:1 53855:1 53968:1 54114:1 54169:1 54177:1 54568:1 54636:1 54654:1 54655:1 55095:1 55328:1 55799:1 56129:1 56158:1 56159:1 56329:1 56379:1 56651:1 56695:1 57096:1 57176:1 57379:1 58102:1 58277:1 58980:1 59420:1 59960:1 60109:1 60163:1 60183:1 60456:1 60489:1 60594:1 60929:1 61840:1 61842:1 61845:1 62206:1 62304:1 62332:1 62512:1 62524:1 62528:1 62589:1 62621:1 62806:1 63056:1 63124:1 63289:1 63359:1 63836:1 63893:1 64061:1 64206:1 64261:1 64397:1 64746:1 64753:1 65164:1 65453:1 65497:1 65771:1 66188:1 66274:1 66425:1 66665:1 66947:1 67007:1 67042:1 67406:1 67474:1 67658:1 68130:1 68710:1 68730:1 68863:1 68870:1 69095:1 69768:1 69792:1 69821:1 69935:1 70192:1 70280:1 70345:1 70390:1 70521:1 71059:1 71073:1 71074:1 71136:1 71243:1 71406:1 71558:1 71777:1 72018:1 72142:1 72297:1 72664:1 72676:1 73653:1 73666:1 73833:1 73868:1 73938:1 74181:1 74567:1 74700:1 75052:1 75077:1 75091:1 75182:1 75581:1 75703:1 75864:1 75868:1 75930:1 76086:1 76320:1 76550:1 76650:1 77027:1 77048:1 #
0.0032377323777017176682779808771784 28806:1 29138:1 29140:1 29252:1 29656:1 29689:1 29862:1 29959:1 29988:1 30088:1 30214:1 30258:1 30296:1 30485:1 30960:1 31107:1 31110:1 31155:1 31211:1 31366:1 31454:1 31535:1 31729:1 31807:1 32044:1 32080:1 32543:1 32566:1 32655:1 33096:1 33098:1 33390:1 33533:1 33639:1 33671:1 33847:1 34368:1 34436:1 34628:1 34824:1 34998:1 35059:1 35066:1 35070:1 35301:1 35628:1 35675:1 35923:1 36080:1 36360:1 36407:1 36453:1 37016:1 37211:1 37340:1 37376:1 37475:1 37506:1 37517:1 37536:1 37812:1 38134:1 38248:1 38665:1 38699:1 38753:1 38995:1 39102:1 39239:1 39275:1 39572:1 39750:1 39796:1 39950:1 39990:1 40006:1 40071:1 40419:1 40610:1 40654:1 40708:1 40743:1 40913:1 41069:1 41086:1 41097:1 41349:1 41425:1 41554:1 41919:1 41921:1 41924:1 42039:1 42250:1 42297:1 42398:1 42470:1 42591:1 42603:1 42621:1 42623:1 42807:1 42818:1 42959:1 43078:1 43169:1 43390:1 43420:1 43454:1 43645:1 43646:1 43798:1 43815:1 43826:1 43994:1 43998:1 44409:1 44444:1 44553:1 45315:1 45736:1 45872:1 45934:1 46071:1 46157:1 46182:1 46199:1 46404:1 46475:1 46647:1 46938:1 46947:1 47017:1 47018:1 47427:1 47666:1 47884:1 48026:1 48223:1 48242:1 48569:1 48616:1 48691:1 48796:1 48946:1 49037:1 49231:1 49362:1 49446:1 49636:1 49650:1 49674:1 49989:1 50022:1 50171:1 50266:1 50323:1 50915:1 50922:1 50932:1 51252:1 51802:1 51831:1 51846:1 52565:1 53013:1 53025:1 53034:1 53362:1 53391:1 53873:1 53894:1 53968:1 54635:1 54654:1 55326:1 55909:1 56144:1 56155:1 56379:1 56520:1 56527:1 57176:1 57209:1 57653:1 57766:1 57872:1 58102:1 58222:1 58352:1 58464:1 58839:1 59405:1 59522:1 59525:1 59527:1 59643:1 59815:1 60109:1 60338:1 60933:1 61441:1 61840:1 61849:1 61958:1 62410:1 62545:1 64206:1 64261:1 64314:1 64461:1 64587:1 64606:1 64608:1 65010:1 65109:1 65164:1 65214:1 65227:1 65402:1 65453:1 65497:1 65779:1 65791:1 65847:1 66089:1 66246:1 66390:1 66483:1 66665:1 66722:1 66727:1 66893:1 66947:1 67007:1 67158:1 67362:1 67654:1 68834:1 68841:1 68863:1 68904:1 69095:1 69209:1 69260:1 69345:1 69373:1 69470:1 69502:1 69771:1 69821:1 69935:1 70390:1 70485:1 70521:1 70530:1 70546:1 70596:1 70794:1 70916:1 71073:1 71150:1 71201:1 71256:1 71558:1 71702:1 71882:1 71915:1 71923:1 72018:1 72236:1 72395:1 72583:1 72664:1 72703:1 72849:1 72978:1 72982:1 73199:1 73305:1 73600:1 73779:1 73993:1 74116:1 75007:1 75426:1 75490:1 75640:1 75660:1 75742:1 75837:1 76043:1 76320:1 76522:1 76832:1 77027:1 77124:1 #
0.00080142184446807237033216786414869 29100:1 29138:1 29140:1 29390:1 29593:1 29689:1 29858:1 29919:1 30088:1 30214:1 30258:1 30485:1 30614:1 30630:1 31407:1 31894:1 31912:1 32390:1 32568:1 32655:1 33098:1 33299:1 33326:1 33624:1 33952:1 34294:1 34362:1 35066:1 35510:1 35765:1 36002:1 36313:1 36360:1 36618:1 37211:1 37506:1 37538:1 37828:1 37885:1 37922:1 38542:1 39050:1 39121:1 39950:1 40100:1 40522:1 40571:1 40913:1 41097:1 41425:1 41554:1 41919:1 41921:1 41924:1 42005:1 42099:1 42129:1 42187:1 42301:1 42553:1 42603:1 42947:1 43193:1 43251:1 43265:1 43454:1 43645:1 43747:1 43769:1 43826:1 43974:1 43998:1 44096:1 44227:1 44806:1 44888:1 45119:1 45221:1 45736:1 45798:1 46095:1 46457:1 46942:1 47017:1 47018:1 47521:1 47804:1 47814:1 48035:1 48242:1 48664:1 48691:1 48720:1 49094:1 49446:1 49555:1 49578:1 49820:1 49825:1 50041:1 50194:1 50269:1 50915:1 50922:1 51595:1 51809:1 51831:1 51846:1 52146:1 53077:1 53293:1 53562:1 53671:1 53799:1 53968:1 53992:1 54169:1 54962:1 55074:1 55319:1 56158:1 56379:1 57096:1 57345:1 57463:1 58009:1 58102:1 58493:1 58734:1 59145:1 59420:1 59666:1 59950:1 60152:1 60962:1 61840:1 61904:1 61958:1 62383:1 62687:1 63056:1 64047:1 64261:1 64461:1 64746:1 64764:1 64790:1 65164:1 65167:1 65222:1 65390:1 65497:1 65609:1 65739:1 65752:1 66225:1 66425:1 66852:1 66947:1 67100:1 67658:1 67781:1 67945:1 68082:1 68722:1 68834:1 68863:1 69095:1 69821:1 69833:1 69935:1 70063:1 70521:1 71073:1 71196:1 71670:1 71882:1 71920:1 72172:1 72501:1 73378:1 73417:1 74556:1 74567:1 74607:1 74788:1 75930:1 76155:1 76477:1 76783:1 77075:1 77104:1 #
0.0030421312212490876289439079016574 28772:1 28788:1 29138:1 29689:1 29912:1 30088:1 30189:1 30214:1 30485:1 30877:1 31110:1 31609:1 31692:1 32013:1 32655:1 32902:1 33812:1 33828:1 34454:1 34477:1 34485:1 34581:1 34699:1 35148:1 35304:1 35435:1 35707:1 35794:1 37211:1 37277:1 37506:1 37536:1 38134:1 38258:1 38388:1 38753:1 38872:1 38897:1 39112:1 39203:1 39239:1 39420:1 39761:1 39821:1 39950:1 39953:1 40071:1 40806:1 40814:1 40913:1 41097:1 41758:1 41919:1 41921:1 42051:1 42398:1 42822:1 42947:1 42983:1 43078:1 43107:1 43265:1 43454:1 43653:1 43998:1 44162:1 44181:1 44446:1 44603:1 45119:1 45315:1 45510:1 45540:1 46305:1 46562:1 46938:1 46947:1 47017:1 47018:1 47814:1 47879:1 48332:1 49446:1 49462:1 49832:1 49989:1 50028:1 50213:1 50268:1 50333:1 50693:1 50815:1 50915:1 50922:1 51049:1 51171:1 51232:1 51800:1 52781:1 52813:1 52899:1 53013:1 53411:1 53626:1 53968:1 54252:1 54405:1 54510:1 54521:1 54654:1 54655:1 55080:1 56616:1 57098:1 57172:1 57928:1 58102:1 58277:1 58464:1 58792:1 59272:1 59420:1 60007:1 60085:1 60109:1 60152:1 60183:1 60273:1 60338:1 60341:1 60456:1 60948:1 61139:1 61737:1 62206:1 62312:1 62601:1 62622:1 62806:1 62813:1 63000:1 63108:1 63168:1 64261:1 64461:1 64807:1 65077:1 65109:1 65164:1 65222:1 65453:1 65497:1 65752:1 65847:1 66057:1 66483:1 66665:1 66722:1 66836:1 66947:1 66989:1 67088:1 67989:1 68220:1 68863:1 69095:1 69138:1 69260:1 69351:1 70390:1 70473:1 71012:1 71061:1 71073:1 71111:1 71150:1 71196:1 71201:1 71464:1 71558:1 71768:1 72589:1 72595:1 72664:1 72800:1 73063:1 73666:1 73779:1 73952:1 74567:1 75436:1 75731:1 76320:1 76343:1 77027:1 77048:1 #
-0.0032377323777017176682779808771784 29138:1 30258:1 32033:1 32566:1 40571:1 47017:1 47018:1 50915:1 53968:1 65164:1 65227:1 65847:1 67354:1 67518:1 71558:1 73779:1 75007:1 #
-0.0032377323777017176682779808771784 28749:1 28772:1 29138:1 31032:1 31894:1 32566:1 32655:1 33045:1 33327:1 33483:1 35119:1 35675:1 35923:1 37454:1 39475:1 40177:1 41512:1 41555:1 41924:1 42503:1 43454:1 43815:1 43998:1 45119:1 47017:1 47206:1 48327:1 48544:1 50915:1 50922:1 53576:1 57846:1 58659:1 58957:1 60152:1 60414:1 62488:1 66346:1 66425:1 66947:1 67158:1 67949:1 68863:1 68870:1 68989:1 69095:1 70390:1 72703:1 75312:1 75598:1 #
-0.0032377323777017176682779808771784 28676:1 29138:1 29140:1 29243:1 29463:1 29506:1 29988:1 30088:1 30607:1 31136:1 31145:1 31670:1 31755:1 31912:1 32655:1 33303:1 33788:1 35151:1 35565:1 35947:1 36298:1 37211:1 37277:1 37454:1 37475:1 37506:1 37552:1 37859:1 38134:1 39017:1 39239:1 39275:1 39607:1 39660:1 39748:1 40249:1 40884:1 40913:1 41097:1 41425:1 41758:1 41919:1 41921:1 42218:1 42603:1 42959:1 43454:1 43747:1 43895:1 43998:1 44017:1 44028:1 44980:1 45560:1 45888:1 46272:1 46457:1 46647:1 47017:1 47018:1 47020:1 47206:1 47424:1 47784:1 48271:1 48636:1 48957:1 50120:1 50915:1 50922:1 51131:1 52600:1 53281:1 53545:1 53968:1 56158:1 56159:1 56660:1 56931:1 57653:1 57729:1 57737:1 58102:1 58208:1 58277:1 58654:1 58775:1 59115:1 59405:1 61845:1 62300:1 62542:1 63056:1 64061:1 64608:1 64807:1 65164:1 65497:1 65965:1 66304:1 66792:1 67100:1 67158:1 67983:1 68130:1 68480:1 68774:1 69309:1 69675:1 69792:1 69927:1 70372:1 70437:1 70552:1 71073:1 71201:1 71558:1 71702:1 72005:1 73261:1 73779:1 73932:1 74290:1 75703:1 77048:1 #
-0.0032377323777017176682779808771784 29138:1 29456:1 29656:1 29689:1 29871:1 29892:1 30088:1 30411:1 31145:1 31267:1 31652:1 31748:1 32044:1 32058:1 32390:1 32445:1 32489:1 32558:1 32655:1 33076:1 33406:1 33432:1 33574:1 33809:1 33812:1 34143:1 35383:1 35509:1 35514:1 36147:1 36360:1 37211:1 37596:1 38134:1 38248:1 38741:1 38774:1 39112:1 39275:1 40006:1 40109:1 40571:1 40926:1 41081:1 41097:1 41554:1 41899:1 41919:1 41924:1 42435:1 42549:1 42797:1 43815:1 43838:1 43998:1 45384:1 46135:1 46816:1 46938:1 47017:1 47018:1 47477:1 47481:1 47521:1 47778:1 47884:1 48384:1 48569:1 48601:1 48691:1 49931:1 50587:1 50915:1 50920:1 50922:1 51049:1 51555:1 52754:1 52797:1 52929:1 53968:1 54248:1 54347:1 54745:1 55836:1 56246:1 58102:1 58277:1 58352:1 58425:1 59522:1 60182:1 60254:1 60402:1 60520:1 60694:1 60923:1 61260:1 61441:1 61849:1 63056:1 63237:1 64261:1 64393:1 64461:1 65164:1 65605:1 65879:1 65880:1 66483:1 67890:1 68863:1 69028:1 69095:1 69260:1 69780:1 69935:1 70250:1 70415:1 71073:1 71150:1 71558:1 71670:1 71693:1 71702:1 71820:1 72295:1 72966:1 73526:1 73708:1 74168:1 74567:1 75963:1 76315:1 76320:1 #
-0.0032377323777017176682779808771784 29017:1 29138:1 29140:1 29593:1 29689:1 30088:1 30576:1 30607:1 30699:1 30723:1 30973:1 31242:1 31543:1 31766:1 31868:1 31894:1 32390:1 32566:1 32655:1 33138:1 33306:1 33352:1 33510:1 33863:1 34350:1 34434:1 34608:1 34826:1 34828:1 35074:1 35304:1 36453:1 37211:1 37277:1 37327:1 37517:1 37644:1 38047:1 38217:1 38270:1 39117:1 39127:1 39239:1 39320:1 39374:1 39420:1 39463:1 39502:1 39660:1 40071:1 40855:1 40871:1 40939:1 41097:1 41473:1 41921:1 41968:1 42051:1 42603:1 42619:1 43314:1 43454:1 43916:1 43998:1 44112:1 44162:1 45031:1 45119:1 46272:1 46338:1 46457:1 46999:1 47017:1 47206:1 47459:1 47657:1 47754:1 47827:1 48092:1 48125:1 48192:1 48691:1 48814:1 49007:1 49446:1 49626:1 49832:1 49882:1 49987:1 50826:1 50915:1 50922:1 51326:1 51754:1 51975:1 52044:1 52537:1 53391:1 53690:1 53966:1 53968:1 55106:1 55645:1 56585:1 56848:1 56909:1 57037:1 57176:1 57211:1 57345:1 57370:1 57528:1 57576:1 58102:1 58125:1 58338:1 58352:1 58792:1 59278:1 59420:1 59566:1 59570:1 59923:1 60183:1 61614:1 61840:1 62007:1 62488:1 62490:1 62932:1 63056:1 63265:1 63323:1 63675:1 63983:1 64264:1 64548:1 65095:1 65164:1 65381:1 65453:1 65497:1 65690:1 65752:1 65877:1 66665:1 66784:1 66980:1 67088:1 67347:1 67678:1 68024:1 68403:1 68723:1 68939:1 68989:1 69095:1 69780:1 70269:1 70390:1 70656:1 70961:1 71073:1 71558:1 71777:1 72703:1 72754:1 73117:1 73459:1 73467:1 73766:1 73908:1 73932:1 73967:1 74001:1 74400:1 74750:1 74873:1 76343:1 76446:1 #
0.0032377323777017176682779808771784 28684:1 28806:1 29005:1 29138:1 29140:1 29234:1 29689:1 29903:1 29959:1 29988:1 30088:1 30226:1 30258:1 30314:1 30342:1 30382:1 30485:1 30510:1 30630:1 30699:1 30860:1 31136:1 31145:1 31211:1 31385:1 31603:1 31894:1 32028:1 32037:1 32044:1 32077:1 32150:1 32390:1 32416:1 32497:1 32590:1 32655:1 32706:1 32721:1 32868:1 33352:1 33396:1 33451:1 33473:1 33530:1 33533:1 33604:1 33622:1 33812:1 34035:1 34189:1 34267:1 34345:1 34362:1 34504:1 34569:1 34611:1 34628:1 34685:1 34858:1 35256:1 35435:1 35471:1 35509:1 35724:1 35762:1 35973:1 36176:1 36221:1 36364:1 36931:1 37108:1 37211:1 37277:1 37506:1 37536:1 37846:1 37870:1 38066:1 38134:1 38248:1 38286:1 38487:1 38665:1 38686:1 38741:1 38756:1 38814:1 38911:1 38923:1 39064:1 39527:1 39724:1 39780:1 39950:1 40006:1 40071:1 40096:1 40137:1 40168:1 40177:1 40249:1 40497:1 40558:1 40595:1 40882:1 40884:1 40926:1 40972:1 40977:1 41086:1 41097:1 41187:1 41236:1 41271:1 41326:1 41424:1 41425:1 41505:1 41854:1 41867:1 41919:1 41921:1 41924:1 41982:1 42039:1 42089:1 42150:1 42188:1 42297:1 42326:1 42354:1 42396:1 42446:1 42603:1 42653:1 42664:1 42700:1 42728:1 42985:1 43342:1 43448:1 43454:1 43636:1 43646:1 43653:1 43747:1 43808:1 43815:1 43899:1 43998:1 44231:1 44266:1 44297:1 44326:1 44739:1 44779:1 44818:1 44831:1 44980:1 45007:1 45031:1 45119:1 45449:1 45509:1 45611:1 45658:1 45736:1 45787:1 45798:1 45919:1 46126:1 46135:1 46195:1 46228:1 46349:1 46457:1 46633:1 46723:1 46748:1 47017:1 47018:1 47078:1 47095:1 47195:1 47205:1 47330:1 47349:1 47410:1 47521:1 47597:1 47628:1 47657:1 47784:1 47814:1 47827:1 47879:1 47884:1 48019:1 48125:1 48221:1 48266:1 48311:1 48353:1 48422:1 48564:1 48691:1 48817:1 48853:1 48868:1 49138:1 49446:1 49539:1 49650:1 49776:1 49802:1 49832:1 49851:1 49854:1 49953:1 50073:1 50213:1 50348:1 50558:1 50658:1 50676:1 50743:1 50915:1 50922:1 50949:1 51005:1 51075:1 51132:1 51252:1 51465:1 51736:1 51762:1 51840:1 51846:1 51847:1 52358:1 52427:1 52587:1 52749:1 52754:1 52899:1 53015:1 53034:1 53106:1 53287:1 53391:1 53433:1 53466:1 53576:1 53671:1 53779:1 53811:1 53816:1 53873:1 53968:1 54105:1 54347:1 54441:1 54568:1 54654:1 54940:1 55095:1 55481:1 55570:1 55799:1 55821:1 55909:1 55997:1 56155:1 56158:1 56163:1 56166:1 56329:1 56379:1 56486:1 56651:1 56695:1 56729:1 56929:1 57083:1 57096:1 57492:1 57849:1 57992:1 58102:1 58143:1 58208:1 58243:1 58338:1 58352:1 58464:1 58493:1 58542:1 58659:1 58792:1 58893:1 59062:1 59224:1 59272:1 59398:1 59405:1 59420:1 59522:1 59525:1 59553:1 59643:1 59832:1 60031:1 60109:1 60230:1 60254:1 60338:1 60363:1 60370:1 60386:1 60493:1 60929:1 61414:1 61441:1 61840:1 61845:1 61904:1 61958:1 62049:1 62562:1 62642:1 62676:1 62919:1 62932:1 63056:1 63228:1 63264:1 63466:1 63660:1 64061:1 64206:1 64261:1 64582:1 64608:1 64729:1 64790:1 64797:1 65035:1 65109:1 65164:1 65222:1 65309:1 65349:1 65453:1 65497:1 65552:1 65556:1 65609:1 65807:1 65847:1 65877:1 66314:1 66425:1 66498:1 66621:1 66665:1 66852:1 67013:1 67100:1 67219:1 67267:1 67269:1 67317:1 67362:1 67380:1 67603:1 68130:1 68349:1 68404:1 68615:1 68863:1 68870:1 68939:1 69095:1 69264:1 69394:1 69455:1 69462:1 69502:1 69599:1 69821:1 69827:1 69935:1 70390:1 70596:1 70762:1 70805:1 70916:1 70933:1 71073:1 71074:1 71111:1 71136:1 71196:1 71201:1 71304:1 71459:1 71558:1 71650:1 71702:1 71842:1 71882:1 71940:1 72045:1 72168:1 72307:1 72754:1 72849:1 73050:1 73071:1 73085:1 73172:1 73305:1 73381:1 73465:1 73779:1 73798:1 74302:1 74783:1 74886:1 75050:1 75126:1 75205:1 75566:1 75573:1 75660:1 75709:1 75930:1 76043:1 76093:1 76120:1 76126:1 76226:1 76452:1 76671:1 77027:1 77048:1 77067:1 #
-0.0019685446296811774484492030268257 28704:1 28772:1 29053:1 29138:1 29140:1 29243:1 29252:1 29456:1 29522:1 29544:1 29689:1 29856:1 29880:1 29959:1 30088:1 30201:1 30424:1 30485:1 31136:1 31145:1 31366:1 31385:1 31537:1 31692:1 31814:1 31894:1 32044:1 32391:1 32399:1 32566:1 32568:1 32655:1 32880:1 33324:1 33352:1 33430:1 33747:1 33880:1 34025:1 34041:1 34362:1 34403:1 34611:1 34685:1 34788:1 34801:1 34819:1 35008:1 35066:1 35077:1 35108:1 35130:1 35169:1 35221:1 35313:1 35509:1 35565:1 35628:1 35709:1 35724:1 35734:1 35912:1 35934:1 36178:1 36307:1 36360:1 36407:1 36569:1 36956:1 37169:1 37211:1 37277:1 37489:1 37506:1 37517:1 37536:1 37770:1 37859:1 37922:1 37972:1 38134:1 38230:1 38248:1 38321:1 38528:1 38699:1 38872:1 38921:1 38933:1 39089:1 39275:1 39365:1 39585:1 39919:1 39950:1 40071:1 40077:1 40201:1 40571:1 40668:1 40806:1 40814:1 40882:1 40913:1 40921:1 40926:1 41008:1 41071:1 41097:1 41187:1 41425:1 41854:1 41919:1 41921:1 41924:1 42187:1 42398:1 42435:1 42603:1 42608:1 42633:1 42751:1 42845:1 42959:1 43142:1 43162:1 43223:1 43265:1 43378:1 43454:1 43645:1 43646:1 43747:1 43815:1 43902:1 43956:1 43985:1 43998:1 44181:1 44265:1 44300:1 44668:1 44888:1 44980:1 45119:1 45214:1 45412:1 45469:1 45470:1 45593:1 45658:1 45736:1 46002:1 46061:1 46135:1 46182:1 46415:1 46457:1 46618:1 46619:1 46647:1 46899:1 46927:1 46938:1 47017:1 47018:1 47031:1 47521:1 47666:1 47784:1 47804:1 47814:1 47827:1 47962:1 48033:1 48102:1 48164:1 48266:1 48601:1 48664:1 48691:1 48853:1 49121:1 49446:1 49457:1 49462:1 49636:1 49649:1 49650:1 49726:1 49989:1 50213:1 50631:1 50676:1 50693:1 50786:1 50915:1 50920:1 50922:1 50932:1 51398:1 51687:1 51831:1 51856:1 52246:1 52253:1 52427:1 52779:1 52856:1 53375:1 53391:1 53411:1 53466:1 53572:1 53798:1 53873:1 53968:1 54019:1 54027:1 54186:1 54654:1 54721:1 54940:1 55162:1 55293:1 55314:1 55316:1 55570:1 55583:1 55645:1 55909:1 56158:1 56371:1 56379:1 56393:1 56651:1 56695:1 56885:1 57098:1 57345:1 57994:1 58102:1 58277:1 58352:1 58358:1 58757:1 58839:1 58927:1 59522:1 59525:1 59538:1 59637:1 59641:1 59809:1 59851:1 60079:1 60127:1 60152:1 60313:1 60338:1 60353:1 60363:1 60803:1 61139:1 61441:1 61475:1 61772:1 61814:1 61840:1 61842:1 61848:1 62132:1 62206:1 62299:1 62533:1 62601:1 62631:1 63056:1 63168:1 63228:1 63266:1 63316:1 64061:1 64261:1 64278:1 64461:1 64587:1 64764:1 65164:1 65191:1 65222:1 65309:1 65349:1 65453:1 65497:1 65593:1 65749:1 65752:1 65778:1 65847:1 65877:1 66428:1 66483:1 66506:1 66665:1 66744:1 66947:1 67084:1 67100:1 67339:1 67443:1 67603:1 67605:1 67658:1 67865:1 67943:1 68057:1 68615:1 68733:1 68774:1 68863:1 69095:1 69115:1 69209:1 69260:1 69462:1 69502:1 69652:1 69675:1 70733:1 71073:1 71074:1 71150:1 71467:1 71476:1 71558:1 71692:1 71882:1 71915:1 72096:1 72168:1 72529:1 72664:1 72676:1 72754:1 72898:1 73779:1 73900:1 74556:1 74567:1 74615:1 74762:1 74774:1 75007:1 75024:1 75038:1 75046:1 75151:1 75205:1 75426:1 75573:1 75703:1 75864:1 76008:1 76137:1 76724:1 76853:1 77048:1 77083:1 77091:1 77104:1 #
0.0032377323777017176682779808771784 28749:1 28772:1 28806:1 28861:1 29138:1 29140:1 29252:1 29463:1 29524:1 29689:1 29757:1 30027:1 30088:1 30102:1 30106:1 30189:1 30226:1 30707:1 30727:1 30960:1 31155:1 31194:1 31385:1 31807:1 31894:1 32044:1 32543:1 32566:1 32575:1 32655:1 33161:1 33167:1 33306:1 33445:1 33504:1 33604:1 33762:1 33880:1 34174:1 34362:1 34452:1 34454:1 34485:1 34568:1 34689:1 34756:1 35000:1 35063:1 35301:1 35313:1 35435:1 35509:1 35551:1 35628:1 35678:1 35871:1 36002:1 36147:1 36192:1 36392:1 36516:1 36753:1 36998:1 37024:1 37108:1 37211:1 37277:1 37506:1 37650:1 37694:1 37715:1 38001:1 38402:1 38702:1 38741:1 38753:1 38784:1 39124:1 39271:1 39275:1 39607:1 39950:1 40071:1 40096:1 40109:1 40156:1 40249:1 40529:1 40913:1 40979:1 40997:1 41097:1 41332:1 41349:1 41425:1 41431:1 41919:1 41921:1 41924:1 42319:1 42396:1 42398:1 42442:1 42470:1 42620:1 42653:1 42797:1 42947:1 42959:1 43078:1 43412:1 43653:1 43815:1 43998:1 44083:1 44621:1 44668:1 45195:1 45204:1 45213:1 45230:1 45431:1 46046:1 46217:1 46272:1 46457:1 46647:1 46947:1 47017:1 47018:1 47031:1 47427:1 47814:1 48123:1 48164:1 48221:1 48252:1 48268:1 48311:1 48327:1 48569:1 48636:1 48691:1 48721:1 48856:1 48917:1 48946:1 49028:1 49237:1 49284:1 49446:1 49539:1 49662:1 49800:1 49832:1 49905:1 49942:1 50172:1 50268:1 50658:1 50660:1 50789:1 50915:1 50922:1 50932:1 51097:1 51252:1 51477:1 51764:1 51809:1 52243:1 52308:1 52531:1 52570:1 52587:1 53269:1 53411:1 53437:1 53798:1 53852:1 53968:1 54587:1 54654:1 54948:1 55409:1 55774:1 55859:1 56379:1 56542:1 56674:1 56695:1 57180:1 57994:1 58102:1 58153:1 58294:1 58839:1 58868:1 58870:1 58920:1 59037:1 59641:1 59643:1 60253:1 60338:1 61044:1 61539:1 61690:1 61797:1 61840:1 61933:1 62054:1 62407:1 62545:1 62813:1 62881:1 62932:1 63056:1 63168:1 63841:1 63893:1 64191:1 64206:1 64422:1 64471:1 64654:1 64771:1 64864:1 65120:1 65164:1 65222:1 65275:1 65453:1 65497:1 65552:1 65619:1 65748:1 66425:1 66665:1 66904:1 66947:1 66999:1 67007:1 67272:1 67304:1 67572:1 67658:1 68057:1 68130:1 68280:1 68532:1 68863:1 68939:1 68999:1 69095:1 69209:1 69260:1 69462:1 69821:1 69863:1 69870:1 69935:1 70206:1 70388:1 70390:1 70530:1 70965:1 71054:1 71073:1 71105:1 71201:1 71243:1 71322:1 71558:1 71639:1 72018:1 72096:1 72100:1 72173:1 72589:1 72664:1 72849:1 73159:1 73229:1 73298:1 73317:1 73389:1 73682:1 73779:1 73865:1 73957:1 73977:1 74168:1 74321:1 74484:1 74567:1 74673:1 75024:1 75703:1 76097:1 76110:1 76227:1 76730:1 77011:1 77104:1 77169:1 #
0.00146940456205387186966460077997 28701:1 28711:1 28854:1 28909:1 29020:1 29084:1 29100:1 29138:1 29140:1 29243:1 29248:1 29252:1 29390:1 29522:1 29593:1 29679:1 29689:1 29730:1 29862:1 29880:1 29959:1 30088:1 30186:1 30198:1 30201:1 30258:1 30343:1 30592:1 30596:1 30630:1 30707:1 30790:1 30812:1 30822:1 30960:1 31072:1 31385:1 31443:1 31894:1 32013:1 32044:1 32077:1 32083:1 32178:1 32231:1 32240:1 32285:1 32390:1 32541:1 32543:1 32566:1 32573:1 32595:1 32641:1 32655:1 32755:1 32775:1 32911:1 32989:1 33076:1 33096:1 33303:1 33437:1 33473:1 33561:1 33565:1 33812:1 33931:1 34025:1 34035:1 34087:1 34341:1 34345:1 34410:1 34454:1 34623:1 34628:1 34647:1 34685:1 34801:1 34819:1 34824:1 35148:1 35182:1 35304:1 35435:1 35565:1 35572:1 35628:1 35711:1 35726:1 35824:1 35875:1 35923:1 35963:1 35997:1 36106:1 36147:1 36176:1 36407:1 36576:1 36630:1 36692:1 36697:1 36742:1 36771:1 36997:1 37169:1 37184:1 37211:1 37277:1 37506:1 37517:1 37536:1 37605:1 37641:1 37870:1 38134:1 38274:1 38288:1 38321:1 38463:1 38563:1 38686:1 38741:1 38753:1 38777:1 38872:1 38932:1 38933:1 39069:1 39102:1 39239:1 39245:1 39275:1 39365:1 39506:1 39607:1 39796:1 39950:1 40006:1 40071:1 40168:1 40239:1 40249:1 40452:1 40541:1 40568:1 40571:1 40574:1 40579:1 40615:1 40619:1 40743:1 40814:1 40884:1 40913:1 40972:1 40986:1 41086:1 41090:1 41097:1 41123:1 41335:1 41371:1 41425:1 41473:1 41512:1 41554:1 41824:1 41858:1 41899:1 41919:1 41921:1 41924:1 42039:1 42398:1 42556:1 42603:1 42608:1 42701:1 42728:1 42769:1 42807:1 43014:1 43029:1 43454:1 43503:1 43638:1 43645:1 43646:1 43653:1 43747:1 43769:1 43815:1 43826:1 43901:1 43974:1 43998:1 44181:1 44206:1 44212:1 44297:1 44361:1 44668:1 44700:1 44767:1 44779:1 45031:1 45111:1 45119:1 45175:1 45195:1 45204:1 45214:1 45315:1 45384:1 45497:1 45611:1 45636:1 45798:1 45888:1 46049:1 46061:1 46072:1 46182:1 46210:1 46272:1 46338:1 46457:1 46572:1 46938:1 46947:1 47017:1 47018:1 47031:1 47206:1 47349:1 47409:1 47455:1 47521:1 47554:1 47597:1 47628:1 47784:1 47878:1 47879:1 47888:1 47896:1 48308:1 48357:1 48551:1 48598:1 48664:1 48691:1 49138:1 49209:1 49404:1 49446:1 49636:1 49650:1 49699:1 49746:1 49803:1 49848:1 49989:1 50025:1 50063:1 50064:1 50245:1 50248:1 50417:1 50491:1 50915:1 50922:1 50932:1 50944:1 51005:1 51017:1 51075:1 51272:1 51420:1 51477:1 51569:1 51572:1 51928:1 52194:1 52246:1 52295:1 52427:1 52795:1 52813:1 52935:1 53067:1 53107:1 53127:1 53234:1 53352:1 53391:1 53411:1 53495:1 53779:1 53798:1 53799:1 53873:1 53968:1 53993:1 54036:1 54150:1 54223:1 54347:1 54376:1 54558:1 54568:1 54654:1 54655:1 54721:1 54896:1 54999:1 55106:1 55462:1 55527:1 55534:1 55570:1 55799:1 55859:1 55909:1 55918:1 56155:1 56158:1 56160:1 56166:1 56379:1 56619:1 56651:1 56660:1 56899:1 56930:1 56931:1 56951:1 57083:1 57096:1 57278:1 57513:1 57836:1 57849:1 57861:1 57876:1 57944:1 57994:1 58102:1 58133:1 58149:1 58208:1 58277:1 58368:1 58688:1 58839:1 58873:1 58893:1 59272:1 59405:1 59420:1 59431:1 59433:1 59522:1 59525:1 59542:1 59643:1 59742:1 59957:1 60109:1 60152:1 60183:1 60313:1 60322:1 60338:1 60353:1 60386:1 60605:1 60629:1 60754:1 61022:1 61437:1 61441:1 61814:1 61840:1 61849:1 61904:1 61958:1 62206:1 62300:1 62401:1 62488:1 62528:1 62545:1 62813:1 62919:1 62926:1 62932:1 63056:1 63168:1 63197:1 63833:1 64047:1 64061:1 64089:1 64206:1 64261:1 64314:1 64427:1 64746:1 64790:1 64797:1 65005:1 65164:1 65214:1 65222:1 65227:1 65303:1 65309:1 65428:1 65453:1 65497:1 65549:1 65552:1 65609:1 65622:1 65777:1 65779:1 65806:1 65809:1 65847:1 65877:1 65880:1 66057:1 66425:1 66483:1 66517:1 66665:1 66947:1 66989:1 67007:1 67018:1 67100:1 67360:1 67367:1 67576:1 67603:1 67654:1 67705:1 67865:1 67943:1 68005:1 68010:1 68282:1 68480:1 68528:1 68532:1 68615:1 68863:1 68922:1 68939:1 69095:1 69209:1 69336:1 69502:1 69555:1 69821:1 69838:1 69870:1 69935:1 70192:1 70206:1 70390:1 70894:1 70916:1 70933:1 71073:1 71074:1 71111:1 71196:1 71201:1 71256:1 71402:1 71464:1 71558:1 71615:1 71658:1 71662:1 71692:1 71873:1 72018:1 72236:1 72259:1 72326:1 72456:1 72676:1 72685:1 72703:1 72801:1 72871:1 73117:1 73279:1 73292:1 73465:1 73723:1 73779:1 73830:1 73908:1 74025:1 74090:1 74105:1 74168:1 74181:1 74266:1 74357:1 74565:1 74567:1 74575:1 74778:1 75006:1 75299:1 75321:1 75581:1 75668:1 75703:1 75793:1 75864:1 75953:1 76098:1 76194:1 76315:1 76320:1 76458:1 76506:1 76812:1 77048:1 77084:1 77091:1 77133:1 #
-0.0029008581401155208306930077810648 28772:1 28990:1 29020:1 29138:1 29151:1 29243:1 29252:1 29546:1 29593:1 29689:1 29836:1 29959:1 30000:1 30088:1 30159:1 30198:1 30297:1 30341:1 30485:1 30592:1 30687:1 30960:1 31087:1 31136:1 31145:1 32114:1 32172:1 32390:1 32428:1 32489:1 32566:1 32570:1 32655:1 33812:1 33818:1 34436:1 34504:1 34801:1 35029:1 35130:1 36307:1 36514:1 36638:1 37047:1 37169:1 37211:1 37277:1 37536:1 37744:1 37880:1 38136:1 38741:1 38872:1 38986:1 39089:1 39239:1 39275:1 39607:1 39950:1 40006:1 40071:1 40077:1 40378:1 40454:1 40541:1 41022:1 41035:1 41086:1 41090:1 41097:1 41379:1 41425:1 41545:1 41917:1 41921:1 41924:1 42039:1 42051:1 42591:1 42603:1 42701:1 42983:1 43277:1 43317:1 43645:1 43646:1 43653:1 43826:1 43866:1 43998:1 44016:1 44265:1 44287:1 44619:1 44765:1 44831:1 44888:1 45195:1 45469:1 45658:1 45798:1 46182:1 46210:1 46415:1 46457:1 47017:1 47018:1 47031:1 47048:1 47521:1 47597:1 47993:1 48308:1 48598:1 48691:1 49218:1 49446:1 49636:1 49650:1 49708:1 49989:1 50028:1 50676:1 50915:1 50922:1 50932:1 51252:1 51631:1 51736:1 51800:1 52044:1 52549:1 52733:1 53377:1 53386:1 53391:1 53411:1 53671:1 53873:1 53968:1 54252:1 54654:1 54771:1 56158:1 56297:1 56481:1 56576:1 56651:1 56695:1 56737:1 57254:1 57301:1 57582:1 58102:1 58211:1 58317:1 59037:1 59175:1 59185:1 59643:1 60109:1 60182:1 60322:1 60335:1 60438:1 60505:1 61441:1 61570:1 61840:1 61965:1 62001:1 62849:1 62932:1 63056:1 63168:1 63228:1 63265:1 63490:1 63726:1 63799:1 63874:1 64206:1 64587:1 64608:1 64746:1 64790:1 65164:1 65497:1 65609:1 65877:1 66070:1 66134:1 66254:1 66393:1 66451:1 66517:1 66947:1 67102:1 67170:1 67195:1 67360:1 67815:1 67943:1 68863:1 68869:1 68939:1 69020:1 69093:1 69095:1 69676:1 69935:1 69977:1 69991:1 70390:1 71073:1 71196:1 71201:1 71464:1 71558:1 71666:1 71882:1 72413:1 72664:1 72754:1 72772:1 72849:1 72933:1 73117:1 73465:1 73684:1 73779:1 74088:1 74105:1 74567:1 75024:1 75585:1 75660:1 75742:1 76320:1 76522:1 76589:1 77104:1 #
-0.0026689769297525288600791970594628 28812:1 28826:1 28877:1 28962:1 29138:1 29140:1 29160:1 29240:1 29243:1 29248:1 29252:1 29294:1 29337:1 29390:1 29429:1 29490:1 29544:1 29579:1 29593:1 29689:1 29846:1 29856:1 29862:1 29880:1 29885:1 29933:1 29959:1 29988:1 30088:1 30189:1 30214:1 30218:1 30258:1 30280:1 30342:1 30485:1 30510:1 30522:1 30574:1 30630:1 30644:1 30677:1 30699:1 31136:1 31139:1 31145:1 31213:1 31383:1 31385:1 31391:1 31489:1 31527:1 31690:1 31807:1 31904:1 31912:1 32013:1 32044:1 32104:1 32247:1 32508:1 32543:1 32566:1 32568:1 32570:1 32655:1 32782:1 32880:1 32891:1 33098:1 33352:1 33553:1 33565:1 33578:1 33580:1 33616:1 33788:1 33812:1 33828:1 33839:1 33868:1 33902:1 33928:1 33951:1 33952:1 33992:1 33999:1 34007:1 34025:1 34041:1 34189:1 34338:1 34345:1 34436:1 34477:1 34504:1 34526:1 34557:1 34628:1 34634:1 34635:1 34685:1 34756:1 34801:1 34891:1 34934:1 34985:1 35066:1 35081:1 35148:1 35301:1 35312:1 35334:1 35509:1 35628:1 35660:1 35667:1 35675:1 35678:1 35726:1 35824:1 35912:1 35923:1 35934:1 35939:1 36106:1 36130:1 36147:1 36242:1 36336:1 36375:1 36407:1 36433:1 36515:1 36520:1 36569:1 36626:1 36630:1 36679:1 36769:1 37169:1 37211:1 37277:1 37396:1 37454:1 37485:1 37506:1 37536:1 37552:1 37694:1 37715:1 37801:1 37870:1 37970:1 37972:1 38064:1 38086:1 38096:1 38134:1 38144:1 38217:1 38258:1 38364:1 38400:1 38533:1 38683:1 38686:1 38704:1 38741:1 38872:1 38921:1 39017:1 39102:1 39152:1 39275:1 39301:1 39397:1 39601:1 39606:1 39607:1 39612:1 39657:1 39720:1 39750:1 39919:1 39950:1 39958:1 40006:1 40071:1 40077:1 40087:1 40188:1 40204:1 40396:1 40442:1 40456:1 40497:1 40568:1 40571:1 40574:1 40755:1 40806:1 40810:1 40866:1 40882:1 40884:1 40898:1 40913:1 40921:1 41086:1 41097:1 41299:1 41318:1 41425:1 41512:1 41529:1 41554:1 41919:1 41921:1 41924:1 41968:1 42039:1 42092:1 42115:1 42285:1 42390:1 42398:1 42435:1 42591:1 42603:1 42633:1 42653:1 42709:1 42797:1 42807:1 42822:1 42959:1 43024:1 43078:1 43134:1 43241:1 43265:1 43316:1 43337:1 43454:1 43487:1 43535:1 43645:1 43646:1 43653:1 43747:1 43796:1 43815:1 43826:1 43901:1 43960:1 43974:1 43982:1 43998:1 44162:1 44446:1 44598:1 44668:1 44729:1 44980:1 45092:1 45119:1 45195:1 45204:1 45210:1 45214:1 45235:1 45434:1 45469:1 45736:1 46033:1 46049:1 46113:1 46182:1 46210:1 46242:1 46247:1 46435:1 46457:1 46562:1 46572:1 46619:1 46647:1 46725:1 46772:1 46795:1 46858:1 46938:1 46942:1 46947:1 47013:1 47017:1 47018:1 47020:1 47031:1 47086:1 47170:1 47206:1 47224:1 47424:1 47521:1 47597:1 47807:1 47814:1 47836:1 47875:1 47888:1 47942:1 47979:1 47992:1 48074:1 48125:1 48221:1 48308:1 48311:1 48414:1 48537:1 48540:1 48569:1 48595:1 48598:1 48601:1 48634:1 48643:1 48664:1 48691:1 48802:1 48895:1 48914:1 49121:1 49272:1 49362:1 49426:1 49443:1 49446:1 49462:1 49636:1 49650:1 49803:1 49902:1 49989:1 49991:1 50081:1 50182:1 50213:1 50233:1 50266:1 50268:1 50401:1 50676:1 50693:1 50743:1 50812:1 50889:1 50915:1 50917:1 50922:1 50932:1 51066:1 51232:1 51499:1 51569:1 51572:1 51687:1 51758:1 51809:1 51817:1 51846:1 51856:1 52126:1 52229:1 52358:1 52414:1 52537:1 52587:1 52600:1 52755:1 52991:1 53025:1 53127:1 53201:1 53234:1 53330:1 53391:1 53411:1 53497:1 53671:1 53718:1 53779:1 53855:1 53873:1 53964:1 53966:1 53968:1 54403:1 54405:1 54644:1 54654:1 54668:1 54702:1 55058:1 55371:1 55731:1 55796:1 55799:1 55821:1 55909:1 55910:1 55969:1 56155:1 56158:1 56276:1 56301:1 56379:1 56498:1 56509:1 56516:1 56520:1 56540:1 56651:1 56655:1 56657:1 56708:1 56733:1 56890:1 56931:1 57098:1 57176:1 57185:1 57254:1 57345:1 57406:1 57492:1 57655:1 57836:1 57845:1 57866:1 57943:1 57994:1 58102:1 58132:1 58133:1 58147:1 58183:1 58249:1 58260:1 58277:1 58317:1 58338:1 58352:1 58474:1 58649:1 58775:1 58802:1 58839:1 58859:1 58893:1 58898:1 58927:1 58929:1 58960:1 59037:1 59056:1 59129:1 59221:1 59322:1 59398:1 59420:1 59492:1 59522:1 59525:1 59538:1 59542:1 59558:1 59566:1 59641:1 59643:1 59666:1 60090:1 60109:1 60133:1 60152:1 60254:1 60259:1 60262:1 60274:1 60313:1 60338:1 60456:1 60842:1 60880:1 60927:1 60936:1 61005:1 61013:1 61027:1 61047:1 61099:1 61233:1 61288:1 61437:1 61441:1 61754:1 61821:1 61840:1 61904:1 61933:1 61958:1 62178:1 62206:1 62235:1 62286:1 62300:1 62303:1 62304:1 62361:1 62488:1 62545:1 62601:1 62621:1 62646:1 62782:1 62823:1 62849:1 62932:1 63038:1 63056:1 63168:1 63228:1 63233:1 63359:1 63490:1 63575:1 63580:1 63833:1 63893:1 64047:1 64061:1 64080:1 64206:1 64224:1 64261:1 64314:1 64397:1 64518:1 64585:1 64587:1 64608:1 64746:1 64957:1 64989:1 65027:1 65109:1 65120:1 65164:1 65167:1 65214:1 65221:1 65222:1 65227:1 65293:1 65366:1 65453:1 65492:1 65497:1 65552:1 65564:1 65619:1 65749:1 65752:1 65787:1 65791:1 65793:1 65806:1 65816:1 65877:1 65880:1 66113:1 66134:1 66160:1 66289:1 66391:1 66425:1 66428:1 66483:1 66665:1 66722:1 66784:1 66794:1 66800:1 66846:1 66935:1 66947:1 67100:1 67125:1 67182:1 67258:1 67416:1 67591:1 67658:1 67712:1 67721:1 67778:1 67781:1 67863:1 67920:1 67986:1 68067:1 68142:1 68262:1 68471:1 68480:1 68492:1 68722:1 68834:1 68841:1 68863:1 68869:1 68870:1 68939:1 68989:1 69095:1 69260:1 69326:1 69336:1 69373:1 69470:1 69502:1 69676:1 69838:1 69870:1 69935:1 69965:1 70152:1 70188:1 70250:1 70254:1 70345:1 70390:1 70615:1 70622:1 70870:1 71073:1 71074:1 71111:1 71150:1 71201:1 71243:1 71298:1 71378:1 71558:1 71639:1 71670:1 71693:1 71694:1 71702:1 71915:1 71920:1 71928:1 72018:1 72023:1 72142:1 72236:1 72335:1 72483:1 72595:1 72620:1 72664:1 72697:1 72710:1 72849:1 73001:1 73063:1 73381:1 73459:1 73465:1 73600:1 73720:1 73736:1 73750:1 73779:1 73812:1 73831:1 73963:1 74181:1 74266:1 74272:1 74345:1 74402:1 74734:1 74774:1 75010:1 75024:1 75116:1 75126:1 75299:1 75375:1 75598:1 75608:1 75703:1 75772:1 75799:1 75930:1 76055:1 76082:1 76198:1 76205:1 76305:1 76320:1 76343:1 76533:1 76575:1 76783:1 77011:1 77027:1 77048:1 77084:1 77104:1 #
-0.0021099634776868452304410261888279 28711:1 28806:1 28826:1 28837:1 28877:1 28990:1 29005:1 29138:1 29140:1 29243:1 29252:1 29258:1 29294:1 29390:1 29593:1 29596:1 29659:1 29689:1 29738:1 29807:1 29862:1 29880:1 29903:1 29919:1 30088:1 30214:1 30226:1 30258:1 30269:1 30296:1 30485:1 30592:1 30810:1 30860:1 30948:1 30960:1 31107:1 31136:1 31267:1 31272:1 31385:1 31533:1 31554:1 31609:1 31691:1 31692:1 31722:1 31747:1 31755:1 31880:1 31894:1 31924:1 31960:1 32044:1 32212:1 32359:1 32390:1 32428:1 32489:1 32543:1 32566:1 32568:1 32595:1 32649:1 32655:1 32989:1 33275:1 33320:1 33354:1 33424:1 33473:1 33577:1 33580:1 33616:1 33654:1 33764:1 33828:1 33902:1 33952:1 33992:1 34215:1 34267:1 34318:1 34452:1 34454:1 34477:1 34589:1 34685:1 34801:1 35256:1 35435:1 35509:1 35564:1 35565:1 35628:1 35660:1 35667:1 35675:1 35678:1 35697:1 35732:1 35912:1 36033:1 36130:1 36145:1 36147:1 36176:1 36221:1 36331:1 36677:1 36679:1 36692:1 36725:1 36769:1 36771:1 36777:1 36843:1 37169:1 37211:1 37277:1 37332:1 37454:1 37506:1 37508:1 37536:1 37684:1 37694:1 37776:1 37812:1 37859:1 37901:1 37972:1 38036:1 38093:1 38134:1 38153:1 38177:1 38188:1 38248:1 38254:1 38321:1 38371:1 38463:1 38686:1 38704:1 38741:1 38778:1 38811:1 38872:1 38921:1 38995:1 39016:1 39102:1 39141:1 39239:1 39266:1 39275:1 39499:1 39502:1 39606:1 39632:1 39797:1 39950:1 40006:1 40008:1 40071:1 40109:1 40168:1 40174:1 40213:1 40312:1 40452:1 40539:1 40595:1 40659:1 40806:1 40884:1 40900:1 40913:1 40921:1 40926:1 40972:1 41069:1 41086:1 41097:1 41152:1 41196:1 41236:1 41332:1 41383:1 41425:1 41473:1 41512:1 41533:1 41554:1 41917:1 41919:1 41921:1 41924:1 42034:1 42039:1 42050:1 42051:1 42109:1 42115:1 42220:1 42275:1 42326:1 42354:1 42396:1 42398:1 42469:1 42555:1 42603:1 42621:1 42653:1 42665:1 42686:1 42743:1 42804:1 42959:1 42964:1 43083:1 43107:1 43180:1 43251:1 43265:1 43368:1 43390:1 43454:1 43645:1 43653:1 43699:1 43747:1 43815:1 43826:1 43901:1 43998:1 44051:1 44181:1 44362:1 44409:1 44442:1 44444:1 44446:1 44659:1 44665:1 44668:1 44753:1 44777:1 44888:1 44980:1 45031:1 45111:1 45119:1 45128:1 45195:1 45213:1 45235:1 45315:1 45358:1 45421:1 45444:1 45469:1 45509:1 45609:1 45636:1 45736:1 45784:1 45798:1 45810:1 46002:1 46014:1 46049:1 46129:1 46135:1 46179:1 46182:1 46210:1 46214:1 46338:1 46343:1 46415:1 46457:1 46619:1 46647:1 46899:1 46947:1 47017:1 47018:1 47031:1 47213:1 47349:1 47428:1 47475:1 47486:1 47521:1 47535:1 47597:1 47784:1 47792:1 47879:1 47884:1 47888:1 47913:1 48010:1 48051:1 48106:1 48122:1 48197:1 48327:1 48506:1 48532:1 48540:1 48551:1 48569:1 48598:1 48664:1 48691:1 48817:1 49148:1 49270:1 49340:1 49446:1 49457:1 49462:1 49589:1 49636:1 49648:1 49650:1 49674:1 49825:1 49871:1 49885:1 49901:1 49906:1 49910:1 49989:1 50171:1 50213:1 50915:1 50922:1 50932:1 50993:1 51075:1 51252:1 51312:1 51420:1 51718:1 51846:1 51897:1 51908:1 51930:1 52044:1 52054:1 52197:1 52668:1 52751:1 52813:1 52903:1 53287:1 53391:1 53404:1 53411:1 53524:1 53663:1 53671:1 53779:1 53805:1 53822:1 53873:1 53968:1 53993:1 54024:1 54186:1 54376:1 54461:1 54654:1 54655:1 54702:1 54749:1 54940:1 55080:1 55106:1 55245:1 55293:1 55382:1 55449:1 55676:1 55799:1 55821:1 55836:1 55909:1 56129:1 56158:1 56200:1 56371:1 56379:1 56393:1 56397:1 56498:1 56520:1 56540:1 56576:1 56651:1 56701:1 56769:1 56848:1 56868:1 56901:1 56982:1 57098:1 57176:1 57180:1 57199:1 57345:1 57492:1 57496:1 57941:1 57992:1 57994:1 58102:1 58133:1 58147:1 58208:1 58253:1 58277:1 58309:1 58352:1 58659:1 58692:1 58832:1 58839:1 58927:1 59009:1 59037:1 59084:1 59171:1 59271:1 59326:1 59361:1 59405:1 59522:1 59525:1 59542:1 59546:1 59553:1 59629:1 59643:1 59677:1 59870:1 59876:1 59950:1 60031:1 60056:1 60109:1 60152:1 60183:1 60254:1 60293:1 60313:1 60322:1 60353:1 60493:1 60589:1 60719:1 60915:1 60936:1 61013:1 61022:1 61139:1 61233:1 61260:1 61441:1 61517:1 61556:1 61644:1 61840:1 61951:1 61958:1 62049:1 62131:1 62312:1 62489:1 62601:1 62621:1 62644:1 62646:1 62751:1 62782:1 62932:1 63056:1 63121:1 63134:1 63168:1 63228:1 63273:1 63286:1 63450:1 63490:1 63549:1 63579:1 63893:1 63930:1 64061:1 64151:1 64206:1 64230:1 64261:1 64314:1 64393:1 64461:1 64608:1 64626:1 64743:1 64753:1 64797:1 65027:1 65035:1 65044:1 65151:1 65164:1 65222:1 65227:1 65264:1 65303:1 65349:1 65381:1 65453:1 65454:1 65497:1 65552:1 65670:1 65712:1 65727:1 65749:1 65752:1 65793:1 65821:1 65847:1 65965:1 66023:1 66036:1 66089:1 66188:1 66213:1 66335:1 66391:1 66425:1 66483:1 66517:1 66633:1 66665:1 66696:1 66744:1 66794:1 66822:1 66947:1 66992:1 66999:1 67267:1 67393:1 67654:1 67658:1 67699:1 67772:1 67820:1 67943:1 67949:1 68010:1 68085:1 68226:1 68270:1 68302:1 68324:1 68437:1 68505:1 68580:1 68722:1 68774:1 68827:1 68834:1 68863:1 68870:1 68938:1 69095:1 69209:1 69260:1 69462:1 69502:1 69555:1 69675:1 69692:1 69821:1 69838:1 69870:1 69935:1 70250:1 70276:1 70390:1 70485:1 70521:1 70564:1 70570:1 70615:1 70916:1 71012:1 71073:1 71074:1 71150:1 71201:1 71236:1 71479:1 71488:1 71558:1 71616:1 71692:1 71693:1 71702:1 71851:1 71881:1 71882:1 71915:1 71932:1 72018:1 72097:1 72142:1 72357:1 72620:1 72664:1 72754:1 72898:1 72905:1 73050:1 73117:1 73199:1 73207:1 73230:1 73432:1 73465:1 73563:1 73571:1 73779:1 74025:1 74181:1 74253:1 74402:1 74484:1 74567:1 74572:1 74628:1 74679:1 74739:1 74788:1 74814:1 74870:1 75046:1 75052:1 75222:1 75299:1 75426:1 75523:1 75660:1 75703:1 75775:1 75884:1 75937:1 76055:1 76096:1 76320:1 76812:1 77011:1 77027:1 77048:1 #
-0.0012611758784173531921374289410664 28676:1 28711:1 28806:1 29020:1 29036:1 29070:1 29138:1 29140:1 29243:1 29252:1 29522:1 29604:1 29689:1 29862:1 29880:1 29959:1 29988:1 30076:1 30088:1 30106:1 30111:1 30198:1 30235:1 30258:1 30296:1 30398:1 30485:1 30592:1 30618:1 30677:1 30707:1 30764:1 30829:1 30960:1 31033:1 31048:1 31145:1 31151:1 31267:1 31443:1 31692:1 31894:1 31912:1 31960:1 32044:1 32230:1 32399:1 32455:1 32489:1 32508:1 32543:1 32566:1 32568:1 32595:1 32655:1 32706:1 32842:1 32894:1 33045:1 33099:1 33169:1 33424:1 33432:1 33580:1 33812:1 33813:1 33828:1 33951:1 33952:1 33955:1 34063:1 34125:1 34142:1 34307:1 34345:1 34436:1 34452:1 34504:1 34557:1 34623:1 34628:1 34661:1 34827:1 34868:1 34977:1 35169:1 35256:1 35435:1 35509:1 35550:1 35628:1 35726:1 35794:1 35923:1 35997:1 36205:1 36242:1 36288:1 36407:1 36504:1 36515:1 36774:1 36799:1 37046:1 37094:1 37169:1 37211:1 37277:1 37289:1 37332:1 37359:1 37463:1 37484:1 37506:1 37536:1 37694:1 37733:1 37776:1 37859:1 37870:1 37899:1 38134:1 38321:1 38340:1 38615:1 38665:1 38675:1 38699:1 38733:1 38741:1 38753:1 38872:1 38933:1 38995:1 39103:1 39239:1 39275:1 39371:1 39607:1 39728:1 39830:1 39950:1 40071:1 40077:1 40168:1 40229:1 40232:1 40452:1 40461:1 40571:1 40784:1 40814:1 40841:1 40882:1 40884:1 40913:1 40972:1 41086:1 41090:1 41097:1 41103:1 41244:1 41250:1 41299:1 41371:1 41425:1 41512:1 41554:1 41577:1 41595:1 41858:1 41899:1 41919:1 41921:1 41924:1 41968:1 41977:1 42034:1 42039:1 42046:1 42051:1 42187:1 42198:1 42250:1 42398:1 42435:1 42603:1 42621:1 42653:1 42717:1 42797:1 42937:1 42959:1 43001:1 43084:1 43090:1 43107:1 43250:1 43304:1 43352:1 43404:1 43454:1 43503:1 43616:1 43645:1 43646:1 43653:1 43747:1 43815:1 43826:1 43998:1 44113:1 44119:1 44513:1 44668:1 44729:1 44779:1 44845:1 44980:1 45031:1 45119:1 45165:1 45195:1 45214:1 45235:1 45358:1 45365:1 45384:1 45404:1 45424:1 45509:1 45678:1 45736:1 46049:1 46182:1 46214:1 46302:1 46338:1 46415:1 46432:1 46453:1 46457:1 46508:1 46572:1 46619:1 46802:1 46840:1 46858:1 46938:1 46947:1 47017:1 47018:1 47031:1 47183:1 47266:1 47349:1 47373:1 47384:1 47387:1 47409:1 47438:1 47467:1 47521:1 47599:1 47666:1 47668:1 47736:1 47784:1 47814:1 47884:1 47900:1 47937:1 48092:1 48308:1 48311:1 48569:1 48664:1 48691:1 48946:1 49220:1 49404:1 49446:1 49462:1 49539:1 49636:1 49649:1 49650:1 49746:1 49756:1 49802:1 49832:1 49989:1 50073:1 50213:1 50337:1 50345:1 50622:1 50665:1 50753:1 50774:1 50915:1 50922:1 50932:1 51075:1 51252:1 51263:1 51331:1 51462:1 51578:1 51711:1 51758:1 51838:1 51889:1 51930:1 51947:1 52044:1 52295:1 52358:1 52406:1 52427:1 52754:1 52783:1 53013:1 53304:1 53391:1 53411:1 53739:1 53798:1 53822:1 53873:1 53968:1 54027:1 54186:1 54473:1 54485:1 54601:1 54654:1 54655:1 55080:1 55095:1 55106:1 55117:1 55366:1 55645:1 55693:1 55799:1 55817:1 55836:1 55842:1 55872:1 55909:1 56061:1 56155:1 56158:1 56379:1 56604:1 56619:1 56651:1 56695:1 56733:1 56931:1 57083:1 57096:1 57180:1 57199:1 57492:1 57635:1 57780:1 57903:1 58102:1 58150:1 58259:1 58277:1 58287:1 58352:1 58400:1 58569:1 58618:1 58783:1 59037:1 59272:1 59420:1 59492:1 59525:1 59542:1 59553:1 59643:1 60032:1 60109:1 60126:1 60134:1 60152:1 60183:1 60338:1 60393:1 60408:1 60611:1 61437:1 61441:1 61602:1 61639:1 61840:1 61904:1 61958:1 62363:1 62432:1 62631:1 62654:1 62685:1 62805:1 62932:1 62942:1 63056:1 63168:1 63233:1 63321:1 63490:1 63533:1 63641:1 63806:1 64206:1 64261:1 64397:1 64461:1 64608:1 64654:1 64764:1 65077:1 65164:1 65214:1 65227:1 65309:1 65453:1 65497:1 65552:1 65610:1 65779:1 65786:1 65793:1 65806:1 65847:1 65880:1 66134:1 66190:1 66419:1 66425:1 66464:1 66483:1 66665:1 66794:1 66947:1 67100:1 67247:1 67658:1 67705:1 67827:1 67920:1 67943:1 68054:1 68058:1 68387:1 68417:1 68528:1 68710:1 68777:1 68863:1 68869:1 68870:1 68939:1 68968:1 68989:1 69095:1 69208:1 69260:1 69502:1 69759:1 69768:1 69821:1 69935:1 70192:1 70390:1 70401:1 70530:1 70741:1 70916:1 71026:1 71073:1 71074:1 71150:1 71196:1 71201:1 71291:1 71378:1 71464:1 71558:1 71634:1 71692:1 71693:1 71702:1 71915:1 71991:1 72018:1 72097:1 72173:1 72524:1 72664:1 72666:1 72684:1 72754:1 72849:1 72943:1 73050:1 73305:1 73381:1 73417:1 73467:1 73526:1 73563:1 73616:1 73709:1 73779:1 73907:1 74181:1 74519:1 74567:1 74750:1 75024:1 75126:1 75280:1 75296:1 75354:1 75426:1 75581:1 75664:1 75703:1 75742:1 75930:1 76137:1 76320:1 76343:1 76346:1 76357:1 76710:1 76730:1 76990:1 77027:1 77048:1 77084:1 77091:1 77104:1 #
-0.0012468132605841369953125763458956 28711:1 28861:1 29073:1 29138:1 29140:1 29212:1 29252:1 29314:1 29333:1 29395:1 29447:1 29507:1 29528:1 29546:1 29593:1 29679:1 29689:1 29704:1 29862:1 29880:1 29914:1 30088:1 30258:1 30485:1 30607:1 30665:1 30677:1 30707:1 30960:1 31136:1 31145:1 31267:1 31443:1 31476:1 31526:1 31533:1 31728:1 31894:1 32033:1 32142:1 32342:1 32489:1 32508:1 32516:1 32566:1 32568:1 32640:1 32655:1 32880:1 33001:1 33324:1 33622:1 33828:1 34344:1 34557:1 34606:1 34623:1 34628:1 34647:1 35066:1 35101:1 35108:1 35313:1 35327:1 35432:1 35509:1 35628:1 35675:1 35678:1 35721:1 35812:1 35912:1 36106:1 36231:1 36277:1 36598:1 36771:1 36841:1 36973:1 37133:1 37143:1 37169:1 37211:1 37277:1 37454:1 37506:1 37517:1 37536:1 37776:1 38134:1 38286:1 38625:1 38704:1 38741:1 38780:1 38872:1 38938:1 38951:1 38979:1 39069:1 39102:1 39160:1 39239:1 39275:1 39397:1 39435:1 39448:1 39950:1 40006:1 40071:1 40287:1 40288:1 40409:1 40571:1 40814:1 40866:1 40884:1 40913:1 40960:1 41086:1 41097:1 41180:1 41187:1 41299:1 41425:1 41555:1 41758:1 41852:1 41854:1 41919:1 41921:1 41924:1 42099:1 42105:1 42250:1 42299:1 42319:1 42390:1 42603:1 42686:1 42710:1 42889:1 42959:1 43454:1 43642:1 43645:1 43646:1 43653:1 43688:1 43747:1 43815:1 43826:1 43930:1 43998:1 44199:1 44417:1 44503:1 44569:1 44619:1 44659:1 44729:1 44777:1 44779:1 45119:1 45165:1 45235:1 45352:1 45444:1 45500:1 45509:1 45600:1 45605:1 45636:1 45658:1 45958:1 46415:1 46457:1 46572:1 46622:1 46854:1 46933:1 46938:1 47017:1 47018:1 47031:1 47486:1 47519:1 47521:1 47602:1 47628:1 47741:1 47879:1 47880:1 47888:1 48010:1 48234:1 48537:1 48569:1 48664:1 48691:1 49139:1 49231:1 49443:1 49446:1 49462:1 49514:1 49539:1 49636:1 49650:1 50063:1 50171:1 50213:1 50379:1 50622:1 50786:1 50858:1 50915:1 50922:1 51075:1 51163:1 51252:1 51398:1 51687:1 51754:1 51981:1 52058:1 52082:1 52090:1 52253:1 52358:1 52427:1 52754:1 53013:1 53033:1 53391:1 53779:1 53798:1 53873:1 53968:1 54248:1 54346:1 54395:1 54587:1 54654:1 54655:1 54758:1 54940:1 55029:1 55083:1 55086:1 55106:1 55572:1 55645:1 55909:1 56055:1 56158:1 56166:1 56379:1 56486:1 56520:1 56651:1 56681:1 56701:1 57098:1 57130:1 57139:1 57176:1 57180:1 57254:1 57836:1 57876:1 57973:1 58102:1 58147:1 58209:1 58244:1 58266:1 58277:1 58338:1 58352:1 58510:1 58659:1 58772:1 58775:1 58927:1 59037:1 59185:1 59272:1 59420:1 59525:1 59542:1 59787:1 59815:1 60109:1 60152:1 60183:1 60291:1 60340:1 60653:1 60865:1 61018:1 61417:1 61437:1 61441:1 61556:1 61644:1 61776:1 61839:1 61842:1 62034:1 62038:1 62332:1 62337:1 62401:1 62601:1 62758:1 62770:1 62932:1 62942:1 62977:1 62984:1 63056:1 63168:1 63366:1 63874:1 64047:1 64089:1 64471:1 64671:1 64746:1 64764:1 65164:1 65222:1 65227:1 65309:1 65366:1 65453:1 65497:1 65552:1 65739:1 65752:1 65779:1 65877:1 65923:1 66425:1 66665:1 66742:1 66744:1 66947:1 67076:1 67100:1 67193:1 67223:1 67269:1 67595:1 67943:1 67983:1 68226:1 68505:1 68528:1 68722:1 68863:1 68870:1 68938:1 69095:1 69169:1 69260:1 69462:1 69818:1 69821:1 69935:1 70345:1 70390:1 70401:1 70530:1 70933:1 71073:1 71201:1 71464:1 71662:1 71747:1 72166:1 72253:1 72292:1 72456:1 72664:1 72684:1 72685:1 72749:1 72754:1 72852:1 73071:1 73163:1 73317:1 73381:1 73779:1 73797:1 74025:1 74062:1 74181:1 74266:1 74519:1 74567:1 74740:1 74788:1 75024:1 75380:1 75703:1 76055:1 76098:1 76155:1 76281:1 76320:1 76812:1 77005:1 77048:1 77067:1 77167:1 #
0.0032377323777017176682779808771784 28676:1 28700:1 28710:1 28711:1 29138:1 29181:1 29461:1 29683:1 29689:1 29775:1 29892:1 30088:1 30258:1 30260:1 30485:1 30570:1 30592:1 30677:1 30705:1 31110:1 31537:1 31894:1 31912:1 31945:1 32231:1 32543:1 32566:1 32570:1 32595:1 32655:1 32989:1 33352:1 33377:1 33501:1 33590:1 33624:1 33890:1 34362:1 34436:1 34443:1 34635:1 34661:1 34764:1 35148:1 35268:1 35565:1 35628:1 35675:1 35678:1 35743:1 35923:1 36147:1 36221:1 36638:1 36998:1 37076:1 37142:1 37169:1 37211:1 37277:1 37299:1 37596:1 38043:1 38083:1 38134:1 38248:1 38386:1 38457:1 38842:1 38872:1 38955:1 38980:1 39033:1 39103:1 39239:1 39275:1 39502:1 39597:1 39676:1 39950:1 40006:1 40071:1 40109:1 40168:1 40539:1 40806:1 40882:1 40913:1 40914:1 40972:1 41069:1 41071:1 41149:1 41248:1 41299:1 41425:1 41436:1 41512:1 41533:1 41554:1 41919:1 41924:1 41953:1 41968:1 42039:1 42210:1 42250:1 42275:1 42396:1 42524:1 42548:1 42603:1 42608:1 42931:1 43235:1 43454:1 43520:1 43691:1 43692:1 43704:1 43901:1 43998:1 44143:1 44415:1 44427:1 44513:1 44831:1 44963:1 45119:1 45165:1 45195:1 45214:1 45438:1 45644:1 45736:1 46049:1 46182:1 46216:1 46349:1 46426:1 46572:1 46816:1 46938:1 46947:1 47017:1 47018:1 47031:1 47814:1 47919:1 47961:1 48221:1 48404:1 48539:1 48664:1 48691:1 49085:1 49446:1 49589:1 49650:1 49699:1 49825:1 49978:1 50020:1 50077:1 50095:1 50191:1 50213:1 50915:1 50922:1 50932:1 51121:1 51272:1 51304:1 51398:1 51443:1 51582:1 51602:1 51825:1 51831:1 51846:1 52358:1 52427:1 52587:1 53391:1 53420:1 53546:1 53781:1 53798:1 53873:1 53968:1 54654:1 54655:1 54702:1 54711:1 54940:1 55569:1 55799:1 55918:1 55969:1 56020:1 56155:1 56166:1 56267:1 56293:1 56346:1 56379:1 56396:1 56527:1 56541:1 56651:1 56695:1 57096:1 57201:1 57349:1 57492:1 57570:1 57869:1 58007:1 58102:1 58193:1 58315:1 58352:1 58364:1 58425:1 58576:1 58659:1 58719:1 58802:1 58840:1 58890:1 59398:1 59538:1 59542:1 59613:1 59851:1 60109:1 60152:1 60182:1 60353:1 60372:1 60456:1 60520:1 60803:1 60923:1 61044:1 61054:1 61441:1 61737:1 61897:1 62488:1 62621:1 62813:1 62919:1 63056:1 63168:1 63228:1 63874:1 64061:1 64448:1 64461:1 64977:1 65116:1 65164:1 65349:1 65497:1 65877:1 65906:1 65942:1 66425:1 66483:1 66836:1 66947:1 67076:1 67108:1 67492:1 67658:1 67982:1 68130:1 68226:1 68567:1 68615:1 68774:1 68863:1 69095:1 69169:1 69260:1 69768:1 70156:1 70165:1 70272:1 70390:1 70973:1 71073:1 71074:1 71406:1 71464:1 71558:1 71670:1 71702:1 71995:1 72018:1 72236:1 72253:1 72431:1 72676:1 72849:1 73063:1 73328:1 73572:1 73779:1 74025:1 74192:1 74484:1 74567:1 75007:1 75024:1 75147:1 75251:1 75703:1 75864:1 76043:1 76137:1 77027:1 77075:1 #
0.0032377323777017176682779808771784 29138:1 29282:1 30088:1 30592:1 31237:1 31267:1 31537:1 31728:1 31894:1 31985:1 32566:1 32655:1 33506:1 33622:1 34828:1 35356:1 35589:1 37211:1 37694:1 38134:1 38217:1 38248:1 38741:1 40390:1 40882:1 41097:1 41262:1 41919:1 41921:1 42435:1 42551:1 42993:1 43342:1 43815:1 43998:1 44513:1 45798:1 45880:1 46457:1 47017:1 47018:1 47597:1 47875:1 49446:1 49667:1 50922:1 51484:1 52261:1 53644:1 53873:1 53968:1 54654:1 55106:1 55162:1 55799:1 56789:1 56929:1 57015:1 57413:1 58102:1 58409:1 58775:1 60109:1 60224:1 60364:1 61244:1 61441:1 61667:1 61840:1 63056:1 63137:1 63228:1 63851:1 65164:1 65239:1 65427:1 65497:1 65807:1 66205:1 66242:1 66314:1 66352:1 66425:1 66483:1 66665:1 67658:1 68666:1 68722:1 68774:1 68863:1 69037:1 69095:1 69169:1 69675:1 71073:1 71558:1 71666:1 71799:1 72296:1 72664:1 72754:1 73117:1 73551:1 73779:1 74912:1 #
0.0032377323777017176682779808771784 28711:1 29005:1 29025:1 29138:1 30088:1 30200:1 30790:1 31960:1 32655:1 34647:1 35565:1 36679:1 37277:1 37506:1 38542:1 40006:1 40882:1 41661:1 41811:1 41924:1 42603:1 43304:1 43454:1 43939:1 43983:1 43998:1 44276:1 44631:1 44980:1 45119:1 45872:1 47017:1 47018:1 48691:1 49013:1 49991:1 50922:1 50932:1 51930:1 52427:1 53497:1 53779:1 54654:1 55694:1 56393:1 57189:1 57492:1 58707:1 58911:1 60291:1 61150:1 63056:1 64184:1 64582:1 65164:1 65214:1 65227:1 65880:1 66665:1 66732:1 67492:1 68863:1 69095:1 69502:1 70428:1 70916:1 71073:1 71378:1 71558:1 72307:1 72413:1 73736:1 73906:1 74880:1 76671:1 77133:1 #
0.0032377323777017176682779808771784 29138:1 29689:1 30088:1 30258:1 30485:1 30707:1 31242:1 31807:1 32044:1 32566:1 32655:1 33352:1 33432:1 34151:1 34313:1 35313:1 36307:1 36399:1 37211:1 37694:1 38778:1 39102:1 39275:1 39365:1 39478:1 40071:1 40571:1 40913:1 40972:1 41097:1 41349:1 41919:1 41921:1 42603:1 42710:1 43956:1 43998:1 45662:1 47017:1 47018:1 47031:1 47521:1 47535:1 48616:1 48839:1 50922:1 52295:1 52749:1 53094:1 53391:1 53968:1 55162:1 55728:1 55907:1 56433:1 56520:1 58102:1 58170:1 58839:1 61260:1 61904:1 63056:1 65010:1 65164:1 65309:1 65428:1 65453:1 65552:1 65786:1 66217:1 67158:1 68863:1 68870:1 69095:1 69821:1 69935:1 70390:1 71073:1 71558:1 72018:1 72703:1 73779:1 74198:1 74272:1 75024:1 75410:1 75930:1 76137:1 76990:1 77133:1 #
0.0032377323777017176682779808771784 28672:1 29138:1 29718:1 29862:1 29988:1 30088:1 30258:1 30485:1 31807:1 31912:1 32174:1 32342:1 32502:1 32543:1 32566:1 32655:1 33326:1 34174:1 34228:1 34454:1 34557:1 35192:1 35282:1 35327:1 35628:1 35984:1 36098:1 36836:1 37169:1 37211:1 38022:1 38177:1 38533:1 38688:1 39117:1 39127:1 39223:1 39607:1 39720:1 40109:1 40539:1 40553:1 40882:1 40892:1 41858:1 41921:1 41924:1 42051:1 42603:1 43223:1 43625:1 43939:1 43998:1 44273:1 44727:1 44830:1 44980:1 44990:1 45119:1 45587:1 45609:1 47017:1 47668:1 48176:1 48721:1 48951:1 49094:1 49301:1 49446:1 49761:1 50028:1 50922:1 51326:1 51486:1 51889:1 52054:1 52295:1 53013:1 53077:1 53391:1 53966:1 53968:1 54019:1 54702:1 55537:1 55676:1 55909:1 57513:1 57839:1 57876:1 58102:1 58277:1 58352:1 59804:1 59908:1 60152:1 60687:1 61047:1 61840:1 62170:1 62644:1 62813:1 63056:1 63316:1 63359:1 64047:1 64740:1 65164:1 65622:1 66036:1 66393:1 67100:1 67603:1 67815:1 67945:1 68448:1 68774:1 69095:1 69119:1 69260:1 69818:1 69821:1 69825:1 69935:1 70250:1 70390:1 70401:1 70991:1 71073:1 72168:1 72664:1 73043:1 73163:1 73317:1 73791:1 73858:1 74168:1 74181:1 74955:1 76082:1 77108:1 #
0.0032377323777017176682779808771784 29138:1 29252:1 29689:1 30088:1 30258:1 30280:1 30592:1 31489:1 31934:1 32543:1 32655:1 32880:1 33504:1 33565:1 33614:1 33902:1 33952:1 34025:1 34685:1 34920:1 35256:1 35657:1 37312:1 37608:1 37694:1 37776:1 38093:1 38665:1 39239:1 40071:1 40175:1 40913:1 40972:1 41097:1 41435:1 41681:1 41921:1 42603:1 43304:1 43815:1 43998:1 44784:1 46182:1 47017:1 47521:1 47597:1 48718:1 49013:1 50915:1 50922:1 51309:1 52042:1 52246:1 52427:1 52978:1 53411:1 53644:1 53671:1 53873:1 53968:1 54183:1 54347:1 54721:1 55606:1 55637:1 55909:1 57083:1 57130:1 57475:1 58381:1 58464:1 58493:1 59377:1 60291:1 61441:1 61958:1 62528:1 63056:1 63168:1 64016:1 64125:1 64200:1 64402:1 64587:1 65086:1 65164:1 67943:1 68389:1 68863:1 68870:1 69095:1 69373:1 69565:1 69768:1 70473:1 71073:1 71558:1 72018:1 72563:1 73102:1 73865:1 74765:1 74873:1 75118:1 75430:1 76303:1 #
