SVM-light Version V6.02
0 # kernel type
3 # kernel parameter -d 
1 # kernel parameter -g 
1 # kernel parameter -s 
1 # kernel parameter -r 
empty# kernel parameter -u 
76898 # highest feature index 
1800 # number of training documents 
1373 # number of support vectors plus 1 
-0.0096522539 # threshold b, each following line is a SV (starting with alpha*y)
-0.0032384605415523765904739494914111 28714:1 28752:1 28777:1 28813:1 28988:1 29129:1 29238:1 29285:1 29455:1 29594:1 29686:1 29699:1 29981:1 30016:1 30080:1 30250:1 30473:1 30612:1 30755:1 30943:1 31044:1 31053:1 31361:1 31389:1 31508:1 31663:1 31777:1 32017:1 32058:1 32201:1 32327:1 32458:1 32512:1 32535:1 32537:1 32623:1 32949:1 33060:1 33062:1 33280:1 33304:1 33322:1 33428:1 33568:1 33576:1 33609:1 33820:1 34007:1 34145:1 34239:1 34291:1 34298:1 34576:1 34609:1 34636:1 35105:1 35154:1 35582:1 35872:1 35925:1 36088:1 36147:1 36364:1 36631:1 36679:1 36791:1 36809:1 36947:1 37025:1 37120:1 37163:1 37226:1 37435:1 37455:1 37485:1 37664:1 38080:1 38210:1 38211:1 38307:1 38678:1 38805:1 38929:1 39040:1 39197:1 39201:1 39394:1 39880:1 39935:1 39998:1 40123:1 40303:1 40368:1 40491:1 40804:1 40892:1 41010:1 41014:1 41021:1 41451:1 41802:1 41857:1 41859:1 42050:1 42124:1 42155:1 42236:1 42334:1 42404:1 42533:1 42585:1 42619:1 42885:1 43081:1 43373:1 43506:1 43559:1 43568:1 43576:1 43673:1 43741:1 43753:1 43924:1 43986:1 44004:1 44088:1 44221:1 44823:1 44917:1 45056:1 45147:1 45148:1 45286:1 45346:1 45661:1 46131:1 46328:1 46370:1 46520:1 46560:1 46915:1 46925:1 46926:1 47135:1 47156:1 47331:1 47423:1 47710:1 47754:1 47777:1 47785:1 47884:1 48051:1 48108:1 48200:1 48421:1 48429:1 48559:1 48587:1 48715:1 48724:1 48761:1 49291:1 49333:1 49349:1 49424:1 49445:1 49470:1 49509:1 49520:1 49534:1 49558:1 49578:1 49639:1 49684:1 49707:1 49713:1 49825:1 49873:1 50053:1 50096:1 50230:1 50663:1 50685:1 50791:1 50796:1 50798:1 50808:1 51703:1 52116:1 52230:1 52682:1 52879:1 53144:1 53269:1 53289:1 53389:1 53725:1 53743:1 53845:1 54119:1 54319:1 54395:1 54540:1 54541:1 54607:1 54999:1 55677:1 55789:1 56028:1 56036:1 56357:1 56522:1 56633:1 57362:1 57610:1 57853:1 57960:1 58110:1 58135:1 58209:1 58511:1 58689:1 58748:1 58782:1 58801:1 58858:1 58886:1 58963:1 59389:1 59413:1 59634:1 59965:1 60008:1 60039:1 60057:1 60188:1 60224:1 60266:1 60349:1 60979:1 61006:1 61262:1 61274:1 61279:1 61318:1 61669:1 61788:1 61969:1 62180:1 62442:1 62688:1 62749:1 62985:1 63675:1 64058:1 64529:1 64574:1 64746:1 64863:1 64914:1 64935:1 64948:1 65006:1 65038:1 65277:1 65329:1 65386:1 65496:1 65532:1 65555:1 65601:1 65627:1 65909:1 66112:1 66158:1 66193:1 66248:1 66434:1 66510:1 66551:1 66705:1 66769:1 66978:1 67227:1 67383:1 67419:1 67638:1 67772:1 68243:1 68254:1 68433:1 68623:1 68698:1 68746:1 68960:1 68969:1 69012:1 69252:1 69319:1 69519:1 69570:1 70134:1 70144:1 70224:1 70336:1 70609:1 70654:1 70813:1 70889:1 70937:1 70988:1 70992:1 71291:1 71322:1 71349:1 71429:1 71431:1 71618:1 71965:1 72213:1 72397:1 72489:1 72581:1 72775:1 72838:1 73038:1 73900:1 73902:1 74289:1 74771:1 75014:1 75052:1 75482:1 75939:1 76031:1 76051:1 76062:1 76321:1 76363:1 76733:1 #
-0.0032384605415523765904739494914111 28868:1 29025:1 29129:1 29131:1 29238:1 29305:1 30080:1 30250:1 30488:1 30755:1 31031:1 31864:1 31894:1 32177:1 32311:1 32509:1 32512:1 32623:1 32949:1 33233:1 33428:1 33514:1 33997:1 34402:1 34409:1 34525:1 34641:1 35582:1 35606:1 35806:1 36922:1 37120:1 37163:1 37226:1 37455:1 38080:1 38406:1 38805:1 39162:1 39880:1 40004:1 40303:1 40480:1 41010:1 41021:1 41076:1 41990:1 42252:1 42628:1 42726:1 43373:1 43506:1 43576:1 43741:1 43753:1 43924:1 44141:1 44604:1 44662:1 44715:1 44917:1 45056:1 45204:1 45286:1 45365:1 45535:1 45588:1 45793:1 46256:1 46865:1 46925:1 46926:1 46940:1 47305:1 47701:1 48421:1 48559:1 48587:1 49338:1 49639:1 49684:1 50053:1 50096:1 50411:1 50548:1 50718:1 50791:1 50798:1 50977:1 51711:1 52716:1 53269:1 53449:1 53666:1 53743:1 53845:1 54258:1 55789:1 56031:1 56633:1 57343:1 57513:1 57960:1 57989:1 58135:1 59369:1 59389:1 59485:1 60034:1 62985:1 63137:1 63172:1 63199:1 64188:1 64404:1 64529:1 64769:1 64798:1 64948:1 65236:1 65532:1 65627:1 65888:1 66248:1 66434:1 66551:1 66664:1 66750:1 68623:1 68698:1 68960:1 69012:1 69683:1 70134:1 70813:1 71291:1 71439:1 71728:1 71823:1 72124:1 72397:1 72435:1 72775:1 73426:1 73755:1 73902:1 74366:1 74745:1 75771:1 76733:1 #
-0.0012148733030557580005182050086887 28707:1 28714:1 28777:1 28832:1 29129:1 29131:1 29154:1 29686:1 29953:1 30080:1 30250:1 30496:1 30612:1 30755:1 30933:1 31241:1 31513:1 31580:1 31663:1 31777:1 32120:1 32394:1 32535:1 32541:1 32623:1 32740:1 33304:1 33402:1 33473:1 33775:1 33982:1 34387:1 34559:1 34576:1 34769:1 35033:1 35287:1 35462:1 35514:1 35628:1 35631:1 35662:1 36263:1 36313:1 36318:1 36948:1 37163:1 37226:1 37246:1 37455:1 37485:1 37644:1 37806:1 37818:1 38080:1 38642:1 38644:1 38719:1 38938:1 39201:1 39880:1 39935:1 39998:1 40714:1 40716:1 40806:1 40832:1 41021:1 41097:1 41266:1 41419:1 41702:1 41802:1 41857:1 41859:1 41862:1 42055:1 42190:1 42236:1 42238:1 42281:1 42533:1 43004:1 43239:1 43373:1 43506:1 43569:1 43576:1 43753:1 43806:1 43924:1 44084:1 44116:1 44200:1 44341:1 44604:1 45128:1 45243:1 45370:1 45563:1 45661:1 45710:1 45837:1 46128:1 46192:1 46505:1 46728:1 46729:1 46925:1 46926:1 46940:1 47294:1 47353:1 47362:1 47423:1 47710:1 47777:1 47782:1 48155:1 48494:1 48556:1 48587:1 48617:1 48734:1 48829:1 49333:1 49349:1 49424:1 49534:1 49558:1 49658:1 49873:1 49957:1 49983:1 50488:1 50791:1 50798:1 50808:1 50908:1 51719:1 52114:1 52944:1 53269:1 53298:1 53562:1 53845:1 54540:1 54541:1 54613:1 54785:1 55240:1 55675:1 55957:1 56028:1 56118:1 56242:1 56248:1 56368:1 56391:1 56420:1 56447:1 56522:1 56564:1 56633:1 56718:1 57379:1 57406:1 57960:1 57963:1 57989:1 58175:1 58209:1 58511:1 58688:1 58689:1 58886:1 59273:1 59369:1 59385:1 59487:1 59853:1 59965:1 60040:1 60105:1 60237:1 60349:1 60592:1 60723:1 61214:1 61392:1 61643:1 61669:1 61674:1 61788:1 61874:1 62030:1 62086:1 62180:1 62219:1 62363:1 63169:1 63199:1 63302:1 63860:1 64002:1 64058:1 64109:1 64254:1 64439:1 64570:1 64798:1 64948:1 65006:1 65184:1 65236:1 65277:1 65329:1 65624:1 65661:1 65864:1 65934:1 66161:1 66248:1 66434:1 67124:1 67415:1 67419:1 67604:1 67672:1 67872:1 68489:1 68623:1 68630:1 68698:1 69012:1 69430:1 69519:1 69522:1 69939:1 69998:1 70134:1 70285:1 70625:1 70672:1 70813:1 70876:1 70937:1 71114:1 71291:1 71888:1 72027:1 72435:1 72449:1 73140:1 74069:1 74289:1 74745:1 75155:1 75318:1 75768:1 76001:1 76031:1 76051:1 76733:1 #
-0.0032384605415523765904739494914111 28714:1 28984:1 29063:1 29129:1 29131:1 29230:1 29238:1 29277:1 29686:1 29975:1 30048:1 30052:1 30080:1 30272:1 30573:1 30796:1 31013:1 31028:1 31089:1 31123:1 31580:1 31777:1 32141:1 32326:1 32335:1 32562:1 32597:1 32616:1 32623:1 32891:1 33004:1 33473:1 33669:1 33769:1 34247:1 34294:1 35238:1 35389:1 35424:1 35462:1 35525:1 35601:1 35628:1 35657:1 35677:1 35683:1 35698:1 36034:1 36093:1 36103:1 36410:1 36722:1 36726:1 37120:1 37163:1 37226:1 37438:1 37455:1 37621:1 37720:1 37919:1 38080:1 38200:1 38221:1 38486:1 38571:1 38639:1 38644:1 39162:1 39201:1 39528:1 39676:1 39998:1 40102:1 40471:1 40488:1 40515:1 40814:1 40832:1 40840:1 40860:1 41021:1 41023:1 41658:1 41802:1 41803:1 41857:1 41859:1 41862:1 42029:1 42124:1 42242:1 42334:1 42457:1 42533:1 42619:1 42811:1 43005:1 43191:1 43227:1 43373:1 43506:1 43569:1 43576:1 43587:1 43741:1 43863:1 43901:1 43924:1 44088:1 44116:1 44917:1 45041:1 45056:1 45128:1 45230:1 45286:1 45526:1 45608:1 45752:1 45861:1 45991:1 46100:1 46305:1 46365:1 46847:1 46925:1 46926:1 46940:1 47061:1 47119:1 47197:1 47316:1 47682:1 47710:1 48064:1 48078:1 48120:1 48587:1 48617:1 48706:1 49014:1 49333:1 49461:1 49534:1 49558:1 49965:1 50066:1 50096:1 50423:1 50488:1 50733:1 50791:1 50798:1 50924:1 51122:1 51711:1 51747:1 52012:1 52179:1 52296:1 52657:1 52682:1 53269:1 53650:1 53666:1 53743:1 53845:1 54540:1 54631:1 54641:1 54779:1 54897:1 55455:1 55677:1 55755:1 55789:1 56028:1 56031:1 56216:1 56248:1 56447:1 56522:1 57043:1 57047:1 57127:1 57722:1 57735:1 57960:1 58048:1 58209:1 58302:1 58511:1 58717:1 58880:1 59121:1 59369:1 59518:1 59933:1 60040:1 60172:1 60310:1 60454:1 60804:1 61669:1 61734:1 61877:1 62442:1 62719:1 62836:1 63302:1 64002:1 64058:1 64109:1 64254:1 64451:1 64504:1 64529:1 64793:1 64948:1 65157:1 65236:1 65277:1 65570:1 65660:1 65904:1 65934:1 65941:1 65986:1 66193:1 66614:1 66919:1 67535:1 67709:1 67772:1 67987:1 68090:1 68254:1 68623:1 68698:1 69012:1 69115:1 69352:1 69509:1 69939:1 70134:1 70365:1 70654:1 70813:1 71291:1 71748:1 71845:1 71863:1 72186:1 72397:1 72581:1 72705:1 72775:1 73038:1 73104:1 73201:1 73662:1 74278:1 74289:1 74479:1 75924:1 76031:1 76653:1 76765:1 76802:1 #
-0.0032384605415523765904739494914111 28881:1 29129:1 29131:1 29230:1 29238:1 29247:1 29613:1 29686:1 29953:1 30080:1 30111:1 30162:1 30194:1 30250:1 30252:1 30473:1 30773:1 31056:1 31169:1 31212:1 31421:1 31498:1 31663:1 31729:1 31864:1 32358:1 32486:1 32512:1 32535:1 32622:1 32623:1 32951:1 33359:1 33403:1 33459:1 33465:1 33578:1 33769:1 33948:1 33982:1 33997:1 34117:1 34313:1 34369:1 34402:1 34506:1 34576:1 34636:1 34754:1 34769:1 35018:1 35269:1 35498:1 35562:1 35628:1 35631:1 35698:1 36064:1 36642:1 37055:1 37068:1 37120:1 37163:1 37226:1 37236:1 37455:1 37818:1 37859:1 38012:1 38066:1 38080:1 38472:1 38618:1 38644:1 39031:1 39040:1 39162:1 39239:1 39432:1 39598:1 39644:1 39880:1 39998:1 40077:1 40362:1 40372:1 40457:1 40762:1 40940:1 41010:1 41021:1 41115:1 41235:1 41774:1 41789:1 41802:1 41836:1 41857:1 41859:1 41862:1 42048:1 42124:1 42190:1 42236:1 42334:1 42369:1 42415:1 42487:1 42533:1 42539:1 42633:1 42885:1 43004:1 43177:1 43238:1 43373:1 43393:1 43506:1 43565:1 43568:1 43569:1 43710:1 43741:1 43753:1 43924:1 43998:1 44113:1 44116:1 44141:1 44200:1 44375:1 44403:1 44443:1 44686:1 44763:1 44967:1 44971:1 45056:1 45333:1 45346:1 45391:1 45635:1 45640:1 45720:1 46014:1 46047:1 46100:1 46344:1 46370:1 46403:1 46488:1 46532:1 46857:1 46925:1 46926:1 46940:1 47032:1 47179:1 47185:1 47423:1 47777:1 48051:1 48421:1 48555:1 48565:1 48587:1 49333:1 49683:1 49786:1 49873:1 49914:1 50096:1 50468:1 50470:1 50504:1 50574:1 50679:1 50791:1 50798:1 50808:1 51005:1 51258:1 51385:1 51635:1 51921:1 52064:1 52296:1 52405:1 52456:1 52621:1 52879:1 53001:1 53061:1 53103:1 53269:1 53545:1 53666:1 53743:1 53754:1 53845:1 54055:1 54119:1 54603:1 54999:1 55008:1 55469:1 55531:1 55677:1 55753:1 55789:1 55798:1 55829:1 56028:1 56031:1 56063:1 56094:1 56242:1 56245:1 56447:1 56522:1 56535:1 56564:1 56633:1 56642:1 56966:1 57127:1 57215:1 57604:1 57644:1 57960:1 57984:1 57989:1 58009:1 58209:1 58237:1 58569:1 58777:1 58984:1 59106:1 59218:1 59257:1 59273:1 59360:1 59694:1 59754:1 59965:1 60188:1 60779:1 61279:1 61351:1 61669:1 61678:1 61734:1 61743:1 61874:1 61948:1 62130:1 62363:1 62422:1 62452:1 62614:1 62749:1 62759:1 62985:1 63033:1 63769:1 63887:1 64002:1 64058:1 64110:1 64439:1 64529:1 64581:1 64746:1 64935:1 64948:1 64998:1 65135:1 65236:1 65277:1 65329:1 65658:1 66159:1 66248:1 66268:1 66434:1 66705:1 66978:1 67129:1 67167:1 67419:1 67850:1 67863:1 68038:1 68115:1 68153:1 68252:1 68254:1 68353:1 68481:1 68623:1 68630:1 68697:1 69124:1 69212:1 69221:1 69252:1 69519:1 69570:1 69683:1 69904:1 69998:1 70023:1 70134:1 70568:1 70617:1 70813:1 70889:1 70932:1 70937:1 70988:1 71198:1 71291:1 71657:1 71871:1 72397:1 72419:1 72512:1 72743:1 72775:1 72789:1 73104:1 73902:1 74278:1 74402:1 74488:1 74729:1 74745:1 75136:1 75574:1 75710:1 75803:1 75988:1 76051:1 76321:1 76369:1 76430:1 76733:1 76772:1 76793:1 #
0.0032384605415523765904739494914111 28697:1 28720:1 28752:1 28777:1 28820:1 29008:1 29017:1 29030:1 29129:1 29131:1 29230:1 29238:1 29272:1 29520:1 29686:1 29857:1 29981:1 30080:1 30191:1 30250:1 30755:1 31015:1 31083:1 31114:1 31143:1 31359:1 31777:1 31864:1 32250:1 32358:1 32535:1 32537:1 32623:1 32936:1 33085:1 33257:1 33359:1 33461:1 33618:1 33719:1 33769:1 33785:1 33982:1 34402:1 34636:1 34935:1 35074:1 35127:1 35366:1 35389:1 35462:1 35518:1 35582:1 35606:1 35628:1 35660:1 36064:1 36103:1 36130:1 36186:1 36364:1 36476:1 36548:1 36583:1 36791:1 37120:1 37163:1 37226:1 37296:1 37423:1 37450:1 37455:1 37485:1 37643:1 37714:1 37806:1 37818:1 37891:1 38080:1 38169:1 38477:1 38639:1 38872:1 39201:1 39231:1 39351:1 39422:1 39527:1 39528:1 39652:1 39977:1 39998:1 40094:1 40096:1 40281:1 40614:1 40804:1 40867:1 40998:1 41021:1 41235:1 41322:1 41376:1 41451:1 41617:1 41774:1 41802:1 41809:1 41836:1 41857:1 41859:1 41862:1 41896:1 41906:1 41978:1 42029:1 42050:1 42326:1 42334:1 42369:1 42381:1 42437:1 42533:1 42539:1 42735:1 42885:1 43086:1 43326:1 43373:1 43472:1 43473:1 43506:1 43576:1 43595:1 43753:1 43826:1 43924:1 43998:1 44190:1 44341:1 44376:1 44740:1 44917:1 44971:1 45056:1 45064:1 45128:1 45388:1 45661:1 46100:1 46125:1 46184:1 46370:1 46376:1 46488:1 46520:1 46658:1 46847:1 46894:1 46925:1 46926:1 46929:1 46940:1 47294:1 47383:1 47423:1 47436:1 47561:1 47616:1 47872:1 47925:1 48274:1 48429:1 48460:1 48559:1 48587:1 48604:1 48700:1 48784:1 49333:1 49445:1 49520:1 49713:1 49873:1 49938:1 50054:1 50096:1 50245:1 50333:1 50389:1 50470:1 50534:1 50643:1 50791:1 50798:1 50808:1 50890:1 50949:1 50977:1 51050:1 51122:1 51369:1 51622:1 51644:1 51689:1 51754:1 51794:1 52004:1 52296:1 52542:1 52873:1 52900:1 53061:1 53269:1 53289:1 53420:1 53529:1 53595:1 53743:1 53845:1 53851:1 54153:1 54402:1 54540:1 54911:1 55311:1 55349:1 55630:1 55668:1 55677:1 56031:1 56060:1 56080:1 56118:1 56242:1 56248:1 56397:1 56570:1 56970:1 56987:1 57056:1 57362:1 57562:1 57853:1 57960:1 57989:1 58135:1 58196:1 58209:1 58405:1 58450:1 58511:1 58527:1 58623:1 58762:1 58786:1 58789:1 58886:1 58893:1 58958:1 58963:1 59341:1 59369:1 59372:1 59389:1 59393:1 59518:1 60040:1 60125:1 60339:1 60719:1 60986:1 61168:1 61279:1 61351:1 61406:1 61477:1 61567:1 61643:1 61734:1 61788:1 62422:1 62464:1 62658:1 62749:1 62891:1 63302:1 63357:1 63636:1 63660:1 64002:1 64284:1 64396:1 64460:1 64529:1 64574:1 64586:1 64948:1 65067:1 65087:1 65236:1 65277:1 65329:1 65386:1 65557:1 65564:1 65658:1 65830:1 66193:1 66248:1 66445:1 66521:1 66705:1 66862:1 67002:1 67036:1 67331:1 67716:1 67847:1 68623:1 68630:1 68698:1 68826:1 68936:1 69012:1 69124:1 69212:1 69252:1 69368:1 69519:1 69851:1 69998:1 70081:1 70134:1 70155:1 70211:1 70285:1 70440:1 70813:1 70814:1 70876:1 70937:1 70992:1 70993:1 71146:1 71252:1 71291:1 71421:1 71429:1 71774:1 71871:1 71907:1 72397:1 72413:1 72435:1 72449:1 72489:1 72534:1 72543:1 72581:1 72648:1 72695:1 72750:1 72775:1 73473:1 73495:1 73755:1 73902:1 74338:1 74474:1 74728:1 74729:1 75137:1 75142:1 75150:1 75333:1 75631:1 75765:1 76051:1 76218:1 76422:1 76531:1 76653:1 76805:1 76871:1 #
0.0032384605415523765904739494914111 29129:1 29230:1 29238:1 29305:1 29383:1 29686:1 29857:1 29880:1 30080:1 30250:1 30428:1 30660:1 30748:1 30943:1 31013:1 31241:1 31361:1 31663:1 32120:1 32156:1 32397:1 32399:1 32507:1 32535:1 32537:1 32562:1 32620:1 32623:1 32875:1 33140:1 33446:1 33507:1 33613:1 33618:1 33997:1 34107:1 34277:1 34313:1 34418:1 34530:1 34636:1 34640:1 34778:1 34997:1 35018:1 35154:1 35255:1 35383:1 35628:1 36088:1 36170:1 37120:1 37163:1 37226:1 37402:1 37455:1 37692:1 37706:1 38003:1 38080:1 38383:1 38670:1 38805:1 38929:1 38975:1 39162:1 39201:1 39422:1 39527:1 39935:1 39976:1 40004:1 40172:1 40342:1 40892:1 41021:1 41205:1 41702:1 41802:1 41850:1 41857:1 41859:1 41862:1 41968:1 42190:1 42214:1 42260:1 42369:1 42885:1 43259:1 43373:1 43506:1 43568:1 43576:1 43661:1 43673:1 43707:1 43924:1 44116:1 44231:1 44292:1 44376:1 44604:1 45056:1 45147:1 45186:1 45346:1 45537:1 45752:1 45983:1 46047:1 46184:1 46257:1 46370:1 46604:1 46658:1 46667:1 46767:1 46847:1 46857:1 46925:1 46926:1 47496:1 47628:1 47633:1 48108:1 48235:1 48313:1 48335:1 48379:1 48456:1 48460:1 48462:1 48556:1 48587:1 49014:1 49333:1 49424:1 49470:1 49520:1 49533:1 49534:1 49592:1 49814:1 49873:1 49914:1 49938:1 49980:1 50042:1 50096:1 50488:1 50536:1 50791:1 50798:1 51369:1 51450:1 51522:1 51711:1 51772:1 51817:1 51845:1 52296:1 52456:1 52496:1 52587:1 53269:1 53289:1 53545:1 53743:1 53845:1 53969:1 54540:1 54591:1 54641:1 54999:1 55148:1 55477:1 55490:1 55527:1 55585:1 56002:1 56028:1 56031:1 56411:1 56564:1 56768:1 56800:1 56801:1 56966:1 56968:1 57047:1 57127:1 57275:1 57960:1 58135:1 58209:1 58241:1 58450:1 58459:1 58688:1 58723:1 58777:1 59258:1 59369:1 59389:1 59456:1 59518:1 59635:1 59662:1 59965:1 60039:1 60040:1 60341:1 60345:1 60454:1 60592:1 60903:1 61605:1 62068:1 62104:1 62221:1 62286:1 62345:1 62466:1 62672:1 62749:1 62985:1 63175:1 63463:1 63554:1 63694:1 63878:1 64058:1 64254:1 64264:1 64396:1 64515:1 64529:1 64798:1 64948:1 65247:1 65277:1 65329:1 65386:1 65505:1 65627:1 65864:1 65904:1 66193:1 66434:1 66705:1 66864:1 66919:1 67331:1 67347:1 67352:1 67359:1 67419:1 68027:1 68095:1 68260:1 68623:1 68630:1 69012:1 69126:1 69429:1 69509:1 69519:1 69619:1 69871:1 69939:1 70092:1 70134:1 70246:1 70813:1 70889:1 70937:1 70988:1 71138:1 71161:1 71291:1 71429:1 71771:1 71854:1 71901:1 72053:1 72203:1 72292:1 72397:1 72690:1 73084:1 73902:1 74140:1 74745:1 74847:1 74899:1 74969:1 76031:1 76051:1 76653:1 76733:1 76835:1 76873:1 #
0.0032384605415523765904739494914111 28844:1 29129:1 29131:1 29230:1 29435:1 29660:1 30080:1 30182:1 30250:1 30332:1 30598:1 30748:1 30880:1 30943:1 31083:1 31359:1 31421:1 31992:1 32535:1 32562:1 32623:1 32951:1 32961:1 33045:1 33230:1 33618:1 33627:1 33787:1 33982:1 34239:1 34503:1 34585:1 35018:1 35260:1 35366:1 35389:1 35462:1 35631:1 35872:1 36263:1 36378:1 36512:1 36679:1 37120:1 37163:1 37226:1 37455:1 37832:1 38080:1 38200:1 38335:1 38644:1 38805:1 38914:1 39162:1 39179:1 39201:1 39527:1 39880:1 40004:1 40023:1 40090:1 40096:1 40457:1 40716:1 40804:1 40829:1 41014:1 41021:1 41023:1 41235:1 41802:1 41857:1 41859:1 41862:1 41906:1 41973:1 42214:1 42533:1 42772:1 42924:1 43081:1 43373:1 43506:1 43568:1 43569:1 43574:1 43576:1 43753:1 43924:1 43933:1 44688:1 44715:1 44917:1 45014:1 45128:1 45358:1 45861:1 46134:1 46857:1 46925:1 46926:1 46940:1 47032:1 47353:1 47496:1 47553:1 47710:1 47782:1 48528:1 48587:1 48679:1 49144:1 49251:1 49333:1 49639:1 49658:1 49683:1 49873:1 50096:1 50488:1 50574:1 50796:1 50798:1 50808:1 51470:1 51711:1 52124:1 52296:1 52881:1 53142:1 53269:1 53289:1 53650:1 53666:1 53743:1 53845:1 53902:1 54258:1 54441:1 54511:1 54540:1 56031:1 56039:1 56352:1 56522:1 56968:1 57051:1 57081:1 57343:1 57893:1 57960:1 57989:1 58135:1 58209:1 58344:1 58560:1 58568:1 58679:1 58815:1 58886:1 59121:1 59389:1 59481:1 59496:1 59965:1 59974:1 60188:1 60237:1 60244:1 60887:1 61279:1 61605:1 61671:1 62043:1 62965:1 62985:1 63046:1 63051:1 64128:1 64295:1 64393:1 64657:1 64782:1 64948:1 65236:1 65277:1 65329:1 65386:1 65934:1 66197:1 66248:1 66434:1 66864:1 67419:1 67466:1 67707:1 67745:1 68623:1 68630:1 68662:1 68781:1 68921:1 68936:1 69012:1 69040:1 69115:1 69252:1 69319:1 69519:1 69658:1 69683:1 69874:1 70134:1 70147:1 70813:1 70814:1 70937:1 70992:1 71153:1 71198:1 71291:1 71421:1 71439:1 71617:1 71618:1 71660:1 71823:1 71871:1 72320:1 72397:1 72435:1 73104:1 73181:1 73622:1 73747:1 73902:1 74338:1 75017:1 76051:1 76712:1 76733:1 76871:1 #
-0.0032384605415523765904739494914111 29129:1 29131:1 29383:1 29686:1 29953:1 30080:1 30098:1 30250:1 30286:1 30287:1 30690:1 30755:1 31335:1 31361:1 31421:1 31894:1 32535:1 32623:1 33520:1 33769:1 34387:1 35105:1 35386:1 35389:1 35462:1 35582:1 35658:1 35872:1 35921:1 36103:1 36196:1 36495:1 36512:1 36648:1 37163:1 37194:1 37343:1 37455:1 37485:1 37643:1 37692:1 37996:1 38080:1 38644:1 39051:1 39162:1 39201:1 39381:1 39755:1 40457:1 40488:1 40918:1 40946:1 41021:1 41134:1 41451:1 41495:1 41859:1 41862:1 41973:1 42190:1 42334:1 42541:1 43263:1 43373:1 43506:1 43568:1 43576:1 43673:1 43753:1 43924:1 44050:1 44237:1 44341:1 44803:1 44917:1 45128:1 45147:1 45167:1 46053:1 46344:1 46488:1 46560:1 46925:1 46926:1 46940:1 47421:1 47496:1 47633:1 47782:1 48462:1 48510:1 48587:1 48691:1 48841:1 49333:1 49520:1 49552:1 49658:1 49961:1 50488:1 50504:1 50791:1 50798:1 50808:1 50890:1 50976:1 51477:1 51720:1 52296:1 52900:1 53289:1 53466:1 53650:1 53743:1 53845:1 53925:1 54251:1 54540:1 54591:1 54999:1 55789:1 56028:1 56245:1 56491:1 56522:1 56564:1 56799:1 57325:1 57960:1 58284:1 58743:1 59965:1 60105:1 60142:1 60172:1 60847:1 61279:1 61518:1 61788:1 62364:1 63051:1 63302:1 63641:1 63845:1 64002:1 64058:1 64905:1 64948:1 65005:1 65236:1 65277:1 65450:1 65601:1 65627:1 66248:1 66434:1 66872:1 67177:1 67352:1 67419:1 67474:1 67744:1 68534:1 68623:1 68630:1 68795:1 68964:1 69012:1 69212:1 69252:1 69519:1 69570:1 69683:1 70134:1 70813:1 70814:1 70937:1 71291:1 71660:1 71894:1 72397:1 72567:1 73426:1 73890:1 73999:1 74289:1 74868:1 75254:1 75370:1 76248:1 76653:1 76733:1 76835:1 76873:1 #
0.0032384605415523765904739494914111 28713:1 28962:1 29029:1 29129:1 29131:1 29238:1 29641:1 29686:1 29953:1 30080:1 30229:1 30250:1 30286:1 30377:1 30473:1 30641:1 30708:1 30804:1 30871:1 31047:1 31114:1 31498:1 31621:1 31663:1 31706:1 31777:1 31881:1 31930:1 31938:1 32458:1 32535:1 32623:1 32936:1 33062:1 33078:1 33178:1 33752:1 33760:1 33769:1 33948:1 33983:1 34298:1 34364:1 34402:1 34576:1 34640:1 35031:1 35033:1 35366:1 35462:1 35463:1 35503:1 35628:1 35631:1 35714:1 35887:1 36103:1 36263:1 36722:1 36787:1 37044:1 37163:1 37213:1 37226:1 37455:1 37466:1 37603:1 37647:1 37726:1 37818:1 37870:1 38200:1 38214:1 38602:1 38805:1 38872:1 38914:1 38951:1 39201:1 39528:1 39648:1 39935:1 39998:1 40004:1 40136:1 40253:1 40289:1 40450:1 40702:1 40804:1 40840:1 41021:1 41128:1 41179:1 41288:1 41495:1 41582:1 41635:1 41857:1 41859:1 41862:1 41978:1 42124:1 42296:1 42326:1 42334:1 42533:1 42585:1 42619:1 42658:1 42680:1 42726:1 42973:1 43190:1 43441:1 43506:1 43574:1 43673:1 43676:1 43741:1 43753:1 43826:1 43901:1 43924:1 44050:1 44134:1 44190:1 44311:1 44349:1 44358:1 44520:1 44691:1 44827:1 45056:1 45164:1 45383:1 45584:1 45661:1 45918:1 46156:1 46370:1 46925:1 46940:1 47331:1 47496:1 47564:1 47702:1 47710:1 47816:1 47835:1 47911:1 48216:1 48429:1 48501:1 48510:1 48559:1 48587:1 49215:1 49291:1 49333:1 49424:1 49489:1 49639:1 49983:1 50096:1 50488:1 50617:1 50791:1 50798:1 50808:1 51122:1 51258:1 51450:1 51753:1 51794:1 51837:1 52054:1 52230:1 52766:1 52858:1 52941:1 53236:1 53269:1 53289:1 53420:1 53650:1 53747:1 53767:1 53845:1 53871:1 54540:1 54541:1 54582:1 54857:1 54973:1 54999:1 55108:1 55218:1 55677:1 55789:1 56031:1 56124:1 56243:1 56248:1 56282:1 56352:1 56379:1 56522:1 56801:1 57081:1 57249:1 57473:1 57960:1 58209:1 58345:1 58640:1 59105:1 59389:1 59485:1 59662:1 59853:1 59873:1 59940:1 59965:1 59983:1 60008:1 60028:1 60040:1 60341:1 60790:1 61279:1 61621:1 61638:1 62628:1 62789:1 62985:1 63423:1 63474:1 63694:1 63941:1 64109:1 64188:1 64895:1 64948:1 64998:1 65006:1 65095:1 65277:1 65329:1 65519:1 65658:1 65694:1 66120:1 66434:1 66488:1 66551:1 66705:1 66799:1 66920:1 67034:1 67213:1 67352:1 67383:1 67419:1 68475:1 68623:1 68630:1 68697:1 68698:1 68826:1 68960:1 69012:1 69519:1 70099:1 70134:1 70813:1 70814:1 70937:1 70988:1 71114:1 71146:1 71291:1 71429:1 71482:1 71594:1 71653:1 71823:1 71947:1 71965:1 71981:1 72107:1 72137:1 72148:1 72489:1 72584:1 73017:1 73104:1 73181:1 73182:1 73264:1 74278:1 74289:1 74474:1 74597:1 74745:1 74847:1 75021:1 75031:1 75113:1 75813:1 75896:1 75986:1 76248:1 76387:1 76733:1 #
-0.0032384605415523765904739494914111 28714:1 28813:1 29014:1 29045:1 29063:1 29084:1 29092:1 29129:1 29131:1 29158:1 29230:1 29238:1 29383:1 29597:1 29677:1 29686:1 29733:1 29927:1 29981:1 30080:1 30136:1 30182:1 30196:1 30250:1 30304:1 30473:1 30573:1 30595:1 30690:1 30755:1 30943:1 30970:1 31014:1 31050:1 31114:1 31343:1 31421:1 31508:1 31618:1 31663:1 31864:1 31881:1 31921:1 31932:1 32120:1 32182:1 32335:1 32458:1 32465:1 32535:1 32537:1 32623:1 32689:1 32949:1 33060:1 33062:1 33101:1 33331:1 33459:1 33490:1 33605:1 33618:1 33769:1 33836:1 34173:1 34226:1 34298:1 34342:1 34509:1 34582:1 34612:1 34636:1 35015:1 35018:1 35105:1 35185:1 35213:1 35386:1 35389:1 35462:1 35518:1 35628:1 35631:1 35656:1 35872:1 36064:1 36093:1 36103:1 36130:1 36132:1 36364:1 36410:1 36476:1 36583:1 36645:1 36679:1 36704:1 36707:1 37093:1 37163:1 37226:1 37455:1 37485:1 37643:1 37771:1 37795:1 37818:1 38080:1 38127:1 38162:1 38237:1 38406:1 38418:1 38472:1 38562:1 38639:1 38663:1 38678:1 38690:1 38805:1 38951:1 38999:1 39046:1 39162:1 39173:1 39201:1 39290:1 39299:1 39397:1 39422:1 39527:1 39528:1 39652:1 39671:1 39745:1 39750:1 39885:1 39998:1 40004:1 40136:1 40172:1 40185:1 40362:1 40450:1 40468:1 40491:1 40496:1 40614:1 40681:1 40685:1 40804:1 40832:1 40840:1 40867:1 41010:1 41021:1 41026:1 41115:1 41179:1 41270:1 41495:1 41543:1 41556:1 41802:1 41857:1 41859:1 41862:1 41906:1 41978:1 41990:1 42044:1 42048:1 42124:1 42144:1 42190:1 42334:1 42369:1 42454:1 42533:1 42619:1 42725:1 42733:1 42797:1 43301:1 43373:1 43473:1 43506:1 43568:1 43569:1 43576:1 43673:1 43734:1 43741:1 43756:1 43885:1 43916:1 43924:1 44116:1 44134:1 44136:1 44377:1 44425:1 44588:1 44604:1 44706:1 44715:1 44780:1 44917:1 45026:1 45056:1 45100:1 45143:1 45147:1 45434:1 45461:1 45584:1 45640:1 45661:1 45720:1 45787:1 45792:1 46100:1 46184:1 46328:1 46370:1 46376:1 46488:1 46658:1 46925:1 46926:1 46940:1 47075:1 47107:1 47111:1 47254:1 47423:1 47436:1 47496:1 47682:1 47754:1 47782:1 47785:1 47816:1 47828:1 47941:1 47970:1 48010:1 48426:1 48438:1 48587:1 48616:1 48702:1 48784:1 48946:1 49163:1 49190:1 49251:1 49333:1 49424:1 49520:1 49582:1 49592:1 49706:1 49707:1 49782:1 49873:1 49914:1 50031:1 50036:1 50063:1 50096:1 50285:1 50333:1 50488:1 50542:1 50621:1 50791:1 50798:1 50808:1 50860:1 50976:1 51103:1 51141:1 51253:1 51514:1 51695:1 51711:1 51760:1 51794:1 51841:1 52135:1 52230:1 52247:1 52296:1 52542:1 52620:1 52881:1 53269:1 53289:1 53301:1 53312:1 53545:1 53743:1 53754:1 53796:1 53845:1 53910:1 54035:1 54341:1 54460:1 54540:1 54541:1 54545:1 54591:1 54607:1 54641:1 54999:1 55010:1 55111:1 55636:1 55675:1 55677:1 55789:1 55863:1 55872:1 56031:1 56039:1 56058:1 56248:1 56261:1 56280:1 56364:1 56368:1 56514:1 56522:1 56535:1 56633:1 56657:1 56683:1 56718:1 56801:1 56907:1 56922:1 56966:1 57000:1 57127:1 57154:1 57236:1 57362:1 57443:1 57713:1 57728:1 57800:1 57960:1 57989:1 58003:1 58069:1 58126:1 58135:1 58196:1 58243:1 58286:1 58345:1 58471:1 58702:1 58886:1 58912:1 59161:1 59257:1 59283:1 59369:1 59389:1 59393:1 59413:1 59471:1 59485:1 59487:1 59694:1 60163:1 60172:1 60237:1 60310:1 60333:1 60454:1 60979:1 61112:1 61135:1 61279:1 61477:1 61605:1 61669:1 61716:1 61734:1 61829:1 61874:1 62121:1 62345:1 62422:1 62466:1 62592:1 62601:1 62662:1 62749:1 62985:1 63051:1 63423:1 63427:1 63491:1 63675:1 63860:1 63924:1 64002:1 64020:1 64058:1 64128:1 64222:1 64240:1 64295:1 64396:1 64863:1 64948:1 64998:1 65005:1 65006:1 65095:1 65164:1 65236:1 65277:1 65329:1 65513:1 65627:1 65888:1 66060:1 66079:1 66193:1 66248:1 66267:1 66414:1 66463:1 66488:1 66551:1 66705:1 66784:1 66836:1 66916:1 66919:1 66921:1 66924:1 66969:1 67025:1 67034:1 67036:1 67124:1 67197:1 67352:1 67359:1 67419:1 67535:1 67540:1 67544:1 67565:1 67767:1 67993:1 68053:1 68243:1 68372:1 68555:1 68595:1 68623:1 68697:1 68795:1 68872:1 68875:1 68966:1 69212:1 69232:1 69470:1 69509:1 69519:1 69567:1 69570:1 69594:1 69652:1 69683:1 69684:1 69862:1 69939:1 69969:1 70103:1 70117:1 70134:1 70219:1 70315:1 70355:1 70368:1 70654:1 70777:1 70813:1 70814:1 70821:1 70932:1 70937:1 70940:1 70962:1 70988:1 70992:1 71291:1 71349:1 71429:1 71439:1 71503:1 71618:1 71725:1 71871:1 71875:1 71901:1 71965:1 72397:1 72484:1 72489:1 72621:1 72625:1 72705:1 73140:1 73529:1 73622:1 73683:1 73770:1 73793:1 73890:1 73902:1 74058:1 74289:1 74458:1 74474:1 74509:1 74774:1 74983:1 75012:1 75148:1 75286:1 75647:1 75803:1 75853:1 76031:1 76051:1 76290:1 76522:1 76653:1 76733:1 76871:1 #
-0.0017036098715711477449841204645509 28752:1 28845:1 28881:1 28946:1 28986:1 29030:1 29129:1 29230:1 29238:1 29502:1 29518:1 29594:1 29686:1 29723:1 29773:1 29953:1 29981:1 30080:1 30164:1 30250:1 30573:1 30943:1 30991:1 31028:1 31221:1 31258:1 31359:1 31864:1 31881:1 31930:1 32017:1 32045:1 32052:1 32358:1 32367:1 32386:1 32398:1 32403:1 32428:1 32488:1 32535:1 32537:1 32562:1 32620:1 32623:1 32988:1 33007:1 33062:1 33178:1 33304:1 33309:1 33465:1 33490:1 33505:1 33526:1 33785:1 33948:1 33956:1 34148:1 34247:1 34294:1 34298:1 34387:1 34507:1 34576:1 34657:1 34754:1 34957:1 35018:1 35022:1 35127:1 35249:1 35269:1 35290:1 35386:1 35518:1 35620:1 35685:1 35866:1 35872:1 35925:1 35958:1 36034:1 36103:1 36170:1 36263:1 36364:1 36460:1 36648:1 36893:1 37120:1 37157:1 37163:1 37226:1 37399:1 37402:1 37455:1 37500:1 37546:1 37801:1 37839:1 38080:1 38379:1 38477:1 38628:1 38678:1 38690:1 38691:1 38867:1 38914:1 39019:1 39162:1 39171:1 39201:1 39463:1 39506:1 39528:1 39644:1 39880:1 39920:1 39998:1 40004:1 40077:1 40090:1 40094:1 40172:1 40210:1 40345:1 40368:1 40372:1 40374:1 40480:1 40485:1 40528:1 40804:1 40892:1 40993:1 41021:1 41235:1 41495:1 41793:1 41802:1 41856:1 41857:1 41859:1 41862:1 41990:1 42214:1 42216:1 42267:1 42326:1 42334:1 42533:1 42539:1 42554:1 42610:1 42641:1 42680:1 42759:1 42786:1 42800:1 42885:1 43004:1 43065:1 43155:1 43172:1 43185:1 43257:1 43373:1 43401:1 43427:1 43506:1 43525:1 43568:1 43574:1 43576:1 43673:1 43691:1 43741:1 43799:1 43901:1 43909:1 43924:1 44201:1 44354:1 44588:1 44700:1 44715:1 44917:1 45056:1 45391:1 45486:1 45584:1 45661:1 45773:1 46128:1 46349:1 46370:1 46420:1 46488:1 46847:1 46915:1 46925:1 46926:1 46940:1 47135:1 47254:1 47331:1 47332:1 47423:1 47496:1 47526:1 47652:1 48064:1 48197:1 48279:1 48379:1 48408:1 48428:1 48466:1 48587:1 48672:1 49125:1 49150:1 49197:1 49333:1 49335:1 49424:1 49445:1 49454:1 49457:1 49552:1 49645:1 49713:1 49824:1 49873:1 49995:1 50042:1 50096:1 50365:1 50542:1 50575:1 50621:1 50777:1 50791:1 50798:1 50808:1 50930:1 50950:1 51060:1 51103:1 51285:1 51720:1 51820:1 51845:1 52068:1 52135:1 52296:1 52315:1 52456:1 52542:1 52618:1 52900:1 52975:1 53054:1 53251:1 53269:1 53289:1 53373:1 53403:1 53845:1 53872:1 54352:1 54448:1 54451:1 54507:1 54540:1 54541:1 54779:1 54892:1 54969:1 55135:1 55189:1 55455:1 55623:1 55677:1 55719:1 55789:1 56001:1 56018:1 56028:1 56031:1 56266:1 56522:1 56564:1 56954:1 56966:1 57043:1 57056:1 57081:1 57136:1 57310:1 57362:1 57408:1 57419:1 57839:1 57960:1 58103:1 58181:1 58237:1 58345:1 58511:1 58576:1 58688:1 58689:1 58762:1 58782:1 58886:1 58956:1 58967:1 59121:1 59169:1 59273:1 59372:1 59389:1 59487:1 59941:1 59965:1 60040:1 60143:1 60188:1 60349:1 61168:1 61279:1 61281:1 61467:1 61541:1 61555:1 61877:1 61947:1 62030:1 62090:1 62216:1 62422:1 62589:1 62749:1 62985:1 63012:1 63051:1 63329:1 63481:1 63520:1 63585:1 63675:1 63694:1 63887:1 64002:1 64019:1 64058:1 64109:1 64182:1 64188:1 64196:1 64219:1 64221:1 64254:1 64264:1 64377:1 64396:1 64522:1 64548:1 64560:1 64793:1 64824:1 64948:1 65006:1 65106:1 65115:1 65236:1 65277:1 65329:1 65386:1 65658:1 65699:1 65811:1 65844:1 65864:1 66157:1 66193:1 66280:1 66383:1 66419:1 66434:1 66510:1 66689:1 66705:1 66775:1 66897:1 66975:1 67251:1 67419:1 67483:1 67565:1 67847:1 67993:1 68045:1 68353:1 68623:1 68630:1 69012:1 69104:1 69107:1 69218:1 69308:1 69338:1 69406:1 69570:1 69574:1 69683:1 69785:1 69939:1 70092:1 70134:1 70258:1 70291:1 70440:1 70521:1 70588:1 70813:1 70814:1 70848:1 70876:1 70937:1 70988:1 71146:1 71198:1 71291:1 71338:1 71382:1 71429:1 71555:1 71632:1 71657:1 71901:1 71958:1 72017:1 72121:1 72186:1 72467:1 72489:1 72581:1 72630:1 72930:1 72951:1 73361:1 73529:1 73772:1 73900:1 73902:1 74299:1 74423:1 74474:1 74658:1 74745:1 75123:1 75286:1 75333:1 75575:1 75655:1 75799:1 75908:1 75935:1 76031:1 76047:1 76051:1 76531:1 76620:1 76653:1 76871:1 #
-0.0029919712751402568855219055166117 28795:1 28832:1 28881:1 29129:1 29131:1 29230:1 29238:1 29404:1 29518:1 29594:1 29670:1 29677:1 29686:1 29851:1 29857:1 29953:1 29964:1 30080:1 30207:1 30250:1 30348:1 30573:1 30943:1 31114:1 31199:1 31361:1 31663:1 31729:1 31881:1 32017:1 32229:1 32491:1 32535:1 32623:1 32949:1 32951:1 33007:1 33062:1 33325:1 33461:1 33609:1 33769:1 33794:1 33821:1 33883:1 33910:1 33911:1 33948:1 33982:1 33997:1 34029:1 34313:1 34362:1 34402:1 34553:1 34559:1 34721:1 34754:1 35105:1 35154:1 35212:1 35257:1 35366:1 35571:1 35582:1 35594:1 35613:1 35747:1 35777:1 35872:1 35884:1 35958:1 36088:1 36103:1 36130:1 36364:1 36471:1 36631:1 37020:1 37163:1 37226:1 37273:1 37402:1 37485:1 37645:1 37802:1 37818:1 38010:1 38080:1 38169:1 38255:1 38571:1 38628:1 38644:1 38678:1 38796:1 38805:1 38966:1 39201:1 39422:1 39527:1 39982:1 39998:1 40004:1 40094:1 40436:1 40495:1 40554:1 40832:1 40892:1 40904:1 41014:1 41021:1 41451:1 41802:1 41805:1 41857:1 41859:1 41862:1 41889:1 41978:1 42038:1 42047:1 42050:1 42124:1 42299:1 42334:1 42437:1 42533:1 42536:1 42885:1 43031:1 43123:1 43161:1 43373:1 43506:1 43568:1 43574:1 43576:1 43924:1 44201:1 44216:1 44440:1 44557:1 44891:1 45039:1 45056:1 45064:1 45434:1 45661:1 45793:1 45898:1 45934:1 45942:1 46100:1 46293:1 46370:1 46427:1 46847:1 46925:1 46926:1 46940:1 47135:1 47341:1 47423:1 47615:1 47649:1 47710:1 48010:1 48064:1 48108:1 48189:1 48197:1 48262:1 48559:1 48587:1 49072:1 49333:1 49424:1 49534:1 49873:1 49905:1 50096:1 50488:1 50663:1 50791:1 50796:1 50798:1 50808:1 51711:1 51720:1 51994:1 52151:1 52179:1 52230:1 52296:1 52614:1 52695:1 53269:1 53373:1 53383:1 53545:1 53650:1 53743:1 53845:1 53876:1 53914:1 53993:1 54289:1 54504:1 54540:1 54541:1 54595:1 54613:1 54793:1 54999:1 55010:1 55040:1 55079:1 55455:1 55527:1 55677:1 55863:1 56031:1 56168:1 56248:1 56267:1 56447:1 56522:1 56633:1 56638:1 56693:1 56884:1 56954:1 56966:1 57081:1 57800:1 57890:1 57960:1 58118:1 58209:1 58640:1 58688:1 58724:1 58886:1 58912:1 59257:1 59372:1 59389:1 59487:1 59518:1 59522:1 59856:1 59965:1 60008:1 60163:1 60188:1 60203:1 60804:1 61102:1 61250:1 61279:1 61605:1 61674:1 61948:1 62170:1 62302:1 62453:1 62466:1 62467:1 62576:1 62601:1 62737:1 62965:1 62985:1 63053:1 63160:1 63498:1 63694:1 63845:1 63924:1 64056:1 64058:1 64109:1 64188:1 64243:1 64396:1 64529:1 64685:1 64722:1 64948:1 64998:1 65006:1 65277:1 65329:1 65386:1 65620:1 65658:1 65811:1 66197:1 66417:1 66434:1 66510:1 66540:1 66705:1 66862:1 66864:1 67352:1 67419:1 68115:1 68294:1 68327:1 68482:1 68600:1 68623:1 68630:1 68755:1 68826:1 68960:1 69012:1 69228:1 69318:1 69483:1 69683:1 69914:1 70134:1 70144:1 70291:1 70813:1 70814:1 70937:1 70988:1 71012:1 71059:1 71291:1 71835:1 71955:1 71965:1 71981:1 72008:1 72213:1 72397:1 72418:1 72435:1 72442:1 72536:1 72581:1 72630:1 72636:1 72695:1 72789:1 72889:1 73012:1 73036:1 73104:1 73902:1 73919:1 74116:1 74267:1 75012:1 75021:1 75113:1 75129:1 75320:1 75647:1 75672:1 75728:1 75759:1 75853:1 76160:1 76422:1 76653:1 76733:1 76743:1 76772:1 #
-9.725685894957583220356983622068e-05 28711:1 28813:1 28881:1 29129:1 29131:1 29238:1 29682:1 29737:1 29900:1 29981:1 30002:1 30080:1 30191:1 30207:1 30220:1 30332:1 30473:1 30558:1 30612:1 30690:1 30968:1 31089:1 31114:1 31258:1 31421:1 31663:1 31881:1 32302:1 32478:1 32623:1 32865:1 33110:1 33314:1 33483:1 33569:1 33704:1 33982:1 34313:1 34559:1 34571:1 34576:1 34597:1 34839:1 35105:1 35283:1 35323:1 35656:1 35657:1 35872:1 36039:1 36130:1 36263:1 36346:1 36569:1 36679:1 37019:1 37120:1 37163:1 37226:1 37305:1 37385:1 37485:1 37797:1 37919:1 38080:1 38091:1 38200:1 38562:1 38678:1 38690:1 38805:1 39051:1 39162:1 39201:1 39527:1 39837:1 39880:1 39998:1 40004:1 40102:1 40172:1 40370:1 40488:1 40822:1 40892:1 40944:1 41021:1 41165:1 41179:1 41231:1 41235:1 41451:1 41495:1 41617:1 41635:1 41702:1 41802:1 41836:1 41857:1 41859:1 41862:1 41972:1 42298:1 42437:1 42533:1 42539:1 42585:1 42658:1 42831:1 42940:1 43012:1 43239:1 43273:1 43326:1 43373:1 43506:1 43568:1 43574:1 43576:1 43676:1 43741:1 43764:1 43924:1 43976:1 44050:1 44098:1 44116:1 44190:1 44200:1 44349:1 44425:1 44943:1 45064:1 45294:1 45563:1 45637:1 45720:1 45746:1 45818:1 46132:1 46328:1 46370:1 46488:1 46857:1 46925:1 46926:1 47353:1 47421:1 47423:1 47496:1 47561:1 47816:1 48144:1 48216:1 48587:1 48656:1 48761:1 48946:1 49298:1 49333:1 49454:1 49552:1 49706:1 49914:1 50096:1 50272:1 50277:1 50488:1 50574:1 50791:1 50798:1 50808:1 51005:1 51046:1 51103:1 51148:1 51178:1 51385:1 51399:1 51711:1 51995:1 52164:1 52165:1 52296:1 52645:1 52881:1 53269:1 53416:1 53449:1 53845:1 54055:1 54511:1 54540:1 54678:1 54793:1 55010:1 55119:1 55755:1 55884:1 56031:1 56248:1 56251:1 56359:1 56368:1 56522:1 56633:1 56800:1 57127:1 57219:1 57316:1 57362:1 57575:1 57700:1 57960:1 57984:1 58039:1 58196:1 58209:1 58459:1 58640:1 58719:1 58743:1 58910:1 59257:1 59372:1 59389:1 59522:1 59719:1 59796:1 59940:1 59965:1 60008:1 60109:1 60339:1 60779:1 60791:1 60934:1 61409:1 61541:1 61734:1 62219:1 62442:1 62576:1 63382:1 63860:1 63924:1 64002:1 64058:1 64109:1 64254:1 64574:1 64632:1 64948:1 65277:1 65365:1 65462:1 65627:1 65658:1 65961:1 66434:1 66559:1 66689:1 66705:1 66921:1 67034:1 67197:1 67352:1 67365:1 67385:1 67451:1 67748:1 67772:1 67871:1 67899:1 67918:1 68278:1 68366:1 68623:1 68630:1 68698:1 68733:1 68960:1 69012:1 69210:1 69519:1 69570:1 69587:1 69785:1 70092:1 70104:1 70134:1 70696:1 70712:1 70748:1 70813:1 70937:1 70988:1 71138:1 71291:1 71483:1 71824:1 72142:1 72468:1 72630:1 72998:1 73132:1 73140:1 73529:1 73658:1 73918:1 74289:1 74397:1 74621:1 75093:1 75235:1 75370:1 75647:1 75771:1 75896:1 76051:1 76394:1 76490:1 76653:1 76733:1 #
-0.0032384605415523765904739494914111 28813:1 29129:1 29131:1 29230:1 29285:1 29305:1 29686:1 29890:1 30207:1 30250:1 31222:1 31343:1 31361:1 31421:1 31894:1 32017:1 32210:1 32512:1 32623:1 33753:1 33769:1 34297:1 34402:1 34404:1 34559:1 34576:1 34997:1 35018:1 35301:1 35620:1 35628:1 35925:1 36103:1 36186:1 36346:1 36512:1 37163:1 37226:1 38200:1 38618:1 39051:1 39201:1 39527:1 40004:1 40024:1 40077:1 40457:1 40488:1 40876:1 40918:1 40995:1 41097:1 41802:1 41859:1 42092:1 42334:1 42533:1 42585:1 42619:1 42885:1 43004:1 43506:1 43576:1 43741:1 43753:1 43924:1 45434:1 45563:1 45661:1 45720:1 45921:1 45982:1 46053:1 46087:1 46488:1 46698:1 46925:1 46926:1 46940:1 47383:1 47423:1 47496:1 47710:1 47785:1 48216:1 48335:1 48472:1 48587:1 48724:1 48761:1 49333:1 49520:1 49534:1 50053:1 50096:1 50488:1 50791:1 50798:1 50808:1 50943:1 51122:1 51134:1 52165:1 52620:1 52665:1 53083:1 53269:1 53845:1 54119:1 54613:1 54763:1 55414:1 56031:1 56248:1 56522:1 56633:1 57960:1 58209:1 58640:1 58679:1 58688:1 59139:1 59372:1 59389:1 59456:1 60345:1 61279:1 61283:1 61669:1 62345:1 62985:1 64002:1 64391:1 64769:1 64798:1 64905:1 64948:1 64998:1 65173:1 65236:1 65277:1 65386:1 65532:1 65564:1 65573:1 66280:1 66434:1 66705:1 66862:1 67034:1 67182:1 67273:1 68600:1 68623:1 68630:1 68698:1 68826:1 68868:1 68960:1 69012:1 69123:1 69519:1 70134:1 70654:1 70672:1 70813:1 71186:1 71291:1 71726:1 71849:1 72435:1 72775:1 72838:1 73918:1 74106:1 74278:1 75370:1 76031:1 76051:1 76189:1 76277:1 76653:1 #
0.0032384605415523765904739494914111 28988:1 29129:1 29238:1 29366:1 29686:1 29953:1 30080:1 30111:1 30328:1 30473:1 30612:1 31391:1 32512:1 32623:1 33997:1 34390:1 34636:1 35011:1 35120:1 35269:1 35925:1 37120:1 37163:1 37402:1 37485:1 38639:1 38805:1 39201:1 39335:1 39880:1 39998:1 40288:1 40735:1 40892:1 40904:1 40993:1 41010:1 41021:1 41235:1 41857:1 41859:1 42533:1 42862:1 43373:1 43506:1 43569:1 43576:1 43924:1 44116:1 44434:1 46488:1 46489:1 46560:1 46857:1 46925:1 46926:1 46940:1 47682:1 48013:1 49333:1 49873:1 50156:1 50798:1 50808:1 51170:1 51628:1 51668:1 53251:1 53269:1 53289:1 53386:1 53743:1 53845:1 54119:1 54929:1 56028:1 56039:1 56248:1 56633:1 57738:1 57960:1 58135:1 58209:1 58457:1 59257:1 59273:1 59694:1 60105:1 61279:1 62442:1 63845:1 64002:1 64056:1 64058:1 64525:1 64948:1 65277:1 65512:1 65895:1 66434:1 66488:1 66919:1 67604:1 68290:1 68623:1 68684:1 69903:1 69939:1 70134:1 70654:1 70813:1 70937:1 70992:1 71291:1 71653:1 71660:1 71871:1 73902:1 74116:1 75574:1 75725:1 75759:1 75853:1 76189:1 76756:1 #
0.0015441502756795820201080049471898 28686:1 28753:1 28777:1 29020:1 29030:1 29129:1 29131:1 29230:1 29238:1 29389:1 29686:1 29699:1 29867:1 29953:1 29965:1 30080:1 30083:1 30191:1 30473:1 30588:1 30755:1 31241:1 31335:1 31361:1 31421:1 31455:1 31618:1 31663:1 31864:1 32120:1 32132:1 32367:1 32458:1 32512:1 32535:1 32537:1 32555:1 32597:1 32623:1 32937:1 33062:1 33130:1 33609:1 33911:1 34170:1 34230:1 34479:1 34576:1 34612:1 34671:1 35269:1 35386:1 35462:1 35518:1 35582:1 35628:1 35651:1 35769:1 35872:1 36088:1 36093:1 36103:1 36318:1 36808:1 37025:1 37120:1 37163:1 37210:1 37226:1 37232:1 37455:1 37479:1 37485:1 37603:1 37893:1 38080:1 38124:1 38403:1 38418:1 38639:1 38771:1 39201:1 39297:1 39335:1 39355:1 39394:1 39523:1 39880:1 39998:1 40457:1 40488:1 40804:1 41021:1 41115:1 41235:1 41495:1 41794:1 41802:1 41859:1 41906:1 41978:1 42124:1 42192:1 42217:1 42260:1 42276:1 42312:1 42334:1 42369:1 42533:1 42539:1 42708:1 42949:1 43148:1 43161:1 43259:1 43373:1 43506:1 43568:1 43569:1 43574:1 43576:1 43673:1 43741:1 43753:1 43791:1 43924:1 43986:1 44157:1 44231:1 44253:1 44715:1 44770:1 44917:1 45056:1 45128:1 45147:1 45286:1 45298:1 45330:1 45346:1 45422:1 45434:1 46100:1 46370:1 46658:1 46925:1 46926:1 46940:1 47542:1 47617:1 47682:1 47724:1 47884:1 48462:1 48587:1 49251:1 49333:1 49424:1 49520:1 49534:1 49629:1 49658:1 49673:1 49713:1 49775:1 49873:1 50147:1 50791:1 50796:1 50798:1 50808:1 51251:1 52230:1 52274:1 52296:1 52682:1 52684:1 53373:1 53497:1 53650:1 53666:1 53845:1 54613:1 55574:1 55588:1 55677:1 55873:1 56028:1 56031:1 56036:1 56039:1 56118:1 56248:1 56564:1 56633:1 56726:1 57325:1 57960:1 58209:1 58268:1 58710:1 58963:1 59273:1 59327:1 59369:1 59413:1 59959:1 60008:1 60040:1 60104:1 60105:1 60142:1 60188:1 60237:1 60266:1 60367:1 60847:1 61006:1 61274:1 61280:1 61318:1 61674:1 61734:1 61788:1 62219:1 62422:1 62442:1 62507:1 62592:1 62698:1 62699:1 63130:1 63278:1 63887:1 64002:1 64050:1 64058:1 64109:1 64254:1 64396:1 64439:1 64529:1 64948:1 64959:1 64998:1 65236:1 65557:1 65573:1 65864:1 65904:1 65961:1 66112:1 66161:1 66193:1 66248:1 66280:1 66434:1 66705:1 66760:1 66934:1 66963:1 67745:1 68054:1 68334:1 68341:1 68623:1 68697:1 68698:1 68960:1 69012:1 69062:1 69429:1 69683:1 69785:1 69939:1 69998:1 70144:1 70813:1 70814:1 70851:1 70937:1 70979:1 70988:1 71228:1 71291:1 71349:1 71431:1 71439:1 71901:1 72237:1 72397:1 72489:1 72695:1 72743:1 72775:1 73291:1 73463:1 74745:1 75012:1 75017:1 75031:1 75150:1 75484:1 75853:1 75871:1 75907:1 76031:1 76051:1 76653:1 76772:1 #
0.0032384605415523765904739494914111 28813:1 29129:1 29131:1 29238:1 29657:1 29686:1 29857:1 29953:1 29981:1 30080:1 30207:1 30250:1 30286:1 30473:1 30755:1 30943:1 31086:1 31089:1 31134:1 31189:1 31343:1 31430:1 31506:1 31700:1 31777:1 32017:1 32050:1 32512:1 32535:1 32623:1 33060:1 33062:1 33343:1 33490:1 33593:1 33627:1 33802:1 33884:1 34320:1 34387:1 34576:1 34775:1 35011:1 35018:1 35257:1 35582:1 35628:1 35884:1 36039:1 36199:1 36318:1 36364:1 36410:1 36971:1 37163:1 37286:1 37324:1 37423:1 37455:1 37463:1 37466:1 37485:1 37762:1 38080:1 38200:1 38608:1 38639:1 38690:1 38929:1 39031:1 39162:1 39201:1 39497:1 39676:1 39720:1 39880:1 39920:1 39935:1 39998:1 40342:1 40528:1 40572:1 40628:1 40664:1 40786:1 40832:1 40993:1 41010:1 41021:1 41288:1 41495:1 41802:1 41857:1 41859:1 41862:1 41978:1 42190:1 42236:1 42334:1 42404:1 42533:1 42554:1 42556:1 42736:1 42746:1 42885:1 43004:1 43092:1 43313:1 43341:1 43373:1 43506:1 43568:1 43569:1 43724:1 43741:1 43753:1 43921:1 43924:1 44125:1 44341:1 44375:1 44480:1 45243:1 45661:1 45793:1 45854:1 45992:1 46074:1 46100:1 46117:1 46317:1 46388:1 46560:1 46847:1 46857:1 46925:1 46926:1 47331:1 47561:1 47782:1 47918:1 48110:1 48131:1 48462:1 48510:1 48587:1 48691:1 48841:1 48933:1 49125:1 49251:1 49333:1 49520:1 49534:1 49558:1 49873:1 49908:1 50053:1 50206:1 50488:1 50515:1 50791:1 50798:1 50808:1 51122:1 51668:1 51695:1 51711:1 52433:1 52879:1 52891:1 52900:1 53236:1 53269:1 53743:1 53766:1 53845:1 54258:1 54518:1 54540:1 55218:1 55789:1 56017:1 56028:1 56248:1 56391:1 56397:1 56633:1 57047:1 57081:1 57513:1 57624:1 57724:1 57960:1 58051:1 58081:1 58209:1 58320:1 58688:1 59257:1 59369:1 59372:1 59374:1 59487:1 59662:1 59965:1 60188:1 60776:1 61279:1 61669:1 61678:1 61788:1 62228:1 62363:1 64002:1 64058:1 64109:1 64254:1 64377:1 64394:1 64396:1 64798:1 64895:1 64948:1 64998:1 65236:1 65277:1 65557:1 65570:1 65627:1 65864:1 66017:1 66158:1 66248:1 66434:1 66488:1 66493:1 66653:1 66705:1 66769:1 66919:1 67124:1 67415:1 68252:1 68571:1 68595:1 68600:1 68623:1 68664:1 68960:1 69012:1 69098:1 69126:1 69221:1 69252:1 69522:1 69570:1 69683:1 70134:1 70224:1 70258:1 70269:1 70285:1 70336:1 70533:1 70654:1 70813:1 70889:1 70937:1 70992:1 71291:1 71439:1 71618:1 71653:1 71660:1 71965:1 72124:1 72312:1 72397:1 72435:1 72581:1 72705:1 72711:1 72923:1 73319:1 73719:1 73836:1 74729:1 75144:1 75205:1 75370:1 75449:1 75546:1 75759:1 76031:1 76238:1 76543:1 76733:1 76825:1 #
0.001165082854122675808106190942226 29092:1 29129:1 29131:1 29383:1 29594:1 29686:1 29853:1 29914:1 30080:1 30207:1 30250:1 30473:1 30595:1 30612:1 30755:1 31384:1 31864:1 31881:1 32358:1 32537:1 32623:1 33062:1 33253:1 33279:1 33578:1 33911:1 34247:1 34313:1 35018:1 35463:1 35718:1 35963:1 36268:1 36318:1 36571:1 37163:1 37455:1 37487:1 37777:1 37833:1 37938:1 38486:1 38980:1 39048:1 39880:1 40026:1 40440:1 40488:1 40832:1 41021:1 41495:1 41857:1 41859:1 41862:1 41940:1 42038:1 42069:1 42124:1 42242:1 42484:1 42533:1 42873:1 43118:1 43177:1 43191:1 43373:1 43506:1 43568:1 43673:1 43696:1 43753:1 43901:1 43924:1 44025:1 44161:1 44740:1 44823:1 45056:1 45153:1 45661:1 45720:1 46014:1 46370:1 46851:1 46925:1 46926:1 47423:1 47701:1 47710:1 47927:1 48131:1 48559:1 48587:1 48616:1 48991:1 49333:1 49440:1 49461:1 49701:1 49706:1 49928:1 50075:1 50152:1 50791:1 50798:1 51464:1 51674:1 51695:1 51711:1 52012:1 52944:1 53164:1 53337:1 53437:1 53545:1 53667:1 53845:1 53871:1 54042:1 54857:1 54966:1 55863:1 56031:1 56248:1 56966:1 57215:1 57332:1 57868:1 57960:1 58345:1 58586:1 59273:1 59796:1 60008:1 60804:1 61669:1 61734:1 61788:1 62199:1 62502:1 63845:1 64058:1 64254:1 64529:1 64548:1 64574:1 64948:1 64951:1 65006:1 65173:1 65277:1 65386:1 65519:1 65532:1 65997:1 66193:1 66614:1 66705:1 66862:1 67419:1 67544:1 67709:1 67847:1 68481:1 68595:1 68623:1 68660:1 69570:1 69582:1 69683:1 69808:1 70258:1 70813:1 70932:1 70988:1 71406:1 71618:1 71657:1 72232:1 73101:1 73140:1 74278:1 74289:1 74331:1 74513:1 75647:1 75871:1 76192:1 76779:1 76805:1 #
0.0027017277000580173194899114008649 28777:1 28792:1 29129:1 29686:1 29908:1 30080:1 30182:1 30207:1 30473:1 30861:1 31089:1 31580:1 31663:1 31985:1 32623:1 32867:1 33769:1 33785:1 34404:1 34428:1 34436:1 34530:1 34650:1 35105:1 35260:1 35389:1 35658:1 35747:1 37163:1 37226:1 37455:1 37485:1 38080:1 38211:1 38334:1 38690:1 38805:1 38831:1 39040:1 39126:1 39162:1 39340:1 39688:1 39746:1 39880:1 39883:1 39998:1 40728:1 40735:1 40832:1 41021:1 41699:1 41802:1 41857:1 41859:1 41990:1 42334:1 42750:1 42873:1 42907:1 43004:1 43031:1 43191:1 43373:1 43506:1 43576:1 43924:1 44096:1 44116:1 44377:1 44533:1 45056:1 45243:1 45435:1 45465:1 46215:1 46479:1 46847:1 46857:1 46925:1 46926:1 47710:1 47777:1 48222:1 49333:1 49349:1 49713:1 49873:1 49914:1 50096:1 50151:1 50574:1 50693:1 50749:1 50791:1 50798:1 50924:1 51043:1 51103:1 51258:1 52648:1 52682:1 52766:1 52879:1 53289:1 53497:1 53845:1 54123:1 54233:1 54282:1 54391:1 54402:1 54540:1 54541:1 54973:1 56488:1 56968:1 57043:1 57780:1 57960:1 58135:1 58320:1 58640:1 59121:1 59273:1 59855:1 59940:1 59965:1 60008:1 60040:1 60124:1 60188:1 60191:1 60310:1 60790:1 60979:1 61567:1 62030:1 62130:1 62422:1 62443:1 62628:1 62635:1 62815:1 62926:1 62985:1 64058:1 64254:1 64591:1 64863:1 64895:1 64948:1 65006:1 65236:1 65277:1 65532:1 65627:1 65830:1 66248:1 66434:1 66488:1 66598:1 66705:1 66750:1 66852:1 67751:1 67988:1 68623:1 68890:1 69012:1 69104:1 70134:1 70211:1 70748:1 70799:1 70813:1 70851:1 70889:1 70932:1 70937:1 71198:1 71291:1 71503:1 72320:1 72325:1 72397:1 72535:1 72580:1 72789:1 73385:1 73678:1 74289:1 75155:1 75438:1 76031:1 76051:1 76733:1 #
-0.0032384605415523765904739494914111 29129:1 30250:1 32006:1 32535:1 40488:1 41802:1 46925:1 46926:1 50488:1 50791:1 53845:1 64948:1 65627:1 67115:1 67273:1 71291:1 74729:1 #
-0.0032384605415523765904739494914111 28680:1 29129:1 29131:1 29230:1 29456:1 29501:1 29843:1 29981:1 30080:1 30588:1 30755:1 31114:1 31640:1 31729:1 31881:1 32623:1 33257:1 33744:1 35108:1 35518:1 35910:1 36254:1 37163:1 37226:1 37402:1 37423:1 37455:1 37501:1 37807:1 38080:1 38951:1 39162:1 39201:1 39528:1 39580:1 39674:1 40172:1 40806:1 40832:1 41021:1 41699:1 41802:1 41857:1 41859:1 42158:1 42533:1 42885:1 43373:1 43574:1 43673:1 43820:1 43924:1 43943:1 43955:1 44917:1 45486:1 45808:1 46184:1 46370:1 46560:1 46925:1 46926:1 46929:1 47111:1 47329:1 47682:1 48160:1 48530:1 48853:1 50003:1 50791:1 50798:1 51004:1 52470:1 53151:1 53251:1 53419:1 53845:1 56031:1 56032:1 56801:1 57513:1 57587:1 57595:1 57960:1 58066:1 58135:1 58506:1 58623:1 58968:1 59257:1 61674:1 62118:1 62360:1 63860:1 64396:1 64591:1 64948:1 65277:1 65743:1 66069:1 66557:1 66862:1 66919:1 67745:1 67898:1 68243:1 68534:1 69062:1 69429:1 69543:1 69677:1 70119:1 70176:1 70291:1 70813:1 70937:1 70988:1 71291:1 71439:1 71738:1 72983:1 73658:1 74007:1 76051:1 76653:1 #
-0.0032384605415523765904739494914111 28752:1 28777:1 29129:1 31013:1 31864:1 32535:1 32623:1 33007:1 33280:1 33437:1 35074:1 35628:1 35884:1 37402:1 39394:1 40102:1 41451:1 41862:1 42437:1 43373:1 43506:1 43741:1 43924:1 45056:1 46925:1 47111:1 47754:1 48216:1 50791:1 50798:1 50943:1 53449:1 57700:1 58511:1 58808:1 60008:1 60266:1 62302:1 66112:1 66193:1 66705:1 66919:1 68623:1 68630:1 68746:1 70134:1 72435:1 75031:1 75311:1 75666:1 #
-0.0032384605415523765904739494914111 29129:1 29450:1 29657:1 29686:1 29867:1 29889:1 30080:1 30398:1 31241:1 31621:1 31720:1 32017:1 32029:1 32358:1 32416:1 32458:1 32527:1 32623:1 33039:1 33359:1 33385:1 33528:1 33765:1 33769:1 34099:1 35340:1 35462:1 35467:1 36103:1 36318:1 37163:1 37546:1 38080:1 38200:1 38678:1 38712:1 39040:1 39201:1 39935:1 40035:1 40488:1 41006:1 41021:1 41495:1 41836:1 41857:1 41862:1 42369:1 42480:1 42726:1 43506:1 43574:1 43741:1 43764:1 43924:1 45312:1 46053:1 46729:1 46847:1 46925:1 46926:1 47379:1 47383:1 47423:1 47675:1 47782:1 48274:1 48462:1 48494:1 48587:1 48593:1 49814:1 50470:1 50791:1 50796:1 50798:1 50924:1 51421:1 52620:1 52665:1 52794:1 53845:1 54119:1 54125:1 54223:1 54636:1 55718:1 56118:1 57960:1 58135:1 58209:1 58284:1 59262:1 59369:1 60039:1 60105:1 60253:1 60373:1 60543:1 60766:1 61102:1 61279:1 61678:1 63055:1 64058:1 64185:1 64254:1 64948:1 65660:1 65661:1 65904:1 66248:1 67652:1 68623:1 68781:1 69012:1 69531:1 69683:1 69998:1 70155:1 70813:1 70889:1 70988:1 71291:1 71406:1 71430:1 71439:1 71555:1 72023:1 72695:1 73247:1 73429:1 73890:1 74289:1 75680:1 76026:1 76031:1 #
-0.0032384605415523765904739494914111 29129:1 29981:1 30080:1 30149:1 30250:1 31777:1 31881:1 32623:1 33060:1 33335:1 33528:1 34313:1 34576:1 35582:1 36583:1 37163:1 37226:1 37485:1 38678:1 38691:1 38929:1 39201:1 40438:1 40440:1 40804:1 41010:1 41021:1 41471:1 41495:1 41636:1 41848:1 41862:1 42326:1 42901:1 43373:1 43506:1 43607:1 43924:1 44231:1 44354:1 45056:1 45286:1 45793:1 46143:1 46925:1 46926:1 46940:1 47872:1 48587:1 48829:1 49197:1 49685:1 49873:1 49948:1 49983:1 50791:1 50798:1 51705:1 51794:1 52009:1 52036:1 53071:1 53845:1 54540:1 55414:1 57362:1 57960:1 58135:1 58209:1 58886:1 59328:1 59385:1 60685:1 61253:1 61613:1 62363:1 64002:1 64948:1 65658:1 66193:1 67036:1 67807:1 67831:1 68697:1 68698:1 68960:1 69019:1 69379:1 70813:1 70937:1 71291:1 71439:1 71905:1 72630:1 72885:1 73651:1 73902:1 76387:1 76547:1 #
-0.001785204640441699543845777142792 28752:1 29129:1 29230:1 29238:1 29571:1 29686:1 29876:1 29927:1 30080:1 30250:1 30272:1 30558:1 30573:1 30591:1 30755:1 30979:1 31013:1 31114:1 31433:1 31580:1 31864:1 31985:1 32050:1 32083:1 32311:1 32318:1 32358:1 32374:1 32535:1 32623:1 32838:1 32865:1 33359:1 33618:1 33785:1 34265:1 34402:1 34509:1 34559:1 34576:1 34636:1 34681:1 34957:1 35582:1 35672:1 36106:1 36132:1 36591:1 36707:1 37000:1 37095:1 37120:1 37163:1 37226:1 37455:1 37485:1 37511:1 37762:1 37818:1 37938:1 38080:1 38091:1 38379:1 38571:1 38690:1 38805:1 39020:1 39335:1 39394:1 39528:1 39678:1 39880:1 39935:1 39998:1 40172:1 40253:1 40823:1 40832:1 40993:1 41010:1 41021:1 41079:1 41115:1 41165:1 41360:1 41802:1 41852:1 41857:1 41859:1 41862:1 41906:1 41940:1 41972:1 42121:1 42143:1 42334:1 42437:1 42533:1 42554:1 42641:1 42901:1 42907:1 43031:1 43268:1 43373:1 43506:1 43576:1 43741:1 43753:1 43826:1 43924:1 44221:1 44223:1 44341:1 44375:1 44420:1 44440:1 45056:1 45102:1 45147:1 45563:1 45584:1 45626:1 45661:1 46134:1 46370:1 46847:1 46925:1 46926:1 46940:1 47075:1 47076:1 47341:1 47356:1 47423:1 47496:1 47605:1 47617:1 47701:1 47782:1 47800:1 48200:1 48421:1 48587:1 48784:1 49114:1 49333:1 49424:1 49534:1 49629:1 49684:1 49713:1 49873:1 50096:1 50117:1 50621:1 50679:1 50791:1 50798:1 50808:1 50970:1 51180:1 51390:1 51711:1 52117:1 52296:1 52542:1 52600:1 52831:1 52928:1 52961:1 53115:1 53269:1 53289:1 53373:1 53545:1 53666:1 53845:1 53876:1 54042:1 54422:1 54540:1 54999:1 55148:1 55497:1 55516:1 55588:1 55627:1 55677:1 55789:1 56028:1 56031:1 56106:1 56242:1 56248:1 56968:1 57051:1 57703:1 57776:1 57853:1 57960:1 58209:1 58450:1 58470:1 58471:1 58480:1 58567:1 58777:1 59045:1 59258:1 59369:1 59639:1 59694:1 59965:1 60188:1 60341:1 60592:1 60720:1 60847:1 61011:1 61054:1 61246:1 61274:1 61279:1 61640:1 61669:1 62302:1 62422:1 62985:1 63046:1 63220:1 63302:1 63924:1 63937:1 64058:1 64243:1 64254:1 64935:1 64948:1 65204:1 65277:1 65555:1 65557:1 65564:1 66193:1 66434:1 66494:1 66705:1 66836:1 66862:1 67034:1 67419:1 67850:1 68262:1 68623:1 68630:1 68921:1 69012:1 69212:1 69400:1 69509:1 69519:1 69683:1 69939:1 70176:1 70246:1 70654:1 70813:1 70851:1 70937:1 70988:1 70992:1 71056:1 71291:1 71402:1 71429:1 71430:1 71555:1 71587:1 71845:1 72046:1 72181:1 72397:1 72567:1 72584:1 72705:1 72775:1 72889:1 73104:1 73187:1 73529:1 73609:1 73793:1 73902:1 73983:1 74509:1 74745:1 75075:1 75358:1 75552:1 75647:1 75912:1 76031:1 76653:1 76871:1 #
-0.0026685883919601929847864596467844 28703:1 28714:1 28813:1 29084:1 29129:1 29230:1 29238:1 29953:1 29981:1 30080:1 30115:1 30160:1 30220:1 30250:1 30300:1 30473:1 30755:1 30846:1 31053:1 31663:1 31864:1 32017:1 32182:1 32326:1 32358:1 32367:1 32399:1 32478:1 32562:1 32623:1 32883:1 32949:1 32951:1 33060:1 33062:1 33087:1 33483:1 33520:1 33578:1 33933:1 33982:1 34239:1 34387:1 34402:1 34576:1 34636:1 34780:1 34879:1 35015:1 35543:1 35582:1 35631:1 35657:1 35714:1 36103:1 36196:1 36263:1 36607:1 37163:1 37385:1 37402:1 37455:1 37473:1 37485:1 37628:1 37818:1 38099:1 38164:1 38751:1 38805:1 39031:1 39162:1 39179:1 39201:1 39527:1 39795:1 39880:1 39976:1 39998:1 40035:1 40100:1 40488:1 40804:1 40892:1 41010:1 41021:1 41179:1 41699:1 41802:1 41857:1 41859:1 41862:1 42030:1 42334:1 42533:1 43373:1 43506:1 43576:1 43673:1 43741:1 43753:1 43806:1 43854:1 43901:1 43924:1 43998:1 44677:1 44688:1 44715:1 44720:1 44881:1 44967:1 45056:1 45100:1 45147:1 45154:1 45515:1 45970:1 46370:1 46488:1 46658:1 46776:1 46925:1 46926:1 47119:1 47331:1 47341:1 47353:1 47388:1 47423:1 47777:1 47785:1 47884:1 47925:1 47965:1 48066:1 48558:1 48587:1 49215:1 49333:1 49470:1 49514:1 49534:1 49872:1 49875:1 49914:1 49991:1 50096:1 50376:1 50699:1 50791:1 50798:1 50808:1 51122:1 51172:1 51184:1 51258:1 51369:1 51654:1 51862:1 51921:1 52068:1 52230:1 52296:1 52400:1 53289:1 53666:1 53667:1 53743:1 53841:1 53845:1 54042:1 54055:1 54540:1 54541:1 54613:1 55008:1 55677:1 56031:1 56178:1 56200:1 56379:1 56987:1 57317:1 57448:1 57700:1 57815:1 57960:1 57989:1 58103:1 58135:1 58209:1 58886:1 58913:1 59257:1 59275:1 59389:1 59487:1 59662:1 59853:1 60008:1 60105:1 60172:1 60310:1 60341:1 60477:1 60779:1 61019:1 61279:1 61734:1 61979:1 62145:1 62166:1 62221:1 62582:1 62635:1 63172:1 63302:1 63636:1 63675:1 64002:1 64254:1 64373:1 64396:1 64529:1 64591:1 64722:1 64948:1 65095:1 65277:1 65329:1 65450:1 65532:1 65620:1 65658:1 66112:1 66161:1 66243:1 66248:1 66434:1 66572:1 66705:1 66919:1 66990:1 67036:1 67141:1 67383:1 67419:1 68260:1 68347:1 68534:1 68623:1 68630:1 68746:1 68960:1 69012:1 69063:1 69570:1 69683:1 69939:1 70023:1 70134:1 70763:1 70813:1 70937:1 70988:1 71114:1 71138:1 71291:1 71503:1 71609:1 71618:1 71947:1 72711:1 72750:1 72775:1 72885:1 73104:1 73127:1 73349:1 73529:1 73636:1 73643:1 73902:1 73965:1 74203:1 74289:1 74544:1 74751:1 74774:1 74921:1 75012:1 75056:1 75286:1 75912:1 76143:1 76653:1 76779:1 76805:1 76871:1 #
0.0032384605415523765904739494914111 28714:1 29030:1 29063:1 29129:1 29131:1 29230:1 29238:1 29594:1 29686:1 29900:1 29944:1 30080:1 30160:1 30191:1 30250:1 30272:1 30496:1 30558:1 30612:1 30743:1 30748:1 30755:1 30773:1 30943:1 31028:1 31047:1 31072:1 31089:1 31114:1 31117:1 31361:1 31801:1 31864:1 31881:1 32023:1 32121:1 32201:1 32220:1 32535:1 32568:1 32623:1 32791:1 32860:1 32932:1 33062:1 33257:1 33294:1 33417:1 33428:1 33566:1 33609:1 33618:1 33669:1 33911:1 33948:1 33982:1 34204:1 34297:1 34298:1 34304:1 34387:1 34402:1 34571:1 34585:1 34632:1 34757:1 35238:1 35269:1 35290:1 35386:1 35389:1 35518:1 35525:1 35582:1 35872:1 36053:1 36088:1 36103:1 36263:1 36591:1 36679:1 36704:1 36947:1 37120:1 37163:1 37226:1 37256:1 37260:1 37455:1 37485:1 37643:1 37818:1 37919:1 38080:1 38091:1 38169:1 38406:1 38639:1 38644:1 38678:1 38796:1 38805:1 38867:1 38975:1 38980:1 39031:1 39051:1 39109:1 39201:1 39290:1 39497:1 39519:1 39880:1 39935:1 39998:1 40004:1 40023:1 40062:1 40094:1 40123:1 40172:1 40372:1 40491:1 40685:1 40716:1 40728:1 40735:1 40763:1 40832:1 40892:1 40946:1 40993:1 41010:1 41021:1 41051:1 41076:1 41115:1 41129:1 41304:1 41349:1 41495:1 41584:1 41699:1 41802:1 41803:1 41857:1 41859:1 41862:1 41990:1 42124:1 42260:1 42334:1 42533:1 42680:1 42698:1 42885:1 43031:1 43069:1 43138:1 43227:1 43338:1 43373:1 43506:1 43574:1 43576:1 43595:1 43673:1 43683:1 43710:1 43741:1 43774:1 43777:1 43806:1 43865:1 43901:1 43924:1 44050:1 44084:1 44113:1 44116:1 44141:1 44182:1 44190:1 44208:1 44341:1 44354:1 44430:1 44604:1 44685:1 44715:1 44847:1 44900:1 44917:1 45056:1 45100:1 45167:1 45243:1 45286:1 45334:1 45391:1 45584:1 45646:1 45710:1 45720:1 45918:1 45921:1 46238:1 46257:1 46370:1 46488:1 46560:1 46729:1 46789:1 46858:1 46925:1 46926:1 46940:1 47119:1 47277:1 47423:1 47454:1 47526:1 47564:1 47777:1 47782:1 47785:1 47885:1 48197:1 48491:1 48510:1 48568:1 48587:1 48616:1 48841:1 48859:1 49251:1 49284:1 49316:1 49333:1 49340:1 49410:1 49424:1 49520:1 49582:1 49639:1 49707:1 49873:1 49973:1 49995:1 50096:1 50131:1 50488:1 50791:1 50798:1 50808:1 50824:1 50941:1 51122:1 51184:1 51287:1 51506:1 51628:1 51921:1 51994:1 52135:1 52236:1 52296:1 52412:1 52456:1 52494:1 52620:1 52800:1 52820:1 52943:1 53001:1 53269:1 53289:1 53384:1 53545:1 53576:1 53722:1 53845:1 54448:1 54540:1 54541:1 54591:1 54594:1 54613:1 54638:1 54686:1 54837:1 55099:1 55153:1 55469:1 55490:1 55623:1 55677:1 55749:1 55755:1 55789:1 55798:1 55955:1 56028:1 56031:1 56138:1 56200:1 56248:1 56262:1 56366:1 56368:1 56522:1 56535:1 56633:1 56638:1 56729:1 56930:1 56966:1 57047:1 57088:1 57127:1 57176:1 57362:1 57448:1 57738:1 57800:1 57960:1 57989:1 58120:1 58135:1 58209:1 58241:1 58320:1 58419:1 58471:1 58490:1 58786:1 58815:1 58886:1 59036:1 59121:1 59273:1 59369:1 59372:1 59385:1 59403:1 59485:1 59518:1 59635:1 59694:1 60105:1 60172:1 60283:1 60341:1 60349:1 60538:1 60592:1 60861:1 61027:1 61145:1 61279:1 61574:1 61596:1 61605:1 61646:1 61669:1 61674:1 61723:1 61734:1 61743:1 61867:1 61874:1 62030:1 62180:1 62256:1 62261:1 62345:1 62363:1 62368:1 62422:1 62427:1 62597:1 62749:1 62815:1 62835:1 62985:1 63082:1 63083:1 63302:1 63423:1 63607:1 63691:1 63860:1 63996:1 64002:1 64058:1 64109:1 64254:1 64396:1 64529:1 64574:1 64591:1 64869:1 64948:1 64998:1 65005:1 65025:1 65051:1 65064:1 65135:1 65161:1 65236:1 65277:1 65386:1 65555:1 65557:1 65732:1 66248:1 66434:1 66504:1 66510:1 66559:1 66565:1 66705:1 67034:1 67124:1 67156:1 67352:1 67379:1 67419:1 67437:1 67483:1 67535:1 67540:1 67639:1 67745:1 67767:1 67772:1 67788:1 68143:1 68296:1 68353:1 68623:1 68630:1 68645:1 68698:1 69079:1 69241:1 69319:1 69430:1 69442:1 69509:1 69570:1 69619:1 69620:1 69683:1 69862:1 69878:1 69939:1 70134:1 70211:1 70285:1 70291:1 70813:1 70889:1 70937:1 70988:1 71114:1 71198:1 71291:1 71297:1 71406:1 71439:1 71482:1 71549:1 71629:1 71657:1 71763:1 71871:1 71886:1 72397:1 72435:1 72489:1 72567:1 72636:1 72775:1 72796:1 72829:1 73003:1 73104:1 73107:1 73144:1 73293:1 73678:1 73683:1 73793:1 73983:1 73989:1 74289:1 74397:1 74458:1 74463:1 74732:1 74745:1 74903:1 75012:1 75014:1 75370:1 75574:1 75647:1 75664:1 75734:1 75847:1 75991:1 76031:1 76051:1 76091:1 76378:1 76558:1 76653:1 76697:1 76871:1 #
0.0019554850727579744205930634137758 28714:1 28861:1 28910:1 29017:1 29078:1 29092:1 29129:1 29131:1 29230:1 29235:1 29238:1 29383:1 29518:1 29594:1 29677:1 29686:1 29726:1 29857:1 29876:1 29953:1 30080:1 30179:1 30191:1 30194:1 30250:1 30330:1 30573:1 30577:1 30612:1 30690:1 30755:1 30773:1 30796:1 30806:1 30943:1 31050:1 31361:1 31421:1 31864:1 31985:1 32017:1 32047:1 32053:1 32146:1 32201:1 32210:1 32253:1 32358:1 32509:1 32512:1 32535:1 32562:1 32608:1 32623:1 32722:1 32741:1 32875:1 32949:1 33039:1 33060:1 33257:1 33390:1 33428:1 33516:1 33520:1 33769:1 33887:1 33982:1 33991:1 34042:1 34294:1 34298:1 34364:1 34404:1 34571:1 34576:1 34597:1 34636:1 34754:1 34769:1 34775:1 35022:1 35105:1 35139:1 35260:1 35389:1 35518:1 35525:1 35582:1 35662:1 35677:1 35777:1 35834:1 35884:1 35925:1 35957:1 36064:1 36103:1 36130:1 36364:1 36528:1 36583:1 36645:1 36652:1 36698:1 36724:1 36947:1 37120:1 37136:1 37163:1 37226:1 37455:1 37466:1 37485:1 37591:1 37818:1 38080:1 38225:1 38237:1 38269:1 38406:1 38506:1 38628:1 38678:1 38690:1 38715:1 38805:1 38866:1 38867:1 39000:1 39031:1 39162:1 39168:1 39201:1 39290:1 39426:1 39528:1 39720:1 39880:1 39935:1 39998:1 40094:1 40163:1 40172:1 40370:1 40459:1 40485:1 40488:1 40491:1 40496:1 40536:1 40664:1 40735:1 40806:1 40832:1 40892:1 40906:1 41010:1 41014:1 41021:1 41049:1 41274:1 41309:1 41412:1 41451:1 41495:1 41760:1 41793:1 41802:1 41836:1 41857:1 41859:1 41862:1 41978:1 42334:1 42487:1 42533:1 42539:1 42633:1 42658:1 42698:1 42736:1 42940:1 42954:1 43373:1 43427:1 43506:1 43561:1 43568:1 43569:1 43576:1 43673:1 43696:1 43741:1 43753:1 43826:1 43901:1 43924:1 44113:1 44116:1 44141:1 44148:1 44231:1 44292:1 44604:1 44635:1 44700:1 44715:1 44971:1 45048:1 45056:1 45110:1 45128:1 45135:1 45147:1 45243:1 45312:1 45422:1 45537:1 45563:1 45720:1 45808:1 45970:1 45982:1 45993:1 46100:1 46128:1 46184:1 46202:1 46250:1 46370:1 46438:1 46488:1 46847:1 46857:1 46925:1 46926:1 46940:1 47111:1 47254:1 47314:1 47358:1 47423:1 47454:1 47496:1 47526:1 47682:1 47776:1 47777:1 47785:1 47793:1 48197:1 48251:1 48442:1 48491:1 48559:1 48587:1 49103:1 49291:1 49333:1 49520:1 49534:1 49582:1 49629:1 49684:1 49728:1 49873:1 49911:1 49948:1 49949:1 50129:1 50131:1 50298:1 50372:1 50488:1 50791:1 50798:1 50808:1 50819:1 50877:1 50890:1 50950:1 51141:1 51289:1 51346:1 51434:1 51439:1 52064:1 52116:1 52165:1 52296:1 52328:1 52663:1 52682:1 52800:1 52934:1 52962:1 52975:1 52996:1 53103:1 53225:1 53251:1 53269:1 53289:1 53371:1 53650:1 53666:1 53667:1 53743:1 53845:1 53872:1 53914:1 54022:1 54095:1 54223:1 54251:1 54437:1 54448:1 54540:1 54541:1 54613:1 54793:1 54892:1 54999:1 55349:1 55414:1 55420:1 55455:1 55677:1 55743:1 55789:1 55798:1 56028:1 56031:1 56033:1 56039:1 56248:1 56491:1 56522:1 56633:1 56768:1 56800:1 56801:1 56821:1 56954:1 56966:1 57149:1 57383:1 57691:1 57703:1 57713:1 57728:1 57800:1 57853:1 57960:1 57989:1 58005:1 58066:1 58135:1 58225:1 58450:1 58539:1 58688:1 58724:1 58743:1 59121:1 59257:1 59273:1 59283:1 59285:1 59369:1 59372:1 59389:1 59487:1 59587:1 59803:1 59965:1 60008:1 60040:1 60163:1 60172:1 60188:1 60203:1 60237:1 60454:1 60479:1 60599:1 60865:1 61274:1 61279:1 61643:1 61669:1 61678:1 61734:1 61788:1 62030:1 62118:1 62219:1 62302:1 62345:1 62363:1 62635:1 62737:1 62743:1 62749:1 62985:1 63012:1 63636:1 63845:1 63860:1 63887:1 64002:1 64058:1 64109:1 64219:1 64529:1 64574:1 64581:1 64793:1 64948:1 64998:1 65006:1 65089:1 65095:1 65236:1 65277:1 65325:1 65329:1 65386:1 65401:1 65555:1 65557:1 65586:1 65589:1 65627:1 65658:1 65661:1 65830:1 66193:1 66248:1 66280:1 66434:1 66705:1 66750:1 66769:1 66780:1 66862:1 67122:1 67129:1 67331:1 67359:1 67415:1 67466:1 67628:1 67707:1 67767:1 67772:1 68045:1 68243:1 68290:1 68294:1 68372:1 68623:1 68682:1 68698:1 68960:1 69088:1 69252:1 69308:1 69570:1 69587:1 69619:1 69683:1 69939:1 69953:1 70134:1 70632:1 70654:1 70672:1 70813:1 70814:1 70851:1 70932:1 70937:1 70988:1 70992:1 71138:1 71198:1 71291:1 71349:1 71391:1 71395:1 71429:1 71609:1 71965:1 71987:1 72056:1 72186:1 72410:1 72419:1 72435:1 72536:1 72603:1 72840:1 72998:1 73011:1 73187:1 73446:1 73552:1 73632:1 73747:1 73810:1 73826:1 73890:1 73902:1 73983:1 74071:1 74287:1 74289:1 74297:1 74504:1 74728:1 75017:1 75042:1 75378:1 75500:1 75574:1 75672:1 75815:1 75908:1 76026:1 76031:1 76051:1 76170:1 76223:1 76522:1 76653:1 76787:1 76793:1 76835:1 #
0.0012813111494537725298936692297502 28777:1 28813:1 28868:1 28986:1 28988:1 29129:1 29131:1 29193:1 29230:1 29238:1 29383:1 29518:1 29545:1 29606:1 29630:1 29675:1 29677:1 29686:1 29800:1 29832:1 29849:1 29851:1 29857:1 29876:1 29890:1 29953:1 29981:1 30080:1 30182:1 30250:1 30255:1 30272:1 30329:1 30473:1 30500:1 30612:1 30690:1 30755:1 30805:1 30977:1 31013:1 31014:1 31047:1 31114:1 31163:1 31277:1 31421:1 31580:1 31719:1 31990:1 32000:1 32156:1 32302:1 32327:1 32358:1 32529:1 32535:1 32541:1 32542:1 32623:1 32922:1 32942:1 32961:1 33007:1 33057:1 33230:1 33292:1 33457:1 33532:1 33535:1 33576:1 33586:1 33704:1 33769:1 33836:1 33875:1 33911:1 33948:1 34387:1 34456:1 34506:1 34571:1 34576:1 34754:1 34769:1 34776:1 35015:1 35018:1 35085:1 35105:1 35212:1 35269:1 35386:1 35389:1 35462:1 35518:1 35757:1 36034:1 36049:1 36103:1 36186:1 36263:1 36318:1 36364:1 36471:1 36787:1 36971:1 37059:1 37120:1 37136:1 37163:1 37226:1 37246:1 37352:1 37402:1 37435:1 37485:1 37563:1 37611:1 37650:1 37664:1 37762:1 37938:1 38006:1 38078:1 38080:1 38099:1 38123:1 38180:1 38200:1 38362:1 38506:1 38554:1 38642:1 38644:1 38657:1 38670:1 38678:1 38805:1 39031:1 39040:1 39162:1 39173:1 39197:1 39201:1 39316:1 39528:1 39553:1 39707:1 39837:1 39880:1 39935:1 39998:1 40004:1 40094:1 40102:1 40372:1 40457:1 40488:1 40577:1 40728:1 40730:1 40806:1 40993:1 41010:1 41021:1 41105:1 41114:1 41115:1 41225:1 41235:1 41251:1 41260:1 41321:1 41802:1 41834:1 41836:1 41848:1 41855:1 41857:1 41859:1 41862:1 41990:1 42132:1 42190:1 42214:1 42326:1 42399:1 42457:1 42486:1 42533:1 42539:1 42585:1 42885:1 42907:1 42962:1 43089:1 43191:1 43301:1 43373:1 43393:1 43441:1 43506:1 43542:1 43568:1 43569:1 43574:1 43576:1 43673:1 43691:1 43726:1 43734:1 43741:1 43753:1 43840:1 43901:1 43924:1 44004:1 44074:1 44165:1 44201:1 44309:1 44339:1 44440:1 44496:1 44588:1 44604:1 44706:1 44725:1 44764:1 44765:1 44848:1 44917:1 45020:1 45048:1 45056:1 45128:1 45243:1 45537:1 45661:1 45720:1 45878:1 45977:1 46038:1 46044:1 46134:1 46370:1 46456:1 46488:1 46500:1 46647:1 46698:1 46729:1 46754:1 46789:1 46925:1 46926:1 46940:1 47056:1 47087:1 47111:1 47300:1 47331:1 47341:1 47388:1 47411:1 47423:1 47451:1 47496:1 47542:1 47553:1 47564:1 47605:1 47682:1 47710:1 47798:1 47901:1 48108:1 48200:1 48235:1 48257:1 48279:1 48532:1 48587:1 48703:1 48724:1 48788:1 48811:1 48841:1 49014:1 49045:1 49090:1 49186:1 49251:1 49312:1 49333:1 49424:1 49445:1 49473:1 49534:1 49707:1 49787:1 49873:1 49908:1 50048:1 50065:1 50077:1 50131:1 50258:1 50520:1 50651:1 50718:1 50791:1 50798:1 51008:1 51056:1 51122:1 51196:1 51470:1 51514:1 51604:1 51772:1 51794:1 52230:1 52296:1 52470:1 52542:1 52899:1 52944:1 53136:1 53251:1 53269:1 53274:1 53289:1 53545:1 53576:1 53743:1 53841:1 53843:1 53845:1 54055:1 54068:1 54223:1 54241:1 54312:1 54333:1 54424:1 54540:1 54541:1 54613:1 54656:1 54785:1 54808:1 54928:1 54973:1 55135:1 55490:1 55518:1 55677:1 55684:1 55758:1 55770:1 55789:1 55807:1 55844:1 55934:1 55953:1 56028:1 56031:1 56033:1 56036:1 56082:1 56094:1 56140:1 56147:1 56248:1 56413:1 56491:1 56522:1 56564:1 56633:1 56704:1 56800:1 56894:1 57161:1 57443:1 57448:1 57563:1 57600:1 57700:1 57725:1 57781:1 57853:1 57931:1 57960:1 58069:1 58119:1 58129:1 58135:1 58237:1 58511:1 58586:1 58688:1 58703:1 58786:1 58843:1 58886:1 59273:1 59372:1 59471:1 59487:1 59496:1 59518:1 59635:1 59662:1 59828:1 59949:1 59965:1 60008:1 60104:1 60134:1 60172:1 60188:1 60203:1 60222:1 60237:1 60344:1 60349:1 60698:1 60779:1 60857:1 61250:1 61279:1 61310:1 61464:1 61669:1 61674:1 61734:1 61788:1 61829:1 61909:1 62030:1 62117:1 62130:1 62341:1 62460:1 62466:1 62589:1 62737:1 62749:1 62757:1 62858:1 62902:1 62942:1 62985:1 63116:1 63137:1 63338:1 63567:1 63630:1 63638:1 63887:1 63985:1 64002:1 64058:1 64109:1 64182:1 64188:1 64240:1 64254:1 64455:1 64529:1 64560:1 64574:1 64793:1 64895:1 64905:1 64948:1 64998:1 65006:1 65017:1 65204:1 65236:1 65277:1 65298:1 65355:1 65386:1 65557:1 65564:1 65627:1 65644:1 65658:1 65888:1 65897:1 66070:1 66090:1 66147:1 66161:1 66193:1 66248:1 66434:1 66478:1 66510:1 66603:1 66643:1 66705:1 66806:1 66825:1 66919:1 66933:1 66960:1 67025:1 67034:1 67036:1 67049:1 67129:1 67483:1 67609:1 67628:1 67672:1 67810:1 68110:1 68153:1 68419:1 68481:1 68491:1 68495:1 68623:1 68630:1 68789:1 68921:1 68936:1 69012:1 69318:1 69429:1 69519:1 69522:1 69570:1 69619:1 69683:1 69798:1 69939:1 70023:1 70134:1 70254:1 70368:1 70407:1 70672:1 70764:1 70813:1 70924:1 70937:1 70988:1 71056:1 71074:1 71144:1 71291:1 71429:1 71439:1 71468:1 71577:1 71797:1 72053:1 72397:1 72489:1 72540:1 72541:1 72603:1 72630:1 72775:1 73038:1 73048:1 73104:1 73127:1 73140:1 73187:1 73355:1 73527:1 73836:1 73902:1 73918:1 73947:1 74065:1 74095:1 74203:1 74206:1 74299:1 74405:1 74438:1 74463:1 74498:1 74597:1 74745:1 74752:1 74768:1 75220:1 75647:1 75799:1 75803:1 75835:1 75847:1 75939:1 76001:1 76031:1 76158:1 76248:1 76270:1 76340:1 76490:1 76653:1 76733:1 76787:1 #
-0.0024832845325255419911825160994567 28819:1 28832:1 28881:1 28960:1 29129:1 29131:1 29150:1 29227:1 29230:1 29235:1 29238:1 29285:1 29329:1 29383:1 29422:1 29545:1 29580:1 29594:1 29686:1 29841:1 29851:1 29857:1 29876:1 29882:1 29928:1 29953:1 29981:1 30080:1 30182:1 30207:1 30211:1 30250:1 30272:1 30329:1 30473:1 30496:1 30507:1 30558:1 30612:1 30626:1 30660:1 30683:1 30755:1 31114:1 31117:1 31191:1 31359:1 31361:1 31369:1 31461:1 31498:1 31777:1 31791:1 31874:1 31881:1 31985:1 32017:1 32074:1 32217:1 32478:1 32512:1 32535:1 32537:1 32538:1 32623:1 32750:1 32846:1 32857:1 33062:1 33304:1 33507:1 33520:1 33533:1 33535:1 33570:1 33744:1 33769:1 33785:1 33794:1 33824:1 33857:1 33883:1 33910:1 33911:1 33948:1 33955:1 33964:1 33982:1 33997:1 34145:1 34291:1 34298:1 34387:1 34428:1 34454:1 34477:1 34506:1 34559:1 34576:1 34582:1 34583:1 34636:1 34710:1 34754:1 34839:1 34886:1 34935:1 35018:1 35033:1 35105:1 35257:1 35268:1 35290:1 35462:1 35582:1 35612:1 35620:1 35628:1 35631:1 35677:1 35777:1 35872:1 35884:1 35895:1 35901:1 36064:1 36088:1 36103:1 36196:1 36292:1 36333:1 36364:1 36390:1 36471:1 36476:1 36522:1 36579:1 36583:1 36631:1 36722:1 37120:1 37163:1 37226:1 37285:1 37343:1 37402:1 37433:1 37455:1 37485:1 37501:1 37643:1 37664:1 37749:1 37818:1 37919:1 38012:1 38034:1 38045:1 38080:1 38091:1 38167:1 38211:1 38312:1 38345:1 38477:1 38625:1 38628:1 38644:1 38678:1 38805:1 38856:1 38951:1 39031:1 39201:1 39229:1 39320:1 39523:1 39527:1 39528:1 39533:1 39577:1 39644:1 39676:1 39846:1 39879:1 39880:1 39888:1 39935:1 39998:1 40004:1 40112:1 40126:1 40319:1 40362:1 40374:1 40415:1 40485:1 40488:1 40491:1 40677:1 40728:1 40732:1 40788:1 40804:1 40806:1 40820:1 40832:1 40840:1 41010:1 41021:1 41235:1 41256:1 41451:1 41495:1 41660:1 41802:1 41857:1 41859:1 41862:1 41906:1 41978:1 42030:1 42055:1 42223:1 42326:1 42334:1 42369:1 42533:1 42585:1 42641:1 42726:1 42736:1 42750:1 42885:1 42949:1 43004:1 43058:1 43167:1 43191:1 43238:1 43259:1 43373:1 43409:1 43452:1 43460:1 43506:1 43568:1 43569:1 43574:1 43576:1 43673:1 43722:1 43741:1 43753:1 43826:1 43885:1 43901:1 43909:1 43924:1 44096:1 44377:1 44529:1 44604:1 44917:1 45031:1 45056:1 45128:1 45135:1 45143:1 45147:1 45167:1 45358:1 45391:1 45661:1 45953:1 45970:1 46032:1 46100:1 46128:1 46156:1 46161:1 46349:1 46370:1 46479:1 46488:1 46533:1 46560:1 46637:1 46685:1 46709:1 46767:1 46847:1 46851:1 46857:1 46925:1 46926:1 46929:1 46940:1 47039:1 47076:1 47111:1 47119:1 47130:1 47329:1 47423:1 47496:1 47704:1 47710:1 47773:1 47785:1 47872:1 47883:1 47965:1 48013:1 48108:1 48197:1 48200:1 48303:1 48426:1 48429:1 48462:1 48488:1 48491:1 48494:1 48528:1 48538:1 48559:1 48587:1 48697:1 48788:1 48807:1 48837:1 49018:1 49163:1 49251:1 49307:1 49313:1 49329:1 49333:1 49349:1 49520:1 49534:1 49684:1 49785:1 49873:1 49875:1 49965:1 50063:1 50096:1 50117:1 50140:1 50151:1 50284:1 50488:1 50557:1 50574:1 50621:1 50690:1 50766:1 50791:1 50793:1 50798:1 50808:1 50941:1 51103:1 51258:1 51287:1 51366:1 51434:1 51439:1 51674:1 51682:1 51711:1 51720:1 51994:1 52101:1 52230:1 52285:1 52405:1 52456:1 52470:1 52621:1 52858:1 52891:1 52996:1 53071:1 53103:1 53200:1 53269:1 53289:1 53373:1 53545:1 53590:1 53650:1 53725:1 53743:1 53841:1 53843:1 53845:1 54143:1 54280:1 54282:1 54529:1 54540:1 54591:1 54950:1 55265:1 55497:1 55608:1 55675:1 55677:1 55702:1 55789:1 55790:1 55844:1 55863:1 56028:1 56031:1 56147:1 56248:1 56368:1 56379:1 56387:1 56391:1 56411:1 56522:1 56527:1 56529:1 56577:1 56603:1 56633:1 56760:1 56801:1 56968:1 57047:1 57056:1 57127:1 57215:1 57275:1 57362:1 57515:1 57691:1 57698:1 57718:1 57853:1 57960:1 57988:1 57989:1 58003:1 58039:1 58051:1 58107:1 58119:1 58135:1 58175:1 58196:1 58209:1 58330:1 58501:1 58623:1 58651:1 58688:1 58710:1 58743:1 58748:1 58774:1 58777:1 58779:1 58811:1 58886:1 58907:1 58984:1 59071:1 59173:1 59249:1 59273:1 59340:1 59369:1 59372:1 59385:1 59389:1 59406:1 59413:1 59485:1 59487:1 59945:1 59965:1 59989:1 60008:1 60105:1 60111:1 60125:1 60163:1 60188:1 60310:1 60685:1 60722:1 60770:1 60779:1 60847:1 60857:1 60870:1 60890:1 60926:1 60941:1 61074:1 61127:1 61274:1 61279:1 61583:1 61650:1 61669:1 61734:1 61763:1 61788:1 62001:1 62030:1 62056:1 62104:1 62118:1 62121:1 62122:1 62178:1 62302:1 62313:1 62363:1 62422:1 62442:1 62466:1 62601:1 62645:1 62669:1 62749:1 62858:1 62985:1 63046:1 63051:1 63175:1 63302:1 63382:1 63386:1 63636:1 63694:1 63845:1 63860:1 63878:1 64002:1 64020:1 64058:1 64109:1 64188:1 64243:1 64308:1 64377:1 64396:1 64529:1 64817:1 64895:1 64905:1 64948:1 64951:1 64998:1 65005:1 65006:1 65079:1 65151:1 65236:1 65272:1 65277:1 65329:1 65340:1 65396:1 65529:1 65532:1 65566:1 65570:1 65573:1 65586:1 65596:1 65658:1 65661:1 65888:1 65909:1 65934:1 66054:1 66159:1 66193:1 66196:1 66248:1 66434:1 66488:1 66551:1 66559:1 66565:1 66571:1 66607:1 66694:1 66705:1 66862:1 66887:1 66945:1 67024:1 67180:1 67347:1 67419:1 67474:1 67483:1 67540:1 67544:1 67626:1 67748:1 67831:1 67909:1 68027:1 68234:1 68243:1 68252:1 68254:1 68481:1 68595:1 68600:1 68623:1 68629:1 68630:1 68660:1 68698:1 68746:1 69012:1 69079:1 69088:1 69126:1 69221:1 69252:1 69430:1 69587:1 69619:1 69683:1 69713:1 69716:1 69900:1 69936:1 69998:1 70001:1 70092:1 70134:1 70354:1 70813:1 70814:1 70851:1 70889:1 70937:1 70979:1 70988:1 71034:1 71114:1 71291:1 71372:1 71406:1 71421:1 71430:1 71431:1 71439:1 71653:1 71657:1 71665:1 71718:1 71754:1 71871:1 71965:1 72065:1 72211:1 72214:1 72325:1 72352:1 72397:1 72430:1 72442:1 72567:1 72581:1 72729:1 72789:1 73104:1 73181:1 73187:1 73319:1 73442:1 73473:1 73535:1 73553:1 73689:1 73902:1 73983:1 73989:1 74046:1 74058:1 74118:1 74458:1 74500:1 74732:1 74745:1 74839:1 74847:1 75017:1 75095:1 75311:1 75320:1 75479:1 75506:1 75647:1 75771:1 75799:1 75912:1 75919:1 76016:1 76031:1 76051:1 76248:1 76290:1 76653:1 76718:1 76733:1 76787:1 76805:1 #
-0.0018111303072936254295738356390189 28714:1 28813:1 28832:1 28844:1 28881:1 28988:1 29129:1 29131:1 29230:1 29238:1 29245:1 29285:1 29383:1 29594:1 29597:1 29660:1 29686:1 29733:1 29800:1 29857:1 29876:1 29890:1 29900:1 29914:1 30080:1 30207:1 30220:1 30250:1 30261:1 30286:1 30473:1 30573:1 30755:1 30794:1 30846:1 30933:1 30943:1 31086:1 31114:1 31241:1 31246:1 31361:1 31504:1 31524:1 31580:1 31662:1 31663:1 31693:1 31719:1 31729:1 31849:1 31864:1 31894:1 31930:1 32017:1 32023:1 32182:1 32327:1 32358:1 32399:1 32458:1 32512:1 32535:1 32537:1 32562:1 32616:1 32623:1 32949:1 33230:1 33273:1 33306:1 33377:1 33428:1 33532:1 33535:1 33570:1 33609:1 33721:1 33785:1 33857:1 33911:1 33948:1 34170:1 34222:1 34270:1 34402:1 34404:1 34428:1 34538:1 34636:1 34754:1 35212:1 35389:1 35462:1 35517:1 35518:1 35582:1 35612:1 35620:1 35628:1 35631:1 35651:1 35683:1 35872:1 35995:1 36088:1 36101:1 36103:1 36130:1 36176:1 36629:1 36631:1 36645:1 36679:1 36722:1 36724:1 36730:1 36793:1 37120:1 37163:1 37226:1 37278:1 37402:1 37455:1 37457:1 37485:1 37633:1 37643:1 37726:1 37762:1 37807:1 37848:1 37919:1 37986:1 38042:1 38080:1 38100:1 38123:1 38134:1 38200:1 38206:1 38269:1 38319:1 38406:1 38628:1 38644:1 38678:1 38748:1 38805:1 38856:1 38929:1 38950:1 39031:1 39069:1 39162:1 39190:1 39201:1 39419:1 39422:1 39527:1 39553:1 39721:1 39880:1 39935:1 39937:1 39998:1 40035:1 40094:1 40099:1 40136:1 40238:1 40370:1 40457:1 40512:1 40577:1 40728:1 40806:1 40822:1 40832:1 40840:1 40892:1 40993:1 41010:1 41021:1 41079:1 41123:1 41165:1 41270:1 41321:1 41412:1 41451:1 41471:1 41495:1 41802:1 41855:1 41857:1 41859:1 41862:1 41973:1 41978:1 41989:1 41990:1 42048:1 42055:1 42160:1 42214:1 42267:1 42294:1 42332:1 42334:1 42403:1 42486:1 42533:1 42554:1 42585:1 42596:1 42619:1 42672:1 42733:1 42885:1 42890:1 42966:1 43009:1 43031:1 43105:1 43177:1 43191:1 43291:1 43313:1 43373:1 43506:1 43568:1 43576:1 43673:1 43741:1 43753:1 43826:1 43924:1 43981:1 44116:1 44294:1 44341:1 44374:1 44375:1 44377:1 44443:1 44601:1 44604:1 44662:1 44688:1 44712:1 44823:1 44917:1 44971:1 45048:1 45056:1 45064:1 45128:1 45146:1 45167:1 45243:1 45286:1 45346:1 45365:1 45391:1 45434:1 45535:1 45563:1 45661:1 45707:1 45720:1 45732:1 45921:1 45934:1 45970:1 46047:1 46053:1 46096:1 46100:1 46128:1 46132:1 46250:1 46255:1 46328:1 46370:1 46533:1 46560:1 46810:1 46857:1 46925:1 46926:1 46940:1 47254:1 47332:1 47388:1 47423:1 47436:1 47496:1 47682:1 47690:1 47777:1 47782:1 47785:1 47810:1 47902:1 47941:1 47996:1 48010:1 48083:1 48216:1 48394:1 48421:1 48429:1 48442:1 48462:1 48491:1 48559:1 48587:1 48713:1 49161:1 49228:1 49333:1 49344:1 49349:1 49472:1 49520:1 49532:1 49534:1 49558:1 49706:1 49751:1 49766:1 49784:1 49788:1 49792:1 49873:1 50053:1 50096:1 50488:1 50791:1 50798:1 50808:1 50894:1 50943:1 50950:1 51122:1 51289:1 51586:1 51711:1 51760:1 51772:1 51794:1 51910:1 51921:1 52068:1 52536:1 52617:1 52682:1 52770:1 53157:1 53269:1 53282:1 53289:1 53398:1 53537:1 53545:1 53650:1 53675:1 53694:1 53743:1 53845:1 53872:1 53902:1 54058:1 54251:1 54341:1 54540:1 54541:1 54591:1 54641:1 54837:1 54973:1 54999:1 55136:1 55189:1 55274:1 55338:1 55556:1 55677:1 55702:1 55718:1 55789:1 56002:1 56031:1 56073:1 56242:1 56248:1 56262:1 56266:1 56368:1 56391:1 56411:1 56447:1 56522:1 56570:1 56633:1 56638:1 56718:1 56739:1 56771:1 56853:1 56968:1 57047:1 57051:1 57215:1 57362:1 57366:1 57796:1 57851:1 57853:1 57960:1 57983:1 57989:1 58003:1 58066:1 58112:1 58135:1 58167:1 58209:1 58301:1 58511:1 58543:1 58681:1 58688:1 58777:1 58858:1 58886:1 58936:1 59120:1 59177:1 59214:1 59257:1 59369:1 59372:1 59389:1 59393:1 59401:1 59474:1 59487:1 59518:1 59715:1 59721:1 59796:1 59880:1 59905:1 59965:1 60008:1 60040:1 60105:1 60143:1 60163:1 60172:1 60203:1 60349:1 60439:1 60567:1 60758:1 60779:1 60857:1 60865:1 60979:1 61074:1 61102:1 61279:1 61356:1 61392:1 61477:1 61669:1 61781:1 61788:1 61866:1 61877:1 62130:1 62422:1 62442:1 62464:1 62466:1 62569:1 62601:1 62736:1 62749:1 62939:1 62952:1 62985:1 63046:1 63088:1 63101:1 63262:1 63302:1 63357:1 63385:1 63694:1 63729:1 63860:1 63947:1 64002:1 64026:1 64058:1 64109:1 64185:1 64254:1 64396:1 64414:1 64525:1 64537:1 64581:1 64608:1 64817:1 64824:1 64832:1 64935:1 64948:1 65006:1 65050:1 65089:1 65135:1 65164:1 65236:1 65237:1 65277:1 65329:1 65450:1 65491:1 65505:1 65529:1 65532:1 65573:1 65601:1 65627:1 65743:1 65798:1 65811:1 65864:1 65904:1 65961:1 65986:1 66084:1 66101:1 66159:1 66193:1 66248:1 66280:1 66399:1 66434:1 66463:1 66510:1 66559:1 66587:1 66705:1 66752:1 66760:1 67034:1 67156:1 67379:1 67415:1 67419:1 67535:1 67584:1 67707:1 67772:1 67850:1 67993:1 68033:1 68069:1 68089:1 68198:1 68342:1 68481:1 68534:1 68589:1 68595:1 68623:1 68630:1 68697:1 68960:1 68969:1 69012:1 69212:1 69252:1 69308:1 69429:1 69446:1 69570:1 69587:1 69619:1 69683:1 69998:1 70023:1 70134:1 70224:1 70258:1 70304:1 70309:1 70354:1 70654:1 70748:1 70813:1 70814:1 70889:1 70937:1 70972:1 70988:1 71212:1 71221:1 71291:1 71350:1 71429:1 71430:1 71439:1 71587:1 71617:1 71618:1 71653:1 71670:1 71824:1 71871:1 72087:1 72271:1 72352:1 72397:1 72489:1 72630:1 72636:1 72640:1 72775:1 72840:1 72923:1 72930:1 72951:1 73154:1 73187:1 73283:1 73291:1 73653:1 73747:1 73902:1 73971:1 74118:1 74206:1 74289:1 74294:1 74350:1 74402:1 74463:1 74513:1 74539:1 74594:1 74768:1 74774:1 74942:1 75012:1 75017:1 75144:1 75235:1 75370:1 75482:1 75655:1 75771:1 75813:1 76031:1 76051:1 76522:1 76653:1 76718:1 76733:1 #
-0.0015162630923292942826396956235158 29129:1 29131:1 29230:1 29235:1 29238:1 29272:1 29383:1 29455:1 29518:1 29686:1 29876:1 29909:1 29953:1 30080:1 30098:1 30229:1 30250:1 30255:1 30286:1 30473:1 30514:1 30588:1 30595:1 30755:1 30846:1 30943:1 31056:1 31114:1 31382:1 31421:1 31443:1 31450:1 31523:1 31553:1 31605:1 31663:1 31843:1 31864:1 31867:1 32309:1 32335:1 32359:1 32397:1 32535:1 32562:1 32597:1 32623:1 32806:1 32846:1 32875:1 32908:1 33356:1 33459:1 33487:1 33568:1 33576:1 33618:1 33641:1 33669:1 33718:1 33769:1 33991:1 34205:1 34226:1 34239:1 34294:1 34330:1 34387:1 34506:1 34571:1 34576:1 34583:1 34636:1 34698:1 34710:1 34903:1 34970:1 35018:1 35063:1 35085:1 35105:1 35154:1 35383:1 35389:1 35462:1 35518:1 35582:1 35658:1 35747:1 35884:1 36103:1 36170:1 36186:1 36196:1 36263:1 36319:1 36322:1 36364:1 36461:1 36631:1 36983:1 37095:1 37120:1 37163:1 37226:1 37286:1 37296:1 37304:1 37329:1 37455:1 37472:1 37485:1 37558:1 37919:1 38080:1 38091:1 38206:1 38488:1 38625:1 38678:1 38690:1 38914:1 38929:1 39000:1 39031:1 39197:1 39201:1 39215:1 39553:1 39648:1 39701:1 39714:1 39721:1 39880:1 39935:1 39998:1 40016:1 40094:1 40102:1 40123:1 40440:1 40450:1 40488:1 40577:1 40728:1 40788:1 40804:1 40832:1 40840:1 40991:1 40993:1 40998:1 41010:1 41021:1 41115:1 41205:1 41235:1 41245:1 41495:1 41760:1 41802:1 41803:1 41836:1 41857:1 41859:1 41862:1 41966:1 41978:1 42124:1 42260:1 42334:1 42464:1 42533:1 42539:1 42658:1 42885:1 42907:1 42973:1 43148:1 43191:1 43301:1 43373:1 43441:1 43506:1 43565:1 43568:1 43574:1 43576:1 43673:1 43691:1 43753:1 43764:1 43924:1 43926:1 44192:1 44317:1 44341:1 44557:1 44564:1 44720:1 44764:1 44917:1 44949:1 45018:1 45056:1 45100:1 45128:1 45131:1 45138:1 45147:1 45153:1 45243:1 45329:1 45584:1 45670:1 45703:1 45720:1 45857:1 45878:1 45908:1 46044:1 46078:1 46100:1 46113:1 46128:1 46365:1 46370:1 46532:1 46729:1 46872:1 46925:1 46926:1 46940:1 47076:1 47094:1 47110:1 47121:1 47138:1 47277:1 47304:1 47341:1 47421:1 47616:1 47617:1 47671:1 47682:1 47777:1 47872:1 47884:1 47965:1 48011:1 48071:1 48108:1 48122:1 48165:1 48279:1 48438:1 48491:1 48508:1 48587:1 48616:1 48703:1 48761:1 48847:1 48981:1 49144:1 49161:1 49333:1 49424:1 49520:1 49534:1 49558:1 49707:1 49781:1 49873:1 49878:1 49908:1 49914:1 50065:1 50072:1 50096:1 50131:1 50332:1 50357:1 50488:1 50504:1 50543:1 50642:1 50766:1 50791:1 50798:1 50804:1 50808:1 50924:1 51060:1 51122:1 51162:1 51346:1 51355:1 51483:1 51695:1 51794:1 51832:1 51913:1 52230:1 52296:1 52662:1 52800:1 52879:1 52881:1 52975:1 53075:1 53136:1 53269:1 53289:1 53437:1 53449:1 53466:1 53545:1 53650:1 53743:1 53841:1 53844:1 53845:1 54042:1 54258:1 54358:1 54418:1 54541:1 54582:1 54614:1 54836:1 54851:1 54973:1 54988:1 55010:1 55489:1 55490:1 55677:1 55718:1 55725:1 55789:1 56017:1 56028:1 56031:1 56036:1 56107:1 56168:1 56178:1 56200:1 56242:1 56391:1 56447:1 56522:1 56564:1 56686:1 56801:1 56960:1 56966:1 57127:1 57215:1 57236:1 57343:1 57345:1 57467:1 57954:1 57960:1 58009:1 58126:1 58152:1 58209:1 58243:1 58320:1 58361:1 58450:1 58501:1 58511:1 58640:1 58689:1 58886:1 59036:1 59247:1 59249:1 59273:1 59324:1 59327:1 59369:1 59372:1 59389:1 59443:1 59450:1 59487:1 59518:1 59635:1 59652:1 59828:1 59965:1 60008:1 60010:1 60039:1 60040:1 60163:1 60172:1 60188:1 60341:1 60349:1 60367:1 60567:1 61213:1 61279:1 61283:1 61605:1 61652:1 61669:1 61674:1 61734:1 61795:1 61881:1 62345:1 62422:1 62467:1 62669:1 62749:1 62792:1 62928:1 62985:1 63046:1 63129:1 63137:1 63172:1 63302:1 63392:1 63694:1 63845:1 63860:1 63878:1 63924:1 64002:1 64030:1 64058:1 64074:1 64155:1 64240:1 64254:1 64308:1 64311:1 64396:1 64529:1 64689:1 64824:1 64948:1 64998:1 65006:1 65095:1 65236:1 65277:1 65329:1 65555:1 65658:1 65811:1 65864:1 65902:1 65978:1 66054:1 66193:1 66416:1 66434:1 66488:1 66601:1 66694:1 66705:1 66825:1 66862:1 67034:1 67137:1 67150:1 67359:1 67419:1 67508:1 67663:1 67703:1 67744:1 67745:1 67767:1 67842:1 67847:1 68089:1 68182:1 68252:1 68294:1 68355:1 68481:1 68491:1 68623:1 68630:1 68924:1 68943:1 68959:1 68960:1 69012:1 69028:1 69056:1 69098:1 69118:1 69187:1 69206:1 69212:1 69252:1 69321:1 69392:1 69519:1 69570:1 69619:1 69683:1 69912:1 69939:1 70081:1 70092:1 70134:1 70269:1 70320:1 70654:1 70778:1 70813:1 70851:1 70937:1 70972:1 70988:1 71156:1 71198:1 71228:1 71291:1 71402:1 71407:1 71439:1 71577:1 71653:1 71738:1 71748:1 71981:1 72084:1 72087:1 72239:1 72397:1 72435:1 72489:1 72775:1 72796:1 73104:1 73164:1 73292:1 73404:1 73651:1 73677:1 73683:1 73756:1 73902:1 74188:1 74192:1 74223:1 74728:1 74745:1 74859:1 75115:1 75370:1 75647:1 75675:1 75768:1 75771:1 75799:1 75803:1 76031:1 76051:1 76214:1 76248:1 76340:1 76378:1 76563:1 76653:1 76701:1 76733:1 76756:1 #
-0.0016683682800344621331711802980635 28680:1 28714:1 28813:1 29017:1 29030:1 29063:1 29129:1 29131:1 29230:1 29238:1 29518:1 29606:1 29686:1 29857:1 29876:1 29953:1 29981:1 30080:1 30098:1 30104:1 30191:1 30229:1 30250:1 30286:1 30385:1 30473:1 30573:1 30660:1 30690:1 30748:1 30755:1 30813:1 30943:1 31014:1 31028:1 31130:1 31241:1 31421:1 31663:1 31864:1 31881:1 31930:1 32017:1 32200:1 32367:1 32425:1 32458:1 32478:1 32512:1 32535:1 32537:1 32562:1 32623:1 32673:1 32809:1 32860:1 33007:1 33063:1 33130:1 33377:1 33385:1 33535:1 33769:1 33770:1 33785:1 33910:1 33911:1 33914:1 34019:1 34080:1 34098:1 34259:1 34298:1 34387:1 34402:1 34454:1 34506:1 34571:1 34576:1 34612:1 34679:1 34778:1 34818:1 34928:1 35031:1 35034:1 35127:1 35212:1 35389:1 35462:1 35503:1 35582:1 35677:1 35747:1 35884:1 35957:1 36160:1 36196:1 36244:1 36364:1 36460:1 36471:1 36727:1 36751:1 37000:1 37044:1 37120:1 37163:1 37226:1 37236:1 37278:1 37305:1 37411:1 37432:1 37455:1 37485:1 37643:1 37682:1 37726:1 37807:1 37818:1 38080:1 38269:1 38288:1 38561:1 38608:1 38617:1 38639:1 38670:1 38678:1 38690:1 38805:1 38867:1 38929:1 39032:1 39162:1 39201:1 39296:1 39528:1 39652:1 39755:1 39880:1 39998:1 40004:1 40094:1 40152:1 40156:1 40370:1 40379:1 40488:1 40704:1 40735:1 40762:1 40804:1 40806:1 40832:1 40892:1 41010:1 41014:1 41021:1 41027:1 41173:1 41179:1 41235:1 41309:1 41451:1 41495:1 41520:1 41539:1 41793:1 41802:1 41836:1 41857:1 41859:1 41862:1 41906:1 41915:1 41973:1 41978:1 41985:1 41990:1 42124:1 42137:1 42190:1 42334:1 42369:1 42533:1 42554:1 42585:1 42647:1 42726:1 42862:1 42885:1 42925:1 43010:1 43015:1 43031:1 43176:1 43227:1 43274:1 43326:1 43373:1 43427:1 43506:1 43538:1 43568:1 43569:1 43574:1 43576:1 43673:1 43741:1 43753:1 43924:1 44043:1 44050:1 44113:1 44440:1 44604:1 44715:1 44917:1 44971:1 45056:1 45100:1 45128:1 45147:1 45167:1 45286:1 45294:1 45312:1 45330:1 45350:1 45434:1 45602:1 45661:1 45970:1 45996:1 46100:1 46132:1 46212:1 46250:1 46328:1 46346:1 46365:1 46370:1 46422:1 46488:1 46533:1 46751:1 46767:1 46847:1 46857:1 46925:1 46926:1 46940:1 47087:1 47119:1 47138:1 47175:1 47254:1 47277:1 47288:1 47314:1 47341:1 47368:1 47423:1 47457:1 47470:1 47498:1 47561:1 47564:1 47632:1 47682:1 47710:1 47782:1 47796:1 47835:1 47984:1 48197:1 48200:1 48462:1 48559:1 48587:1 48841:1 49114:1 49291:1 49333:1 49349:1 49424:1 49520:1 49533:1 49534:1 49629:1 49639:1 49683:1 49713:1 49873:1 49957:1 50096:1 50221:1 50230:1 50488:1 50504:1 50631:1 50651:1 50791:1 50798:1 50808:1 50950:1 51122:1 51134:1 51201:1 51258:1 51331:1 51445:1 51580:1 51703:1 51753:1 51794:1 51812:1 51910:1 52165:1 52230:1 52278:1 52296:1 52542:1 52620:1 52650:1 52879:1 53176:1 53269:1 53289:1 53611:1 53666:1 53694:1 53743:1 53845:1 53905:1 54058:1 54258:1 54352:1 54365:1 54480:1 54540:1 54541:1 54973:1 54988:1 54999:1 55010:1 55260:1 55527:1 55573:1 55677:1 55698:1 55718:1 55724:1 55755:1 55789:1 55934:1 56028:1 56031:1 56248:1 56475:1 56491:1 56522:1 56564:1 56603:1 56633:1 56801:1 56954:1 56966:1 57051:1 57343:1 57362:1 57498:1 57637:1 57755:1 57960:1 58006:1 58118:1 58135:1 58145:1 58209:1 58419:1 58470:1 58631:1 58886:1 59121:1 59273:1 59340:1 59372:1 59389:1 59401:1 59487:1 59828:1 59965:1 59982:1 59990:1 60008:1 60040:1 60188:1 60244:1 60260:1 60462:1 61274:1 61279:1 61437:1 61669:1 61734:1 61788:1 62180:1 62250:1 62452:1 62473:1 62500:1 62627:1 62736:1 62749:1 62759:1 62985:1 63051:1 63137:1 63302:1 63342:1 63348:1 63446:1 64002:1 64058:1 64188:1 64254:1 64396:1 64439:1 64548:1 64863:1 64948:1 64998:1 65095:1 65236:1 65277:1 65329:1 65387:1 65557:1 65564:1 65573:1 65586:1 65627:1 65661:1 65752:1 65909:1 66187:1 66193:1 66230:1 66248:1 66267:1 66434:1 66559:1 66705:1 66862:1 67419:1 67466:1 67591:1 67707:1 67818:1 67822:1 68179:1 68290:1 68469:1 68537:1 68623:1 68629:1 68630:1 68698:1 68726:1 68746:1 68959:1 69012:1 69252:1 69509:1 69519:1 69570:1 69683:1 69939:1 70134:1 70144:1 70269:1 70480:1 70654:1 70763:1 70813:1 70814:1 70889:1 70932:1 70937:1 70988:1 71027:1 71114:1 71198:1 71291:1 71366:1 71421:1 71429:1 71430:1 71439:1 71653:1 71725:1 71824:1 71901:1 72255:1 72397:1 72399:1 72418:1 72489:1 72567:1 72581:1 72672:1 72775:1 73104:1 73140:1 73247:1 73283:1 73336:1 73432:1 73902:1 74145:1 74241:1 74289:1 74474:1 74745:1 74847:1 74998:1 75014:1 75074:1 75144:1 75209:1 75374:1 75449:1 75647:1 75853:1 76031:1 76051:1 76062:1 76073:1 76422:1 76443:1 76653:1 76733:1 76787:1 76793:1 76805:1 #
0.0016302325795631853258549348595352 28732:1 28752:1 29020:1 29129:1 29158:1 29238:1 29287:1 29444:1 29509:1 29590:1 29686:1 29857:1 29981:1 30080:1 30108:1 30194:1 30207:1 30587:1 30660:1 30755:1 31014:1 31114:1 31241:1 31335:1 31361:1 31421:1 31663:1 31756:1 32040:1 32118:1 32367:1 32425:1 32512:1 32535:1 32537:1 32555:1 32562:1 32623:1 32891:1 32937:1 32949:1 33280:1 33371:1 33428:1 33565:1 33721:1 33769:1 34576:1 34583:1 34681:1 34970:1 35105:1 35269:1 35276:1 35462:1 35482:1 35518:1 35582:1 35631:1 35718:1 35802:1 35957:1 36088:1 36103:1 36263:1 36429:1 36470:1 36512:1 36631:1 37025:1 37120:1 37163:1 37226:1 37412:1 37455:1 37762:1 38562:1 38639:1 38693:1 38805:1 38929:1 39162:1 39201:1 39283:1 39528:1 39935:1 39998:1 40102:1 40488:1 40735:1 40788:1 40832:1 40892:1 40944:1 41010:1 41021:1 41115:1 41235:1 41495:1 41577:1 41802:1 41855:1 41857:1 41859:1 41862:1 41906:1 41978:1 42088:1 42147:1 42214:1 42334:1 42369:1 42404:1 42437:1 42453:1 42533:1 42658:1 43239:1 43373:1 43424:1 43506:1 43568:1 43574:1 43576:1 43673:1 43734:1 43740:1 43741:1 43753:1 43924:1 43986:1 44086:1 44190:1 44231:1 44341:1 44440:1 44715:1 44917:1 45056:1 45102:1 45128:1 45217:1 45358:1 45391:1 45422:1 45584:1 45661:1 46037:1 46128:1 46370:1 46488:1 46505:1 46698:1 46857:1 46925:1 46926:1 47121:1 47136:1 47244:1 47288:1 47332:1 47423:1 47489:1 47561:1 47564:1 47615:1 47659:1 47710:1 47884:1 48197:1 48200:1 48587:1 48833:1 49112:1 49333:1 49424:1 49520:1 49534:1 49658:1 49713:1 49914:1 50096:1 50129:1 50488:1 50642:1 50679:1 50791:1 50796:1 50798:1 50808:1 50973:1 51122:1 51628:1 51647:1 52230:1 52274:1 52296:1 52682:1 53103:1 53545:1 53743:1 53845:1 53986:1 54540:1 54607:1 54641:1 54973:1 55332:1 55789:1 56031:1 56080:1 56082:1 56118:1 56633:1 56801:1 56954:1 56987:1 57343:1 57960:1 58135:1 58209:1 58268:1 58344:1 58688:1 58689:1 58886:1 59173:1 59196:1 59273:1 59369:1 59372:1 59381:1 59389:1 59393:1 59694:1 59880:1 60008:1 60040:1 60188:1 60237:1 60266:1 60309:1 60776:1 61006:1 61065:1 61279:1 61669:1 61788:1 61948:1 62985:1 63055:1 63083:1 63113:1 63172:1 63546:1 63596:1 63604:1 63675:1 63694:1 63947:1 64002:1 64058:1 64254:1 64319:1 64377:1 64396:1 64863:1 64948:1 65006:1 65236:1 65277:1 65377:1 65549:1 65557:1 65573:1 65620:1 65658:1 65811:1 65909:1 66193:1 66248:1 66354:1 66384:1 66434:1 66705:1 66990:1 67419:1 67565:1 67745:1 68260:1 68495:1 68623:1 68630:1 68937:1 68960:1 69012:1 69429:1 69683:1 70134:1 70144:1 70654:1 70813:1 70851:1 70937:1 70988:1 71291:1 71429:1 71594:1 71618:1 71728:1 71823:1 71871:1 72397:1 72419:1 72435:1 72619:1 72695:1 72882:1 72885:1 73187:1 74289:1 74297:1 74498:1 74768:1 74849:1 75155:1 75311:1 75449:1 75484:1 75575:1 75635:1 75655:1 75759:1 76031:1 76051:1 76069:1 76570:1 76653:1 76733:1 76772:1 76835:1 #
0.0032384605415523765904739494914111 28714:1 29020:1 29129:1 30080:1 30193:1 30773:1 31930:1 32623:1 34597:1 35518:1 36631:1 37226:1 37455:1 38486:1 39935:1 40804:1 41603:1 41750:1 41862:1 42533:1 43227:1 43373:1 43506:1 43863:1 43910:1 43924:1 44211:1 44443:1 44561:1 44917:1 45056:1 45793:1 46925:1 46926:1 48587:1 48907:1 49875:1 50488:1 50798:1 50808:1 51794:1 52296:1 53373:1 53650:1 54540:1 55497:1 55574:1 56262:1 57362:1 58559:1 58762:1 60142:1 60989:1 63426:1 63980:1 64373:1 64948:1 64998:1 65661:1 66434:1 66498:1 67251:1 68623:1 69252:1 70168:1 70654:1 70813:1 70988:1 71114:1 71291:1 72142:1 73630:1 74833:1 76387:1 76835:1 #
0.0032384605415523765904739494914111 29129:1 29272:1 30080:1 30573:1 31212:1 31241:1 31508:1 31699:1 31864:1 31956:1 32535:1 32623:1 33461:1 33576:1 34779:1 35311:1 35542:1 37163:1 37643:1 38080:1 38167:1 38200:1 38678:1 40313:1 40804:1 41021:1 41193:1 41802:1 41857:1 41859:1 42369:1 42482:1 42917:1 43263:1 43506:1 43741:1 43924:1 44440:1 44567:1 45698:1 45720:1 45802:1 46370:1 46925:1 46926:1 47496:1 47773:1 49333:1 49552:1 50798:1 52130:1 53515:1 53743:1 53845:1 54540:1 54999:1 55677:1 56657:1 56799:1 56884:1 57281:1 57960:1 58268:1 58623:1 59965:1 60078:1 60214:1 61085:1 61279:1 61499:1 61669:1 62955:1 63046:1 63653:1 64948:1 65210:1 65277:1 65587:1 65978:1 66013:1 66079:1 66119:1 66193:1 66248:1 66434:1 67419:1 68424:1 68481:1 68534:1 68623:1 68791:1 68921:1 69429:1 70813:1 70988:1 71291:1 71401:1 72024:1 72397:1 72489:1 72840:1 73272:1 74636:1 #
0.0032384605415523765904739494914111 28676:1 29129:1 29713:1 29857:1 29981:1 30080:1 30250:1 30473:1 31777:1 31881:1 32143:1 32311:1 32472:1 32512:1 32535:1 32623:1 33279:1 34131:1 34183:1 34404:1 34506:1 35148:1 35238:1 35283:1 35582:1 35945:1 36057:1 36787:1 37120:1 37163:1 37949:1 37971:1 38123:1 38477:1 39045:1 39054:1 39083:1 39528:1 39644:1 40035:1 40457:1 40471:1 40804:1 40814:1 41793:1 41859:1 41862:1 41990:1 42533:1 43148:1 43506:1 43548:1 43863:1 43924:1 44208:1 44763:1 44917:1 44928:1 45056:1 45514:1 45535:1 46925:1 47564:1 48064:1 48617:1 48847:1 48991:1 49190:1 49333:1 49643:1 49914:1 50798:1 51196:1 51355:1 51753:1 51921:1 52165:1 52879:1 52944:1 53269:1 53843:1 53845:1 53898:1 54026:1 54591:1 55423:1 55556:1 55789:1 57383:1 57694:1 57728:1 57960:1 58135:1 58209:1 59652:1 59753:1 60008:1 60536:1 60890:1 61669:1 62464:1 62635:1 63130:1 63175:1 63845:1 64522:1 64948:1 65401:1 65811:1 66161:1 66862:1 67359:1 67709:1 68209:1 68534:1 68872:1 69012:1 69115:1 69567:1 69570:1 69574:1 69683:1 69998:1 70134:1 70144:1 70728:1 70813:1 70988:1 71275:1 71896:1 72397:1 72769:1 72889:1 73038:1 73515:1 73580:1 73890:1 73902:1 74678:1 75799:1 76809:1 #
0.0032384605415523765904739494914111 29129:1 29686:1 30080:1 30250:1 30473:1 30690:1 31216:1 31777:1 32017:1 32535:1 32623:1 33304:1 33385:1 34107:1 34265:1 35269:1 36263:1 36356:1 36732:1 37163:1 37643:1 39031:1 39201:1 39290:1 39397:1 39998:1 40488:1 40832:1 40892:1 41021:1 41288:1 41802:1 41857:1 41859:1 42533:1 42642:1 43506:1 43881:1 43924:1 44567:1 45588:1 46925:1 46926:1 46940:1 47423:1 47436:1 48510:1 48733:1 50798:1 52165:1 52616:1 52961:1 53269:1 53845:1 55606:1 56302:1 56391:1 56633:1 57960:1 58025:1 58301:1 58450:1 58688:1 61102:1 61734:1 64798:1 64948:1 65095:1 65236:1 65329:1 65564:1 65990:1 66267:1 66919:1 68623:1 68630:1 69570:1 69683:1 70134:1 70813:1 70988:1 71291:1 72435:1 73918:1 73989:1 74745:1 75128:1 75647:1 75853:1 76835:1 #
0.0032384605415523765904739494914111 29129:1 29238:1 29686:1 30080:1 30250:1 30272:1 30573:1 31461:1 31904:1 32512:1 32623:1 32846:1 33459:1 33520:1 33568:1 33857:1 33911:1 33982:1 34636:1 34871:1 35212:1 35609:1 37558:1 37643:1 37726:1 38042:1 38608:1 39162:1 39998:1 40100:1 40832:1 40892:1 41021:1 41375:1 41622:1 41859:1 42533:1 43227:1 43506:1 43741:1 43924:1 44706:1 44720:1 46100:1 46925:1 47423:1 47496:1 48614:1 48907:1 50791:1 50798:1 51180:1 51908:1 52116:1 52296:1 52845:1 53289:1 53515:1 53545:1 53743:1 53845:1 54055:1 54223:1 54613:1 55489:1 55519:1 55789:1 56633:1 56954:1 57000:1 57345:1 58239:1 58320:1 58345:1 59231:1 60142:1 61279:1 61788:1 61869:1 62345:1 62985:1 63815:1 63924:1 64193:1 64377:1 64872:1 64948:1 67707:1 68153:1 68623:1 68630:1 69126:1 69318:1 69519:1 70211:1 70813:1 70988:1 71291:1 72292:1 73587:1 74491:1 74597:1 74841:1 75148:1 76013:1 #
-0.0032384605415523765904739494914111 28777:1 28881:1 29129:1 29238:1 29594:1 29879:1 29913:1 30080:1 30136:1 30250:1 30300:1 30352:1 30496:1 30660:1 30727:1 31751:1 31830:1 31847:1 31864:1 32416:1 32623:1 33520:1 33725:1 34385:1 34555:1 34636:1 34721:1 35563:1 35677:1 35872:1 35900:1 36186:1 36263:1 37120:1 37163:1 37455:1 37726:1 38034:1 38644:1 38678:1 39054:1 39381:1 39528:1 39597:1 39935:1 39998:1 40094:1 40096:1 40146:1 40166:1 40776:1 41021:1 41134:1 41451:1 41677:1 41750:1 41857:1 41859:1 41973:1 42486:1 42533:1 42907:1 43318:1 43373:1 43506:1 43741:1 43806:1 43924:1 44349:1 44715:1 44952:1 45056:1 45147:1 45370:1 45385:1 45541:1 45678:1 45907:1 46370:1 46560:1 46763:1 46810:1 46847:1 46857:1 46925:1 46926:1 47082:1 47383:1 47423:1 47623:1 48274:1 48494:1 49131:1 49251:1 49333:1 49373:1 49552:1 49582:1 50488:1 50671:1 50791:1 50798:1 51689:1 51840:1 52116:1 52296:1 53075:1 53373:1 53545:1 53616:1 53813:1 53845:1 54540:1 54613:1 55574:1 55789:1 56248:1 56522:1 57107:1 57448:1 57513:1 57619:1 57960:1 58458:1 58639:1 59106:1 59120:1 59413:1 59598:1 59713:1 59773:1 59828:1 60053:1 60344:1 60867:1 61605:1 61669:1 61759:1 62016:1 62056:1 62302:1 62704:1 62985:1 63670:1 63887:1 63970:1 64058:1 64108:1 64109:1 64948:1 64998:1 65236:1 65277:1 65532:1 66060:1 66161:1 66434:1 66551:1 66705:1 66815:1 67223:1 67352:1 68534:1 68623:1 68630:1 68684:1 68698:1 68755:1 69570:1 69619:1 69849:1 69878:1 70134:1 70144:1 70285:1 70813:1 70889:1 70988:1 71291:1 71401:1 71555:1 71718:1 72435:1 72489:1 73017:1 73354:1 74357:1 75377:1 75500:1 76248:1 76277:1 76787:1 #
