SVM-light Version V6.02
0 # kernel type
3 # kernel parameter -d 
1 # kernel parameter -g 
1 # kernel parameter -s 
1 # kernel parameter -r 
empty# kernel parameter -u 
77546 # highest feature index 
1800 # number of training documents 
1347 # number of support vectors plus 1 
-0.053764616 # threshold b, each following line is a SV (starting with alpha*y)
-0.0032195381939242673566270447338411 28907:1 28944:1 28969:1 29003:1 29087:1 29184:1 29324:1 29433:1 29479:1 29651:1 29789:1 29814:1 29893:1 29907:1 30196:1 30297:1 30471:1 30697:1 30838:1 31176:1 31282:1 31292:1 31601:1 31629:1 31749:1 32025:1 32264:1 32304:1 32451:1 32574:1 32707:1 32764:1 32787:1 32789:1 32877:1 33205:1 33314:1 33316:1 33536:1 33560:1 33577:1 33685:1 33825:1 33833:1 33863:1 34076:1 34266:1 34404:1 34499:1 34549:1 34556:1 34828:1 34860:1 34884:1 35308:1 35354:1 35404:1 35833:1 36120:1 36174:1 36344:1 36402:1 36621:1 36939:1 37053:1 37072:1 37210:1 37288:1 37385:1 37427:1 37494:1 37702:1 37722:1 37751:1 37928:1 38004:1 38358:1 38486:1 38487:1 38854:1 38955:1 39083:1 39210:1 39326:1 39450:1 39482:1 39486:1 39685:1 40216:1 40280:1 40409:1 40655:1 40781:1 40869:1 41091:1 41188:1 41308:1 41312:1 41320:1 41663:1 41754:1 42115:1 42166:1 42168:1 42361:1 42437:1 42549:1 42648:1 42720:1 42851:1 42902:1 42937:1 43210:1 43404:1 43703:1 43893:1 43902:1 43910:1 44004:1 44071:1 44083:1 44256:1 44315:1 44331:1 44409:1 44540:1 44872:1 45149:1 45244:1 45479:1 45480:1 45618:1 45683:1 45865:1 46008:1 46479:1 46683:1 46724:1 46913:1 47280:1 47289:1 47290:1 47406:1 47499:1 47520:1 47698:1 47796:1 48091:1 48137:1 48160:1 48169:1 48274:1 48443:1 48501:1 48587:1 48808:1 48816:1 48968:1 49094:1 49104:1 49149:1 49711:1 49727:1 49751:1 49803:1 49824:1 49849:1 49892:1 49903:1 49942:1 49963:1 50024:1 50072:1 50100:1 50213:1 50261:1 50448:1 50490:1 50626:1 51079:1 51101:1 51207:1 51211:1 51213:1 51223:1 52136:1 52239:1 52548:1 52659:1 53125:1 53322:1 53586:1 53712:1 53733:1 53739:1 53839:1 54184:1 54204:1 54308:1 54587:1 54784:1 54859:1 55007:1 55008:1 55369:1 55469:1 56163:1 56275:1 56527:1 56535:1 56866:1 57023:1 57854:1 58109:1 58202:1 58359:1 58468:1 58616:1 58640:1 58715:1 59016:1 59197:1 59257:1 59293:1 59310:1 59366:1 59395:1 59473:1 59903:1 59928:1 60144:1 60476:1 60520:1 60552:1 60573:1 60708:1 60744:1 60785:1 60864:1 61503:1 61531:1 61796:1 61808:1 61812:1 61853:1 62207:1 62324:1 62506:1 62726:1 62990:1 63242:1 63302:1 63529:1 63544:1 64242:1 64634:1 65111:1 65157:1 65328:1 65448:1 65499:1 65519:1 65532:1 65591:1 65621:1 65865:1 65922:1 65978:1 66126:1 66150:1 66194:1 66221:1 66505:1 66710:1 66755:1 66791:1 66850:1 67111:1 67152:1 67313:1 67378:1 67590:1 67843:1 68005:1 68041:1 68264:1 68401:1 68891:1 69076:1 69265:1 69342:1 69391:1 69499:1 69610:1 69619:1 69659:1 69900:1 69967:1 70169:1 70218:1 70784:1 70795:1 70878:1 70991:1 71261:1 71305:1 71463:1 71536:1 71586:1 71636:1 71640:1 71939:1 71968:1 71995:1 72073:1 72075:1 72262:1 72301:1 72395:1 72610:1 72851:1 72859:1 73035:1 73129:1 73222:1 73420:1 73481:1 73684:1 74557:1 74559:1 74936:1 75199:1 75653:1 76129:1 76586:1 76680:1 76700:1 76711:1 76968:1 77007:1 77379:1 #
-0.0032195381939242673566270447338411 29056:1 29220:1 29324:1 29326:1 29433:1 29499:1 30297:1 30471:1 30712:1 31268:1 32113:1 32143:1 32424:1 32556:1 32761:1 32764:1 32877:1 33205:1 33489:1 33685:1 33770:1 34257:1 34662:1 34669:1 34781:1 34889:1 35833:1 35880:1 36055:1 37188:1 37385:1 37427:1 37494:1 37722:1 38358:1 38684:1 39083:1 39449:1 39450:1 39659:1 40284:1 40769:1 41308:1 41320:1 41374:1 41663:1 42297:1 42567:1 42946:1 43044:1 43348:1 43703:1 43910:1 44071:1 44083:1 44256:1 44462:1 44926:1 45038:1 45244:1 45536:1 45618:1 45708:1 45879:1 45933:1 46141:1 47228:1 47289:1 47290:1 47304:1 47484:1 47674:1 48080:1 48808:1 48968:1 49716:1 49751:1 50024:1 50072:1 50448:1 50490:1 50819:1 50958:1 51207:1 51213:1 51398:1 52144:1 52239:1 53158:1 53712:1 53903:1 54125:1 54204:1 54308:1 55369:1 56275:1 56530:1 58011:1 58468:1 58498:1 58640:1 58763:1 59883:1 59903:1 59998:1 60547:1 63544:1 63696:1 63729:1 63758:1 64770:1 64988:1 65111:1 65350:1 65382:1 65532:1 65821:1 66126:1 66221:1 66484:1 66850:1 67035:1 67152:1 67268:1 67358:1 69265:1 69342:1 69499:1 69610:1 69659:1 70330:1 70784:1 71463:1 71939:1 72083:1 72373:1 72395:1 72764:1 73035:1 73074:1 73420:1 73670:1 74072:1 74407:1 74559:1 75008:1 75199:1 75381:1 76413:1 77379:1 #
-6.3981092131156283575599275081913e-05 28900:1 28907:1 28969:1 29022:1 29324:1 29326:1 29351:1 29814:1 29893:1 30168:1 30297:1 30471:1 30721:1 30838:1 31164:1 31481:1 31755:1 31823:1 32025:1 32365:1 32639:1 32787:1 32794:1 32877:1 32994:1 33560:1 33660:1 33729:1 34028:1 34242:1 34647:1 34828:1 35019:1 35285:1 35541:1 35713:1 35767:1 35877:1 35912:1 36278:1 36519:1 36571:1 36576:1 37211:1 37427:1 37494:1 37515:1 37722:1 37751:1 37908:1 38073:1 38085:1 38358:1 38809:1 38918:1 38920:1 38994:1 39218:1 39486:1 40216:1 40280:1 41000:1 41001:1 41093:1 41124:1 41320:1 41396:1 41565:1 41663:1 41708:1 41719:1 42010:1 42115:1 42166:1 42168:1 42170:1 42365:1 42501:1 42549:1 42552:1 42594:1 42851:1 42883:1 43328:1 43567:1 43703:1 43903:1 43910:1 44083:1 44139:1 44256:1 44406:1 44438:1 44522:1 44662:1 44926:1 45458:1 45576:1 45713:1 45907:1 46008:1 46062:1 46187:1 46545:1 46814:1 46856:1 47084:1 47085:1 47289:1 47290:1 47304:1 47406:1 47662:1 47722:1 47731:1 47796:1 48091:1 48160:1 48165:1 48547:1 48874:1 48937:1 48968:1 48998:1 49120:1 49215:1 49711:1 49727:1 49751:1 49803:1 49942:1 50046:1 50147:1 50261:1 50347:1 50376:1 50785:1 50898:1 51207:1 51213:1 51223:1 51326:1 52153:1 52546:1 53386:1 53712:1 53741:1 53986:1 54016:1 54308:1 55007:1 55008:1 55078:1 55255:1 55722:1 56160:1 56452:1 56527:1 56621:1 56748:1 56755:1 56877:1 56900:1 56928:1 56952:1 57023:1 57068:1 57222:1 57898:1 58468:1 58471:1 58498:1 58681:1 58715:1 58954:1 59016:1 59196:1 59197:1 59395:1 59782:1 59883:1 59899:1 60000:1 60366:1 60476:1 60553:1 60624:1 60757:1 60864:1 61114:1 61748:1 61925:1 62181:1 62207:1 62212:1 62324:1 62411:1 62570:1 62630:1 62726:1 62766:1 62912:1 63726:1 63758:1 63859:1 64434:1 64580:1 64634:1 64689:1 64838:1 65382:1 65532:1 65591:1 65769:1 65821:1 65865:1 65922:1 66218:1 66257:1 66461:1 66531:1 66758:1 66850:1 67739:1 68037:1 68041:1 68231:1 68498:1 69128:1 69265:1 69272:1 69342:1 69499:1 69659:1 70080:1 70169:1 70593:1 70651:1 70784:1 70941:1 71323:1 71463:1 71523:1 71586:1 71759:1 71939:1 71997:1 72395:1 72533:1 72669:1 73074:1 73087:1 73788:1 74727:1 74936:1 75199:1 75381:1 75791:1 75959:1 76410:1 76649:1 76680:1 76700:1 77379:1 #
-0.0018743209945539848065854116043738 28907:1 29180:1 29258:1 29324:1 29326:1 29424:1 29433:1 29471:1 29814:1 29893:1 30190:1 30266:1 30270:1 30297:1 30492:1 30801:1 31025:1 31250:1 31265:1 31327:1 31360:1 31823:1 32025:1 32104:1 32387:1 32573:1 32581:1 32815:1 32849:1 32868:1 32877:1 33146:1 33261:1 33729:1 33922:1 34507:1 34552:1 35490:1 35642:1 35675:1 35713:1 35779:1 35850:1 35877:1 35907:1 35927:1 35933:1 35946:1 36222:1 36289:1 36348:1 36360:1 36667:1 36983:1 36987:1 37385:1 37427:1 37494:1 37705:1 37722:1 37887:1 37985:1 38190:1 38358:1 38476:1 38500:1 38758:1 38844:1 38916:1 38920:1 39449:1 39450:1 39486:1 39815:1 39961:1 40280:1 40387:1 40759:1 40778:1 40805:1 41101:1 41124:1 41132:1 41138:1 41153:1 41320:1 41322:1 41967:1 42115:1 42116:1 42166:1 42168:1 42170:1 42340:1 42437:1 42556:1 42648:1 42773:1 42851:1 42937:1 43129:1 43329:1 43515:1 43556:1 43703:1 43903:1 43910:1 43922:1 44071:1 44194:1 44232:1 44256:1 44409:1 44438:1 44984:1 45244:1 45369:1 45382:1 45458:1 45564:1 45618:1 45870:1 45954:1 46102:1 46211:1 46337:1 46447:1 46660:1 46719:1 47210:1 47289:1 47290:1 47304:1 47421:1 47561:1 47684:1 48060:1 48091:1 48456:1 48470:1 48968:1 48998:1 49084:1 49394:1 49711:1 49841:1 49942:1 50355:1 50462:1 50490:1 50898:1 51147:1 51207:1 51213:1 51343:1 51548:1 52144:1 52181:1 52449:1 52609:1 52728:1 53102:1 53125:1 53712:1 54107:1 54125:1 54204:1 54308:1 55007:1 55098:1 55108:1 55249:1 55370:1 55938:1 56079:1 56163:1 56238:1 56275:1 56527:1 56530:1 56721:1 56755:1 56952:1 57023:1 57537:1 57541:1 57623:1 58231:1 58245:1 58468:1 58555:1 58715:1 58805:1 59016:1 59225:1 59390:1 59627:1 59778:1 59883:1 60033:1 60446:1 60553:1 60692:1 60825:1 60976:1 61327:1 61792:1 62207:1 62271:1 62415:1 62990:1 63274:1 63392:1 63859:1 64580:1 64634:1 64689:1 64838:1 65032:1 65086:1 65111:1 65279:1 65376:1 65532:1 65743:1 65821:1 65865:1 66165:1 66255:1 66531:1 66538:1 66583:1 66791:1 67221:1 67529:1 68159:1 68337:1 68401:1 68614:1 68891:1 69265:1 69342:1 69499:1 69659:1 69760:1 70002:1 70158:1 70593:1 70784:1 71305:1 71463:1 71939:1 72392:1 72489:1 72506:1 72824:1 73035:1 73222:1 73348:1 73420:1 73684:1 73752:1 73850:1 74314:1 74936:1 75113:1 76573:1 76680:1 77295:1 77412:1 77453:1 #
-0.0032195381939242673566270447338411 29072:1 29198:1 29324:1 29326:1 29424:1 29433:1 29442:1 29809:1 29893:1 30168:1 30297:1 30327:1 30380:1 30412:1 30471:1 30473:1 30697:1 30888:1 31002:1 31295:1 31403:1 31449:1 31661:1 31739:1 31973:1 32113:1 32735:1 32764:1 32787:1 32876:1 32877:1 33206:1 33616:1 33661:1 33715:1 33721:1 33835:1 34210:1 34242:1 34257:1 34373:1 34572:1 34628:1 34662:1 34762:1 34828:1 34884:1 35002:1 35019:1 35270:1 35523:1 35750:1 35815:1 35877:1 35946:1 36319:1 36732:1 36902:1 37319:1 37333:1 37385:1 37427:1 37494:1 37506:1 37722:1 37866:1 38085:1 38129:1 38289:1 38358:1 38744:1 38894:1 38920:1 39027:1 39317:1 39326:1 39449:1 39450:1 39523:1 39721:1 39754:1 39883:1 39929:1 40159:1 40280:1 40360:1 40372:1 40648:1 40660:1 40746:1 40980:1 41047:1 41236:1 41308:1 41320:1 41415:1 41535:1 42086:1 42103:1 42115:1 42144:1 42166:1 42168:1 42170:1 42359:1 42437:1 42501:1 42549:1 42648:1 42685:1 42730:1 42802:1 42851:1 42857:1 43210:1 43328:1 43501:1 43566:1 43703:1 43899:1 43902:1 43903:1 44040:1 44071:1 44083:1 44256:1 44326:1 44435:1 44438:1 44462:1 44522:1 44697:1 44725:1 45009:1 45089:1 45292:1 45296:1 45669:1 45683:1 45734:1 45983:1 45988:1 46073:1 46361:1 46393:1 46447:1 46698:1 46724:1 46756:1 46837:1 46885:1 47220:1 47270:1 47289:1 47290:1 47304:1 47406:1 47543:1 47549:1 47796:1 48160:1 48334:1 48443:1 48808:1 48936:1 48945:1 48968:1 49711:1 49751:1 50071:1 50174:1 50261:1 50302:1 50490:1 50785:1 50875:1 50878:1 50915:1 51095:1 51207:1 51213:1 51223:1 51428:1 51567:1 51687:1 51819:1 52355:1 52496:1 52728:1 52836:1 52888:1 53068:1 53322:1 53443:1 53505:1 53548:1 53712:1 53986:1 53998:1 54125:1 54204:1 54216:1 54308:1 54524:1 54587:1 55068:1 55469:1 55477:1 55951:1 56020:1 56079:1 56163:1 56237:1 56275:1 56284:1 56317:1 56527:1 56530:1 56561:1 56598:1 56748:1 56751:1 56952:1 57023:1 57036:1 57068:1 57148:1 57465:1 57623:1 57710:1 58102:1 58145:1 58468:1 58492:1 58498:1 58517:1 58715:1 58743:1 59076:1 59288:1 59494:1 59612:1 59724:1 59766:1 59778:1 59782:1 59874:1 60208:1 60268:1 60476:1 60708:1 61301:1 61812:1 61884:1 62207:1 62216:1 62271:1 62279:1 62411:1 62486:1 62675:1 62912:1 62971:1 63166:1 63302:1 63312:1 63544:1 63592:1 64341:1 64580:1 64634:1 64690:1 65111:1 65164:1 65328:1 65519:1 65532:1 65582:1 65721:1 65821:1 65865:1 65922:1 66253:1 66756:1 66850:1 66872:1 67313:1 67590:1 67744:1 67782:1 68041:1 68181:1 68476:1 68489:1 68666:1 68746:1 68785:1 68889:1 68891:1 68992:1 69121:1 69265:1 69272:1 69341:1 69499:1 69769:1 69860:1 69900:1 70169:1 70218:1 70330:1 70651:1 70677:1 70784:1 71222:1 71463:1 71536:1 71581:1 71586:1 71636:1 71844:1 71939:1 72300:1 72395:1 72515:1 72931:1 73035:1 73057:1 73149:1 73387:1 73420:1 73432:1 73752:1 74559:1 75042:1 75122:1 75199:1 75381:1 75774:1 76219:1 76445:1 76636:1 76700:1 76968:1 77012:1 77080:1 77172:1 77379:1 77418:1 77443:1 #
0.0032195381939242673566270447338411 28890:1 28914:1 28944:1 28969:1 29010:1 29204:1 29211:1 29225:1 29324:1 29326:1 29424:1 29433:1 29466:1 29717:1 29893:1 30071:1 30196:1 30286:1 30297:1 30409:1 30471:1 31252:1 31321:1 31351:1 31378:1 31599:1 32025:1 32113:1 32498:1 32787:1 32789:1 32877:1 33337:1 33398:1 33513:1 33616:1 33717:1 33976:1 34038:1 34242:1 34260:1 34662:1 34884:1 35186:1 35324:1 35376:1 35621:1 35642:1 35713:1 35771:1 35833:1 35877:1 35910:1 36319:1 36360:1 36387:1 36441:1 36621:1 36735:1 36809:1 36841:1 37053:1 37385:1 37427:1 37494:1 37495:1 37690:1 37717:1 37722:1 37751:1 37907:1 37979:1 38073:1 38085:1 38163:1 38358:1 38446:1 38749:1 38916:1 39152:1 39450:1 39486:1 39515:1 39641:1 39814:1 39815:1 39937:1 40280:1 40378:1 40380:1 40565:1 40901:1 41091:1 41160:1 41296:1 41320:1 41535:1 41622:1 41663:1 41675:1 41754:1 41924:1 42086:1 42115:1 42122:1 42144:1 42166:1 42168:1 42170:1 42203:1 42214:1 42340:1 42361:1 42642:1 42648:1 42685:1 42697:1 42753:1 42851:1 42857:1 43053:1 43210:1 43348:1 43409:1 43654:1 43703:1 43803:1 43804:1 43910:1 43929:1 44083:1 44158:1 44256:1 44326:1 44513:1 44662:1 44698:1 45066:1 45244:1 45296:1 45390:1 45458:1 45731:1 46008:1 46447:1 46473:1 46536:1 46724:1 46730:1 46837:1 47016:1 47210:1 47256:1 47289:1 47290:1 47293:1 47304:1 47662:1 47755:1 47796:1 47810:1 47983:1 47996:1 48260:1 48663:1 48816:1 48844:1 48968:1 48985:1 49078:1 49711:1 49768:1 49824:1 49903:1 50100:1 50261:1 50326:1 50449:1 50490:1 50643:1 50737:1 50797:1 50878:1 50945:1 51058:1 51207:1 51213:1 51223:1 51310:1 51368:1 51398:1 51475:1 51548:1 51567:1 51804:1 52048:1 52073:1 52124:1 52188:1 52229:1 52440:1 52728:1 53315:1 53345:1 53505:1 53712:1 53733:1 53871:1 53983:1 54051:1 54130:1 54204:1 54308:1 54622:1 54868:1 55007:1 55369:1 55383:1 55792:1 55831:1 56117:1 56153:1 56163:1 56530:1 56558:1 56581:1 56621:1 56748:1 56755:1 56907:1 57075:1 57469:1 57486:1 57550:1 57854:1 58359:1 58468:1 58498:1 58640:1 58701:1 58715:1 58912:1 59016:1 59033:1 59135:1 59272:1 59296:1 59299:1 59395:1 59402:1 59466:1 59473:1 59778:1 59855:1 59883:1 59886:1 59903:1 59907:1 60033:1 60139:1 60553:1 60645:1 60854:1 61246:1 61511:1 61695:1 61812:1 61884:1 61939:1 62012:1 62105:1 62181:1 62271:1 62324:1 62782:1 62971:1 63013:1 63209:1 63302:1 63446:1 63859:1 63917:1 64201:1 64226:1 64580:1 64868:1 64980:1 65041:1 65111:1 65157:1 65169:1 65532:1 65651:1 65672:1 65796:1 65821:1 65865:1 65922:1 65978:1 66152:1 66159:1 66253:1 66430:1 66791:1 66850:1 67047:1 67123:1 67313:1 67448:1 67471:1 67613:1 67650:1 67953:1 68345:1 68473:1 69265:1 69272:1 69342:1 69477:1 69499:1 69585:1 69659:1 69769:1 69860:1 69900:1 70019:1 70169:1 70506:1 70651:1 70733:1 70784:1 70808:1 70864:1 70941:1 71089:1 71463:1 71464:1 71523:1 71586:1 71640:1 71641:1 71790:1 71898:1 71939:1 72066:1 72073:1 72301:1 72422:1 72515:1 72552:1 72717:1 73035:1 73051:1 73074:1 73087:1 73129:1 73172:1 73182:1 73222:1 73286:1 73336:1 73396:1 73420:1 74120:1 74143:1 74407:1 74559:1 74981:1 75108:1 75366:1 75775:1 75780:1 75786:1 75976:1 76273:1 76407:1 76700:1 76864:1 77073:1 77172:1 77178:1 77295:1 77455:1 77518:1 #
0.0029895156852907606506719595529376 29324:1 29424:1 29433:1 29499:1 29581:1 29814:1 29893:1 30071:1 30094:1 30297:1 30471:1 30652:1 30885:1 30975:1 31176:1 31250:1 31481:1 31601:1 32365:1 32403:1 32642:1 32644:1 32759:1 32787:1 32789:1 32815:1 32872:1 32877:1 33130:1 33395:1 33702:1 33764:1 33867:1 34257:1 34363:1 34572:1 34786:1 34884:1 34888:1 35027:1 35250:1 35270:1 35404:1 35508:1 35637:1 35877:1 36048:1 36344:1 36426:1 37385:1 37427:1 37494:1 37495:1 37670:1 37722:1 37957:1 37972:1 38240:1 38278:1 38358:1 38662:1 38947:1 39083:1 39210:1 39258:1 39449:1 39450:1 39486:1 39814:1 40216:1 40256:1 40284:1 40458:1 40626:1 41138:1 41188:1 41320:1 41506:1 42010:1 42115:1 42159:1 42166:1 42168:1 42170:1 42276:1 42501:1 42526:1 42575:1 42685:1 43210:1 43584:1 43703:1 43902:1 43910:1 43992:1 44004:1 44038:1 44256:1 44438:1 44551:1 44613:1 44698:1 44926:1 45479:1 45516:1 45683:1 45881:1 46102:1 46329:1 46393:1 46536:1 46610:1 46724:1 46962:1 47016:1 47025:1 47128:1 47210:1 47220:1 47289:1 47290:1 47406:1 47870:1 48009:1 48014:1 48501:1 48621:1 48699:1 48721:1 48765:1 48841:1 48844:1 48846:1 48937:1 48968:1 49394:1 49711:1 49803:1 49849:1 49903:1 49916:1 49978:1 50201:1 50261:1 50302:1 50326:1 50373:1 50437:1 50490:1 50898:1 50947:1 51207:1 51213:1 51804:1 51883:1 51952:1 52144:1 52208:1 52251:1 52279:1 52728:1 52888:1 52933:1 53027:1 53712:1 53733:1 53998:1 54130:1 54204:1 54308:1 54438:1 55007:1 55057:1 55108:1 55469:1 55626:1 55960:1 55976:1 56016:1 56075:1 56500:1 56527:1 56530:1 56920:1 57068:1 57271:1 57298:1 57299:1 57465:1 57467:1 57541:1 57623:1 57769:1 58468:1 58640:1 58715:1 58746:1 58963:1 59196:1 59231:1 59288:1 59767:1 59883:1 59903:1 59970:1 60033:1 60145:1 60173:1 60476:1 60552:1 60553:1 60856:1 60860:1 60976:1 61114:1 61428:1 62612:1 62649:1 62768:1 62835:1 62895:1 63015:1 63224:1 63302:1 63544:1 63732:1 64026:1 64262:1 64452:1 64634:1 64838:1 64848:1 64980:1 65096:1 65111:1 65382:1 65532:1 65796:1 65832:1 65865:1 65922:1 65978:1 66100:1 66221:1 66461:1 66791:1 67313:1 67473:1 67529:1 67953:1 67969:1 67974:1 67982:1 68041:1 68654:1 68725:1 68898:1 69265:1 69272:1 69499:1 69659:1 69772:1 70079:1 70158:1 70169:1 70210:1 70264:1 70525:1 70593:1 70743:1 70784:1 70900:1 71463:1 71536:1 71586:1 71636:1 71782:1 71805:1 71939:1 72073:1 72419:1 72497:1 72546:1 72693:1 72841:1 72929:1 73035:1 73331:1 73732:1 74559:1 75199:1 75381:1 75482:1 75538:1 75607:1 76680:1 76700:1 77295:1 77379:1 77484:1 77520:1 #
0.0032195381939242673566270447338411 29034:1 29324:1 29326:1 29424:1 29631:1 29861:1 30297:1 30401:1 30471:1 30555:1 30825:1 30975:1 31109:1 31176:1 31321:1 31599:1 31661:1 32240:1 32787:1 32815:1 32877:1 33206:1 33217:1 33299:1 33486:1 33881:1 34242:1 34499:1 34759:1 34837:1 35270:1 35513:1 35621:1 35642:1 35713:1 35880:1 36048:1 36120:1 36519:1 36636:1 36772:1 36939:1 37385:1 37427:1 37494:1 37495:1 37722:1 38099:1 38358:1 38476:1 38613:1 38920:1 39083:1 39194:1 39449:1 39465:1 39486:1 39754:1 39814:1 40284:1 40305:1 40372:1 40374:1 40380:1 40746:1 41001:1 41091:1 41120:1 41312:1 41320:1 41322:1 41535:1 42115:1 42166:1 42168:1 42170:1 42214:1 42281:1 42526:1 42851:1 43090:1 43249:1 43404:1 43703:1 43848:1 43902:1 43903:1 43908:1 43910:1 44083:1 44256:1 44264:1 45011:1 45038:1 45244:1 45341:1 45458:1 45697:1 46211:1 46482:1 47220:1 47289:1 47290:1 47304:1 47722:1 47870:1 47930:1 48091:1 48165:1 48907:1 48968:1 49059:1 49521:1 49628:1 49711:1 49751:1 50024:1 50046:1 50071:1 50261:1 50490:1 50898:1 50943:1 51211:1 51213:1 51223:1 51901:1 52144:1 52555:1 52728:1 53324:1 53584:1 53712:1 53733:1 53986:1 54107:1 54125:1 54204:1 54308:1 54366:1 54910:1 54979:1 55007:1 56530:1 56861:1 57023:1 57467:1 57545:1 57576:1 58402:1 58468:1 58498:1 58640:1 58715:1 58763:1 58851:1 59067:1 59075:1 59323:1 59395:1 59627:1 59903:1 59995:1 60476:1 60485:1 60627:1 60708:1 60757:1 60763:1 61409:1 61812:1 62209:1 62584:1 63522:1 63544:1 63606:1 63610:1 64708:1 64879:1 64977:1 65239:1 65364:1 65532:1 65821:1 65865:1 65922:1 65978:1 66531:1 66795:1 66850:1 67109:1 67473:1 68041:1 68089:1 68335:1 68374:1 69265:1 69272:1 69305:1 69431:1 69499:1 69571:1 69585:1 69659:1 69685:1 69760:1 69900:1 69967:1 70169:1 70302:1 70330:1 70528:1 70784:1 70797:1 71463:1 71464:1 71586:1 71640:1 71844:1 71939:1 72066:1 72083:1 72091:1 72261:1 72262:1 72302:1 72515:1 72956:1 73035:1 73074:1 73670:1 73752:1 73830:1 74273:1 74399:1 74559:1 74981:1 75199:1 75656:1 76700:1 77357:1 77379:1 77518:1 #
-0.0014037364115377334080475568711677 29225:1 29324:1 29424:1 29433:1 29581:1 29701:1 29893:1 30029:1 30071:1 30297:1 30327:1 30697:1 30884:1 30888:1 30915:1 31250:1 31351:1 31745:1 31749:1 31816:1 32264:1 32430:1 32707:1 32787:1 32877:1 33372:1 33605:1 33743:1 33823:1 34038:1 34147:1 34242:1 34499:1 34762:1 34884:1 35642:1 35677:1 35713:1 35833:1 35877:1 35921:1 36258:1 36318:1 36360:1 36772:1 36884:1 37350:1 37427:1 37458:1 37494:1 37722:1 37732:1 38211:1 38358:1 38916:1 38966:1 39449:1 39450:1 39486:1 39743:1 39985:1 40458:1 41021:1 41093:1 41124:1 41138:1 41200:1 41291:1 41320:1 41377:1 41415:1 41535:1 41618:1 41663:1 41801:1 41944:1 42103:1 42115:1 42166:1 42168:1 42170:1 42642:1 42648:1 42753:1 42851:1 42902:1 42937:1 43014:1 43080:1 43210:1 43496:1 43589:1 43703:1 43902:1 43910:1 44004:1 44071:1 44256:1 44315:1 44762:1 44799:1 45038:1 45187:1 45479:1 46008:1 46447:1 46698:1 46719:1 47289:1 47290:1 47343:1 47406:1 47520:1 47722:1 47796:1 47870:1 47936:1 48091:1 48260:1 48383:1 48576:1 48621:1 48968:1 49119:1 49233:1 49388:1 49403:1 49505:1 49711:1 49722:1 49727:1 49751:1 49819:1 49903:1 50024:1 50490:1 50898:1 51207:1 51213:1 51223:1 51798:1 52076:1 53125:1 53136:1 53821:1 54125:1 54132:1 54204:1 54305:1 54308:1 55007:1 55105:1 56237:1 56381:1 56500:1 56527:1 56530:1 56532:1 56535:1 56672:1 56899:1 57023:1 57297:1 57623:1 57819:1 57935:1 58221:1 58468:1 58498:1 58787:1 59051:1 59151:1 59196:1 59202:1 59395:1 59903:1 59907:1 60159:1 60208:1 60476:1 60499:1 60552:1 60708:1 60785:1 61579:1 61790:1 62012:1 62486:1 62786:1 62971:1 63144:1 63153:1 63579:1 63612:1 63642:1 64262:1 64580:1 64634:1 64689:1 64980:1 65083:1 65174:1 65346:1 65532:1 65735:1 65821:1 65865:1 66238:1 66653:1 66791:1 67313:1 67384:1 67893:1 67976:1 68364:1 68730:1 68775:1 69265:1 69499:1 69610:1 69659:1 69760:1 70218:1 70330:1 70784:1 70795:1 70862:1 70878:1 70947:1 71285:1 71463:1 71636:1 71684:1 71844:1 71939:1 72073:1 72107:1 72202:1 72302:1 73035:1 73057:1 73074:1 73222:1 73267:1 73432:1 73752:1 73895:1 73969:1 74337:1 74654:1 75134:1 75199:1 76680:1 76700:1 77418:1 #
0.0032195381939242673566270447338411 28906:1 29157:1 29224:1 29324:1 29326:1 29433:1 29840:1 29893:1 30168:1 30297:1 30448:1 30471:1 30506:1 30603:1 30697:1 30866:1 30934:1 31033:1 31100:1 31286:1 31351:1 31739:1 31865:1 31950:1 32025:1 32130:1 32179:1 32187:1 32707:1 32787:1 32877:1 33316:1 33330:1 33398:1 33434:1 34009:1 34210:1 34243:1 34556:1 34622:1 34662:1 34828:1 34888:1 35283:1 35285:1 35348:1 35621:1 35713:1 35714:1 35756:1 35877:1 35880:1 35962:1 36135:1 36360:1 36519:1 36983:1 37048:1 37308:1 37427:1 37480:1 37494:1 37722:1 37732:1 37869:1 37911:1 37991:1 38085:1 38141:1 38476:1 38491:1 38873:1 39083:1 39152:1 39194:1 39230:1 39450:1 39486:1 39815:1 39933:1 40216:1 40280:1 40284:1 40537:1 40574:1 40738:1 40988:1 41091:1 41132:1 41320:1 41429:1 41480:1 41586:1 41801:1 41890:1 41943:1 42166:1 42168:1 42170:1 42437:1 42611:1 42642:1 42648:1 42851:1 42902:1 42937:1 42978:1 42999:1 43044:1 43297:1 43514:1 43770:1 43908:1 44004:1 44007:1 44071:1 44083:1 44158:1 44232:1 44256:1 44372:1 44455:1 44513:1 44632:1 44670:1 44679:1 45014:1 45153:1 45495:1 45726:1 45928:1 46008:1 46268:1 46507:1 46724:1 47289:1 47304:1 47406:1 47698:1 47870:1 47943:1 48037:1 48081:1 48091:1 48201:1 48302:1 48603:1 48816:1 48852:1 48880:1 48889:1 48968:1 49593:1 49711:1 49803:1 49869:1 50024:1 50376:1 50490:1 50898:1 51031:1 51207:1 51213:1 51223:1 51548:1 51687:1 51883:1 52187:1 52229:1 52270:1 52487:1 52659:1 53206:1 53300:1 53383:1 53680:1 53712:1 53733:1 53739:1 53871:1 53986:1 54107:1 54230:1 54308:1 54334:1 55007:1 55008:1 55049:1 55330:1 55369:1 55442:1 55469:1 55583:1 55699:1 56079:1 56163:1 56275:1 56530:1 56627:1 56749:1 56755:1 56791:1 56861:1 56888:1 57023:1 57299:1 57576:1 57742:1 57965:1 58468:1 58715:1 58852:1 59151:1 59611:1 59778:1 59903:1 59998:1 60173:1 60311:1 60366:1 60385:1 60453:1 60476:1 60494:1 60520:1 60541:1 60553:1 60856:1 61812:1 62159:1 62176:1 63178:1 63343:1 63544:1 63987:1 64037:1 64262:1 64520:1 64689:1 64770:1 65478:1 65532:1 65582:1 65591:1 65681:1 65865:1 65922:1 66114:1 66253:1 66291:1 66717:1 67090:1 67152:1 67313:1 67331:1 67408:1 67448:1 67530:1 67648:1 67829:1 67974:1 68005:1 68041:1 69116:1 69265:1 69272:1 69341:1 69342:1 69477:1 69499:1 69610:1 69659:1 70169:1 70749:1 70784:1 71463:1 71464:1 71586:1 71636:1 71759:1 71790:1 71939:1 72073:1 72126:1 72239:1 72296:1 72591:1 72610:1 72627:1 72747:1 72776:1 72786:1 73129:1 73225:1 73579:1 73662:1 73752:1 73830:1 73831:1 73912:1 74936:1 75108:1 75199:1 75233:1 75253:1 75381:1 75482:1 75660:1 75670:1 75751:1 76455:1 76479:1 76543:1 76634:1 76898:1 77379:1 #
-0.0032195381939242673566270447338411 28907:1 29003:1 29208:1 29241:1 29258:1 29277:1 29287:1 29324:1 29326:1 29355:1 29424:1 29433:1 29581:1 29792:1 29882:1 29893:1 29944:1 30142:1 30196:1 30286:1 30297:1 30351:1 30401:1 30414:1 30471:1 30524:1 30697:1 30801:1 30822:1 30915:1 31176:1 31206:1 31251:1 31289:1 31351:1 31581:1 31661:1 31749:1 31861:1 32113:1 32130:1 32169:1 32181:1 32365:1 32430:1 32581:1 32707:1 32714:1 32787:1 32789:1 32877:1 32944:1 33205:1 33314:1 33316:1 33354:1 33398:1 33587:1 33715:1 33746:1 33859:1 34093:1 34433:1 34485:1 34556:1 34601:1 34765:1 34834:1 34861:1 34884:1 35268:1 35270:1 35308:1 35354:1 35437:1 35467:1 35639:1 35642:1 35713:1 35771:1 35877:1 36048:1 36120:1 36319:1 36348:1 36360:1 36387:1 36389:1 36621:1 36667:1 36735:1 36841:1 36939:1 36966:1 36968:1 37357:1 37427:1 37494:1 37495:1 37722:1 37751:1 37907:1 38037:1 38062:1 38085:1 38358:1 38404:1 38439:1 38518:1 38684:1 38744:1 38835:1 38916:1 38940:1 38955:1 38966:1 39083:1 39230:1 39284:1 39332:1 39422:1 39449:1 39450:1 39460:1 39486:1 39578:1 39586:1 39688:1 39814:1 39815:1 39937:1 39956:1 40031:1 40036:1 40167:1 40280:1 40284:1 40458:1 40470:1 40471:1 40648:1 40738:1 40756:1 40781:1 40786:1 40901:1 40966:1 40971:1 41091:1 41124:1 41132:1 41160:1 41308:1 41320:1 41325:1 41415:1 41480:1 41569:1 41663:1 41801:1 41849:1 42115:1 42166:1 42168:1 42170:1 42214:1 42297:1 42355:1 42359:1 42437:1 42457:1 42501:1 42648:1 42685:1 42770:1 42851:1 42937:1 43043:1 43051:1 43116:1 43627:1 43703:1 43804:1 43902:1 43903:1 43910:1 44004:1 44065:1 44071:1 44216:1 44247:1 44256:1 44438:1 44455:1 44457:1 44699:1 44748:1 44872:1 44926:1 45029:1 45038:1 45107:1 45207:1 45244:1 45353:1 45428:1 45479:1 45494:1 45775:1 45804:1 45928:1 45988:1 46008:1 46073:1 46136:1 46140:1 46447:1 46536:1 46683:1 46724:1 46730:1 46837:1 47016:1 47289:1 47290:1 47304:1 47406:1 47438:1 47471:1 47476:1 47562:1 47621:1 47796:1 47810:1 47870:1 48060:1 48137:1 48165:1 48169:1 48201:1 48212:1 48335:1 48361:1 48400:1 48813:1 48825:1 48968:1 48997:1 49080:1 49326:1 49540:1 49567:1 49628:1 49711:1 49803:1 49903:1 49967:1 49978:1 50093:1 50170:1 50261:1 50302:1 50425:1 50431:1 50459:1 50490:1 50685:1 50737:1 50898:1 50943:1 50952:1 51035:1 51207:1 51213:1 51223:1 51278:1 51397:1 51529:1 51682:1 51945:1 52130:1 52144:1 52195:1 52229:1 52274:1 52566:1 52659:1 52675:1 52728:1 53067:1 53324:1 53712:1 53733:1 53745:1 53756:1 53986:1 53998:1 54130:1 54162:1 54204:1 54216:1 54260:1 54308:1 54375:1 54504:1 54804:1 54866:1 54930:1 55007:1 55008:1 55012:1 55057:1 55108:1 55469:1 55479:1 55587:1 56122:1 56160:1 56163:1 56275:1 56365:1 56530:1 56556:1 56755:1 56769:1 56789:1 56873:1 56877:1 57015:1 57023:1 57036:1 57163:1 57222:1 57299:1 57407:1 57422:1 57465:1 57498:1 57571:1 57623:1 57650:1 57729:1 57854:1 57935:1 58221:1 58237:1 58307:1 58468:1 58498:1 58512:1 58576:1 58632:1 58640:1 58701:1 58748:1 58789:1 58852:1 58975:1 59209:1 59395:1 59422:1 59669:1 59766:1 59778:1 59793:1 59883:1 59903:1 59907:1 59928:1 59984:1 59998:1 60000:1 60022:1 60208:1 60311:1 60683:1 60692:1 60757:1 60825:1 60848:1 60976:1 61503:1 61637:1 61662:1 61812:1 62012:1 62207:1 62254:1 62271:1 62368:1 62411:1 62666:1 62895:1 62971:1 63015:1 63045:1 63144:1 63153:1 63214:1 63302:1 63544:1 63610:1 63987:1 63992:1 64055:1 64242:1 64434:1 64500:1 64580:1 64597:1 64634:1 64708:1 64804:1 64823:1 64879:1 64980:1 65402:1 65448:1 65532:1 65582:1 65590:1 65591:1 65681:1 65749:1 65821:1 65865:1 65922:1 66108:1 66221:1 66484:1 66600:1 66658:1 66677:1 66791:1 66850:1 66871:1 67015:1 67066:1 67090:1 67152:1 67313:1 67394:1 67442:1 67526:1 67529:1 67531:1 67534:1 67580:1 67639:1 67648:1 67650:1 67739:1 67812:1 67974:1 67982:1 68041:1 68159:1 68165:1 68169:1 68190:1 68395:1 68621:1 68682:1 69013:1 69193:1 69234:1 69265:1 69341:1 69444:1 69499:1 69521:1 69524:1 69616:1 69860:1 69879:1 70119:1 70158:1 70169:1 70215:1 70218:1 70241:1 70296:1 70330:1 70331:1 70517:1 70593:1 70623:1 70753:1 70784:1 70872:1 70971:1 71012:1 71305:1 71428:1 71458:1 71463:1 71464:1 71470:1 71581:1 71586:1 71589:1 71610:1 71636:1 71640:1 71939:1 71995:1 72073:1 72083:1 72147:1 72262:1 72370:1 72395:1 72515:1 72520:1 72546:1 72610:1 72717:1 72859:1 73035:1 73124:1 73129:1 73259:1 73263:1 73348:1 73672:1 73788:1 74177:1 74273:1 74333:1 74423:1 74449:1 74546:1 74559:1 74716:1 74936:1 75094:1 75108:1 75144:1 75409:1 75477:1 75621:1 75651:1 75785:1 75927:1 76289:1 76445:1 76491:1 76499:1 76680:1 76700:1 77170:1 77295:1 77379:1 77518:1 #
-0.0025395538230117463765478369452921 28944:1 29035:1 29072:1 29140:1 29182:1 29225:1 29324:1 29424:1 29433:1 29699:1 29715:1 29789:1 29893:1 29933:1 29987:1 30168:1 30196:1 30286:1 30297:1 30383:1 30471:1 30801:1 31176:1 31227:1 31265:1 31498:1 31599:1 32113:1 32130:1 32179:1 32264:1 32292:1 32298:1 32613:1 32631:1 32643:1 32675:1 32738:1 32787:1 32789:1 32815:1 32872:1 32877:1 33245:1 33264:1 33316:1 33434:1 33560:1 33564:1 33721:1 33746:1 33762:1 33783:1 34038:1 34210:1 34218:1 34407:1 34507:1 34552:1 34556:1 34647:1 34763:1 34828:1 34904:1 35002:1 35209:1 35270:1 35274:1 35376:1 35501:1 35523:1 35544:1 35639:1 35771:1 35869:1 35935:1 36114:1 36120:1 36174:1 36211:1 36289:1 36360:1 36426:1 36519:1 36621:1 36719:1 37156:1 37385:1 37421:1 37427:1 37494:1 37666:1 37670:1 37722:1 37766:1 37812:1 38069:1 38107:1 38358:1 38658:1 38749:1 38809:1 38903:1 38955:1 38966:1 38967:1 39147:1 39194:1 39304:1 39449:1 39450:1 39458:1 39486:1 39751:1 39793:1 39815:1 39929:1 40159:1 40202:1 40280:1 40284:1 40355:1 40360:1 40374:1 40378:1 40458:1 40629:1 40655:1 40660:1 40662:1 40769:1 40775:1 40816:1 41091:1 41188:1 41291:1 41320:1 41535:1 41801:1 42106:1 42115:1 42165:1 42166:1 42168:1 42170:1 42297:1 42526:1 42528:1 42582:1 42642:1 42648:1 42851:1 42857:1 42871:1 42928:1 42959:1 42999:1 43076:1 43105:1 43119:1 43210:1 43328:1 43389:1 43479:1 43496:1 43509:1 43582:1 43703:1 43732:1 43758:1 43902:1 43908:1 43910:1 44004:1 44021:1 44071:1 44132:1 44232:1 44240:1 44256:1 44523:1 44675:1 44710:1 45023:1 45038:1 45244:1 45360:1 45734:1 45827:1 45928:1 46008:1 46121:1 46703:1 46724:1 46772:1 46837:1 47210:1 47280:1 47289:1 47290:1 47304:1 47499:1 47621:1 47663:1 47698:1 47699:1 47796:1 47870:1 47901:1 48033:1 48456:1 48584:1 48667:1 48765:1 48795:1 48815:1 48850:1 48968:1 49052:1 49505:1 49527:1 49575:1 49711:1 49713:1 49751:1 49803:1 49824:1 49834:1 49837:1 49934:1 50032:1 50100:1 50212:1 50261:1 50296:1 50388:1 50437:1 50490:1 50772:1 50952:1 50984:1 51035:1 51192:1 51207:1 51213:1 51223:1 51349:1 51369:1 51484:1 51529:1 51567:1 51715:1 52154:1 52254:1 52279:1 52300:1 52500:1 52566:1 52728:1 52747:1 52888:1 53065:1 53345:1 53416:1 53498:1 53696:1 53712:1 53733:1 53821:1 53853:1 54308:1 54335:1 54816:1 54917:1 54921:1 54975:1 55007:1 55008:1 55249:1 55363:1 55438:1 55611:1 55666:1 55938:1 56113:1 56163:1 56202:1 56275:1 56498:1 56518:1 56527:1 56530:1 56774:1 57023:1 57068:1 57452:1 57465:1 57537:1 57550:1 57576:1 57633:1 57805:1 57854:1 57900:1 57911:1 58346:1 58468:1 58608:1 58687:1 58743:1 58852:1 59016:1 59083:1 59196:1 59197:1 59272:1 59293:1 59395:1 59464:1 59477:1 59568:1 59627:1 59676:1 59782:1 59886:1 59903:1 60000:1 60454:1 60476:1 60553:1 60665:1 60708:1 60864:1 61695:1 61812:1 61814:1 62001:1 62081:1 62093:1 62415:1 62485:1 62570:1 62634:1 62763:1 62971:1 63045:1 63141:1 63302:1 63544:1 63572:1 63610:1 63888:1 64044:1 64084:1 64242:1 64262:1 64580:1 64596:1 64634:1 64689:1 64764:1 64770:1 64777:1 64800:1 64803:1 64838:1 64848:1 64958:1 64960:1 64980:1 65059:1 65104:1 65130:1 65142:1 65376:1 65408:1 65532:1 65591:1 65693:1 65700:1 65821:1 65865:1 65922:1 65978:1 66253:1 66296:1 66409:1 66443:1 66461:1 66754:1 66791:1 66883:1 66983:1 67020:1 67111:1 67294:1 67313:1 67384:1 67507:1 67586:1 67870:1 68041:1 68105:1 68190:1 68473:1 68621:1 68673:1 68992:1 69265:1 69272:1 69499:1 69659:1 69748:1 69751:1 69986:1 70057:1 70218:1 70222:1 70330:1 70441:1 70593:1 70743:1 70784:1 70947:1 71089:1 71174:1 71241:1 71463:1 71464:1 71523:1 71586:1 71636:1 71790:1 71844:1 71939:1 71984:1 72030:1 72073:1 72202:1 72276:1 72300:1 72546:1 72602:1 72659:1 72760:1 72824:1 73105:1 73129:1 73222:1 73267:1 73572:1 73595:1 74011:1 74177:1 74425:1 74477:1 74557:1 74559:1 74945:1 75061:1 75108:1 75199:1 75294:1 75381:1 75761:1 75927:1 75976:1 76220:1 76287:1 76297:1 76556:1 76583:1 76680:1 76696:1 76700:1 77178:1 77266:1 77295:1 77518:1 #
-0.002664390204414170473801171112882 28986:1 29022:1 29072:1 29324:1 29326:1 29424:1 29433:1 29602:1 29715:1 29789:1 29814:1 29873:1 29882:1 29893:1 30065:1 30071:1 30168:1 30179:1 30297:1 30425:1 30471:1 30572:1 30801:1 31176:1 31351:1 31601:1 31973:1 32130:1 32264:1 32477:1 32742:1 32787:1 32877:1 33134:1 33205:1 33206:1 33264:1 33316:1 33398:1 33580:1 33717:1 33863:1 34050:1 34077:1 34142:1 34170:1 34210:1 34242:1 34257:1 34287:1 34572:1 34620:1 34662:1 34810:1 34969:1 35002:1 35354:1 35404:1 35466:1 35510:1 35621:1 35824:1 35833:1 35845:1 35862:1 35995:1 36027:1 36048:1 36120:1 36132:1 36211:1 36344:1 36360:1 36387:1 36394:1 36621:1 36729:1 37282:1 37418:1 37427:1 37494:1 37544:1 37670:1 37751:1 37909:1 38004:1 38070:1 38085:1 38287:1 38358:1 38446:1 38844:1 38903:1 38920:1 38955:1 39074:1 39083:1 39247:1 39450:1 39486:1 39814:1 40263:1 40280:1 40284:1 40378:1 40724:1 40785:1 40841:1 41124:1 41188:1 41200:1 41312:1 41320:1 41754:1 42115:1 42118:1 42166:1 42168:1 42170:1 42349:1 42358:1 42361:1 42437:1 42614:1 42648:1 42753:1 42851:1 42883:1 43210:1 43357:1 43445:1 43485:1 43703:1 43902:1 43908:1 43910:1 44256:1 44523:1 44536:1 44762:1 44780:1 44881:1 45219:1 45367:1 45390:1 45632:1 45775:1 46008:1 46141:1 46245:1 46283:1 46447:1 46648:1 46724:1 47210:1 47289:1 47290:1 47304:1 47406:1 47499:1 47709:1 47796:1 47995:1 48030:1 48091:1 48400:1 48456:1 48501:1 48576:1 48584:1 48649:1 48968:1 49452:1 49711:1 49803:1 50261:1 50293:1 50490:1 50898:1 51079:1 51207:1 51211:1 51213:1 51223:1 52144:1 52154:1 52430:1 52582:1 52609:1 52659:1 52728:1 53060:1 53136:1 53712:1 53821:1 53834:1 53998:1 54107:1 54130:1 54204:1 54308:1 54339:1 54379:1 54463:1 54755:1 55007:1 55008:1 55054:1 55060:1 55078:1 55263:1 55369:1 55469:1 55479:1 55509:1 55548:1 55938:1 56016:1 56163:1 56530:1 56672:1 56755:1 56775:1 56952:1 57023:1 57144:1 57197:1 57383:1 57452:1 57465:1 57576:1 58307:1 58399:1 58468:1 58624:1 58715:1 59151:1 59196:1 59232:1 59395:1 59422:1 59766:1 59778:1 59886:1 59903:1 60000:1 60022:1 60033:1 60037:1 60369:1 60476:1 60520:1 60683:1 60708:1 60723:1 60739:1 61327:1 61627:1 61783:1 61812:1 62212:1 62486:1 62592:1 62714:1 62794:1 62854:1 63001:1 63015:1 63017:1 63129:1 63153:1 63290:1 63522:1 63544:1 63612:1 63717:1 64062:1 64262:1 64419:1 64500:1 64632:1 64634:1 64689:1 64770:1 64827:1 64980:1 65111:1 65268:1 65305:1 65532:1 65582:1 65591:1 65865:1 65922:1 65978:1 66213:1 66253:1 66409:1 66795:1 67017:1 67111:1 67140:1 67313:1 67471:1 67473:1 67974:1 68041:1 68746:1 68930:1 68962:1 69122:1 69265:1 69272:1 69401:1 69477:1 69499:1 69610:1 69659:1 69875:1 69966:1 70131:1 70330:1 70568:1 70784:1 70795:1 70947:1 71463:1 71464:1 71586:1 71636:1 71659:1 71939:1 72395:1 72480:1 72599:1 72610:1 72627:1 72652:1 72851:1 73035:1 73056:1 73074:1 73081:1 73174:1 73222:1 73267:1 73274:1 73336:1 73432:1 73530:1 73656:1 73682:1 73752:1 74559:1 74575:1 74773:1 74916:1 75199:1 75651:1 75660:1 75751:1 75767:1 75961:1 76289:1 76313:1 76371:1 76400:1 76499:1 76808:1 77073:1 77295:1 77379:1 77389:1 77418:1 #
-0.0001987588347950900932725737391138 29003:1 29022:1 29324:1 29326:1 29346:1 29433:1 29581:1 29810:1 29893:1 29944:1 30055:1 30071:1 30114:1 30168:1 30297:1 30439:1 30448:1 30471:1 30552:1 30576:1 30915:1 30941:1 31004:1 31051:1 31176:1 31250:1 31601:1 31679:1 31739:1 31749:1 32125:1 32657:1 32764:1 32787:1 32877:1 32944:1 33119:1 33134:1 33206:1 33354:1 33715:1 33738:1 33833:1 33982:1 34038:1 34143:1 34327:1 34373:1 34384:1 34616:1 34666:1 34884:1 34888:1 35270:1 35274:1 35334:1 35642:1 35713:1 35757:1 35827:1 35935:1 36081:1 36239:1 36567:1 36621:1 36732:1 36772:1 36782:1 36830:1 37306:1 37421:1 37427:1 37451:1 37494:1 37722:1 37866:1 38085:1 38143:1 38190:1 38358:1 38744:1 38916:1 38955:1 38969:1 39083:1 39217:1 39317:1 39412:1 39450:1 39453:1 39482:1 39486:1 39815:1 40006:1 40069:1 40280:1 40378:1 40411:1 40599:1 40751:1 40802:1 41091:1 41111:1 41132:1 41188:1 41267:1 41291:1 41320:1 41555:1 41663:1 41801:1 41944:1 42007:1 42115:1 42144:1 42164:1 42166:1 42168:1 42170:1 42297:1 42437:1 42526:1 42580:1 42851:1 42999:1 43028:1 43080:1 43357:1 43558:1 43672:1 43703:1 43738:1 43902:1 43903:1 43908:1 44004:1 44071:1 44083:1 44139:1 44158:1 44256:1 44435:1 44438:1 44515:1 44675:1 44738:1 44762:1 45050:1 45066:1 45244:1 45470:1 45498:1 45632:1 45734:1 45907:1 46073:1 46271:1 46339:1 46399:1 46724:1 46837:1 46913:1 47188:1 47289:1 47290:1 47406:1 47451:1 47610:1 47725:1 47755:1 47796:1 47983:1 48080:1 48160:1 48357:1 48525:1 48576:1 48647:1 48667:1 48720:1 48871:1 48911:1 48968:1 48976:1 48998:1 49215:1 49299:1 49366:1 49505:1 49679:1 49711:1 49727:1 49751:1 50261:1 50296:1 50459:1 50490:1 50506:1 50518:1 50684:1 50898:1 51031:1 51079:1 51207:1 51213:1 51223:1 51369:1 51428:1 51548:1 51624:1 52126:1 52144:1 52187:1 52208:1 52707:1 52749:1 53074:1 53203:1 53322:1 53593:1 53712:1 53733:1 54107:1 54125:1 54298:1 54308:1 54331:1 54921:1 55007:1 55144:1 55442:1 55469:1 56079:1 56103:1 56163:1 56435:1 56530:1 56661:1 56748:1 56755:1 56866:1 57021:1 57068:1 57075:1 57299:1 57890:1 58220:1 58359:1 58468:1 58640:1 58715:1 59342:1 59395:1 59462:1 59758:1 59766:1 59778:1 59903:1 60033:1 60295:1 60317:1 60476:1 60520:1 60692:1 60723:1 60779:1 61003:1 61415:1 61544:1 61627:1 61812:1 61813:1 61829:1 61884:1 62053:1 62109:1 62207:1 62634:1 62794:1 62971:1 63123:1 63302:1 63612:1 63732:1 63770:1 63841:1 63859:1 64262:1 64634:1 64689:1 64838:1 65137:1 65174:1 65378:1 65532:1 65590:1 65591:1 65681:1 65821:1 65865:1 65922:1 66221:1 66292:1 66430:1 66574:1 67152:1 67207:1 67221:1 67242:1 67648:1 67739:1 67812:1 67974:1 68041:1 68092:1 68105:1 68190:1 68197:1 68265:1 68335:1 68498:1 69234:1 69265:1 69272:1 69328:1 69341:1 69401:1 69499:1 69605:1 69659:1 69741:1 69880:1 69967:1 70218:1 70330:1 70517:1 70593:1 70736:1 70738:1 70784:1 70802:1 70885:1 70941:1 70947:1 71463:1 71464:1 71555:1 71586:1 71636:1 71782:1 71939:1 72083:1 72093:1 72262:1 72453:1 72486:1 72515:1 72667:1 72817:1 73035:1 73129:1 73173:1 73174:1 73222:1 73336:1 73420:1 73438:1 73452:1 73655:1 73659:1 73752:1 73788:1 74033:1 74559:1 75075:1 75781:1 75903:1 76015:1 76289:1 76413:1 76486:1 76675:1 76680:1 76846:1 77170:1 77295:1 77379:1 77443:1 77455:1 77544:1 #
-0.0032195381939242673566270447338411 28880:1 29324:1 29326:1 29424:1 29499:1 29893:1 30103:1 30168:1 30327:1 30411:1 30448:1 30801:1 31339:1 31940:1 32113:1 32365:1 32466:1 32877:1 33419:1 34662:1 34828:1 35178:1 36387:1 36441:1 36519:1 37427:1 37494:1 37722:1 37732:1 37751:1 37907:1 38028:1 38211:1 38311:1 38551:1 38966:1 39145:1 39644:1 40280:1 40284:1 40380:1 40746:1 40915:1 41093:1 41188:1 41320:1 41398:1 41484:1 41618:1 42038:1 42115:1 42168:1 42642:1 42705:1 42851:1 42857:1 42937:1 43210:1 43910:1 44004:1 44256:1 44522:1 44765:1 44906:1 45374:1 45630:1 46447:1 46724:1 46837:1 47289:1 47796:1 48032:1 48547:1 48795:1 48968:1 49272:1 49394:1 49628:1 49711:1 49751:1 51046:1 51142:1 51207:1 51213:1 51223:1 51548:1 51888:1 52096:1 52112:1 52229:1 52728:1 52888:1 52903:1 53109:1 53921:1 53986:1 53998:1 54126:1 54149:1 54204:1 54265:1 54308:1 54335:1 54510:1 54524:1 55442:1 56163:1 56755:1 57000:1 57023:1 57623:1 58468:1 58852:1 58871:1 59140:1 59151:1 59288:1 59903:1 61808:1 61812:1 61813:1 62207:1 62912:1 62971:1 63729:1 64026:1 64434:1 64580:1 64879:1 64980:1 65532:1 65865:1 65922:1 65978:1 66260:1 68335:1 68812:1 69265:1 69328:1 69348:1 69499:1 69900:1 70330:1 70593:1 70784:1 71089:1 71463:1 71536:1 71637:1 71939:1 72262:1 72382:1 72388:1 72395:1 72610:1 73074:1 73106:1 73222:1 73530:1 73695:1 73836:1 74342:1 74936:1 75037:1 75094:1 75199:1 76097:1 76308:1 76493:1 76680:1 76700:1 77455:1 #
0.0032195381939242673566270447338411 29184:1 29324:1 29433:1 29563:1 29893:1 30168:1 30297:1 30327:1 30551:1 30697:1 30838:1 31631:1 32764:1 32877:1 34257:1 34650:1 34884:1 35264:1 35369:1 35523:1 36174:1 37385:1 37427:1 37670:1 37751:1 38916:1 39083:1 39486:1 39624:1 40280:1 40573:1 41021:1 41188:1 41200:1 41291:1 41308:1 41320:1 41535:1 42166:1 42168:1 42851:1 43186:1 43703:1 43903:1 43910:1 44256:1 44438:1 44756:1 46837:1 46838:1 46913:1 47220:1 47289:1 47290:1 47304:1 48060:1 48403:1 49711:1 49751:1 50261:1 50550:1 50943:1 51213:1 51223:1 51597:1 52057:1 53696:1 53712:1 53733:1 53837:1 54204:1 54308:1 54587:1 55402:1 56527:1 56752:1 56755:1 58249:1 58468:1 58640:1 58715:1 58961:1 59766:1 59782:1 60208:1 60624:1 61812:1 62990:1 64419:1 64580:1 64632:1 64634:1 65107:1 65532:1 65865:1 66107:1 66491:1 67090:1 67529:1 68231:1 68927:1 69265:1 69328:1 69499:1 70557:1 70593:1 70784:1 71305:1 71463:1 71586:1 71640:1 71939:1 72296:1 72302:1 72395:1 72515:1 74559:1 74773:1 75199:1 76219:1 76367:1 76400:1 76499:1 76835:1 77403:1 #
0.0014218050520239059603122555586197 28880:1 28945:1 28969:1 29215:1 29225:1 29324:1 29326:1 29424:1 29433:1 29587:1 29814:1 29893:1 29907:1 30080:1 30168:1 30180:1 30297:1 30300:1 30409:1 30697:1 30816:1 31481:1 31573:1 31601:1 31661:1 31698:1 31861:1 32113:1 32365:1 32378:1 32613:1 32707:1 32764:1 32787:1 32789:1 32808:1 32849:1 32877:1 33194:1 33316:1 33384:1 33398:1 33863:1 34430:1 34489:1 34734:1 34828:1 34861:1 34918:1 35523:1 35639:1 35713:1 35771:1 35833:1 35877:1 35899:1 36018:1 36120:1 36344:1 36348:1 36360:1 36576:1 37070:1 37288:1 37385:1 37427:1 37475:1 37494:1 37501:1 37722:1 37745:1 37751:1 37869:1 38165:1 38358:1 38681:1 38916:1 39047:1 39450:1 39486:1 39584:1 39624:1 39645:1 39685:1 39809:1 40159:1 40280:1 40746:1 40778:1 41091:1 41138:1 41320:1 41415:1 41535:1 41663:1 41801:1 42107:1 42115:1 42168:1 42214:1 42437:1 42503:1 42529:1 42575:1 42590:1 42628:1 42648:1 42685:1 42737:1 42851:1 42857:1 43028:1 43275:1 43472:1 43485:1 43584:1 43703:1 43902:1 43903:1 43908:1 43910:1 44004:1 44071:1 44083:1 44123:1 44256:1 44315:1 44478:1 44551:1 44576:1 45038:1 45096:1 45244:1 45458:1 45479:1 45618:1 45630:1 45632:1 45666:1 45683:1 45764:1 45775:1 46447:1 46724:1 47016:1 47289:1 47290:1 47304:1 47406:1 47917:1 47998:1 48060:1 48106:1 48274:1 48846:1 48968:1 49628:1 49711:1 49751:1 49803:1 49903:1 50015:1 50046:1 50100:1 50163:1 50261:1 50541:1 50785:1 50943:1 51207:1 51211:1 51213:1 51223:1 51680:1 52659:1 52703:1 52728:1 53125:1 53127:1 53821:1 53953:1 54107:1 54125:1 54308:1 55078:1 56063:1 56078:1 56163:1 56366:1 56527:1 56530:1 56535:1 56621:1 56755:1 57068:1 57230:1 57819:1 58468:1 58715:1 58773:1 59218:1 59473:1 59782:1 59840:1 59883:1 59928:1 60470:1 60520:1 60553:1 60623:1 60624:1 60663:1 60708:1 60757:1 60785:1 60885:1 61369:1 61531:1 61808:1 61813:1 61853:1 62212:1 62271:1 62324:1 62766:1 62971:1 62990:1 63060:1 63144:1 63251:1 63252:1 63690:1 63836:1 64580:1 64626:1 64634:1 64689:1 64838:1 64980:1 65111:1 65402:1 65532:1 65543:1 65582:1 65821:1 66152:1 66167:1 66461:1 66559:1 66710:1 66758:1 66791:1 66850:1 66883:1 67313:1 67369:1 67543:1 67573:1 68374:1 68683:1 68969:1 68978:1 69265:1 69341:1 69342:1 69499:1 69610:1 69659:1 69708:1 70079:1 70330:1 70441:1 70593:1 70651:1 70795:1 70846:1 71463:1 71464:1 71498:1 71586:1 71628:1 71636:1 71873:1 71939:1 71995:1 72075:1 72083:1 72395:1 72546:1 72875:1 73035:1 73129:1 73336:1 73387:1 73420:1 73941:1 74110:1 75199:1 75381:1 75651:1 75656:1 75670:1 75786:1 76131:1 76499:1 76518:1 76555:1 76680:1 76700:1 77295:1 77418:1 #
0.0032195381939242673566270447338411 29003:1 29324:1 29326:1 29433:1 29814:1 29858:1 29893:1 30071:1 30168:1 30196:1 30297:1 30425:1 30471:1 30506:1 30697:1 30888:1 31176:1 31324:1 31327:1 31371:1 31424:1 31581:1 31672:1 31747:1 31945:1 32025:1 32264:1 32296:1 32764:1 32787:1 32877:1 33314:1 33316:1 33398:1 33600:1 33746:1 33848:1 33881:1 34057:1 34143:1 34579:1 34647:1 34828:1 35025:1 35264:1 35270:1 35510:1 35671:1 35833:1 35877:1 35947:1 36132:1 36294:1 36455:1 36576:1 36621:1 36667:1 37231:1 37427:1 37556:1 37594:1 37690:1 37722:1 37729:1 37732:1 37751:1 38028:1 38358:1 38476:1 38883:1 38916:1 38966:1 39210:1 39317:1 39449:1 39486:1 39781:1 39961:1 40006:1 40202:1 40216:1 40280:1 40355:1 40626:1 40816:1 40859:1 40915:1 40950:1 41072:1 41124:1 41291:1 41308:1 41320:1 41586:1 41663:1 41801:1 42115:1 42166:1 42168:1 42170:1 42501:1 42549:1 42648:1 42720:1 42851:1 42871:1 42873:1 43054:1 43065:1 43210:1 43328:1 43416:1 43639:1 43669:1 43703:1 43902:1 43903:1 44055:1 44071:1 44083:1 44252:1 44256:1 44662:1 44697:1 44804:1 45576:1 46008:1 46141:1 46204:1 46338:1 46421:1 46447:1 46464:1 46671:1 46742:1 46814:1 46913:1 47210:1 47220:1 47289:1 47290:1 47698:1 47983:1 48165:1 48309:1 48503:1 48525:1 48846:1 48889:1 48968:1 49069:1 49227:1 49315:1 49505:1 49628:1 49711:1 49751:1 49903:1 49942:1 50261:1 50297:1 50448:1 50543:1 50603:1 50898:1 51207:1 51213:1 51223:1 51548:1 52130:1 52144:1 52866:1 53322:1 53334:1 53345:1 53680:1 53712:1 54204:1 54229:1 54308:1 54986:1 55007:1 55699:1 56275:1 56517:1 56527:1 56752:1 56755:1 56900:1 56907:1 57541:1 57576:1 58011:1 58125:1 58233:1 58468:1 58588:1 58715:1 58824:1 59196:1 59766:1 59883:1 59886:1 59888:1 60000:1 60173:1 60476:1 60708:1 61298:1 61812:1 62207:1 62216:1 62324:1 62774:1 62794:1 62912:1 64580:1 64634:1 64689:1 64838:1 64960:1 64978:1 64980:1 65382:1 65478:1 65532:1 65582:1 65770:1 65821:1 65865:1 66152:1 66165:1 66221:1 66461:1 66613:1 66755:1 66850:1 67090:1 67095:1 67258:1 67313:1 67378:1 67529:1 67739:1 68037:1 68889:1 69209:1 69234:1 69265:1 69307:1 69499:1 69610:1 69659:1 69741:1 69772:1 69900:1 70218:1 70330:1 70784:1 70878:1 70925:1 70941:1 70991:1 71305:1 71463:1 71536:1 71586:1 71640:1 71939:1 72083:1 72262:1 72296:1 72302:1 72395:1 72610:1 72764:1 73035:1 73074:1 73222:1 73348:1 73354:1 73565:1 73670:1 73969:1 74368:1 74493:1 75199:1 75781:1 75845:1 75995:1 76015:1 76097:1 76192:1 76400:1 76680:1 76887:1 77172:1 77190:1 77379:1 77474:1 #
0.0032195381939242673566270447338411 28969:1 28983:1 29324:1 29893:1 30123:1 30297:1 30401:1 30425:1 30697:1 31090:1 31327:1 31823:1 32234:1 32877:1 33122:1 34038:1 34664:1 34686:1 34694:1 34786:1 34897:1 35348:1 35354:1 35513:1 35642:1 35908:1 35995:1 37427:1 37494:1 37722:1 37751:1 38358:1 38487:1 38612:1 38966:1 39083:1 39111:1 39326:1 39412:1 39449:1 39450:1 39629:1 39973:1 40032:1 40165:1 40280:1 40372:1 41013:1 41021:1 41124:1 41320:1 42007:1 42048:1 42115:1 42166:1 42168:1 42297:1 42648:1 43069:1 43198:1 43232:1 43328:1 43357:1 43515:1 43703:1 43910:1 44256:1 44417:1 44438:1 44699:1 44856:1 45576:1 45776:1 45807:1 46571:1 46828:1 47210:1 47220:1 47289:1 47290:1 47406:1 48091:1 48160:1 48608:1 49711:1 49727:1 49751:1 50100:1 50261:1 50302:1 50490:1 50545:1 51109:1 51207:1 51213:1 51343:1 51467:1 51529:1 51687:1 52096:1 53094:1 53125:1 53206:1 53322:1 53733:1 53953:1 54308:1 54591:1 54701:1 54748:1 54855:1 54868:1 55007:1 55008:1 55442:1 56990:1 57467:1 57537:1 58148:1 58288:1 58468:1 58640:1 58824:1 59151:1 59627:1 59778:1 59782:1 60368:1 60453:1 60476:1 60520:1 60553:1 60644:1 60708:1 60825:1 61503:1 62105:1 62570:1 62675:1 62971:1 62991:1 63178:1 63370:1 63482:1 63544:1 64634:1 64838:1 65174:1 65448:1 65478:1 65532:1 65591:1 65821:1 65865:1 66126:1 66221:1 66430:1 66850:1 67090:1 67204:1 67313:1 67358:1 67459:1 68380:1 68615:1 69265:1 69499:1 69540:1 69659:1 69748:1 70784:1 70864:1 71400:1 71450:1 71463:1 71498:1 71536:1 71581:1 71586:1 71844:1 71939:1 72147:1 72956:1 72962:1 73035:1 73173:1 73432:1 74033:1 74328:1 74936:1 75199:1 75791:1 76086:1 76447:1 76680:1 76700:1 77379:1 #
0.0032195381939242673566270447338411 28896:1 28969:1 29072:1 29156:1 29225:1 29287:1 29324:1 29433:1 29789:1 29893:1 29945:1 30297:1 30448:1 30697:1 32179:1 32264:1 32451:1 32877:1 33205:1 34169:1 34210:1 35354:1 35642:1 37427:1 37494:1 39027:1 39083:1 39450:1 39486:1 40378:1 40655:1 40971:1 41091:1 41112:1 41308:1 41320:1 41663:1 41777:1 42115:1 42166:1 42203:1 42297:1 42437:1 42770:1 42851:1 43328:1 43333:1 43662:1 44071:1 44232:1 44256:1 44540:1 44926:1 45050:1 45244:1 45376:1 45458:1 45576:1 46136:1 46425:1 46724:1 46837:1 46913:1 47289:1 47290:1 47406:1 47796:1 47983:1 47986:1 48060:1 48501:1 48587:1 48968:1 49275:1 49803:1 49903:1 50818:1 50980:1 51213:1 51223:1 51952:1 52053:1 52144:1 52154:1 52445:1 53322:1 53712:1 53821:1 54125:1 54308:1 55240:1 55249:1 55722:1 56201:1 56774:1 56877:1 57015:1 57550:1 58468:1 58616:1 58640:1 58715:1 59323:1 59395:1 59550:1 59758:1 59778:1 59883:1 60485:1 60520:1 60708:1 61812:1 62271:1 62598:1 62726:1 63544:1 63696:1 64148:1 64262:1 64800:1 65532:1 65591:1 65865:1 65922:1 66221:1 66253:1 66461:1 66850:1 66865:1 67076:1 67505:1 67739:1 68041:1 68107:1 69265:1 69499:1 69524:1 69565:1 69763:1 70218:1 70330:1 70450:1 70468:1 70784:1 71463:1 71628:1 71636:1 71873:1 71939:1 73035:1 73836:1 74273:1 74314:1 74775:1 74936:1 75199:1 76479:1 76680:1 76711:1 #
-0.0032195381939242673566270447338411 29324:1 30471:1 32254:1 32787:1 40778:1 42115:1 47289:1 47290:1 50898:1 51207:1 54308:1 65532:1 66221:1 67731:1 67893:1 71939:1 77172:1 #
-0.0032195381939242673566270447338411 28872:1 29324:1 29326:1 29424:1 29652:1 29698:1 30057:1 30196:1 30297:1 30816:1 31351:1 31885:1 31973:1 32130:1 32877:1 33513:1 34001:1 35308:1 35357:1 35771:1 36158:1 37427:1 37494:1 37670:1 37690:1 37722:1 37768:1 38074:1 38358:1 39230:1 39449:1 39486:1 39815:1 39865:1 39959:1 40458:1 41093:1 41124:1 41320:1 41663:1 42007:1 42115:1 42166:1 42168:1 42471:1 42851:1 43210:1 43703:1 43908:1 44004:1 44152:1 44256:1 44274:1 44284:1 45244:1 45827:1 46158:1 46536:1 46724:1 46913:1 47289:1 47290:1 47293:1 47294:1 47476:1 47695:1 48060:1 48552:1 48909:1 49239:1 50396:1 51207:1 51213:1 51427:1 52903:1 53592:1 53696:1 53870:1 54308:1 56530:1 56531:1 57299:1 58011:1 58086:1 58093:1 58468:1 58640:1 59011:1 59135:1 59479:1 59766:1 62212:1 62663:1 62909:1 64434:1 64980:1 65174:1 65532:1 65865:1 66341:1 66667:1 67160:1 67471:1 67529:1 68374:1 68526:1 69708:1 69830:1 70079:1 70322:1 70768:1 70828:1 70947:1 71463:1 71586:1 71636:1 71939:1 72083:1 72382:1 73627:1 74309:1 74663:1 76700:1 77295:1 77394:1 #
-0.0032195381939242673566270447338411 28944:1 28969:1 29324:1 31250:1 32113:1 32787:1 32877:1 33264:1 33536:1 33694:1 35324:1 35877:1 36132:1 37670:1 39450:1 39685:1 40387:1 41754:1 42170:1 42753:1 43703:1 44071:1 44256:1 47289:1 47476:1 48137:1 48603:1 51207:1 51213:1 53903:1 58206:1 59016:1 59316:1 60520:1 60785:1 62854:1 66710:1 66791:1 67313:1 67529:1 68342:1 69265:1 69272:1 69391:1 69499:1 70784:1 73074:1 75670:1 75951:1 76308:1 #
-0.0032195381939242673566270447338411 29324:1 29645:1 29858:1 29893:1 30080:1 30103:1 30297:1 30622:1 31481:1 31865:1 31964:1 32264:1 32276:1 32662:1 32707:1 32780:1 32877:1 33294:1 33616:1 33643:1 33785:1 34020:1 34356:1 35595:1 35713:1 35718:1 36360:1 36576:1 37427:1 37812:1 38358:1 38476:1 38955:1 38987:1 39326:1 39486:1 40216:1 40316:1 40778:1 41138:1 41303:1 41320:1 41801:1 42144:1 42166:1 42170:1 42685:1 42795:1 43044:1 43908:1 44071:1 44095:1 44256:1 45645:1 46399:1 47085:1 47210:1 47289:1 47290:1 47751:1 47755:1 47796:1 48054:1 48165:1 48663:1 48846:1 48874:1 48968:1 50201:1 50878:1 51207:1 51211:1 51213:1 51343:1 51567:1 51854:1 53067:1 53109:1 53236:1 54308:1 54587:1 54593:1 54690:1 55103:1 56201:1 56621:1 58468:1 58640:1 58715:1 58787:1 59771:1 59778:1 59883:1 60552:1 60624:1 60772:1 60891:1 61064:1 61289:1 61627:1 61812:1 62216:1 63614:1 64634:1 64766:1 64838:1 65532:1 66255:1 66257:1 66850:1 68279:1 69265:1 69431:1 69499:1 69659:1 70179:1 70330:1 70651:1 70808:1 71463:1 71536:1 71636:1 71939:1 72053:1 72074:1 72083:1 72202:1 72665:1 73336:1 73895:1 74075:1 74546:1 74936:1 76323:1 76675:1 76680:1 #
-0.0032195381939242673566270447338411 29208:1 29324:1 29326:1 29789:1 29893:1 30297:1 30785:1 30816:1 30908:1 30933:1 31454:1 31755:1 31984:1 32085:1 32113:1 32787:1 32877:1 33353:1 33516:1 33560:1 33721:1 34075:1 34169:1 34561:1 34645:1 34812:1 35026:1 35028:1 35129:1 35278:1 35283:1 35513:1 36667:1 37427:1 37494:1 37544:1 37732:1 38271:1 38444:1 38500:1 39331:1 39340:1 39449:1 39450:1 39532:1 39586:1 39629:1 39674:1 39865:1 40280:1 41062:1 41080:1 41153:1 41320:1 41641:1 41712:1 42168:1 42214:1 42297:1 42851:1 42869:1 43564:1 43703:1 44172:1 44256:1 44365:1 44417:1 45296:1 46536:1 46603:1 46724:1 47289:1 47476:1 47731:1 47930:1 48032:1 48106:1 48374:1 48403:1 48471:1 48968:1 49089:1 49285:1 49711:1 49892:1 50100:1 50151:1 50259:1 51120:1 51207:1 51213:1 51567:1 51624:1 51687:1 52048:1 52273:1 52345:1 52836:1 53460:1 53712:1 54018:1 54130:1 54308:1 54329:1 55469:1 56016:1 56960:1 57222:1 57281:1 57405:1 57541:1 57578:1 57710:1 57734:1 57890:1 57935:1 58468:1 58701:1 58715:1 59151:1 59634:1 59782:1 59928:1 59932:1 60282:1 60553:1 62207:1 62374:1 62854:1 62856:1 63302:1 63642:1 63698:1 64044:1 64637:1 64921:1 65465:1 65532:1 65749:1 65821:1 65865:1 66062:1 66126:1 66253:1 67152:1 67347:1 67459:1 67724:1 68060:1 68415:1 68799:1 69122:1 69342:1 69391:1 69499:1 70179:1 70670:1 70784:1 71048:1 71352:1 71463:1 71636:1 71939:1 72156:1 73074:1 73129:1 73483:1 73830:1 74137:1 74283:1 74309:1 74342:1 74376:1 74773:1 75108:1 75199:1 75233:1 76807:1 #
0.0030180954168654923648607013575429 28907:1 28969:1 29022:1 29324:1 29433:1 29581:1 30193:1 30297:1 30473:1 31145:1 31248:1 31684:1 31691:1 32113:1 32130:1 32179:1 32249:1 32787:1 32789:1 32877:1 33316:1 33685:1 33789:1 33975:1 34020:1 34481:1 34556:1 34572:1 34662:1 34762:1 34810:1 35131:1 35308:1 35402:1 35428:1 35466:1 35771:1 35833:1 36319:1 36360:1 36519:1 36704:1 36763:1 36983:1 37427:1 37494:1 37645:1 38015:1 38235:1 38684:1 38872:1 38918:1 39083:1 39147:1 39436:1 39449:1 39450:1 39609:1 39627:1 39637:1 39781:1 40049:1 40280:1 40284:1 40686:1 41013:1 41091:1 41107:1 41124:1 41188:1 41404:1 41535:1 41582:1 41801:1 42115:1 42168:1 42170:1 42274:1 42296:1 42871:1 43903:1 43910:1 44004:1 44071:1 44256:1 44637:1 44881:1 44891:1 45112:1 45192:1 45435:1 46447:1 46724:1 46849:1 47289:1 47290:1 47796:1 47983:1 48162:1 48479:1 48567:1 48968:1 49180:1 49711:1 49751:1 49944:1 50024:1 50316:1 50545:1 51050:1 51207:1 51213:1 51223:1 51883:1 52096:1 52208:1 52659:1 52671:1 53062:1 53206:1 53403:1 53697:1 53854:1 53986:1 54204:1 54308:1 54524:1 54931:1 55007:1 55148:1 55307:1 55369:1 55458:1 56227:1 56275:1 56530:1 56556:1 56900:1 57023:1 57452:1 57465:1 57541:1 57890:1 58195:1 58468:1 58498:1 58701:1 58715:1 58852:1 59160:1 59502:1 59778:1 59782:1 59855:1 59903:1 60173:1 60476:1 60494:1 61171:1 61332:1 61503:1 61812:1 62420:1 62900:1 62971:1 63144:1 63544:1 63638:1 64650:1 64687:1 64803:1 64838:1 64992:1 65041:1 65157:1 65265:1 65364:1 65408:1 65532:1 65648:1 65821:1 66213:1 66253:1 66372:1 66791:1 67057:1 67313:1 67314:1 67471:1 68041:1 68254:1 68526:1 68746:1 68891:1 69265:1 69499:1 69521:1 69571:1 69987:1 70158:1 70169:1 70264:1 70725:1 70784:1 70941:1 71000:1 71463:1 71586:1 71636:1 71844:1 71873:1 71939:1 72053:1 72372:1 72395:1 72824:1 73129:1 73420:1 73813:1 73989:1 74005:1 74232:1 74480:1 74505:1 74701:1 74847:1 75199:1 75651:1 75656:1 76146:1 76499:1 77295:1 77302:1 #
0.0018114019674424501789300467891053 28896:1 28907:1 29048:1 29104:1 29211:1 29271:1 29287:1 29324:1 29326:1 29424:1 29429:1 29433:1 29581:1 29715:1 29789:1 29814:1 29882:1 29893:1 29936:1 30071:1 30090:1 30168:1 30297:1 30398:1 30409:1 30412:1 30471:1 30553:1 30801:1 30805:1 30838:1 30915:1 31002:1 31025:1 31035:1 31176:1 31289:1 31601:1 31661:1 32113:1 32234:1 32264:1 32294:1 32299:1 32393:1 32451:1 32459:1 32501:1 32761:1 32764:1 32787:1 32815:1 32860:1 32877:1 32973:1 32995:1 33130:1 33205:1 33294:1 33314:1 33398:1 33513:1 33648:1 33685:1 33772:1 33776:1 34147:1 34242:1 34252:1 34301:1 34552:1 34556:1 34622:1 34664:1 34823:1 34828:1 34848:1 34884:1 35002:1 35019:1 35025:1 35274:1 35308:1 35354:1 35389:1 35513:1 35642:1 35771:1 35779:1 35833:1 35912:1 35927:1 36027:1 36081:1 36132:1 36174:1 36210:1 36319:1 36360:1 36387:1 36621:1 36789:1 36841:1 36911:1 36959:1 36985:1 37210:1 37385:1 37401:1 37427:1 37494:1 37722:1 37732:1 37751:1 37820:1 37857:1 38085:1 38358:1 38504:1 38518:1 38551:1 38684:1 38779:1 38809:1 38903:1 38955:1 38966:1 38990:1 39027:1 39083:1 39146:1 39147:1 39285:1 39317:1 39449:1 39450:1 39455:1 39486:1 39578:1 39715:1 39815:1 40006:1 40159:1 40216:1 40280:1 40378:1 40448:1 40458:1 40470:1 40658:1 40748:1 40775:1 40778:1 40781:1 40786:1 40825:1 40950:1 41021:1 41093:1 41124:1 41188:1 41203:1 41308:1 41312:1 41320:1 41348:1 41573:1 41610:1 41663:1 41712:1 41754:1 41801:1 42048:1 42073:1 42106:1 42115:1 42144:1 42166:1 42168:1 42170:1 42648:1 42802:1 42851:1 42857:1 42978:1 43018:1 43054:1 43265:1 43279:1 43703:1 43758:1 43895:1 43902:1 43903:1 43910:1 44004:1 44026:1 44071:1 44083:1 44158:1 44232:1 44256:1 44323:1 44435:1 44438:1 44462:1 44469:1 44551:1 44613:1 44926:1 44956:1 45023:1 45038:1 45296:1 45376:1 45438:1 45458:1 45467:1 45479:1 45576:1 45645:1 45764:1 45881:1 45907:1 46073:1 46158:1 46317:1 46328:1 46339:1 46447:1 46536:1 46603:1 46724:1 46837:1 47210:1 47220:1 47289:1 47290:1 47294:1 47304:1 47342:1 47476:1 47621:1 47682:1 47727:1 47796:1 47828:1 47870:1 47901:1 48060:1 48159:1 48160:1 48169:1 48176:1 48479:1 48584:1 48638:1 48829:1 48871:1 48968:1 49483:1 49711:1 49751:1 49903:1 49967:1 50015:1 50072:1 50116:1 50261:1 50300:1 50338:1 50339:1 50522:1 50525:1 50700:1 50780:1 50898:1 50943:1 51207:1 51213:1 51223:1 51236:1 51297:1 51310:1 51369:1 51567:1 51719:1 51779:1 51868:1 51873:1 52496:1 52548:1 52596:1 52728:1 53107:1 53125:1 53242:1 53377:1 53404:1 53416:1 53438:1 53548:1 53668:1 53696:1 53712:1 53733:1 53739:1 53819:1 54107:1 54125:1 54126:1 54162:1 54204:1 54308:1 54335:1 54379:1 54491:1 54565:1 54690:1 54717:1 54906:1 54917:1 55007:1 55008:1 55078:1 55263:1 55363:1 55369:1 55469:1 55831:1 55895:1 55902:1 55938:1 56163:1 56226:1 56275:1 56284:1 56527:1 56530:1 56532:1 56755:1 56993:1 57023:1 57271:1 57298:1 57299:1 57301:1 57318:1 57452:1 57465:1 57645:1 57681:1 57874:1 58195:1 58209:1 58221:1 58237:1 58307:1 58359:1 58468:1 58498:1 58640:1 58730:1 59047:1 59196:1 59232:1 59252:1 59627:1 59766:1 59778:1 59782:1 59793:1 59795:1 59883:1 59886:1 59903:1 60000:1 60100:1 60316:1 60476:1 60520:1 60553:1 60683:1 60692:1 60708:1 60723:1 60757:1 60976:1 61001:1 61122:1 61388:1 61808:1 61812:1 62181:1 62207:1 62216:1 62271:1 62324:1 62570:1 62663:1 62766:1 62854:1 62895:1 62912:1 63290:1 63297:1 63302:1 63544:1 63572:1 64201:1 64419:1 64434:1 64580:1 64634:1 64689:1 64800:1 65111:1 65157:1 65164:1 65376:1 65532:1 65582:1 65591:1 65674:1 65681:1 65796:1 65821:1 65865:1 65922:1 65978:1 65993:1 66150:1 66152:1 66179:1 66182:1 66221:1 66253:1 66257:1 66430:1 66791:1 66850:1 66883:1 67313:1 67358:1 67378:1 67389:1 67471:1 67737:1 67744:1 67953:1 67982:1 68037:1 68089:1 68254:1 68335:1 68395:1 68401:1 68673:1 68927:1 68930:1 69013:1 69265:1 69325:1 69342:1 69499:1 69610:1 69731:1 69900:1 70218:1 70235:1 70264:1 70330:1 70593:1 70608:1 70784:1 71284:1 71305:1 71323:1 71463:1 71464:1 71498:1 71581:1 71586:1 71636:1 71640:1 71782:1 71844:1 71939:1 71995:1 72040:1 72044:1 72073:1 72253:1 72395:1 72610:1 72696:1 72824:1 73048:1 73057:1 73074:1 73174:1 73242:1 73483:1 73644:1 73655:1 73836:1 74203:1 74283:1 74399:1 74468:1 74546:1 74559:1 74637:1 74729:1 74934:1 74936:1 74943:1 75199:1 75366:1 75656:1 75680:1 76023:1 76146:1 76219:1 76287:1 76313:1 76457:1 76556:1 76675:1 76680:1 76700:1 76818:1 76869:1 77170:1 77295:1 77435:1 77443:1 77484:1 #
0.0032195381939242673566270447338411 28907:1 29225:1 29258:1 29324:1 29326:1 29424:1 29433:1 29789:1 29827:1 29893:1 30114:1 30159:1 30297:1 30409:1 30471:1 30492:1 30721:1 30783:1 30838:1 30970:1 30975:1 31002:1 31176:1 31265:1 31286:1 31310:1 31327:1 31351:1 31354:1 31601:1 32048:1 32113:1 32130:1 32366:1 32451:1 32469:1 32787:1 32821:1 32877:1 32955:1 33042:1 33114:1 33189:1 33316:1 33513:1 33549:1 33674:1 33685:1 33823:1 33863:1 33922:1 34210:1 34242:1 34463:1 34555:1 34556:1 34563:1 34647:1 34662:1 34823:1 34837:1 34880:1 35005:1 35490:1 35523:1 35544:1 35639:1 35642:1 35771:1 35779:1 35833:1 36048:1 36120:1 36344:1 36360:1 36519:1 36849:1 36939:1 36966:1 37210:1 37385:1 37427:1 37494:1 37495:1 37526:1 37531:1 37722:1 37751:1 37907:1 38085:1 38190:1 38358:1 38368:1 38446:1 38684:1 38916:1 38920:1 38955:1 39074:1 39083:1 39147:1 39258:1 39265:1 39317:1 39337:1 39393:1 39450:1 39486:1 39578:1 39781:1 39805:1 39845:1 40216:1 40280:1 40284:1 40305:1 40344:1 40378:1 40409:1 40458:1 40660:1 40781:1 40971:1 41001:1 41013:1 41021:1 41048:1 41124:1 41188:1 41242:1 41291:1 41308:1 41320:1 41350:1 41374:1 41415:1 41603:1 41647:1 41663:1 41685:1 41801:1 41892:1 42007:1 42115:1 42116:1 42166:1 42168:1 42170:1 42297:1 42437:1 42575:1 42648:1 42851:1 42999:1 43018:1 43210:1 43357:1 43393:1 43463:1 43556:1 43666:1 43703:1 43908:1 43910:1 43929:1 44004:1 44013:1 44040:1 44071:1 44106:1 44109:1 44139:1 44232:1 44256:1 44372:1 44406:1 44435:1 44438:1 44462:1 44505:1 44513:1 44528:1 44662:1 44675:1 44753:1 44926:1 44963:1 44984:1 45008:1 45038:1 45174:1 45228:1 45244:1 45428:1 45498:1 45576:1 45618:1 45632:1 45670:1 45734:1 45928:1 45993:1 46062:1 46073:1 46268:1 46271:1 46592:1 46610:1 46724:1 46837:1 46913:1 47085:1 47151:1 47221:1 47289:1 47290:1 47304:1 47646:1 47796:1 47828:1 47901:1 47943:1 47997:1 48160:1 48165:1 48169:1 48275:1 48584:1 48871:1 48889:1 48949:1 48968:1 48997:1 49227:1 49245:1 49427:1 49628:1 49663:1 49694:1 49711:1 49718:1 49751:1 49789:1 49803:1 49903:1 49967:1 50024:1 50261:1 50365:1 50388:1 50490:1 50525:1 50898:1 51207:1 51213:1 51223:1 51242:1 51360:1 51548:1 51612:1 51717:1 51938:1 52053:1 52057:1 52355:1 52430:1 52566:1 52665:1 52728:1 52843:1 52888:1 52931:1 53067:1 53242:1 53262:1 53385:1 53443:1 53712:1 53733:1 53835:1 53998:1 54031:1 54181:1 54308:1 54917:1 55007:1 55008:1 55057:1 55059:1 55078:1 55105:1 55153:1 55307:1 55406:1 55567:1 55628:1 55632:1 55951:1 55976:1 56113:1 56163:1 56233:1 56238:1 56275:1 56284:1 56450:1 56527:1 56530:1 56642:1 56705:1 56755:1 56770:1 56877:1 57023:1 57036:1 57144:1 57232:1 57430:1 57465:1 57541:1 57584:1 57623:1 57854:1 57941:1 58249:1 58307:1 58468:1 58498:1 58626:1 58640:1 58715:1 58746:1 58824:1 58926:1 58975:1 59296:1 59323:1 59395:1 59408:1 59541:1 59627:1 59782:1 59883:1 59886:1 59899:1 59917:1 59998:1 60033:1 60145:1 60208:1 60624:1 60692:1 60799:1 60856:1 60864:1 61114:1 61384:1 61553:1 61672:1 61812:1 62112:1 62134:1 62184:1 62207:1 62212:1 62261:1 62271:1 62279:1 62404:1 62411:1 62528:1 62570:1 62726:1 62802:1 62895:1 62912:1 62917:1 62971:1 62976:1 63149:1 63302:1 63370:1 63391:1 63544:1 63642:1 63643:1 63859:1 63987:1 64171:1 64259:1 64434:1 64573:1 64580:1 64634:1 64689:1 64838:1 64980:1 65111:1 65157:1 65174:1 65454:1 65532:1 65582:1 65590:1 65608:1 65634:1 65648:1 65721:1 65821:1 65865:1 65978:1 66150:1 66152:1 66329:1 66850:1 67106:1 67111:1 67162:1 67168:1 67313:1 67648:1 67739:1 67773:1 67974:1 68001:1 68041:1 68060:1 68105:1 68159:1 68165:1 68265:1 68374:1 68395:1 68401:1 68775:1 68932:1 68992:1 69265:1 69272:1 69286:1 69342:1 69345:1 69499:1 69724:1 69889:1 69967:1 70080:1 70091:1 70158:1 70218:1 70264:1 70265:1 70330:1 70517:1 70532:1 70593:1 70784:1 70864:1 70941:1 70947:1 71463:1 71536:1 71586:1 71636:1 71759:1 71844:1 71939:1 71945:1 72053:1 72083:1 72126:1 72196:1 72273:1 72300:1 72395:1 72411:1 72515:1 72531:1 72859:1 73035:1 73074:1 73129:1 73274:1 73420:1 73438:1 73472:1 73648:1 73752:1 73792:1 73943:1 73987:1 74328:1 74333:1 74449:1 74594:1 74637:1 74643:1 74936:1 75037:1 75094:1 75097:1 75199:1 75369:1 75381:1 75520:1 75542:1 75651:1 75653:1 76015:1 76219:1 76289:1 76306:1 76377:1 76493:1 76639:1 76680:1 76700:1 76738:1 77024:1 77295:1 77340:1 77518:1 #
0.0014395622064522091941574100104617 28969:1 29003:1 29056:1 29182:1 29184:1 29324:1 29326:1 29389:1 29424:1 29433:1 29581:1 29715:1 29739:1 29801:1 29814:1 29828:1 29879:1 29882:1 29893:1 29968:1 30015:1 30046:1 30063:1 30065:1 30071:1 30090:1 30104:1 30168:1 30196:1 30286:1 30297:1 30401:1 30471:1 30476:1 30492:1 30552:1 30697:1 30725:1 30838:1 30915:1 31034:1 31214:1 31250:1 31251:1 31286:1 31351:1 31397:1 31517:1 31661:1 31823:1 31963:1 32239:1 32248:1 32403:1 32548:1 32574:1 32782:1 32787:1 32794:1 32795:1 32877:1 33179:1 33198:1 33217:1 33264:1 33311:1 33486:1 33547:1 33713:1 33789:1 33792:1 33833:1 33841:1 33961:1 34093:1 34134:1 34169:1 34210:1 34647:1 34762:1 34823:1 34828:1 35002:1 35019:1 35268:1 35270:1 35334:1 35354:1 35393:1 35466:1 35523:1 35639:1 35642:1 35713:1 35771:1 36006:1 36289:1 36304:1 36360:1 36441:1 36519:1 36576:1 36621:1 36729:1 37048:1 37231:1 37323:1 37385:1 37401:1 37427:1 37494:1 37515:1 37619:1 37670:1 37702:1 37751:1 37829:1 37877:1 37928:1 38028:1 38211:1 38283:1 38356:1 38358:1 38376:1 38400:1 38456:1 38476:1 38642:1 38779:1 38827:1 38918:1 38920:1 38934:1 38947:1 38955:1 39083:1 39317:1 39326:1 39422:1 39449:1 39450:1 39460:1 39482:1 39486:1 39605:1 39815:1 39837:1 39991:1 40119:1 40159:1 40216:1 40280:1 40284:1 40378:1 40387:1 40499:1 40660:1 40746:1 40778:1 40864:1 41013:1 41014:1 41093:1 41291:1 41308:1 41320:1 41404:1 41415:1 41525:1 41535:1 41550:1 41559:1 41621:1 41663:1 42115:1 42138:1 42142:1 42144:1 42157:1 42164:1 42166:1 42168:1 42170:1 42297:1 42445:1 42501:1 42526:1 42642:1 42715:1 42773:1 42801:1 42851:1 42857:1 42902:1 43210:1 43232:1 43287:1 43411:1 43515:1 43627:1 43703:1 43770:1 43876:1 43902:1 43903:1 43908:1 43910:1 44004:1 44021:1 44057:1 44065:1 44071:1 44083:1 44172:1 44232:1 44256:1 44331:1 44396:1 44488:1 44523:1 44630:1 44660:1 44762:1 44820:1 44926:1 45029:1 45049:1 45090:1 45091:1 45175:1 45244:1 45347:1 45376:1 45458:1 45576:1 45632:1 45881:1 46008:1 46073:1 46226:1 46324:1 46384:1 46391:1 46482:1 46724:1 46807:1 46814:1 46837:1 46849:1 47003:1 47056:1 47064:1 47085:1 47114:1 47151:1 47270:1 47289:1 47290:1 47304:1 47415:1 47451:1 47476:1 47669:1 47698:1 47709:1 47760:1 47784:1 47796:1 47825:1 47870:1 47917:1 47930:1 47943:1 47986:1 48060:1 48091:1 48182:1 48292:1 48501:1 48587:1 48621:1 48644:1 48667:1 48911:1 48968:1 49081:1 49104:1 49176:1 49199:1 49200:1 49227:1 49394:1 49396:1 49428:1 49470:1 49628:1 49690:1 49711:1 49751:1 49803:1 49824:1 49852:1 50176:1 50261:1 50296:1 50297:1 50443:1 50461:1 50473:1 50525:1 50656:1 50931:1 51067:1 51198:1 51207:1 51213:1 51432:1 51481:1 51548:1 51567:1 51624:1 51901:1 51945:1 52208:1 52229:1 52659:1 52728:1 52903:1 53344:1 53386:1 53578:1 53696:1 53712:1 53717:1 53733:1 53998:1 54031:1 54204:1 54305:1 54308:1 54524:1 54537:1 54690:1 54708:1 54796:1 54891:1 54939:1 55007:1 55008:1 55078:1 55121:1 55255:1 55278:1 55401:1 55442:1 55611:1 55976:1 56007:1 56163:1 56169:1 56241:1 56275:1 56294:1 56335:1 56428:1 56527:1 56530:1 56532:1 56535:1 56598:1 56645:1 56652:1 56755:1 56922:1 56993:1 57023:1 57068:1 57207:1 57298:1 57393:1 57658:1 57935:1 57941:1 58062:1 58097:1 58206:1 58234:1 58289:1 58359:1 58439:1 58468:1 58576:1 58625:1 58635:1 58640:1 58743:1 58979:1 59016:1 59092:1 59196:1 59210:1 59296:1 59349:1 59395:1 59529:1 59778:1 59782:1 59886:1 59984:1 60000:1 60033:1 60145:1 60173:1 60476:1 60520:1 60623:1 60655:1 60692:1 60708:1 60723:1 60742:1 60757:1 60859:1 60864:1 61223:1 61301:1 61379:1 61783:1 61812:1 61844:1 61999:1 62207:1 62212:1 62271:1 62324:1 62368:1 62448:1 62570:1 62662:1 62675:1 62891:1 63009:1 63015:1 63045:1 63141:1 63290:1 63302:1 63310:1 63414:1 63456:1 63499:1 63544:1 63696:1 63898:1 64132:1 64195:1 64203:1 64562:1 64580:1 64634:1 64689:1 64764:1 64770:1 64823:1 64838:1 65036:1 65111:1 65142:1 65157:1 65376:1 65478:1 65489:1 65532:1 65582:1 65591:1 65601:1 65789:1 65821:1 65865:1 65978:1 66152:1 66159:1 66221:1 66239:1 66253:1 66484:1 66493:1 66668:1 66688:1 66745:1 66758:1 66791:1 66850:1 67035:1 67082:1 67111:1 67209:1 67248:1 67313:1 67415:1 67433:1 67529:1 67542:1 67570:1 67639:1 67648:1 67650:1 67663:1 67744:1 68105:1 68235:1 68254:1 68438:1 68741:1 68751:1 68785:1 69061:1 69121:1 69130:1 69135:1 69265:1 69272:1 69439:1 69499:1 69571:1 69585:1 69659:1 69966:1 70079:1 70169:1 70218:1 70264:1 70330:1 70453:1 70593:1 70677:1 70784:1 70909:1 71058:1 71323:1 71416:1 71463:1 71573:1 71586:1 71636:1 71661:1 71700:1 71719:1 71788:1 71939:1 71997:1 72073:1 72083:1 72091:1 72112:1 72224:1 72395:1 72445:1 72693:1 72718:1 72859:1 72979:1 73035:1 73129:1 73179:1 73180:1 73242:1 73267:1 73420:1 73684:1 73694:1 73752:1 73775:1 73788:1 73836:1 74005:1 74175:1 74282:1 74493:1 74559:1 74574:1 74723:1 74752:1 74856:1 74859:1 74945:1 75045:1 75075:1 75097:1 75132:1 75136:1 75199:1 75233:1 75381:1 75860:1 76289:1 76445:1 76480:1 76493:1 76586:1 76649:1 76680:1 76807:1 76898:1 76919:1 76985:1 77295:1 77379:1 77435:1 #
0.0032195381939242673566270447338411 28907:1 29115:1 29211:1 29324:1 29330:1 29433:1 29551:1 29893:1 30029:1 30045:1 30055:1 30114:1 30159:1 30168:1 30240:1 30297:1 30425:1 30439:1 30471:1 30614:1 30694:1 30721:1 30885:1 31072:1 31176:1 31295:1 31351:1 31377:1 31397:1 31601:1 31744:1 31884:1 32113:1 32234:1 32264:1 32714:1 32787:1 32877:1 32897:1 32994:1 33101:1 33122:1 33297:1 33412:1 33674:1 33702:1 33764:1 33776:1 34028:1 34134:1 34142:1 34210:1 34242:1 34481:1 34647:1 34673:1 34774:1 34775:1 34884:1 35268:1 35270:1 35566:1 35639:1 35713:1 35732:1 35899:1 35908:1 36048:1 36216:1 36732:1 36782:1 36841:1 36913:1 37323:1 37427:1 37619:1 37690:1 38211:1 38268:1 38283:1 39052:1 39083:1 39111:1 39166:1 39210:1 39317:1 39449:1 39450:1 39486:1 39815:1 39963:1 40159:1 40280:1 40841:1 41021:1 41046:1 41074:1 41093:1 41188:1 41320:1 41339:1 41404:1 41663:1 41938:1 42115:1 42166:1 42168:1 42170:1 42203:1 42235:1 42575:1 42582:1 42642:1 42851:1 42883:1 42999:1 43210:1 43232:1 43264:1 43515:1 43779:1 43903:1 43910:1 44004:1 44071:1 44083:1 44256:1 44438:1 44551:1 44689:1 44926:1 45038:1 45149:1 45376:1 45410:1 45458:1 45683:1 45993:1 46447:1 46628:1 46724:1 46886:1 47214:1 47289:1 47290:1 47304:1 47451:1 47589:1 47643:1 47646:1 47794:1 47943:1 47996:1 48060:1 48224:1 48361:1 48400:1 48503:1 48808:1 48924:1 48968:1 49708:1 49711:1 49751:1 49789:1 49803:1 50003:1 50015:1 50044:1 50302:1 50376:1 50458:1 50898:1 51207:1 51213:1 51223:1 51819:1 52229:1 52316:1 52440:1 52596:1 52616:1 52728:1 52949:1 53345:1 53416:1 53505:1 53593:1 53620:1 53696:1 53733:1 53765:1 53848:1 54204:1 54308:1 54524:1 54746:1 55007:1 55139:1 55369:1 55469:1 55654:1 56275:1 56527:1 56535:1 56649:1 56670:1 56755:1 56775:1 57301:1 57320:1 57509:1 57742:1 57854:1 58468:1 58625:1 58715:1 58852:1 58978:1 59022:1 59290:1 59766:1 59903:1 60171:1 60476:1 60915:1 61503:1 61514:1 61627:1 61812:1 61844:1 61913:1 62024:1 62411:1 62990:1 63689:1 64452:1 64580:1 64689:1 64980:1 65532:1 65621:1 65865:1 66221:1 66688:1 66756:1 66791:1 66850:1 67033:1 67106:1 67433:1 67622:1 67681:1 67692:1 67938:1 68041:1 68059:1 68364:1 68438:1 68473:1 68510:1 68526:1 68844:1 69111:1 69121:1 69229:1 69265:1 69272:1 69342:1 69499:1 69659:1 69663:1 69726:1 69745:1 69792:1 69852:1 70173:1 70264:1 70330:1 70784:1 70909:1 71058:1 71072:1 71284:1 71463:1 71536:1 71586:1 71636:1 71759:1 72180:1 72395:1 72422:1 72553:1 72717:1 73035:1 73048:1 73566:1 73639:1 73775:1 73830:1 74120:1 74427:1 74892:1 74936:1 75042:1 75199:1 75461:1 75651:1 76722:1 76811:1 76985:1 77036:1 77170:1 77253:1 77437:1 77518:1 #
-0.002538639276243016829059939709623 29009:1 29022:1 29072:1 29156:1 29324:1 29326:1 29346:1 29421:1 29424:1 29429:1 29433:1 29479:1 29525:1 29581:1 29619:1 29682:1 29739:1 29775:1 29789:1 29814:1 29893:1 30055:1 30065:1 30071:1 30090:1 30096:1 30143:1 30168:1 30196:1 30297:1 30401:1 30425:1 30429:1 30471:1 30482:1 30492:1 30552:1 30697:1 30721:1 30733:1 30783:1 30838:1 30852:1 30885:1 30888:1 30908:1 31351:1 31354:1 31426:1 31599:1 31601:1 31609:1 31705:1 31739:1 32025:1 32039:1 32122:1 32130:1 32234:1 32264:1 32317:1 32466:1 32727:1 32764:1 32787:1 32789:1 32791:1 32877:1 33003:1 33101:1 33111:1 33316:1 33398:1 33560:1 33764:1 33776:1 33790:1 33792:1 33827:1 34001:1 34038:1 34050:1 34080:1 34116:1 34142:1 34169:1 34170:1 34210:1 34217:1 34224:1 34242:1 34257:1 34404:1 34549:1 34556:1 34647:1 34686:1 34712:1 34732:1 34762:1 34828:1 34834:1 34835:1 34884:1 34958:1 35002:1 35089:1 35135:1 35186:1 35270:1 35285:1 35308:1 35354:1 35510:1 35522:1 35544:1 35713:1 35833:1 35861:1 35869:1 35877:1 35927:1 36027:1 36120:1 36132:1 36143:1 36149:1 36319:1 36344:1 36360:1 36452:1 36549:1 36591:1 36621:1 36648:1 36729:1 36735:1 36782:1 36837:1 36841:1 36983:1 37385:1 37427:1 37494:1 37611:1 37670:1 37700:1 37722:1 37751:1 37768:1 37907:1 37928:1 38004:1 38015:1 38085:1 38188:1 38190:1 38289:1 38311:1 38321:1 38358:1 38368:1 38444:1 38487:1 38591:1 38623:1 38749:1 38809:1 38900:1 38903:1 38920:1 38955:1 39083:1 39136:1 39230:1 39317:1 39450:1 39486:1 39513:1 39609:1 39809:1 39814:1 39815:1 39819:1 39862:1 39929:1 39961:1 40129:1 40160:1 40170:1 40216:1 40280:1 40284:1 40296:1 40372:1 40397:1 40412:1 40605:1 40648:1 40662:1 40704:1 40775:1 40778:1 40781:1 40962:1 41013:1 41016:1 41074:1 41091:1 41093:1 41109:1 41124:1 41132:1 41308:1 41320:1 41377:1 41535:1 41555:1 41663:1 41754:1 41773:1 41801:1 41968:1 42115:1 42166:1 42168:1 42170:1 42214:1 42341:1 42365:1 42536:1 42642:1 42648:1 42685:1 42851:1 42883:1 42902:1 42959:1 43044:1 43054:1 43069:1 43210:1 43275:1 43328:1 43384:1 43491:1 43515:1 43566:1 43584:1 43703:1 43740:1 43791:1 43902:1 43903:1 43908:1 43910:1 44004:1 44053:1 44071:1 44083:1 44158:1 44216:1 44232:1 44240:1 44256:1 44417:1 44699:1 44852:1 44926:1 44984:1 45244:1 45358:1 45458:1 45467:1 45479:1 45498:1 45632:1 45697:1 45734:1 46008:1 46302:1 46317:1 46378:1 46447:1 46507:1 46512:1 46703:1 46724:1 46828:1 46837:1 46886:1 46913:1 46994:1 47043:1 47065:1 47128:1 47210:1 47214:1 47220:1 47285:1 47289:1 47290:1 47293:1 47304:1 47358:1 47402:1 47439:1 47476:1 47494:1 47562:1 47695:1 47796:1 47870:1 48083:1 48091:1 48156:1 48169:1 48224:1 48260:1 48273:1 48357:1 48403:1 48501:1 48584:1 48587:1 48690:1 48813:1 48816:1 48846:1 48868:1 48871:1 48874:1 48907:1 48917:1 48968:1 49075:1 49176:1 49196:1 49399:1 49540:1 49628:1 49684:1 49691:1 49708:1 49711:1 49727:1 49751:1 49903:1 50072:1 50173:1 50261:1 50263:1 50296:1 50355:1 50459:1 50490:1 50511:1 50543:1 50545:1 50684:1 50898:1 50966:1 51035:1 51106:1 51181:1 51207:1 51209:1 51213:1 51223:1 51293:1 51360:1 51529:1 51687:1 51717:1 51801:1 51868:1 51873:1 52053:1 52107:1 52115:1 52144:1 52154:1 52430:1 52533:1 52659:1 52715:1 52836:1 52888:1 52903:1 53068:1 53300:1 53334:1 53438:1 53518:1 53548:1 53642:1 53712:1 53733:1 53821:1 53986:1 53998:1 54047:1 54107:1 54184:1 54204:1 54305:1 54308:1 54746:1 54748:1 54997:1 55007:1 55057:1 55369:1 55420:1 55746:1 56100:1 56160:1 56163:1 56185:1 56275:1 56276:1 56335:1 56527:1 56530:1 56652:1 56755:1 56877:1 56888:1 56896:1 56900:1 56920:1 57023:1 57028:1 57030:1 57082:1 57107:1 57262:1 57287:1 57299:1 57467:1 57541:1 57550:1 57623:1 57710:1 57769:1 57854:1 58013:1 58195:1 58204:1 58226:1 58359:1 58468:1 58497:1 58498:1 58512:1 58545:1 58613:1 58625:1 58640:1 58681:1 58701:1 58715:1 58833:1 59135:1 59160:1 59196:1 59218:1 59252:1 59257:1 59288:1 59290:1 59319:1 59395:1 59416:1 59494:1 59576:1 59681:1 59758:1 59778:1 59782:1 59854:1 59883:1 59886:1 59899:1 59903:1 59928:1 59998:1 60000:1 60022:1 60458:1 60476:1 60499:1 60520:1 60624:1 60630:1 60645:1 60683:1 60708:1 60825:1 61210:1 61249:1 61292:1 61301:1 61369:1 61379:1 61393:1 61413:1 61463:1 61598:1 61654:1 61808:1 61812:1 62121:1 62188:1 62207:1 62271:1 62301:1 62324:1 62541:1 62570:1 62598:1 62649:1 62663:1 62666:1 62667:1 62724:1 62794:1 62854:1 62864:1 62912:1 62971:1 62990:1 63015:1 63153:1 63195:1 63221:1 63302:1 63414:1 63544:1 63606:1 63610:1 63732:1 63859:1 63944:1 63949:1 64201:1 64262:1 64419:1 64434:1 64452:1 64580:1 64597:1 64634:1 64689:1 64770:1 64827:1 64893:1 64958:1 64960:1 64980:1 65111:1 65325:1 65399:1 65478:1 65489:1 65532:1 65535:1 65582:1 65590:1 65591:1 65663:1 65735:1 65821:1 65860:1 65865:1 65922:1 65933:1 65989:1 66124:1 66126:1 66161:1 66165:1 66167:1 66179:1 66189:1 66253:1 66257:1 66484:1 66505:1 66531:1 66653:1 66756:1 66791:1 66794:1 66850:1 67090:1 67152:1 67162:1 67168:1 67214:1 67299:1 67313:1 67471:1 67498:1 67555:1 67638:1 67794:1 67969:1 68041:1 68097:1 68105:1 68165:1 68169:1 68252:1 68377:1 68458:1 68528:1 68538:1 68654:1 68870:1 68889:1 68891:1 69121:1 69234:1 69265:1 69271:1 69272:1 69342:1 69391:1 69499:1 69659:1 69724:1 69731:1 69772:1 69900:1 70080:1 70235:1 70264:1 70330:1 70554:1 70589:1 70651:1 70655:1 70743:1 70784:1 71010:1 71463:1 71464:1 71498:1 71536:1 71586:1 71621:1 71628:1 71636:1 71678:1 71759:1 71939:1 72020:1 72053:1 72066:1 72074:1 72075:1 72083:1 72296:1 72300:1 72307:1 72362:1 72395:1 72400:1 72515:1 72610:1 72705:1 72852:1 72962:1 72988:1 73035:1 73081:1 73222:1 73432:1 73752:1 73830:1 73836:1 73969:1 74106:1 74120:1 74184:1 74204:1 74339:1 74559:1 74637:1 74643:1 74702:1 74716:1 74775:1 75094:1 75134:1 75199:1 75369:1 75381:1 75473:1 75482:1 75656:1 75732:1 75951:1 75961:1 76126:1 76152:1 76289:1 76305:1 76413:1 76560:1 76567:1 76664:1 76680:1 76700:1 76898:1 77141:1 77295:1 77363:1 77379:1 77435:1 77455:1 #
-0.0017889761537125468786324500314322 28872:1 28907:1 29003:1 29211:1 29225:1 29258:1 29324:1 29326:1 29424:1 29433:1 29715:1 29801:1 29814:1 29893:1 30071:1 30090:1 30168:1 30196:1 30286:1 30297:1 30314:1 30320:1 30409:1 30448:1 30471:1 30506:1 30611:1 30697:1 30801:1 30885:1 30915:1 30975:1 31041:1 31176:1 31251:1 31265:1 31367:1 31481:1 31661:1 32113:1 32130:1 32179:1 32264:1 32450:1 32613:1 32672:1 32707:1 32727:1 32764:1 32787:1 32789:1 32815:1 32877:1 32928:1 33060:1 33114:1 33264:1 33317:1 33384:1 33398:1 33635:1 33643:1 33792:1 34024:1 34038:1 34170:1 34174:1 34278:1 34337:1 34355:1 34556:1 34647:1 34662:1 34712:1 34762:1 34823:1 34828:1 34861:1 35027:1 35066:1 35179:1 35283:1 35286:1 35376:1 35466:1 35642:1 35713:1 35756:1 35833:1 35927:1 35995:1 36132:1 36210:1 36416:1 36452:1 36501:1 36621:1 36719:1 36729:1 36988:1 37013:1 37260:1 37308:1 37385:1 37427:1 37494:1 37506:1 37549:1 37576:1 37679:1 37699:1 37722:1 37751:1 37907:1 37946:1 37991:1 38074:1 38085:1 38114:1 38358:1 38551:1 38569:1 38834:1 38883:1 38893:1 38916:1 38947:1 38955:1 38966:1 39083:1 39147:1 39210:1 39318:1 39449:1 39450:1 39486:1 39583:1 39815:1 39937:1 40042:1 40280:1 40284:1 40378:1 40437:1 40441:1 40658:1 40667:1 40778:1 40980:1 40990:1 41021:1 41047:1 41091:1 41093:1 41124:1 41188:1 41308:1 41312:1 41320:1 41326:1 41474:1 41480:1 41535:1 41610:1 41663:1 41754:1 41801:1 41825:1 42106:1 42115:1 42144:1 42166:1 42168:1 42170:1 42214:1 42222:1 42281:1 42292:1 42297:1 42437:1 42450:1 42501:1 42648:1 42685:1 42851:1 42871:1 42902:1 43044:1 43186:1 43210:1 43250:1 43334:1 43340:1 43357:1 43500:1 43556:1 43600:1 43654:1 43703:1 43758:1 43873:1 43902:1 43903:1 43908:1 43910:1 44004:1 44071:1 44083:1 44256:1 44366:1 44372:1 44435:1 44762:1 44926:1 44984:1 45038:1 45105:1 45244:1 45296:1 45428:1 45458:1 45479:1 45498:1 45531:1 45618:1 45626:1 45632:1 45645:1 45666:1 45687:1 45775:1 46008:1 46317:1 46447:1 46480:1 46568:1 46603:1 46683:1 46700:1 46719:1 46724:1 46775:1 46837:1 46886:1 47072:1 47109:1 47128:1 47210:1 47220:1 47289:1 47290:1 47304:1 47406:1 47451:1 47538:1 47621:1 47646:1 47656:1 47682:1 47709:1 47740:1 47796:1 47831:1 47872:1 47943:1 47983:1 48013:1 48037:1 48060:1 48091:1 48165:1 48180:1 48374:1 48584:1 48587:1 48846:1 48968:1 49227:1 49494:1 49711:1 49727:1 49751:1 49803:1 49903:1 49916:1 50015:1 50024:1 50071:1 50100:1 50261:1 50347:1 50490:1 50617:1 50626:1 50785:1 50898:1 50915:1 50956:1 51046:1 51067:1 51207:1 51213:1 51223:1 51369:1 51548:1 51560:1 51628:1 51687:1 51762:1 51879:1 52007:1 52053:1 52136:1 52187:1 52229:1 52247:1 52345:1 52596:1 52659:1 52707:1 52728:1 53067:1 53096:1 53322:1 53617:1 53712:1 53733:1 53739:1 54068:1 54125:1 54149:1 54204:1 54308:1 54369:1 54527:1 54816:1 54828:1 54949:1 55007:1 55008:1 55147:1 55369:1 55442:1 55458:1 55469:1 55479:1 55742:1 56016:1 56062:1 56163:1 56181:1 56201:1 56207:1 56238:1 56275:1 56428:1 56527:1 56530:1 56755:1 56978:1 56993:1 57023:1 57068:1 57107:1 57166:1 57299:1 57452:1 57465:1 57545:1 57854:1 57995:1 58114:1 58138:1 58264:1 58468:1 58514:1 58624:1 58640:1 58649:1 58715:1 58763:1 58926:1 58974:1 59142:1 59395:1 59627:1 59778:1 59782:1 59854:1 59886:1 59903:1 59915:1 60000:1 60476:1 60500:1 60520:1 60553:1 60708:1 60763:1 60779:1 60984:1 61808:1 61812:1 61973:1 62207:1 62271:1 62324:1 62726:1 63023:1 63053:1 63177:1 63289:1 63302:1 63312:1 63544:1 63610:1 63696:1 63859:1 63902:1 64009:1 64580:1 64634:1 64770:1 64838:1 64980:1 65130:1 65448:1 65532:1 65582:1 65681:1 65821:1 65865:1 65922:1 65979:1 66152:1 66159:1 66167:1 66179:1 66221:1 66257:1 66352:1 66505:1 66561:1 66594:1 66785:1 66791:1 66831:1 66850:1 66871:1 67162:1 67313:1 67471:1 67627:1 68041:1 68089:1 68216:1 68335:1 68446:1 68450:1 68655:1 68814:1 68927:1 69111:1 69176:1 69265:1 69271:1 69272:1 69342:1 69370:1 69391:1 69499:1 69609:1 69659:1 69900:1 70158:1 70169:1 70218:1 70330:1 70593:1 70784:1 70795:1 70925:1 71133:1 71305:1 71415:1 71463:1 71464:1 71536:1 71581:1 71586:1 71636:1 71671:1 71759:1 71844:1 71893:1 71939:1 72014:1 72066:1 72073:1 72074:1 72083:1 72296:1 72370:1 72395:1 72470:1 72546:1 72893:1 73035:1 73056:1 73129:1 73222:1 73313:1 73420:1 73670:1 73752:1 73788:1 73895:1 73933:1 73986:1 74282:1 74559:1 74892:1 74936:1 75108:1 75199:1 75381:1 75482:1 75638:1 75653:1 75713:1 75781:1 76019:1 76097:1 76289:1 76499:1 76680:1 76700:1 76711:1 76722:1 77073:1 77092:1 77295:1 77379:1 77435:1 77443:1 77455:1 #
-0.0016744976268706340122305320505802 29003:1 29054:1 29277:1 29324:1 29429:1 29433:1 29479:1 29581:1 29663:1 29801:1 29893:1 29944:1 30297:1 30525:1 30801:1 30847:1 30908:1 31176:1 31250:1 31607:1 31763:1 31885:1 32113:1 32240:1 32264:1 32613:1 32698:1 32727:1 32787:1 32877:1 32955:1 33669:1 33776:1 34210:1 34257:1 34387:1 34430:1 34532:1 34572:1 34609:1 34686:1 34823:1 34828:1 35002:1 35354:1 35357:1 35513:1 35713:1 36061:1 36265:1 36896:1 36968:1 37350:1 37385:1 37418:1 37427:1 37494:1 37670:1 37722:1 37751:1 37946:1 38085:1 38358:1 38400:1 38432:1 38706:1 38914:1 38916:1 39083:1 39166:1 39230:1 39337:1 39374:1 39449:1 39450:1 39486:1 40124:1 40271:1 40280:1 40573:1 40738:1 40746:1 40874:1 40952:1 41160:1 41244:1 41320:1 41353:1 41479:1 41535:1 41663:1 41773:1 42101:1 42166:1 42168:1 42170:1 42214:1 42276:1 42547:1 42627:1 42847:1 42851:1 42902:1 43210:1 43472:1 43666:1 43703:1 43873:1 43876:1 43889:1 44004:1 44083:1 44232:1 44256:1 44891:1 45339:1 45458:1 45479:1 45632:1 45734:1 45989:1 46070:1 46073:1 46447:1 46724:1 47210:1 47220:1 47289:1 47304:1 47406:1 47510:1 47621:1 47722:1 47796:1 47872:1 47983:1 48155:1 48273:1 48841:1 48968:1 49676:1 49711:1 49736:1 49751:1 49789:1 49916:1 49996:1 50029:1 50261:1 50300:1 50392:1 50448:1 50626:1 50898:1 50915:1 50943:1 51109:1 51207:1 51213:1 51278:1 51567:1 52096:1 52153:1 52187:1 52262:1 52305:1 53066:1 53372:1 53385:1 53476:1 53548:1 53712:1 53853:1 53998:1 54125:1 54204:1 54305:1 54308:1 55007:1 55008:1 55078:1 55201:1 55369:1 55442:1 56163:1 56275:1 56530:1 56922:1 57023:1 57300:1 58208:1 58468:1 58498:1 58701:1 58715:1 58852:1 58963:1 59151:1 59197:1 59198:1 59232:1 59766:1 59767:1 59903:1 59917:1 60149:1 60200:1 60273:1 60310:1 60553:1 60692:1 60705:1 60792:1 60807:1 60846:1 60937:1 61812:1 61813:1 62260:1 62355:1 62415:1 63274:1 63302:1 63544:1 63841:1 63859:1 63944:1 63992:1 64580:1 64634:1 64650:1 64980:1 64988:1 65111:1 65164:1 65408:1 65478:1 65532:1 65582:1 65735:1 65865:1 65922:1 66152:1 66167:1 66613:1 66653:1 67090:1 67313:1 67573:1 68614:1 68650:1 69265:1 69272:1 69342:1 69499:1 69659:1 70218:1 70235:1 70411:1 70568:1 70593:1 70784:1 70872:1 71261:1 71323:1 71463:1 71464:1 71586:1 71636:1 71939:1 72014:1 72296:1 72300:1 72382:1 72515:1 72694:1 72778:1 73129:1 73173:1 73420:1 73752:1 73895:1 74232:1 74273:1 74333:1 74397:1 74399:1 74559:1 74561:1 74936:1 74970:1 74981:1 75199:1 75507:1 75948:1 76238:1 76289:1 76413:1 76634:1 76808:1 77073:1 77294:1 77379:1 77518:1 #
0.0032195381939242673566270447338411 29003:1 29072:1 29324:1 29325:1 29326:1 29424:1 29652:1 29814:1 29893:1 30168:1 30297:1 30425:1 30471:1 30721:1 31178:1 31351:1 31601:1 31950:1 32113:1 32450:1 32707:1 32787:1 32789:1 32877:1 34210:1 34662:1 34828:1 34848:1 34884:1 35190:1 35523:1 35713:1 35833:1 36628:1 36939:1 37385:1 37427:1 38190:1 38358:1 38518:1 39083:1 39450:1 39486:1 40378:1 40648:1 41111:1 41291:1 41320:1 41540:1 42115:1 42164:1 42166:1 42168:1 42648:1 42857:1 43044:1 43703:1 43910:1 44071:1 44256:1 44522:1 44615:1 44630:1 44748:1 45389:1 45632:1 46008:1 46913:1 47289:1 47290:1 47304:1 47870:1 47986:1 48998:1 49233:1 49819:1 49903:1 50177:1 50261:1 50956:1 51207:1 51213:1 51223:1 51548:1 51602:1 52903:1 53067:1 53712:1 53998:1 54172:1 54308:1 54524:1 55442:1 56226:1 56527:1 56530:1 56705:1 56770:1 57299:1 57349:1 57545:1 58226:1 58468:1 58545:1 58640:1 58715:1 58763:1 59196:1 59883:1 59886:1 60520:1 60624:1 60708:1 61812:1 63302:1 63544:1 64262:1 64634:1 65137:1 65532:1 65796:1 65800:1 65821:1 65832:1 65865:1 65978:1 66152:1 66850:1 68930:1 69265:1 69272:1 69342:1 69401:1 69431:1 69499:1 69659:1 69731:1 70330:1 70784:1 71463:1 71464:1 71586:1 71939:1 72014:1 72073:1 72224:1 72362:1 73048:1 74294:1 75199:1 75656:1 76219:1 76400:1 77092:1 77379:1 77394:1 77484:1 #
-0.0023101769218030468108771025015358 28907:1 29003:1 29022:1 29034:1 29072:1 29184:1 29198:1 29324:1 29326:1 29424:1 29433:1 29440:1 29479:1 29581:1 29789:1 29792:1 29814:1 29861:1 29893:1 29944:1 30015:1 30071:1 30090:1 30104:1 30114:1 30130:1 30297:1 30425:1 30439:1 30471:1 30481:1 30506:1 30697:1 30801:1 31023:1 31072:1 31164:1 31176:1 31324:1 31351:1 31481:1 31486:1 31601:1 31745:1 31766:1 31823:1 31909:1 31938:1 31963:1 31973:1 32097:1 32113:1 32143:1 32179:1 32264:1 32430:1 32574:1 32644:1 32707:1 32764:1 32787:1 32789:1 32815:1 32868:1 32877:1 33205:1 33398:1 33486:1 33529:1 33635:1 33685:1 33789:1 33792:1 33827:1 33863:1 33978:1 34038:1 34116:1 34210:1 34430:1 34481:1 34531:1 34662:1 34664:1 34686:1 34794:1 34884:1 35002:1 35466:1 35642:1 35713:1 35770:1 35771:1 35833:1 35861:1 35869:1 35877:1 35899:1 35933:1 36120:1 36250:1 36344:1 36358:1 36360:1 36387:1 36431:1 36889:1 36939:1 36983:1 36985:1 36991:1 37055:1 37385:1 37427:1 37494:1 37549:1 37670:1 37722:1 37724:1 37751:1 37898:1 37907:1 37991:1 38004:1 38028:1 38074:1 38117:1 38190:1 38260:1 38318:1 38358:1 38400:1 38413:1 38476:1 38482:1 38551:1 38684:1 38809:1 38903:1 38920:1 38955:1 39023:1 39048:1 39083:1 39136:1 39210:1 39317:1 39354:1 39449:1 39450:1 39474:1 39486:1 39710:1 39727:1 39814:1 39837:1 40007:1 40216:1 40218:1 40280:1 40316:1 40355:1 40378:1 40384:1 40523:1 40658:1 40746:1 40802:1 40864:1 41013:1 41093:1 41111:1 41124:1 41132:1 41138:1 41188:1 41291:1 41308:1 41320:1 41424:1 41466:1 41569:1 41621:1 41663:1 41712:1 41754:1 41777:1 41801:1 42115:1 42164:1 42166:1 42168:1 42170:1 42281:1 42296:1 42297:1 42359:1 42365:1 42473:1 42526:1 42582:1 42609:1 42646:1 42648:1 42719:1 42801:1 42851:1 42871:1 42902:1 42915:1 42937:1 42992:1 43051:1 43210:1 43215:1 43290:1 43333:1 43357:1 43427:1 43501:1 43515:1 43617:1 43639:1 43703:1 43902:1 43910:1 44004:1 44071:1 44072:1 44083:1 44158:1 44256:1 44310:1 44438:1 44615:1 44662:1 44695:1 44697:1 44699:1 44924:1 44926:1 45011:1 45035:1 45149:1 45244:1 45296:1 45376:1 45390:1 45458:1 45478:1 45498:1 45576:1 45618:1 45632:1 45683:1 45708:1 45734:1 45775:1 45879:1 45907:1 46008:1 46059:1 46073:1 46084:1 46271:1 46283:1 46317:1 46393:1 46399:1 46443:1 46447:1 46480:1 46603:1 46608:1 46683:1 46724:1 46884:1 46886:1 46913:1 47171:1 47220:1 47289:1 47290:1 47294:1 47304:1 47406:1 47484:1 47621:1 47699:1 47749:1 47760:1 47796:1 47810:1 47870:1 48060:1 48068:1 48160:1 48165:1 48169:1 48293:1 48335:1 48386:1 48400:1 48476:1 48603:1 48780:1 48808:1 48816:1 48829:1 48846:1 48871:1 48968:1 49092:1 49106:1 49427:1 49538:1 49606:1 49711:1 49722:1 49727:1 49751:1 49851:1 49903:1 49915:1 49942:1 50093:1 50139:1 50154:1 50172:1 50177:1 50181:1 50261:1 50448:1 50490:1 50898:1 51207:1 51213:1 51223:1 51285:1 51369:1 51548:1 51567:1 51719:1 52014:1 52144:1 52195:1 52208:1 52229:1 52345:1 52355:1 52500:1 52975:1 53064:1 53125:1 53210:1 53598:1 53712:1 53725:1 53733:1 53848:1 53986:1 53990:1 53998:1 54107:1 54130:1 54132:1 54149:1 54162:1 54204:1 54308:1 54335:1 54366:1 54527:1 54717:1 54804:1 55007:1 55008:1 55057:1 55108:1 55307:1 55369:1 55442:1 55469:1 55613:1 55666:1 55758:1 55818:1 56045:1 56163:1 56185:1 56201:1 56275:1 56500:1 56530:1 56573:1 56748:1 56755:1 56770:1 56774:1 56877:1 56900:1 56920:1 56952:1 57023:1 57075:1 57144:1 57222:1 57241:1 57349:1 57467:1 57541:1 57545:1 57710:1 57854:1 57858:1 58303:1 58358:1 58359:1 58468:1 58491:1 58498:1 58512:1 58618:1 58640:1 58671:1 58715:1 58804:1 59016:1 59051:1 59190:1 59196:1 59288:1 59366:1 59395:1 59445:1 59529:1 59626:1 59685:1 59721:1 59766:1 59883:1 59886:1 59903:1 59907:1 59915:1 59987:1 60000:1 60033:1 60228:1 60234:1 60310:1 60311:1 60392:1 60418:1 60476:1 60520:1 60553:1 60624:1 60665:1 60683:1 60692:1 60723:1 60864:1 60960:1 61089:1 61281:1 61301:1 61379:1 61388:1 61503:1 61598:1 61627:1 61812:1 61889:1 61925:1 62012:1 62207:1 62317:1 62324:1 62415:1 62495:1 62675:1 62971:1 62990:1 63013:1 63015:1 63123:1 63153:1 63289:1 63302:1 63496:1 63510:1 63544:1 63606:1 63649:1 63662:1 63821:1 63859:1 63917:1 63948:1 64262:1 64300:1 64434:1 64525:1 64580:1 64602:1 64634:1 64689:1 64766:1 64838:1 64980:1 64996:1 65107:1 65119:1 65164:1 65189:1 65399:1 65408:1 65416:1 65519:1 65532:1 65591:1 65633:1 65674:1 65721:1 65749:1 65821:1 65822:1 65865:1 65922:1 66042:1 66068:1 66085:1 66100:1 66124:1 66126:1 66167:1 66194:1 66221:1 66341:1 66395:1 66409:1 66461:1 66559:1 66583:1 66604:1 66698:1 66756:1 66791:1 66850:1 66883:1 67000:1 67066:1 67111:1 67162:1 67189:1 67313:1 67361:1 67369:1 67648:1 67773:1 68001:1 68037:1 68041:1 68082:1 68159:1 68209:1 68335:1 68342:1 68401:1 68476:1 68621:1 68662:1 68698:1 68720:1 68833:1 68979:1 69121:1 69228:1 69234:1 69265:1 69272:1 69341:1 69499:1 69610:1 69619:1 69659:1 69860:1 69900:1 70079:1 70095:1 70218:1 70235:1 70264:1 70330:1 70651:1 70677:1 70784:1 70878:1 70960:1 70965:1 71010:1 71305:1 71400:1 71463:1 71464:1 71536:1 71586:1 71620:1 71636:1 71661:1 71859:1 71866:1 71939:1 71996:1 72073:1 72074:1 72083:1 72231:1 72261:1 72262:1 72296:1 72312:1 72395:1 72470:1 72515:1 72727:1 72908:1 72988:1 73035:1 73129:1 73267:1 73274:1 73420:1 73483:1 73565:1 73572:1 73595:1 73803:1 73836:1 73933:1 73941:1 74304:1 74399:1 74559:1 74625:1 74775:1 74803:1 74859:1 74936:1 74940:1 74992:1 75042:1 75097:1 75149:1 75173:1 75199:1 75230:1 75409:1 75580:1 75651:1 75656:1 75781:1 75878:1 76015:1 76129:1 76287:1 76297:1 76413:1 76455:1 76680:1 76700:1 77170:1 77295:1 77363:1 77379:1 77394:1 #
0.0032195381939242673566270447338411 29324:1 29466:1 30297:1 30801:1 31449:1 31481:1 31749:1 31944:1 32113:1 32206:1 32787:1 32877:1 33717:1 33833:1 35028:1 35566:1 35796:1 37427:1 37907:1 38358:1 38444:1 38476:1 38955:1 40599:1 41091:1 41320:1 41494:1 42115:1 42166:1 42168:1 42685:1 42797:1 43242:1 43589:1 44071:1 44256:1 44762:1 44891:1 46073:1 46150:1 46724:1 47289:1 47290:1 47870:1 48156:1 49711:1 49917:1 49934:1 50980:1 51213:1 51786:1 52562:1 53970:1 54204:1 54308:1 55007:1 55469:1 56163:1 57163:1 57297:1 57383:1 57775:1 58468:1 58773:1 59135:1 60476:1 60594:1 60734:1 61609:1 61812:1 62037:1 62207:1 63513:1 63606:1 64219:1 65532:1 65607:1 65795:1 65865:1 66574:1 66609:1 66677:1 66716:1 66791:1 66850:1 68041:1 69067:1 69121:1 69265:1 69440:1 69499:1 69571:1 70079:1 71463:1 71636:1 71939:1 72048:1 72666:1 73035:1 73129:1 73483:1 73920:1 75199:1 75271:1 77394:1 #
0.0032195381939242673566270447338411 28907:1 29198:1 29215:1 29324:1 30297:1 30411:1 31002:1 32179:1 32877:1 34848:1 35771:1 37494:1 37722:1 38004:1 38758:1 39450:1 40216:1 41091:1 41911:1 42060:1 42170:1 42851:1 43556:1 43703:1 44194:1 44241:1 44256:1 44530:1 44885:1 45244:1 46141:1 47289:1 47290:1 48968:1 49291:1 50263:1 50898:1 51213:1 51223:1 52229:1 52728:1 53821:1 54107:1 55007:1 56063:1 56770:1 57554:1 57854:1 59066:1 59272:1 60663:1 61514:1 64557:1 64955:1 65532:1 65582:1 66257:1 67100:1 67870:1 68266:1 69265:1 69499:1 69900:1 69934:1 71305:1 71463:1 71636:1 71759:1 71939:1 72680:1 72781:1 74106:1 74281:1 75199:1 75240:1 76479:1 77484:1 #
0.0032195381939242673566270447338411 28868:1 29324:1 29922:1 30071:1 30196:1 30297:1 30471:1 30697:1 32025:1 32130:1 32389:1 32556:1 32721:1 32764:1 32787:1 32877:1 33535:1 34169:1 34387:1 34443:1 34664:1 34762:1 35399:1 35490:1 35537:1 35833:1 36196:1 36312:1 37048:1 37385:1 37427:1 38222:1 38245:1 38400:1 38749:1 38905:1 39331:1 39340:1 39367:1 39434:1 39450:1 39815:1 39929:1 40316:1 40746:1 40759:1 41091:1 41101:1 42048:1 42106:1 42168:1 42170:1 42297:1 42851:1 43472:1 43882:1 44194:1 44256:1 44528:1 45089:1 45244:1 45254:1 45856:1 45879:1 47289:1 47943:1 48456:1 48998:1 49233:1 49371:1 49567:1 49711:1 50029:1 50296:1 50302:1 51213:1 51624:1 51788:1 52187:1 52355:1 52596:1 53322:1 53386:1 53712:1 54308:1 54362:1 55057:1 55905:1 56045:1 56275:1 57874:1 58198:1 58237:1 58468:1 58640:1 58715:1 60162:1 60267:1 60520:1 61058:1 61413:1 62207:1 63013:1 63690:1 63732:1 64419:1 65104:1 65532:1 65993:1 66409:1 66758:1 67471:1 67982:1 68337:1 68844:1 69499:1 69521:1 69659:1 69760:1 70215:1 70218:1 70222:1 70330:1 70651:1 70784:1 70795:1 71381:1 71463:1 71636:1 72541:1 73035:1 73413:1 73530:1 73684:1 74163:1 74232:1 74546:1 74559:1 75313:1 77394:1 77459:1 #
0.0032195381939242673566270447338411 29324:1 29893:1 30297:1 30471:1 30697:1 30915:1 31454:1 32025:1 32264:1 32787:1 32877:1 33560:1 33643:1 34363:1 34526:1 35523:1 36519:1 36613:1 36994:1 37427:1 37907:1 39317:1 39486:1 39578:1 39688:1 40280:1 40778:1 41124:1 41188:1 41320:1 41586:1 42115:1 42166:1 42168:1 42851:1 42960:1 44212:1 44256:1 44891:1 45933:1 47289:1 47290:1 47304:1 47796:1 47810:1 48889:1 49119:1 51213:1 52596:1 53062:1 53403:1 53712:1 54308:1 56097:1 56273:1 56809:1 56900:1 58468:1 58531:1 58804:1 59196:1 61627:1 62271:1 65382:1 65532:1 65681:1 65796:1 65821:1 65922:1 66159:1 66587:1 66871:1 67529:1 69265:1 69272:1 69499:1 70218:1 70330:1 70784:1 71463:1 71636:1 71939:1 72395:1 73074:1 74574:1 74643:1 75381:1 75766:1 76289:1 76499:1 77484:1 #
0.0032195381939242673566270447338411 29324:1 29433:1 29893:1 30297:1 30471:1 30492:1 30801:1 31705:1 32152:1 32764:1 32877:1 33101:1 33715:1 33776:1 33825:1 34116:1 34242:1 34884:1 35121:1 35466:1 35858:1 37823:1 37907:1 37991:1 38318:1 38883:1 39449:1 40280:1 40385:1 41124:1 41188:1 41320:1 41674:1 41929:1 42168:1 42851:1 43556:1 44071:1 44256:1 45029:1 45043:1 45632:1 46447:1 47289:1 47796:1 47870:1 48995:1 49291:1 51207:1 51213:1 51607:1 52343:1 52548:1 52728:1 53287:1 53733:1 53970:1 53998:1 54204:1 54308:1 54524:1 54690:1 55078:1 55975:1 56008:1 56275:1 57452:1 57498:1 57839:1 58744:1 58824:1 58852:1 59736:1 60663:1 61812:1 62324:1 62895:1 63544:1 64387:1 64500:1 64774:1 64960:1 65457:1 65532:1 68335:1 68785:1 69265:1 69272:1 69499:1 69772:1 69966:1 70169:1 70864:1 71463:1 71636:1 71939:1 72395:1 72823:1 72929:1 74239:1 75125:1 75233:1 75475:1 75785:1 76661:1 #
-0.0032195381939242673566270447338411 28907:1 29324:1 29893:1 30297:1 30370:1 30425:1 30471:1 30697:1 30874:1 31339:1 31661:1 32264:1 32787:1 32877:1 33101:1 33299:1 33776:1 33982:1 34252:1 34257:1 34499:1 34508:1 34823:1 35268:1 35348:1 35522:1 35537:1 35713:1 35771:1 36718:1 37385:1 37427:1 38299:1 38311:1 38358:1 38446:1 38918:1 39083:1 39147:1 39453:1 39819:1 39973:1 40280:1 40458:1 41013:1 41188:1 41308:1 41320:1 41348:1 41535:1 41565:1 41712:1 42168:1 42170:1 42361:1 42582:1 42590:1 42642:1 42851:1 43703:1 43876:1 43904:1 43910:1 44071:1 44256:1 44637:1 44660:1 45060:1 46913:1 47085:1 47289:1 47290:1 47796:1 47968:1 48169:1 48357:1 48503:1 48584:1 48841:1 48968:1 49435:1 49711:1 50302:1 50625:1 50635:1 50936:1 50945:1 51079:1 51095:1 51213:1 51602:1 53733:1 54107:1 54199:1 54308:1 55007:1 55307:1 55469:1 56062:1 56527:1 56530:1 56581:1 56755:1 58468:1 58715:1 58824:1 58852:1 59197:1 59205:1 59629:1 59766:1 59778:1 60100:1 60173:1 60316:1 60317:1 60860:1 61808:1 61812:1 62216:1 62970:1 63617:1 63729:1 63841:1 64242:1 64500:1 64515:1 65111:1 65532:1 65591:1 66461:1 67082:1 68041:1 68377:1 69265:1 69499:1 69610:1 69659:1 70179:1 70554:1 70593:1 70784:1 71000:1 71463:1 71586:1 71640:1 71786:1 71939:1 72273:1 72764:1 73483:1 73809:1 73836:1 73969:1 74005:1 74561:1 74936:1 75132:1 75199:1 75728:1 76680:1 76700:1 77295:1 77455:1 #
-0.0032195381939242673566270447338411 28880:1 29324:1 29433:1 29631:1 30297:1 30552:1 30612:1 31351:1 32877:1 33382:1 35621:1 35767:1 36947:1 36983:1 37427:1 37751:1 38368:1 38920:1 39230:1 39449:1 40971:1 42144:1 42168:1 42297:1 42851:1 42937:1 43056:1 43703:1 43910:1 44071:1 44256:1 44753:1 46187:1 46388:1 46856:1 47289:1 47290:1 47304:1 48374:1 48968:1 49537:1 49711:1 51207:1 51213:1 51623:1 53375:1 53986:1 54305:1 55249:1 57023:1 58358:1 58468:1 58640:1 58954:1 59395:1 59462:1 60000:1 61812:1 62078:1 64770:1 65257:1 65532:1 65769:1 69130:1 69659:1 70784:1 71463:1 71759:1 71997:1 72118:1 72669:1 74936:1 75580:1 75656:1 76649:1 #
-0.0032195381939242673566270447338411 28872:1 29324:1 29893:1 30071:1 30090:1 30196:1 30283:1 30297:1 30471:1 32264:1 32538:1 32642:1 32707:1 32764:1 32877:1 32906:1 33264:1 34075:1 34524:1 35270:1 35428:1 35513:1 35869:1 36360:1 36621:1 37188:1 37427:1 37722:1 37751:1 37753:1 37898:1 38211:1 38358:1 38368:1 39449:1 39450:1 39486:1 39882:1 40042:1 40338:1 41188:1 41320:1 41395:1 41663:1 41920:1 42106:1 42115:1 42166:1 42851:1 43253:1 43703:1 44071:1 44158:1 44256:1 45089:1 45679:1 45775:1 45870:1 45881:1 46724:1 47289:1 47304:1 48004:1 49727:1 49751:1 49942:1 50029:1 51213:1 51605:1 52779:1 53129:1 53236:1 53322:1 53871:1 54204:1 54308:1 55007:1 56530:1 56691:1 56755:1 58234:1 58468:1 58618:1 59196:1 59766:1 59778:1 59886:1 59903:1 59931:1 60287:1 60624:1 60757:1 61790:1 61812:1 62198:1 62207:1 62556:1 62971:1 63183:1 63274:1 63297:1 63544:1 65532:1 65821:1 65865:1 66253:1 66493:1 66791:1 67313:1 67648:1 67796:1 67943:1 68107:1 69265:1 69272:1 69499:1 70218:1 70264:1 70816:1 71010:1 71125:1 71463:1 71586:1 71636:1 71939:1 72262:1 72387:1 72470:1 73035:1 73222:1 74574:1 74637:1 74716:1 75199:1 76499:1 76734:1 #
-0.0032195381939242673566270447338411 29242:1 29324:1 30071:1 30104:1 30297:1 30471:1 30915:1 32074:1 32764:1 32877:1 34093:1 34507:1 34884:1 35041:1 35771:1 35833:1 37427:1 38085:1 38190:1 38920:1 38955:1 39083:1 39486:1 40042:1 40778:1 41013:1 41124:1 41663:1 42007:1 42115:1 42168:1 42170:1 43627:1 43903:1 43910:1 44256:1 45734:1 46008:1 46885:1 47128:1 47290:1 47406:1 47500:1 49711:1 49727:1 49751:1 50261:1 50302:1 51079:1 51213:1 52659:1 52728:1 53166:1 54308:1 54690:1 55007:1 55263:1 55469:1 56530:1 58468:1 59577:1 59819:1 60368:1 60485:1 60663:1 61249:1 61812:1 62271:1 63017:1 64580:1 64955:1 65532:1 66218:1 66257:1 67035:1 67529:1 69499:1 69986:1 70784:1 71463:1 71586:1 71636:1 71939:1 72083:1 72546:1 73057:1 73526:1 74309:1 75125:1 76289:1 76400:1 #
