SVM-light Version V6.02
0 # kernel type
3 # kernel parameter -d 
1 # kernel parameter -g 
1 # kernel parameter -s 
1 # kernel parameter -r 
empty# kernel parameter -u 
35617 # highest feature index 
1800 # number of training documents 
1364 # number of support vectors plus 1 
-0.1106661 # threshold b, each following line is a SV (starting with alpha*y)
-0.0032474064365311181012963004377525 309:1 522:1 1243:1 2424:1 3278:1 4106:1 4393:1 4921:1 5621:1 6315:1 7620:1 10517:1 11462:1 12188:1 12251:1 13640:1 14135:1 28529:1 28534:1 28544:1 28554:1 28557:1 28578:1 28584:1 28585:1 28587:1 28592:1 28618:1 28665:1 28697:1 28709:1 28747:1 28765:1 28768:1 28795:1 28806:1 28824:1 28850:1 28851:1 28927:1 28943:1 28967:1 28987:1 28990:1 29019:1 29027:1 29033:1 29093:1 29101:1 29106:1 29122:1 29126:1 29149:1 29150:1 29163:1 29273:1 29299:1 29314:1 29325:1 29347:1 29348:1 29378:1 29431:1 29432:1 29453:1 29487:1 29504:1 29512:1 29519:1 29535:1 29561:1 29609:1 29616:1 29639:1 29650:1 29668:1 29730:1 29744:1 29754:1 29762:1 29766:1 29767:1 29784:1 29790:1 29809:1 29820:1 29839:1 29878:1 29899:1 29931:1 29945:1 30075:1 30082:1 30108:1 30160:1 30166:1 30180:1 30186:1 30204:1 30263:1 30300:1 30308:1 30318:1 30354:1 30375:1 30378:1 30381:1 30385:1 30388:1 30418:1 30442:1 30463:1 30485:1 30511:1 30516:1 30580:1 30613:1 30615:1 30642:1 30645:1 30691:1 30753:1 30763:1 30776:1 30810:1 30819:1 30820:1 30836:1 30850:1 30887:1 30907:1 30941:1 30967:1 30999:1 31102:1 31107:1 31117:1 31133:1 31144:1 31157:1 31158:1 31216:1 31247:1 31263:1 31301:1 31317:1 31318:1 31326:1 31387:1 31392:1 31423:1 31424:1 31433:1 31452:1 31455:1 31479:1 31488:1 31507:1 31599:1 31603:1 31719:1 31743:1 31745:1 31768:1 31798:1 31808:1 31828:1 31834:1 31836:1 31844:1 31876:1 31894:1 31906:1 31908:1 31939:1 31958:1 31991:1 32032:1 32055:1 32059:1 32061:1 32112:1 32115:1 32132:1 32143:1 32145:1 32163:1 32178:1 32182:1 32222:1 32227:1 32254:1 32257:1 32272:1 32280:1 32291:1 32322:1 32339:1 32340:1 32343:1 32349:1 32373:1 32390:1 32401:1 32411:1 32413:1 32436:1 32466:1 32471:1 32488:1 32506:1 32512:1 32514:1 32567:1 32589:1 32616:1 32659:1 32676:1 32712:1 32740:1 32825:1 32831:1 32841:1 32859:1 32879:1 32943:1 32946:1 32949:1 32996:1 33002:1 33027:1 33059:1 33067:1 33076:1 33086:1 33097:1 33102:1 33123:1 33124:1 33162:1 33189:1 33203:1 33212:1 33252:1 33256:1 33258:1 33266:1 33335:1 33339:1 33347:1 33368:1 33438:1 33446:1 33451:1 33462:1 33484:1 33513:1 33523:1 33595:1 33608:1 33611:1 33617:1 33642:1 33692:1 33708:1 33719:1 33755:1 33786:1 33789:1 33810:1 33815:1 33827:1 33867:1 33884:1 33888:1 33900:1 33916:1 33939:1 33946:1 33951:1 33962:1 33964:1 33966:1 34000:1 34021:1 34031:1 34040:1 34058:1 34081:1 34097:1 34100:1 34133:1 34151:1 34178:1 34198:1 34268:1 34294:1 34296:1 34338:1 34361:1 34362:1 34373:1 34485:1 34514:1 34533:1 34583:1 34592:1 34638:1 34639:1 34654:1 34687:1 34723:1 34726:1 34727:1 34729:1 34741:1 34787:1 34823:1 34881:1 34895:1 34903:1 34956:1 34969:1 35012:1 35016:1 35035:1 35101:1 35116:1 35186:1 35195:1 35272:1 35273:1 35347:1 35366:1 35388:1 35394:1 35465:1 35494:1 35529:1 35539:1 35569:1 #
-0.0032474064365311181012963004377525 430:1 482:1 2188:1 6154:1 7079:1 10194:1 11926:1 14135:1 28510:1 28529:1 28642:1 28765:1 28766:1 28775:1 28804:1 28824:1 28850:1 28859:1 28886:1 28923:1 29027:1 29034:1 29147:1 29163:1 29267:1 29292:1 29314:1 29315:1 29325:1 29378:1 29420:1 29431:1 29512:1 29566:1 29616:1 29668:1 29732:1 29744:1 29782:1 29787:1 29853:1 29899:1 29930:1 30335:1 30388:1 30425:1 30439:1 30463:1 30485:1 30516:1 30580:1 30642:1 30647:1 30682:1 30700:1 30810:1 30887:1 30981:1 30999:1 31012:1 31049:1 31102:1 31107:1 31133:1 31157:1 31247:1 31269:1 31333:1 31387:1 31392:1 31434:1 31440:1 31442:1 31519:1 31548:1 31559:1 31581:1 31671:1 31738:1 31798:1 31891:1 31908:1 31929:1 32012:1 32053:1 32055:1 32145:1 32146:1 32298:1 32339:1 32340:1 32343:1 32347:1 32373:1 32519:1 32578:1 32645:1 32659:1 32674:1 32728:1 32740:1 32766:1 32820:1 32930:1 33083:1 33132:1 33258:1 33335:1 33347:1 33456:1 33684:1 33692:1 33719:1 33755:1 33820:1 33875:1 33966:1 34000:1 34040:1 34226:1 34268:1 34294:1 34296:1 34341:1 34344:1 34432:1 34472:1 34514:1 34565:1 34583:1 34639:1 34680:1 34723:1 34727:1 34741:1 34761:1 34787:1 34828:1 34895:1 34955:1 34956:1 35035:1 35273:1 35277:1 35347:1 35395:1 35421:1 35462:1 35529:1 35588:1 #
0.00014752531712471285028562273389241 155:1 478:1 1242:1 1297:1 1685:1 1693:1 1958:1 3369:1 3855:1 4197:1 4250:1 4464:1 4781:1 5533:1 6256:1 6286:1 6782:1 6800:1 7249:1 7297:1 7624:1 8295:1 9007:1 10107:1 10574:1 11958:1 12054:1 12139:1 12367:1 12619:1 13152:1 13715:1 14172:1 14220:1 28529:1 28534:1 28590:1 28615:1 28674:1 28679:1 28694:1 28739:1 28765:1 28795:1 28799:1 28819:1 28824:1 28850:1 28879:1 28911:1 28950:1 28969:1 28987:1 29007:1 29019:1 29027:1 29033:1 29048:1 29093:1 29138:1 29179:1 29198:1 29223:1 29232:1 29314:1 29325:1 29341:1 29347:1 29348:1 29349:1 29370:1 29378:1 29386:1 29453:1 29487:1 29506:1 29533:1 29568:1 29586:1 29590:1 29608:1 29616:1 29645:1 29664:1 29667:1 29678:1 29730:1 29744:1 29755:1 29766:1 29806:1 29832:1 29884:1 29889:1 29899:1 29908:1 29922:1 29923:1 29940:1 29986:1 30020:1 30028:1 30075:1 30102:1 30108:1 30204:1 30271:1 30318:1 30358:1 30381:1 30388:1 30444:1 30463:1 30485:1 30516:1 30518:1 30543:1 30548:1 30566:1 30580:1 30634:1 30647:1 30687:1 30758:1 30776:1 30793:1 30809:1 30810:1 30836:1 30863:1 30887:1 30941:1 30949:1 30968:1 30972:1 30981:1 30999:1 31001:1 31040:1 31063:1 31085:1 31091:1 31133:1 31157:1 31198:1 31211:1 31212:1 31230:1 31247:1 31259:1 31283:1 31299:1 31360:1 31369:1 31374:1 31397:1 31419:1 31474:1 31484:1 31548:1 31558:1 31623:1 31628:1 31645:1 31725:1 31740:1 31756:1 31785:1 31795:1 31816:1 31824:1 31908:1 31934:1 31958:1 31972:1 31988:1 31991:1 32028:1 32055:1 32061:1 32085:1 32105:1 32126:1 32143:1 32145:1 32147:1 32222:1 32254:1 32255:1 32296:1 32302:1 32309:1 32339:1 32340:1 32343:1 32349:1 32371:1 32385:1 32390:1 32398:1 32415:1 32429:1 32512:1 32586:1 32590:1 32591:1 32593:1 32610:1 32616:1 32624:1 32640:1 32652:1 32680:1 32704:1 32712:1 32740:1 32759:1 32804:1 32825:1 32831:1 32893:1 32939:1 32946:1 32947:1 32957:1 32958:1 32970:1 32979:1 33001:1 33027:1 33075:1 33084:1 33090:1 33094:1 33189:1 33192:1 33282:1 33326:1 33344:1 33346:1 33405:1 33456:1 33497:1 33521:1 33525:1 33581:1 33608:1 33651:1 33726:1 33761:1 33815:1 33823:1 33917:1 33935:1 33945:1 33974:1 33976:1 34037:1 34043:1 34089:1 34131:1 34151:1 34178:1 34239:1 34258:1 34270:1 34294:1 34296:1 34326:1 34390:1 34438:1 34459:1 34501:1 34514:1 34523:1 34534:1 34551:1 34553:1 34630:1 34639:1 34664:1 34678:1 34723:1 34727:1 34741:1 34782:1 34787:1 34793:1 34798:1 34830:1 34831:1 34835:1 34849:1 34895:1 34955:1 34975:1 35003:1 35012:1 35016:1 35030:1 35035:1 35053:1 35074:1 35180:1 35273:1 35347:1 35366:1 35369:1 35388:1 35394:1 35395:1 35484:1 35496:1 35529:1 35539:1 35548:1 35569:1 35596:1 35603:1 #
-0.0026865086556054108835045468595126 728:1 2603:1 3953:1 4393:1 5011:1 5231:1 5488:1 5504:1 6325:1 6825:1 8045:1 8127:1 8542:1 8974:1 9823:1 10512:1 11507:1 13527:1 13842:1 28518:1 28529:1 28540:1 28663:1 28680:1 28697:1 28724:1 28734:1 28738:1 28749:1 28765:1 28766:1 28819:1 28824:1 28850:1 28852:1 28885:1 28915:1 28923:1 28985:1 28987:1 29027:1 29051:1 29093:1 29135:1 29174:1 29261:1 29267:1 29268:1 29306:1 29309:1 29314:1 29320:1 29323:1 29325:1 29347:1 29348:1 29349:1 29358:1 29378:1 29439:1 29444:1 29487:1 29504:1 29609:1 29625:1 29660:1 29681:1 29689:1 29708:1 29730:1 29766:1 29784:1 29822:1 29827:1 29833:1 29896:1 29899:1 29921:1 29929:1 29932:1 29950:1 29974:1 30059:1 30063:1 30175:1 30194:1 30258:1 30277:1 30282:1 30309:1 30342:1 30378:1 30382:1 30385:1 30388:1 30395:1 30424:1 30442:1 30483:1 30497:1 30516:1 30552:1 30566:1 30580:1 30582:1 30645:1 30647:1 30690:1 30695:1 30755:1 30767:1 30835:1 30850:1 30866:1 30883:1 30887:1 30895:1 30922:1 30941:1 31133:1 31157:1 31164:1 31247:1 31255:1 31310:1 31387:1 31419:1 31422:1 31561:1 31567:1 31645:1 31660:1 31670:1 31698:1 31758:1 31772:1 31798:1 31816:1 31852:1 31901:1 31906:1 31936:1 31958:1 31959:1 31998:1 32005:1 32008:1 32055:1 32061:1 32132:1 32145:1 32161:1 32241:1 32260:1 32288:1 32339:1 32340:1 32343:1 32345:1 32347:1 32373:1 32413:1 32417:1 32515:1 32517:1 32582:1 32612:1 32645:1 32648:1 32655:1 32698:1 32743:1 32748:1 32763:1 32764:1 32808:1 32809:1 32813:1 32831:1 32946:1 32979:1 33034:1 33037:1 33040:1 33041:1 33082:1 33087:1 33090:1 33155:1 33189:1 33203:1 33237:1 33289:1 33292:1 33335:1 33383:1 33441:1 33462:1 33466:1 33470:1 33514:1 33557:1 33623:1 33646:1 33692:1 33719:1 33755:1 33815:1 33825:1 33891:1 33896:1 33933:1 33939:1 33945:1 33951:1 33991:1 34015:1 34031:1 34062:1 34066:1 34157:1 34178:1 34219:1 34294:1 34296:1 34300:1 34355:1 34377:1 34406:1 34480:1 34485:1 34494:1 34514:1 34523:1 34528:1 34574:1 34589:1 34630:1 34635:1 34639:1 34659:1 34662:1 34692:1 34723:1 34727:1 34737:1 34787:1 34790:1 34793:1 34895:1 34905:1 34955:1 34956:1 34968:1 34996:1 35035:1 35137:1 35239:1 35273:1 35277:1 35294:1 35369:1 35388:1 35394:1 35463:1 35484:1 35496:1 35536:1 35546:1 35559:1 35600:1 35613:1 #
-0.0030850802635397564510633117151883 309:1 796:1 1639:1 3088:1 4398:1 4421:1 5790:1 6578:1 7067:1 8318:1 8350:1 8913:1 9738:1 9805:1 11459:1 11529:1 11563:1 13200:1 13441:1 28529:1 28561:1 28574:1 28613:1 28687:1 28692:1 28713:1 28739:1 28747:1 28765:1 28766:1 28785:1 28787:1 28816:1 28819:1 28824:1 28843:1 28850:1 28867:1 28894:1 28910:1 28923:1 28947:1 28977:1 28987:1 28990:1 28996:1 29027:1 29034:1 29047:1 29078:1 29093:1 29179:1 29191:1 29198:1 29260:1 29267:1 29300:1 29304:1 29314:1 29319:1 29325:1 29328:1 29347:1 29348:1 29349:1 29352:1 29378:1 29382:1 29389:1 29401:1 29431:1 29433:1 29451:1 29504:1 29506:1 29512:1 29525:1 29535:1 29561:1 29609:1 29612:1 29616:1 29629:1 29704:1 29730:1 29754:1 29755:1 29839:1 29899:1 29931:1 29947:1 30033:1 30058:1 30063:1 30073:1 30075:1 30081:1 30163:1 30200:1 30204:1 30263:1 30267:1 30314:1 30318:1 30345:1 30354:1 30381:1 30382:1 30418:1 30425:1 30430:1 30438:1 30442:1 30463:1 30482:1 30485:1 30516:1 30527:1 30536:1 30561:1 30580:1 30589:1 30617:1 30642:1 30645:1 30647:1 30665:1 30687:1 30700:1 30706:1 30712:1 30741:1 30765:1 30766:1 30786:1 30793:1 30795:1 30810:1 30819:1 30841:1 30858:1 30886:1 30887:1 30895:1 30930:1 30939:1 30941:1 30949:1 30968:1 30999:1 31002:1 31011:1 31027:1 31083:1 31109:1 31164:1 31184:1 31188:1 31189:1 31195:1 31212:1 31222:1 31236:1 31243:1 31247:1 31248:1 31263:1 31310:1 31344:1 31375:1 31413:1 31415:1 31417:1 31423:1 31424:1 31448:1 31455:1 31490:1 31519:1 31537:1 31552:1 31584:1 31590:1 31600:1 31628:1 31644:1 31690:1 31702:1 31708:1 31715:1 31725:1 31738:1 31774:1 31790:1 31798:1 31812:1 31814:1 31816:1 31826:1 31903:1 31951:1 31958:1 31971:1 31981:1 31988:1 31991:1 32009:1 32012:1 32055:1 32067:1 32096:1 32112:1 32143:1 32145:1 32182:1 32204:1 32208:1 32225:1 32230:1 32267:1 32272:1 32276:1 32323:1 32339:1 32340:1 32343:1 32347:1 32350:1 32372:1 32373:1 32385:1 32412:1 32413:1 32415:1 32440:1 32492:1 32505:1 32538:1 32561:1 32586:1 32591:1 32632:1 32647:1 32764:1 32879:1 32880:1 32918:1 32946:1 33027:1 33040:1 33060:1 33120:1 33162:1 33170:1 33258:1 33335:1 33339:1 33341:1 33356:1 33420:1 33433:1 33497:1 33608:1 33664:1 33667:1 33692:1 33719:1 33733:1 33755:1 33760:1 33789:1 33815:1 33835:1 33945:1 33966:1 34031:1 34037:1 34039:1 34066:1 34108:1 34131:1 34151:1 34152:1 34173:1 34189:1 34256:1 34294:1 34296:1 34432:1 34446:1 34458:1 34459:1 34473:1 34491:1 34509:1 34511:1 34514:1 34520:1 34536:1 34596:1 34614:1 34635:1 34639:1 34648:1 34687:1 34694:1 34710:1 34723:1 34727:1 34729:1 34787:1 34833:1 34852:1 34875:1 34881:1 34909:1 34955:1 34956:1 35012:1 35031:1 35035:1 35074:1 35119:1 35135:1 35183:1 35200:1 35202:1 35216:1 35217:1 35273:1 35294:1 35345:1 35347:1 35348:1 35369:1 35373:1 35388:1 35394:1 35416:1 35419:1 35438:1 35446:1 35529:1 35539:1 35540:1 35557:1 35596:1 35598:1 35600:1 35603:1 #
0.0032474064365311181012963004377525 52:1 181:1 319:1 403:1 514:1 1100:1 1448:1 1519:1 1639:1 1679:1 2160:1 2707:1 2879:1 3671:1 4221:1 4718:1 6061:1 6154:1 6590:1 7016:1 7036:1 7104:1 7197:1 7325:1 7617:1 7672:1 7811:1 8642:1 9837:1 10401:1 11691:1 11818:1 12194:1 12552:1 12678:1 12927:1 12968:1 13083:1 13292:1 13471:1 13534:1 14107:1 28529:1 28534:1 28546:1 28554:1 28557:1 28565:1 28584:1 28609:1 28622:1 28684:1 28699:1 28713:1 28739:1 28754:1 28763:1 28765:1 28766:1 28810:1 28819:1 28824:1 28831:1 28837:1 28846:1 28850:1 28923:1 28977:1 28987:1 28990:1 28996:1 29019:1 29027:1 29034:1 29056:1 29093:1 29101:1 29128:1 29130:1 29132:1 29145:1 29179:1 29203:1 29206:1 29270:1 29273:1 29314:1 29325:1 29328:1 29347:1 29348:1 29349:1 29360:1 29369:1 29378:1 29385:1 29399:1 29431:1 29439:1 29453:1 29487:1 29512:1 29605:1 29609:1 29629:1 29654:1 29669:1 29686:1 29730:1 29744:1 29754:1 29766:1 29799:1 29841:1 29859:1 29866:1 29899:1 29967:1 29986:1 30011:1 30019:1 30161:1 30165:1 30183:1 30242:1 30244:1 30260:1 30282:1 30329:1 30354:1 30378:1 30388:1 30399:1 30420:1 30425:1 30426:1 30437:1 30442:1 30485:1 30547:1 30580:1 30617:1 30637:1 30647:1 30650:1 30664:1 30678:1 30697:1 30712:1 30764:1 30765:1 30767:1 30818:1 30819:1 30820:1 30843:1 30862:1 30887:1 30930:1 30972:1 31009:1 31013:1 31074:1 31088:1 31133:1 31157:1 31172:1 31188:1 31195:1 31225:1 31242:1 31243:1 31247:1 31261:1 31263:1 31283:1 31344:1 31414:1 31424:1 31452:1 31569:1 31599:1 31610:1 31612:1 31613:1 31690:1 31719:1 31725:1 31798:1 31799:1 31816:1 31829:1 31842:1 31875:1 31906:1 31908:1 31953:1 31958:1 31977:1 31991:1 32012:1 32055:1 32059:1 32099:1 32132:1 32143:1 32145:1 32147:1 32175:1 32176:1 32178:1 32188:1 32254:1 32272:1 32282:1 32288:1 32318:1 32335:1 32339:1 32340:1 32341:1 32343:1 32347:1 32349:1 32351:1 32401:1 32418:1 32448:1 32506:1 32512:1 32518:1 32571:1 32588:1 32599:1 32612:1 32619:1 32633:1 32644:1 32645:1 32646:1 32648:1 32652:1 32655:1 32659:1 32662:1 32704:1 32721:1 32736:1 32740:1 32743:1 32764:1 32770:1 32801:1 32885:1 32907:1 32934:1 32946:1 32968:1 33060:1 33064:1 33078:1 33087:1 33090:1 33107:1 33110:1 33132:1 33135:1 33164:1 33187:1 33203:1 33206:1 33244:1 33252:1 33266:1 33282:1 33286:1 33314:1 33335:1 33347:1 33392:1 33467:1 33474:1 33513:1 33608:1 33644:1 33690:1 33692:1 33701:1 33709:1 33714:1 33717:1 33719:1 33755:1 33756:1 33789:1 33809:1 33815:1 33835:1 33868:1 33875:1 33882:1 33884:1 33916:1 33945:1 33966:1 33968:1 34012:1 34016:1 34028:1 34043:1 34057:1 34058:1 34066:1 34070:1 34097:1 34131:1 34151:1 34164:1 34175:1 34196:1 34205:1 34269:1 34294:1 34296:1 34297:1 34340:1 34430:1 34467:1 34473:1 34501:1 34511:1 34514:1 34524:1 34553:1 34606:1 34630:1 34639:1 34674:1 34677:1 34683:1 34687:1 34723:1 34727:1 34729:1 34738:1 34763:1 34775:1 34781:1 34784:1 34787:1 34810:1 34828:1 34895:1 34905:1 34956:1 34996:1 35016:1 35021:1 35030:1 35035:1 35067:1 35150:1 35183:1 35189:1 35210:1 35273:1 35320:1 35368:1 35369:1 35394:1 35411:1 35419:1 35420:1 35449:1 35450:1 35484:1 35505:1 35517:1 35523:1 35532:1 35539:1 35562:1 35582:1 35584:1 35600:1 35617:1 #
0.0021646538590405837824970358695964 66:1 1317:1 1736:1 2144:1 2531:1 3338:1 3778:1 3903:1 3962:1 4809:1 5666:1 6325:1 6562:1 6881:1 8551:1 9039:1 9508:1 9639:1 9931:1 10334:1 10858:1 11070:1 11204:1 11764:1 11891:1 11901:1 12072:1 12215:1 13286:1 28529:1 28574:1 28584:1 28693:1 28713:1 28765:1 28768:1 28819:1 28824:1 28843:1 28850:1 28859:1 28869:1 28911:1 28926:1 28960:1 28969:1 28979:1 28990:1 29009:1 29019:1 29027:1 29093:1 29149:1 29163:1 29198:1 29203:1 29227:1 29256:1 29270:1 29314:1 29325:1 29347:1 29348:1 29349:1 29378:1 29409:1 29431:1 29445:1 29461:1 29487:1 29544:1 29563:1 29616:1 29629:1 29730:1 29754:1 29766:1 29783:1 29785:1 29800:1 29833:1 29870:1 29878:1 29896:1 29899:1 29921:1 30012:1 30063:1 30075:1 30090:1 30152:1 30161:1 30166:1 30177:1 30204:1 30210:1 30318:1 30319:1 30325:1 30381:1 30388:1 30397:1 30463:1 30567:1 30580:1 30592:1 30630:1 30645:1 30647:1 30655:1 30739:1 30757:1 30797:1 30819:1 30820:1 30835:1 30843:1 30870:1 30881:1 30887:1 30968:1 30981:1 31006:1 31055:1 31087:1 31108:1 31133:1 31144:1 31198:1 31212:1 31214:1 31215:1 31247:1 31255:1 31278:1 31310:1 31369:1 31384:1 31398:1 31403:1 31418:1 31419:1 31423:1 31424:1 31645:1 31660:1 31736:1 31738:1 31790:1 31798:1 31817:1 31875:1 31906:1 31908:1 31930:1 31951:1 31958:1 31975:1 31991:1 32053:1 32055:1 32082:1 32099:1 32104:1 32130:1 32141:1 32143:1 32144:1 32145:1 32161:1 32176:1 32179:1 32182:1 32226:1 32234:1 32244:1 32272:1 32276:1 32288:1 32331:1 32339:1 32340:1 32343:1 32369:1 32385:1 32390:1 32392:1 32506:1 32512:1 32524:1 32526:1 32563:1 32587:1 32609:1 32639:1 32645:1 32652:1 32659:1 32687:1 32718:1 32743:1 32764:1 32768:1 32779:1 32798:1 32825:1 32832:1 32851:1 32895:1 32946:1 32991:1 33027:1 33076:1 33086:1 33087:1 33142:1 33149:1 33189:1 33191:1 33197:1 33218:1 33228:1 33253:1 33283:1 33286:1 33288:1 33399:1 33571:1 33608:1 33623:1 33692:1 33719:1 33747:1 33755:1 33756:1 33815:1 33867:1 33872:1 33900:1 33938:1 33939:1 33966:1 33971:1 33985:1 34047:1 34151:1 34173:1 34196:1 34243:1 34262:1 34279:1 34280:1 34294:1 34296:1 34432:1 34438:1 34483:1 34514:1 34523:1 34531:1 34639:1 34650:1 34687:1 34723:1 34727:1 34741:1 34787:1 34823:1 34909:1 34920:1 34955:1 34956:1 35012:1 35035:1 35067:1 35075:1 35091:1 35112:1 35149:1 35208:1 35273:1 35277:1 35312:1 35315:1 35334:1 35342:1 35366:1 35381:1 35388:1 35395:1 35484:1 35492:1 35496:1 35506:1 35529:1 35539:1 35578:1 35582:1 35585:1 35600:1 35601:1 #
0.0032474064365311181012963004377525 2350:1 2478:1 2696:1 3287:1 4861:1 5314:1 6279:1 7356:1 11446:1 13986:1 14174:1 28573:1 28584:1 28595:1 28651:1 28657:1 28713:1 28732:1 28765:1 28766:1 28815:1 28819:1 28843:1 28850:1 28852:1 28882:1 28923:1 28925:1 28977:1 28987:1 28990:1 29009:1 29019:1 29027:1 29034:1 29073:1 29078:1 29083:1 29151:1 29191:1 29235:1 29261:1 29267:1 29314:1 29320:1 29325:1 29347:1 29348:1 29349:1 29369:1 29378:1 29397:1 29414:1 29431:1 29486:1 29490:1 29512:1 29544:1 29616:1 29730:1 29766:1 29805:1 29870:1 29878:1 29889:1 29899:1 29994:1 29997:1 30108:1 30165:1 30204:1 30223:1 30242:1 30282:1 30329:1 30335:1 30367:1 30381:1 30382:1 30388:1 30463:1 30485:1 30494:1 30524:1 30580:1 30590:1 30647:1 30652:1 30819:1 30833:1 30835:1 30887:1 30941:1 30987:1 31003:1 31029:1 31049:1 31080:1 31088:1 31109:1 31116:1 31133:1 31157:1 31215:1 31247:1 31257:1 31263:1 31266:1 31274:1 31317:1 31424:1 31431:1 31440:1 31506:1 31514:1 31519:1 31537:1 31614:1 31623:1 31725:1 31769:1 31798:1 31894:1 31906:1 31908:1 31958:1 32055:1 32059:1 32064:1 32116:1 32145:1 32147:1 32162:1 32221:1 32254:1 32301:1 32339:1 32340:1 32343:1 32344:1 32347:1 32349:1 32372:1 32385:1 32528:1 32582:1 32599:1 32603:1 32612:1 32615:1 32616:1 32648:1 32652:1 32659:1 32687:1 32726:1 32730:1 32734:1 32766:1 32831:1 32853:1 32893:1 32946:1 32949:1 32960:1 33027:1 33052:1 33132:1 33162:1 33192:1 33193:1 33265:1 33326:1 33438:1 33456:1 33547:1 33559:1 33608:1 33692:1 33719:1 33755:1 33756:1 33761:1 33789:1 33815:1 33933:1 33966:1 33985:1 34000:1 34017:1 34032:1 34039:1 34124:1 34142:1 34151:1 34205:1 34294:1 34296:1 34323:1 34355:1 34437:1 34514:1 34523:1 34533:1 34562:1 34594:1 34635:1 34639:1 34726:1 34727:1 34729:1 34741:1 34787:1 34790:1 34799:1 34807:1 34819:1 34858:1 34861:1 34955:1 34964:1 35035:1 35126:1 35135:1 35183:1 35192:1 35273:1 35277:1 35294:1 35311:1 35347:1 35395:1 35405:1 35430:1 35446:1 35447:1 35450:1 35518:1 35523:1 35524:1 35529:1 35539:1 35600:1 #
0.00019778462239379628008137390615673 734:1 1052:1 1196:1 1730:1 2673:1 3788:1 3991:1 5358:1 6560:1 7031:1 8054:1 9681:1 11487:1 12998:1 13179:1 13332:1 13688:1 28529:1 28540:1 28550:1 28574:1 28584:1 28606:1 28609:1 28668:1 28717:1 28760:1 28765:1 28766:1 28785:1 28824:1 28833:1 28850:1 28880:1 28911:1 28923:1 28969:1 28987:1 29008:1 29019:1 29033:1 29093:1 29138:1 29142:1 29163:1 29179:1 29181:1 29198:1 29203:1 29235:1 29260:1 29325:1 29347:1 29348:1 29349:1 29377:1 29378:1 29410:1 29411:1 29431:1 29447:1 29507:1 29512:1 29561:1 29571:1 29609:1 29616:1 29669:1 29701:1 29716:1 29730:1 29744:1 29766:1 29820:1 29832:1 29860:1 29866:1 29878:1 29899:1 29908:1 29921:1 29943:1 29956:1 29986:1 29997:1 30063:1 30064:1 30075:1 30086:1 30096:1 30125:1 30144:1 30145:1 30155:1 30166:1 30204:1 30277:1 30282:1 30318:1 30344:1 30354:1 30382:1 30388:1 30434:1 30463:1 30464:1 30485:1 30490:1 30566:1 30580:1 30645:1 30647:1 30657:1 30704:1 30712:1 30718:1 30754:1 30767:1 30776:1 30789:1 30793:1 30810:1 30819:1 30831:1 30848:1 30885:1 30887:1 30999:1 31059:1 31065:1 31117:1 31133:1 31144:1 31157:1 31166:1 31189:1 31212:1 31223:1 31230:1 31247:1 31255:1 31319:1 31328:1 31388:1 31392:1 31397:1 31418:1 31419:1 31431:1 31433:1 31452:1 31455:1 31519:1 31542:1 31554:1 31593:1 31599:1 31613:1 31623:1 31683:1 31714:1 31734:1 31738:1 31746:1 31750:1 31795:1 31798:1 31816:1 31849:1 31863:1 31874:1 31875:1 31902:1 31906:1 31941:1 31958:1 31991:1 31996:1 32018:1 32031:1 32036:1 32055:1 32061:1 32103:1 32112:1 32145:1 32227:1 32230:1 32254:1 32256:1 32288:1 32339:1 32340:1 32343:1 32347:1 32372:1 32373:1 32385:1 32390:1 32411:1 32412:1 32417:1 32432:1 32436:1 32460:1 32506:1 32512:1 32534:1 32545:1 32547:1 32589:1 32591:1 32616:1 32630:1 32667:1 32669:1 32676:1 32687:1 32721:1 32737:1 32740:1 32775:1 32825:1 32831:1 32851:1 32880:1 32910:1 32926:1 32946:1 32949:1 32984:1 32987:1 33002:1 33017:1 33027:1 33032:1 33036:1 33052:1 33056:1 33189:1 33202:1 33212:1 33292:1 33312:1 33335:1 33474:1 33540:1 33608:1 33614:1 33692:1 33712:1 33719:1 33722:1 33755:1 33761:1 33786:1 33789:1 33808:1 33815:1 33867:1 33877:1 33943:1 33985:1 34000:1 34047:1 34058:1 34066:1 34092:1 34100:1 34118:1 34129:1 34132:1 34151:1 34178:1 34212:1 34297:1 34322:1 34344:1 34355:1 34392:1 34416:1 34432:1 34464:1 34473:1 34514:1 34639:1 34659:1 34678:1 34723:1 34727:1 34741:1 34756:1 34787:1 34811:1 34822:1 34854:1 34861:1 34905:1 34935:1 34946:1 34955:1 34956:1 34971:1 35012:1 35016:1 35035:1 35087:1 35124:1 35192:1 35208:1 35317:1 35334:1 35347:1 35366:1 35369:1 35388:1 35394:1 35395:1 35421:1 35423:1 35449:1 35490:1 35496:1 35497:1 35510:1 35528:1 35529:1 35539:1 35552:1 35600:1 #
0.0032474064365311181012963004377525 1080:1 1722:1 1934:1 2497:1 2811:1 3341:1 3623:1 3923:1 4542:1 4577:1 4618:1 4654:1 4712:1 4902:1 5498:1 5911:1 6227:1 6507:1 7820:1 8635:1 8845:1 8883:1 8887:1 8901:1 9119:1 9534:1 10221:1 10989:1 11290:1 11681:1 12144:1 13121:1 13628:1 13637:1 28513:1 28584:1 28585:1 28648:1 28650:1 28668:1 28696:1 28713:1 28727:1 28738:1 28748:1 28765:1 28766:1 28769:1 28787:1 28795:1 28805:1 28824:1 28844:1 28850:1 28927:1 28950:1 28987:1 28990:1 28995:1 29001:1 29027:1 29066:1 29093:1 29105:1 29130:1 29138:1 29179:1 29191:1 29225:1 29260:1 29261:1 29288:1 29325:1 29347:1 29348:1 29349:1 29378:1 29393:1 29426:1 29431:1 29442:1 29504:1 29561:1 29576:1 29583:1 29605:1 29609:1 29616:1 29657:1 29668:1 29670:1 29730:1 29754:1 29762:1 29766:1 29767:1 29769:1 29773:1 29784:1 29795:1 29808:1 29816:1 29841:1 29853:1 29895:1 29897:1 29899:1 29940:1 29966:1 29976:1 29986:1 29994:1 30012:1 30032:1 30056:1 30075:1 30091:1 30131:1 30186:1 30196:1 30204:1 30306:1 30318:1 30339:1 30378:1 30434:1 30442:1 30461:1 30463:1 30466:1 30485:1 30516:1 30566:1 30580:1 30644:1 30647:1 30767:1 30776:1 30787:1 30819:1 30833:1 30852:1 30887:1 30939:1 30941:1 31013:1 31102:1 31118:1 31133:1 31164:1 31166:1 31171:1 31224:1 31247:1 31274:1 31311:1 31380:1 31384:1 31424:1 31453:1 31522:1 31554:1 31599:1 31623:1 31708:1 31722:1 31739:1 31746:1 31798:1 31814:1 31841:1 31906:1 31927:1 31939:1 31958:1 31987:1 31991:1 32012:1 32028:1 32052:1 32055:1 32059:1 32112:1 32144:1 32145:1 32147:1 32200:1 32311:1 32335:1 32339:1 32343:1 32347:1 32373:1 32390:1 32394:1 32512:1 32589:1 32599:1 32600:1 32630:1 32648:1 32651:1 32655:1 32659:1 32687:1 32699:1 32728:1 32737:1 32764:1 32766:1 32786:1 32796:1 32829:1 32831:1 32841:1 32851:1 32903:1 32951:1 32952:1 32973:1 32983:1 33017:1 33027:1 33059:1 33087:1 33090:1 33125:1 33139:1 33205:1 33266:1 33311:1 33347:1 33419:1 33450:1 33466:1 33474:1 33547:1 33548:1 33551:1 33590:1 33591:1 33608:1 33658:1 33704:1 33714:1 33719:1 33755:1 33789:1 33815:1 33867:1 33904:1 33917:1 33945:1 33982:1 34000:1 34014:1 34047:1 34067:1 34096:1 34131:1 34178:1 34228:1 34294:1 34297:1 34323:1 34355:1 34406:1 34416:1 34432:1 34483:1 34514:1 34523:1 34599:1 34604:1 34653:1 34688:1 34723:1 34727:1 34729:1 34741:1 34784:1 34830:1 34835:1 34840:1 34879:1 34895:1 34905:1 34956:1 35012:1 35016:1 35030:1 35035:1 35038:1 35056:1 35073:1 35112:1 35134:1 35208:1 35222:1 35273:1 35285:1 35292:1 35294:1 35320:1 35343:1 35355:1 35366:1 35394:1 35395:1 35457:1 35462:1 35525:1 35529:1 35538:1 35540:1 35549:1 35561:1 35569:1 #
-0.0032474064365311181012963004377525 72:1 382:1 744:1 1156:1 1267:1 1774:1 1860:1 2041:1 2084:1 2286:1 2467:1 2606:1 2663:1 2834:1 3273:1 4132:1 4203:1 4620:1 5474:1 6030:1 6031:1 6068:1 6189:1 6367:1 6385:1 6531:1 6658:1 6990:1 7036:1 7544:1 8203:1 8439:1 8462:1 9304:1 9868:1 10361:1 11158:1 11768:1 11932:1 12662:1 13412:1 13632:1 13647:1 13659:1 13715:1 28519:1 28536:1 28544:1 28552:1 28567:1 28578:1 28584:1 28609:1 28622:1 28638:1 28640:1 28682:1 28693:1 28709:1 28716:1 28724:1 28734:1 28736:1 28738:1 28739:1 28741:1 28754:1 28763:1 28765:1 28766:1 28787:1 28795:1 28815:1 28819:1 28824:1 28844:1 28850:1 28888:1 28910:1 28911:1 28923:1 28927:1 28950:1 28987:1 28990:1 28994:1 29027:1 29034:1 29035:1 29058:1 29063:1 29087:1 29093:1 29123:1 29138:1 29163:1 29191:1 29198:1 29248:1 29270:1 29273:1 29286:1 29292:1 29314:1 29319:1 29325:1 29347:1 29348:1 29349:1 29369:1 29370:1 29378:1 29397:1 29410:1 29420:1 29431:1 29451:1 29460:1 29487:1 29496:1 29504:1 29512:1 29561:1 29602:1 29609:1 29617:1 29624:1 29625:1 29629:1 29643:1 29652:1 29657:1 29668:1 29679:1 29705:1 29717:1 29730:1 29744:1 29754:1 29766:1 29767:1 29784:1 29800:1 29809:1 29833:1 29837:1 29852:1 29878:1 29896:1 29898:1 29899:1 29906:1 29910:1 29922:1 29927:1 29943:1 29963:1 29966:1 29967:1 29986:1 30012:1 30028:1 30063:1 30075:1 30083:1 30085:1 30177:1 30204:1 30233:1 30258:1 30259:1 30261:1 30273:1 30297:1 30318:1 30322:1 30335:1 30354:1 30381:1 30382:1 30388:1 30415:1 30423:1 30425:1 30434:1 30442:1 30443:1 30454:1 30463:1 30476:1 30487:1 30516:1 30537:1 30549:1 30557:1 30567:1 30580:1 30606:1 30642:1 30647:1 30652:1 30660:1 30662:1 30695:1 30699:1 30725:1 30767:1 30772:1 30776:1 30777:1 30782:1 30819:1 30820:1 30844:1 30845:1 30846:1 30850:1 30867:1 30872:1 30887:1 30933:1 30935:1 30939:1 30941:1 30949:1 30951:1 30981:1 30991:1 30999:1 31043:1 31044:1 31049:1 31051:1 31093:1 31099:1 31105:1 31107:1 31127:1 31144:1 31157:1 31158:1 31167:1 31180:1 31190:1 31193:1 31212:1 31230:1 31243:1 31247:1 31273:1 31310:1 31328:1 31331:1 31373:1 31384:1 31401:1 31413:1 31419:1 31421:1 31424:1 31452:1 31455:1 31464:1 31467:1 31474:1 31505:1 31519:1 31531:1 31537:1 31554:1 31590:1 31599:1 31610:1 31617:1 31628:1 31645:1 31655:1 31657:1 31660:1 31666:1 31669:1 31685:1 31701:1 31745:1 31798:1 31816:1 31822:1 31844:1 31846:1 31863:1 31875:1 31882:1 31898:1 31899:1 31900:1 31906:1 31908:1 31939:1 31953:1 31991:1 32028:1 32050:1 32055:1 32059:1 32061:1 32070:1 32078:1 32114:1 32129:1 32133:1 32143:1 32145:1 32147:1 32150:1 32176:1 32183:1 32204:1 32213:1 32235:1 32254:1 32339:1 32340:1 32343:1 32347:1 32349:1 32362:1 32373:1 32382:1 32384:1 32385:1 32390:1 32411:1 32435:1 32436:1 32460:1 32466:1 32480:1 32500:1 32506:1 32512:1 32516:1 32550:1 32567:1 32586:1 32602:1 32610:1 32612:1 32616:1 32644:1 32645:1 32648:1 32652:1 32655:1 32659:1 32662:1 32671:1 32676:1 32687:1 32704:1 32728:1 32729:1 32764:1 32778:1 32780:1 32798:1 32808:1 32816:1 32841:1 32859:1 32880:1 32903:1 32906:1 32907:1 32946:1 32949:1 32960:1 32976:1 32990:1 33002:1 33005:1 33060:1 33082:1 33090:1 33107:1 33108:1 33152:1 33155:1 33159:1 33189:1 33192:1 33237:1 33246:1 33252:1 33262:1 33274:1 33289:1 33292:1 33355:1 33363:1 33382:1 33392:1 33423:1 33438:1 33525:1 33588:1 33592:1 33597:1 33608:1 33611:1 33676:1 33686:1 33704:1 33710:1 33714:1 33715:1 33719:1 33725:1 33732:1 33755:1 33756:1 33761:1 33789:1 33815:1 33834:1 33867:1 33885:1 33905:1 33916:1 33945:1 33957:1 33966:1 33971:1 33985:1 34012:1 34031:1 34043:1 34048:1 34050:1 34051:1 34055:1 34066:1 34104:1 34115:1 34126:1 34131:1 34151:1 34152:1 34173:1 34178:1 34255:1 34287:1 34293:1 34294:1 34296:1 34297:1 34314:1 34321:1 34337:1 34385:1 34430:1 34438:1 34451:1 34472:1 34473:1 34514:1 34520:1 34523:1 34543:1 34561:1 34569:1 34580:1 34586:1 34616:1 34624:1 34630:1 34639:1 34642:1 34654:1 34664:1 34681:1 34687:1 34688:1 34723:1 34727:1 34729:1 34738:1 34741:1 34747:1 34755:1 34756:1 34787:1 34827:1 34835:1 34838:1 34840:1 34855:1 34861:1 34865:1 34885:1 34897:1 34900:1 34909:1 34946:1 34955:1 34956:1 34957:1 34988:1 35012:1 35016:1 35026:1 35031:1 35035:1 35037:1 35063:1 35073:1 35078:1 35102:1 35145:1 35183:1 35192:1 35195:1 35271:1 35273:1 35277:1 35279:1 35298:1 35307:1 35320:1 35369:1 35388:1 35394:1 35395:1 35418:1 35430:1 35476:1 35480:1 35484:1 35492:1 35497:1 35498:1 35509:1 35510:1 35523:1 35524:1 35529:1 35539:1 35569:1 35577:1 35582:1 35597:1 35598:1 35600:1 #
-0.0021699736520551992854932699117398 113:1 210:1 323:1 1288:1 1360:1 1809:1 1886:1 1967:1 2562:1 2654:1 2809:1 2833:1 2855:1 2901:1 3166:1 3597:1 3971:1 4312:1 4336:1 4627:1 4633:1 4718:1 4809:1 5481:1 5498:1 5521:1 5740:1 5918:1 5927:1 6230:1 6297:1 6360:1 6478:1 6496:1 7089:1 7092:1 7361:1 7550:1 7949:1 7998:1 8055:1 8161:1 8952:1 9323:1 9464:1 9531:1 10098:1 10381:1 10401:1 10595:1 10704:1 10746:1 11434:1 11498:1 11848:1 12081:1 12267:1 12379:1 12620:1 13114:1 13392:1 13612:1 13753:1 14052:1 14153:1 28527:1 28534:1 28538:1 28546:1 28572:1 28574:1 28584:1 28608:1 28613:1 28622:1 28660:1 28664:1 28699:1 28713:1 28739:1 28765:1 28768:1 28775:1 28795:1 28819:1 28824:1 28827:1 28834:1 28850:1 28853:1 28855:1 28857:1 28880:1 28923:1 28927:1 28974:1 28977:1 28983:1 28987:1 28990:1 28996:1 29019:1 29027:1 29033:1 29080:1 29093:1 29098:1 29112:1 29138:1 29179:1 29197:1 29259:1 29260:1 29273:1 29274:1 29303:1 29325:1 29345:1 29347:1 29348:1 29349:1 29360:1 29378:1 29394:1 29420:1 29431:1 29442:1 29464:1 29487:1 29530:1 29534:1 29544:1 29545:1 29567:1 29587:1 29605:1 29606:1 29609:1 29616:1 29625:1 29656:1 29662:1 29711:1 29730:1 29741:1 29754:1 29766:1 29767:1 29779:1 29785:1 29794:1 29878:1 29888:1 29899:1 29908:1 29929:1 29932:1 29994:1 30004:1 30054:1 30058:1 30098:1 30100:1 30112:1 30146:1 30165:1 30169:1 30184:1 30204:1 30273:1 30300:1 30309:1 30354:1 30381:1 30388:1 30425:1 30426:1 30434:1 30442:1 30449:1 30461:1 30463:1 30511:1 30513:1 30516:1 30519:1 30566:1 30571:1 30580:1 30645:1 30647:1 30706:1 30712:1 30718:1 30730:1 30740:1 30742:1 30812:1 30819:1 30820:1 30829:1 30835:1 30851:1 30887:1 30922:1 30941:1 30947:1 30968:1 31038:1 31049:1 31133:1 31136:1 31157:1 31177:1 31201:1 31212:1 31247:1 31261:1 31274:1 31292:1 31305:1 31318:1 31322:1 31415:1 31437:1 31444:1 31448:1 31452:1 31455:1 31458:1 31519:1 31531:1 31551:1 31554:1 31576:1 31578:1 31599:1 31613:1 31623:1 31660:1 31708:1 31712:1 31736:1 31798:1 31830:1 31847:1 31854:1 31883:1 31898:1 31901:1 31906:1 31936:1 31939:1 31971:1 31984:1 31986:1 31991:1 32028:1 32055:1 32059:1 32068:1 32090:1 32112:1 32132:1 32145:1 32147:1 32154:1 32175:1 32208:1 32222:1 32226:1 32227:1 32272:1 32280:1 32288:1 32313:1 32328:1 32330:1 32335:1 32336:1 32339:1 32340:1 32343:1 32347:1 32349:1 32372:1 32373:1 32382:1 32385:1 32390:1 32397:1 32406:1 32443:1 32448:1 32471:1 32490:1 32512:1 32520:1 32522:1 32538:1 32549:1 32576:1 32589:1 32590:1 32591:1 32610:1 32625:1 32632:1 32646:1 32655:1 32659:1 32687:1 32704:1 32709:1 32712:1 32729:1 32759:1 32793:1 32798:1 32814:1 32866:1 32892:1 32924:1 32941:1 32946:1 32949:1 32979:1 33000:1 33027:1 33037:1 33041:1 33087:1 33090:1 33112:1 33118:1 33142:1 33144:1 33162:1 33167:1 33189:1 33203:1 33228:1 33235:1 33252:1 33256:1 33264:1 33317:1 33421:1 33426:1 33587:1 33604:1 33608:1 33641:1 33649:1 33688:1 33692:1 33716:1 33719:1 33732:1 33736:1 33743:1 33755:1 33789:1 33815:1 33867:1 33872:1 33884:1 33890:1 33908:1 33933:1 33946:1 33947:1 33955:1 33956:1 33961:1 33964:1 33966:1 34058:1 34122:1 34132:1 34151:1 34157:1 34184:1 34188:1 34235:1 34262:1 34270:1 34294:1 34296:1 34297:1 34323:1 34349:1 34379:1 34406:1 34432:1 34453:1 34473:1 34494:1 34499:1 34514:1 34524:1 34552:1 34561:1 34576:1 34585:1 34616:1 34621:1 34644:1 34654:1 34664:1 34665:1 34687:1 34700:1 34716:1 34723:1 34727:1 34729:1 34756:1 34781:1 34782:1 34787:1 34801:1 34815:1 34861:1 34874:1 34897:1 34900:1 34954:1 34955:1 34956:1 34962:1 35009:1 35012:1 35014:1 35016:1 35028:1 35035:1 35057:1 35123:1 35133:1 35140:1 35150:1 35157:1 35195:1 35208:1 35217:1 35247:1 35273:1 35280:1 35342:1 35345:1 35347:1 35363:1 35369:1 35388:1 35394:1 35395:1 35420:1 35438:1 35447:1 35449:1 35460:1 35462:1 35464:1 35478:1 35479:1 35484:1 35492:1 35496:1 35506:1 35509:1 35523:1 35537:1 35539:1 35576:1 35582:1 35590:1 35600:1 35603:1 35606:1 35612:1 #
-0.0031612895316475327078808987835146 43:1 277:1 892:1 1223:1 1590:1 2031:1 2542:1 3142:1 4303:1 4638:1 4661:1 4829:1 5533:1 5845:1 6316:1 6470:1 6544:1 9184:1 9278:1 10009:1 11298:1 11300:1 12144:1 12271:1 12769:1 28529:1 28550:1 28568:1 28570:1 28583:1 28590:1 28613:1 28658:1 28693:1 28707:1 28713:1 28734:1 28765:1 28766:1 28768:1 28776:1 28787:1 28795:1 28819:1 28824:1 28850:1 28921:1 28927:1 28983:1 28987:1 28990:1 29019:1 29027:1 29033:1 29087:1 29093:1 29098:1 29101:1 29102:1 29149:1 29160:1 29179:1 29198:1 29200:1 29203:1 29259:1 29260:1 29261:1 29270:1 29308:1 29314:1 29325:1 29347:1 29348:1 29349:1 29378:1 29396:1 29411:1 29428:1 29431:1 29446:1 29450:1 29453:1 29474:1 29481:1 29490:1 29504:1 29586:1 29603:1 29609:1 29616:1 29623:1 29625:1 29663:1 29669:1 29730:1 29754:1 29766:1 29767:1 29798:1 29802:1 29814:1 29866:1 29870:1 29878:1 29899:1 29938:1 29986:1 29994:1 30075:1 30080:1 30083:1 30095:1 30114:1 30127:1 30151:1 30166:1 30204:1 30309:1 30318:1 30345:1 30354:1 30381:1 30388:1 30415:1 30434:1 30442:1 30463:1 30511:1 30549:1 30561:1 30580:1 30647:1 30660:1 30672:1 30693:1 30728:1 30742:1 30750:1 30767:1 30781:1 30794:1 30819:1 30869:1 30885:1 30887:1 30895:1 30941:1 30956:1 30970:1 30999:1 31001:1 31013:1 31031:1 31070:1 31102:1 31107:1 31109:1 31133:1 31136:1 31143:1 31148:1 31201:1 31207:1 31212:1 31232:1 31242:1 31247:1 31274:1 31316:1 31327:1 31384:1 31397:1 31404:1 31414:1 31474:1 31507:1 31519:1 31593:1 31599:1 31619:1 31649:1 31671:1 31679:1 31691:1 31701:1 31708:1 31725:1 31732:1 31738:1 31768:1 31798:1 31816:1 31847:1 31896:1 31906:1 31951:1 31952:1 31958:1 31991:1 32012:1 32095:1 32145:1 32147:1 32194:1 32200:1 32208:1 32222:1 32226:1 32245:1 32258:1 32272:1 32288:1 32339:1 32340:1 32343:1 32347:1 32349:1 32362:1 32436:1 32471:1 32498:1 32527:1 32586:1 32594:1 32599:1 32639:1 32646:1 32652:1 32659:1 32720:1 32729:1 32740:1 32743:1 32746:1 32757:1 32769:1 32789:1 32825:1 32831:1 32841:1 32856:1 32861:1 32888:1 32946:1 32949:1 32975:1 32996:1 33000:1 33005:1 33027:1 33037:1 33038:1 33059:1 33076:1 33090:1 33102:1 33107:1 33115:1 33118:1 33119:1 33132:1 33137:1 33152:1 33162:1 33165:1 33171:1 33180:1 33203:1 33235:1 33252:1 33254:1 33282:1 33324:1 33341:1 33347:1 33390:1 33461:1 33514:1 33608:1 33639:1 33663:1 33680:1 33714:1 33719:1 33755:1 33766:1 33789:1 33791:1 33815:1 33861:1 33867:1 33872:1 33916:1 33917:1 33939:1 33945:1 33966:1 33973:1 33985:1 34081:1 34083:1 34123:1 34131:1 34134:1 34151:1 34189:1 34246:1 34249:1 34294:1 34296:1 34329:1 34340:1 34352:1 34406:1 34407:1 34492:1 34504:1 34514:1 34523:1 34533:1 34574:1 34586:1 34621:1 34635:1 34639:1 34653:1 34654:1 34723:1 34726:1 34727:1 34729:1 34735:1 34741:1 34772:1 34787:1 34819:1 34842:1 34862:1 34956:1 34957:1 34967:1 34995:1 35012:1 35018:1 35035:1 35063:1 35115:1 35144:1 35202:1 35208:1 35230:1 35273:1 35277:1 35280:1 35290:1 35294:1 35300:1 35368:1 35371:1 35388:1 35394:1 35395:1 35449:1 35462:1 35484:1 35529:1 35536:1 35569:1 35582:1 35600:1 #
-5.4774486079588798493472667772153e-05 90:1 808:1 975:1 1121:1 1957:1 2105:1 2433:1 2861:1 3036:1 3546:1 3989:1 4306:1 5077:1 6798:1 8203:1 8661:1 9289:1 9563:1 10358:1 10601:1 10641:1 11152:1 12276:1 12722:1 13373:1 13486:1 14127:1 28540:1 28578:1 28584:1 28590:1 28713:1 28765:1 28766:1 28768:1 28814:1 28819:1 28850:1 28904:1 28911:1 28914:1 28977:1 28987:1 28990:1 29011:1 29019:1 29027:1 29033:1 29163:1 29168:1 29188:1 29313:1 29314:1 29325:1 29347:1 29348:1 29349:1 29358:1 29378:1 29431:1 29433:1 29487:1 29561:1 29605:1 29608:1 29616:1 29629:1 29663:1 29669:1 29720:1 29730:1 29820:1 29870:1 29878:1 29883:1 29888:1 29899:1 29921:1 29980:1 29983:1 29986:1 29994:1 30029:1 30063:1 30146:1 30152:1 30166:1 30186:1 30241:1 30263:1 30282:1 30335:1 30354:1 30381:1 30461:1 30487:1 30579:1 30580:1 30645:1 30657:1 30670:1 30687:1 30697:1 30712:1 30718:1 30763:1 30765:1 30771:1 30817:1 30819:1 30887:1 30913:1 30940:1 30955:1 30981:1 30999:1 31075:1 31089:1 31101:1 31102:1 31108:1 31127:1 31133:1 31144:1 31226:1 31229:1 31235:1 31247:1 31266:1 31282:1 31296:1 31387:1 31423:1 31426:1 31453:1 31470:1 31511:1 31519:1 31599:1 31623:1 31657:1 31798:1 31816:1 31844:1 31847:1 31906:1 31939:1 31958:1 31991:1 32001:1 32009:1 32053:1 32089:1 32096:1 32106:1 32117:1 32145:1 32200:1 32288:1 32297:1 32311:1 32317:1 32339:1 32340:1 32341:1 32343:1 32347:1 32349:1 32382:1 32390:1 32392:1 32405:1 32524:1 32533:1 32536:1 32591:1 32619:1 32646:1 32648:1 32655:1 32659:1 32700:1 32704:1 32720:1 32759:1 32764:1 32770:1 32795:1 32809:1 32868:1 32879:1 32946:1 33027:1 33059:1 33086:1 33129:1 33189:1 33190:1 33196:1 33256:1 33267:1 33273:1 33277:1 33288:1 33347:1 33373:1 33450:1 33460:1 33497:1 33534:1 33608:1 33625:1 33659:1 33680:1 33692:1 33693:1 33712:1 33719:1 33736:1 33743:1 33749:1 33755:1 33775:1 33789:1 33800:1 33815:1 33823:1 33868:1 33902:1 33939:1 33943:1 33945:1 34048:1 34106:1 34132:1 34152:1 34178:1 34267:1 34294:1 34296:1 34349:1 34406:1 34514:1 34562:1 34569:1 34599:1 34637:1 34654:1 34687:1 34723:1 34727:1 34729:1 34782:1 34787:1 34875:1 34889:1 34905:1 34949:1 34956:1 34957:1 34958:1 34996:1 35001:1 35012:1 35035:1 35150:1 35156:1 35180:1 35251:1 35253:1 35273:1 35307:1 35340:1 35347:1 35366:1 35369:1 35388:1 35394:1 35423:1 35484:1 35496:1 35528:1 35534:1 35562:1 35572:1 35582:1 #
0.0032474064365311181012963004377525 3967:1 3972:1 5588:1 7804:1 8400:1 9852:1 10286:1 10567:1 11148:1 11523:1 12222:1 12976:1 28529:1 28590:1 28765:1 28787:1 28795:1 28827:1 28828:1 28850:1 28962:1 28969:1 28990:1 29008:1 29027:1 29093:1 29138:1 29149:1 29191:1 29198:1 29314:1 29325:1 29347:1 29348:1 29349:1 29378:1 29431:1 29444:1 29561:1 29616:1 29685:1 29705:1 29878:1 29887:1 29899:1 30056:1 30149:1 30204:1 30241:1 30398:1 30404:1 30442:1 30463:1 30485:1 30516:1 30580:1 30606:1 30642:1 30645:1 30678:1 30765:1 30767:1 30809:1 30834:1 30887:1 30941:1 30953:1 30970:1 31059:1 31080:1 31133:1 31157:1 31247:1 31360:1 31397:1 31452:1 31455:1 31532:1 31580:1 31599:1 31768:1 31796:1 31798:1 31812:1 31987:1 31991:1 32054:1 32055:1 32059:1 32117:1 32128:1 32145:1 32188:1 32226:1 32232:1 32261:1 32301:1 32339:1 32340:1 32343:1 32347:1 32362:1 32373:1 32385:1 32398:1 32436:1 32498:1 32502:1 32571:1 32645:1 32648:1 32655:1 32728:1 32740:1 32742:1 32764:1 32879:1 32907:1 32946:1 33090:1 33111:1 33115:1 33118:1 33189:1 33347:1 33456:1 33560:1 33573:1 33638:1 33656:1 33692:1 33712:1 33719:1 33761:1 33789:1 33867:1 33916:1 33985:1 34178:1 34235:1 34268:1 34289:1 34325:1 34410:1 34473:1 34494:1 34514:1 34586:1 34639:1 34677:1 34723:1 34726:1 34727:1 34741:1 34782:1 34833:1 34895:1 35012:1 35044:1 35135:1 35273:1 35303:1 35347:1 35362:1 35368:1 35388:1 35394:1 35600:1 #
0.0032474064365311181012963004377525 3083:1 6319:1 7443:1 12809:1 13428:1 28528:1 28584:1 28665:1 28739:1 28765:1 28768:1 28776:1 28824:1 28827:1 28843:1 28850:1 28902:1 28977:1 28987:1 29027:1 29093:1 29104:1 29260:1 29295:1 29314:1 29325:1 29347:1 29348:1 29352:1 29378:1 29482:1 29535:1 29561:1 29616:1 29685:1 29730:1 29805:1 29896:1 29899:1 29954:1 30063:1 30290:1 30382:1 30388:1 30510:1 30580:1 30642:1 30645:1 30652:1 30671:1 30767:1 30810:1 30882:1 30887:1 30928:1 30947:1 30999:1 31011:1 31247:1 31447:1 31660:1 31674:1 31738:1 31798:1 31906:1 31908:1 31958:1 32004:1 32061:1 32069:1 32103:1 32115:1 32143:1 32145:1 32254:1 32339:1 32340:1 32343:1 32347:1 32378:1 32446:1 32538:1 32586:1 32591:1 32630:1 32808:1 32880:1 33122:1 33165:1 33608:1 33692:1 33719:1 33789:1 33815:1 33872:1 33916:1 33946:1 33966:1 34083:1 34100:1 34151:1 34159:1 34333:1 34485:1 34514:1 34630:1 34688:1 34727:1 34729:1 34741:1 34787:1 34992:1 35035:1 35063:1 35068:1 35144:1 35183:1 35214:1 35300:1 35347:1 35369:1 35388:1 35394:1 35543:1 35560:1 #
0.00090093212932134802278794083463254 868:1 2040:1 2149:1 2382:1 4059:1 4146:1 4202:1 4440:1 5340:1 7367:1 10001:1 10464:1 10487:1 11910:1 12022:1 12181:1 12652:1 12922:1 13708:1 28504:1 28524:1 28529:1 28535:1 28540:1 28554:1 28592:1 28687:1 28690:1 28697:1 28699:1 28765:1 28766:1 28787:1 28819:1 28824:1 28850:1 28910:1 28914:1 28923:1 28927:1 28977:1 28987:1 28996:1 29078:1 29093:1 29098:1 29128:1 29136:1 29138:1 29175:1 29214:1 29260:1 29261:1 29267:1 29325:1 29341:1 29348:1 29369:1 29378:1 29399:1 29423:1 29432:1 29462:1 29468:1 29487:1 29504:1 29512:1 29530:1 29561:1 29563:1 29572:1 29594:1 29609:1 29616:1 29629:1 29638:1 29744:1 29754:1 29785:1 29786:1 29814:1 29840:1 29899:1 29905:1 29925:1 29994:1 30017:1 30090:1 30124:1 30151:1 30166:1 30210:1 30211:1 30282:1 30297:1 30318:1 30335:1 30367:1 30381:1 30382:1 30386:1 30388:1 30394:1 30425:1 30442:1 30485:1 30567:1 30579:1 30580:1 30613:1 30645:1 30647:1 30652:1 30660:1 30696:1 30697:1 30710:1 30718:1 30757:1 30767:1 30776:1 30810:1 30819:1 30820:1 30834:1 30866:1 30887:1 30939:1 30951:1 30968:1 30999:1 31049:1 31057:1 31089:1 31099:1 31102:1 31133:1 31144:1 31157:1 31203:1 31216:1 31220:1 31247:1 31369:1 31387:1 31391:1 31397:1 31416:1 31423:1 31469:1 31474:1 31507:1 31519:1 31537:1 31576:1 31660:1 31690:1 31768:1 31770:1 31795:1 31798:1 31816:1 31845:1 31885:1 31902:1 31906:1 31924:1 31935:1 31958:1 31991:1 32047:1 32055:1 32059:1 32092:1 32112:1 32133:1 32145:1 32147:1 32160:1 32161:1 32176:1 32198:1 32238:1 32246:1 32339:1 32340:1 32343:1 32347:1 32373:1 32390:1 32398:1 32401:1 32466:1 32506:1 32514:1 32538:1 32591:1 32595:1 32610:1 32627:1 32645:1 32648:1 32676:1 32704:1 32720:1 32722:1 32740:1 32764:1 32771:1 32783:1 32798:1 32808:1 32842:1 32883:1 32943:1 32946:1 32949:1 33009:1 33024:1 33059:1 33076:1 33082:1 33087:1 33090:1 33122:1 33143:1 33162:1 33189:1 33192:1 33212:1 33272:1 33282:1 33288:1 33335:1 33406:1 33463:1 33544:1 33600:1 33608:1 33617:1 33642:1 33692:1 33714:1 33719:1 33755:1 33761:1 33786:1 33790:1 33810:1 33815:1 33867:1 33913:1 33916:1 33939:1 33982:1 33994:1 34017:1 34058:1 34066:1 34078:1 34097:1 34098:1 34151:1 34296:1 34318:1 34365:1 34406:1 34432:1 34459:1 34473:1 34485:1 34514:1 34594:1 34604:1 34630:1 34639:1 34645:1 34683:1 34720:1 34723:1 34726:1 34727:1 34729:1 34746:1 34787:1 34895:1 34956:1 34985:1 35012:1 35016:1 35063:1 35068:1 35076:1 35095:1 35101:1 35164:1 35202:1 35273:1 35330:1 35345:1 35347:1 35369:1 35386:1 35388:1 35394:1 35484:1 35496:1 35539:1 35569:1 35582:1 35587:1 35600:1 #
0.0032474064365311181012963004377525 1080:1 1132:1 1778:1 1849:1 2567:1 2720:1 2792:1 2845:1 3098:1 3235:1 3401:1 3986:1 4845:1 4865:1 5386:1 5606:1 6246:1 7697:1 9264:1 9544:1 10783:1 12509:1 13428:1 13502:1 13789:1 14150:1 28546:1 28572:1 28578:1 28591:1 28615:1 28631:1 28727:1 28734:1 28765:1 28766:1 28787:1 28824:1 28827:1 28843:1 28850:1 28923:1 28927:1 28987:1 29001:1 29027:1 29093:1 29128:1 29135:1 29138:1 29163:1 29203:1 29260:1 29273:1 29314:1 29325:1 29330:1 29347:1 29348:1 29349:1 29378:1 29381:1 29411:1 29431:1 29512:1 29561:1 29609:1 29616:1 29650:1 29695:1 29726:1 29730:1 29744:1 29753:1 29754:1 29766:1 29785:1 29790:1 29805:1 29820:1 29839:1 29860:1 29878:1 29888:1 29896:1 29899:1 29974:1 30003:1 30028:1 30052:1 30058:1 30196:1 30201:1 30238:1 30253:1 30334:1 30335:1 30378:1 30381:1 30382:1 30485:1 30511:1 30516:1 30532:1 30543:1 30577:1 30580:1 30640:1 30642:1 30645:1 30692:1 30767:1 30772:1 30810:1 30818:1 30819:1 30841:1 30860:1 30862:1 30867:1 30869:1 30887:1 30999:1 31102:1 31133:1 31158:1 31198:1 31247:1 31248:1 31255:1 31263:1 31274:1 31336:1 31444:1 31455:1 31471:1 31496:1 31514:1 31519:1 31521:1 31548:1 31551:1 31593:1 31599:1 31625:1 31663:1 31671:1 31695:1 31760:1 31798:1 31802:1 31808:1 31816:1 31827:1 31831:1 31842:1 31870:1 31876:1 31898:1 31906:1 31954:1 31958:1 31965:1 32002:1 32018:1 32031:1 32049:1 32053:1 32055:1 32061:1 32112:1 32115:1 32145:1 32182:1 32218:1 32226:1 32254:1 32272:1 32288:1 32339:1 32340:1 32343:1 32373:1 32378:1 32385:1 32412:1 32506:1 32527:1 32586:1 32589:1 32595:1 32616:1 32629:1 32630:1 32645:1 32646:1 32650:1 32658:1 32729:1 32736:1 32740:1 32764:1 32821:1 32841:1 32851:1 32930:1 32946:1 33027:1 33045:1 33075:1 33085:1 33132:1 33162:1 33165:1 33189:1 33203:1 33252:1 33288:1 33289:1 33292:1 33311:1 33339:1 33456:1 33493:1 33534:1 33581:1 33608:1 33609:1 33616:1 33688:1 33714:1 33719:1 33761:1 33789:1 33800:1 33815:1 33854:1 33882:1 33904:1 33916:1 33930:1 33939:1 33951:1 34031:1 34037:1 34092:1 34097:1 34151:1 34170:1 34268:1 34296:1 34355:1 34363:1 34368:1 34406:1 34416:1 34446:1 34514:1 34523:1 34540:1 34609:1 34630:1 34639:1 34664:1 34678:1 34688:1 34723:1 34727:1 34729:1 34787:1 34811:1 34823:1 34838:1 34849:1 34875:1 34893:1 34905:1 34909:1 34955:1 35035:1 35152:1 35192:1 35207:1 35239:1 35260:1 35273:1 35277:1 35347:1 35363:1 35366:1 35369:1 35388:1 35394:1 35419:1 35426:1 35496:1 35529:1 35576:1 35582:1 35585:1 #
0.00072923426240725829419742076709099 487:1 1201:1 3355:1 3392:1 4319:1 4579:1 8589:1 9350:1 9401:1 10183:1 11062:1 11365:1 11515:1 12633:1 12884:1 13167:1 13842:1 14094:1 28505:1 28514:1 28529:1 28540:1 28557:1 28616:1 28734:1 28741:1 28765:1 28766:1 28795:1 28850:1 28861:1 28891:1 28911:1 28927:1 28976:1 28987:1 29019:1 29033:1 29093:1 29105:1 29138:1 29140:1 29198:1 29201:1 29239:1 29325:1 29347:1 29348:1 29349:1 29378:1 29386:1 29393:1 29411:1 29431:1 29446:1 29463:1 29487:1 29500:1 29504:1 29528:1 29561:1 29643:1 29662:1 29708:1 29730:1 29744:1 29754:1 29866:1 29958:1 29976:1 30050:1 30122:1 30163:1 30175:1 30204:1 30261:1 30342:1 30354:1 30381:1 30425:1 30426:1 30434:1 30452:1 30485:1 30549:1 30566:1 30580:1 30647:1 30712:1 30767:1 30772:1 30793:1 30820:1 30867:1 30887:1 30910:1 31074:1 31117:1 31164:1 31212:1 31247:1 31280:1 31303:1 31397:1 31435:1 31455:1 31490:1 31519:1 31551:1 31589:1 31599:1 31628:1 31720:1 31729:1 31774:1 31798:1 31901:1 31951:1 31991:1 32028:1 32055:1 32145:1 32173:1 32204:1 32289:1 32339:1 32340:1 32343:1 32385:1 32390:1 32501:1 32591:1 32595:1 32616:1 32632:1 32651:1 32820:1 32831:1 32840:1 32854:1 32939:1 32969:1 33003:1 33008:1 33059:1 33085:1 33347:1 33382:1 33386:1 33500:1 33514:1 33525:1 33719:1 33733:1 33815:1 33877:1 33896:1 34031:1 34051:1 34066:1 34097:1 34100:1 34102:1 34144:1 34178:1 34187:1 34203:1 34317:1 34331:1 34354:1 34514:1 34527:1 34528:1 34583:1 34662:1 34723:1 34727:1 34787:1 34919:1 34956:1 34957:1 34983:1 35012:1 35076:1 35252:1 35273:1 35277:1 35300:1 35347:1 35388:1 35496:1 35562:1 #
0.0020662179618919883361538580857086 2250:1 2416:1 3241:1 4914:1 5978:1 6827:1 12510:1 12670:1 28554:1 28566:1 28569:1 28584:1 28677:1 28697:1 28709:1 28727:1 28734:1 28748:1 28765:1 28786:1 28795:1 28843:1 28850:1 28923:1 29093:1 29163:1 29175:1 29236:1 29255:1 29325:1 29347:1 29348:1 29378:1 29397:1 29411:1 29420:1 29512:1 29539:1 29561:1 29609:1 29616:1 29622:1 29685:1 29686:1 29730:1 29754:1 29766:1 29767:1 29782:1 29811:1 29850:1 29877:1 29899:1 29958:1 29974:1 29987:1 30056:1 30058:1 30063:1 30080:1 30175:1 30277:1 30318:1 30371:1 30388:1 30463:1 30492:1 30498:1 30580:1 30673:1 30844:1 30887:1 30918:1 30922:1 31063:1 31133:1 31177:1 31215:1 31247:1 31495:1 31521:1 31613:1 31618:1 31696:1 31798:1 31799:1 31841:1 31908:1 32015:1 32018:1 32026:1 32055:1 32057:1 32082:1 32117:1 32139:1 32145:1 32151:1 32160:1 32182:1 32200:1 32204:1 32288:1 32339:1 32340:1 32343:1 32372:1 32436:1 32528:1 32550:1 32591:1 32612:1 32791:1 32831:1 32856:1 32879:1 32946:1 32974:1 33017:1 33027:1 33036:1 33052:1 33057:1 33059:1 33087:1 33133:1 33141:1 33162:1 33179:1 33189:1 33202:1 33237:1 33312:1 33339:1 33341:1 33608:1 33611:1 33661:1 33719:1 33755:1 33815:1 33827:1 33832:1 33851:1 33916:1 33933:1 33945:1 33968:1 34058:1 34096:1 34151:1 34173:1 34178:1 34235:1 34294:1 34296:1 34362:1 34435:1 34473:1 34486:1 34495:1 34514:1 34583:1 34606:1 34610:1 34639:1 34658:1 34664:1 34685:1 34688:1 34722:1 34723:1 34727:1 34741:1 34757:1 34787:1 34793:1 34833:1 34845:1 34881:1 34897:1 34926:1 34955:1 34956:1 35033:1 35035:1 35070:1 35245:1 35347:1 35350:1 35388:1 35394:1 35446:1 35496:1 35529:1 35539:1 35540:1 #
-0.0032474064365311181012963004377525 28534:1 28554:1 28713:1 28765:1 28854:1 29101:1 29147:1 29349:1 29432:1 29487:1 29669:1 29754:1 29759:1 29896:1 29921:1 30425:1 30580:1 30819:1 30887:1 30967:1 31136:1 31247:1 31301:1 31399:1 31593:1 31651:1 31998:1 32132:1 32339:1 32343:1 32373:1 32418:1 32460:1 32764:1 32859:1 33059:1 33132:1 33212:1 33872:1 34407:1 34604:1 34723:1 34727:1 34768:1 34787:1 34809:1 34830:1 34956:1 35035:1 35101:1 #
-0.0032474064365311181012963004377525 1418:1 2105:1 2135:1 3623:1 3720:1 6121:1 6590:1 8713:1 8894:1 9373:1 9701:1 11204:1 28519:1 28540:1 28688:1 28765:1 28771:1 28839:1 28850:1 28940:1 29093:1 29138:1 29214:1 29229:1 29325:1 29328:1 29347:1 29349:1 29378:1 29512:1 29535:1 29585:1 29629:1 29698:1 29740:1 29831:1 29853:1 29899:1 29994:1 30090:1 30313:1 30335:1 30354:1 30365:1 30464:1 30491:1 30511:1 30518:1 30520:1 30580:1 30697:1 30712:1 30752:1 30776:1 30815:1 30887:1 30987:1 31133:1 31146:1 31247:1 31344:1 31402:1 31432:1 31451:1 31519:1 31605:1 31690:1 31792:1 31796:1 31798:1 31906:1 31908:1 31958:1 31996:1 32031:1 32145:1 32161:1 32182:1 32211:1 32288:1 32339:1 32340:1 32343:1 32373:1 32501:1 32513:1 32576:1 32577:1 32595:1 32617:1 32619:1 32645:1 32648:1 33039:1 33086:1 33090:1 33122:1 33164:1 33189:1 33275:1 33282:1 33288:1 33376:1 33489:1 33680:1 33719:1 33789:1 33945:1 33956:1 33957:1 34037:1 34178:1 34296:1 34355:1 34392:1 34511:1 34514:1 34589:1 34654:1 34689:1 34723:1 34726:1 34727:1 34793:1 34816:1 34863:1 34881:1 34970:1 35012:1 35092:1 35154:1 35192:1 35273:1 35366:1 35388:1 35461:1 35496:1 #
-0.0032474064365311181012963004377525 471:1 1834:1 2056:1 3410:1 3868:1 4137:1 4241:1 4332:1 5580:1 8821:1 9069:1 10395:1 10760:1 11258:1 11442:1 11482:1 11781:1 11814:1 13111:1 13455:1 14101:1 28587:1 28682:1 28705:1 28749:1 28765:1 28766:1 28769:1 28785:1 28793:1 28850:1 28888:1 28919:1 28923:1 28987:1 29027:1 29033:1 29076:1 29093:1 29179:1 29270:1 29325:1 29348:1 29369:1 29378:1 29420:1 29616:1 29638:1 29668:1 29697:1 29730:1 29747:1 29850:1 29899:1 29914:1 30016:1 30075:1 30076:1 30212:1 30220:1 30425:1 30533:1 30539:1 30580:1 30673:1 30712:1 30794:1 30819:1 30967:1 31051:1 31165:1 31188:1 31247:1 31255:1 31285:1 31318:1 31415:1 31432:1 31473:1 31491:1 31505:1 31640:1 31798:1 31811:1 31875:1 31920:1 31941:1 31953:1 31958:1 31991:1 32000:1 32098:1 32128:1 32145:1 32200:1 32233:1 32339:1 32343:1 32453:1 32460:1 32522:1 32528:1 32554:1 32591:1 32607:1 32623:1 32639:1 32676:1 32680:1 32716:1 32730:1 32792:1 32842:1 33087:1 33132:1 33289:1 33349:1 33364:1 33370:1 33444:1 33547:1 33551:1 33568:1 33659:1 33719:1 33733:1 33755:1 33791:1 33799:1 33815:1 33818:1 33859:1 33904:1 33935:1 33970:1 34031:1 34058:1 34083:1 34093:1 34130:1 34159:1 34281:1 34297:1 34339:1 34407:1 34514:1 34583:1 34667:1 34687:1 34723:1 34727:1 34787:1 34872:1 34884:1 34890:1 34895:1 34904:1 34953:1 34955:1 34956:1 34968:1 35001:1 35012:1 35016:1 35035:1 35037:1 35070:1 35191:1 35210:1 35229:1 35273:1 35374:1 35394:1 35540:1 #
-0.0032474064365311181012963004377525 6726:1 10695:1 12630:1 28514:1 28765:1 28850:1 28928:1 29116:1 29138:1 29179:1 29226:1 29273:1 29325:1 29337:1 29349:1 29378:1 29431:1 29487:1 29605:1 29766:1 29899:1 29967:1 29982:1 30335:1 30378:1 30406:1 30408:1 30434:1 30580:1 30642:1 30757:1 30829:1 30939:1 31102:1 31138:1 31158:1 31247:1 31329:1 31387:1 31451:1 31452:1 31671:1 31798:1 31906:1 31908:1 31951:1 31958:1 32059:1 32077:1 32112:1 32145:1 32339:1 32340:1 32343:1 32347:1 32349:1 32628:1 32657:1 32740:1 32799:1 32934:1 33063:1 33235:1 33389:1 33392:1 33454:1 33569:1 33608:1 33719:1 33736:1 33755:1 33770:1 33813:1 33916:1 33966:1 33990:1 34041:1 34151:1 34202:1 34228:1 34446:1 34474:1 34514:1 34654:1 34665:1 34723:1 34727:1 34787:1 34823:1 34895:1 34956:1 35273:1 35275:1 35302:1 35320:1 35355:1 35369:1 35427:1 35448:1 #
-0.0032474064365311181012963004377525 763:1 916:1 1498:1 4221:1 5089:1 6796:1 8452:1 8572:1 9200:1 13086:1 28519:1 28584:1 28622:1 28734:1 28765:1 28768:1 28850:1 28859:1 28977:1 28987:1 29027:1 29085:1 29179:1 29260:1 29314:1 29325:1 29347:1 29349:1 29378:1 29434:1 29523:1 29608:1 29705:1 29708:1 29730:1 29754:1 29782:1 29800:1 29876:1 29899:1 29984:1 30075:1 30204:1 30318:1 30382:1 30434:1 30511:1 30528:1 30552:1 30580:1 30616:1 30767:1 30818:1 30819:1 30886:1 30887:1 30964:1 31157:1 31158:1 31247:1 31342:1 31397:1 31490:1 31656:1 31798:1 31816:1 31822:1 31850:1 31991:1 32021:1 32059:1 32132:1 32145:1 32161:1 32285:1 32339:1 32340:1 32343:1 32349:1 32412:1 32471:1 32602:1 32620:1 32648:1 32740:1 32746:1 32886:1 32943:1 32946:1 33090:1 33099:1 33101:1 33133:1 33168:1 33347:1 33608:1 33719:1 33789:1 33800:1 33815:1 33923:1 33943:1 33985:1 34001:1 34185:1 34225:1 34378:1 34409:1 34490:1 34514:1 34627:1 34660:1 34723:1 34727:1 34861:1 34905:1 34992:1 35053:1 35055:1 35191:1 35286:1 35366:1 35388:1 35423:1 35426:1 35461:1 35508:1 35539:1 35555:1 35600:1 #
0.00098888007963402325788127011918505 430:1 789:1 818:1 1227:1 1994:1 2665:1 3092:1 5354:1 6590:1 7060:1 7339:1 8355:1 9432:1 9984:1 10276:1 10746:1 10801:1 10889:1 11652:1 12588:1 14127:1 14201:1 28505:1 28574:1 28578:1 28633:1 28677:1 28717:1 28734:1 28739:1 28741:1 28765:1 28768:1 28800:1 28815:1 28819:1 28824:1 28833:1 28850:1 28870:1 28879:1 28888:1 28923:1 28977:1 28987:1 28996:1 29019:1 29027:1 29093:1 29114:1 29138:1 29198:1 29240:1 29273:1 29292:1 29309:1 29314:1 29325:1 29347:1 29348:1 29349:1 29378:1 29413:1 29431:1 29444:1 29450:1 29479:1 29510:1 29535:1 29561:1 29642:1 29649:1 29669:1 29696:1 29723:1 29730:1 29766:1 29800:1 29866:1 29878:1 29888:1 29899:1 29921:1 29986:1 30012:1 30050:1 30084:1 30175:1 30202:1 30258:1 30335:1 30354:1 30381:1 30388:1 30426:1 30441:1 30442:1 30463:1 30485:1 30566:1 30580:1 30606:1 30616:1 30645:1 30687:1 30712:1 30718:1 30757:1 30767:1 30768:1 30793:1 30798:1 30850:1 30862:1 30872:1 30887:1 30941:1 30968:1 30970:1 30998:1 31009:1 31037:1 31102:1 31107:1 31111:1 31113:1 31133:1 31157:1 31190:1 31216:1 31247:1 31257:1 31261:1 31293:1 31370:1 31427:1 31434:1 31448:1 31455:1 31519:1 31520:1 31569:1 31580:1 31587:1 31593:1 31599:1 31653:1 31660:1 31725:1 31733:1 31746:1 31768:1 31798:1 31816:1 31906:1 31930:1 31958:1 31991:1 31999:1 32002:1 32015:1 32026:1 32042:1 32055:1 32059:1 32078:1 32115:1 32144:1 32145:1 32212:1 32222:1 32226:1 32273:1 32288:1 32336:1 32339:1 32340:1 32343:1 32347:1 32363:1 32373:1 32385:1 32411:1 32414:1 32436:1 32506:1 32551:1 32562:1 32591:1 32625:1 32630:1 32659:1 32668:1 32704:1 32720:1 32722:1 32740:1 32831:1 32946:1 33013:1 33062:1 33086:1 33102:1 33109:1 33122:1 33141:1 33189:1 33235:1 33251:1 33252:1 33271:1 33311:1 33415:1 33608:1 33611:1 33692:1 33719:1 33732:1 33761:1 33789:1 33815:1 33916:1 33939:1 33945:1 33950:1 33960:1 33966:1 33975:1 33991:1 33994:1 34000:1 34020:1 34031:1 34046:1 34069:1 34098:1 34121:1 34131:1 34173:1 34228:1 34289:1 34296:1 34301:1 34302:1 34307:1 34331:1 34355:1 34432:1 34472:1 34481:1 34485:1 34505:1 34514:1 34616:1 34619:1 34639:1 34643:1 34685:1 34723:1 34727:1 34783:1 34787:1 34830:1 34903:1 34909:1 34955:1 34956:1 34988:1 35012:1 35016:1 35019:1 35035:1 35044:1 35050:1 35063:1 35076:1 35089:1 35210:1 35225:1 35347:1 35366:1 35368:1 35369:1 35394:1 35423:1 35432:1 35443:1 35486:1 35488:1 35496:1 35535:1 35562:1 35582:1 35600:1 #
0.0032474064365311181012963004377525 151:1 375:1 1975:1 2040:1 2208:1 2802:1 8018:1 9465:1 10406:1 10887:1 11202:1 11320:1 12675:1 12769:1 13146:1 13230:1 13581:1 14137:1 14152:1 28523:1 28657:1 28755:1 28765:1 28819:1 28822:1 28850:1 28882:1 28901:1 28910:1 28911:1 28987:1 29088:1 29162:1 29180:1 29198:1 29248:1 29297:1 29325:1 29330:1 29347:1 29348:1 29349:1 29378:1 29411:1 29609:1 29631:1 29700:1 29730:1 29766:1 29767:1 29814:1 29899:1 29986:1 29994:1 30070:1 30312:1 30353:1 30388:1 30434:1 30453:1 30463:1 30485:1 30580:1 30615:1 30647:1 30648:1 30652:1 30711:1 30819:1 30869:1 30887:1 30909:1 30941:1 30989:1 30996:1 31124:1 31133:1 31158:1 31197:1 31247:1 31274:1 31424:1 31537:1 31600:1 31614:1 31745:1 31746:1 31795:1 31798:1 31939:1 32067:1 32112:1 32143:1 32145:1 32226:1 32339:1 32340:1 32343:1 32347:1 32365:1 32479:1 32619:1 32652:1 32704:1 32716:1 32729:1 32737:1 32831:1 32884:1 32895:1 32946:1 33122:1 33132:1 33167:1 33258:1 33276:1 33282:1 33344:1 33376:1 33476:1 33519:1 33569:1 33602:1 33608:1 33692:1 33714:1 33719:1 33742:1 33783:1 33790:1 33797:1 33847:1 33925:1 33932:1 33985:1 34031:1 34097:1 34220:1 34313:1 34494:1 34514:1 34723:1 34727:1 34729:1 34736:1 34741:1 34745:1 34787:1 34833:1 34926:1 34955:1 34956:1 35012:1 35035:1 35060:1 35067:1 35156:1 35251:1 35273:1 35351:1 35369:1 35392:1 35394:1 35421:1 35478:1 35484:1 35584:1 35600:1 #
0.0032474064365311181012963004377525 563:1 603:1 645:1 726:1 1137:1 2411:1 2666:1 2965:1 3087:1 3208:1 3373:1 4185:1 4217:1 4297:1 4509:1 4737:1 4739:1 4913:1 4949:1 5214:1 5256:1 5399:1 5640:1 7470:1 7557:1 8306:1 8351:1 8888:1 9738:1 9771:1 9807:1 9868:1 10374:1 10543:1 10573:1 11082:1 11434:1 11723:1 11865:1 12312:1 12367:1 12545:1 12633:1 13206:1 13210:1 13636:1 13700:1 13843:1 13850:1 28519:1 28529:1 28541:1 28544:1 28557:1 28566:1 28568:1 28574:1 28584:1 28657:1 28662:1 28699:1 28712:1 28713:1 28724:1 28734:1 28739:1 28765:1 28766:1 28768:1 28777:1 28787:1 28794:1 28799:1 28816:1 28819:1 28823:1 28824:1 28827:1 28850:1 28860:1 28866:1 28867:1 28886:1 28894:1 28910:1 28923:1 28927:1 28969:1 28985:1 28987:1 29008:1 29009:1 29019:1 29027:1 29033:1 29034:1 29093:1 29126:1 29128:1 29129:1 29138:1 29186:1 29198:1 29224:1 29232:1 29255:1 29306:1 29325:1 29347:1 29348:1 29349:1 29378:1 29392:1 29399:1 29420:1 29431:1 29442:1 29444:1 29504:1 29512:1 29529:1 29563:1 29571:1 29609:1 29616:1 29645:1 29674:1 29685:1 29711:1 29730:1 29737:1 29744:1 29754:1 29755:1 29766:1 29767:1 29800:1 29814:1 29832:1 29863:1 29878:1 29899:1 29929:1 29935:1 29940:1 29950:1 29959:1 29961:1 29966:1 29972:1 29974:1 29986:1 29988:1 29994:1 30028:1 30055:1 30063:1 30080:1 30166:1 30194:1 30203:1 30204:1 30212:1 30258:1 30259:1 30314:1 30325:1 30335:1 30354:1 30367:1 30385:1 30388:1 30392:1 30397:1 30399:1 30425:1 30434:1 30442:1 30463:1 30483:1 30500:1 30503:1 30514:1 30516:1 30523:1 30566:1 30580:1 30602:1 30615:1 30642:1 30644:1 30645:1 30647:1 30660:1 30666:1 30687:1 30700:1 30705:1 30706:1 30731:1 30744:1 30746:1 30767:1 30778:1 30818:1 30819:1 30829:1 30846:1 30850:1 30878:1 30887:1 30900:1 30941:1 30949:1 30981:1 30997:1 30999:1 31001:1 31011:1 31026:1 31049:1 31054:1 31062:1 31124:1 31127:1 31153:1 31157:1 31212:1 31247:1 31255:1 31259:1 31277:1 31283:1 31310:1 31312:1 31317:1 31334:1 31370:1 31377:1 31383:1 31384:1 31387:1 31392:1 31397:1 31419:1 31444:1 31448:1 31452:1 31453:1 31455:1 31464:1 31476:1 31486:1 31507:1 31509:1 31519:1 31521:1 31554:1 31592:1 31617:1 31622:1 31623:1 31626:1 31628:1 31660:1 31674:1 31701:1 31708:1 31722:1 31725:1 31772:1 31798:1 31799:1 31801:1 31842:1 31847:1 31866:1 31906:1 31908:1 31913:1 31930:1 31937:1 31939:1 31942:1 31958:1 31975:1 31991:1 32012:1 32018:1 32050:1 32055:1 32078:1 32107:1 32115:1 32116:1 32123:1 32142:1 32145:1 32182:1 32211:1 32222:1 32267:1 32272:1 32282:1 32293:1 32301:1 32311:1 32313:1 32339:1 32340:1 32343:1 32347:1 32349:1 32354:1 32372:1 32373:1 32390:1 32417:1 32438:1 32451:1 32473:1 32501:1 32506:1 32517:1 32523:1 32538:1 32549:1 32558:1 32567:1 32570:1 32591:1 32598:1 32610:1 32612:1 32632:1 32645:1 32646:1 32656:1 32657:1 32668:1 32704:1 32709:1 32710:1 32713:1 32720:1 32728:1 32737:1 32740:1 32743:1 32816:1 32832:1 32879:1 32880:1 32944:1 32946:1 32949:1 32958:1 33002:1 33035:1 33053:1 33076:1 33090:1 33118:1 33122:1 33132:1 33155:1 33189:1 33196:1 33221:1 33242:1 33248:1 33256:1 33301:1 33311:1 33335:1 33344:1 33358:1 33375:1 33382:1 33396:1 33399:1 33438:1 33527:1 33534:1 33541:1 33545:1 33549:1 33587:1 33595:1 33608:1 33629:1 33631:1 33692:1 33719:1 33755:1 33756:1 33761:1 33776:1 33778:1 33789:1 33815:1 33822:1 33832:1 33834:1 33856:1 33867:1 33905:1 33916:1 33933:1 33943:1 33978:1 33985:1 34000:1 34006:1 34010:1 34012:1 34031:1 34047:1 34066:1 34100:1 34108:1 34131:1 34134:1 34147:1 34151:1 34152:1 34178:1 34209:1 34222:1 34235:1 34253:1 34287:1 34291:1 34294:1 34296:1 34302:1 34338:1 34340:1 34380:1 34381:1 34406:1 34428:1 34432:1 34438:1 34446:1 34465:1 34472:1 34473:1 34475:1 34495:1 34503:1 34514:1 34523:1 34534:1 34581:1 34592:1 34630:1 34635:1 34639:1 34654:1 34687:1 34722:1 34723:1 34727:1 34729:1 34735:1 34741:1 34744:1 34782:1 34787:1 34811:1 34872:1 34873:1 34875:1 34889:1 34895:1 34905:1 34916:1 34942:1 34946:1 34956:1 34957:1 34965:1 34996:1 34998:1 35012:1 35016:1 35026:1 35030:1 35035:1 35060:1 35073:1 35152:1 35183:1 35185:1 35192:1 35214:1 35273:1 35294:1 35307:1 35347:1 35366:1 35369:1 35388:1 35394:1 35395:1 35405:1 35449:1 35465:1 35484:1 35492:1 35496:1 35509:1 35523:1 35539:1 35571:1 35582:1 35600:1 35603:1 #
0.00070224745712583244022786388427448 223:1 280:1 749:1 1038:1 1084:1 1846:1 2020:1 2603:1 3609:1 4101:1 4283:1 4464:1 4833:1 5036:1 5239:1 5766:1 5882:1 6126:1 6367:1 6625:1 7126:1 7337:1 8227:1 8582:1 8728:1 8763:1 9390:1 9650:1 9773:1 10925:1 11074:1 11700:1 12367:1 12425:1 12620:1 12790:1 12846:1 12855:1 13016:1 13114:1 13292:1 13479:1 13588:1 28498:1 28522:1 28529:1 28538:1 28540:1 28544:1 28552:1 28557:1 28561:1 28576:1 28584:1 28585:1 28616:1 28631:1 28684:1 28697:1 28734:1 28739:1 28741:1 28765:1 28766:1 28768:1 28777:1 28779:1 28787:1 28795:1 28816:1 28819:1 28824:1 28843:1 28844:1 28850:1 28863:1 28874:1 28880:1 28881:1 28900:1 28911:1 28923:1 28947:1 28968:1 28969:1 28983:1 28987:1 28990:1 28996:1 29007:1 29019:1 29027:1 29032:1 29033:1 29034:1 29067:1 29076:1 29087:1 29093:1 29097:1 29101:1 29118:1 29126:1 29128:1 29138:1 29143:1 29144:1 29163:1 29179:1 29203:1 29223:1 29260:1 29261:1 29267:1 29284:1 29286:1 29303:1 29314:1 29325:1 29328:1 29347:1 29348:1 29349:1 29378:1 29394:1 29399:1 29401:1 29428:1 29431:1 29484:1 29487:1 29512:1 29514:1 29524:1 29530:1 29585:1 29600:1 29609:1 29616:1 29625:1 29627:1 29685:1 29695:1 29704:1 29705:1 29707:1 29711:1 29730:1 29744:1 29754:1 29755:1 29766:1 29767:1 29776:1 29782:1 29790:1 29814:1 29860:1 29866:1 29878:1 29894:1 29895:1 29899:1 29923:1 29938:1 29943:1 30004:1 30008:1 30012:1 30021:1 30033:1 30063:1 30070:1 30075:1 30161:1 30166:1 30177:1 30201:1 30223:1 30260:1 30282:1 30301:1 30309:1 30354:1 30377:1 30381:1 30382:1 30385:1 30388:1 30421:1 30425:1 30442:1 30452:1 30463:1 30477:1 30485:1 30492:1 30511:1 30513:1 30516:1 30566:1 30580:1 30586:1 30615:1 30620:1 30639:1 30642:1 30645:1 30647:1 30649:1 30652:1 30671:1 30672:1 30687:1 30700:1 30712:1 30725:1 30757:1 30767:1 30797:1 30810:1 30819:1 30835:1 30850:1 30887:1 30920:1 30927:1 30941:1 30947:1 30958:1 30981:1 30995:1 30999:1 31011:1 31038:1 31049:1 31087:1 31102:1 31107:1 31108:1 31119:1 31127:1 31144:1 31146:1 31158:1 31170:1 31186:1 31188:1 31189:1 31201:1 31207:1 31212:1 31247:1 31263:1 31270:1 31278:1 31283:1 31289:1 31324:1 31392:1 31402:1 31445:1 31450:1 31455:1 31466:1 31469:1 31519:1 31521:1 31531:1 31537:1 31546:1 31585:1 31593:1 31628:1 31645:1 31653:1 31657:1 31660:1 31667:1 31676:1 31680:1 31701:1 31719:1 31725:1 31733:1 31750:1 31754:1 31761:1 31765:1 31794:1 31795:1 31798:1 31816:1 31875:1 31889:1 31906:1 31908:1 31936:1 31939:1 31964:1 31987:1 31991:1 32015:1 32042:1 32055:1 32061:1 32072:1 32084:1 32099:1 32107:1 32112:1 32124:1 32143:1 32145:1 32147:1 32160:1 32204:1 32208:1 32226:1 32230:1 32245:1 32254:1 32256:1 32288:1 32330:1 32331:1 32339:1 32340:1 32342:1 32343:1 32347:1 32372:1 32373:1 32380:1 32390:1 32411:1 32417:1 32436:1 32455:1 32460:1 32466:1 32495:1 32506:1 32507:1 32512:1 32524:1 32528:1 32567:1 32579:1 32586:1 32591:1 32602:1 32611:1 32612:1 32623:1 32645:1 32646:1 32655:1 32656:1 32659:1 32687:1 32704:1 32709:1 32729:1 32740:1 32808:1 32809:1 32816:1 32841:1 32879:1 32887:1 32888:1 32925:1 32946:1 32947:1 32979:1 32998:1 33027:1 33033:1 33035:1 33039:1 33059:1 33060:1 33064:1 33087:1 33090:1 33107:1 33109:1 33118:1 33120:1 33132:1 33152:1 33155:1 33162:1 33171:1 33180:1 33189:1 33192:1 33252:1 33276:1 33301:1 33309:1 33347:1 33360:1 33370:1 33392:1 33405:1 33425:1 33443:1 33447:1 33448:1 33474:1 33550:1 33552:1 33569:1 33595:1 33608:1 33692:1 33702:1 33714:1 33719:1 33727:1 33743:1 33755:1 33786:1 33787:1 33789:1 33799:1 33815:1 33904:1 33916:1 33933:1 33939:1 33945:1 33946:1 33957:1 33966:1 33994:1 34006:1 34016:1 34031:1 34037:1 34040:1 34066:1 34072:1 34097:1 34100:1 34124:1 34131:1 34151:1 34172:1 34178:1 34183:1 34202:1 34204:1 34235:1 34289:1 34296:1 34347:1 34385:1 34400:1 34406:1 34407:1 34410:1 34438:1 34446:1 34472:1 34494:1 34508:1 34514:1 34523:1 34533:1 34541:1 34552:1 34594:1 34606:1 34610:1 34621:1 34654:1 34664:1 34675:1 34682:1 34687:1 34690:1 34710:1 34723:1 34727:1 34729:1 34740:1 34741:1 34769:1 34775:1 34782:1 34787:1 34807:1 34814:1 34815:1 34856:1 34867:1 34875:1 34895:1 34954:1 34955:1 34956:1 34967:1 35012:1 35026:1 35035:1 35049:1 35103:1 35107:1 35154:1 35236:1 35260:1 35273:1 35300:1 35307:1 35345:1 35347:1 35366:1 35369:1 35385:1 35388:1 35394:1 35418:1 35421:1 35449:1 35478:1 35484:1 35488:1 35492:1 35494:1 35497:1 35528:1 35539:1 35557:1 35578:1 35589:1 35600:1 35602:1 #
0.0014384889060462325346273493309468 374:1 375:1 420:1 780:1 849:1 940:1 985:1 1121:1 1170:1 1335:1 1893:1 1908:1 1966:1 2076:1 2169:1 2217:1 2263:1 2393:1 2706:1 2818:1 2829:1 2882:1 2902:1 2910:1 3081:1 3221:1 3583:1 3719:1 3828:1 3987:1 4019:1 4081:1 4254:1 4469:1 4785:1 5188:1 5203:1 5226:1 5341:1 5349:1 6008:1 6034:1 6220:1 6362:1 6511:1 6886:1 7127:1 7449:1 7513:1 7557:1 7867:1 7932:1 8167:1 8286:1 8439:1 8476:1 8750:1 8764:1 8774:1 9071:1 9112:1 9332:1 9532:1 9995:1 10037:1 10158:1 10231:1 10421:1 10767:1 10811:1 10997:1 11182:1 11472:1 11518:1 11641:1 11947:1 12088:1 12473:1 12522:1 12948:1 13030:1 13538:1 13693:1 13858:1 14093:1 28510:1 28529:1 28540:1 28554:1 28557:1 28578:1 28582:1 28584:1 28593:1 28622:1 28664:1 28665:1 28693:1 28713:1 28727:1 28731:1 28739:1 28765:1 28766:1 28769:1 28787:1 28795:1 28802:1 28819:1 28822:1 28824:1 28827:1 28833:1 28834:1 28850:1 28861:1 28904:1 28910:1 28911:1 28923:1 28969:1 28977:1 28983:1 28986:1 28987:1 28992:1 28996:1 29018:1 29019:1 29027:1 29041:1 29078:1 29086:1 29087:1 29093:1 29128:1 29132:1 29163:1 29169:1 29171:1 29179:1 29188:1 29198:1 29199:1 29200:1 29203:1 29223:1 29224:1 29260:1 29273:1 29292:1 29297:1 29314:1 29325:1 29326:1 29328:1 29337:1 29344:1 29347:1 29348:1 29349:1 29377:1 29378:1 29397:1 29420:1 29431:1 29435:1 29444:1 29468:1 29483:1 29487:1 29506:1 29508:1 29512:1 29544:1 29561:1 29585:1 29605:1 29607:1 29616:1 29628:1 29630:1 29631:1 29647:1 29681:1 29696:1 29699:1 29703:1 29705:1 29722:1 29730:1 29738:1 29744:1 29754:1 29762:1 29766:1 29767:1 29775:1 29812:1 29814:1 29896:1 29899:1 29902:1 29921:1 29922:1 29940:1 29946:1 29963:1 29966:1 29967:1 29986:1 29987:1 29994:1 30027:1 30033:1 30056:1 30070:1 30096:1 30113:1 30146:1 30160:1 30175:1 30233:1 30277:1 30282:1 30293:1 30299:1 30301:1 30306:1 30323:1 30325:1 30335:1 30349:1 30354:1 30368:1 30381:1 30382:1 30388:1 30442:1 30448:1 30449:1 30463:1 30476:1 30485:1 30499:1 30516:1 30539:1 30558:1 30566:1 30580:1 30589:1 30592:1 30642:1 30645:1 30647:1 30649:1 30675:1 30679:1 30691:1 30711:1 30712:1 30742:1 30754:1 30767:1 30793:1 30799:1 30803:1 30805:1 30816:1 30819:1 30825:1 30873:1 30885:1 30887:1 30920:1 30941:1 30947:1 30968:1 30975:1 30981:1 30989:1 30999:1 31036:1 31060:1 31080:1 31088:1 31108:1 31116:1 31125:1 31133:1 31136:1 31157:1 31207:1 31216:1 31222:1 31223:1 31247:1 31266:1 31309:1 31316:1 31331:1 31369:1 31397:1 31411:1 31424:1 31444:1 31454:1 31455:1 31456:1 31488:1 31505:1 31509:1 31519:1 31521:1 31537:1 31564:1 31583:1 31599:1 31623:1 31628:1 31632:1 31651:1 31655:1 31660:1 31697:1 31702:1 31705:1 31708:1 31714:1 31719:1 31752:1 31779:1 31784:1 31789:1 31798:1 31821:1 31863:1 31891:1 31897:1 31899:1 31906:1 31908:1 31971:1 31991:1 31998:1 32044:1 32049:1 32067:1 32072:1 32076:1 32107:1 32112:1 32132:1 32145:1 32165:1 32173:1 32196:1 32208:1 32211:1 32222:1 32226:1 32230:1 32236:1 32272:1 32282:1 32285:1 32313:1 32323:1 32339:1 32340:1 32343:1 32347:1 32349:1 32355:1 32373:1 32384:1 32385:1 32390:1 32423:1 32434:1 32436:1 32447:1 32460:1 32498:1 32507:1 32512:1 32524:1 32533:1 32538:1 32589:1 32591:1 32594:1 32595:1 32610:1 32612:1 32622:1 32646:1 32648:1 32655:1 32687:1 32704:1 32720:1 32722:1 32729:1 32730:1 32734:1 32737:1 32743:1 32765:1 32808:1 32825:1 32831:1 32832:1 32851:1 32864:1 32895:1 32908:1 32946:1 32956:1 32961:1 33002:1 33027:1 33035:1 33041:1 33059:1 33090:1 33123:1 33138:1 33149:1 33154:1 33155:1 33162:1 33167:1 33171:1 33183:1 33184:1 33189:1 33192:1 33235:1 33251:1 33252:1 33256:1 33324:1 33328:1 33335:1 33363:1 33451:1 33458:1 33462:1 33465:1 33497:1 33505:1 33515:1 33525:1 33534:1 33546:1 33550:1 33599:1 33608:1 33609:1 33623:1 33645:1 33654:1 33659:1 33665:1 33673:1 33692:1 33702:1 33719:1 33729:1 33755:1 33761:1 33766:1 33767:1 33789:1 33802:1 33815:1 33843:1 33867:1 33872:1 33884:1 33888:1 33906:1 33916:1 33930:1 33939:1 33945:1 33966:1 33972:1 33987:1 34021:1 34028:1 34031:1 34053:1 34066:1 34067:1 34071:1 34092:1 34097:1 34100:1 34107:1 34126:1 34140:1 34143:1 34151:1 34153:1 34167:1 34170:1 34184:1 34203:1 34235:1 34247:1 34274:1 34278:1 34288:1 34291:1 34296:1 34305:1 34309:1 34347:1 34355:1 34388:1 34406:1 34432:1 34434:1 34452:1 34494:1 34495:1 34508:1 34514:1 34522:1 34541:1 34544:1 34562:1 34576:1 34633:1 34634:1 34635:1 34639:1 34640:1 34650:1 34654:1 34661:1 34680:1 34687:1 34691:1 34701:1 34723:1 34727:1 34741:1 34746:1 34749:1 34787:1 34798:1 34833:1 34848:1 34854:1 34865:1 34870:1 34875:1 34881:1 34900:1 34905:1 34909:1 34951:1 34953:1 34955:1 34956:1 34957:1 34961:1 34969:1 35012:1 35016:1 35028:1 35031:1 35035:1 35060:1 35114:1 35116:1 35126:1 35142:1 35143:1 35145:1 35166:1 35175:1 35180:1 35229:1 35255:1 35273:1 35285:1 35291:1 35294:1 35312:1 35320:1 35321:1 35335:1 35345:1 35347:1 35366:1 35369:1 35388:1 35394:1 35395:1 35400:1 35449:1 35460:1 35462:1 35484:1 35496:1 35519:1 35529:1 35569:1 35600:1 35603:1 35605:1 35616:1 #
-0.0028594876890891103918268534300751 382:1 496:1 680:1 968:1 1035:1 1107:1 1504:1 1516:1 1554:1 1938:1 2378:1 2411:1 2587:1 2622:1 2799:1 3338:1 3442:1 3604:1 3629:1 3659:1 3667:1 3851:1 3896:1 4229:1 4294:1 4426:1 4760:1 4924:1 4927:1 4981:1 4983:1 5727:1 6350:1 6441:1 6821:1 6994:1 7117:1 7299:1 7344:1 7643:1 7706:1 8300:1 8413:1 8866:1 8906:1 8955:1 9209:1 9502:1 9745:1 10064:1 10143:1 10310:1 10334:1 10339:1 10350:1 10353:1 10560:1 10737:1 11459:1 11502:1 11711:1 11812:1 11928:1 12239:1 12357:1 12545:1 12835:1 12988:1 13271:1 13292:1 13715:1 13786:1 13789:1 13957:1 14153:1 14198:1 28529:1 28538:1 28540:1 28544:1 28574:1 28581:1 28582:1 28584:1 28590:1 28608:1 28613:1 28639:1 28647:1 28662:1 28691:1 28693:1 28713:1 28715:1 28727:1 28731:1 28734:1 28738:1 28739:1 28763:1 28765:1 28766:1 28778:1 28785:1 28787:1 28789:1 28795:1 28805:1 28819:1 28822:1 28824:1 28843:1 28850:1 28851:1 28877:1 28911:1 28923:1 28927:1 28928:1 28930:1 28947:1 28951:1 28968:1 28969:1 28977:1 28987:1 28989:1 28990:1 29027:1 29033:1 29034:1 29067:1 29089:1 29093:1 29098:1 29101:1 29110:1 29113:1 29133:1 29135:1 29136:1 29138:1 29143:1 29146:1 29179:1 29191:1 29195:1 29198:1 29200:1 29203:1 29223:1 29260:1 29261:1 29273:1 29292:1 29299:1 29314:1 29320:1 29325:1 29347:1 29348:1 29349:1 29369:1 29377:1 29378:1 29397:1 29403:1 29411:1 29413:1 29431:1 29441:1 29444:1 29455:1 29483:1 29487:1 29489:1 29512:1 29561:1 29571:1 29575:1 29605:1 29609:1 29612:1 29616:1 29619:1 29622:1 29629:1 29635:1 29668:1 29674:1 29676:1 29684:1 29697:1 29701:1 29730:1 29744:1 29746:1 29754:1 29762:1 29766:1 29783:1 29800:1 29853:1 29860:1 29866:1 29877:1 29899:1 29915:1 29923:1 29950:1 29962:1 29971:1 29986:1 29988:1 29994:1 30001:1 30012:1 30017:1 30038:1 30053:1 30058:1 30068:1 30124:1 30155:1 30165:1 30166:1 30170:1 30175:1 30200:1 30204:1 30210:1 30217:1 30226:1 30259:1 30261:1 30282:1 30329:1 30335:1 30354:1 30369:1 30378:1 30381:1 30382:1 30388:1 30400:1 30434:1 30442:1 30453:1 30455:1 30460:1 30463:1 30470:1 30485:1 30492:1 30511:1 30516:1 30517:1 30543:1 30544:1 30549:1 30557:1 30566:1 30568:1 30571:1 30580:1 30642:1 30645:1 30647:1 30673:1 30680:1 30711:1 30731:1 30767:1 30791:1 30793:1 30810:1 30819:1 30820:1 30822:1 30844:1 30846:1 30852:1 30860:1 30867:1 30869:1 30870:1 30887:1 30892:1 30897:1 30910:1 30938:1 30941:1 30967:1 30981:1 30999:1 31016:1 31040:1 31052:1 31055:1 31082:1 31133:1 31140:1 31144:1 31157:1 31170:1 31198:1 31215:1 31229:1 31247:1 31248:1 31255:1 31261:1 31263:1 31289:1 31310:1 31312:1 31318:1 31370:1 31397:1 31398:1 31431:1 31433:1 31444:1 31448:1 31450:1 31452:1 31456:1 31481:1 31482:1 31519:1 31536:1 31549:1 31588:1 31593:1 31599:1 31613:1 31619:1 31632:1 31641:1 31643:1 31656:1 31659:1 31665:1 31679:1 31690:1 31691:1 31693:1 31708:1 31711:1 31719:1 31725:1 31730:1 31736:1 31738:1 31742:1 31750:1 31772:1 31777:1 31782:1 31798:1 31806:1 31813:1 31814:1 31816:1 31822:1 31828:1 31849:1 31860:1 31887:1 31888:1 31897:1 31906:1 31908:1 31934:1 31939:1 31953:1 31958:1 31984:1 31991:1 32013:1 32020:1 32036:1 32046:1 32055:1 32057:1 32059:1 32067:1 32078:1 32097:1 32112:1 32114:1 32115:1 32143:1 32145:1 32147:1 32158:1 32160:1 32163:1 32182:1 32186:1 32188:1 32197:1 32205:1 32208:1 32226:1 32238:1 32246:1 32256:1 32257:1 32264:1 32272:1 32276:1 32288:1 32289:1 32297:1 32311:1 32313:1 32318:1 32339:1 32340:1 32341:1 32343:1 32347:1 32349:1 32358:1 32373:1 32385:1 32390:1 32394:1 32411:1 32412:1 32413:1 32415:1 32436:1 32460:1 32467:1 32482:1 32501:1 32506:1 32513:1 32514:1 32516:1 32527:1 32537:1 32549:1 32552:1 32567:1 32591:1 32630:1 32632:1 32645:1 32646:1 32648:1 32652:1 32655:1 32657:1 32659:1 32670:1 32676:1 32687:1 32713:1 32717:1 32728:1 32729:1 32740:1 32754:1 32759:1 32764:1 32809:1 32815:1 32825:1 32831:1 32841:1 32844:1 32854:1 32888:1 32902:1 32914:1 32934:1 32946:1 32949:1 32964:1 32987:1 33021:1 33027:1 33036:1 33039:1 33046:1 33057:1 33059:1 33060:1 33061:1 33063:1 33076:1 33077:1 33090:1 33118:1 33122:1 33123:1 33127:1 33135:1 33137:1 33152:1 33162:1 33185:1 33189:1 33196:1 33203:1 33232:1 33237:1 33252:1 33262:1 33266:1 33288:1 33300:1 33301:1 33324:1 33326:1 33331:1 33341:1 33347:1 33357:1 33378:1 33392:1 33436:1 33454:1 33460:1 33466:1 33468:1 33474:1 33490:1 33497:1 33505:1 33520:1 33546:1 33547:1 33550:1 33562:1 33582:1 33592:1 33608:1 33616:1 33627:1 33659:1 33666:1 33692:1 33709:1 33714:1 33715:1 33719:1 33733:1 33746:1 33747:1 33755:1 33761:1 33771:1 33786:1 33787:1 33789:1 33803:1 33811:1 33815:1 33824:1 33827:1 33837:1 33838:1 33851:1 33855:1 33861:1 33872:1 33916:1 33925:1 33932:1 33939:1 33945:1 33966:1 34006:1 34010:1 34012:1 34019:1 34021:1 34029:1 34031:1 34040:1 34050:1 34066:1 34081:1 34085:1 34086:1 34088:1 34097:1 34100:1 34106:1 34131:1 34134:1 34151:1 34154:1 34159:1 34218:1 34219:1 34235:1 34251:1 34280:1 34287:1 34289:1 34293:1 34294:1 34296:1 34302:1 34307:1 34310:1 34336:1 34339:1 34347:1 34352:1 34362:1 34402:1 34406:1 34407:1 34415:1 34428:1 34432:1 34446:1 34458:1 34464:1 34473:1 34483:1 34485:1 34495:1 34500:1 34508:1 34514:1 34523:1 34524:1 34543:1 34552:1 34583:1 34586:1 34594:1 34612:1 34616:1 34619:1 34621:1 34632:1 34635:1 34639:1 34654:1 34670:1 34687:1 34688:1 34723:1 34725:1 34727:1 34729:1 34741:1 34749:1 34761:1 34768:1 34772:1 34773:1 34787:1 34792:1 34816:1 34835:1 34858:1 34861:1 34875:1 34895:1 34897:1 34920:1 34956:1 34957:1 34996:1 35012:1 35028:1 35035:1 35046:1 35053:1 35054:1 35056:1 35065:1 35096:1 35103:1 35107:1 35164:1 35168:1 35183:1 35190:1 35208:1 35217:1 35239:1 35252:1 35256:1 35273:1 35277:1 35280:1 35285:1 35294:1 35300:1 35307:1 35315:1 35347:1 35351:1 35366:1 35369:1 35388:1 35394:1 35395:1 35429:1 35446:1 35459:1 35462:1 35467:1 35484:1 35521:1 35529:1 35539:1 35540:1 35562:1 35569:1 35575:1 35576:1 35582:1 35598:1 35606:1 #
-0.0019024699814377437397799885943073 855:1 1135:1 1196:1 1279:1 2096:1 2434:1 2572:1 2600:1 2634:1 3082:1 3294:1 3373:1 3530:1 3719:1 4056:1 4084:1 4400:1 4785:1 5047:1 6260:1 6297:1 7321:1 7793:1 7809:1 7910:1 7951:1 8755:1 8926:1 9007:1 9076:1 9375:1 9851:1 9936:1 10021:1 10547:1 10632:1 11254:1 11420:1 11483:1 12395:1 12710:1 12733:1 13100:1 13147:1 13701:1 13886:1 14236:1 28528:1 28560:1 28561:1 28568:1 28578:1 28584:1 28590:1 28593:1 28595:1 28613:1 28617:1 28619:1 28659:1 28665:1 28681:1 28693:1 28697:1 28713:1 28728:1 28734:1 28738:1 28747:1 28751:1 28765:1 28766:1 28768:1 28795:1 28819:1 28824:1 28826:1 28827:1 28843:1 28850:1 28851:1 28867:1 28888:1 28900:1 28911:1 28923:1 28924:1 28948:1 28968:1 28969:1 28972:1 28987:1 28990:1 28994:1 29018:1 29027:1 29033:1 29034:1 29035:1 29070:1 29073:1 29076:1 29078:1 29081:1 29093:1 29101:1 29116:1 29122:1 29123:1 29136:1 29138:1 29139:1 29150:1 29163:1 29169:1 29191:1 29193:1 29198:1 29203:1 29223:1 29232:1 29239:1 29259:1 29261:1 29270:1 29272:1 29286:1 29314:1 29325:1 29341:1 29344:1 29347:1 29348:1 29349:1 29358:1 29378:1 29394:1 29411:1 29414:1 29417:1 29419:1 29420:1 29425:1 29429:1 29431:1 29437:1 29443:1 29451:1 29455:1 29487:1 29501:1 29512:1 29530:1 29544:1 29561:1 29567:1 29581:1 29596:1 29600:1 29608:1 29609:1 29616:1 29624:1 29625:1 29626:1 29649:1 29652:1 29674:1 29684:1 29703:1 29730:1 29744:1 29754:1 29762:1 29766:1 29767:1 29771:1 29784:1 29785:1 29786:1 29792:1 29800:1 29815:1 29833:1 29864:1 29872:1 29878:1 29888:1 29899:1 29961:1 29966:1 29977:1 29986:1 30055:1 30056:1 30063:1 30075:1 30080:1 30090:1 30092:1 30119:1 30163:1 30166:1 30175:1 30184:1 30201:1 30204:1 30229:1 30238:1 30241:1 30253:1 30258:1 30277:1 30282:1 30299:1 30317:1 30318:1 30327:1 30331:1 30335:1 30345:1 30354:1 30376:1 30381:1 30385:1 30388:1 30415:1 30417:1 30425:1 30430:1 30439:1 30442:1 30455:1 30461:1 30463:1 30464:1 30485:1 30511:1 30514:1 30516:1 30545:1 30553:1 30580:1 30606:1 30609:1 30616:1 30630:1 30642:1 30647:1 30660:1 30691:1 30702:1 30712:1 30765:1 30767:1 30776:1 30778:1 30793:1 30798:1 30810:1 30812:1 30818:1 30819:1 30820:1 30824:1 30835:1 30841:1 30844:1 30846:1 30850:1 30860:1 30863:1 30867:1 30870:1 30883:1 30886:1 30887:1 30895:1 30939:1 30941:1 30972:1 30975:1 30979:1 30981:1 30999:1 31001:1 31003:1 31012:1 31018:1 31029:1 31047:1 31051:1 31068:1 31102:1 31107:1 31117:1 31133:1 31139:1 31157:1 31188:1 31215:1 31242:1 31243:1 31247:1 31255:1 31257:1 31263:1 31266:1 31295:1 31296:1 31312:1 31353:1 31369:1 31387:1 31392:1 31397:1 31423:1 31434:1 31448:1 31452:1 31454:1 31455:1 31456:1 31474:1 31481:1 31507:1 31519:1 31521:1 31531:1 31546:1 31551:1 31570:1 31599:1 31606:1 31613:1 31628:1 31665:1 31683:1 31690:1 31702:1 31708:1 31718:1 31719:1 31732:1 31745:1 31746:1 31750:1 31772:1 31790:1 31792:1 31798:1 31808:1 31815:1 31816:1 31822:1 31835:1 31845:1 31853:1 31881:1 31888:1 31893:1 31906:1 31908:1 31910:1 31918:1 31928:1 31958:1 31991:1 32012:1 32015:1 32055:1 32061:1 32084:1 32094:1 32097:1 32115:1 32117:1 32127:1 32130:1 32132:1 32143:1 32145:1 32147:1 32149:1 32161:1 32182:1 32208:1 32222:1 32223:1 32226:1 32248:1 32261:1 32272:1 32276:1 32281:1 32322:1 32339:1 32340:1 32342:1 32343:1 32347:1 32349:1 32373:1 32382:1 32386:1 32390:1 32395:1 32498:1 32504:1 32506:1 32507:1 32512:1 32513:1 32519:1 32542:1 32567:1 32568:1 32586:1 32590:1 32612:1 32615:1 32616:1 32622:1 32623:1 32630:1 32634:1 32638:1 32644:1 32645:1 32646:1 32648:1 32652:1 32658:1 32659:1 32662:1 32667:1 32687:1 32704:1 32729:1 32740:1 32743:1 32754:1 32759:1 32764:1 32783:1 32808:1 32812:1 32813:1 32879:1 32894:1 32898:1 32912:1 32939:1 32946:1 32949:1 32953:1 32957:1 32976:1 32989:1 32997:1 33006:1 33010:1 33027:1 33059:1 33076:1 33077:1 33087:1 33088:1 33090:1 33107:1 33122:1 33144:1 33145:1 33152:1 33155:1 33171:1 33189:1 33235:1 33239:1 33256:1 33258:1 33266:1 33271:1 33276:1 33288:1 33301:1 33316:1 33335:1 33347:1 33370:1 33388:1 33415:1 33426:1 33435:1 33438:1 33442:1 33466:1 33473:1 33474:1 33486:1 33497:1 33546:1 33550:1 33552:1 33589:1 33598:1 33600:1 33608:1 33611:1 33666:1 33680:1 33692:1 33704:1 33714:1 33719:1 33733:1 33755:1 33789:1 33815:1 33827:1 33851:1 33855:1 33858:1 33872:1 33899:1 33902:1 33916:1 33937:1 33939:1 33943:1 33951:1 33966:1 34002:1 34012:1 34031:1 34043:1 34051:1 34081:1 34088:1 34092:1 34095:1 34097:1 34108:1 34111:1 34124:1 34125:1 34143:1 34151:1 34157:1 34178:1 34180:1 34211:1 34223:1 34256:1 34268:1 34291:1 34294:1 34296:1 34306:1 34317:1 34326:1 34355:1 34360:1 34392:1 34400:1 34406:1 34416:1 34451:1 34458:1 34468:1 34472:1 34473:1 34485:1 34495:1 34499:1 34501:1 34508:1 34514:1 34523:1 34546:1 34552:1 34554:1 34564:1 34583:1 34586:1 34594:1 34595:1 34600:1 34621:1 34635:1 34639:1 34644:1 34654:1 34678:1 34687:1 34706:1 34723:1 34727:1 34729:1 34736:1 34741:1 34761:1 34773:1 34779:1 34787:1 34791:1 34798:1 34807:1 34809:1 34811:1 34815:1 34823:1 34830:1 34833:1 34858:1 34875:1 34905:1 34954:1 34955:1 34956:1 34962:1 34966:1 34971:1 34996:1 35012:1 35016:1 35021:1 35035:1 35038:1 35050:1 35075:1 35180:1 35183:1 35186:1 35188:1 35192:1 35208:1 35227:1 35253:1 35261:1 35273:1 35277:1 35298:1 35307:1 35312:1 35320:1 35333:1 35344:1 35347:1 35366:1 35367:1 35369:1 35374:1 35376:1 35378:1 35388:1 35394:1 35418:1 35449:1 35461:1 35476:1 35484:1 35496:1 35521:1 35529:1 35531:1 35539:1 35582:1 35593:1 35602:1 #
-0.0009720153011067480522053307900876 47:1 693:1 1008:1 1207:1 1826:1 2119:1 2284:1 2437:1 2457:1 2572:1 2656:1 2682:1 2687:1 2706:1 3431:1 3517:1 3546:1 3716:1 3884:1 3976:1 4212:1 4268:1 4348:1 4738:1 5184:1 5348:1 5386:1 5453:1 5483:1 5749:1 5850:1 5906:1 5986:1 6059:1 6262:1 6429:1 6444:1 6455:1 6483:1 6497:1 6633:1 6990:1 7299:1 7960:1 8009:1 8633:1 8764:1 9093:1 9181:1 9210:1 10173:1 10311:1 10589:1 10778:1 11514:1 12082:1 12357:1 12801:1 12865:1 13042:1 13192:1 13434:1 13625:1 13719:1 13790:1 14011:1 14129:1 28514:1 28529:1 28540:1 28584:1 28593:1 28633:1 28685:1 28713:1 28715:1 28734:1 28738:1 28765:1 28766:1 28777:1 28787:1 28795:1 28815:1 28819:1 28824:1 28827:1 28831:1 28844:1 28846:1 28850:1 28880:1 28910:1 28911:1 28923:1 28931:1 28943:1 28960:1 28969:1 28977:1 28983:1 28985:1 28987:1 28990:1 28996:1 29027:1 29067:1 29093:1 29110:1 29126:1 29138:1 29140:1 29147:1 29149:1 29156:1 29173:1 29179:1 29198:1 29223:1 29237:1 29259:1 29260:1 29261:1 29301:1 29306:1 29314:1 29325:1 29328:1 29334:1 29347:1 29348:1 29349:1 29377:1 29378:1 29403:1 29407:1 29426:1 29431:1 29435:1 29443:1 29487:1 29500:1 29504:1 29523:1 29561:1 29563:1 29609:1 29616:1 29635:1 29638:1 29643:1 29657:1 29692:1 29730:1 29744:1 29746:1 29754:1 29767:1 29785:1 29792:1 29795:1 29866:1 29878:1 29895:1 29899:1 29918:1 29947:1 29960:1 29966:1 29986:1 29987:1 29994:1 30012:1 30032:1 30040:1 30048:1 30056:1 30065:1 30083:1 30142:1 30175:1 30177:1 30178:1 30204:1 30205:1 30233:1 30282:1 30289:1 30306:1 30318:1 30324:1 30325:1 30335:1 30366:1 30367:1 30381:1 30388:1 30425:1 30426:1 30428:1 30442:1 30449:1 30463:1 30464:1 30485:1 30491:1 30516:1 30524:1 30553:1 30580:1 30640:1 30642:1 30645:1 30647:1 30672:1 30681:1 30695:1 30709:1 30713:1 30728:1 30734:1 30739:1 30746:1 30765:1 30772:1 30793:1 30799:1 30809:1 30818:1 30819:1 30835:1 30860:1 30866:1 30887:1 30895:1 30936:1 30941:1 30956:1 30968:1 30996:1 31028:1 31040:1 31053:1 31081:1 31091:1 31101:1 31102:1 31133:1 31142:1 31144:1 31151:1 31157:1 31178:1 31187:1 31212:1 31216:1 31220:1 31243:1 31247:1 31263:1 31278:1 31284:1 31290:1 31303:1 31310:1 31319:1 31343:1 31373:1 31413:1 31424:1 31426:1 31440:1 31444:1 31455:1 31479:1 31480:1 31482:1 31488:1 31489:1 31519:1 31521:1 31537:1 31554:1 31593:1 31602:1 31623:1 31628:1 31648:1 31660:1 31705:1 31714:1 31733:1 31736:1 31772:1 31789:1 31798:1 31807:1 31816:1 31824:1 31826:1 31831:1 31867:1 31868:1 31882:1 31891:1 31894:1 31900:1 31906:1 31915:1 31936:1 31958:1 31991:1 31998:1 32018:1 32055:1 32059:1 32061:1 32067:1 32093:1 32096:1 32099:1 32107:1 32112:1 32132:1 32143:1 32145:1 32160:1 32200:1 32211:1 32227:1 32272:1 32302:1 32339:1 32340:1 32343:1 32347:1 32348:1 32349:1 32350:1 32355:1 32372:1 32385:1 32390:1 32398:1 32412:1 32423:1 32436:1 32451:1 32452:1 32456:1 32459:1 32465:1 32487:1 32499:1 32506:1 32558:1 32581:1 32588:1 32591:1 32594:1 32608:1 32609:1 32612:1 32627:1 32630:1 32645:1 32646:1 32648:1 32659:1 32698:1 32701:1 32704:1 32717:1 32720:1 32729:1 32740:1 32743:1 32756:1 32770:1 32771:1 32791:1 32803:1 32808:1 32816:1 32822:1 32825:1 32828:1 32832:1 32843:1 32856:1 32879:1 32912:1 32934:1 32943:1 32946:1 32961:1 32987:1 32988:1 33002:1 33005:1 33011:1 33013:1 33027:1 33029:1 33035:1 33048:1 33059:1 33064:1 33086:1 33087:1 33090:1 33101:1 33132:1 33142:1 33152:1 33155:1 33162:1 33167:1 33189:1 33224:1 33231:1 33252:1 33256:1 33272:1 33274:1 33280:1 33301:1 33310:1 33335:1 33339:1 33344:1 33382:1 33388:1 33405:1 33456:1 33484:1 33521:1 33537:1 33601:1 33608:1 33615:1 33646:1 33672:1 33679:1 33692:1 33714:1 33719:1 33733:1 33755:1 33756:1 33771:1 33789:1 33800:1 33809:1 33813:1 33815:1 33828:1 33831:1 33834:1 33867:1 33901:1 33916:1 33917:1 33939:1 33945:1 33948:1 33951:1 33966:1 33985:1 34028:1 34029:1 34031:1 34047:1 34066:1 34081:1 34101:1 34137:1 34149:1 34151:1 34156:1 34158:1 34170:1 34173:1 34274:1 34294:1 34296:1 34302:1 34315:1 34323:1 34341:1 34416:1 34432:1 34438:1 34448:1 34473:1 34479:1 34495:1 34496:1 34499:1 34504:1 34514:1 34523:1 34529:1 34536:1 34552:1 34559:1 34619:1 34631:1 34632:1 34639:1 34654:1 34664:1 34687:1 34688:1 34723:1 34727:1 34728:1 34729:1 34761:1 34783:1 34787:1 34793:1 34803:1 34811:1 34823:1 34856:1 34858:1 34865:1 34874:1 34875:1 34905:1 34946:1 34956:1 34957:1 34969:1 34996:1 35011:1 35012:1 35016:1 35028:1 35031:1 35035:1 35049:1 35064:1 35180:1 35201:1 35208:1 35222:1 35234:1 35261:1 35263:1 35273:1 35285:1 35294:1 35300:1 35307:1 35315:1 35320:1 35333:1 35335:1 35347:1 35366:1 35369:1 35388:1 35394:1 35396:1 35432:1 35449:1 35465:1 35484:1 35496:1 35529:1 35539:1 35543:1 35569:1 35571:1 35582:1 35600:1 35605:1 #
-0.0011903697900403596710017239956869 1084:1 1380:1 1417:1 1513:1 1895:1 2075:1 2351:1 2621:1 2661:1 3033:1 3144:1 3149:1 3325:1 3805:1 3947:1 3975:1 4260:1 4290:1 4333:1 4424:1 5648:1 6121:1 6546:1 6638:1 6861:1 7038:1 7266:1 7431:1 7505:1 8157:1 9763:1 10310:1 11182:1 12089:1 12161:1 12219:1 12572:1 13094:1 13269:1 13301:1 28502:1 28519:1 28540:1 28578:1 28584:1 28585:1 28617:1 28622:1 28653:1 28655:1 28669:1 28684:1 28692:1 28699:1 28709:1 28713:1 28724:1 28734:1 28739:1 28765:1 28766:1 28768:1 28787:1 28794:1 28819:1 28824:1 28843:1 28844:1 28850:1 28856:1 28923:1 28945:1 28950:1 28977:1 28982:1 28983:1 28987:1 28990:1 29009:1 29020:1 29027:1 29041:1 29093:1 29101:1 29128:1 29132:1 29136:1 29138:1 29143:1 29163:1 29203:1 29223:1 29260:1 29267:1 29273:1 29303:1 29314:1 29325:1 29328:1 29334:1 29343:1 29346:1 29347:1 29348:1 29349:1 29369:1 29373:1 29378:1 29399:1 29414:1 29420:1 29426:1 29431:1 29480:1 29487:1 29504:1 29512:1 29515:1 29550:1 29561:1 29609:1 29616:1 29625:1 29629:1 29656:1 29662:1 29674:1 29685:1 29705:1 29727:1 29730:1 29744:1 29754:1 29762:1 29766:1 29767:1 29783:1 29853:1 29866:1 29878:1 29888:1 29899:1 29922:1 29929:1 29949:1 29950:1 29954:1 29994:1 29998:1 30012:1 30056:1 30065:1 30075:1 30080:1 30083:1 30090:1 30194:1 30197:1 30204:1 30215:1 30221:1 30223:1 30282:1 30284:1 30318:1 30329:1 30335:1 30354:1 30364:1 30365:1 30381:1 30382:1 30388:1 30416:1 30425:1 30434:1 30442:1 30461:1 30463:1 30464:1 30483:1 30485:1 30511:1 30516:1 30521:1 30580:1 30587:1 30614:1 30642:1 30644:1 30645:1 30647:1 30671:1 30687:1 30718:1 30758:1 30767:1 30776:1 30783:1 30791:1 30810:1 30819:1 30820:1 30835:1 30850:1 30885:1 30887:1 30888:1 30892:1 30917:1 30920:1 30941:1 30967:1 30968:1 30981:1 30999:1 31014:1 31018:1 31049:1 31054:1 31055:1 31091:1 31101:1 31133:1 31136:1 31144:1 31157:1 31160:1 31188:1 31201:1 31203:1 31212:1 31213:1 31247:1 31257:1 31263:1 31312:1 31353:1 31387:1 31389:1 31397:1 31402:1 31416:1 31419:1 31424:1 31440:1 31444:1 31452:1 31455:1 31456:1 31474:1 31519:1 31531:1 31537:1 31541:1 31593:1 31599:1 31609:1 31613:1 31616:1 31660:1 31683:1 31691:1 31694:1 31716:1 31745:1 31746:1 31750:1 31756:1 31764:1 31768:1 31798:1 31816:1 31823:1 31831:1 31835:1 31879:1 31891:1 31895:1 31896:1 31906:1 31908:1 31939:1 31958:1 31983:1 31991:1 32012:1 32013:1 32024:1 32036:1 32055:1 32059:1 32061:1 32067:1 32097:1 32107:1 32112:1 32125:1 32133:1 32145:1 32147:1 32163:1 32182:1 32204:1 32234:1 32272:1 32288:1 32311:1 32316:1 32330:1 32339:1 32340:1 32343:1 32347:1 32349:1 32356:1 32372:1 32373:1 32390:1 32447:1 32448:1 32479:1 32498:1 32506:1 32512:1 32513:1 32558:1 32566:1 32579:1 32591:1 32594:1 32612:1 32613:1 32623:1 32630:1 32634:1 32639:1 32646:1 32648:1 32655:1 32659:1 32664:1 32667:1 32671:1 32688:1 32699:1 32729:1 32736:1 32737:1 32740:1 32777:1 32796:1 32798:1 32808:1 32809:1 32831:1 32856:1 32946:1 32961:1 32998:1 33014:1 33027:1 33039:1 33047:1 33059:1 33066:1 33087:1 33118:1 33119:1 33123:1 33134:1 33162:1 33182:1 33189:1 33193:1 33196:1 33203:1 33209:1 33252:1 33257:1 33288:1 33317:1 33324:1 33335:1 33339:1 33347:1 33442:1 33456:1 33472:1 33483:1 33525:1 33534:1 33551:1 33598:1 33608:1 33626:1 33646:1 33658:1 33685:1 33692:1 33701:1 33708:1 33714:1 33719:1 33755:1 33760:1 33786:1 33789:1 33814:1 33815:1 33827:1 33836:1 33867:1 33887:1 33892:1 33910:1 33916:1 33933:1 33938:1 33939:1 33945:1 33966:1 33994:1 34000:1 34012:1 34029:1 34031:1 34034:1 34039:1 34058:1 34063:1 34066:1 34097:1 34125:1 34131:1 34151:1 34161:1 34177:1 34178:1 34212:1 34281:1 34284:1 34294:1 34296:1 34297:1 34338:1 34347:1 34369:1 34373:1 34400:1 34409:1 34416:1 34432:1 34459:1 34483:1 34491:1 34506:1 34508:1 34514:1 34523:1 34525:1 34533:1 34536:1 34568:1 34592:1 34609:1 34613:1 34620:1 34630:1 34634:1 34639:1 34650:1 34654:1 34664:1 34678:1 34687:1 34694:1 34723:1 34727:1 34729:1 34738:1 34741:1 34782:1 34787:1 34807:1 34812:1 34815:1 34823:1 34849:1 34861:1 34877:1 34895:1 34899:1 34905:1 34909:1 34912:1 34946:1 34955:1 34956:1 34957:1 34996:1 35012:1 35015:1 35016:1 35035:1 35063:1 35072:1 35110:1 35155:1 35173:1 35192:1 35272:1 35273:1 35281:1 35292:1 35294:1 35320:1 35329:1 35347:1 35368:1 35369:1 35374:1 35379:1 35388:1 35394:1 35395:1 35449:1 35462:1 35484:1 35485:1 35496:1 35510:1 35528:1 35529:1 35539:1 35540:1 35557:1 35562:1 35569:1 35574:1 35582:1 35591:1 35600:1 35602:1 35609:1 #
0.0011648845489402098393738604897862 397:1 417:1 1175:1 1583:1 3217:1 3242:1 3372:1 3419:1 4407:1 5042:1 5190:1 6016:1 8112:1 9426:1 9869:1 11285:1 11702:1 11705:1 12376:1 28540:1 28565:1 28613:1 28713:1 28734:1 28737:1 28747:1 28765:1 28766:1 28768:1 28773:1 28824:1 28850:1 28886:1 28898:1 28987:1 28990:1 28994:1 29019:1 29027:1 29078:1 29093:1 29121:1 29128:1 29138:1 29162:1 29270:1 29288:1 29314:1 29325:1 29347:1 29348:1 29349:1 29378:1 29397:1 29420:1 29487:1 29503:1 29504:1 29512:1 29561:1 29609:1 29616:1 29681:1 29697:1 29701:1 29744:1 29752:1 29754:1 29755:1 29761:1 29852:1 29893:1 29899:1 29958:1 29961:1 30012:1 30156:1 30301:1 30309:1 30335:1 30354:1 30381:1 30388:1 30413:1 30440:1 30449:1 30463:1 30464:1 30472:1 30485:1 30504:1 30516:1 30580:1 30642:1 30647:1 30767:1 30819:1 30835:1 30850:1 30862:1 30887:1 30999:1 31040:1 31053:1 31092:1 31119:1 31153:1 31247:1 31248:1 31318:1 31397:1 31414:1 31425:1 31426:1 31450:1 31453:1 31455:1 31456:1 31564:1 31585:1 31609:1 31628:1 31639:1 31655:1 31660:1 31665:1 31674:1 31725:1 31784:1 31798:1 31844:1 31899:1 31906:1 31908:1 32004:1 32028:1 32039:1 32061:1 32143:1 32145:1 32147:1 32230:1 32285:1 32305:1 32311:1 32339:1 32340:1 32343:1 32347:1 32373:1 32408:1 32413:1 32434:1 32447:1 32467:1 32489:1 32498:1 32501:1 32586:1 32632:1 32648:1 32655:1 32667:1 32687:1 32728:1 32736:1 32740:1 32748:1 32880:1 32903:1 32946:1 32958:1 33005:1 33027:1 33036:1 33039:1 33087:1 33189:1 33202:1 33256:1 33258:1 33339:1 33357:1 33433:1 33443:1 33608:1 33659:1 33692:1 33719:1 33726:1 33732:1 33746:1 33755:1 33789:1 33812:1 33815:1 33872:1 34017:1 34031:1 34066:1 34068:1 34081:1 34108:1 34178:1 34294:1 34296:1 34302:1 34401:1 34438:1 34471:1 34514:1 34523:1 34613:1 34630:1 34723:1 34727:1 34729:1 34741:1 34776:1 34784:1 34793:1 34870:1 34910:1 34946:1 34950:1 34955:1 34956:1 35012:1 35026:1 35035:1 35049:1 35068:1 35086:1 35107:1 35114:1 35120:1 35241:1 35245:1 35273:1 35317:1 35335:1 35347:1 35363:1 35385:1 35388:1 35394:1 35484:1 35485:1 35492:1 35539:1 35569:1 35570:1 35594:1 #
0.0032474064365311181012963004377525 1617:1 2110:1 3648:1 4197:1 4975:1 10862:1 11677:1 12135:1 28690:1 28765:1 28787:1 28789:1 28987:1 29098:1 29261:1 29325:1 29349:1 29360:1 29400:1 29520:1 29616:1 29642:1 29755:1 29766:1 29899:1 30112:1 30194:1 30386:1 30461:1 30552:1 30580:1 30778:1 30850:1 30886:1 30887:1 30957:1 31157:1 31247:1 31263:1 31293:1 31452:1 31671:1 32055:1 32059:1 32061:1 32124:1 32145:1 32155:1 32311:1 32339:1 32340:1 32343:1 32704:1 32940:1 33039:1 33143:1 33572:1 33755:1 33798:1 34081:1 34154:1 34514:1 34523:1 34528:1 34727:1 34729:1 34787:1 34956:1 35012:1 35273:1 35320:1 35355:1 35362:1 35366:1 35428:1 35573:1 35578:1 35600:1 #
0.0032474064365311181012963004377525 1805:1 2464:1 3024:1 3883:1 5827:1 6383:1 7985:1 8141:1 8445:1 8714:1 9171:1 13040:1 13314:1 14146:1 28765:1 28846:1 28850:1 28912:1 28956:1 29183:1 29314:1 29325:1 29347:1 29348:1 29378:1 29436:1 29460:1 29487:1 29512:1 29616:1 29625:1 29629:1 29730:1 29766:1 29899:1 30002:1 30073:1 30075:1 30090:1 30103:1 30204:1 30213:1 30333:1 30425:1 30442:1 30474:1 30579:1 30580:1 30756:1 30793:1 30819:1 30824:1 30885:1 30887:1 30990:1 31080:1 31148:1 31190:1 31247:1 31369:1 31414:1 31488:1 31491:1 31542:1 31628:1 31798:1 31806:1 31844:1 31991:1 32059:1 32145:1 32188:1 32339:1 32340:1 32343:1 32373:1 32497:1 32687:1 32946:1 33027:1 33176:1 33370:1 33594:1 33669:1 33719:1 33789:1 33815:1 33947:1 33948:1 34012:1 34031:1 34296:1 34339:1 34355:1 34383:1 34514:1 34579:1 34639:1 34654:1 34727:1 34808:1 34858:1 35012:1 35016:1 35504:1 #
0.0032474064365311181012963004377525 68:1 1474:1 4085:1 4132:1 5625:1 6064:1 6367:1 8951:1 9617:1 10183:1 10978:1 11407:1 12800:1 12821:1 13042:1 28499:1 28505:1 28527:1 28765:1 28861:1 28987:1 29027:1 29032:1 29078:1 29108:1 29148:1 29203:1 29259:1 29273:1 29303:1 29325:1 29348:1 29349:1 29378:1 29415:1 29420:1 29431:1 29468:1 29491:1 29561:1 29660:1 29689:1 29800:1 29866:1 30177:1 30292:1 30342:1 30370:1 30376:1 30378:1 30434:1 30516:1 30552:1 30580:1 30626:1 30682:1 30744:1 30788:1 30810:1 30819:1 30824:1 30923:1 30924:1 31043:1 31083:1 31133:1 31157:1 31220:1 31247:1 31455:1 31458:1 31466:1 31519:1 31647:1 31690:1 31768:1 31798:1 31818:1 31851:1 31908:1 31958:1 32015:1 32059:1 32067:1 32092:1 32145:1 32339:1 32343:1 32517:1 32519:1 32544:1 32655:1 32737:1 32740:1 32794:1 32843:1 32917:1 33037:1 33056:1 33059:1 33339:1 33383:1 33390:1 33462:1 33537:1 33562:1 33659:1 33692:1 33719:1 33725:1 33762:1 33815:1 33957:1 33966:1 34031:1 34067:1 34108:1 34173:1 34213:1 34392:1 34501:1 34514:1 34524:1 34610:1 34639:1 34727:1 34790:1 34798:1 34884:1 34890:1 34906:1 34920:1 34953:1 34956:1 35012:1 35028:1 35035:1 35090:1 35217:1 35292:1 35300:1 35528:1 #
0.0032474064365311181012963004377525 4160:1 4651:1 6121:1 6717:1 28540:1 28542:1 28713:1 28734:1 28765:1 28768:1 28844:1 28850:1 28873:1 28923:1 28987:1 28990:1 29001:1 29027:1 29093:1 29132:1 29325:1 29347:1 29348:1 29378:1 29431:1 29501:1 29561:1 29705:1 29796:1 29896:1 29899:1 30076:1 30103:1 30354:1 30378:1 30404:1 30511:1 30580:1 30819:1 30860:1 30887:1 30999:1 31247:1 31318:1 31418:1 31455:1 31519:1 31559:1 31623:1 31798:1 31906:1 31912:1 32053:1 32099:1 32145:1 32226:1 32339:1 32340:1 32343:1 32347:1 32538:1 32644:1 32946:1 33132:1 33250:1 33311:1 33459:1 33680:1 33719:1 33972:1 34010:1 34012:1 34066:1 34353:1 34432:1 34514:1 34567:1 34727:1 34875:1 34957:1 35012:1 35026:1 35035:1 35063:1 35102:1 35394:1 35510:1 35528:1 35578:1 #
0.0032474064365311181012963004377525 1826:1 5906:1 7619:1 9039:1 9726:1 11252:1 13919:1 28584:1 28713:1 28734:1 28765:1 28768:1 28769:1 28798:1 28824:1 28850:1 28987:1 29055:1 29093:1 29183:1 29198:1 29211:1 29314:1 29325:1 29348:1 29378:1 29431:1 29444:1 29506:1 29585:1 29625:1 29814:1 29891:1 29899:1 30194:1 30217:1 30324:1 30350:1 30354:1 30445:1 30463:1 30516:1 30580:1 30589:1 30810:1 30887:1 30999:1 31040:1 31053:1 31198:1 31201:1 31230:1 31247:1 31316:1 31397:1 31413:1 31424:1 31450:1 31479:1 31558:1 31665:1 31725:1 31746:1 31799:1 31816:1 31972:1 32018:1 32028:1 32143:1 32145:1 32339:1 32343:1 32373:1 32498:1 32573:1 32687:1 32751:1 33005:1 33143:1 33363:1 33572:1 33789:1 34012:1 34097:1 34223:1 34308:1 34438:1 34477:1 34514:1 34609:1 34681:1 34723:1 34727:1 34807:1 34938:1 34955:1 35012:1 35146:1 35372:1 35394:1 35452:1 35494:1 35576:1 35600:1 #
-0.0032474064365311181012963004377525 8251:1 28540:1 28717:1 28726:1 28734:1 28765:1 29203:1 29235:1 29255:1 29325:1 29348:1 29349:1 29378:1 29431:1 29585:1 29705:1 29744:1 29766:1 29783:1 29896:1 29899:1 29938:1 30075:1 30233:1 30318:1 30335:1 30382:1 30388:1 30410:1 30580:1 30647:1 30810:1 30975:1 31247:1 31448:1 31599:1 31655:1 31772:1 31798:1 31901:1 31906:1 32089:1 32096:1 32143:1 32145:1 32237:1 32340:1 32343:1 32469:1 32472:1 32520:1 32704:1 32740:1 32798:1 32946:1 32974:1 33039:1 33102:1 33120:1 33143:1 33165:1 33389:1 33468:1 33608:1 33719:1 33789:1 33815:1 33818:1 33827:1 34066:1 34131:1 34151:1 34173:1 34308:1 34495:1 34504:1 34514:1 34635:1 34654:1 34680:1 34727:1 34741:1 34957:1 35012:1 35035:1 35281:1 35347:1 35369:1 35569:1 35573:1 35600:1 #
-0.0032474064365311181012963004377525 748:1 2766:1 5431:1 7210:1 8079:1 28504:1 28765:1 28824:1 28896:1 28987:1 29191:1 29325:1 29328:1 29348:1 29377:1 29420:1 29483:1 29784:1 29932:1 29986:1 30323:1 30388:1 30580:1 30799:1 30823:1 30878:1 30941:1 31023:1 31133:1 31247:1 31463:1 31687:1 31718:1 31728:1 31787:1 31798:1 31908:1 32050:1 32145:1 32311:1 32339:1 32340:1 32347:1 32349:1 32373:1 32396:1 32599:1 32703:1 32729:1 32871:1 33445:1 33466:1 33712:1 33719:1 33789:1 33815:1 33916:1 34178:1 34281:1 34302:1 34514:1 34554:1 34594:1 34635:1 34723:1 34727:1 34787:1 34835:1 34952:1 34955:1 35035:1 35142:1 35273:1 35311:1 35462:1 #
