SVM-light Version V6.02
0 # kernel type
3 # kernel parameter -d 
1 # kernel parameter -g 
1 # kernel parameter -s 
1 # kernel parameter -r 
empty# kernel parameter -u 
76741 # highest feature index 
1800 # number of training documents 
1364 # number of support vectors plus 1 
-0.1106661 # threshold b, each following line is a SV (starting with alpha*y)
-0.0032474064365311181012963004377525 28538:1 28574:1 28597:1 28631:1 28811:1 28957:1 29065:1 29108:1 29273:1 29407:1 29504:1 29518:1 29802:1 29839:1 29904:1 30080:1 30303:1 30446:1 30584:1 30778:1 30884:1 30894:1 31198:1 31224:1 31347:1 31497:1 31606:1 31844:1 31886:1 32025:1 32147:1 32278:1 32333:1 32356:1 32358:1 32443:1 32769:1 32880:1 32881:1 33106:1 33130:1 33147:1 33256:1 33397:1 33405:1 33437:1 33658:1 33842:1 33985:1 34075:1 34126:1 34133:1 34407:1 34438:1 34464:1 34925:1 34972:1 35405:1 35691:1 35738:1 35886:1 35898:1 35960:1 36182:1 36444:1 36494:1 36610:1 36629:1 36761:1 36841:1 36934:1 36977:1 37043:1 37254:1 37301:1 37473:1 37892:1 38022:1 38023:1 38394:1 38495:1 38624:1 38748:1 38863:1 38988:1 39022:1 39026:1 39218:1 39693:1 39748:1 39812:1 39941:1 40116:1 40181:1 40299:1 40550:1 40610:1 40701:1 40821:1 40825:1 40832:1 41263:1 41618:1 41673:1 41675:1 41776:1 41781:1 41865:1 41937:1 41968:1 42047:1 42148:1 42220:1 42351:1 42402:1 42437:1 42707:1 42900:1 43197:1 43383:1 43392:1 43400:1 43491:1 43559:1 43571:1 43738:1 43796:1 43890:1 44024:1 44355:1 44627:1 44721:1 44958:1 44959:1 44964:1 45100:1 45165:1 45485:1 45957:1 46153:1 46197:1 46389:1 46743:1 46753:1 46754:1 46962:1 46983:1 47160:1 47254:1 47544:1 47588:1 47610:1 47619:1 47718:1 47888:1 47946:1 48032:1 48251:1 48259:1 48388:1 48416:1 48543:1 48552:1 48597:1 49127:1 49170:1 49186:1 49263:1 49285:1 49312:1 49354:1 49365:1 49380:1 49404:1 49426:1 49485:1 49532:1 49558:1 49564:1 49678:1 49725:1 49907:1 49949:1 50085:1 50527:1 50548:1 50655:1 50659:1 50661:1 50670:1 51579:1 51990:1 52101:1 52544:1 52742:1 53004:1 53127:1 53148:1 53257:1 53593:1 53613:1 53717:1 53986:1 54183:1 54255:1 54401:1 54402:1 54846:1 55532:1 55646:1 55892:1 55900:1 56221:1 56388:1 57214:1 57467:1 57554:1 57702:1 57807:1 57954:1 57980:1 58056:1 58360:1 58540:1 58601:1 58634:1 58653:1 58711:1 58740:1 58820:1 59241:1 59266:1 59810:1 59853:1 59882:1 59901:1 60038:1 60073:1 60113:1 60193:1 60826:1 60854:1 61108:1 61120:1 61125:1 61167:1 61513:1 61633:1 61814:1 62030:1 62282:1 62523:1 62580:1 62811:1 63508:1 63900:1 64380:1 64424:1 64587:1 64703:1 64755:1 64776:1 64790:1 64850:1 64882:1 65123:1 65176:1 65234:1 65385:1 65410:1 65455:1 65483:1 65764:1 65974:1 66017:1 66053:1 66112:1 66304:1 66378:1 66419:1 66578:1 66643:1 66850:1 67098:1 67164:1 67256:1 67291:1 67506:1 67642:1 68116:1 68129:1 68303:1 68502:1 68577:1 68625:1 68729:1 68841:1 68850:1 68893:1 69125:1 69193:1 69399:1 69450:1 69846:1 70017:1 70028:1 70111:1 70222:1 70490:1 70534:1 70688:1 70762:1 70810:1 70866:1 71165:1 71195:1 71220:1 71299:1 71301:1 71486:1 71622:1 71834:1 72076:1 72254:1 72349:1 72448:1 72648:1 72712:1 72913:1 73767:1 73769:1 74146:1 74853:1 75329:1 75784:1 75877:1 75897:1 75907:1 76161:1 76202:1 76573:1 #
-0.0032474064365311181012963004377525 28685:1 28851:1 28957:1 28959:1 29065:1 29128:1 29904:1 30080:1 30318:1 30584:1 30869:1 31693:1 31723:1 32002:1 32133:1 32330:1 32333:1 32443:1 32769:1 33059:1 33256:1 33343:1 33832:1 34071:1 34238:1 34245:1 34355:1 34469:1 35405:1 36738:1 36934:1 36977:1 37043:1 37892:1 38224:1 38624:1 38987:1 38988:1 39191:1 39693:1 39818:1 40116:1 40290:1 40550:1 40821:1 40832:1 40884:1 41806:1 42064:1 42446:1 42546:1 43197:1 43400:1 43559:1 43571:1 43738:1 43944:1 44407:1 44465:1 44516:1 44721:1 45015:1 45100:1 45190:1 45360:1 45410:1 45620:1 46695:1 46753:1 46754:1 46768:1 47134:1 47533:1 48251:1 48388:1 48416:1 49175:1 49485:1 49532:1 49907:1 49949:1 50275:1 50410:1 50580:1 50655:1 50661:1 50840:1 51587:1 52579:1 53127:1 53318:1 53533:1 53613:1 53717:1 54121:1 55646:1 55895:1 57369:1 57807:1 57980:1 58104:1 59222:1 59241:1 59338:1 59877:1 62811:1 62995:1 63023:1 64031:1 64246:1 64380:1 64607:1 64638:1 64790:1 65082:1 65253:1 65385:1 65483:1 65742:1 66112:1 66304:1 66419:1 66534:1 66623:1 68502:1 68577:1 68729:1 68841:1 68893:1 69563:1 69645:1 69682:1 70017:1 70688:1 71165:1 71309:1 71599:1 71622:1 71698:1 71990:1 72254:1 72294:1 72648:1 73292:1 73623:1 73769:1 74221:1 74587:1 75616:1 76573:1 #
0.00014752531712469723777433894262856 28574:1 28615:1 28649:1 28957:1 29056:1 29065:1 29204:1 29407:1 29427:1 29493:1 29504:1 29550:1 29696:1 29719:1 29904:1 30242:1 30359:1 30468:1 30584:1 30599:1 30831:1 30852:1 30888:1 30890:1 30954:1 31497:1 31731:1 31857:1 32244:1 32278:1 32333:1 32443:1 32664:1 32687:1 32938:1 33082:1 33103:1 33208:1 33607:1 33742:1 33816:1 34059:1 34207:1 34388:1 34431:1 34464:1 34701:1 34740:1 34845:1 35207:1 35319:1 35340:1 35405:1 35443:1 35481:1 35498:1 35806:1 35915:1 36079:1 36368:1 36853:1 36997:1 37569:1 37632:1 37892:1 37935:1 37948:1 38455:1 38506:1 38582:1 38624:1 38687:1 38767:1 38987:1 39077:1 39119:1 39145:1 39352:1 39377:1 39450:1 39693:1 39748:1 39812:1 39818:1 40078:1 40181:1 40184:1 40431:1 40550:1 40568:1 40609:1 40754:1 40832:1 40966:1 40986:1 41306:1 41574:1 41618:1 41673:1 41675:1 41678:1 41759:1 41861:1 41865:1 42110:1 42146:1 42271:1 42351:1 42515:1 42583:1 42593:1 42900:1 42907:1 43197:1 43392:1 43400:1 43491:1 43571:1 43716:1 43723:1 43738:1 43834:1 43916:1 43950:1 43994:1 44094:1 44121:1 44224:1 44407:1 44585:1 44680:1 44721:1 45073:1 45177:1 45257:1 45269:1 45541:1 45545:1 45926:1 45939:1 46078:1 46197:1 46315:1 46700:1 46753:1 46754:1 47161:1 47255:1 47544:1 47736:1 47764:1 47827:1 47946:1 47948:1 48048:1 48355:1 48416:1 48507:1 48755:1 48772:1 49086:1 49154:1 49170:1 49179:1 49453:1 49725:1 49852:1 49949:1 50241:1 50396:1 50635:1 50655:1 50661:1 50787:1 50845:1 51255:1 52101:1 52687:1 52753:1 52837:1 52858:1 53083:1 53110:1 53127:1 53406:1 53609:1 53613:1 53717:1 53924:1 54058:1 54121:1 54268:1 54401:1 54492:1 54846:1 55223:1 55467:1 55646:1 55812:1 55895:1 56221:1 56388:1 56401:1 56433:1 56440:1 56507:1 56619:1 56825:1 56854:1 57369:1 57980:1 58022:1 58056:1 58087:1 58196:1 58310:1 58740:1 58839:1 58980:1 59108:1 59124:1 59127:1 59247:1 59270:1 59650:1 59657:1 59810:1 59880:1 60087:1 60301:1 60625:1 61323:1 61425:1 61522:1 61936:1 62065:1 62190:1 62296:1 62303:1 62811:1 63226:1 63526:1 63845:1 63861:1 63900:1 64097:1 64380:1 64669:1 64790:1 64850:1 64855:1 65123:1 65234:1 65514:1 65816:1 66053:1 66304:1 66372:1 66378:1 66416:1 66985:1 66993:1 67050:1 67247:1 67291:1 67605:1 68354:1 68465:1 68502:1 68577:1 68729:1 68893:1 69005:1 69025:1 69099:1 69113:1 69307:1 69389:1 69498:1 69742:1 69846:1 70017:1 70073:1 70534:1 70576:1 70688:1 70689:1 70810:1 70866:1 71071:1 71104:1 71165:1 71299:1 71486:1 71622:1 71849:1 71952:1 72051:1 72235:1 72254:1 72308:1 72349:1 72565:1 72669:1 72672:1 73018:1 73452:1 74146:1 74254:1 74745:1 74777:1 74852:1 74985:1 75257:1 75295:1 75787:1 75877:1 75897:1 76573:1 #
-0.0026865086556053362903950798568076 28538:1 28807:1 28892:1 28957:1 28959:1 29056:1 29065:1 29100:1 29504:1 29796:1 29871:1 29875:1 29904:1 30102:1 30408:1 30622:1 30851:1 30866:1 30930:1 31416:1 31606:1 31967:1 32146:1 32154:1 32385:1 32418:1 32436:1 32443:1 32709:1 32824:1 33300:1 33607:1 34084:1 34129:1 35058:1 35210:1 35244:1 35282:1 35348:1 35424:1 35450:1 35482:1 35503:1 35508:1 35523:1 35781:1 35846:1 35903:1 35915:1 36226:1 36540:1 36544:1 36934:1 36977:1 37043:1 37257:1 37430:1 37532:1 37732:1 37892:1 38013:1 38036:1 38301:1 38384:1 38455:1 38460:1 38987:1 38988:1 39026:1 39353:1 39493:1 39812:1 39919:1 40281:1 40297:1 40321:1 40550:1 40619:1 40640:1 40654:1 40668:1 40832:1 40834:1 41469:1 41618:1 41619:1 41673:1 41675:1 41678:1 41844:1 41937:1 42054:1 42148:1 42275:1 42351:1 42437:1 42631:1 42827:1 43010:1 43049:1 43197:1 43393:1 43400:1 43411:1 43559:1 43681:1 43716:1 43738:1 43890:1 43918:1 44610:1 44721:1 44858:1 44936:1 45043:1 45100:1 45351:1 45431:1 45579:1 45688:1 45818:1 45926:1 46132:1 46677:1 46753:1 46754:1 46768:1 46887:1 46947:1 47023:1 47144:1 47512:1 47544:1 47901:1 47915:1 47957:1 48416:1 48446:1 48533:1 48853:1 49170:1 49303:1 49380:1 49404:1 49818:1 49920:1 49949:1 50595:1 50655:1 50661:1 50787:1 50983:1 51226:1 51587:1 51624:1 51889:1 52053:1 52166:1 52521:1 52544:1 53040:1 53127:1 53513:1 53533:1 53613:1 53717:1 54401:1 54479:1 54486:1 54495:1 54633:1 54748:1 54848:1 55304:1 55532:1 55610:1 55646:1 55892:1 55895:1 56080:1 56113:1 56313:1 56388:1 56898:1 56901:1 56982:1 57582:1 57595:1 57807:1 57892:1 58056:1 58148:1 58360:1 58569:1 58735:1 58974:1 59222:1 59373:1 59781:1 59883:1 60021:1 60157:1 60301:1 60649:1 61104:1 61513:1 61576:1 61720:1 62282:1 62550:1 62668:1 63127:1 63845:1 63900:1 63953:1 64097:1 64296:1 64352:1 64380:1 64540:1 64632:1 64790:1 64855:1 65005:1 65082:1 65123:1 65426:1 65516:1 65788:1 65795:1 65842:1 66053:1 66485:1 66794:1 67404:1 67445:1 67577:1 67642:1 67856:1 68129:1 68502:1 68577:1 68729:1 68893:1 69226:1 69389:1 69825:1 70017:1 70249:1 70534:1 70688:1 71165:1 71619:1 71717:1 71734:1 72051:1 72254:1 72448:1 72576:1 72648:1 72913:1 72981:1 73077:1 73224:1 73526:1 74136:1 74146:1 74330:1 75257:1 75877:1 76605:1 76645:1 #
-0.0030850802635398631365570842888246 28700:1 28826:1 28957:1 28959:1 29056:1 29065:1 29073:1 29426:1 29504:1 29773:1 29904:1 29935:1 29988:1 30020:1 30080:1 30082:1 30303:1 30492:1 30599:1 30897:1 31006:1 31051:1 31255:1 31337:1 31497:1 31560:1 31693:1 32178:1 32305:1 32333:1 32356:1 32443:1 32771:1 33186:1 33230:1 33287:1 33293:1 33407:1 33607:1 33783:1 33816:1 33832:1 33956:1 34150:1 34207:1 34238:1 34338:1 34407:1 34464:1 34582:1 34600:1 34845:1 35089:1 35319:1 35385:1 35450:1 35453:1 35523:1 35874:1 36455:1 36792:1 36872:1 36883:1 36934:1 36977:1 37043:1 37055:1 37632:1 37673:1 37824:1 37877:1 37892:1 38287:1 38434:1 38460:1 38853:1 38863:1 38987:1 38988:1 39063:1 39255:1 39422:1 39463:1 39693:1 39812:1 39892:1 40175:1 40184:1 40267:1 40550:1 40565:1 40748:1 40821:1 40832:1 40924:1 41041:1 41588:1 41605:1 41618:1 41652:1 41673:1 41675:1 41678:1 41863:1 41937:1 42001:1 42047:1 42148:1 42184:1 42231:1 42351:1 42357:1 42452:1 42707:1 42826:1 42996:1 43061:1 43197:1 43389:1 43392:1 43393:1 43528:1 43559:1 43571:1 43738:1 43805:1 43916:1 43918:1 43944:1 44004:1 44180:1 44208:1 44487:1 44569:1 44768:1 44772:1 44851:1 45152:1 45165:1 45215:1 45459:1 45466:1 45545:1 45843:1 45874:1 45926:1 46170:1 46197:1 46229:1 46315:1 46360:1 46687:1 46733:1 46753:1 46754:1 46768:1 46858:1 47007:1 47254:1 47610:1 47776:1 47888:1 48251:1 48384:1 48393:1 48416:1 49170:1 49531:1 49725:1 49767:1 49949:1 50241:1 50329:1 50332:1 50366:1 50435:1 50542:1 50655:1 50661:1 50670:1 50869:1 51121:1 51255:1 51505:1 51799:1 51937:1 52166:1 52274:1 52321:1 52488:1 52742:1 52841:1 52863:1 52921:1 52964:1 53127:1 53406:1 53533:1 53613:1 53625:1 53717:1 53924:1 53986:1 54459:1 54846:1 54854:1 55317:1 55386:1 55532:1 55608:1 55646:1 55655:1 55688:1 55892:1 55895:1 55926:1 55959:1 56105:1 56109:1 56313:1 56388:1 56401:1 56433:1 56511:1 56825:1 56982:1 57460:1 57502:1 57807:1 57831:1 57853:1 58056:1 58085:1 58421:1 58629:1 58839:1 58959:1 59068:1 59108:1 59124:1 59213:1 59546:1 59609:1 59810:1 60038:1 60625:1 61125:1 61198:1 61513:1 61522:1 61576:1 61587:1 61716:1 61793:1 61975:1 62207:1 62263:1 62291:1 62452:1 62580:1 62590:1 62811:1 62859:1 63608:1 63727:1 63845:1 63900:1 63954:1 64380:1 64431:1 64587:1 64776:1 64790:1 64841:1 64852:1 64982:1 65082:1 65123:1 65176:1 65253:1 65514:1 66018:1 66112:1 66139:1 66304:1 66578:1 66850:1 66998:1 67036:1 67291:1 67716:1 67729:1 67911:1 67987:1 68024:1 68127:1 68129:1 68222:1 68354:1 68502:1 68508:1 68576:1 68729:1 69002:1 69084:1 69125:1 69399:1 69450:1 69563:1 69791:1 69846:1 69882:1 69907:1 70017:1 70448:1 70497:1 70688:1 70762:1 70805:1 70810:1 71074:1 71165:1 71524:1 71622:1 71742:1 72254:1 72277:1 72373:1 72614:1 72648:1 72662:1 72981:1 73396:1 73769:1 74136:1 74253:1 74339:1 74569:1 74587:1 74977:1 75421:1 75647:1 75834:1 75897:1 76161:1 76209:1 76273:1 76573:1 76612:1 76635:1 #
0.0032474064365311181012963004377525 28521:1 28545:1 28574:1 28597:1 28637:1 28832:1 28841:1 28857:1 28957:1 28959:1 29056:1 29065:1 29095:1 29336:1 29504:1 29676:1 29802:1 29892:1 29904:1 30017:1 30080:1 30307:1 30584:1 30853:1 30924:1 30954:1 30980:1 31196:1 31606:1 31693:1 32072:1 32178:1 32356:1 32358:1 32443:1 32904:1 32964:1 33082:1 33186:1 33289:1 33447:1 33555:1 33607:1 33622:1 33816:1 34238:1 34464:1 34762:1 34900:1 34944:1 35187:1 35210:1 35282:1 35340:1 35405:1 35450:1 35485:1 35874:1 35915:1 35944:1 36001:1 36182:1 36291:1 36363:1 36395:1 36610:1 36934:1 36977:1 37043:1 37117:1 37241:1 37268:1 37301:1 37452:1 37526:1 37621:1 37632:1 37704:1 37892:1 37981:1 38292:1 38455:1 38692:1 38988:1 39026:1 39055:1 39175:1 39246:1 39352:1 39353:1 39471:1 39790:1 39812:1 39910:1 39912:1 40093:1 40417:1 40550:1 40610:1 40675:1 40808:1 40832:1 41041:1 41128:1 41181:1 41263:1 41428:1 41588:1 41618:1 41625:1 41652:1 41673:1 41675:1 41678:1 41712:1 41723:1 41776:1 41844:1 41865:1 42140:1 42148:1 42184:1 42197:1 42255:1 42351:1 42357:1 42555:1 42707:1 42905:1 43150:1 43197:1 43294:1 43295:1 43400:1 43418:1 43571:1 43646:1 43738:1 43805:1 43994:1 44146:1 44181:1 44546:1 44721:1 44772:1 44867:1 44936:1 45212:1 45485:1 45926:1 45951:1 46011:1 46197:1 46203:1 46315:1 46486:1 46677:1 46721:1 46753:1 46754:1 46757:1 46768:1 47123:1 47215:1 47254:1 47268:1 47401:1 47452:1 47706:1 47760:1 48107:1 48259:1 48289:1 48388:1 48416:1 48433:1 48527:1 48620:1 49170:1 49285:1 49365:1 49564:1 49725:1 49789:1 49908:1 49949:1 50101:1 50194:1 50254:1 50332:1 50396:1 50506:1 50655:1 50661:1 50670:1 50755:1 50811:1 50840:1 50912:1 50983:1 51239:1 51488:1 51515:1 51565:1 51631:1 51674:1 51880:1 52166:1 52737:1 52764:1 52921:1 53127:1 53148:1 53287:1 53393:1 53457:1 53613:1 53717:1 53723:1 54019:1 54263:1 54401:1 54760:1 55164:1 55202:1 55486:1 55522:1 55532:1 55895:1 55923:1 55946:1 55982:1 56105:1 56113:1 56262:1 56440:1 56828:1 56844:1 56909:1 57214:1 57416:1 57702:1 57807:1 57980:1 58043:1 58056:1 58258:1 58360:1 58377:1 58476:1 58638:1 58641:1 58740:1 58746:1 58813:1 58820:1 59193:1 59222:1 59225:1 59241:1 59245:1 59373:1 59883:1 59973:1 60183:1 60569:1 60834:1 61011:1 61125:1 61198:1 61253:1 61323:1 61412:1 61487:1 61576:1 61633:1 62082:1 62263:1 62303:1 62493:1 62580:1 62721:1 63127:1 63185:1 63467:1 63492:1 63845:1 64126:1 64238:1 64306:1 64380:1 64424:1 64436:1 64790:1 64911:1 64930:1 65057:1 65082:1 65123:1 65176:1 65234:1 65253:1 65412:1 65419:1 65514:1 65689:1 66053:1 66112:1 66202:1 66315:1 66389:1 66578:1 66735:1 66873:1 66910:1 67204:1 67585:1 67713:1 68422:1 68502:1 68508:1 68577:1 68705:1 68729:1 68815:1 68893:1 69002:1 69084:1 69125:1 69399:1 69645:1 69738:1 69882:1 69964:1 70017:1 70042:1 70099:1 70174:1 70318:1 70688:1 70689:1 70750:1 70810:1 70866:1 70867:1 71020:1 71126:1 71165:1 71291:1 71299:1 71649:1 71742:1 71776:1 72254:1 72270:1 72294:1 72307:1 72349:1 72396:1 72406:1 72448:1 72515:1 72565:1 72623:1 72648:1 73339:1 73359:1 73623:1 73769:1 74192:1 74325:1 74568:1 74569:1 74978:1 74983:1 74991:1 75176:1 75257:1 75477:1 75610:1 75897:1 76057:1 76265:1 76371:1 76648:1 76713:1 #
0.0021646538590406388599673981332216 28957:1 29056:1 29065:1 29128:1 29204:1 29504:1 29676:1 29700:1 29904:1 30080:1 30258:1 30490:1 30577:1 30778:1 30851:1 31082:1 31198:1 31497:1 31946:1 31982:1 32216:1 32218:1 32356:1 32358:1 32385:1 32440:1 32443:1 32694:1 32961:1 33274:1 33441:1 33447:1 33832:1 33945:1 34113:1 34150:1 34253:1 34360:1 34464:1 34468:1 34608:1 34824:1 34845:1 34972:1 35074:1 35204:1 35450:1 35898:1 35986:1 36934:1 36977:1 37043:1 37221:1 37503:1 37518:1 37814:1 37892:1 38201:1 38488:1 38624:1 38748:1 38795:1 38987:1 38988:1 39026:1 39246:1 39352:1 39748:1 39789:1 39818:1 39988:1 40153:1 40550:1 40654:1 40701:1 40832:1 41011:1 41514:1 41618:1 41666:1 41673:1 41675:1 41678:1 41786:1 42001:1 42025:1 42072:1 42184:1 42707:1 43083:1 43197:1 43392:1 43400:1 43479:1 43491:1 43525:1 43738:1 43918:1 44034:1 44097:1 44181:1 44407:1 44958:1 44995:1 45165:1 45362:1 45579:1 45810:1 45874:1 46011:1 46082:1 46197:1 46435:1 46486:1 46495:1 46598:1 46677:1 46687:1 46753:1 46754:1 47332:1 47465:1 47470:1 47946:1 48067:1 48143:1 48164:1 48206:1 48285:1 48289:1 48291:1 48385:1 48416:1 48853:1 49170:1 49263:1 49312:1 49365:1 49378:1 49380:1 49439:1 49666:1 49725:1 49767:1 49789:1 49834:1 49897:1 49949:1 50398:1 50655:1 50661:1 51239:1 51319:1 51390:1 51587:1 51651:1 51696:1 51726:1 52166:1 52321:1 52361:1 52448:1 52817:1 53127:1 53148:1 53406:1 53613:1 53717:1 53840:1 54401:1 54448:1 54495:1 54846:1 54999:1 55325:1 55340:1 55381:1 55442:1 55864:1 55892:1 55895:1 56275:1 56433:1 56636:1 56668:1 56669:1 56825:1 56826:1 56901:1 56982:1 57127:1 57807:1 57980:1 58056:1 58089:1 58309:1 58539:1 58575:1 58629:1 59109:1 59222:1 59241:1 59308:1 59373:1 59485:1 59513:1 59810:1 59882:1 59883:1 60185:1 60189:1 60301:1 60440:1 60750:1 61064:1 61448:1 61916:1 61949:1 62067:1 62131:1 62190:1 62305:1 62507:1 62580:1 62811:1 62998:1 63295:1 63529:1 63718:1 63900:1 64097:1 64106:1 64238:1 64363:1 64380:1 64638:1 64790:1 64855:1 65057:1 65089:1 65123:1 65176:1 65234:1 65359:1 65483:1 65719:1 66053:1 66304:1 66578:1 66737:1 66794:1 67204:1 67221:1 67226:1 67233:1 67291:1 67898:1 67966:1 68134:1 68502:1 68508:1 68729:1 68893:1 69005:1 69307:1 69389:1 69399:1 69498:1 69759:1 69825:1 69846:1 69974:1 70017:1 70134:1 70688:1 70762:1 70810:1 71011:1 71035:1 71165:1 71299:1 71646:1 71726:1 71770:1 71921:1 72068:1 72154:1 72254:1 72559:1 72960:1 73769:1 74587:1 74690:1 74741:1 74808:1 75257:1 75877:1 75897:1 76573:1 76678:1 76715:1 #
0.0032474064365311181012963004377525 28661:1 28957:1 28959:1 29056:1 29253:1 29473:1 29904:1 30009:1 30080:1 30165:1 30433:1 30577:1 30709:1 30778:1 30924:1 31196:1 31255:1 31821:1 32356:1 32385:1 32443:1 32771:1 32781:1 32866:1 33057:1 33447:1 33457:1 33624:1 33816:1 34075:1 34335:1 34416:1 34845:1 35079:1 35187:1 35210:1 35282:1 35453:1 35691:1 36079:1 36327:1 36494:1 36934:1 36977:1 37043:1 37645:1 37892:1 38013:1 38152:1 38460:1 38624:1 38733:1 38987:1 39004:1 39026:1 39352:1 39693:1 39818:1 39839:1 39905:1 39912:1 40267:1 40517:1 40550:1 40610:1 40636:1 40825:1 40832:1 40834:1 41041:1 41618:1 41673:1 41675:1 41678:1 41723:1 41791:1 42025:1 42351:1 42593:1 42746:1 42900:1 43197:1 43338:1 43392:1 43393:1 43398:1 43400:1 43571:1 43738:1 43747:1 44489:1 44516:1 44721:1 44816:1 44936:1 45179:1 45688:1 45960:1 46687:1 46753:1 46754:1 46768:1 46858:1 47184:1 47332:1 47392:1 47544:1 47615:1 48355:1 48416:1 48507:1 48983:1 49086:1 49170:1 49485:1 49506:1 49531:1 49725:1 49949:1 50435:1 50659:1 50661:1 50670:1 50804:1 51338:1 51587:1 51998:1 52166:1 52744:1 53002:1 53127:1 53148:1 53513:1 53533:1 53613:1 53717:1 53773:1 54121:1 54307:1 54372:1 54401:1 55895:1 55903:1 56218:1 56388:1 56826:1 56905:1 56934:1 57742:1 57807:1 57980:1 58056:1 58104:1 58195:1 58412:1 58420:1 58666:1 58740:1 58974:1 59241:1 59334:1 59810:1 59819:1 60038:1 60087:1 60092:1 60733:1 61125:1 61448:1 61515:1 61890:1 62791:1 62811:1 62872:1 62877:1 63972:1 64136:1 64235:1 64504:1 64620:1 64790:1 64855:1 65082:1 65123:1 65176:1 65234:1 65253:1 65788:1 66057:1 66112:1 66304:1 66376:1 66737:1 67291:1 67339:1 67445:1 67614:1 68502:1 68508:1 68540:1 68664:1 68729:1 68801:1 68815:1 68893:1 68922:1 69125:1 69193:1 69399:1 69537:1 69563:1 69762:1 70017:1 70031:1 70688:1 70689:1 70810:1 70866:1 71074:1 71165:1 71291:1 71309:1 71317:1 71485:1 71486:1 71526:1 71698:1 71742:1 72179:1 72254:1 72294:1 72981:1 73057:1 73486:1 73614:1 73769:1 74192:1 74856:1 75897:1 76551:1 76573:1 76669:1 76713:1 #
0.00019778462239381213653814650665907 28686:1 28875:1 28957:1 28959:1 29065:1 29204:1 29407:1 29470:1 29504:1 29576:1 29676:1 29773:1 29904:1 29907:1 29921:1 30034:1 30080:1 30117:1 30202:1 30303:1 30326:1 30446:1 30539:1 30584:1 30778:1 30831:1 30851:1 30891:1 30907:1 30954:1 31198:1 31272:1 31416:1 31497:1 31710:1 32178:1 32187:1 32278:1 32330:1 32333:1 32356:1 32443:1 32684:1 33156:1 33256:1 33622:1 33742:1 33829:1 33832:1 33945:1 34126:1 34138:1 34290:1 34407:1 34600:1 34845:1 34925:1 35130:1 35348:1 35405:1 35691:1 35701:1 35866:1 36079:1 36661:1 36895:1 36934:1 36977:1 37043:1 37099:1 37538:1 37575:1 37614:1 38013:1 38044:1 38624:1 38744:1 38987:1 38988:1 39026:1 39410:1 39563:1 39693:1 39748:1 39812:1 39818:1 39851:1 39868:1 39910:1 39985:1 40227:1 40297:1 40302:1 40417:1 40550:1 40832:1 41109:1 41306:1 41618:1 41673:1 41675:1 41678:1 42148:1 42255:1 42351:1 42556:1 42746:1 42858:1 42970:1 42986:1 43197:1 43384:1 43393:1 43400:1 43491:1 43559:1 43571:1 43646:1 43716:1 43738:1 43877:1 43918:1 44165:1 44248:1 44303:1 44627:1 44721:1 44822:1 44906:1 44936:1 44958:1 45166:1 45179:1 45406:1 45485:1 45749:1 45797:1 45808:1 45926:1 46011:1 46197:1 46677:1 46753:1 46754:1 46768:1 46939:1 47071:1 47160:1 47254:1 47312:1 47332:1 47404:1 47544:1 47615:1 47799:1 47946:1 48327:1 49001:1 49086:1 49158:1 49170:1 49194:1 49263:1 49279:1 49365:1 49485:1 49558:1 49564:1 49677:1 49725:1 49810:1 50006:1 50045:1 50088:1 50655:1 50661:1 50983:1 51003:1 51038:1 51344:1 51538:1 51696:1 51937:1 52039:1 52166:1 52218:1 52274:1 52321:1 52763:1 52780:1 52838:1 53066:1 53148:1 53406:1 53713:1 53717:1 54401:1 54492:1 54846:1 55128:1 55367:1 55573:1 55589:1 55618:1 55793:1 55892:1 55895:1 56113:1 56602:1 56825:1 56854:1 56901:1 57214:1 57807:1 57883:1 57912:1 58056:1 58130:1 58169:1 58307:1 58540:1 58597:1 58861:1 58958:1 59124:1 59254:1 59266:1 59357:1 59513:1 59546:1 59598:1 59659:1 59787:1 59810:1 59819:1 59823:1 60113:1 60185:1 60836:1 60900:1 61120:1 61125:1 61448:1 61576:1 61924:1 61997:1 62065:1 62263:1 62550:1 62811:1 62877:1 63023:1 63085:1 63529:1 63722:1 63824:1 63845:1 63900:1 64097:1 64380:1 64790:1 65082:1 65123:1 65234:1 65483:1 65514:1 65519:1 65922:1 66017:1 66112:1 66138:1 66304:1 66480:1 66667:1 66735:1 67039:1 67067:1 67291:1 68116:1 68127:1 68136:1 68216:1 68290:1 68354:1 68502:1 68729:1 68893:1 68955:1 69055:1 69195:1 69339:1 69389:1 69450:1 69498:1 69563:1 69846:1 70017:1 70418:1 70534:1 70688:1 70810:1 70866:1 71074:1 71165:1 71299:1 71319:1 71445:1 71486:1 71519:1 71622:1 71649:1 71777:1 72061:1 72179:1 72254:1 72349:1 72387:1 72576:1 72648:1 74146:1 74325:1 74587:1 74985:1 75130:1 75214:1 75640:1 75877:1 75897:1 76573:1 76625:1 #
0.0032474064365311181012963004377525 28537:1 28783:1 28856:1 28957:1 28959:1 29065:1 29453:1 29504:1 29773:1 29904:1 30056:1 30080:1 30117:1 30208:1 30303:1 30474:1 30536:1 30629:1 30701:1 30888:1 30954:1 31337:1 31455:1 31497:1 31538:1 31606:1 31710:1 31759:1 31767:1 32278:1 32356:1 32443:1 32881:1 32897:1 32964:1 33002:1 33589:1 33598:1 33607:1 33783:1 33817:1 34133:1 34201:1 34238:1 34407:1 34468:1 34858:1 34860:1 35187:1 35282:1 35283:1 35325:1 35450:1 35453:1 35539:1 35704:1 35915:1 36079:1 36540:1 36605:1 36861:1 36977:1 37029:1 37043:1 37283:1 37415:1 37456:1 37538:1 37632:1 37685:1 38013:1 38027:1 38414:1 38624:1 38692:1 38733:1 38767:1 38988:1 39026:1 39353:1 39467:1 39748:1 39812:1 39818:1 39952:1 40066:1 40101:1 40259:1 40503:1 40550:1 40610:1 40832:1 40936:1 40986:1 41091:1 41306:1 41394:1 41445:1 41673:1 41675:1 41678:1 41937:1 42106:1 42140:1 42148:1 42351:1 42402:1 42437:1 42478:1 42501:1 42546:1 42795:1 43009:1 43265:1 43398:1 43491:1 43494:1 43559:1 43571:1 43646:1 43716:1 43738:1 43853:1 43937:1 43994:1 44115:1 44154:1 44162:1 44325:1 44492:1 44631:1 44973:1 45207:1 45406:1 45485:1 45747:1 45984:1 46197:1 46753:1 46768:1 47160:1 47332:1 47404:1 47491:1 47534:1 47544:1 47647:1 47726:1 47745:1 48048:1 48259:1 48299:1 48327:1 48336:1 48388:1 48416:1 49127:1 49170:1 49263:1 49332:1 49485:1 49837:1 49949:1 50479:1 50655:1 50661:1 50670:1 50983:1 51121:1 51319:1 51630:1 51674:1 51716:1 51926:1 52101:1 52630:1 52721:1 52804:1 53094:1 53127:1 53148:1 53287:1 53513:1 53617:1 53639:1 53717:1 53740:1 54401:1 54402:1 54441:1 54709:1 54821:1 54846:1 54848:1 54959:1 55074:1 55532:1 55646:1 55895:1 55988:1 56106:1 56113:1 56147:1 56218:1 56243:1 56388:1 56669:1 56934:1 57101:1 57326:1 57807:1 58056:1 58196:1 58492:1 58958:1 59241:1 59338:1 59513:1 59704:1 59722:1 59787:1 59810:1 59827:1 59853:1 59871:1 59883:1 60185:1 60636:1 61125:1 61465:1 61482:1 62462:1 62621:1 62811:1 63257:1 63305:1 63529:1 63784:1 63953:1 64031:1 64734:1 64790:1 64841:1 64850:1 64855:1 64939:1 65123:1 65176:1 65373:1 65514:1 65552:1 65982:1 66202:1 66304:1 66358:1 66419:1 66578:1 66596:1 66672:1 66771:1 66795:1 66908:1 67083:1 67226:1 67256:1 67291:1 68348:1 68502:1 68508:1 68576:1 68577:1 68705:1 68729:1 68841:1 68893:1 69399:1 69846:1 69981:1 70017:1 70688:1 70689:1 70810:1 70986:1 71020:1 71165:1 71299:1 71351:1 71463:1 71519:1 71698:1 71815:1 71834:1 71849:1 71973:1 72003:1 72012:1 72349:1 72451:1 72892:1 72981:1 73057:1 73058:1 73135:1 74136:1 74146:1 74325:1 74442:1 74587:1 74690:1 74860:1 74869:1 74953:1 75657:1 75678:1 75741:1 75832:1 76090:1 76573:1 #
-0.0032474064365311181012963004377525 28538:1 28631:1 28838:1 28874:1 28892:1 28911:1 28921:1 28957:1 28959:1 28987:1 29056:1 29065:1 29204:1 29410:1 29494:1 29504:1 29555:1 29749:1 29802:1 29892:1 29904:1 29960:1 30009:1 30022:1 30080:1 30303:1 30408:1 30430:1 30518:1 30584:1 30778:1 30808:1 30852:1 30891:1 30954:1 31182:1 31255:1 31347:1 31451:1 31497:1 31509:1 31693:1 31710:1 31749:1 31761:1 31946:1 32007:1 32154:1 32278:1 32285:1 32356:1 32358:1 32443:1 32510:1 32769:1 32880:1 32881:1 32919:1 32964:1 33156:1 33287:1 33317:1 33433:1 33447:1 33607:1 33671:1 34012:1 34061:1 34133:1 34179:1 34341:1 34413:1 34441:1 34464:1 34842:1 34845:1 34925:1 35004:1 35032:1 35207:1 35210:1 35282:1 35340:1 35450:1 35453:1 35481:1 35691:1 35874:1 35903:1 35915:1 35944:1 35946:1 36182:1 36226:1 36291:1 36395:1 36459:1 36494:1 36521:1 36524:1 36907:1 36977:1 37043:1 37301:1 37452:1 37585:1 37611:1 37632:1 37892:1 37939:1 37974:1 38053:1 38224:1 38287:1 38375:1 38455:1 38479:1 38495:1 38506:1 38624:1 38767:1 38819:1 38869:1 38958:1 38987:1 38988:1 38998:1 39026:1 39113:1 39123:1 39221:1 39246:1 39352:1 39353:1 39471:1 39488:1 39562:1 39567:1 39698:1 39812:1 39818:1 39952:1 39988:1 40000:1 40175:1 40259:1 40278:1 40299:1 40303:1 40417:1 40479:1 40484:1 40550:1 40610:1 40640:1 40675:1 40821:1 40832:1 40837:1 40924:1 40986:1 41073:1 41306:1 41351:1 41366:1 41618:1 41673:1 41675:1 41678:1 41723:1 41806:1 41859:1 41863:1 41937:1 41957:1 42001:1 42148:1 42184:1 42272:1 42351:1 42437:1 42545:1 42553:1 42618:1 43124:1 43197:1 43295:1 43392:1 43393:1 43400:1 43491:1 43552:1 43559:1 43575:1 43701:1 43729:1 43738:1 43918:1 43937:1 43939:1 44182:1 44232:1 44355:1 44407:1 44516:1 44587:1 44721:1 44828:1 44906:1 44953:1 44958:1 45257:1 45284:1 45406:1 45466:1 45485:1 45545:1 45614:1 45619:1 45926:1 46011:1 46153:1 46197:1 46203:1 46315:1 46486:1 46753:1 46754:1 46768:1 46783:1 46903:1 46939:1 47083:1 47254:1 47268:1 47332:1 47512:1 47588:1 47615:1 47619:1 47647:1 47658:1 47777:1 47804:1 47845:1 48256:1 48268:1 48416:1 48445:1 48529:1 48620:1 48785:1 49004:1 49030:1 49086:1 49170:1 49263:1 49365:1 49429:1 49439:1 49557:1 49558:1 49633:1 49725:1 49767:1 49860:1 49884:1 49891:1 49917:1 49949:1 50143:1 50194:1 50405:1 50483:1 50655:1 50661:1 50670:1 50723:1 50839:1 50962:1 51003:1 51116:1 51382:1 51571:1 51587:1 51638:1 51674:1 51721:1 52010:1 52101:1 52118:1 52166:1 52445:1 52487:1 52744:1 52991:1 53127:1 53148:1 53160:1 53172:1 53406:1 53613:1 53625:1 53668:1 53717:1 53904:1 54203:1 54326:1 54401:1 54402:1 54406:1 54448:1 54495:1 54846:1 54848:1 54856:1 54963:1 55492:1 55529:1 55532:1 55646:1 55734:1 55895:1 55903:1 55921:1 56113:1 56126:1 56145:1 56228:1 56232:1 56380:1 56388:1 56401:1 56526:1 56551:1 56587:1 56669:1 56768:1 56782:1 56825:1 56854:1 56982:1 57088:1 57214:1 57295:1 57573:1 57588:1 57652:1 57807:1 57847:1 57912:1 57970:1 57980:1 58043:1 58091:1 58132:1 58196:1 58322:1 58553:1 58740:1 58766:1 59013:1 59108:1 59135:1 59222:1 59241:1 59245:1 59266:1 59323:1 59338:1 59340:1 59362:1 59546:1 59892:1 60012:1 60021:1 60087:1 60157:1 60177:1 60301:1 60826:1 60956:1 60981:1 61125:1 61323:1 61448:1 61513:1 61558:1 61576:1 61674:1 61716:1 61965:1 62190:1 62263:1 62305:1 62334:1 62430:1 62439:1 62498:1 62580:1 62811:1 62877:1 63257:1 63262:1 63508:1 63700:1 63764:1 63845:1 63861:1 63900:1 63972:1 64065:1 64082:1 64136:1 64238:1 64657:1 64703:1 64790:1 64841:1 64849:1 64850:1 64855:1 64939:1 65012:1 65082:1 65123:1 65176:1 65253:1 65367:1 65483:1 65742:1 65922:1 65941:1 66053:1 66112:1 66138:1 66284:1 66334:1 66358:1 66419:1 66578:1 66658:1 66708:1 66791:1 66794:1 66796:1 66799:1 66841:1 66900:1 66908:1 66910:1 66993:1 67065:1 67226:1 67233:1 67291:1 67404:1 67410:1 67414:1 67432:1 67636:1 67863:1 67926:1 68116:1 68243:1 68429:1 68471:1 68502:1 68576:1 68676:1 68729:1 68752:1 68755:1 68847:1 69084:1 69349:1 69389:1 69399:1 69447:1 69450:1 69472:1 69531:1 69563:1 69564:1 69749:1 69825:1 69846:1 69854:1 69985:1 70000:1 70017:1 70107:1 70202:1 70240:1 70534:1 70652:1 70688:1 70689:1 70696:1 70805:1 70810:1 70814:1 70834:1 70866:1 71165:1 71220:1 71299:1 71309:1 71373:1 71486:1 71595:1 71622:1 71742:1 71746:1 71770:1 71834:1 72254:1 72344:1 72349:1 72487:1 72491:1 72576:1 72902:1 73018:1 73393:1 73486:1 73547:1 73639:1 73662:1 73757:1 73769:1 73923:1 74146:1 74309:1 74325:1 74359:1 74615:1 74685:1 74851:1 74989:1 75130:1 75257:1 75492:1 75647:1 75689:1 75696:1 75877:1 75897:1 76130:1 76362:1 76573:1 76713:1 #
-0.0021699736520551884434715450566955 28574:1 28662:1 28700:1 28765:1 28809:1 28857:1 28957:1 29056:1 29065:1 29321:1 29334:1 29407:1 29504:1 29544:1 29596:1 29773:1 29802:1 29892:1 29904:1 30080:1 30307:1 30408:1 30778:1 30831:1 30866:1 31061:1 31099:1 31196:1 31693:1 31710:1 31759:1 31844:1 31873:1 31880:1 32178:1 32187:1 32205:1 32217:1 32222:1 32247:1 32308:1 32356:1 32358:1 32385:1 32440:1 32443:1 32827:1 32881:1 33002:1 33130:1 33134:1 33293:1 33317:1 33335:1 33356:1 33622:1 33783:1 33791:1 33987:1 34084:1 34129:1 34133:1 34224:1 34339:1 34407:1 34485:1 34582:1 34785:1 34845:1 34849:1 34944:1 35067:1 35089:1 35110:1 35207:1 35340:1 35443:1 35510:1 35685:1 35691:1 35738:1 35772:1 35846:1 35915:1 35986:1 36059:1 36079:1 36182:1 36275:1 36709:1 36934:1 36971:1 36977:1 37043:1 37217:1 37221:1 37314:1 37360:1 37617:1 37653:1 37892:1 38260:1 38292:1 38348:1 38442:1 38495:1 38506:1 38507:1 38687:1 38733:1 38840:1 38987:1 38988:1 38996:1 39026:1 39286:1 39332:1 39353:1 39463:1 39693:1 39732:1 39812:1 39818:1 39892:1 39905:1 39910:1 39988:1 40156:1 40181:1 40184:1 40186:1 40290:1 40294:1 40334:1 40550:1 40610:1 40701:1 40803:1 40832:1 41041:1 41306:1 41609:1 41618:1 41672:1 41673:1 41675:1 41678:1 41806:1 42025:1 42027:1 42079:1 42140:1 42148:1 42351:1 42357:1 42371:1 42429:1 42459:1 42501:1 42579:1 42607:1 42621:1 42707:1 42826:1 42884:1 42974:1 42991:1 43004:1 43081:1 43197:1 43225:1 43251:1 43392:1 43398:1 43400:1 43491:1 43509:1 43559:1 43619:1 43716:1 43722:1 43738:1 44005:1 44159:1 44193:1 44502:1 44516:1 44721:1 45215:1 45308:1 45406:1 45485:1 45599:1 46175:1 46197:1 46246:1 46315:1 46677:1 46743:1 46753:1 46754:1 46768:1 46962:1 47083:1 47124:1 47160:1 47161:1 47254:1 47332:1 47363:1 47487:1 47901:1 48029:1 48112:1 48206:1 48238:1 48258:1 48295:1 48416:1 48500:1 48963:1 48989:1 49038:1 49170:1 49172:1 49263:1 49285:1 49295:1 49298:1 49398:1 49493:1 49564:1 49677:1 49725:1 49849:1 49897:1 49949:1 50227:1 50405:1 50436:1 50483:1 50640:1 50655:1 50661:1 50670:1 50793:1 50812:1 50921:1 50962:1 51150:1 51597:1 51699:1 51726:1 51744:1 52010:1 52166:1 52185:1 52321:1 52485:1 52764:1 52838:1 53109:1 53127:1 53148:1 53239:1 53270:1 53717:1 53741:1 54215:1 54314:1 54318:1 54368:1 54401:1 54402:1 54633:1 54743:1 54817:1 54985:1 55043:1 55304:1 55479:1 55532:1 55574:1 55646:1 55862:1 55882:1 55892:1 55895:1 56131:1 56187:1 56388:1 56433:1 56814:1 56825:1 56898:1 56909:1 56934:1 57163:1 57214:1 57261:1 57272:1 57689:1 57807:1 57946:1 58028:1 58085:1 58196:1 58360:1 58428:1 58539:1 58540:1 58582:1 58634:1 58740:1 58824:1 58918:1 58974:1 59019:1 59124:1 59225:1 59241:1 59340:1 59788:1 59810:1 59883:1 59992:1 60038:1 60193:1 61011:1 61125:1 61127:1 61311:1 61387:1 61401:1 61720:1 61792:1 61875:1 61936:1 62062:1 62263:1 62334:1 62427:1 62580:1 62811:1 62839:1 62877:1 63156:1 63312:1 63349:1 63508:1 63529:1 63601:1 63727:1 63845:1 63860:1 63900:1 63953:1 64024:1 64031:1 64039:1 64061:1 64064:1 64097:1 64106:1 64215:1 64217:1 64238:1 64325:1 64373:1 64397:1 64409:1 64632:1 64663:1 64790:1 64850:1 64952:1 64961:1 65082:1 65123:1 65176:1 65234:1 65514:1 65558:1 65668:1 65700:1 65719:1 65872:1 66016:1 66053:1 66151:1 66253:1 66289:1 66304:1 66378:1 66560:1 66578:1 66648:1 66770:1 66847:1 67119:1 67291:1 67354:1 67432:1 67713:1 67863:1 67918:1 68222:1 68422:1 68502:1 68508:1 68729:1 68893:1 68984:1 68986:1 69089:1 69156:1 69182:1 69211:1 69283:1 69450:1 69454:1 69563:1 69674:1 69825:1 69846:1 69974:1 70017:1 70147:1 70180:1 70318:1 70397:1 70468:1 70688:1 70689:1 70721:1 70750:1 70810:1 71020:1 71074:1 71165:1 71211:1 71255:1 71299:1 71424:1 71499:1 71524:1 71770:1 71826:1 71884:1 71986:1 72051:1 72349:1 72448:1 72496:1 72805:1 72827:1 73229:1 73393:1 73640:1 73689:1 73767:1 73769:1 74156:1 74274:1 74325:1 74498:1 74587:1 74964:1 75130:1 75176:1 75257:1 75422:1 75500:1 75643:1 75754:1 75877:1 75893:1 75897:1 76371:1 76459:1 76713:1 #
-0.0031612895316475266363487328646897 28616:1 28649:1 28700:1 28957:1 28959:1 29056:1 29065:1 29224:1 29334:1 29407:1 29486:1 29494:1 29504:1 29670:1 29676:1 29773:1 29783:1 29904:1 30034:1 30080:1 30182:1 30408:1 30778:1 30954:1 31198:1 31497:1 31560:1 31710:1 31844:1 32049:1 32312:1 32356:1 32443:1 32769:1 32771:1 32827:1 32881:1 32964:1 33149:1 33289:1 33437:1 33607:1 33632:1 33659:1 33716:1 33741:1 33742:1 33783:1 33816:1 33832:1 33864:1 34150:1 34199:1 34238:1 34384:1 34549:1 34582:1 34925:1 34972:1 35031:1 35076:1 35187:1 35405:1 35417:1 35571:1 35600:1 35691:1 35701:1 35772:1 35898:1 35915:1 35944:1 35952:1 36182:1 36286:1 36444:1 36835:1 36977:1 37043:1 37094:1 37221:1 37301:1 37618:1 37632:1 37822:1 37892:1 37981:1 38070:1 38384:1 38442:1 38460:1 38495:1 38615:1 38624:1 38784:1 38988:1 39026:1 39246:1 39352:1 39796:1 39812:1 39818:1 39910:1 40246:1 40302:1 40358:1 40640:1 40701:1 40711:1 40825:1 40832:1 41263:1 41618:1 41621:1 41673:1 41675:1 41678:1 41705:1 41853:1 41862:1 41865:1 41937:1 42110:1 42148:1 42255:1 42351:1 42354:1 42384:1 42707:1 42851:1 42942:1 42980:1 43197:1 43392:1 43398:1 43400:1 43738:1 44005:1 44019:1 44248:1 44363:1 44695:1 44842:1 44867:1 45257:1 45485:1 45620:1 45724:1 45762:1 45926:1 46119:1 46197:1 46253:1 46677:1 46753:1 46754:1 46768:1 46962:1 47171:1 47254:1 47451:1 47485:1 47544:1 47845:1 47901:1 47946:1 48021:1 48029:1 48093:1 48388:1 48416:1 48912:1 49170:1 49263:1 49380:1 49725:1 49757:1 49949:1 50527:1 50655:1 50659:1 50661:1 50670:1 51587:1 51597:1 51871:1 52025:1 52053:1 52101:1 52166:1 52480:1 52557:1 53127:1 53239:1 53251:1 53406:1 53513:1 53613:1 53717:1 53745:1 53783:1 53862:1 54153:1 54366:1 54401:1 54402:1 54451:1 54469:1 54644:1 54846:1 54856:1 54884:1 54925:1 55304:1 55381:1 55532:1 55895:1 56032:1 56113:1 56132:1 56313:1 56388:1 56507:1 56561:1 56747:1 56814:1 56825:1 56934:1 57652:1 57739:1 57807:1 57962:1 58056:1 58492:1 58539:1 58576:1 58740:1 58766:1 59108:1 59225:1 59241:1 59340:1 59362:1 59373:1 59707:1 59810:1 59853:1 60012:1 60038:1 60053:1 60649:1 60946:1 61095:1 61125:1 61448:1 61518:1 61793:1 62018:1 62148:1 62292:1 62305:1 62307:1 62416:1 62439:1 62567:1 62791:1 62811:1 62879:1 62985:1 63328:1 63529:1 63685:1 63686:1 63764:1 63898:1 63900:1 63953:1 63987:1 64031:1 64086:1 64238:1 64380:1 64564:1 64790:1 64841:1 64850:1 64855:1 65123:1 65176:1 65234:1 65475:1 65514:1 65668:1 66057:1 66287:1 66304:1 66378:1 66408:1 66578:1 66735:1 66737:1 67226:1 67291:1 67814:1 67987:1 68165:1 68195:1 68355:1 68478:1 68502:1 68508:1 68635:1 68705:1 68729:1 68841:1 68893:1 69099:1 69192:1 69362:1 69563:1 69801:1 69846:1 70017:1 70028:1 70180:1 70688:1 70689:1 70810:1 70884:1 70933:1 71165:1 71622:1 71709:1 71823:1 71834:1 71849:1 71875:1 72076:1 72254:1 72276:1 72294:1 72301:1 72398:1 72448:1 72496:1 72502:1 72565:1 72662:1 72764:1 72911:1 72981:1 73769:1 73785:1 73981:1 74124:1 74851:1 74860:1 74953:1 74970:1 75161:1 75257:1 75492:1 75516:1 75571:1 75603:1 75696:1 76000:1 76265:1 76573:1 76583:1 76612:1 #
-5.4774486079559579244924183427656e-05 28571:1 28631:1 28649:1 28957:1 28959:1 29047:1 29056:1 29204:1 29210:1 29407:1 29651:1 29904:1 29926:1 30080:1 30082:1 30227:1 30303:1 30778:1 30851:1 30943:1 30954:1 31198:1 31343:1 31347:1 31759:1 32052:1 32178:1 32187:1 32356:1 32443:1 32982:1 33057:1 33314:1 33381:1 33607:1 34133:1 34712:1 34759:1 34875:1 35282:1 35326:1 35340:1 35443:1 35450:1 35503:1 35540:1 36076:1 36079:1 36719:1 36934:1 36942:1 36977:1 37043:1 37107:1 37892:1 38375:1 38414:1 38495:1 38508:1 38687:1 38853:1 38874:1 38883:1 38988:1 38991:1 38996:1 39026:1 39071:1 39353:1 39377:1 39516:1 39693:1 39748:1 39812:1 39868:1 40297:1 40532:1 40701:1 40832:1 40914:1 41041:1 41351:1 41618:1 41673:1 41675:1 41678:1 42140:1 42146:1 42184:1 42209:1 42255:1 42325:1 42351:1 42371:1 42627:1 43197:1 43392:1 43398:1 43491:1 43546:1 43575:1 43738:1 43892:1 43916:1 43918:1 44061:1 44141:1 44407:1 44576:1 44833:1 44936:1 44937:1 44957:1 44958:1 45100:1 45165:1 45362:1 45485:1 45568:1 45749:1 45926:1 45960:1 46197:1 46360:1 46375:1 46677:1 46753:1 46754:1 46757:1 46768:1 47215:1 47254:1 47298:1 47452:1 47489:1 47610:1 48291:1 48349:1 48388:1 48416:1 48680:1 48854:1 49001:1 49038:1 49170:1 49179:1 49314:1 49380:1 49429:1 49636:1 49677:1 49949:1 50119:1 50655:1 50661:1 50670:1 50730:1 50983:1 51493:1 51580:1 52039:1 52097:1 53127:1 53132:1 53148:1 53613:1 53715:1 53717:1 54261:1 54552:1 54703:1 54779:1 54985:1 54999:1 55892:1 55982:1 56105:1 56414:1 56548:1 56668:1 56865:1 57176:1 57305:1 57573:1 57807:1 57943:1 58015:1 58056:1 58114:1 58492:1 58740:1 59124:1 59225:1 59241:1 59308:1 59810:1 59853:1 59866:1 59882:1 60037:1 60193:1 60203:1 60212:1 60218:1 60263:1 60378:1 60625:1 60946:1 61125:1 61253:1 61518:1 61623:1 61716:1 61932:1 62580:1 63043:1 63127:1 63700:1 63779:1 63845:1 63900:1 63953:1 64097:1 64155:1 64238:1 64638:1 64790:1 64963:1 65016:1 65123:1 65176:1 65219:1 65234:1 65483:1 65500:1 65842:1 66017:1 66053:1 66220:1 66304:1 66408:1 66737:1 66936:1 67256:1 67863:1 67918:1 68136:1 68303:1 68502:1 68508:1 68543:1 68729:1 68795:1 68840:1 68841:1 68893:1 69563:1 69846:1 70000:1 70017:1 70180:1 70318:1 70437:1 70448:1 70624:1 70688:1 70810:1 70986:1 71165:1 71309:1 71337:1 71349:1 71351:1 71622:1 72892:1 73421:1 73464:1 73700:1 74146:1 75167:1 75257:1 75492:1 75770:1 75877:1 76161:1 76648:1 #
0.0032474064365311181012963004377525 28649:1 28957:1 29504:1 29904:1 30080:1 30102:1 30303:1 30518:1 30778:1 31175:1 31343:1 32007:1 32378:1 32443:1 32684:1 33208:1 33742:1 33938:1 34201:1 34324:1 34845:1 34863:1 34925:1 34972:1 35031:1 35282:1 35405:1 35450:1 35453:1 35915:1 36834:1 36934:1 36977:1 37301:1 37578:1 38624:1 38687:1 39097:1 39353:1 39693:1 39812:1 40537:1 40550:1 40610:1 40803:1 40805:1 40821:1 40832:1 41109:1 41306:1 41618:1 41673:1 41675:1 41678:1 42295:1 43559:1 43571:1 43738:1 44121:1 44721:1 45485:1 46197:1 46638:1 46753:1 46754:1 46768:1 46858:1 47123:1 47610:1 48021:1 48029:1 48388:1 48416:1 48620:1 48672:1 48890:1 49001:1 49086:1 49263:1 49907:1 49935:1 50158:1 50655:1 50659:1 50661:1 51500:1 52166:1 52962:1 53127:1 53406:1 53613:1 53717:1 54121:1 54821:1 55453:1 55462:1 55532:1 55572:1 55646:1 55892:1 55946:1 56105:1 56113:1 56388:1 56412:1 57214:1 57432:1 57807:1 57831:1 57923:1 58476:1 58539:1 58666:1 58766:1 59222:1 59338:1 60735:1 61125:1 61448:1 61875:1 61962:1 61975:1 62263:1 62439:1 62514:1 62811:1 62812:1 63823:1 63900:1 64380:1 64404:1 64632:1 64790:1 64841:1 64850:1 65176:1 65322:1 66256:1 66304:1 66768:1 67291:1 68502:1 68577:1 68635:1 68729:1 68801:1 68893:1 69450:1 69498:1 69580:1 69846:1 70028:1 70624:1 70688:1 71104:1 71165:1 71684:1 72254:1 72271:1 72883:1 73103:1 73499:1 74146:1 74370:1 74983:1 75877:1 76265:1 76381:1 #
0.0032474064365311181012963004377525 28811:1 28957:1 29065:1 29189:1 29504:1 29773:1 29904:1 29935:1 30161:1 30303:1 30446:1 31226:1 32333:1 32443:1 33832:1 34227:1 34464:1 34838:1 34938:1 35089:1 35738:1 36934:1 36977:1 37221:1 37301:1 38455:1 38624:1 39026:1 39159:1 39693:1 39812:1 40100:1 40537:1 40701:1 40711:1 40803:1 40821:1 40832:1 41041:1 41673:1 41675:1 42351:1 42684:1 43197:1 43393:1 43400:1 43738:1 43918:1 44242:1 46315:1 46316:1 46389:1 46687:1 46753:1 46754:1 46768:1 47512:1 47848:1 49170:1 49725:1 50011:1 50661:1 50670:1 51033:1 51497:1 51540:1 53109:1 53127:1 53148:1 53254:1 53613:1 53717:1 53986:1 54778:1 55892:1 55903:1 56113:1 57599:1 57807:1 57980:1 58056:1 58307:1 59108:1 59124:1 59546:1 59953:1 61125:1 62282:1 63685:1 63845:1 63898:1 63900:1 64376:1 64790:1 65123:1 65366:1 65750:1 66304:1 66358:1 66794:1 67472:1 68161:1 68502:1 68563:1 68729:1 69790:1 69825:1 70017:1 70534:1 70688:1 70810:1 70866:1 71165:1 71519:1 71526:1 71622:1 71742:1 73769:1 73981:1 75421:1 75567:1 75603:1 75696:1 76029:1 76596:1 #
0.00090093212932120913648964544151454 28509:1 28575:1 28597:1 28846:1 28857:1 28957:1 28959:1 29056:1 29065:1 29210:1 29504:1 29518:1 29686:1 29773:1 29784:1 29904:1 29907:1 30017:1 30303:1 30423:1 30584:1 31082:1 31174:1 31198:1 31255:1 31291:1 31451:1 31497:1 31693:1 31946:1 31959:1 32187:1 32278:1 32333:1 32356:1 32358:1 32378:1 32418:1 32443:1 32757:1 32881:1 32951:1 32964:1 33437:1 33742:1 34009:1 34065:1 34311:1 34407:1 34441:1 34499:1 35089:1 35207:1 35282:1 35340:1 35405:1 35450:1 35472:1 35592:1 35691:1 35898:1 35903:1 35915:1 36627:1 36841:1 36934:1 36977:1 37024:1 37043:1 37050:1 37295:1 37301:1 37415:1 37706:1 37892:1 37936:1 38221:1 38455:1 38587:1 38988:1 39026:1 39121:1 39159:1 39179:1 39218:1 39347:1 39693:1 39812:1 40267:1 40297:1 40550:1 40610:1 40654:1 40832:1 40924:1 41041:1 41306:1 41610:1 41618:1 41675:1 41723:1 41937:1 42003:1 42028:1 42072:1 42086:1 42124:1 42148:1 42184:1 42238:1 42351:1 42357:1 42528:1 42771:1 42968:1 42980:1 43083:1 43197:1 43392:1 43393:1 43398:1 43400:1 43491:1 43559:1 43571:1 43610:1 43738:1 43796:1 43959:1 44034:1 44059:1 44516:1 44576:1 44721:1 44936:1 44958:1 45100:1 45112:1 45149:1 45165:1 45246:1 45257:1 45926:1 46197:1 46486:1 46753:1 46754:1 46768:1 47380:1 47453:1 47512:1 47557:1 47718:1 48291:1 48416:1 49086:1 49170:1 49263:1 49365:1 49380:1 49476:1 49506:1 49521:1 49564:1 49626:1 49725:1 50002:1 50241:1 50655:1 50659:1 50661:1 50670:1 51114:1 52101:1 52142:1 52166:1 52544:1 52546:1 53239:1 53366:1 53513:1 53533:1 53717:1 54469:1 55430:1 55445:1 55532:1 55735:1 55892:1 55895:1 55900:1 55903:1 55982:1 56113:1 56433:1 56594:1 57178:1 57807:1 58056:1 58114:1 58562:1 58820:1 59124:1 59129:1 59178:1 59222:1 59266:1 59805:1 59853:1 59883:1 59952:1 59953:1 59991:1 60038:1 60087:1 60113:1 60211:1 60692:1 60854:1 61120:1 61126:1 61167:1 61518:1 61576:1 61633:1 62065:1 62263:1 62282:1 62349:1 62430:1 62532:1 62955:1 63101:1 63727:1 63845:1 63892:1 63900:1 63953:1 64097:1 64238:1 64380:1 64657:1 64790:1 64799:1 64841:1 65082:1 65412:1 65429:1 65719:1 65816:1 65974:1 66021:1 66053:1 66071:1 66112:1 66151:1 66304:1 66578:1 66634:1 66809:1 66836:1 67614:1 67927:1 68202:1 68210:1 68502:1 68576:1 68577:1 68729:1 68841:1 68893:1 68945:1 69307:1 69563:1 69674:1 69825:1 69846:1 69882:1 70028:1 70688:1 70689:1 70724:1 70810:1 70853:1 71104:1 71165:1 71220:1 71301:1 71309:1 71622:1 71770:1 72098:1 72254:1 72349:1 72565:1 72614:1 72648:1 73161:1 73330:1 74587:1 74851:1 74856:1 74869:1 74991:1 75257:1 75331:1 75696:1 75715:1 75753:1 75877:1 75897:1 76612:1 #
0.0032474064365311181012963004377525 28631:1 28957:1 28959:1 29065:1 29470:1 29504:1 29676:1 29773:1 29802:1 29904:1 30034:1 30080:1 30117:1 30303:1 30492:1 30584:1 30778:1 30927:1 30930:1 30971:1 31028:1 31182:1 31266:1 31345:1 31533:1 31606:1 31844:1 31878:1 32333:1 32356:1 32443:1 32880:1 32881:1 32964:1 33169:1 33317:1 33421:1 33457:1 33639:1 33717:1 34157:1 34224:1 34407:1 34605:1 34838:1 34845:1 35076:1 35405:1 35450:1 35701:1 35850:1 36015:1 36182:1 36226:1 36785:1 36977:1 37107:1 37144:1 37241:1 37280:1 37283:1 37301:1 37575:1 37892:1 38013:1 38423:1 38455:1 38506:1 38748:1 38853:1 38987:1 39026:1 39320:1 39493:1 39538:1 39693:1 39732:1 39748:1 39812:1 39831:1 40153:1 40334:1 40376:1 40431:1 40462:1 40550:1 40591:1 40640:1 40803:1 40821:1 40832:1 41091:1 41306:1 41618:1 41673:1 41675:1 41678:1 42001:1 42047:1 42148:1 42220:1 42351:1 42371:1 42373:1 42556:1 42567:1 42707:1 42826:1 42913:1 43136:1 43166:1 43197:1 43392:1 43393:1 43543:1 43559:1 43571:1 43734:1 43738:1 44146:1 44180:1 44288:1 45056:1 45485:1 45620:1 45681:1 45819:1 45902:1 45926:1 45943:1 46143:1 46214:1 46389:1 46677:1 46687:1 46753:1 46754:1 47160:1 47401:1 47615:1 47753:1 47948:1 47968:1 48291:1 48336:1 48416:1 48518:1 48680:1 48772:1 48963:1 49086:1 49170:1 49365:1 49380:1 49404:1 49725:1 49760:1 49907:1 50061:1 50655:1 50661:1 50670:1 50983:1 51540:1 51571:1 51587:1 52300:1 52742:1 52753:1 52764:1 53094:1 53127:1 53613:1 53638:1 53717:1 54121:1 54379:1 54401:1 55074:1 55646:1 55881:1 55892:1 56113:1 56255:1 56262:1 56901:1 56934:1 57369:1 57482:1 57584:1 57807:1 57922:1 58056:1 58169:1 58539:1 59108:1 59129:1 59222:1 59225:1 59226:1 59340:1 59513:1 59810:1 60038:1 60622:1 61125:1 61513:1 61522:1 61633:1 62074:1 62207:1 63845:1 63900:1 63953:1 64097:1 64217:1 64236:1 64238:1 64638:1 64734:1 64790:1 64841:1 64855:1 65031:1 65082:1 65123:1 65412:1 65426:1 65483:1 65719:1 65874:1 66017:1 66112:1 66304:1 66358:1 66363:1 66524:1 66578:1 66643:1 66794:1 66993:1 67287:1 68127:1 68445:1 68471:1 68478:1 68502:1 68542:1 68729:1 68841:1 68893:1 68978:1 69005:1 69125:1 69402:1 69450:1 69563:1 70017:1 70111:1 70147:1 70159:1 70174:1 70222:1 70412:1 70534:1 70688:1 70749:1 70762:1 70810:1 70866:1 71165:1 71309:1 71486:1 71519:1 71526:1 71622:1 71834:1 71990:1 72171:1 72254:1 72294:1 72448:1 72576:1 72582:1 73187:1 73582:1 73706:1 74569:1 74985:1 75050:1 75194:1 75214:1 75295:1 75393:1 75603:1 75877:1 76079:1 76383:1 76573:1 76668:1 #
0.00072923426240709609755241693562766 28921:1 28957:1 28959:1 29204:1 29407:1 29504:1 29672:1 29735:1 29904:1 30034:1 30080:1 30303:1 30430:1 30446:1 30584:1 31219:1 31693:1 31710:1 32178:1 32358:1 32443:1 32881:1 33078:1 33105:1 33407:1 33742:1 34084:1 34150:1 34845:1 35283:1 35543:1 35776:1 36085:1 36383:1 36977:1 37303:1 37591:1 37646:1 37684:1 38301:1 38801:1 38871:1 38988:1 39693:1 39843:1 40250:1 40297:1 40550:1 40640:1 40832:1 41306:1 41673:1 41675:1 41678:1 41759:1 41853:1 41882:1 41937:1 42054:1 42351:1 42695:1 42937:1 42996:1 43010:1 43197:1 43392:1 43491:1 43514:1 43571:1 43716:1 43738:1 43829:1 43965:1 44546:1 44627:1 44962:1 45485:1 45545:1 45843:1 46197:1 46681:1 46753:1 46754:1 47254:1 47533:1 47544:1 47761:1 47968:1 48388:1 48416:1 48445:1 48831:1 49170:1 49279:1 49303:1 49551:1 49557:1 49779:1 49929:1 50007:1 50655:1 50661:1 51331:1 51549:1 51571:1 51587:1 51889:1 52807:1 53023:1 53203:1 53303:1 53406:1 53534:1 53717:1 53740:1 53911:1 54709:1 54814:1 55067:1 55895:1 56113:1 56825:1 57185:1 57717:1 57807:1 58196:1 58438:1 58853:1 59124:1 59129:1 59362:1 59650:1 59853:1 60649:1 61513:1 61576:1 61633:1 62048:1 62344:1 63685:1 63900:1 64097:1 64380:1 64397:1 64424:1 64790:1 64792:1 64850:1 65021:1 65123:1 65234:1 65373:1 65385:1 65853:1 66053:1 66485:1 66578:1 66735:1 67291:1 67414:1 67577:1 67713:1 68354:1 68471:1 68502:1 68729:1 69450:1 69461:1 69563:1 69696:1 69846:1 70147:1 70688:1 70805:1 71278:1 71486:1 71524:1 72094:1 72978:1 73018:1 73396:1 74136:1 74146:1 74185:1 74363:1 75492:1 75715:1 75931:1 76032:1 76334:1 76618:1 76648:1 #
0.0020662179618918630023827187613961 28597:1 28613:1 28957:1 29504:1 29728:1 29904:1 30009:1 30034:1 30303:1 30691:1 30930:1 31416:1 31497:1 31814:1 32443:1 32687:1 33607:1 33622:1 34240:1 34263:1 34271:1 34360:1 34478:1 34925:1 35079:1 35210:1 35483:1 35571:1 36977:1 37043:1 37301:1 37892:1 38023:1 38151:1 38506:1 38624:1 38651:1 38863:1 38950:1 38987:1 38988:1 39163:1 39505:1 39563:1 39693:1 39696:1 39812:1 40528:1 40537:1 40550:1 40640:1 40832:1 41512:1 41618:1 41673:1 41675:1 41806:1 42148:1 42570:1 42695:1 42730:1 42826:1 42851:1 43010:1 43197:1 43400:1 43738:1 43898:1 43918:1 44182:1 44339:1 45056:1 45258:1 45288:1 46044:1 46305:1 46677:1 46687:1 46753:1 46754:1 47544:1 47610:1 48054:1 49170:1 49186:1 49564:1 49725:1 49767:1 49949:1 50006:1 50435:1 50555:1 50611:1 50655:1 50661:1 50787:1 50905:1 50962:1 51121:1 51538:1 52512:1 52544:1 52630:1 52742:1 53148:1 53366:1 53717:1 53990:1 54098:1 54146:1 54251:1 54263:1 54401:1 54402:1 54821:1 56357:1 56826:1 56898:1 57633:1 57807:1 57980:1 58169:1 58492:1 58974:1 59124:1 59706:1 59787:1 59810:1 59853:1 59883:1 59972:1 60038:1 60041:1 60157:1 60636:1 60826:1 61412:1 61875:1 61975:1 62263:1 62283:1 62462:1 62469:1 62648:1 62752:1 62811:1 63900:1 64097:1 64439:1 64703:1 64734:1 64790:1 64850:1 65082:1 65123:1 65385:1 65483:1 65689:1 66112:1 66304:1 66358:1 66472:1 66578:1 66623:1 66725:1 67620:1 67857:1 68502:1 68729:1 68770:1 68893:1 68984:1 70017:1 70099:1 70624:1 70674:1 70688:1 70724:1 70762:1 70805:1 70810:1 71074:1 71165:1 71373:1 72179:1 72184:1 72254:1 72397:1 72662:1 73252:1 73542:1 74146:1 74996:1 75285:1 75877:1 75897:1 76573:1 #
-0.0032474064365311181012963004377525 28574:1 28597:1 28957:1 30851:1 31693:1 32356:1 32443:1 32827:1 33106:1 33265:1 34900:1 35450:1 35701:1 37221:1 38988:1 39218:1 39919:1 41263:1 41678:1 42255:1 43197:1 43559:1 43738:1 46753:1 46939:1 47588:1 48048:1 50655:1 50661:1 53318:1 57558:1 58360:1 58659:1 59853:1 60113:1 62148:1 65974:1 66053:1 66578:1 66794:1 67582:1 68502:1 68508:1 68625:1 68729:1 70017:1 72294:1 74869:1 75152:1 75510:1 #
-0.0032474064365311181012963004377525 28957:1 29267:1 29470:1 29504:1 29686:1 29708:1 29904:1 30227:1 31082:1 31455:1 31552:1 31844:1 31857:1 32178:1 32234:1 32278:1 32349:1 32443:1 32860:1 33186:1 33212:1 33358:1 33602:1 33607:1 33938:1 35159:1 35282:1 35287:1 35915:1 36977:1 37360:1 37892:1 38013:1 38495:1 38528:1 38863:1 39026:1 39748:1 39851:1 40297:1 40654:1 40816:1 40832:1 41306:1 41652:1 41673:1 41678:1 42184:1 42299:1 42546:1 43398:1 43559:1 43583:1 43738:1 45128:1 45880:1 46557:1 46677:1 46753:1 46754:1 47211:1 47215:1 47254:1 47505:1 47615:1 48107:1 48291:1 48320:1 48416:1 48422:1 49666:1 50332:1 50655:1 50659:1 50661:1 50787:1 51289:1 52487:1 52529:1 52659:1 53717:1 53986:1 53992:1 54088:1 54490:1 55573:1 55982:1 57807:1 57980:1 58056:1 58130:1 59113:1 59129:1 59222:1 59882:1 59953:1 60100:1 60216:1 60391:1 60613:1 60946:1 61125:1 61522:1 62881:1 63900:1 64027:1 64097:1 64790:1 65516:1 65517:1 66112:1 67521:1 68502:1 68664:1 68729:1 68893:1 69411:1 69563:1 69846:1 69882:1 70042:1 70688:1 70762:1 71165:1 71278:1 71300:1 71309:1 71424:1 71890:1 72565:1 73119:1 73295:1 73757:1 74146:1 75526:1 75873:1 75877:1 #
-0.0032474064365311181012963004377525 28838:1 28957:1 28959:1 29407:1 29504:1 29904:1 30423:1 30511:1 31056:1 31353:1 31569:1 31666:1 31693:1 32178:1 32356:1 32443:1 32918:1 33085:1 33130:1 33293:1 33657:1 34138:1 34222:1 34386:1 34607:1 34609:1 34707:1 34852:1 34858:1 35079:1 36226:1 36977:1 37043:1 37094:1 37283:1 37407:1 37808:1 37979:1 38036:1 38868:1 38876:1 38987:1 38988:1 39071:1 39123:1 39163:1 39206:1 39246:1 39404:1 39812:1 40580:1 40599:1 40668:1 40832:1 41221:1 41675:1 41723:1 41806:1 42351:1 42369:1 43059:1 43197:1 43660:1 43738:1 43846:1 43898:1 44772:1 46011:1 46075:1 46197:1 46753:1 46939:1 47193:1 47392:1 47486:1 47557:1 47818:1 47848:1 47916:1 48416:1 48538:1 48739:1 49170:1 49354:1 49564:1 49614:1 49723:1 50177:1 50566:1 50655:1 50661:1 51060:1 51121:1 51488:1 51720:1 51788:1 52274:1 52878:1 53127:1 53424:1 53715:1 53717:1 54846:1 55381:1 56323:1 56587:1 56766:1 56901:1 56936:1 57092:1 57250:1 57295:1 57807:1 57829:1 58043:1 58056:1 58492:1 58980:1 59124:1 59266:1 59270:1 59623:1 59883:1 61513:1 61680:1 62148:1 62150:1 62580:1 62908:1 62964:1 63312:1 64180:1 64719:1 64790:1 65012:1 65082:1 65123:1 65322:1 65385:1 65514:1 66304:1 66419:1 66612:1 66725:1 66979:1 67310:1 67655:1 68037:1 68355:1 68577:1 68625:1 68729:1 69411:1 69846:1 69901:1 70017:1 70279:1 70688:1 71165:1 71382:1 72294:1 72349:1 72714:1 73057:1 73354:1 73396:1 73496:1 73522:1 73556:1 73590:1 73981:1 74325:1 74442:1 75998:1 #
-0.0032474064365311181012963004377525 28957:1 29802:1 29904:1 29974:1 30080:1 31606:1 31710:1 32443:1 32880:1 33160:1 33358:1 34150:1 34407:1 35405:1 36395:1 36977:1 37043:1 37301:1 38495:1 38507:1 38748:1 38988:1 39026:1 40248:1 40250:1 40610:1 40821:1 40832:1 41284:1 41306:1 41446:1 41665:1 41678:1 42140:1 42723:1 43197:1 43429:1 43738:1 44034:1 44159:1 45100:1 45620:1 45969:1 46753:1 46754:1 46768:1 47706:1 48416:1 48668:1 49038:1 49534:1 49725:1 49800:1 49837:1 50655:1 50661:1 51581:1 51674:1 51885:1 51910:1 52934:1 53717:1 54401:1 55263:1 57214:1 57807:1 57980:1 58056:1 58740:1 59179:1 59237:1 60536:1 61099:1 61458:1 62207:1 63845:1 64790:1 65514:1 66053:1 66910:1 67674:1 67697:1 68576:1 68577:1 68729:1 68841:1 68902:1 69255:1 70688:1 70810:1 71165:1 71309:1 71774:1 72496:1 72760:1 73515:1 73769:1 75678:1 76387:1 #
-0.0032474064365311181012963004377525 28826:1 28957:1 29128:1 29269:1 29773:1 29892:1 29904:1 30518:1 31497:1 31710:1 31844:1 32356:1 32443:1 32548:1 32880:1 33292:1 33407:1 33742:1 34230:1 35282:1 35373:1 35405:1 35417:1 35748:1 35915:1 35958:1 36977:1 37107:1 37717:1 37891:1 38046:1 38105:1 38453:1 38501:1 39145:1 39404:1 39748:1 39868:1 40610:1 40640:1 40654:1 40701:1 40832:1 41041:1 41618:1 41673:1 41678:1 42146:1 42351:1 43393:1 43681:1 43738:1 44146:1 44721:1 45749:1 45926:1 45979:1 46197:1 46242:1 46753:1 46754:1 46962:1 47718:1 47988:1 47997:1 48388:1 48438:1 49170:1 50655:1 50661:1 50983:1 51217:1 51611:1 52166:1 52487:1 53127:1 53148:1 53434:1 53613:1 53717:1 54448:1 54846:1 55675:1 56113:1 57205:1 57807:1 57847:1 57942:1 58360:1 58740:1 59135:1 59435:1 59972:1 60834:1 61125:1 61334:1 61448:1 61861:1 62877:1 63900:1 64027:1 64790:1 65123:1 65343:1 65514:1 66485:1 66578:1 66623:1 66743:1 66942:1 67291:1 68072:1 68127:1 68502:1 68729:1 69134:1 69527:1 69815:1 70688:1 70810:1 70929:1 71165:1 71492:1 72368:1 74695:1 74955:1 75567:1 75897:1 76383:1 76630:1 #
0.00098888007963403930407342290465067 28538:1 28631:1 28851:1 28875:1 28921:1 28957:1 29014:1 29056:1 29065:1 29504:1 29802:1 29875:1 29904:1 30038:1 30080:1 30102:1 30303:1 30778:1 30851:1 30954:1 32007:1 32178:1 32187:1 32443:1 32769:1 32778:1 33105:1 33468:1 33555:1 33607:1 33816:1 33826:1 34218:1 34240:1 34271:1 34468:1 34471:1 34785:1 34845:1 34891:1 34925:1 35246:1 35290:1 35340:1 35405:1 35701:1 35947:1 36182:1 36442:1 36934:1 36977:1 37301:1 37430:1 37538:1 37632:1 37892:1 37903:1 38003:1 38013:1 38224:1 38440:1 38987:1 38988:1 39026:1 39107:1 39202:1 39693:1 39748:1 39812:1 39868:1 39978:1 40550:1 40610:1 40640:1 40701:1 40832:1 41041:1 41137:1 41282:1 41306:1 41618:1 41673:1 41675:1 41678:1 41862:1 41903:1 41909:1 42001:1 42219:1 42255:1 42351:1 42357:1 42371:1 42770:1 42798:1 42905:1 43010:1 43062:1 43197:1 43392:1 43400:1 43474:1 43559:1 43571:1 43716:1 43738:1 43916:1 44034:1 44099:1 44232:1 44444:1 44721:1 44919:1 45190:1 45215:1 45485:1 45926:1 46031:1 46082:1 46197:1 46214:1 46222:1 46315:1 46389:1 46677:1 46753:1 46754:1 46768:1 46986:1 47254:1 47380:1 47544:1 47846:1 48048:1 48054:1 48213:1 48336:1 48910:1 49086:1 49170:1 49181:1 49298:1 49365:1 49380:1 49476:1 49485:1 49579:1 49626:1 49767:1 49837:1 49970:1 50007:1 50483:1 50527:1 50655:1 50661:1 51116:1 51488:1 52052:1 52097:1 52166:1 52321:1 52435:1 52512:1 52545:1 52744:1 52763:1 52837:1 53127:1 53406:1 53613:1 53717:1 53860:1 53986:1 54287:1 54401:1 54448:1 54814:1 55532:1 55892:1 55900:1 56113:1 56114:1 56176:1 56262:1 56362:1 56388:1 56433:1 56669:1 56905:1 56909:1 57432:1 57561:1 57572:1 57807:1 57923:1 57954:1 58056:1 58065:1 58539:1 59124:1 59241:1 59255:1 59857:1 59882:1 59953:1 60083:1 60188:1 60826:1 61125:1 61275:1 61428:1 61513:1 61518:1 61962:1 62282:1 62311:1 62614:1 62811:1 63057:1 63216:1 63845:1 63865:1 64097:1 64238:1 64790:1 64849:1 65012:1 65082:1 65123:1 65234:1 65328:1 65353:1 65742:1 65941:1 66104:1 66366:1 66378:1 66735:1 67377:1 67404:1 67713:1 67737:1 68072:1 68116:1 68354:1 68502:1 68635:1 68729:1 68841:1 68857:1 68893:1 69308:1 69405:1 69450:1 69563:1 69592:1 69693:1 69825:1 69846:1 70017:1 70028:1 70042:1 70054:1 70513:1 70688:1 70810:1 71165:1 71309:1 71406:1 71499:1 71519:1 72219:1 72254:1 72267:1 72349:1 72496:1 73393:1 73648:1 73686:1 73769:1 74033:1 74556:1 74587:1 74687:1 74996:1 75256:1 75696:1 75715:1 75877:1 76265:1 76401:1 76496:1 76648:1 #
0.0032474064365311181012963004377525 28957:1 29056:1 29204:1 29497:1 29634:1 29749:1 29904:1 30034:1 30125:1 30323:1 30954:1 31255:1 31710:1 32025:1 32330:1 32356:1 32443:1 32880:1 32918:1 32964:1 33624:1 34133:1 34338:1 34407:1 34464:1 35340:1 36327:1 36934:1 36977:1 37316:1 37538:1 37619:1 37707:1 37929:1 38624:1 38950:1 38987:1 38988:1 39316:1 39352:1 39516:1 39700:1 39812:1 40273:1 40517:1 40530:1 40832:1 40908:1 40924:1 41618:1 41673:1 41675:1 41678:1 42148:1 42351:1 42585:1 43197:1 43277:1 43398:1 43400:1 43571:1 43738:1 44299:1 44650:1 44779:1 46013:1 46153:1 46753:1 46754:1 46768:1 47215:1 47404:1 47544:1 48112:1 48251:1 48272:1 48416:1 48581:1 49015:1 49046:1 49138:1 49228:1 50655:1 50661:1 50670:1 50909:1 51239:1 51828:1 51880:1 52102:1 52114:1 52166:1 53406:1 53638:1 53716:1 53717:1 54175:1 54289:1 54401:1 54402:1 54469:1 55018:1 55263:1 55375:1 55706:1 55895:1 55896:1 55903:1 56012:1 56388:1 56934:1 57460:1 57807:1 58539:1 58767:1 58925:1 59340:1 59953:1 60391:1 60815:1 61116:1 61126:1 61448:1 61513:1 61633:1 61851:1 61975:1 62065:1 62811:1 62985:1 63845:1 64061:1 64632:1 64790:1 65123:1 65482:1 65752:1 66071:1 66220:1 68478:1 68502:1 68670:1 68729:1 68893:1 69399:1 69846:1 70017:1 70688:1 70718:1 70810:1 71165:1 71238:1 71910:1 71921:1 72294:1 72469:1 72529:1 72565:1 72600:1 72669:1 73012:1 73758:1 75080:1 75099:1 75257:1 75691:1 75783:1 76145:1 #
0.0032474064365311181012963004377525 28538:1 28857:1 28892:1 28957:1 28959:1 29056:1 29065:1 29407:1 29441:1 29504:1 29719:1 29765:1 29904:1 30017:1 30080:1 30102:1 30326:1 30390:1 30446:1 30572:1 30577:1 30584:1 30599:1 30778:1 30866:1 30888:1 30913:1 30930:1 30954:1 30957:1 31198:1 31631:1 31693:1 31710:1 31850:1 31947:1 32025:1 32041:1 32356:1 32391:1 32443:1 32523:1 32610:1 32678:1 32752:1 32881:1 33082:1 33120:1 33245:1 33256:1 33395:1 33437:1 33447:1 33742:1 33783:1 33816:1 34037:1 34132:1 34133:1 34140:1 34224:1 34238:1 34402:1 34416:1 34460:1 34586:1 35058:1 35089:1 35110:1 35207:1 35210:1 35340:1 35348:1 35405:1 35691:1 35705:1 35898:1 35915:1 36079:1 36403:1 36494:1 36521:1 36761:1 36934:1 36977:1 37043:1 37076:1 37080:1 37301:1 37452:1 37632:1 37732:1 37892:1 37903:1 37981:1 38224:1 38455:1 38460:1 38495:1 38582:1 38615:1 38624:1 38687:1 38795:1 38801:1 38853:1 38874:1 38931:1 38988:1 39026:1 39113:1 39320:1 39343:1 39693:1 39748:1 39812:1 39818:1 39839:1 39877:1 39910:1 39941:1 39988:1 40184:1 40299:1 40484:1 40517:1 40528:1 40537:1 40550:1 40566:1 40640:1 40701:1 40754:1 40803:1 40821:1 40832:1 40862:1 40884:1 40924:1 41109:1 41153:1 41192:1 41306:1 41396:1 41512:1 41618:1 41619:1 41673:1 41675:1 41678:1 41806:1 41937:1 42072:1 42148:1 42351:1 42501:1 42707:1 42851:1 42888:1 43049:1 43163:1 43197:1 43398:1 43400:1 43418:1 43491:1 43501:1 43528:1 43559:1 43593:1 43596:1 43626:1 43683:1 43716:1 43738:1 43853:1 43887:1 43916:1 43918:1 43944:1 43986:1 43994:1 44012:1 44146:1 44159:1 44238:1 44407:1 44443:1 44486:1 44516:1 44650:1 44704:1 44721:1 44906:1 44976:1 45056:1 45100:1 45153:1 45215:1 45406:1 45472:1 45534:1 45545:1 45747:1 45749:1 45849:1 46066:1 46082:1 46197:1 46315:1 46389:1 46557:1 46617:1 46688:1 46753:1 46754:1 46768:1 46947:1 47107:1 47254:1 47287:1 47363:1 47404:1 47610:1 47615:1 47619:1 47719:1 48029:1 48317:1 48336:1 48397:1 48416:1 48445:1 48680:1 48697:1 49086:1 49120:1 49153:1 49170:1 49177:1 49248:1 49263:1 49365:1 49429:1 49485:1 49558:1 49725:1 49826:1 49849:1 49949:1 49985:1 50655:1 50661:1 50670:1 50686:1 50803:1 50983:1 51048:1 51152:1 51375:1 51493:1 51497:1 51799:1 51871:1 52010:1 52107:1 52166:1 52280:1 52321:1 52359:1 52487:1 52665:1 52684:1 52806:1 52863:1 53040:1 53127:1 53148:1 53252:1 53406:1 53436:1 53591:1 53717:1 54314:1 54401:1 54402:1 54448:1 54450:1 54469:1 54492:1 54537:1 54686:1 54944:1 55004:1 55317:1 55340:1 55479:1 55532:1 55610:1 55646:1 55655:1 55817:1 55892:1 55895:1 56002:1 56065:1 56113:1 56127:1 56232:1 56388:1 56401:1 56507:1 56597:1 56790:1 56825:1 56901:1 56942:1 56982:1 57030:1 57214:1 57301:1 57599:1 57652:1 57807:1 57964:1 57980:1 58056:1 58089:1 58169:1 58273:1 58322:1 58342:1 58638:1 58666:1 58740:1 58891:1 58974:1 59124:1 59222:1 59225:1 59237:1 59255:1 59338:1 59373:1 59485:1 59546:1 59953:1 60021:1 60130:1 60185:1 60193:1 60440:1 60707:1 60875:1 60991:1 61125:1 61420:1 61438:1 61448:1 61490:1 61513:1 61518:1 61565:1 61576:1 61587:1 61709:1 61716:1 61875:1 62030:1 62102:1 62106:1 62190:1 62207:1 62212:1 62263:1 62268:1 62435:1 62580:1 62648:1 62667:1 62811:1 62908:1 62909:1 63127:1 63257:1 63435:1 63526:1 63700:1 63839:1 63845:1 63900:1 63953:1 64097:1 64238:1 64380:1 64424:1 64439:1 64709:1 64790:1 64841:1 64849:1 64855:1 64869:1 64908:1 64982:1 65009:1 65082:1 65123:1 65234:1 65253:1 65410:1 65412:1 65592:1 66112:1 66304:1 66372:1 66378:1 66429:1 66435:1 66578:1 66908:1 66993:1 67025:1 67226:1 67252:1 67291:1 67310:1 67354:1 67404:1 67410:1 67614:1 67636:1 67642:1 67656:1 68014:1 68166:1 68222:1 68502:1 68508:1 68521:1 68577:1 68580:1 68729:1 68959:1 69113:1 69193:1 69308:1 69319:1 69389:1 69450:1 69498:1 69499:1 69563:1 69749:1 69766:1 69825:1 69846:1 70017:1 70099:1 70174:1 70180:1 70688:1 70762:1 70810:1 70986:1 71074:1 71165:1 71171:1 71278:1 71309:1 71351:1 71418:1 71496:1 71524:1 71622:1 71638:1 71742:1 71757:1 72254:1 72294:1 72349:1 72502:1 72648:1 72669:1 72702:1 72880:1 72981:1 72984:1 73022:1 73542:1 73547:1 73662:1 73807:1 73848:1 73854:1 74146:1 74249:1 74309:1 74314:1 74572:1 74587:1 74723:1 74745:1 74851:1 74853:1 75214:1 75257:1 75421:1 75492:1 75508:1 75577:1 75691:1 75837:1 75877:1 75897:1 75930:1 76217:1 76535:1 76713:1 #
0.00070224745712582441713178749154167 28528:1 28538:1 28677:1 28730:1 28841:1 28907:1 28921:1 28957:1 28959:1 29056:1 29061:1 29065:1 29204:1 29334:1 29407:1 29494:1 29504:1 29547:1 29676:1 29696:1 29773:1 29904:1 30006:1 30017:1 30020:1 30080:1 30163:1 30408:1 30412:1 30446:1 30518:1 30584:1 30599:1 30622:1 30631:1 30778:1 30891:1 31198:1 31255:1 31693:1 31814:1 31844:1 31875:1 31881:1 31972:1 32025:1 32031:1 32075:1 32178:1 32330:1 32333:1 32356:1 32385:1 32428:1 32443:1 32543:1 32562:1 32694:1 32769:1 32860:1 32880:1 32964:1 33082:1 33217:1 33256:1 33345:1 33349:1 33607:1 33720:1 33816:1 33826:1 33878:1 34129:1 34133:1 34201:1 34240:1 34402:1 34407:1 34427:1 34464:1 34582:1 34600:1 34605:1 34849:1 34925:1 34956:1 35079:1 35210:1 35340:1 35348:1 35405:1 35487:1 35503:1 35600:1 35655:1 35701:1 35738:1 35771:1 35874:1 35915:1 35944:1 36182:1 36344:1 36395:1 36459:1 36465:1 36514:1 36542:1 36761:1 36934:1 36950:1 36977:1 37043:1 37283:1 37301:1 37369:1 37403:1 37632:1 37892:1 38040:1 38053:1 38086:1 38224:1 38322:1 38348:1 38442:1 38495:1 38506:1 38531:1 38582:1 38624:1 38686:1 38687:1 38820:1 38853:1 38987:1 38988:1 38993:1 39026:1 39113:1 39250:1 39353:1 39538:1 39693:1 39748:1 39812:1 39910:1 39978:1 39988:1 40183:1 40269:1 40294:1 40297:1 40299:1 40303:1 40338:1 40342:1 40462:1 40537:1 40550:1 40611:1 40640:1 40701:1 40714:1 40821:1 40825:1 40832:1 40860:1 41077:1 41115:1 41221:1 41263:1 41306:1 41574:1 41609:1 41618:1 41652:1 41673:1 41675:1 41678:1 42148:1 42351:1 42357:1 42452:1 42478:1 42556:1 42761:1 42776:1 43197:1 43251:1 43385:1 43392:1 43393:1 43400:1 43491:1 43514:1 43559:1 43571:1 43646:1 43716:1 43738:1 43916:1 43918:1 43944:1 43950:1 44034:1 44097:1 44407:1 44436:1 44502:1 44516:1 44772:1 44916:1 44936:1 44945:1 44958:1 45056:1 45128:1 45246:1 45362:1 45385:1 45545:1 45637:1 45797:1 45809:1 45820:1 45926:1 46011:1 46075:1 46197:1 46315:1 46677:1 46687:1 46753:1 46754:1 46768:1 46939:1 47013:1 47083:1 47142:1 47189:1 47254:1 47287:1 47332:1 47363:1 47512:1 47609:1 47610:1 47619:1 47625:1 48029:1 48082:1 48272:1 48317:1 48388:1 48416:1 48942:1 49127:1 49170:1 49365:1 49380:1 49429:1 49476:1 49532:1 49580:1 49725:1 49763:1 49800:1 49801:1 49982:1 49985:1 50158:1 50235:1 50655:1 50661:1 50670:1 50681:1 50691:1 50742:1 50755:1 50804:1 50812:1 51003:1 51213:1 51304:1 51308:1 51937:1 51990:1 52039:1 52166:1 52527:1 52544:1 52665:1 52797:1 52825:1 52838:1 52858:1 52964:1 53083:1 53109:1 53127:1 53148:1 53237:1 53513:1 53533:1 53534:1 53613:1 53717:1 53741:1 53783:1 53891:1 53964:1 54088:1 54114:1 54303:1 54314:1 54401:1 54402:1 54469:1 54644:1 54743:1 54846:1 55202:1 55263:1 55270:1 55304:1 55532:1 55597:1 55646:1 55655:1 55892:1 55895:1 55897:1 55903:1 56113:1 56360:1 56388:1 56636:1 56668:1 56669:1 56688:1 56814:1 56825:1 57005:1 57234:1 57548:1 57561:1 57573:1 57588:1 57652:1 57702:1 57807:1 57849:1 57909:1 57980:1 58072:1 58390:1 58539:1 58576:1 58597:1 58974:1 59108:1 59124:1 59135:1 59137:1 59222:1 59225:1 59241:1 59340:1 59443:1 59657:1 59810:1 59853:1 59883:1 60012:1 60021:1 60038:1 60053:1 60087:1 60301:1 60327:1 60449:1 60711:1 61120:1 61125:1 61487:1 61513:1 61522:1 61576:1 61633:1 61875:1 61962:1 62065:1 62148:1 62190:1 62207:1 62469:1 62567:1 62574:1 62580:1 62811:1 62839:1 63049:1 63467:1 63685:1 63700:1 63727:1 63845:1 63900:1 63953:1 64061:1 64380:1 64424:1 64431:1 64632:1 64790:1 64841:1 64850:1 64852:1 64855:1 64932:1 64939:1 65057:1 65082:1 65123:1 65147:1 65172:1 65176:1 65234:1 65250:1 65253:1 65410:1 65412:1 65440:1 65443:1 65483:1 65514:1 65517:1 65689:1 66053:1 66112:1 66151:1 66304:1 66578:1 66623:1 66643:1 66653:1 66735:1 66998:1 67204:1 67233:1 67287:1 67339:1 67495:1 67636:1 67642:1 67918:1 68116:1 68161:1 68165:1 68243:1 68502:1 68560:1 68577:1 68729:1 68841:1 68969:1 69125:1 69182:1 69450:1 69498:1 69563:1 69825:1 69838:1 69846:1 70017:1 70513:1 70534:1 70550:1 70688:1 70689:1 70724:1 70805:1 70810:1 70866:1 71011:1 71074:1 71165:1 71220:1 71264:1 71268:1 71299:1 71477:1 71622:1 71834:1 71855:1 71924:1 72051:1 72267:1 72277:1 72294:1 72398:1 72469:1 72714:1 72875:1 72886:1 73063:1 73230:1 73313:1 73418:1 73496:1 73614:1 73680:1 73696:1 73757:1 73769:1 73848:1 73936:1 74144:1 74146:1 74154:1 74354:1 74568:1 74856:1 74880:1 75222:1 75257:1 75347:1 75421:1 75516:1 75659:1 75754:1 75873:1 75877:1 75897:1 76010:1 76061:1 76362:1 76635:1 76678:1 #
0.0014384889060461776739974215644224 28597:1 28631:1 28685:1 28809:1 28811:1 28957:1 28959:1 29021:1 29056:1 29065:1 29204:1 29334:1 29359:1 29418:1 29442:1 29492:1 29494:1 29504:1 29578:1 29623:1 29651:1 29668:1 29670:1 29676:1 29696:1 29709:1 29773:1 29802:1 29892:1 29904:1 30009:1 30080:1 30085:1 30102:1 30162:1 30303:1 30330:1 30446:1 30518:1 30584:1 30630:1 30816:1 30851:1 30852:1 30888:1 30954:1 31000:1 31117:1 31255:1 31416:1 31551:1 31819:1 31828:1 31982:1 32125:1 32147:1 32178:1 32351:1 32356:1 32363:1 32365:1 32443:1 32744:1 32762:1 32781:1 32827:1 32878:1 33057:1 33118:1 33285:1 33362:1 33365:1 33405:1 33415:1 33539:1 33607:1 33671:1 33708:1 33742:1 33783:1 34071:1 34224:1 34292:1 34338:1 34402:1 34407:1 34582:1 34600:1 34606:1 34842:1 34845:1 34910:1 34925:1 34960:1 35031:1 35089:1 35207:1 35210:1 35282:1 35340:1 35582:1 35846:1 35859:1 35915:1 36001:1 36079:1 36182:1 36286:1 36605:1 36785:1 36875:1 36934:1 36950:1 36977:1 37043:1 37065:1 37171:1 37221:1 37254:1 37301:1 37378:1 37421:1 37459:1 37473:1 37575:1 37684:1 37818:1 37890:1 37892:1 37911:1 37935:1 37992:1 38013:1 38180:1 38322:1 38367:1 38458:1 38460:1 38473:1 38488:1 38495:1 38624:1 38853:1 38863:1 38958:1 38987:1 38988:1 38998:1 39022:1 39026:1 39069:1 39141:1 39353:1 39377:1 39522:1 39653:1 39693:1 39748:1 39812:1 39818:1 39910:1 39919:1 40184:1 40267:1 40297:1 40380:1 40528:1 40530:1 40611:1 40803:1 40821:1 40832:1 40914:1 40923:1 40924:1 41030:1 41041:1 41054:1 41063:1 41127:1 41618:1 41650:1 41652:1 41665:1 41671:1 41673:1 41675:1 41678:1 41806:1 41945:1 42001:1 42025:1 42140:1 42215:1 42275:1 42305:1 42351:1 42357:1 42402:1 42707:1 42730:1 42784:1 42908:1 43010:1 43124:1 43197:1 43265:1 43366:1 43392:1 43393:1 43398:1 43400:1 43491:1 43509:1 43545:1 43552:1 43559:1 43571:1 43660:1 43716:1 43738:1 43877:1 43969:1 44005:1 44113:1 44144:1 44248:1 44303:1 44407:1 44527:1 44570:1 44571:1 44651:1 44721:1 44822:1 44936:1 44964:1 45056:1 45362:1 45485:1 45545:1 45704:1 45804:1 45865:1 45871:1 45960:1 46197:1 46283:1 46315:1 46327:1 46474:1 46528:1 46557:1 46584:1 46617:1 46733:1 46753:1 46754:1 46768:1 46882:1 46914:1 46939:1 47013:1 47129:1 47160:1 47171:1 47220:1 47243:1 47254:1 47284:1 47332:1 47380:1 47392:1 47404:1 47441:1 47512:1 47544:1 47631:1 47735:1 47946:1 48032:1 48067:1 48088:1 48112:1 48359:1 48416:1 48530:1 48552:1 48626:1 48649:1 48650:1 48680:1 48853:1 48855:1 48887:1 48929:1 49026:1 49086:1 49149:1 49170:1 49263:1 49285:1 49315:1 49380:1 49558:1 49639:1 49725:1 49760:1 49903:1 49919:1 49931:1 49985:1 50113:1 50381:1 50515:1 50580:1 50646:1 50655:1 50661:1 50873:1 50918:1 50983:1 51060:1 51338:1 51382:1 51651:1 51674:1 52068:1 52101:1 52166:1 52333:1 52763:1 52807:1 52991:1 52996:1 53109:1 53127:1 53132:1 53148:1 53406:1 53436:1 53613:1 53713:1 53715:1 53717:1 53924:1 53936:1 54088:1 54105:1 54175:1 54196:1 54287:1 54401:1 54402:1 54469:1 54508:1 54638:1 54658:1 54777:1 54821:1 54985:1 55340:1 55372:1 55532:1 55539:1 55614:1 55627:1 55646:1 55665:1 55706:1 55796:1 55815:1 55892:1 55895:1 55897:1 55900:1 55959:1 56005:1 56012:1 56113:1 56277:1 56360:1 56388:1 56433:1 56572:1 56668:1 56757:1 57018:1 57295:1 57301:1 57454:1 57558:1 57585:1 57634:1 57702:1 57780:1 57807:1 57912:1 57963:1 57973:1 57980:1 58085:1 58360:1 58438:1 58539:1 58554:1 58638:1 58740:1 58877:1 59124:1 59129:1 59225:1 59323:1 59340:1 59373:1 59485:1 59513:1 59795:1 59810:1 59853:1 59952:1 59983:1 60021:1 60038:1 60053:1 60071:1 60087:1 60188:1 60193:1 60547:1 60625:1 60702:1 61095:1 61125:1 61158:1 61307:1 61513:1 61518:1 61576:1 61633:1 61674:1 61752:1 61875:1 61961:1 61975:1 62186:1 62299:1 62305:1 62334:1 62427:1 62567:1 62580:1 62588:1 62688:1 62732:1 62769:1 62811:1 62944:1 63049:1 63166:1 63395:1 63461:1 63469:1 63727:1 63828:1 63845:1 63900:1 63953:1 64024:1 64031:1 64082:1 64097:1 64301:1 64380:1 64409:1 64424:1 64632:1 64734:1 64745:1 64790:1 64841:1 64850:1 64861:1 65051:1 65082:1 65123:1 65146:1 65234:1 65412:1 65419:1 65483:1 65501:1 65514:1 65742:1 65752:1 65932:1 65953:1 66008:1 66021:1 66053:1 66112:1 66304:1 66349:1 66378:1 66475:1 66514:1 66578:1 66679:1 66696:1 66794:1 66808:1 66833:1 66900:1 66908:1 66910:1 66923:1 66998:1 67354:1 67477:1 67495:1 67677:1 67982:1 67991:1 68024:1 68290:1 68354:1 68364:1 68369:1 68502:1 68508:1 68670:1 68729:1 68801:1 68815:1 68893:1 69192:1 69307:1 69399:1 69402:1 69450:1 69498:1 69563:1 69686:1 69825:1 69846:1 69907:1 70017:1 70142:1 70289:1 70550:1 70641:1 70688:1 70797:1 70810:1 70929:1 70947:1 71017:1 71165:1 71222:1 71299:1 71309:1 71317:1 71337:1 71445:1 71622:1 71672:1 71921:1 71946:1 72254:1 72349:1 72403:1 72404:1 72469:1 72496:1 72648:1 72913:1 72923:1 72981:1 73005:1 73018:1 73063:1 73223:1 73391:1 73495:1 73706:1 73769:1 73784:1 73813:1 73930:1 73960:1 74064:1 74067:1 74156:1 74256:1 74288:1 74314:1 74348:1 74442:1 74587:1 74608:1 75063:1 75257:1 75492:1 75643:1 75647:1 75679:1 75691:1 75784:1 75847:1 75877:1 75998:1 76090:1 76110:1 76180:1 76330:1 76573:1 #
-0.0028594876890891572293607048038666 28636:1 28649:1 28700:1 28781:1 28957:1 28959:1 28978:1 29053:1 29056:1 29061:1 29065:1 29108:1 29153:1 29204:1 29241:1 29304:1 29359:1 29394:1 29407:1 29504:1 29660:1 29670:1 29676:1 29696:1 29702:1 29750:1 29773:1 29802:1 29904:1 30009:1 30034:1 30038:1 30080:1 30092:1 30102:1 30162:1 30303:1 30326:1 30338:1 30390:1 30446:1 30460:1 30490:1 30492:1 30511:1 30584:1 30954:1 30957:1 31030:1 31196:1 31198:1 31206:1 31299:1 31337:1 31495:1 31606:1 31620:1 31702:1 31710:1 31814:1 31844:1 31900:1 32038:1 32298:1 32333:1 32356:1 32358:1 32360:1 32443:1 32570:1 32664:1 32675:1 32881:1 32964:1 33130:1 33349:1 33363:1 33365:1 33399:1 33581:1 33607:1 33622:1 33632:1 33661:1 33692:1 33716:1 33741:1 33742:1 33783:1 33790:1 33798:1 33816:1 33832:1 33985:1 34126:1 34133:1 34224:1 34263:1 34290:1 34310:1 34338:1 34407:1 34413:1 34414:1 34464:1 34539:1 34582:1 34667:1 34712:1 34762:1 34845:1 34860:1 34925:1 35076:1 35088:1 35110:1 35282:1 35405:1 35436:1 35443:1 35450:1 35453:1 35503:1 35600:1 35691:1 35701:1 35712:1 35718:1 35874:1 35898:1 35915:1 36012:1 36149:1 36182:1 36208:1 36286:1 36291:1 36337:1 36391:1 36395:1 36444:1 36540:1 36934:1 36977:1 37043:1 37106:1 37163:1 37221:1 37252:1 37301:1 37316:1 37452:1 37473:1 37562:1 37632:1 37732:1 37824:1 37844:1 37855:1 37892:1 37903:1 37979:1 38023:1 38127:1 38163:1 38292:1 38348:1 38440:1 38442:1 38460:1 38495:1 38624:1 38675:1 38767:1 38853:1 38901:1 38988:1 39026:1 39053:1 39145:1 39347:1 39352:1 39353:1 39358:1 39401:1 39463:1 39493:1 39663:1 39692:1 39693:1 39700:1 39748:1 39812:1 39818:1 39830:1 39831:1 39929:1 39944:1 40130:1 40175:1 40186:1 40227:1 40294:1 40297:1 40299:1 40475:1 40528:1 40532:1 40550:1 40593:1 40610:1 40611:1 40625:1 40640:1 40821:1 40832:1 41041:1 41059:1 41263:1 41306:1 41471:1 41618:1 41673:1 41675:1 41678:1 41723:1 41845:1 41870:1 42034:1 42140:1 42148:1 42184:1 42351:1 42384:1 42402:1 42459:1 42546:1 42556:1 42570:1 42707:1 42771:1 42826:1 42878:1 42986:1 43010:1 43061:1 43083:1 43197:1 43233:1 43283:1 43392:1 43393:1 43398:1 43400:1 43491:1 43541:1 43559:1 43571:1 43646:1 43701:1 43716:1 43722:1 43738:1 43898:1 44182:1 44334:1 44407:1 44721:1 44833:1 44936:1 44945:1 44953:1 44958:1 44976:1 45179:1 45215:1 45485:1 45781:1 45797:1 45860:1 45926:1 45984:1 45988:1 46175:1 46197:1 46305:1 46315:1 46361:1 46389:1 46465:1 46514:1 46538:1 46598:1 46677:1 46681:1 46687:1 46749:1 46753:1 46754:1 46757:1 46768:1 46822:1 46939:1 46947:1 46958:1 47157:1 47254:1 47332:1 47370:1 47536:1 47544:1 47606:1 47619:1 47706:1 47717:1 47799:1 47848:1 47946:1 48029:1 48032:1 48135:1 48256:1 48259:1 48291:1 48314:1 48317:1 48320:1 48355:1 48365:1 48388:1 48416:1 48524:1 48626:1 48646:1 48676:1 48858:1 49004:1 49086:1 49143:1 49150:1 49166:1 49170:1 49186:1 49365:1 49380:1 49532:1 49636:1 49725:1 49727:1 49818:1 49917:1 49949:1 49970:1 50006:1 50142:1 50419:1 50435:1 50483:1 50552:1 50629:1 50655:1 50657:1 50661:1 50670:1 50803:1 50962:1 51121:1 51152:1 51236:1 51304:1 51308:1 51493:1 51549:1 51557:1 51587:1 51597:1 51871:1 51973:1 52101:1 52154:1 52274:1 52321:1 52333:1 52488:1 52721:1 52753:1 52858:1 52934:1 52964:1 53059:1 53127:1 53148:1 53239:1 53406:1 53452:1 53513:1 53593:1 53613:1 53713:1 53715:1 53717:1 54144:1 54146:1 54390:1 54401:1 54448:1 54798:1 54848:1 55117:1 55465:1 55529:1 55532:1 55556:1 55646:1 55647:1 55706:1 55892:1 55895:1 56012:1 56113:1 56232:1 56243:1 56251:1 56255:1 56275:1 56388:1 56393:1 56395:1 56447:1 56627:1 56669:1 56826:1 56901:1 56909:1 56982:1 57127:1 57214:1 57371:1 57548:1 57556:1 57577:1 57702:1 57807:1 57835:1 57847:1 57883:1 57951:1 57963:1 57980:1 58022:1 58043:1 58056:1 58179:1 58352:1 58476:1 58503:1 58539:1 58562:1 58597:1 58601:1 58626:1 58629:1 58631:1 58662:1 58740:1 58760:1 58839:1 58925:1 59024:1 59101:1 59124:1 59192:1 59222:1 59225:1 59237:1 59241:1 59258:1 59266:1 59338:1 59340:1 59362:1 59792:1 59810:1 59833:1 59853:1 59953:1 59959:1 59973:1 60012:1 60038:1 60157:1 60536:1 60572:1 60616:1 60625:1 60692:1 60702:1 60716:1 60736:1 60789:1 60919:1 60973:1 61064:1 61120:1 61125:1 61494:1 61513:1 61576:1 61608:1 61633:1 61847:1 61875:1 61903:1 61949:1 61962:1 61965:1 61966:1 62028:1 62148:1 62158:1 62207:1 62263:1 62282:1 62305:1 62439:1 62479:1 62505:1 62580:1 62688:1 62811:1 62872:1 62877:1 62998:1 63049:1 63127:1 63213:1 63217:1 63467:1 63529:1 63685:1 63700:1 63718:1 63845:1 63861:1 63900:1 63953:1 64031:1 64086:1 64151:1 64215:1 64217:1 64238:1 64380:1 64584:1 64654:1 64734:1 64745:1 64790:1 64792:1 64841:1 64849:1 64850:1 64855:1 64922:1 64998:1 65082:1 65118:1 65123:1 65147:1 65176:1 65188:1 65245:1 65253:1 65382:1 65385:1 65421:1 65426:1 65429:1 65440:1 65450:1 65514:1 65517:1 65742:1 65764:1 65788:1 65916:1 66018:1 66053:1 66056:1 66112:1 66304:1 66358:1 66419:1 66429:1 66435:1 66480:1 66565:1 66578:1 66735:1 66760:1 66820:1 66899:1 67048:1 67221:1 67291:1 67345:1 67354:1 67410:1 67414:1 67493:1 67617:1 67697:1 67778:1 67898:1 68108:1 68116:1 68127:1 68129:1 68354:1 68471:1 68478:1 68502:1 68507:1 68508:1 68577:1 68625:1 68729:1 68893:1 68959:1 68969:1 69005:1 69125:1 69308:1 69498:1 69563:1 69787:1 69815:1 69821:1 69846:1 69882:1 69886:1 69974:1 70017:1 70239:1 70245:1 70688:1 70689:1 70724:1 70762:1 70810:1 70853:1 70905:1 70986:1 71165:1 71244:1 71278:1 71291:1 71300:1 71301:1 71309:1 71519:1 71524:1 71531:1 71586:1 71622:1 71627:1 71742:1 71834:1 71933:1 72074:1 72077:1 72184:1 72210:1 72254:1 72288:1 72301:1 72448:1 72600:1 72662:1 72731:1 72981:1 73057:1 73063:1 73187:1 73284:1 73309:1 73326:1 73339:1 73396:1 73400:1 73419:1 73552:1 73769:1 73848:1 73854:1 73909:1 73923:1 73983:1 74309:1 74350:1 74572:1 74587:1 74680:1 74690:1 74856:1 74935:1 75152:1 75161:1 75257:1 75326:1 75353:1 75492:1 75616:1 75643:1 75758:1 75764:1 75862:1 75877:1 75897:1 76090:1 76130:1 76334:1 76557:1 76573:1 76648:1 #
-0.0019024699814378367643263878505877 28538:1 28631:1 28649:1 28661:1 28700:1 28811:1 28826:1 28957:1 28959:1 29056:1 29065:1 29072:1 29108:1 29204:1 29407:1 29410:1 29473:1 29504:1 29555:1 29623:1 29676:1 29696:1 29709:1 29719:1 29735:1 29904:1 30034:1 30048:1 30080:1 30091:1 30117:1 30303:1 30408:1 30584:1 30620:1 30673:1 30766:1 30778:1 30927:1 30954:1 31082:1 31087:1 31198:1 31343:1 31361:1 31416:1 31496:1 31497:1 31526:1 31551:1 31560:1 31693:1 31723:1 31759:1 31844:1 31850:1 32007:1 32147:1 32178:1 32218:1 32278:1 32333:1 32356:1 32358:1 32385:1 32436:1 32443:1 32769:1 32964:1 33057:1 33099:1 33204:1 33256:1 33362:1 33365:1 33399:1 33437:1 33557:1 33622:1 33692:1 33742:1 33783:1 34009:1 34057:1 34106:1 34238:1 34240:1 34263:1 34368:1 34464:1 34582:1 35031:1 35210:1 35282:1 35339:1 35340:1 35405:1 35436:1 35443:1 35450:1 35453:1 35472:1 35508:1 35691:1 35806:1 35898:1 35913:1 35915:1 35944:1 35991:1 36104:1 36442:1 36444:1 36459:1 36494:1 36540:1 36542:1 36548:1 36746:1 36934:1 36977:1 37043:1 37099:1 37221:1 37274:1 37301:1 37442:1 37452:1 37538:1 37575:1 37622:1 37663:1 37732:1 37799:1 37852:1 37892:1 37935:1 37948:1 38013:1 38018:1 38086:1 38134:1 38224:1 38348:1 38442:1 38460:1 38495:1 38563:1 38588:1 38624:1 38675:1 38748:1 38853:1 38891:1 38987:1 38988:1 39015:1 39026:1 39243:1 39246:1 39352:1 39377:1 39539:1 39693:1 39748:1 39750:1 39812:1 39851:1 39910:1 39916:1 39952:1 40051:1 40183:1 40267:1 40318:1 40380:1 40528:1 40550:1 40611:1 40627:1 40640:1 40654:1 40701:1 40803:1 40821:1 40832:1 40887:1 40932:1 40972:1 41073:1 41127:1 41221:1 41263:1 41284:1 41306:1 41618:1 41671:1 41673:1 41675:1 41678:1 41791:1 41805:1 41806:1 41863:1 41870:1 41974:1 42025:1 42079:1 42105:1 42146:1 42148:1 42219:1 42305:1 42351:1 42371:1 42402:1 42415:1 42437:1 42493:1 42553:1 42707:1 42712:1 42788:1 42830:1 42851:1 42925:1 42996:1 43010:1 43114:1 43136:1 43197:1 43392:1 43400:1 43491:1 43559:1 43571:1 43646:1 43738:1 43791:1 43918:1 44099:1 44146:1 44178:1 44180:1 44182:1 44404:1 44407:1 44465:1 44489:1 44513:1 44627:1 44721:1 44772:1 44867:1 44936:1 44957:1 44976:1 45056:1 45100:1 45165:1 45190:1 45215:1 45257:1 45360:1 45385:1 45485:1 45531:1 45545:1 45558:1 45749:1 45762:1 45797:1 45874:1 45880:1 45922:1 45926:1 45958:1 46075:1 46080:1 46153:1 46197:1 46361:1 46389:1 46638:1 46687:1 46753:1 46754:1 46768:1 47013:1 47083:1 47161:1 47220:1 47254:1 47268:1 47332:1 47512:1 47521:1 47610:1 47615:1 47619:1 47642:1 47736:1 47777:1 47830:1 47845:1 47921:1 48048:1 48221:1 48251:1 48259:1 48272:1 48291:1 48317:1 48388:1 48416:1 48541:1 49002:1 49065:1 49170:1 49181:1 49186:1 49314:1 49365:1 49377:1 49380:1 49404:1 49557:1 49602:1 49617:1 49635:1 49640:1 49644:1 49725:1 49907:1 49949:1 50655:1 50661:1 50670:1 50730:1 50759:1 50804:1 50812:1 50983:1 51452:1 51587:1 51638:1 51651:1 51674:1 51788:1 51799:1 52398:1 52484:1 52544:1 52633:1 53016:1 53127:1 53140:1 53148:1 53265:1 53400:1 53406:1 53513:1 53542:1 53562:1 53613:1 53717:1 53741:1 53773:1 53927:1 54114:1 54203:1 54401:1 54402:1 54448:1 54495:1 54686:1 54821:1 54846:1 54848:1 54987:1 55043:1 55128:1 55192:1 55412:1 55532:1 55556:1 55573:1 55646:1 55864:1 55895:1 55938:1 56105:1 56113:1 56127:1 56131:1 56187:1 56232:1 56255:1 56275:1 56313:1 56388:1 56440:1 56507:1 56587:1 56606:1 56639:1 56716:1 56826:1 56901:1 56905:1 57214:1 57218:1 57438:1 57700:1 57702:1 57807:1 57847:1 57909:1 57956:1 57980:1 58013:1 58056:1 58360:1 58395:1 58532:1 58539:1 58629:1 58711:1 58740:1 58792:1 58877:1 58973:1 59028:1 59063:1 59108:1 59222:1 59225:1 59241:1 59245:1 59254:1 59326:1 59340:1 59373:1 59568:1 59574:1 59650:1 59729:1 59753:1 59810:1 59853:1 59883:1 59953:1 59992:1 60012:1 60021:1 60053:1 60193:1 60285:1 60415:1 60605:1 60625:1 60702:1 60711:1 60826:1 60919:1 60946:1 61125:1 61203:1 61238:1 61323:1 61513:1 61626:1 61633:1 61720:1 61803:1 61975:1 62263:1 62282:1 62303:1 62305:1 62410:1 62439:1 62566:1 62580:1 62766:1 62779:1 62811:1 62872:1 62916:1 62927:1 63085:1 63127:1 63185:1 63216:1 63529:1 63567:1 63700:1 63790:1 63845:1 63867:1 63900:1 63953:1 64027:1 64097:1 64238:1 64256:1 64376:1 64431:1 64654:1 64663:1 64671:1 64776:1 64790:1 64850:1 64855:1 64893:1 64932:1 64982:1 65012:1 65082:1 65083:1 65123:1 65147:1 65176:1 65253:1 65302:1 65344:1 65359:1 65382:1 65385:1 65429:1 65455:1 65483:1 65603:1 65655:1 65668:1 65719:1 65816:1 65842:1 65964:1 66018:1 66053:1 66112:1 66151:1 66270:1 66304:1 66334:1 66378:1 66429:1 66457:1 66578:1 66626:1 66634:1 66908:1 67025:1 67252:1 67287:1 67291:1 67404:1 67582:1 67642:1 67716:1 67863:1 67906:1 67940:1 67960:1 68072:1 68211:1 68354:1 68407:1 68465:1 68471:1 68502:1 68508:1 68576:1 68729:1 68841:1 68850:1 68893:1 69084:1 69125:1 69182:1 69307:1 69323:1 69450:1 69498:1 69563:1 69846:1 69882:1 69907:1 70017:1 70111:1 70147:1 70191:1 70197:1 70239:1 70534:1 70624:1 70688:1 70689:1 70749:1 70762:1 70810:1 70845:1 71090:1 71097:1 71165:1 71221:1 71299:1 71300:1 71309:1 71455:1 71485:1 71486:1 71519:1 71536:1 71622:1 71699:1 71742:1 71955:1 72131:1 72210:1 72254:1 72349:1 72496:1 72502:1 72648:1 72714:1 72805:1 72827:1 73031:1 73063:1 73153:1 73161:1 73396:1 73517:1 73614:1 73769:1 73983:1 74014:1 74067:1 74146:1 74151:1 74204:1 74253:1 74314:1 74363:1 74387:1 74439:1 74608:1 74615:1 74656:1 74783:1 74851:1 74856:1 74985:1 75069:1 75080:1 75214:1 75257:1 75329:1 75500:1 75616:1 75657:1 75877:1 75897:1 76256:1 76362:1 76557:1 76573:1 #
-0.00097201530110680497281938627907039 28957:1 28959:1 29056:1 29061:1 29065:1 29095:1 29204:1 29273:1 29334:1 29504:1 29696:1 29730:1 29773:1 29904:1 29922:1 30056:1 30080:1 30085:1 30117:1 30303:1 30345:1 30423:1 30430:1 30584:1 30673:1 30778:1 30897:1 30954:1 31217:1 31255:1 31279:1 31287:1 31360:1 31392:1 31440:1 31497:1 31672:1 31693:1 31695:1 32131:1 32154:1 32179:1 32216:1 32356:1 32385:1 32418:1 32443:1 32624:1 32664:1 32694:1 32729:1 32877:1 32964:1 33183:1 33287:1 33314:1 33397:1 33405:1 33447:1 33471:1 33554:1 33607:1 33826:1 34038:1 34061:1 34071:1 34075:1 34129:1 34167:1 34224:1 34338:1 34402:1 34407:1 34414:1 34464:1 34527:1 34539:1 34731:1 34797:1 34845:1 34910:1 34925:1 34972:1 35204:1 35210:1 35282:1 35340:1 35405:1 35483:1 35571:1 35701:1 35812:1 35915:1 35986:1 36001:1 36012:1 36079:1 36135:1 36138:1 36182:1 36444:1 36796:1 36909:1 36934:1 36977:1 37043:1 37107:1 37117:1 37125:1 37149:1 37288:1 37301:1 37372:1 37732:1 37892:1 37903:1 38018:1 38303:1 38348:1 38440:1 38495:1 38506:1 38733:1 38748:1 38820:1 38853:1 38988:1 39022:1 39026:1 39040:1 39377:1 39467:1 39517:1 39531:1 39539:1 39693:1 39748:1 39812:1 39832:1 39910:1 39919:1 39941:1 40250:1 40252:1 40259:1 40297:1 40380:1 40528:1 40550:1 40593:1 40610:1 40640:1 40801:1 40803:1 40808:1 40821:1 40832:1 40924:1 41011:1 41041:1 41050:1 41306:1 41574:1 41618:1 41619:1 41652:1 41673:1 41675:1 41678:1 41784:1 41937:1 42072:1 42148:1 42282:1 42351:1 42357:1 42478:1 42707:1 42730:1 42795:1 42968:1 43010:1 43124:1 43197:1 43265:1 43389:1 43392:1 43398:1 43400:1 43491:1 43509:1 43571:1 43583:1 43738:1 43740:1 43996:1 44121:1 44146:1 44363:1 44370:1 44521:1 44570:1 44585:1 44721:1 44751:1 44820:1 44906:1 44936:1 44941:1 44948:1 44958:1 44962:1 45056:1 45148:1 45406:1 45527:1 45545:1 45684:1 45704:1 45736:1 45871:1 45906:1 45926:1 45939:1 46197:1 46360:1 46557:1 46700:1 46753:1 46754:1 46768:1 46922:1 46938:1 46949:1 46964:1 47107:1 47171:1 47252:1 47370:1 47452:1 47453:1 47502:1 47512:1 47610:1 47706:1 47718:1 47799:1 47846:1 47907:1 47946:1 47959:1 47997:1 48034:1 48112:1 48268:1 48317:1 48334:1 48416:1 48445:1 48530:1 48597:1 48686:1 48822:1 48983:1 49002:1 49170:1 49263:1 49365:1 49380:1 49404:1 49558:1 49632:1 49725:1 49760:1 49767:1 49919:1 49926:1 49949:1 49985:1 50220:1 50366:1 50406:1 50505:1 50629:1 50655:1 50661:1 50666:1 50670:1 50787:1 50921:1 50983:1 51025:1 51213:1 51222:1 51351:1 51571:1 51674:1 51711:1 51791:1 52101:1 52166:1 52435:1 52526:1 52665:1 52742:1 52744:1 52838:1 52938:1 52996:1 53040:1 53127:1 53148:1 53303:1 53318:1 53334:1 53406:1 53513:1 53613:1 53713:1 53716:1 53717:1 53911:1 54121:1 54280:1 54402:1 54441:1 54470:1 54685:1 54703:1 54821:1 54836:1 54848:1 54856:1 55339:1 55340:1 55532:1 55573:1 55580:1 55646:1 55881:1 55892:1 55895:1 55900:1 56032:1 56043:1 56065:1 56105:1 56255:1 56313:1 56388:1 56433:1 56554:1 56669:1 56820:1 56825:1 56982:1 57088:1 57197:1 57319:1 57801:1 57807:1 57853:1 57970:1 57997:1 58056:1 58091:1 58104:1 58169:1 58214:1 58352:1 58360:1 58492:1 58540:1 58740:1 58891:1 59099:1 59101:1 59124:1 59178:1 59222:1 59225:1 59241:1 59296:1 59302:1 59340:1 59373:1 59485:1 59502:1 59810:1 59853:1 59855:1 59882:1 59883:1 60012:1 60021:1 60038:1 60185:1 60193:1 60211:1 60415:1 61060:1 61125:1 61129:1 61175:1 61448:1 61496:1 61513:1 61518:1 61576:1 61639:1 61725:1 62190:1 62263:1 62307:1 62505:1 62580:1 62755:1 62811:1 62872:1 62954:1 62995:1 63127:1 63223:1 63529:1 63685:1 63700:1 63718:1 63764:1 63845:1 63873:1 63900:1 63917:1 63998:1 64082:1 64097:1 64151:1 64238:1 64380:1 64534:1 64663:1 64790:1 64841:1 64850:1 64855:1 64939:1 65057:1 65082:1 65123:1 65176:1 65410:1 65505:1 65514:1 65668:1 65719:1 65757:1 65833:1 65916:1 66053:1 66286:1 66304:1 66358:1 66473:1 66565:1 66578:1 66696:1 66735:1 66908:1 67019:1 67233:1 67291:1 67377:1 67571:1 67614:1 67636:1 67708:1 67713:1 67960:1 68055:1 68127:1 68165:1 68224:1 68354:1 68364:1 68502:1 68508:1 68729:1 68803:1 68823:1 68840:1 68841:1 68893:1 68910:1 68939:1 68978:1 68997:1 69062:1 69079:1 69084:1 69125:1 69195:1 69269:1 69399:1 69450:1 69498:1 69563:1 69799:1 69825:1 69846:1 69964:1 69974:1 70017:1 70159:1 70206:1 70534:1 70688:1 70724:1 70810:1 70845:1 71031:1 71074:1 71104:1 71165:1 71275:1 71279:1 71309:1 71445:1 71519:1 71609:1 71619:1 71849:1 71952:1 71955:1 72100:1 72254:1 72294:1 72349:1 72648:1 72669:1 72981:1 73041:1 73162:1 73224:1 73270:1 73396:1 73495:1 73515:1 73541:1 73547:1 73624:1 73769:1 74050:1 74053:1 74083:1 74568:1 74587:1 74696:1 74700:1 74955:1 75204:1 75214:1 75223:1 75257:1 75492:1 75520:1 75613:1 75616:1 75643:1 75647:1 75877:1 75897:1 76053:1 76090:1 76180:1 76217:1 76401:1 76541:1 76573:1 76596:1 76656:1 #
-0.0011903697900404238557703351375494 28502:1 28538:1 28631:1 28841:1 28857:1 28892:1 28957:1 28959:1 29056:1 29065:1 29334:1 29418:1 29504:1 29676:1 29696:1 29773:1 29802:1 29892:1 29904:1 29922:1 29928:1 30017:1 30056:1 30080:1 30117:1 30215:1 30303:1 30408:1 30434:1 30490:1 30518:1 30577:1 30584:1 30638:1 30778:1 30852:1 30866:1 30968:1 31082:1 31255:1 31497:1 31693:1 31710:1 31759:1 31844:1 32024:1 32187:1 32244:1 32278:1 32298:1 32333:1 32356:1 32358:1 32385:1 32443:1 32495:1 32627:1 32678:1 32827:1 32882:1 32951:1 32964:1 33204:1 33212:1 33365:1 33607:1 33608:1 33622:1 33741:1 33742:1 33745:1 33854:1 33918:1 33937:1 34071:1 34097:1 34133:1 34224:1 34238:1 34290:1 34338:1 34402:1 34407:1 34441:1 34608:1 34754:1 34858:1 34861:1 34944:1 35031:1 35210:1 35282:1 35325:1 35405:1 35503:1 35571:1 35701:1 35771:1 35975:1 36012:1 36061:1 36182:1 36275:1 36286:1 36545:1 36570:1 36813:1 36861:1 36934:1 36977:1 37043:1 37055:1 37099:1 37126:1 37251:1 37301:1 37452:1 37492:1 37538:1 37622:1 37632:1 37660:1 37892:1 38086:1 38105:1 38374:1 38423:1 38433:1 38455:1 38488:1 38495:1 38506:1 38624:1 38687:1 38748:1 38854:1 38987:1 38988:1 39026:1 39119:1 39353:1 39471:1 39573:1 39693:1 39812:1 39818:1 39910:1 39971:1 40183:1 40191:1 40297:1 40505:1 40537:1 40550:1 40565:1 40610:1 40611:1 40640:1 40701:1 40821:1 40825:1 40832:1 40838:1 40980:1 40986:1 41041:1 41115:1 41263:1 41306:1 41329:1 41346:1 41609:1 41618:1 41652:1 41673:1 41675:1 41678:1 41723:1 41732:1 41791:1 41801:1 41806:1 41937:1 41950:1 42001:1 42148:1 42184:1 42351:1 42371:1 42402:1 42467:1 42546:1 42684:1 42707:1 42747:1 42831:1 42836:1 42851:1 42995:1 43049:1 43098:1 43150:1 43197:1 43251:1 43362:1 43392:1 43393:1 43398:1 43400:1 43491:1 43559:1 43571:1 43738:1 43847:1 43853:1 43916:1 44248:1 44407:1 44516:1 44585:1 44721:1 44772:1 44906:1 44936:1 44958:1 44976:1 45010:1 45100:1 45108:1 45128:1 45149:1 45169:1 45257:1 45425:1 45485:1 45731:1 45797:1 45926:1 45958:1 46041:1 46075:1 46153:1 46172:1 46197:1 46248:1 46315:1 46361:1 46545:1 46579:1 46598:1 46677:1 46687:1 46753:1 46754:1 46768:1 46914:1 46947:1 47002:1 47083:1 47107:1 47118:1 47120:1 47142:1 47171:1 47201:1 47254:1 47290:1 47334:1 47401:1 47404:1 47469:1 47491:1 47512:1 47544:1 47615:1 47629:1 47818:1 48029:1 48032:1 48291:1 48388:1 48416:1 48680:1 48953:1 49127:1 49170:1 49186:1 49263:1 49365:1 49378:1 49380:1 49476:1 49485:1 49531:1 49564:1 49725:1 49810:1 49949:1 50076:1 50085:1 50241:1 50366:1 50408:1 50493:1 50515:1 50655:1 50661:1 50670:1 50804:1 50812:1 50983:1 50993:1 51064:1 51121:1 51314:1 51446:1 51493:1 51579:1 51630:1 51674:1 51691:1 51758:1 51788:1 52039:1 52101:1 52146:1 52166:1 52487:1 52514:1 52742:1 53035:1 53127:1 53148:1 53474:1 53533:1 53562:1 53613:1 53717:1 53775:1 53927:1 54121:1 54215:1 54227:1 54346:1 54401:1 54402:1 54821:1 54836:1 54846:1 54856:1 55112:1 55381:1 55429:1 55532:1 55552:1 55573:1 55579:1 55610:1 55646:1 55796:1 55892:1 55895:1 56113:1 56344:1 56360:1 56388:1 56433:1 56669:1 56814:1 56825:1 56905:1 57214:1 57352:1 57495:1 57807:1 57850:1 57962:1 57980:1 57990:1 58056:1 58104:1 58273:1 58321:1 58484:1 58740:1 58974:1 59124:1 59192:1 59225:1 59241:1 59254:1 59340:1 59810:1 59826:1 59834:1 59853:1 59883:1 60038:1 60092:1 60107:1 60309:1 61120:1 61125:1 61281:1 61513:1 61576:1 61633:1 62030:1 62096:1 62291:1 62313:1 62342:1 62461:1 62566:1 62580:1 62590:1 62811:1 62877:1 63049:1 63127:1 63170:1 63281:1 63845:1 63900:1 64031:1 64097:1 64238:1 64397:1 64703:1 64790:1 64841:1 64855:1 64939:1 65082:1 65123:1 65176:1 65235:1 65412:1 65419:1 65429:1 65440:1 65483:1 65517:1 65613:1 65764:1 65818:1 66047:1 66053:1 66112:1 66138:1 66304:1 66429:1 66578:1 66735:1 66887:1 67291:1 67339:1 67457:1 67684:1 67688:1 68053:1 68161:1 68342:1 68410:1 68502:1 68507:1 68508:1 68577:1 68605:1 68625:1 68729:1 68840:1 68893:1 69125:1 69389:1 69399:1 69450:1 69563:1 69825:1 69846:1 70017:1 70028:1 70159:1 70358:1 70534:1 70640:1 70688:1 70689:1 70762:1 70805:1 70810:1 70898:1 70986:1 71074:1 71165:1 71238:1 71291:1 71299:1 71300:1 71309:1 71519:1 71595:1 71622:1 71699:1 71770:1 72116:1 72254:1 72276:1 72349:1 72448:1 72541:1 72648:1 72981:1 73018:1 73119:1 73153:1 73204:1 73224:1 73284:1 73298:1 73495:1 73769:1 74098:1 74146:1 74325:1 74587:1 74690:1 74838:1 74853:1 74912:1 74985:1 75218:1 75257:1 75295:1 75492:1 75696:1 75877:1 75897:1 75907:1 75916:1 76265:1 76285:1 76573:1 76635:1 76648:1 #
0.0011648845489402280539703582462607 28538:1 28700:1 28957:1 28959:1 29065:1 29187:1 29504:1 29904:1 30009:1 30303:1 30492:1 30511:1 30584:1 30599:1 31113:1 31233:1 31347:1 31784:1 32356:1 32385:1 32443:1 32664:1 32733:1 33130:1 33289:1 33314:1 33349:1 33365:1 33539:1 33608:1 33671:1 33692:1 33742:1 33816:1 34227:1 34464:1 34600:1 35031:1 35282:1 35405:1 35424:1 35655:1 36337:1 36444:1 36934:1 36977:1 36997:1 37043:1 37221:1 37892:1 37903:1 38093:1 38433:1 38455:1 38624:1 38692:1 38958:1 38987:1 38988:1 39026:1 39113:1 39159:1 39246:1 39353:1 39505:1 39693:1 39732:1 39812:1 39971:1 39988:1 40122:1 40267:1 40297:1 40640:1 40701:1 40708:1 40748:1 40821:1 40832:1 40884:1 41073:1 41306:1 41618:1 41673:1 41675:1 41678:1 41806:1 41937:1 42148:1 42275:1 42351:1 42381:1 42545:1 42598:1 42695:1 42987:1 43022:1 43392:1 43400:1 43436:1 43509:1 43559:1 43571:1 43738:1 43905:1 44144:1 44521:1 44586:1 44704:1 44906:1 45289:1 45545:1 45865:1 46274:1 46285:1 46753:1 46754:1 46768:1 46914:1 46958:1 47254:1 47332:1 47401:1 47647:1 48251:1 48416:1 48827:1 49168:1 49170:1 49506:1 49949:1 50006:1 50094:1 50479:1 50655:1 50661:1 50670:1 50757:1 50787:1 50918:1 50996:1 51213:1 51308:1 51538:1 51799:1 51942:1 51945:1 52101:1 52607:1 52742:1 53127:1 53515:1 53613:1 53715:1 53717:1 53916:1 54686:1 55087:1 55304:1 55573:1 55646:1 55895:1 56113:1 56262:1 56669:1 56688:1 57169:1 57599:1 57807:1 57980:1 58196:1 59040:1 59108:1 59254:1 59338:1 59546:1 59810:1 59883:1 60193:1 60528:1 60869:1 61125:1 61513:1 61576:1 61741:1 62090:1 62190:1 62811:1 63044:1 63526:1 63591:1 63722:1 63764:1 63900:1 64436:1 64661:1 64776:1 64790:1 64855:1 65176:1 65234:1 65284:1 65404:1 65412:1 65482:1 65517:1 66053:1 66112:1 66236:1 66304:1 66480:1 66578:1 66586:1 67131:1 67495:1 67735:1 68084:1 68129:1 68502:1 68508:1 68729:1 69450:1 69785:1 69825:1 69846:1 70017:1 70534:1 70641:1 70688:1 70689:1 70810:1 70929:1 70986:1 71165:1 71254:1 71278:1 71309:1 71351:1 71524:1 71622:1 72875:1 73393:1 73419:1 73958:1 74144:1 74146:1 74668:1 75257:1 75426:1 75877:1 75897:1 76180:1 76284:1 #
0.0032474064365311181012963004377525 28538:1 28826:1 28846:1 28957:1 29904:1 30019:1 30307:1 30599:1 31759:1 32443:1 34427:1 35340:1 36444:1 37043:1 37343:1 38301:1 38988:1 39748:1 40550:1 40610:1 41415:1 41562:1 41678:1 42351:1 43049:1 43197:1 43681:1 43723:1 43738:1 44015:1 44367:1 44721:1 45620:1 46753:1 46754:1 48416:1 48746:1 49727:1 50661:1 50670:1 51674:1 52166:1 53239:1 53513:1 54401:1 55430:1 56127:1 56913:1 57214:1 58411:1 59991:1 60837:1 63260:1 63823:1 64212:1 64790:1 64841:1 64855:1 65517:1 66304:1 66366:1 67119:1 67507:1 68502:1 68729:1 69125:1 69846:1 70054:1 70534:1 70688:1 70986:1 71165:1 71905:1 72008:1 73326:1 73494:1 75678:1 76678:1 #
0.0032474064365311181012963004377525 28957:1 29095:1 29904:1 30408:1 31051:1 31082:1 31347:1 31532:1 31693:1 31786:1 32356:1 32443:1 33289:1 33405:1 34609:1 35130:1 35365:1 36977:1 37452:1 37892:1 37979:1 38013:1 38495:1 40124:1 40610:1 40832:1 40999:1 41618:1 41673:1 41675:1 42184:1 42301:1 42740:1 43087:1 43559:1 43738:1 44248:1 44373:1 45545:1 45629:1 46197:1 46753:1 46754:1 47332:1 47606:1 49170:1 49379:1 49398:1 50661:1 51220:1 52005:1 53613:1 53717:1 54401:1 54846:1 55532:1 56526:1 56667:1 56747:1 57134:1 57807:1 58114:1 58476:1 59810:1 59923:1 60063:1 60928:1 61125:1 61345:1 61513:1 62782:1 62872:1 63485:1 64790:1 64868:1 65056:1 65123:1 65441:1 65833:1 65870:1 65941:1 65981:1 66053:1 66112:1 66304:1 67291:1 68296:1 68354:1 68407:1 68502:1 68672:1 68729:1 68801:1 69307:1 69846:1 70688:1 71165:1 71274:1 71891:1 72254:1 72349:1 72714:1 72770:1 73144:1 74476:1 #
0.0032474064365311181012963004377525 28499:1 28957:1 29533:1 29585:1 29676:1 29802:1 29904:1 30080:1 30303:1 31606:1 31710:1 31969:1 32133:1 32292:1 32333:1 32356:1 32443:1 33105:1 33969:1 34240:1 34338:1 35058:1 35103:1 35405:1 35759:1 35866:1 36605:1 36934:1 36977:1 37764:1 37784:1 37935:1 38292:1 38444:1 38868:1 38876:1 38906:1 38971:1 38988:1 39353:1 39463:1 39851:1 40267:1 40281:1 40610:1 40619:1 41609:1 41675:1 41678:1 41806:1 42351:1 42968:1 43372:1 43681:1 43738:1 44012:1 44569:1 44721:1 45339:1 45360:1 46753:1 47404:1 47901:1 48446:1 48686:1 48831:1 49030:1 49170:1 49490:1 49767:1 50661:1 51060:1 51222:1 51630:1 51799:1 52039:1 52742:1 52807:1 52869:1 53127:1 53152:1 53715:1 53717:1 53768:1 54448:1 55273:1 55412:1 55646:1 57234:1 57551:1 57588:1 57807:1 57980:1 58056:1 59502:1 59608:1 59853:1 60384:1 60736:1 61513:1 62303:1 62469:1 62955:1 62998:1 63015:1 63685:1 64373:1 64790:1 65250:1 65668:1 66021:1 66735:1 67233:1 67445:1 67577:1 68083:1 68407:1 68729:1 68752:1 68893:1 69447:1 69450:1 69454:1 69563:1 69846:1 69882:1 70017:1 70028:1 70604:1 70688:1 71147:1 71766:1 72254:1 72641:1 72764:1 72913:1 73380:1 73445:1 73757:1 73769:1 74518:1 75643:1 #
0.0032474064365311181012963004377525 28957:1 29504:1 29904:1 30080:1 30303:1 30518:1 31056:1 31606:1 31844:1 32356:1 32443:1 33130:1 33212:1 33945:1 34102:1 35089:1 36079:1 36174:1 36977:1 37452:1 38853:1 39026:1 39113:1 39221:1 39812:1 40297:1 40640:1 40701:1 40832:1 41091:1 41618:1 41673:1 41675:1 42351:1 42460:1 43697:1 43738:1 44373:1 45410:1 46753:1 46754:1 46768:1 47254:1 47268:1 48336:1 48566:1 50661:1 52039:1 52482:1 52824:1 53127:1 53717:1 55462:1 56167:1 56255:1 57438:1 57807:1 57870:1 58539:1 60946:1 61576:1 64638:1 64790:1 64939:1 65057:1 65082:1 65176:1 65419:1 65846:1 66138:1 66794:1 68502:1 68508:1 68729:1 69450:1 69563:1 69846:1 70017:1 70688:1 71165:1 71622:1 72294:1 73784:1 73854:1 74587:1 74969:1 75492:1 75696:1 76678:1 #
0.0032474064365311181012963004377525 28957:1 29065:1 29504:1 29904:1 30080:1 30102:1 30408:1 31299:1 31732:1 32333:1 32443:1 32664:1 33287:1 33349:1 33397:1 33692:1 33742:1 33816:1 34464:1 34698:1 35031:1 35433:1 37079:1 37372:1 37452:1 37538:1 37852:1 38423:1 38987:1 39812:1 39917:1 40640:1 40701:1 40832:1 41180:1 41432:1 41675:1 42351:1 43049:1 43559:1 43738:1 44521:1 45926:1 46753:1 47254:1 47332:1 48443:1 48746:1 50655:1 50661:1 50804:1 51043:1 51786:1 51990:1 52166:1 52708:1 52991:1 53148:1 53406:1 53613:1 53717:1 53924:1 54088:1 54469:1 55339:1 55373:1 55646:1 56814:1 56854:1 57197:1 58087:1 58169:1 58196:1 59080:1 59991:1 61125:1 61633:1 62190:1 62811:1 63764:1 64036:1 64217:1 64712:1 64790:1 68024:1 68502:1 68508:1 68729:1 69005:1 69192:1 69399:1 69846:1 70099:1 70688:1 71165:1 71622:1 72154:1 72770:1 73452:1 74341:1 74442:1 74682:1 74989:1 75859:1 #
-0.0032474064365311181012963004377525 28875:1 28957:1 29676:1 29709:1 29904:1 30080:1 30518:1 30584:1 31497:1 31655:1 32333:1 32443:1 33671:1 34084:1 34464:1 34620:1 35340:1 35405:1 36977:1 37632:1 37732:1 38460:1 38495:1 38624:1 39026:1 39573:1 39693:1 40297:1 40528:1 40640:1 41512:1 41618:1 41675:1 41678:1 43124:1 43393:1 43400:1 43738:1 45215:1 45485:1 46360:1 46598:1 46754:1 46963:1 49170:1 49186:1 49725:1 49767:1 50527:1 50580:1 50661:1 52101:1 52166:1 52587:1 53717:1 54088:1 54401:1 54644:1 54846:1 55895:1 57807:1 58926:1 59158:1 59706:1 59819:1 59991:1 60572:1 61125:1 61576:1 62307:1 63845:1 64212:1 64790:1 64963:1 65517:1 66794:1 68729:1 69211:1 69846:1 70017:1 70688:1 70810:1 71165:1 71309:1 71770:1 72277:1 72760:1 73522:1 74341:1 75492:1 75603:1 #
-0.0032474064365311181012963004377525 28509:1 28957:1 29065:1 29253:1 29904:1 30162:1 30216:1 30954:1 32443:1 32949:1 35187:1 35336:1 35453:1 36502:1 36540:1 36977:1 37301:1 37903:1 38460:1 38767:1 38987:1 40484:1 41652:1 41675:1 41806:1 42351:1 42437:1 42558:1 43197:1 43400:1 43559:1 43738:1 44238:1 45664:1 45868:1 46333:1 46753:1 46754:1 46768:1 47818:1 48416:1 49001:1 49170:1 50655:1 50661:1 51059:1 52795:1 53713:1 54633:1 56388:1 57700:1 57807:1 57980:1 58300:1 58740:1 58810:1 59340:1 61125:1 61384:1 64031:1 64790:1 65030:1 68364:1 68893:1 70017:1 70688:1 70986:1 71222:1 71344:1 71894:1 74146:1 74783:1 74856:1 75847:1 76571:1 #
